{"learner":{"attributes":{"best_iteration":"0","best_score":"0.7012809178521556","scikit_learn":"{\"_estimator_type\": \"classifier\"}"},"feature_names":[],"feature_types":[],"gradient_booster":{"model":{"gbtree_model_param":{"num_parallel_tree":"1","num_trees":"31"},"iteration_indptr":[0,1,2,3,4,5,6,7,8,9,10,11,12,13,14,15,16,17,18,19,20,21,22,23,24,25,26,27,28,29,30,31],"tree_info":[0,0,0,0,0,0,0,0,0,0,0,0,0,0,0,0,0,0,0,0,0,0,0,0,0,0,0,0,0,0,0],"trees":[{"base_weights":[1.6858103E-2,-1.3820521E0,8.9452606E-1,1.91121E-1,-1.4662862E0,-1.72E-1,9.358827E-1,9.509716E-1,-1.58E-1,-1.1424774E0,-1.7593699E0,6.9399494E-1,1.2276763E0,-1.3538462E-1,1.6661096E-1,-1.9353847E-1,-8.7796724E-1,-1.9700001E-1,-1.532808E0,4.5372966E-1,1.0468879E0,7.111111E-1,1.3094628E0,-1.3778822E0,-2.8547865E-1,7.571429E-1,-1.7318916E0,6.30201E-1,-9.4777834E-1,1.0929005E0,-1.16E-1,1.0646964E0,-1.5333334E-1,1.6754572E-1,1.2213426E0,1.5814434E-1,-1.6438662E-1,9.509716E-2,-6.603306E-2,1.4114566E-1,-1.0666668E-1,-1.9535911E-1,-1.2274194E-1,9.029326E-2,-3.3980083E-2,-1.3980581E-2,-1.7529412E-1,1.7238095E-1,8.995593E-2,1.5637884E-1,-3.944184E-3,-1.4400001E-1,1.2835088E-1],"categories":[],"categories_nodes":[],"categories_segments":[],"categories_sizes":[],"default_left":[0,0,0,0,0,0,0,0,0,0,0,0,0,0,0,0,0,0,0,0,0,0,0,0,0,0,0,0,0,0,0,0,0,0,0,0,0,0,0,0,0,0,0,0,0,0,0,0,0,0,0,0,0],"id":0,"left_children":[1,3,5,7,9,-1,11,13,-1,15,17,19,21,-1,-1,-1,23,-1,25,27,29,31,33,35,37,39,41,43,45,47,-1,49,-1,-1,51,-1,-1,-1,-1,-1,-1,-1,-1,-1,-1,-1,-1,-1,-1,-1,-1,-1,-1],"loss_changes":[9.218628E2,3.8762756E1,5.1424896E1,2.2345743E1,2.3789124E1,0E0,3.106543E1,2.129874E1,0E0,2.6044006E1,3.4200134E0,2.0675697E1,7.515259E0,0E0,0E0,0E0,2.9687828E1,0E0,3.481859E1,3.8009827E1,1.149958E1,2.5660563E1,3.3199768E0,4.5925392E1,2.2886164E1,9.317342E0,4.863205E0,3.6111618E1,1.0798848E1,1.030304E1,0E0,1.5002649E1,0E0,0E0,2.5863586E1,0E0,0E0,0E0,0E0,0E0,0E0,0E0,0E0,0E0,0E0,0E0,0E0,0E0,0E0,0E0,0E0,0E0,0E0],"parents":[2147483647,0,0,1,1,2,2,3,3,4,4,6,6,7,7,9,9,10,10,11,11,12,12,16,16,18,18,19,19,20,20,21,21,22,22,23,23,24,24,25,25,26,26,27,27,28,28,29,29,31,31,34,34],"right_children":[2,4,6,8,10,-1,12,14,-1,16,18,20,22,-1,-1,-1,24,-1,26,28,30,32,34,36,38,40,42,44,46,48,-1,50,-1,-1,52,-1,-1,-1,-1,-1,-1,-1,-1,-1,-1,-1,-1,-1,-1,-1,-1,-1,-1],"split_conditions":[4.699641E-3,-3.909385E-3,2.3087072E-3,3.7800677E-3,-8.512389E-5,-1.72E-1,6.796941E-3,3.2701113E-3,-1.58E-1,2.3695645E-3,2.0859407E-3,2.7417245E-3,5.965199E-3,-1.3538462E-1,1.6661096E-1,-1.9353847E-1,-8.9840003E-4,-1.9700001E-1,2.0894276E-3,1.1580468E-3,6.3946405E-3,5.6360015E-3,-6.937332E-3,2.379183E-3,-7.781995E-4,2.2659495E-3,1.6724034E-3,6.908866E-3,3.939828E-3,5.261814E-3,-1.16E-1,8.62641E-3,-1.5333334E-1,1.6754572E-1,-4.3749735E-3,1.5814434E-1,-1.6438662E-1,9.509716E-2,-6.603306E-2,1.4114566E-1,-1.0666668E-1,-1.9535911E-1,-1.2274194E-1,9.029326E-2,-3.3980083E-2,-1.3980581E-2,-1.7529412E-1,1.7238095E-1,8.995593E-2,1.5637884E-1,-3.944184E-3,-1.4400001E-1,1.2835088E-1],"split_indices":[1,2,0,1,2,0,0,0,0,1,0,2,1,0,0,0,2,0,0,2,0,1,2,1,2,1,2,1,0,1,0,0,0,0,2,0,0,0,0,0,0,0,0,0,0,0,0,0,0,0,0,0,0],"split_type":[0,0,0,0,0,0,0,0,0,0,0,0,0,0,0,0,0,0,0,0,0,0,0,0,0,0,0,0,0,0,0,0,0,0,0,0,0,0,0,0,0,0,0,0,0,0,0,0,0,0,0,0,0],"sum_hessian":[7.488707E2,2.8843967E2,4.6043103E2,1.4534483E1,2.7390518E2,6.5E0,4.5393103E2,1.0534483E1,4E0,1.326207E2,1.4128448E2,2.5022414E2,2.037069E2,2.25E0,8.284483E0,3.15E1,1.0112069E2,6.9E1,7.2284485E1,1.5039656E2,9.982759E1,2.9336208E1,1.743707E2,5.4034485E1,4.708621E1,5.5172415E0,6.676724E1,1.3412932E2,1.6267242E1,9.832759E1,1.5E0,2.5836208E1,3.5E0,3.012069E1,1.4425E2,4.0172415E0,5.0017242E1,1.0534483E1,3.6551723E1,4.2672415E0,1.25E0,4.425E1,2.2517242E1,1.0482759E2,2.9301723E1,8.7672415E0,7.5E0,2.1086208E1,7.724138E1,1.7568966E1,8.2672415E0,2.75E0,1.415E2],"tree_param":{"num_deleted":"0","num_feature":"4","num_nodes":"53","size_leaf_vector":"1"}},{"base_weights":[5.657557E-2,-1.3081886E0,7.6486415E-1,1.15437604E-1,-1.3566177E0,3.5775656E-1,1.0539227E0,-1.7971054E-1,-1.1899326E0,4.4517225E-1,-1.7463627E-1,1.5814514E0,9.4475114E-1,1.0478591E-1,-1.2542729E0,5.05793E-1,-1.6897668E-1,1.1508942E-1,1.7248745E-1,4.5830512E-1,1.1142714E0,-8.4516066E-1,-1.5319164E0,-1.5472351E-1,5.6774324E-1,-1.7011935E-1,6.5874755E-1,1.1415206E0,-1.2399607E-1,-1.1603965E-1,1.01813555E-1,-1.6550128E-1,-5.3902574E-2,4.251772E-2,1.1850482E-1,1.5724783E-1,2.5821432E-2,1.0251526E-1,1.5124527E-1],"categories":[],"categories_nodes":[],"categories_segments":[],"categories_sizes":[],"default_left":[0,0,0,0,0,0,0,0,0,0,0,0,0,0,0,0,0,0,0,0,0,0,0,0,0,0,0,0,0,0,0,0,0,0,0,0,0,0,0],"id":1,"left_children":[1,3,5,-1,7,9,11,-1,13,15,-1,17,19,-1,21,23,-1,-1,-1,25,27,29,31,-1,33,-1,35,37,-1,-1,-1,-1,-1,-1,-1,-1,-1,-1,-1],"loss_changes":[7.315571E2,3.2421844E1,5.8116272E1,0E0,1.6217377E1,3.900535E1,1.4996124E1,0E0,2.8323425E1,2.6758762E1,0E0,7.0414734E-1,1.9412643E1,0E0,1.9220612E1,2.5750996E1,0E0,0E0,0E0,2.9057404E1,1.2935486E1,4.5977932E1,1.20229645E1,0E0,1.6176025E1,0E0,2.138521E1,5.8892517E0,0E0,0E0,0E0,0E0,0E0,0E0,0E0,0E0,0E0,0E0,0E0],"parents":[2147483647,0,0,1,1,2,2,4,4,5,5,6,6,8,8,9,9,11,11,12,12,14,14,15,15,19,19,20,20,21,21,22,22,24,24,26,26,27,27],"right_children":[2,4,6,-1,8,10,12,-1,14,16,-1,18,20,-1,22,24,-1,-1,-1,26,28,30,32,-1,34,-1,36,38,-1,-1,-1,-1,-1,-1,-1,-1,-1,-1,-1],"split_conditions":[1.9822519E-5,-3.909385E-3,5.0892573E-5,1.15437604E-1,2.2509154E-3,4.4808737E-3,-6.937332E-3,-1.7971054E-1,2.4482301E-6,4.8336908E-5,-1.7463627E-1,-7.927149E-3,-5.4801756E-4,1.0478591E-1,-3.051113E-4,3.7436069E-3,-1.6897668E-1,1.1508942E-1,1.7248745E-1,6.7693084E-3,1.1132872E-2,-3.7134864E-4,4.1120057E-3,-1.5472351E-1,3.2849063E-3,-1.7011935E-1,6.908866E-3,8.623331E-3,-1.2399607E-1,-1.1603965E-1,1.01813555E-1,-1.6550128E-1,-5.3902574E-2,4.251772E-2,1.1850482E-1,1.5724783E-1,2.5821432E-2,1.0251526E-1,1.5124527E-1],"split_indices":[3,2,3,0,1,2,2,0,3,3,0,2,2,0,2,1,0,0,0,1,1,2,1,0,2,0,1,1,0,0,0,0,0,0,0,0,0,0,0],"split_type":[0,0,0,0,0,0,0,0,0,0,0,0,0,0,0,0,0,0,0,0,0,0,0,0,0,0,0,0,0,0,0,0,0,0,0,0,0,0,0],"sum_hessian":[7.548199E2,2.5755756E2,4.9726233E2,4.487207E0,2.5307034E2,2.0754347E2,2.8971884E2,6.662461E1,1.8644574E2,2.0006761E2,7.4758596E0,4.72071E1,2.4251175E2,4.7401495E0,1.8170558E2,1.9533118E2,4.736422E0,1.4225057E1,3.2982044E1,6.378147E1,1.7873029E2,7.5241E1,1.0646459E2,4.971936E0,1.9035925E2,4.739001E0,5.904247E1,1.7723643E2,1.4938391E0,6.47221E1,1.0518899E1,9.4038345E1,1.2426243E1,1.5614781E2,3.4211437E1,1.70259E1,4.201657E1,1.3798221E2,3.9254227E1],"tree_param":{"num_deleted":"0","num_feature":"4","num_nodes":"39","size_leaf_vector":"1"}},{"base_weights":[3.1588294E-2,-1.0612923E0,7.4394476E-1,-1.3421929E0,-4.7038957E-1,-5.761859E-1,8.1718457E-1,-9.340163E-1,-1.5854591E0,3.6696386E-1,-1.1529597E0,9.82778E-1,-1.8456224E-1,5.5311686E-1,1.0369687E0,-1.0905125E0,1.1247978E-1,-1.3711346E0,-1.7063963E-1,1.3776377E-1,-1.33538E-1,-1.7106013E-1,-2.790904E-1,-1.1952843E-1,1.516894E-1,6.895176E-1,8.939363E-3,-1.056897E-1,1.0535985E0,-1.6860734E-1,-5.6876796E-1,-1.6488445E-1,8.927263E-2,-1.5055786E-1,3.2130963E-1,-1.6444634E-1,7.1185935E-1,5.906713E-1,1.3794885E0,3.2610926E-1,-1.7311399E-1,1.3634778E0,9.387634E-1,8.415448E-2,-1.6942857E-1,-1.3427295E-1,7.098707E-2,1.6186246E-1,-1.3999753E-1,6.364351E-2,-1.459094E-1,1.5829337E-1,7.113651E-2,1.0800514E-1,-3.2698106E-2,1.4364181E-1,5.2645214E-2,1.7272385E-2,1.08396746E-1],"categories":[],"categories_nodes":[],"categories_segments":[],"categories_sizes":[],"default_left":[0,0,0,0,0,0,0,0,0,0,0,0,0,0,0,0,0,0,0,0,0,0,0,0,0,0,0,0,0,0,0,0,0,0,0,0,0,0,0,0,0,0,0,0,0,0,0,0,0,0,0,0,0,0,0,0,0,0,0],"id":2,"left_children":[1,3,5,7,9,11,13,15,17,19,21,23,-1,25,27,29,-1,31,-1,-1,33,-1,35,-1,-1,37,39,-1,41,-1,43,-1,-1,-1,45,-1,47,49,51,53,-1,55,57,-1,-1,-1,-1,-1,-1,-1,-1,-1,-1,-1,-1,-1,-1,-1,-1],"loss_changes":[5.667872E2,4.6867798E1,4.311415E1,1.7535248E1,5.434793E1,4.8771873E1,2.3533966E1,2.540393E1,4.628601E-1,2.2060177E1,2.476561E1,1.4929574E1,0E0,1.4195763E1,9.011978E0,2.0660156E1,0E0,3.214879E1,0E0,0E0,1.9077454E1,0E0,3.0492958E1,0E0,0E0,9.462387E0,2.2331966E1,0E0,6.517868E0,0E0,6.3530113E1,0E0,0E0,0E0,1.5763269E1,0E0,2.75139E1,1.362347E1,1.1413956E0,1.7399055E1,0E0,2.6223373E0,1.8379547E1,0E0,0E0,0E0,0E0,0E0,0E0,0E0,0E0,0E0,0E0,0E0,0E0,0E0,0E0,0E0,0E0],"parents":[2147483647,0,0,1,1,2,2,3,3,4,4,5,5,6,6,7,7,8,8,9,9,10,10,11,11,13,13,14,14,15,15,17,17,20,20,22,22,25,25,26,26,28,28,30,30,34,34,36,36,37,37,38,38,39,39,41,41,42,42],"right_children":[2,4,6,8,10,12,14,16,18,20,22,24,-1,26,28,30,-1,32,-1,-1,34,-1,36,-1,-1,38,40,-1,42,-1,44,-1,-1,-1,46,-1,48,50,52,54,-1,56,58,-1,-1,-1,-1,-1,-1,-1,-1,-1,-1,-1,-1,-1,-1,-1,-1],"split_conditions":[4.699641E-3,3.1746032E-3,3.0221625E-3,-3.4341565E-4,3.7052284E-3,4.872111E-3,6.2480476E-3,-3.7134864E-4,2.2659495E-3,-3.3038706E-3,4.1120057E-3,4.7976403E-3,-1.8456224E-1,6.908866E-3,4.872111E-3,1.7624251E-3,1.1247978E-1,2.2509154E-3,-1.7063963E-1,1.3776377E-1,3.3085195E-3,-1.7106013E-1,-6.0847384E-4,-1.1952843E-1,1.516894E-1,7.4525303E-3,5.5329064E-3,-1.056897E-1,-4.0781666E-3,-1.6860734E-1,2.0859407E-3,-1.6488445E-1,8.927263E-2,-1.5055786E-1,2.8033527E-3,-1.6444634E-1,3.849059E-4,6.0512125E-3,6.1659478E-3,-4.0781666E-3,-1.7311399E-1,1.0350268E-2,3.09818E-4,8.415448E-2,-1.6942857E-1,-1.3427295E-1,7.098707E-2,1.6186246E-1,-1.3999753E-1,6.364351E-2,-1.459094E-1,1.5829337E-1,7.113651E-2,1.0800514E-1,-3.2698106E-2,1.4364181E-1,5.2645214E-2,1.7272385E-2,1.08396746E-1],"split_indices":[1,0,0,2,0,1,0,2,1,2,1,1,0,1,1,0,0,1,0,0,0,0,2,0,0,2,0,0,2,0,0,0,0,0,1,0,2,2,1,2,0,1,2,0,0,0,0,0,0,0,0,0,0,0,0,0,0,0,0],"split_type":[0,0,0,0,0,0,0,0,0,0,0,0,0,0,0,0,0,0,0,0,0,0,0,0,0,0,0,0,0,0,0,0,0,0,0,0,0,0,0,0,0,0,0,0,0,0,0,0,0,0,0,0,0,0,0,0,0,0,0],"sum_hessian":[7.260577E2,2.8625766E2,4.3980002E2,1.9304716E2,9.321049E1,2.26845E1,4.171155E2,7.4049706E1,1.1899746E2,4.2000996E1,5.120949E1,1.0247201E1,1.2437298E1,1.9127402E2,2.2584149E2,6.930085E1,4.748858E0,4.767407E1,7.132339E1,1.3396484E1,2.8604511E1,3.0606594E1,2.0602898E1,1.7373583E0,8.509843E0,1.5257861E2,3.8695415E1,1.2392557E0,2.2460223E2,3.122961E1,3.807124E1,4.2746197E1,4.9278746E0,6.6013684E0,2.2003141E1,8.429627E0,1.2173271E1,1.3520932E2,1.7369282E1,3.346559E1,5.2298245E0,5.7552998E1,1.6704924E2,1.6970308E1,2.1100931E1,3.651659E0,1.8351482E1,8.713028E0,3.460243E0,1.3297868E2,2.230634E0,1.2150523E1,5.2187595E0,1.5301064E1,1.816453E1,5.2171124E1,5.3818727E0,2.7077454E1,1.3997179E2],"tree_param":{"num_deleted":"0","num_feature":"4","num_nodes":"59","size_leaf_vector":"1"}},{"base_weights":[-8.055974E-3,-1.1704782E0,5.8292675E-1,8.792757E-2,-1.2138106E0,-1.08665615E-1,7.8306484E-1,-9.070207E-1,-1.4077133E0,6.5902196E-2,-1.7788874E-1,5.428499E-1,9.940121E-1,-1.1308666E0,6.1222166E-1,-5.4494935E-1,-1.4865599E0,-9.6584797E-1,3.1816208E-1,6.399206E-1,-1.8117964E-1,7.8071344E-1,1.2178055E0,-6.51495E-1,-1.631378E-1,-1.0634033E-1,1.0084083E0,-1.428498E-1,1.0898285E-1,-1.5944488E-1,-8.929951E-1,4.8653126E-1,-1.6716538E-1,1.0540215E0,-2.6804164E-1,-1.1477466E-1,6.70534E-1,1.0383322E0,-4.7595128E-1,1.4742295E-1,1.1062086E0,-1.5606242E-1,7.781338E-2,1.469392E-1,5.2088838E-2,1.4518042E-1,-1.5509908E-1,-1.1444654E-1,1.4468844E-1,1.1865666E-1,-1.1823924E-1,-1.7478345E-1,2.8498447E-2,9.881002E-2,4.804667E-2,1.3667099E-1,8.327866E-2,8.004936E-2,-2.0191865E-1,-1.3857171E-1,1.2010745E-1],"categories":[],"categories_nodes":[],"categories_segments":[],"categories_sizes":[],"default_left":[0,0,0,0,0,0,0,0,0,0,0,0,0,0,0,0,0,0,0,0,0,0,0,0,0,0,0,0,0,0,0,0,0,0,0,0,0,0,0,0,0,0,0,0,0,0,0,0,0,0,0,0,0,0,0,0,0,0,0,0,0],"id":3,"left_children":[1,3,5,-1,7,9,11,13,15,17,-1,19,21,23,25,27,29,31,33,35,-1,37,39,41,-1,-1,43,-1,-1,-1,45,47,-1,49,51,-1,53,55,57,-1,59,-1,-1,-1,-1,-1,-1,-1,-1,-1,-1,-1,-1,-1,-1,-1,-1,-1,-1,-1,-1],"loss_changes":[4.9776538E2,2.2794617E1,6.662671E1,0E0,1.2748199E1,3.1939198E1,1.8192566E1,3.3331154E1,8.839203E0,2.6059042E1,0E0,4.1427124E1,8.253876E0,1.8845238E1,9.62855E0,2.1541798E1,6.7818604E0,2.1082521E1,3.510066E1,1.0051201E1,0E0,3.4183117E1,8.04718E-1,5.9305553E1,0E0,0E0,1.5059471E0,0E0,0E0,0E0,3.731777E1,1.2896243E1,0E0,1.207098E1,3.7918358E1,0E0,9.536049E0,4.4866867E0,3.777406E1,0E0,1.8161247E1,0E0,0E0,0E0,0E0,0E0,0E0,0E0,0E0,0E0,0E0,0E0,0E0,0E0,0E0,0E0,0E0,0E0,0E0,0E0,0E0],"parents":[2147483647,0,0,1,1,2,2,4,4,5,5,6,6,7,7,8,8,9,9,11,11,12,12,13,13,14,14,15,15,16,16,17,17,18,18,19,19,21,21,22,22,23,23,26,26,30,30,31,31,33,33,34,34,36,36,37,37,38,38,40,40],"right_children":[2,4,6,-1,8,10,12,14,16,18,-1,20,22,24,26,28,30,32,34,36,-1,38,40,42,-1,-1,44,-1,-1,-1,46,48,-1,50,52,-1,54,56,58,-1,60,-1,-1,-1,-1,-1,-1,-1,-1,-1,-1,-1,-1,-1,-1,-1,-1,-1,-1,-1,-1],"split_conditions":[1.9822519E-5,-3.909385E-3,3.5463545E-5,8.792757E-2,-3.051113E-4,3.3492062E-5,6.2480476E-3,-3.7134864E-4,2.4482301E-6,3.1746032E-3,-1.7788874E-1,1.2077172E-4,1.006091E-4,2.0859407E-3,3.4934317E-6,2.3831062E-6,3.6376864E-3,2.0836722E-5,3.939828E-3,2.3087072E-3,-1.8117964E-1,7.498005E-5,-6.937332E-3,1.7624251E-3,-1.631378E-1,-1.0634033E-1,1.234568E-3,-1.428498E-1,1.0898285E-1,-1.5944488E-1,3.7052284E-3,2.1050547E-3,-1.6716538E-1,3.0049301E-5,2.8159464E-5,-1.1477466E-1,3.773585E-3,7.306889E-3,-4.0781666E-3,1.4742295E-1,6.796941E-3,-1.5606242E-1,7.781338E-2,1.469392E-1,5.2088838E-2,1.4518042E-1,-1.5509908E-1,-1.1444654E-1,1.4468844E-1,1.1865666E-1,-1.1823924E-1,-1.7478345E-1,2.8498447E-2,9.881002E-2,4.804667E-2,1.3667099E-1,8.327866E-2,8.004936E-2,-2.0191865E-1,-1.3857171E-1,1.2010745E-1],"split_indices":[3,2,3,0,2,3,0,2,3,0,0,3,3,0,3,3,0,3,0,0,0,3,2,0,0,0,0,0,0,0,0,2,0,3,3,0,0,0,2,0,0,0,0,0,0,0,0,0,0,0,0,0,0,0,0,0,0,0,0,0,0],"split_type":[0,0,0,0,0,0,0,0,0,0,0,0,0,0,0,0,0,0,0,0,0,0,0,0,0,0,0,0,0,0,0,0,0,0,0,0,0,0,0,0,0,0,0,0,0,0,0,0,0,0,0,0,0,0,0,0,0,0,0,0,0],"sum_hessian":[7.225006E2,2.4324437E2,4.7925626E2,4.5886273E0,2.3865575E2,1.0755369E2,3.7170258E2,9.4822495E1,1.4383325E2,9.81916E1,9.362094E0,1.7568723E2,1.9601534E2,8.292565E1,1.1896849E1,1.2812679E1,1.3102057E2,1.865734E1,7.9534256E1,1.6947144E2,6.2157907E0,1.0288782E2,9.3127525E1,4.3635036E1,3.929061E1,1.9046891E0,9.99216E0,8.439003E0,4.373677E0,1.09299164E2,2.1721401E1,6.1569023E0,1.2500438E1,3.498733E1,4.4546925E1,2.1839113E0,1.6728752E2,8.559416E1,1.7293655E1,2.4265247E1,6.8862274E1,2.6659836E1,1.69752E1,3.9952462E0,5.996914E0,4.4621024E0,1.7259298E1,2.1721065E0,3.9847958E0,3.351514E1,1.472188E0,1.1580375E1,3.2966553E1,6.086647E1,1.0642105E2,3.0589294E1,5.5004868E1,9.692915E0,7.60074E0,1.9877273E0,6.687455E1],"tree_param":{"num_deleted":"0","num_feature":"4","num_nodes":"61","size_leaf_vector":"1"}},{"base_weights":[3.9770544E-2,-1.1811103E0,5.948888E-1,1.0885125E-1,-1.2279884E0,2.568785E-1,7.782216E-1,-1.3787026E0,-5.563533E-1,-7.643276E-1,4.5435885E-1,6.7623764E-1,1.1496041E-1,-7.864364E-1,-1.4376475E0,6.8204E-1,-1.0983006E0,-1.47784E-1,-1.7916499E-1,5.454808E-1,-1.5004389E-1,7.0925725E-1,-1.5632424E-1,-1.4064239E-1,8.2146004E-2,-1.5270096E-1,-9.932809E-1,-1.0910416E-1,1.1638682E0,-4.3555233E-1,-1.5504421E-1,-1.556388E-1,1.4330842E-1,8.620266E-1,1.7951882E-1,-1.1812514E-1,7.25521E-1,1.239872E-1,-1.4608698E-1,5.4358143E-2,1.7955935E-1,-1.4011784E-1,1.4745638E-1,2.7582312E-2,1.20010234E-1,-1.6552167E-1,2.9900393E-2,8.817325E-2,4.67568E-2],"categories":[],"categories_nodes":[],"categories_segments":[],"categories_sizes":[],"default_left":[0,0,0,0,0,0,0,0,0,0,0,0,0,0,0,0,0,0,0,0,0,0,0,0,0,0,0,0,0,0,0,0,0,0,0,0,0,0,0,0,0,0,0,0,0,0,0,0,0],"id":4,"left_children":[1,3,5,-1,7,9,11,13,15,17,19,21,-1,23,25,27,29,31,-1,33,-1,35,-1,-1,-1,-1,37,-1,39,41,-1,-1,-1,43,45,-1,47,-1,-1,-1,-1,-1,-1,-1,-1,-1,-1,-1,-1],"loss_changes":[4.8557462E2,2.5175354E1,3.022174E1,0E0,2.1299591E1,3.5589462E1,1.1110245E1,4.8893127E0,2.904669E1,1.7677319E1,2.6956093E1,1.9707176E1,0E0,1.9701866E1,4.6347656E0,1.2705038E1,8.03326E0,4.465236E1,0E0,1.6132591E1,0E0,8.489784E0,0E0,0E0,0E0,0E0,3.320961E1,0E0,3.1186152E0,2.7023746E1,0E0,0E0,0E0,1.4476391E1,1.5055037E1,0E0,9.456848E0,0E0,0E0,0E0,0E0,0E0,0E0,0E0,0E0,0E0,0E0,0E0,0E0],"parents":[2147483647,0,0,1,1,2,2,4,4,5,5,6,6,7,7,8,8,9,9,10,10,11,11,13,13,14,14,15,15,16,16,17,17,19,19,21,21,26,26,28,28,29,29,33,33,34,34,36,36],"right_children":[2,4,6,-1,8,10,12,14,16,18,20,22,-1,24,26,28,30,32,-1,34,-1,36,-1,-1,-1,-1,38,-1,40,42,-1,-1,-1,44,46,-1,48,-1,-1,-1,-1,-1,-1,-1,-1,-1,-1,-1,-1],"split_conditions":[1.9822519E-5,-3.909385E-3,4.5245986E-5,1.0885125E-1,3.808793E-3,-2.185953E-3,9.30145E-3,2.4482301E-6,1.1942705E-5,2.9599425E-5,4.4808737E-3,8.859445E-3,1.1496041E-1,2.3831062E-6,1.6724034E-3,-4.798416E-4,-7.781995E-4,2.9345672E-5,-1.7916499E-1,5.261814E-3,-1.5004389E-1,4.9366592E-3,-1.5632424E-1,-1.4064239E-1,8.2146004E-2,-1.5270096E-1,1.7133887E-3,-1.0910416E-1,1.1681382E-5,-8.9840003E-4,-1.5504421E-1,-1.556388E-1,1.4330842E-1,2.8159464E-5,5.319457E-3,-1.1812514E-1,6.908866E-3,1.239872E-1,-1.4608698E-1,5.4358143E-2,1.7955935E-1,-1.4011784E-1,1.4745638E-1,2.7582312E-2,1.20010234E-1,-1.6552167E-1,2.9900393E-2,8.817325E-2,4.67568E-2],"split_indices":[3,2,3,0,1,2,1,3,3,3,2,1,0,3,2,2,2,3,0,1,0,1,0,0,0,0,2,0,3,2,0,0,0,3,1,0,1,0,0,0,0,0,0,0,0,0,0,0,0],"split_type":[0,0,0,0,0,0,0,0,0,0,0,0,0,0,0,0,0,0,0,0,0,0,0,0,0,0,0,0,0,0,0,0,0,0,0,0,0,0,0,0,0,0,0,0,0,0,0,0,0],"sum_hessian":[7.1451843E2,2.2292593E2,4.9159253E2,4.01843E0,2.189075E2,1.7390704E2,3.176855E2,1.7780627E2,4.1101223E1,2.763334E1,1.4627371E2,2.5166644E2,6.6019035E1,1.7545992E1,1.6026028E2,1.2376624E1,2.87246E1,1.8044935E1,9.588407E0,1.4049663E2,5.777073E0,2.4872708E2,2.939361E0,1.2798517E1,4.747475E0,1.3121211E2,2.9048172E1,2.3301122E0,1.0046512E1,1.253512E1,1.618948E1,9.584014E0,8.460921E0,7.446122E1,6.603541E1,1.4580976E0,2.4726898E2,4.706232E0,2.434194E1,6.0877557E0,3.9587564E0,8.5377865E0,3.9973338E0,2.8008236E1,4.6452984E1,3.2005177E0,6.2834892E1,1.5225836E2,9.501061E1],"tree_param":{"num_deleted":"0","num_feature":"4","num_nodes":"49","size_leaf_vector":"1"}},{"base_weights":[-3.4387626E-2,-1.0604173E0,4.612931E-1,-1.4244391E-1,-8.729204E-1,-1.4870082E-1,5.073702E-1,2.2165142E-1,-1.0078776E0,3.2101133E-1,7.165971E-1,-1.17756866E-1,8.200017E-1,9.215964E-2,-1.0836909E0,3.867954E-1,-1.710733E-1,-1.4010969E-1,7.7493E-1,-1.0011872E-1,1.3444074E0,-1.14129245E-1,1.2405598E-1,-1.3042368E0,-7.24625E-1,1.5839611E-1,3.1433496E-1,9.996343E-1,5.931564E-1,1.750451E-1,-7.886291E-2,-1.4673163E-1,-6.746718E-3,1.3265713E-2,-1.4375469E-1,-8.9272335E-2,4.1250926E-2,7.685124E-2,1.1962469E-1,-1.617503E-1,6.857414E-2],"categories":[],"categories_nodes":[],"categories_segments":[],"categories_sizes":[],"default_left":[0,0,0,0,0,0,0,0,0,0,0,0,0,0,0,0,0,0,0,0,0,0,0,0,0,0,0,0,0,0,0,0,0,0,0,0,0,0,0,0,0],"id":5,"left_children":[1,3,5,-1,7,-1,9,11,13,15,17,-1,19,21,23,25,-1,-1,27,-1,29,-1,-1,31,33,-1,35,37,39,-1,-1,-1,-1,-1,-1,-1,-1,-1,-1,-1,-1],"loss_changes":[3.4875174E2,1.3773651E1,4.2155014E1,0E0,2.2490685E1,0E0,1.7305122E1,1.5351576E1,1.1372772E1,3.278469E1,2.7218033E1,0E0,1.3514567E1,1.4847201E1,8.790955E0,1.9665337E1,0E0,0E0,7.7050476E0,0E0,1.0427288E1,0E0,0E0,1.5142227E1,3.0989202E1,0E0,2.6694155E1,3.0142975E0,2.4997162E1,0E0,0E0,0E0,0E0,0E0,0E0,0E0,0E0,0E0,0E0,0E0,0E0],"parents":[2147483647,0,0,1,1,2,2,4,4,6,6,7,7,8,8,9,9,10,10,12,12,13,13,14,14,15,15,18,18,20,20,23,23,24,24,26,26,27,27,28,28],"right_children":[2,4,6,-1,8,-1,10,12,14,16,18,-1,20,22,24,26,-1,-1,28,-1,30,-1,-1,32,34,-1,36,38,40,-1,-1,-1,-1,-1,-1,-1,-1,-1,-1,-1,-1],"split_conditions":[1.9822519E-5,2.3695645E-3,2.357564E-3,-1.4244391E-1,2.4338805E-3,-1.4870082E-1,6.2480476E-3,4.9636496E-6,4.4168987E-6,1.1583298E-4,4.872111E-3,-1.17756866E-1,1.6528926E-3,4.33221E-6,3.2701113E-3,2.4291498E-3,-1.710733E-1,-1.4010969E-1,8.187967E-3,-1.0011872E-1,2.0859407E-3,-1.14129245E-1,1.2405598E-1,1.749507E-5,3.7052284E-3,1.5839611E-1,3.0221625E-3,7.3365383E-3,3.620652E-5,1.750451E-1,-7.886291E-2,-1.4673163E-1,-6.746718E-3,1.3265713E-2,-1.4375469E-1,-8.9272335E-2,4.1250926E-2,7.685124E-2,1.1962469E-1,-1.617503E-1,6.857414E-2],"split_indices":[3,1,0,0,1,0,0,3,3,3,1,0,0,3,0,0,0,0,0,0,0,0,0,3,0,0,0,1,3,0,0,0,0,0,0,0,0,0,0,0,0],"split_type":[0,0,0,0,0,0,0,0,0,0,0,0,0,0,0,0,0,0,0,0,0,0,0,0,0,0,0,0,0,0,0,0,0,0,0,0,0,0,0,0,0],"sum_hessian":[6.8365234E2,2.2238696E2,4.612654E2,7.317962E1,1.4920735E2,9.884201E0,4.513812E2,1.6225649E1,1.329817E2,2.403305E2,2.1105069E2,4.520193E0,1.1705456E1,8.475091E0,1.2450661E2,2.3362502E2,6.705499E0,4.994626E0,2.0605606E2,2.3710945E0,9.334362E0,4.04723E0,4.4278607E0,7.532784E1,4.9178764E1,1.20642395E1,2.2156078E2,8.9888504E1,1.16167564E2,8.031696E0,1.3026652E0,6.631618E1,9.0116625E0,2.2634562E1,2.6544203E1,1.5979546E1,2.0558122E2,4.380833E1,4.6080173E1,3.964172E0,1.1220339E2],"tree_param":{"num_deleted":"0","num_feature":"4","num_nodes":"41","size_leaf_vector":"1"}},{"base_weights":[-8.609451E-3,-9.0159744E-1,4.352199E-1,-9.5390356E-1,8.013092E-1,-1.3932946E-1,4.774347E-1,-6.136811E-1,-1.1900457E0,1.7613094E-1,-9.604266E-2,2.0267984E-1,6.628298E-1,-8.0849135E-1,6.750003E-1,-3.4923765E-1,-1.2719874E0,3.5489923E-1,-1.1960075E0,5.074155E-1,9.956239E-1,6.362642E-2,-9.084266E-1,-8.955804E-2,1.0229752E0,-1.2111012E-1,9.433626E-2,-1.383693E-1,-6.935205E-1,4.3296823E-1,-1.4844474E-1,-1.9359714E-1,4.8958477E-1,5.774256E-1,-2.0085691E-1,8.552555E-1,1.3799657E-1,-4.7697287E-2,-1.3982575E-1,1.388792E-1,5.8436215E-2,1.3775773E-1,-1.322403E-1,4.9449515E-2,-1.6073863E-1,1.19864695E-1,-1.0339065E-1,1.1214608E-1,4.5561504E-2,1.0983485E-1,-1.3720462E-2],"categories":[],"categories_nodes":[],"categories_segments":[],"categories_sizes":[],"default_left":[0,0,0,0,0,0,0,0,0,0,0,0,0,0,0,0,0,0,0,0,0,0,0,0,0,0,0,0,0,0,0,0,0,0,0,0,0,0,0,0,0,0,0,0,0,0,0,0,0,0,0],"id":6,"left_children":[1,3,5,7,9,-1,11,13,15,-1,-1,17,19,21,23,25,27,29,31,33,35,-1,37,-1,39,-1,-1,-1,41,43,-1,-1,45,47,-1,49,-1,-1,-1,-1,-1,-1,-1,-1,-1,-1,-1,-1,-1,-1,-1],"loss_changes":[2.6422687E2,2.0497803E1,3.4938515E1,1.6385788E1,1.3751754E1,0E0,2.198555E1,2.3264935E1,8.064026E0,0E0,0E0,3.808929E1,1.2773674E1,1.20243225E1,7.6809635E0,1.5275387E1,6.2108917E0,2.3618591E1,2.3002542E1,3.2588055E1,2.9883118E0,0E0,1.4879646E1,0E0,6.971693E-1,0E0,0E0,0E0,2.868681E1,2.014397E1,0E0,0E0,7.8624463E0,1.0941631E1,0E0,1.5314125E1,0E0,0E0,0E0,0E0,0E0,0E0,0E0,0E0,0E0,0E0,0E0,0E0,0E0,0E0,0E0],"parents":[2147483647,0,0,1,1,2,2,3,3,4,4,6,6,7,7,8,8,11,11,12,12,13,13,14,14,15,15,16,16,17,17,18,18,19,19,20,20,22,22,24,24,28,28,29,29,32,32,33,33,35,35],"right_children":[2,4,6,8,10,-1,12,14,16,-1,-1,18,20,22,24,26,28,30,32,34,36,-1,38,-1,40,-1,-1,-1,42,44,-1,-1,46,48,-1,50,-1,-1,-1,-1,-1,-1,-1,-1,-1,-1,-1,-1,-1,-1,-1],"split_conditions":[1.9822519E-5,8.264462E-3,2.357564E-3,-3.051113E-4,8.454106E-3,-1.3932946E-1,5.0892573E-5,-3.7134864E-4,2.4482301E-6,1.7613094E-1,-9.604266E-2,7.5702956E-3,9.89749E-3,-3.909385E-3,3.4182317E-6,2.3831062E-6,3.6376864E-3,4.4808737E-3,3.758926E-3,8.810572E-3,1.9393511E-2,6.362642E-2,2.0859407E-3,-8.955804E-2,4.4168987E-6,-1.2111012E-1,9.433626E-2,-1.383693E-1,3.7052284E-3,4.8336908E-5,-1.4844474E-1,-1.9359714E-1,3.8395934E-3,5.4119264E-5,-2.0085691E-1,1.2600229E-2,1.3799657E-1,-4.7697287E-2,-1.3982575E-1,1.388792E-1,5.8436215E-2,1.3775773E-1,-1.322403E-1,4.9449515E-2,-1.6073863E-1,1.19864695E-1,-1.0339065E-1,1.1214608E-1,4.5561504E-2,1.0983485E-1,-1.3720462E-2],"split_indices":[3,0,0,2,0,0,3,2,3,0,0,0,0,2,3,3,0,2,2,0,0,0,0,0,3,0,0,0,0,3,0,0,2,3,0,0,0,0,0,0,0,0,0,0,0,0,0,0,0,0,0],"split_type":[0,0,0,0,0,0,0,0,0,0,0,0,0,0,0,0,0,0,0,0,0,0,0,0,0,0,0,0,0,0,0,0,0,0,0,0,0,0,0,0,0,0,0,0,0,0,0,0,0,0,0],"sum_hessian":[6.645691E2,2.203723E2,4.441968E2,2.142888E2,6.083483E0,9.248047E0,4.3494876E2,8.944416E1,1.2484465E2,3.9746387E0,2.1088445E0,1.7630222E2,2.5864655E2,7.808956E1,1.1354596E1,1.1662062E1,1.1318259E2,1.5973589E2,1.6566328E1,1.7823586E2,8.041069E1,4.640135E0,7.344943E1,1.7218733E0,9.632723E0,7.081058E0,4.5810037E0,9.355219E1,1.9630394E1,1.5401775E2,5.718136E0,1.1450443E1,5.1158843E0,1.7419882E2,4.037035E0,6.1452568E1,1.8958124E1,4.020973E1,3.3239704E1,3.9467206E0,5.6860023E0,4.2579994E0,1.5372394E1,1.5029234E2,3.725413E0,3.6813674E0,1.4345169E0,3.0216608E1,1.4398221E2,4.9357113E1,1.2095452E1],"tree_param":{"num_deleted":"0","num_feature":"4","num_nodes":"51","size_leaf_vector":"1"}},{"base_weights":[4.057282E-2,-9.9685216E-1,4.7610366E-1,-6.77342E-1,-1.2309897E0,-6.949345E-1,5.472131E-1,-8.7854487E-1,5.9350187E-1,-1.3338006E-1,-6.5143293E-1,-1.5007403E-2,-1.6281107E-1,3.7429595E-1,7.7971363E-1,-4.4732144E-1,-1.3605998E-1,-9.0193905E-2,9.5577717E-1,1.11617185E-1,-1.2687896E-1,-1.3177489E-1,1.3467282E-1,8.211989E-1,1.8918976E-1,-8.4297605E-2,8.5501325E-1,-1.3298298E-1,8.6271644E-1,1.3029154E-1,5.4422045E-1,1.4838924E0,6.61118E-1,-1.8779685E-1,3.3157992E-1,1.09258436E-1,-1.6391434E-1,-1.1511039E-1,8.7921846E-1,-9.3805864E-2,1.0920652E-1,-9.7211204E-2,1.0850569E-1,7.924899E-2,1.7671733E-1,8.019942E-2,-1.629575E-1,-1.5494928E-1,4.328303E-2,1.20258786E-1,7.622354E-2],"categories":[],"categories_nodes":[],"categories_segments":[],"categories_sizes":[],"default_left":[0,0,0,0,0,0,0,0,0,0,0,0,0,0,0,0,0,0,0,0,0,0,0,0,0,0,0,0,0,0,0,0,0,0,0,0,0,0,0,0,0,0,0,0,0,0,0,0,0,0,0],"id":7,"left_children":[1,3,5,7,9,11,13,15,17,-1,19,21,-1,23,25,27,-1,-1,29,-1,-1,-1,-1,31,33,35,37,-1,39,-1,41,43,45,-1,47,-1,-1,-1,49,-1,-1,-1,-1,-1,-1,-1,-1,-1,-1,-1,-1],"loss_changes":[3.050758E2,1.3909195E1,3.9972862E1,2.275098E1,5.713333E0,1.7316265E1,1.7646072E1,1.4890289E1,7.583329E0,0E0,2.2434784E1,3.1985416E1,0E0,2.122657E1,1.2533737E1,4.907231E1,0E0,0E0,6.0893345E-1,0E0,0E0,0E0,0E0,6.824753E0,5.49481E1,3.12401E1,9.496872E0,0E0,8.155822E0,0E0,6.529296E0,1.0433903E0,2.1495888E1,0E0,3.370992E1,0E0,0E0,0E0,5.4622498E0,0E0,0E0,0E0,0E0,0E0,0E0,0E0,0E0,0E0,0E0,0E0,0E0],"parents":[2147483647,0,0,1,1,2,2,3,3,4,4,5,5,6,6,7,7,8,8,10,10,11,11,13,13,14,14,15,15,18,18,23,23,24,24,25,25,26,26,28,28,30,30,31,31,32,32,34,34,38,38],"right_children":[2,4,6,8,10,12,14,16,18,-1,20,22,-1,24,26,28,-1,-1,30,-1,-1,-1,-1,32,34,36,38,-1,40,-1,42,44,46,-1,48,-1,-1,-1,50,-1,-1,-1,-1,-1,-1,-1,-1,-1,-1,-1,-1],"split_conditions":[1.9822519E-5,-3.051113E-4,2.9711374E-3,-3.7134864E-4,3.6376864E-3,2.4291498E-3,3.0062613E-3,2.0859407E-3,3.4934317E-6,-1.3338006E-1,3.7052284E-3,2.357564E-3,-1.6281107E-1,3.939828E-3,3.6731424E-5,1.7624251E-3,-1.3605998E-1,-9.0193905E-2,1.234568E-3,1.11617185E-1,-1.2687896E-1,-1.3177489E-1,1.3467282E-1,2.1428514E-5,4.5489008E-3,3.6231885E-3,3.4482758E-3,-1.3298298E-1,-1.7516069E-3,1.3029154E-1,-3.2426274E-4,3.815176E-3,3.773585E-3,-1.8779685E-1,2.8159464E-5,1.09258436E-1,-1.6391434E-1,-1.1511039E-1,4.5489008E-3,-9.3805864E-2,1.0920652E-1,-9.7211204E-2,1.0850569E-1,7.924899E-2,1.7671733E-1,8.019942E-2,-1.629575E-1,-1.5494928E-1,4.328303E-2,1.20258786E-1,7.622354E-2],"split_indices":[3,2,0,2,0,0,2,0,3,0,0,0,0,0,3,0,0,0,0,0,0,0,0,3,0,0,0,0,2,0,2,0,0,0,3,0,0,0,0,0,0,0,0,0,0,0,0,0,0,0,0],"split_type":[0,0,0,0,0,0,0,0,0,0,0,0,0,0,0,0,0,0,0,0,0,0,0,0,0,0,0,0,0,0,0,0,0,0,0,0,0,0,0,0,0,0,0,0,0,0,0,0,0,0,0],"sum_hessian":[6.7326447E2,1.9862518E2,4.7463928E2,8.58255E1,1.1279968E2,2.6589031E1,4.4805026E2,7.44291E1,1.1396405E1,9.4552505E1,1.8247173E1,1.603148E1,1.055755E1,2.5869302E2,1.8935722E2,4.0412968E1,3.401613E1,1.8780977E0,9.518308E0,4.472273E0,1.3774901E1,8.247256E0,7.7842245E0,7.46027E1,1.8409033E2,1.5063733E1,1.7429349E2,2.4183174E1,1.6229794E1,3.8565762E0,5.6617312E0,1.278437E1,6.1818333E1,1.1032605E1,1.7305772E2,8.7065935E0,6.3571396E0,1.473612E0,1.7281987E2,1.4351704E0,1.4794624E1,1.230232E0,4.431499E0,4.921943E0,7.862427E0,5.8890167E1,2.928164E0,8.058182E0,1.6499954E2,4.321856E1,1.2960132E2],"tree_param":{"num_deleted":"0","num_feature":"4","num_nodes":"51","size_leaf_vector":"1"}},{"base_weights":[-1.7049434E-2,-8.395393E-1,4.329975E-1,-1.0491387E0,-1.5515055E-1,3.0374408E-1,8.9712054E-1,-9.415966E-1,-1.3521867E-1,9.65413E-1,-6.480259E-1,8.6336486E-2,5.250624E-1,-1.21425666E-1,9.41068E-1,-1.0203271E0,1.0303561E-1,1.2308749E0,-8.753756E-2,-1.1058216E0,4.59981E-1,8.652322E-1,-2.0068175E-1,6.051246E-1,-2.9262024E-1,9.7634935E-1,2.896241E-1,-3.5366806E-1,-1.1825795E0,7.304418E-1,1.497233E-1,-1.5138154E-1,1.9089907E-1,1.0346255E0,-1.2530732E-1,9.912691E-1,-1.2403864E-1,1.6307507E-1,-1.2501768E0,2.5300443E-1,9.0929043E-1,4.5134956E-1,-1.9452988E-1,8.583279E-1,1.2508982E-1,-1.5701635E-1,1.19496964E-1,-7.040849E-2,9.19713E-2,-1.298625E-1,-4.283374E-2,-9.2871256E-2,1.7157233E-1,9.589842E-2,-1.1343993E-1,-7.089858E-2,1.3536201E-1,1.1000998E-1,-1.16591536E-1,2.6171166E-2,-1.6801241E-1,-2.0435064E-1,8.187386E-2,4.388978E-2,-1.7794518E-1,1.2560199E-1,6.485428E-2,-1.3840547E-1,8.850296E-2,9.528037E-2,-1.5365283E-1],"categories":[],"categories_nodes":[],"categories_segments":[],"categories_sizes":[],"default_left":[0,0,0,0,0,0,0,0,0,0,0,0,0,0,0,0,0,0,0,0,0,0,0,0,0,0,0,0,0,0,0,0,0,0,0,0,0,0,0,0,0,0,0,0,0,0,0,0,0,0,0,0,0,0,0,0,0,0,0,0,0,0,0,0,0,0,0,0,0,0,0],"id":8,"left_children":[1,3,5,7,9,11,13,15,-1,17,19,21,23,-1,25,27,-1,29,-1,31,33,35,37,39,41,43,45,47,49,51,-1,-1,53,55,-1,57,-1,59,61,63,65,67,-1,69,-1,-1,-1,-1,-1,-1,-1,-1,-1,-1,-1,-1,-1,-1,-1,-1,-1,-1,-1,-1,-1,-1,-1,-1,-1,-1,-1],"loss_changes":[2.3443788E2,3.1852158E1,2.4156914E1,4.0773315E0,3.0312096E1,1.537586E1,9.323639E0,2.121856E1,0E0,9.311304E0,1.9864227E1,3.6846107E1,1.0619026E1,0E0,1.5963593E0,1.2999832E1,0E0,6.997566E-1,0E0,1.484837E1,1.2852706E1,1.2980652E1,4.6265213E1,1.521373E1,1.9156788E1,1.3794174E0,1.2026838E1,1.227529E1,8.055466E0,1.3666437E1,0E0,0E0,8.558169E0,6.2517242E0,0E0,1.1246109E1,0E0,1.66972E1,5.295296E1,2.666763E1,5.9935455E0,9.88117E0,0E0,1.519368E1,0E0,0E0,0E0,0E0,0E0,0E0,0E0,0E0,0E0,0E0,0E0,0E0,0E0,0E0,0E0,0E0,0E0,0E0,0E0,0E0,0E0,0E0,0E0,0E0,0E0,0E0,0E0],"parents":[2147483647,0,0,1,1,2,2,3,3,4,4,5,5,6,6,7,7,9,9,10,10,11,11,12,12,14,14,15,15,17,17,19,19,20,20,21,21,22,22,23,23,24,24,25,25,26,26,27,27,28,28,29,29,32,32,33,33,35,35,37,37,38,38,39,39,40,40,41,41,43,43],"right_children":[2,4,6,8,10,12,14,16,-1,18,20,22,24,-1,26,28,-1,30,-1,32,34,36,38,40,42,44,46,48,50,52,-1,-1,54,56,-1,58,-1,60,62,64,66,68,-1,70,-1,-1,-1,-1,-1,-1,-1,-1,-1,-1,-1,-1,-1,-1,-1,-1,-1,-1,-1,-1,-1,-1,-1,-1,-1,-1,-1],"split_conditions":[2.755692E-5,4.1120057E-3,8.51102E-3,1.0580828E-5,4.2299535E-3,2.2656396E-3,6.0807557E-5,1.0472626E-5,-1.3521867E-1,3.849059E-4,1.8507468E-3,3.0884457E-5,7.429284E-3,-1.21425666E-1,1.0970983E-2,-8.707423E-4,1.0303561E-1,4.2013144E-3,-8.753756E-2,5.460862E-3,2.0836722E-5,1.1580468E-3,-1.1125071E-3,6.00387E-3,8.5528055E-3,5.6112967E-3,1.1753486E-2,-8.9840003E-4,8.725744E-6,1.1078892E-4,1.497233E-1,-1.5138154E-1,5.499179E-3,1.958134E-5,-1.2530732E-1,6.389595E-3,-1.2403864E-1,9.386705E-5,7.843632E-3,5.721095E-3,4.3829554E-3,7.843632E-3,-1.9452988E-1,3.4105622E-3,1.2508982E-1,-1.5701635E-1,1.19496964E-1,-7.040849E-2,9.19713E-2,-1.298625E-1,-4.283374E-2,-9.2871256E-2,1.7157233E-1,9.589842E-2,-1.1343993E-1,-7.089858E-2,1.3536201E-1,1.1000998E-1,-1.16591536E-1,2.6171166E-2,-1.6801241E-1,-2.0435064E-1,8.187386E-2,4.388978E-2,-1.7794518E-1,1.2560199E-1,6.485428E-2,-1.3840547E-1,8.850296E-2,9.528037E-2,-1.5365283E-1],"split_indices":[3,1,1,3,1,2,3,3,0,2,2,3,1,0,2,2,0,1,0,1,3,2,2,1,2,2,1,2,3,2,0,0,1,3,0,1,0,3,1,1,2,1,0,2,0,0,0,0,0,0,0,0,0,0,0,0,0,0,0,0,0,0,0,0,0,0,0,0,0,0,0],"split_type":[0,0,0,0,0,0,0,0,0,0,0,0,0,0,0,0,0,0,0,0,0,0,0,0,0,0,0,0,0,0,0,0,0,0,0,0,0,0,0,0,0,0,0,0,0,0,0,0,0,0,0,0,0,0,0,0,0,0,0,0,0,0,0,0,0,0,0,0,0,0,0],"sum_hessian":[6.3125183E2,2.2302182E2,4.0823004E2,1.7021352E2,5.2808296E1,3.207691E2,8.746092E1,1.2890598E2,4.130754E1,1.5777089E1,3.7031208E1,1.6274335E2,1.5802576E2,1.1939625E0,8.626696E1,1.244698E2,4.4361815E0,1.41256695E1,1.6514188E0,2.6269604E1,1.0761602E1,4.3373196E1,1.19370155E2,1.4428094E2,1.3744818E1,8.121615E1,5.0508137E0,2.5106958E1,9.936284E1,6.337171E0,7.788499E0,1.9913742E1,6.3558617E0,8.398674E0,2.3629282E0,4.1467762E1,1.9054334E0,8.920194E1,3.0168217E1,6.787057E1,7.641038E1,9.937667E0,3.8071504E0,5.9940037E1,2.1276112E1,1.3771179E0,3.673696E0,2.0101036E1,5.0059214E0,8.5373215E1,1.3989623E1,2.3447218E0,3.9924495E0,4.246583E0,2.1092784E0,1.0613465E0,7.337328E0,3.99868E1,1.4809624E0,8.553681E1,3.6651337E0,2.1850294E1,8.317923E0,6.2946575E1,4.923989E0,3.0994678E1,4.54157E1,1.4364355E0,8.501232E0,5.828464E1,1.6553953E0],"tree_param":{"num_deleted":"0","num_feature":"4","num_nodes":"71","size_leaf_vector":"1"}},{"base_weights":[6.021184E-2,-7.761813E-1,4.0217498E-1,-1.2577945E-1,-5.158151E-1,-6.6879153E-1,4.7573853E-1,3.0220947E-1,-7.758515E-1,-1.403256E-1,2.7339363E-1,3.6010984E-1,8.079911E-1,7.024866E-1,-1.0699047E-1,-8.9647835E-1,1.0139166E0,1.2245329E-1,-1.336635E-1,4.5659894E-1,-1.329699E0,1.0108304E-1,9.6549004E-1,2.6330447E-1,1.2911114E-1,1.01260364E-1,-1.0102438E0,1.570192E-1,-6.6032484E-2,9.303883E-1,3.6095163E-1,9.144085E-2,-2.1486528E-1,1.0589197E0,-1.673544E-1,1.0258237E0,6.4919776E-1,9.042322E-2,-1.1874195E-1,-1.1228758E-1,-4.1200124E-2,-9.2090756E-2,1.0049211E-1,-1.1550487E-2,4.7788635E-2,1.3703321E-1,-1.1687856E-1,8.626284E-2,1.1948073E-1,-1.7759234E-1,1.0641652E-1],"categories":[],"categories_nodes":[],"categories_segments":[],"categories_sizes":[],"default_left":[0,0,0,0,0,0,0,0,0,0,0,0,0,0,0,0,0,0,0,0,0,0,0,0,0,0,0,0,0,0,0,0,0,0,0,0,0,0,0,0,0,0,0,0,0,0,0,0,0,0,0],"id":9,"left_children":[1,3,5,-1,7,9,11,13,15,-1,17,19,21,23,-1,25,27,-1,-1,29,31,33,35,37,-1,-1,39,-1,-1,41,43,-1,-1,45,-1,47,49,-1,-1,-1,-1,-1,-1,-1,-1,-1,-1,-1,-1,-1,-1],"loss_changes":[1.8071472E2,2.2163727E1,3.5636368E1,0E0,2.5985088E1,2.067366E1,1.5742294E1,1.7066889E1,2.0772564E1,0E0,2.2375307E1,5.1696976E1,1.1764626E1,5.633708E0,0E0,1.9881332E1,6.9299245E0,0E0,0E0,1.3026875E1,3.361434E1,3.7100273E1,8.3976746E-1,1.4928956E1,0E0,0E0,4.9426575E0,0E0,0E0,7.722374E0,1.3993538E1,0E0,0E0,1.1452502E1,0E0,7.393799E-1,1.8962175E1,0E0,0E0,0E0,0E0,0E0,0E0,0E0,0E0,0E0,0E0,0E0,0E0,0E0,0E0],"parents":[2147483647,0,0,1,1,2,2,4,4,5,5,6,6,7,7,8,8,10,10,11,11,12,12,13,13,15,15,16,16,19,19,20,20,21,21,22,22,23,23,26,26,29,29,30,30,33,33,35,35,36,36],"right_children":[2,4,6,-1,8,10,12,14,16,-1,18,20,22,24,-1,26,28,-1,-1,30,32,34,36,38,-1,-1,40,-1,-1,42,44,-1,-1,46,-1,48,50,-1,-1,-1,-1,-1,-1,-1,-1,-1,-1,-1,-1,-1,-1],"split_conditions":[1.9822519E-5,1.7624251E-3,2.9711374E-3,-1.2577945E-1,2.0894276E-3,2.36228E-3,1.0394215E-4,4.393482E-4,8.264462E-3,-1.403256E-1,2.8699425E-3,8.221456E-5,6.3060075E-3,2.07555E-3,-1.0699047E-1,-3.909385E-3,8.454106E-3,1.2245329E-1,-1.336635E-1,-4.0781666E-3,-5.926553E-3,1.2077172E-4,1.2600229E-2,1.9646366E-3,1.2911114E-1,1.01260364E-1,1.6724034E-3,1.570192E-1,-6.6032484E-2,2.755692E-5,-1.214386E-3,9.144085E-2,-2.1486528E-1,4.5489008E-3,-1.673544E-1,9.89749E-3,1.5495496E-2,9.042322E-2,-1.1874195E-1,-1.1228758E-1,-4.1200124E-2,-9.2090756E-2,1.0049211E-1,-1.1550487E-2,4.7788635E-2,1.3703321E-1,-1.1687856E-1,8.626284E-2,1.1948073E-1,-1.7759234E-1,1.0641652E-1],"split_indices":[3,0,0,0,0,2,3,2,0,0,2,3,0,0,0,2,0,0,0,2,2,3,0,0,0,0,2,0,0,3,2,0,0,0,0,0,0,0,0,0,0,0,0,0,0,0,0,0,0,0,0],"split_type":[0,0,0,0,0,0,0,0,0,0,0,0,0,0,0,0,0,0,0,0,0,0,0,0,0,0,0,0,0,0,0,0,0,0,0,0,0,0,0,0,0,0,0,0,0,0,0,0,0,0,0],"sum_hessian":[6.298745E2,1.8233846E2,4.4753607E2,6.2504894E1,1.1983356E2,2.81575E1,4.1937857E2,2.8772879E1,9.106068E1,1.5607618E1,1.2549882E1,3.128775E2,1.06501076E2,2.270904E1,6.06384E0,8.583083E1,5.229848E0,8.078801E0,4.471081E0,2.967234E2,1.6154112E1,1.981982E1,8.668125E1,1.3931637E1,8.777403E0,4.333369E0,8.149746E1,4.017041E0,1.2128068E0,4.81986E1,2.4852478E2,4.2552247E0,1.1898887E1,1.3170713E1,6.649106E0,7.064589E1,1.6035362E1,9.971762E0,3.9598756E0,6.770621E1,1.3791259E1,1.3739555E0,4.6824646E1,4.8808613E1,1.9971617E2,1.1932428E1,1.2382852E0,3.934507E1,3.1300823E1,1.8285339E0,1.4206829E1],"tree_param":{"num_deleted":"0","num_feature":"4","num_nodes":"51","size_leaf_vector":"1"}},{"base_weights":[3.9547727E-2,-8.001383E-1,3.7653708E-1,-5.68777E-1,-1.2274239E-1,1.797457E-1,6.034572E-1,-7.319077E-1,1.0096712E0,9.8394644E-1,2.6422707E-2,-1.1743852E-1,6.426083E-1,7.2253734E-2,-8.093034E-1,5.972474E-1,1.3432194E-1,5.7596016E-1,1.13999784E-1,1.414883E-1,-8.6974216E-1,1.0800116E0,5.506794E-1,-6.1199E-1,-1.2645574E-1,1.262865E-1,-7.641207E-2,8.553577E-2,2.570368E-3,4.5656897E-3,9.700037E-1,-1.8326876E-1,-3.3406097E-2,3.672095E-1,1.2273277E0,-2.5946298E-1,7.090951E-1,-1.2031262E-1,-2.4295706E-2,2.3100162E-2,-1.4193968E-1,1.0804069E-1,3.7452936E-2,4.7442634E-2,-1.679299E-1,1.1707415E-1,-1.07324E-1,1.3457933E-1,4.7937345E-2,-1.6174667E-1,1.1212702E-2,-0E0,7.455019E-2],"categories":[],"categories_nodes":[],"categories_segments":[],"categories_sizes":[],"default_left":[0,0,0,0,0,0,0,0,0,0,0,0,0,0,0,0,0,0,0,0,0,0,0,0,0,0,0,0,0,0,0,0,0,0,0,0,0,0,0,0,0,0,0,0,0,0,0,0,0,0,0,0,0],"id":10,"left_children":[1,3,5,7,-1,9,11,13,15,17,19,-1,21,-1,23,25,-1,27,-1,29,31,33,35,37,-1,-1,-1,-1,-1,39,41,-1,43,45,47,49,51,-1,-1,-1,-1,-1,-1,-1,-1,-1,-1,-1,-1,-1,-1,-1,-1],"loss_changes":[1.7115422E2,1.624427E1,1.9093182E1,3.0162106E1,0E0,2.8587982E1,1.4612785E1,1.2334175E1,5.2739334E-1,1.5375557E0,2.0336027E1,0E0,7.1336975E0,0E0,7.982277E0,7.2556973E0,0E0,1.808423E0,0E0,1.9784435E1,1.7812744E1,2.8398323E0,2.1328262E1,1.5172098E1,0E0,0E0,0E0,0E0,0E0,4.9072773E1,1.0772038E0,0E0,1.1846682E1,9.565534E0,1.5367584E0,1.4218186E1,3.5837784E0,0E0,0E0,0E0,0E0,0E0,0E0,0E0,0E0,0E0,0E0,0E0,0E0,0E0,0E0,0E0,0E0],"parents":[2147483647,0,0,1,1,2,2,3,3,5,5,6,6,7,7,8,8,9,9,10,10,12,12,14,14,15,15,17,17,19,19,20,20,21,21,22,22,23,23,29,29,30,30,32,32,33,33,34,34,35,35,36,36],"right_children":[2,4,6,8,-1,10,12,14,16,18,20,-1,22,-1,24,26,-1,28,-1,30,32,34,36,38,-1,-1,-1,-1,-1,40,42,-1,44,46,48,50,52,-1,-1,-1,-1,-1,-1,-1,-1,-1,-1,-1,-1,-1,-1,-1,-1],"split_conditions":[1.9822519E-5,4.393482E-4,2.4634514E-3,3.7056784E-4,-1.2274239E-1,-6.937332E-3,4.1659293E-3,-3.909385E-3,2.9850688E-3,-7.927149E-3,8.221456E-5,-1.1743852E-1,5.2133277E-3,7.2253734E-2,1.0580828E-5,2.4482301E-6,1.3432194E-1,1.2077172E-4,1.13999784E-1,7.5940085E-3,1.1107545E-4,4.745748E-3,5.6135287E-3,2.3695645E-3,-1.2645574E-1,1.262865E-1,-7.641207E-2,8.553577E-2,2.570368E-3,6.573718E-3,3.5224718E-4,-1.8326876E-1,-3.3826877E-3,4.2013144E-3,5.274581E-3,3.6731424E-5,3.829926E-5,-1.2031262E-1,-2.4295706E-2,2.3100162E-2,-1.4193968E-1,1.0804069E-1,3.7452936E-2,4.7442634E-2,-1.679299E-1,1.1707415E-1,-1.07324E-1,1.3457933E-1,4.7937345E-2,-1.6174667E-1,1.1212702E-2,-0E0,7.455019E-2],"split_indices":[3,2,2,2,0,2,1,2,1,2,3,0,1,0,3,3,0,3,0,1,3,1,1,1,0,0,0,0,0,1,2,0,2,1,2,3,3,0,0,0,0,0,0,0,0,0,0,0,0,0,0,0,0],"split_type":[0,0,0,0,0,0,0,0,0,0,0,0,0,0,0,0,0,0,0,0,0,0,0,0,0,0,0,0,0,0,0,0,0,0,0,0,0,0,0,0,0,0,0,0,0,0,0,0,0,0,0,0,0],"sum_hessian":[6.029444E2,1.7219933E2,4.307451E2,1.1337541E2,5.8823914E1,2.3188275E2,1.9886234E2,1.0329923E2,1.007618E1,3.6158203E1,1.9572455E2,3.6050947E0,1.9525723E2,4.7327213E0,9.8566505E1,5.8872023E0,4.1889787E0,1.1478932E1,2.467927E1,1.7429869E2,2.1425863E1,3.1854662E1,1.6340257E2,7.055216E1,2.8014347E1,4.0519047E0,1.8352977E0,7.1249647E0,4.353967E0,1.5054538E2,2.3753313E1,9.349772E0,1.2076092E1,6.1703477E0,2.5684315E1,2.6518282E1,1.368843E2,2.614329E1,4.440887E1,1.3067386E2,1.9871517E1,1.9209501E1,4.5438104E0,9.726133E0,2.3499582E0,4.125605E0,2.0447423E0,2.136707E1,4.317244E0,5.0347385E0,2.1483543E1,6.6901107E0,1.3019418E2],"tree_param":{"num_deleted":"0","num_feature":"4","num_nodes":"53","size_leaf_vector":"1"}},{"base_weights":[4.4059556E-2,-6.434442E-1,3.2197076E-1,-1.18458726E-1,-4.6798056E-1,1.9852051E-1,8.1197464E-1,-2.376529E-1,-9.131849E-1,-1.2979785E-1,3.295549E-1,-1.3606875E-1,8.6664504E-1,-4.1302082E-1,1.2377598E-1,-1.1656344E-1,-5.1298994E-1,1.029189E0,-3.340371E-1,9.423686E-1,2.6371506E-1,9.549296E-1,4.7748807E-1,-1.4671314E-1,-1.1853819E-1,1.2494784E-1,-1.1494286E-1,1.1795527E-1,4.3988686E-2,8.5574144E-1,-6.1281675E-1,1.2191104E0,-1.3008647E-1,-1.6786627E-1,3.2421595E-1,7.1525156E-1,1.0213852E0,-1.5247531E-1,7.863586E-2,-3.913002E-2,1.05732165E-1,-8.328308E-2,1.1147709E-1,-1.6961983E-1,-2.4179583E-2,5.9802193E-2,1.3692944E-1,-1.2760605E-1,3.738631E-2,1.109972E-1,-1.3184871E-2,1.3372433E-1,8.658587E-2],"categories":[],"categories_nodes":[],"categories_segments":[],"categories_sizes":[],"default_left":[0,0,0,0,0,0,0,0,0,0,0,0,0,0,0,0,0,0,0,0,0,0,0,0,0,0,0,0,0,0,0,0,0,0,0,0,0,0,0,0,0,0,0,0,0,0,0,0,0,0,0,0,0],"id":11,"left_children":[1,3,5,-1,7,9,11,13,15,17,19,-1,21,23,-1,-1,25,27,29,31,33,35,37,39,-1,-1,-1,-1,-1,41,43,45,-1,-1,47,49,51,-1,-1,-1,-1,-1,-1,-1,-1,-1,-1,-1,-1,-1,-1,-1,-1],"loss_changes":[1.1402633E2,1.558947E1,2.5453365E1,0E0,1.3152195E1,1.47351265E1,1.1233574E1,2.3240143E1,3.713379E0,2.3421646E1,9.486322E0,0E0,2.2740364E0,1.6067078E1,0E0,0E0,2.2838106E1,6.325817E-1,2.8350266E1,1.5956242E1,2.6509306E1,1.6226959E-1,1.205522E1,1.8144552E1,0E0,0E0,0E0,0E0,0E0,8.081049E0,2.7001219E1,9.594383E-1,0E0,0E0,1.7570234E1,6.328991E0,1.0661812E0,0E0,0E0,0E0,0E0,0E0,0E0,0E0,0E0,0E0,0E0,0E0,0E0,0E0,0E0,0E0,0E0],"parents":[2147483647,0,0,1,1,2,2,4,4,5,5,6,6,7,7,8,8,9,9,10,10,12,12,13,13,16,16,17,17,18,18,19,19,20,20,21,21,22,22,23,23,29,29,30,30,31,31,34,34,35,35,36,36],"right_children":[2,4,6,-1,8,10,12,14,16,18,20,-1,22,24,-1,-1,26,28,30,32,34,36,38,40,-1,-1,-1,-1,-1,42,44,46,-1,-1,48,50,52,-1,-1,-1,-1,-1,-1,-1,-1,-1,-1,-1,-1,-1,-1,-1,-1],"split_conditions":[1.9822519E-5,2.2509154E-3,8.51102E-3,-1.18458726E-1,4.393482E-4,-1.214386E-3,6.8448564E-5,3.7056784E-4,1.6724034E-3,-7.475174E-3,-7.462068E-4,-1.3606875E-1,1.1132872E-2,-3.051113E-4,1.2377598E-1,-1.1656344E-1,1.7133887E-3,6.709378E-3,4.0370263E-3,3.620652E-5,-1.5565446E-4,1.080948E-4,1.1753486E-2,-3.7134864E-4,-1.1853819E-1,1.2494784E-1,-1.1494286E-1,1.1795527E-1,4.3988686E-2,2.0836722E-5,4.06062E-5,4.8462795E-3,-1.3008647E-1,-1.6786627E-1,4.5018294E-3,-4.0781666E-3,1.2077172E-4,-1.5247531E-1,7.863586E-2,-3.913002E-2,1.05732165E-1,-8.328308E-2,1.1147709E-1,-1.6961983E-1,-2.4179583E-2,5.9802193E-2,1.3692944E-1,-1.2760605E-1,3.738631E-2,1.109972E-1,-1.3184871E-2,1.3372433E-1,8.658587E-2],"split_indices":[3,1,1,0,2,2,3,2,2,2,2,0,1,2,0,0,2,1,1,3,2,3,1,2,0,0,0,0,0,3,3,1,0,0,1,2,3,0,0,0,0,0,0,0,0,0,0,0,0,0,0,0,0],"split_type":[0,0,0,0,0,0,0,0,0,0,0,0,0,0,0,0,0,0,0,0,0,0,0,0,0,0,0,0,0,0,0,0,0,0,0,0,0,0,0,0,0,0,0,0,0,0,0,0,0,0,0,0,0],"sum_hessian":[5.948774E2,1.7076341E2,4.2411392E2,4.026427E1,1.3049915E2,3.4005148E2,8.406244E1,8.716337E1,4.333578E1,9.678765E1,2.4326384E2,1.432076E0,8.263036E1,7.860786E1,8.555509E0,2.5247013E1,1.8088768E1,1.3822274E1,8.296537E1,2.2161413E1,2.2110243E2,6.595658E1,1.6673786E1,5.9434467E1,1.9173393E1,4.5017796E0,1.35869875E1,1.0079209E1,3.743065E0,1.5288531E1,6.767684E1,2.017375E1,1.9876645E0,5.820988E0,2.1528145E2,1.7198013E1,4.8758568E1,1.6590102E0,1.5014776E1,5.002955E1,9.404917E0,1.6873976E0,1.3601134E1,1.628459E1,5.139225E1,5.028027E0,1.5145722E1,5.67402E0,2.0960742E2,1.1600361E1,5.597651E0,1.3368127E1,3.539044E1],"tree_param":{"num_deleted":"0","num_feature":"4","num_nodes":"53","size_leaf_vector":"1"}},{"base_weights":[1.8219253E-2,-6.984703E-1,3.5414407E-1,-6.120876E-1,-1.3833681E-1,-9.537688E-2,4.5225847E-1,-7.171544E-1,9.476341E-1,2.7163443E-1,-1.6689828E-1,1.3102542E-1,4.2554888E-1,-3.2742534E-2,-8.699562E-1,5.731156E-1,1.23203956E-1,5.3646153E-1,-7.666512E-1,-1.1548864E-1,4.3673855E-1,-6.386527E-1,7.394404E-1,-1.2386811E-1,-7.4414957E-1,1.1252382E-1,-7.860813E-2,-9.481975E-2,6.566137E-1,-1.7252465E-1,1.1572226E-1,3.6460972E-1,7.1330655E-1,9.517035E-2,-1.2591343E-1,1.5373702E-2,1.6550256E-1,7.640512E-2,-9.3449324E-2,9.83864E-2,-9.097164E-3,4.9831495E-2,-7.3597035E-3,8.607435E-2,1.7121805E-2],"categories":[],"categories_nodes":[],"categories_segments":[],"categories_sizes":[],"default_left":[0,0,0,0,0,0,0,0,0,0,0,0,0,0,0,0,0,0,0,0,0,0,0,0,0,0,0,0,0,0,0,0,0,0,0,0,0,0,0,0,0,0,0,0,0],"id":12,"left_children":[1,3,5,7,-1,9,11,13,15,17,-1,-1,19,21,23,25,-1,27,29,-1,31,33,35,-1,37,-1,-1,-1,39,-1,-1,41,43,-1,-1,-1,-1,-1,-1,-1,-1,-1,-1,-1,-1],"loss_changes":[1.3764116E2,9.745735E0,1.725372E1,2.7516354E1,0E0,4.1257435E1,6.602272E0,1.6006279E1,2.5468254E-1,1.6309633E1,0E0,0E0,5.949028E0,1.4170876E1,4.719719E0,5.906126E0,0E0,8.941975E0,2.4372683E1,0E0,5.8267746E0,1.8030819E1,6.6826415E0,0E0,2.8454208E1,0E0,0E0,0E0,1.0931013E1,0E0,0E0,1.46465E1,4.776787E0,0E0,0E0,0E0,0E0,0E0,0E0,0E0,0E0,0E0,0E0,0E0,0E0],"parents":[2147483647,0,0,1,1,2,2,3,3,5,5,6,6,7,7,8,8,9,9,12,12,13,13,14,14,15,15,17,17,18,18,20,20,21,21,22,22,24,24,28,28,31,31,32,32],"right_children":[2,4,6,8,-1,10,12,14,16,18,-1,-1,20,22,24,26,-1,28,30,-1,32,34,36,-1,38,-1,-1,-1,40,-1,-1,42,44,-1,-1,-1,-1,-1,-1,-1,-1,-1,-1,-1,-1],"split_conditions":[4.699641E-3,4.2299535E-3,3.620652E-5,4.1659293E-3,-1.3833681E-1,5.6360015E-3,4.8462795E-3,-1.7118601E-3,3.2849063E-3,3.0049301E-5,-1.6689828E-1,1.3102542E-1,4.9366592E-3,-2.185953E-3,-3.7134864E-4,-7.781995E-4,1.23203956E-1,1.958134E-5,5.6135287E-3,-1.1548864E-1,7.4525303E-3,1.1351032E-5,2.0079522E-5,-1.2386811E-1,-3.051113E-4,1.1252382E-1,-7.860813E-2,-9.481975E-2,5.2390327E-3,-1.7252465E-1,1.1572226E-1,8.221456E-5,1.0340443E-2,9.517035E-2,-1.2591343E-1,1.5373702E-2,1.6550256E-1,7.640512E-2,-9.3449324E-2,9.83864E-2,-9.097164E-3,4.9831495E-2,-7.3597035E-3,8.607435E-2,1.7121805E-2],"split_indices":[1,1,3,1,0,1,1,2,2,3,0,0,1,2,2,2,0,3,1,0,2,3,3,0,2,0,0,0,1,0,0,3,2,0,0,0,0,0,0,0,0,0,0,0,0],"split_type":[0,0,0,0,0,0,0,0,0,0,0,0,0,0,0,0,0,0,0,0,0,0,0,0,0,0,0,0,0,0,0,0,0,0,0,0,0,0,0,0,0,0,0,0,0],"sum_hessian":[5.6982477E2,1.8141093E2,3.8841385E2,1.6290434E2,1.8506586E1,6.941066E1,3.190032E2,1.5318944E2,9.714903E0,5.6903027E1,1.2507631E1,8.066984E0,3.1093622E2,2.8300034E1,1.24889404E2,5.646315E0,4.068588E0,4.5800655E1,1.110237E1,1.4045898E0,3.0953162E2,1.6026735E1,1.2273298E1,2.9318745E1,9.557066E1,4.189992E0,1.4563233E0,2.8508036E0,4.2949852E1,7.513762E0,3.588608E0,2.4762979E2,6.190184E1,4.3029256E0,1.1723809E1,8.263949E0,4.0093493E0,1.0313278E1,8.5257385E1,2.9746317E1,1.3203534E1,1.8980707E2,5.7822723E1,4.805859E1,1.384325E1],"tree_param":{"num_deleted":"0","num_feature":"4","num_nodes":"45","size_leaf_vector":"1"}},{"base_weights":[8.0554746E-2,-6.759321E-1,3.337016E-1,-5.228342E-1,-1.2297245E-1,2.4747345E-1,7.105311E-1,-1.13894105E-1,-2.4281198E-1,2.7254868E-1,-6.578019E-1,-1.3463038E-1,7.7336675E-1,2.2721551E-1,-6.4241266E-1,7.595587E-1,2.2585827E-1,7.1753606E-2,-1.702083E-1,9.798119E-1,5.576746E-1,-4.5996837E-2,1.0197445E0,1.03672266E-1,-8.4981745E-1,1.2141577E-1,4.117978E-1,-2.9595628E-1,3.25416E-1,1.1499051E-1,6.910459E-1,2.615886E-1,8.538631E-1,8.8832185E-2,-6.4969E-2,1.2840603E-1,6.170253E-2,-1.1416358E-1,-1.7421477E-2,-6.280224E-2,1.0198205E-1,-1.0355306E-1,2.3001917E-2,2.7977813E-2,1.04768656E-1,-1.4327414E-1,1.061733E-1,5.5880815E-2,-1.487881E-1,1.1280594E-1,-0E0],"categories":[],"categories_nodes":[],"categories_segments":[],"categories_sizes":[],"default_left":[0,0,0,0,0,0,0,0,0,0,0,0,0,0,0,0,0,0,0,0,0,0,0,0,0,0,0,0,0,0,0,0,0,0,0,0,0,0,0,0,0,0,0,0,0,0,0,0,0,0,0],"id":13,"left_children":[1,3,5,7,-1,9,11,-1,13,15,17,-1,19,21,23,25,27,-1,-1,29,31,33,35,-1,37,-1,39,41,43,-1,45,47,49,-1,-1,-1,-1,-1,-1,-1,-1,-1,-1,-1,-1,-1,-1,-1,-1,-1,-1],"loss_changes":[1.1039389E2,1.1434692E1,1.3763691E1,1.9442677E1,0E0,8.159773E0,1.12824745E1,0E0,1.5310242E1,7.564621E0,1.5260923E1,0E0,2.773262E0,8.290387E0,1.6149063E1,4.0062637E0,1.6516798E1,0E0,0E0,9.023819E-1,3.2348785E0,1.6820127E1,5.879402E-2,0E0,7.4908524E0,0E0,1.2293999E1,2.0156286E1,8.343098E0,0E0,1.4805106E1,1.2160818E1,4.6810856E0,0E0,0E0,0E0,0E0,0E0,0E0,0E0,0E0,0E0,0E0,0E0,0E0,0E0,0E0,0E0,0E0,0E0,0E0],"parents":[2147483647,0,0,1,1,2,2,3,3,5,5,6,6,8,8,9,9,10,10,12,12,13,13,14,14,15,15,16,16,19,19,20,20,21,21,22,22,24,24,26,26,27,27,28,28,30,30,31,31,32,32],"right_children":[2,4,6,8,-1,10,12,-1,14,16,18,-1,20,22,24,26,28,-1,-1,30,32,34,36,-1,38,-1,40,42,44,-1,46,48,50,-1,-1,-1,-1,-1,-1,-1,-1,-1,-1,-1,-1,-1,-1,-1,-1,-1,-1],"split_conditions":[3.9953766E-3,1.1351032E-5,8.51102E-3,2.2509154E-3,-1.2297245E-1,7.937272E-3,6.8448564E-5,-1.13894105E-1,-3.051113E-4,-4.909514E-3,7.778986E-5,-1.3463038E-1,1.2489686E-4,-3.7134864E-4,2.2659495E-3,5.1727984E-5,-1.7118601E-3,7.1753606E-2,-1.702083E-1,-4.0781666E-3,5.6112967E-3,2.4338805E-3,4.4168987E-6,1.03672266E-1,8.725744E-6,1.2141577E-1,7.5506633E-3,6.3025076E-3,7.74411E-3,1.1499051E-1,-2.342581E-3,-3.3826877E-3,1.0340443E-2,8.8832185E-2,-6.4969E-2,1.2840603E-1,6.170253E-2,-1.1416358E-1,-1.7421477E-2,-6.280224E-2,1.0198205E-1,-1.0355306E-1,2.3001917E-2,2.7977813E-2,1.04768656E-1,-1.4327414E-1,1.061733E-1,5.5880815E-2,-1.487881E-1,1.1280594E-1,-0E0],"split_indices":[1,3,1,1,0,1,3,0,2,2,3,0,3,2,1,3,2,0,0,2,2,1,3,0,3,0,1,1,1,0,2,2,2,0,0,0,0,0,0,0,0,0,0,0,0,0,0,0,0,0,0],"split_type":[0,0,0,0,0,0,0,0,0,0,0,0,0,0,0,0,0,0,0,0,0,0,0,0,0,0,0,0,0,0,0,0,0,0,0,0,0,0,0,0,0,0,0,0,0,0,0,0,0,0,0],"sum_hessian":[5.744634E2,1.435182E2,4.3094516E2,1.14099625E2,2.9418581E1,3.52261E2,7.868417E1,3.458376E1,7.951587E1,3.435543E2,8.706713E0,1.6798362E0,7.700433E1,3.6621376E1,4.2894493E1,2.853252E1,3.1502176E2,3.8514328E0,4.8552794E0,3.7298553E1,3.970578E1,2.7839808E1,8.781569E0,4.223184E0,3.8671307E1,1.1162196E1,1.7370325E1,4.999652E1,2.6502524E2,2.1377834E1,1.592072E1,2.0966925E1,1.8738855E1,1.0677468E1,1.7162338E1,3.8306298E0,4.950938E0,2.642118E1,1.2250127E1,6.336497E0,1.1033827E1,2.0455448E1,2.9541075E1,2.5070955E2,1.4315694E1,1.9000202E0,1.40206995E1,1.8552725E1,2.414201E0,1.3987871E1,4.7509847E0],"tree_param":{"num_deleted":"0","num_feature":"4","num_nodes":"51","size_leaf_vector":"1"}},{"base_weights":[7.8283414E-2,-6.1529326E-1,3.2364687E-1,-3.620011E-1,-1.14182666E-1,-5.060657E-1,3.801417E-1,-5.100098E-1,9.4232196E-1,1.4737217E-1,-1.4140126E-1,3.3199486E-1,1.2597793E-1,-2.9032218E-1,-1.1243931E-1,-6.3227706E-2,1.2560318E-1,-1.1547371E-1,1.3905072E-1,6.701882E-1,2.2898145E-1,-9.6576236E-2,-1.15226604E-1,7.5781965E-1,-1.16884224E-1,9.013801E-1,1.4847298E-1,-3.198297E-2,1.03318036E-1,9.6719824E-2,-0E0,5.1548596E-2,1.0698297E-1,-1.6674535E-1,1.8535867E-2],"categories":[],"categories_nodes":[],"categories_segments":[],"categories_sizes":[],"default_left":[0,0,0,0,0,0,0,0,0,0,0,0,0,0,0,0,0,0,0,0,0,0,0,0,0,0,0,0,0,0,0,0,0,0,0],"id":14,"left_children":[1,3,5,7,-1,9,11,13,15,17,-1,19,-1,21,-1,-1,-1,-1,-1,23,25,27,-1,29,-1,31,33,-1,-1,-1,-1,-1,-1,-1,-1],"loss_changes":[9.5050316E1,1.8898876E1,1.9520279E1,1.9766703E1,0E0,1.612779E1,1.5811996E1,1.176589E1,6.03638E0,2.8047338E1,0E0,1.258992E1,0E0,1.115871E1,0E0,0E0,0E0,0E0,0E0,1.4585045E1,1.5140878E1,1.4609829E1,0E0,1.2941624E1,0E0,1.2433071E0,1.7244938E1,0E0,0E0,0E0,0E0,0E0,0E0,0E0,0E0],"parents":[2147483647,0,0,1,1,2,2,3,3,5,5,6,6,7,7,8,8,9,9,11,11,13,13,19,19,20,20,21,21,23,23,25,25,26,26],"right_children":[2,4,6,8,-1,10,12,14,16,18,-1,20,-1,22,-1,-1,-1,-1,-1,24,26,28,-1,30,-1,32,34,-1,-1,-1,-1,-1,-1,-1,-1],"split_conditions":[1.9822519E-5,4.393482E-4,2.9711374E-3,3.7056784E-4,-1.14182666E-1,2.4291498E-3,1.9393511E-2,-3.051113E-4,2.0859407E-3,2.357564E-3,-1.4140126E-1,3.0884457E-5,1.2597793E-1,3.3167496E-3,-1.1243931E-1,-6.3227706E-2,1.2560318E-1,-1.1547371E-1,1.3905072E-1,7.255139E-3,-6.937332E-3,3.2701113E-3,-1.15226604E-1,1.1580468E-3,-1.16884224E-1,-7.927149E-3,-5.401246E-3,-3.198297E-2,1.03318036E-1,9.6719824E-2,-0E0,5.1548596E-2,1.0698297E-1,-1.6674535E-1,1.8535867E-2],"split_indices":[3,2,0,2,0,0,0,2,0,0,0,3,0,0,0,0,0,0,0,0,2,0,0,2,0,2,2,0,0,0,0,0,0,0,0],"split_type":[0,0,0,0,0,0,0,0,0,0,0,0,0,0,0,0,0,0,0,0,0,0,0,0,0,0,0,0,0,0,0,0,0,0,0],"sum_hessian":[5.5653467E2,1.4493292E2,4.1160175E2,9.912545E1,4.5807472E1,2.5619064E1,3.859827E2,8.9639244E1,9.486207E0,1.5320581E1,1.0298483E1,3.6736606E2,1.8616629E1,6.723356E1,2.2405684E1,1.3543074E0,8.1319E0,7.478241E0,7.8423405E0,8.426084E1,2.8310522E2,5.589717E1,1.13363905E1,8.104144E1,3.2193968E0,2.9049393E1,2.5405582E2,4.734638E1,8.550794E0,6.3199924E1,1.7841518E1,1.02414665E1,1.8807926E1,4.123708E0,2.4993211E2],"tree_param":{"num_deleted":"0","num_feature":"4","num_nodes":"35","size_leaf_vector":"1"}},{"base_weights":[7.433735E-2,-5.657808E-1,2.8629655E-1,9.064925E-2,-6.177634E-1,-1.1142576E-1,3.1372845E-1,-6.770897E-1,7.3698133E-1,2.7907944E-1,1.1409528E0,-1.1559635E-1,-5.5053127E-1,1.2550865E-1,-6.647245E-2,3.6225492E-1,-2.599634E-1,1.257042E-1,4.8127454E-2,1.0019616E-1,-7.170478E-1,2.9193226E-1,8.5815096E-1,-1.9625202E-1,2.4812276E-2,-8.732071E-2,-2.0875126E-2,1.2923642E-1,2.5214583E-2,-1.0505717E-1,9.8884754E-2,-1.7002791E-1,3.187614E-2],"categories":[],"categories_nodes":[],"categories_segments":[],"categories_sizes":[],"default_left":[0,0,0,0,0,0,0,0,0,0,0,0,0,0,0,0,0,0,0,0,0,0,0,0,0,0,0,0,0,0,0,0,0],"id":15,"left_children":[1,3,5,-1,7,-1,9,11,13,15,17,-1,19,-1,-1,21,23,-1,-1,-1,25,27,29,-1,31,-1,-1,-1,-1,-1,-1,-1,-1],"loss_changes":[7.5034E1,1.1057514E1,1.623285E1,0E0,1.122356E1,0E0,1.1244362E1,6.9808617E0,5.257578E0,1.7742025E1,4.4474792E-1,0E0,2.7501747E1,0E0,0E0,1.1539326E1,2.5943193E1,0E0,0E0,0E0,7.1953087E0,1.1487598E1,1.1436861E1,0E0,2.3907076E1,0E0,0E0,0E0,0E0,0E0,0E0,0E0,0E0],"parents":[2147483647,0,0,1,1,2,2,4,4,6,6,7,7,8,8,9,9,10,10,12,12,15,15,16,16,20,20,21,21,22,22,24,24],"right_children":[2,4,6,-1,8,-1,10,12,14,16,18,-1,20,-1,-1,22,24,-1,-1,-1,26,28,30,-1,32,-1,-1,-1,-1,-1,-1,-1,-1],"split_conditions":[1.9822519E-5,-3.909385E-3,2.357564E-3,9.064925E-2,8.040936E-3,-1.1142576E-1,1.9393511E-2,-8.9840003E-4,8.454106E-3,8.810572E-3,1.1583298E-4,-1.1559635E-1,-7.781995E-4,1.2550865E-1,-6.647245E-2,8.040936E-3,9.89749E-3,1.257042E-1,4.8127454E-2,1.0019616E-1,3.3085195E-3,2.4291498E-3,3.5463545E-5,-1.9625202E-1,5.7760142E-5,-8.732071E-2,-2.0875126E-2,1.2923642E-1,2.5214583E-2,-1.0505717E-1,9.8884754E-2,-1.7002791E-1,3.187614E-2],"split_indices":[3,2,0,0,0,0,0,2,0,0,3,0,2,0,0,0,0,0,0,0,0,0,3,0,3,0,0,0,0,0,0,0,0],"split_type":[0,0,0,0,0,0,0,0,0,0,0,0,0,0,0,0,0,0,0,0,0,0,0,0,0,0,0,0,0,0,0,0,0],"sum_hessian":[5.5103827E2,1.3654137E2,4.144969E2,4.030335E0,1.3251103E2,7.1314516E0,4.0736545E2,1.2750157E2,5.009459E0,3.9238818E2,1.4977267E1,2.4787231E1,1.0271433E2,3.7860014E0,1.2234577E0,3.4038022E2,5.200794E1,1.1837071E1,3.1401954E0,9.405528E0,9.330881E1,2.99674E2,4.0706215E1,6.6586E0,4.534934E1,7.067985E1,2.2628958E1,1.0161695E1,2.8951233E2,2.1085844E0,3.859763E1,5.856281E0,3.9493057E1],"tree_param":{"num_deleted":"0","num_feature":"4","num_nodes":"33","size_leaf_vector":"1"}},{"base_weights":[1.1793129E-1,-5.2035254E-1,3.204542E-1,-1.10874765E-1,-3.004978E-1,2.3811835E-1,6.6034776E-1,6.114818E-1,-4.4105005E-1,3.547557E-1,-3.3990878E-1,-1.1423351E-1,7.152214E-1,1.4009045E-1,-9.265116E-2,9.670708E-2,-5.18458E-1,3.0558482E-1,9.8722064E-1,-2.0055504E-1,1.3757208E-2,5.5601454E-1,8.6558837E-1,-1.1320493E-1,-3.113588E-1,5.504991E-1,1.2602296E-1,1.24818705E-1,4.6373695E-1,-1.9448934E-1,2.6674992E-1,7.3646617E-1,-1.5008025E-1,9.417106E-1,1.8639089E-1,3.2964166E-2,-6.0311794E-2,1.8148122E-2,7.682578E-2,-9.829306E-2,2.8212545E-2,1.4651715E-2,7.23417E-2,4.0802974E-2,-1.4735702E-1,1.0983062E-1,5.8794834E-2,1.575073E-2,1.0242015E-1,-1.3728486E-1,9.902903E-2],"categories":[],"categories_nodes":[],"categories_segments":[],"categories_sizes":[],"default_left":[0,0,0,0,0,0,0,0,0,0,0,0,0,0,0,0,0,0,0,0,0,0,0,0,0,0,0,0,0,0,0,0,0,0,0,0,0,0,0,0,0,0,0,0,0,0,0,0,0,0,0],"id":16,"left_children":[1,3,5,-1,7,9,11,13,15,17,19,-1,21,-1,-1,-1,23,25,27,-1,29,31,33,-1,35,37,39,-1,41,-1,43,45,-1,47,49,-1,-1,-1,-1,-1,-1,-1,-1,-1,-1,-1,-1,-1,-1,-1,-1],"loss_changes":[7.050937E1,1.6520245E1,1.1337437E1,0E0,1.270309E1,2.270952E1,8.680008E0,1.748691E1,9.703745E0,8.258331E0,3.358023E1,0E0,1.2492981E0,0E0,0E0,0E0,9.81332E0,1.1334362E1,1.9221802E0,0E0,2.3961088E1,1.6289404E1,1.682127E0,0E0,1.1851521E1,8.589703E0,2.6526358E1,0E0,4.8463094E-1,0E0,1.1096942E1,1.2554379E0,0E0,1.9129562E0,7.8645577E0,0E0,0E0,0E0,0E0,0E0,0E0,0E0,0E0,0E0,0E0,0E0,0E0,0E0,0E0,0E0,0E0],"parents":[2147483647,0,0,1,1,2,2,4,4,5,5,6,6,7,7,8,8,9,9,10,10,12,12,16,16,17,17,18,18,20,20,21,21,22,22,24,24,25,25,26,26,28,28,30,30,31,31,33,33,34,34],"right_children":[2,4,6,-1,8,10,12,14,16,18,20,-1,22,-1,-1,-1,24,26,28,-1,30,32,34,-1,36,38,40,-1,42,-1,44,46,-1,48,50,-1,-1,-1,-1,-1,-1,-1,-1,-1,-1,-1,-1,-1,-1,-1,-1],"split_conditions":[1.9822519E-5,2.3695645E-3,8.51102E-3,-1.10874765E-1,2.4338805E-3,6.908866E-3,6.8448564E-5,-8.707423E-4,-3.909385E-3,6.788185E-3,7.333901E-5,-1.1423351E-1,-1.8407118E-3,1.4009045E-1,-9.265116E-2,9.670708E-2,-8.283089E-4,5.261814E-3,-1.6347879E-3,-2.0055504E-1,7.1327537E-3,-3.3826877E-3,1.1132872E-2,-1.1320493E-1,-3.051113E-4,4.699641E-3,5.4375674E-3,1.24818705E-1,1.0340443E-2,-1.9448934E-1,8.246752E-3,8.859445E-3,-1.5008025E-1,1.006091E-4,1.1753486E-2,3.2964166E-2,-6.0311794E-2,1.8148122E-2,7.682578E-2,-9.829306E-2,2.8212545E-2,1.4651715E-2,7.23417E-2,4.0802974E-2,-1.4735702E-1,1.0983062E-1,5.8794834E-2,1.575073E-2,1.0242015E-1,-1.3728486E-1,9.902903E-2],"split_indices":[3,1,1,0,1,1,3,2,2,1,3,0,2,0,0,0,2,1,2,0,1,2,1,0,2,1,1,0,2,0,1,1,0,3,1,0,0,0,0,0,0,0,0,0,0,0,0,0,0,0,0],"split_type":[0,0,0,0,0,0,0,0,0,0,0,0,0,0,0,0,0,0,0,0,0,0,0,0,0,0,0,0,0,0,0,0,0,0,0,0,0,0,0,0,0,0,0,0,0,0,0,0,0,0,0],"sum_hessian":[5.433195E2,1.3037102E2,4.129485E2,3.423916E1,9.613185E1,3.3402823E2,7.892027E1,1.2294753E1,8.38371E1,2.7840872E2,5.5619503E1,1.6921049E0,7.7228165E1,8.226436E0,4.0683174E0,3.7023823E0,8.013472E1,2.5984814E2,1.8560568E1,8.972799E0,4.66467E1,4.0116264E1,3.7111904E1,1.897291E1,6.1161808E1,1.0881149E2,1.5103665E2,1.1334628E1,7.22594E0,4.5257635E0,4.212094E1,3.751546E1,2.6008034E0,3.2891766E1,4.220138E0,1.898306E1,4.2178745E1,4.1231857E1,6.7579636E1,1.7904636E1,1.3313202E2,4.130058E0,3.0958827E0,3.97195E1,2.4014392E0,8.860308E0,2.8655151E1,3.5228932E0,2.9368872E1,1.1525421E0,3.0675957E0],"tree_param":{"num_deleted":"0","num_feature":"4","num_nodes":"51","size_leaf_vector":"1"}},{"base_weights":[1.1674085E-1,-6.040012E-1,3.034385E-1,-7.1073186E-1,2.3185942E-1,-1.08210064E-1,3.3868763E-1,-3.382089E-1,-9.4330794E-1,7.2406113E-1,-1.1733848E-1,6.141585E-1,2.4587768E-1,-1.0636985E-1,4.0840793E-1,-1.1551086E-1,-4.0298736E-1,1.21200524E-1,2.6538447E-1,6.937514E-1,-1.4827868E-1,-1.2812594E-1,4.6103168E-1,7.160923E-1,-8.709399E-2,4.5213383E-1,-1.2280768E-1,-1.0136247E-1,1.14276014E-1,4.5052466E-1,9.0708584E-1,-1.2847738E-1,8.00591E-3,6.204266E-1,1.951798E-1,4.9269204E-3,1.3562673E-1,7.821738E-2,-7.144719E-2,7.189959E-2,-1.6291915E-1,4.3771148E-2,1.0658391E-1,9.2261136E-2,-3.0975452E-2,-2.1425651E-2,6.897512E-2,-1.8124042E-1,4.3011162E-2],"categories":[],"categories_nodes":[],"categories_segments":[],"categories_sizes":[],"default_left":[0,0,0,0,0,0,0,0,0,0,0,0,0,0,0,0,0,0,0,0,0,0,0,0,0,0,0,0,0,0,0,0,0,0,0,0,0,0,0,0,0,0,0,0,0,0,0,0,0],"id":17,"left_children":[1,3,5,7,9,-1,11,13,15,17,-1,19,21,-1,23,-1,25,-1,27,29,-1,31,33,35,-1,37,-1,-1,-1,39,41,-1,43,45,47,-1,-1,-1,-1,-1,-1,-1,-1,-1,-1,-1,-1,-1,-1],"loss_changes":[7.3028496E1,1.0173115E1,2.1338326E1,8.161274E0,9.996937E0,0E0,1.0528255E1,2.2119814E1,6.2960625E0,1.8836718E0,0E0,1.8503555E1,2.559247E1,0E0,8.60889E0,0E0,1.3819881E1,0E0,8.808042E0,4.7510834E0,0E0,1.8456436E1,8.338375E0,7.0481215E0,0E0,4.35795E0,0E0,0E0,0E0,2.8937557E1,3.3445282E0,0E0,3.0864328E1,7.446453E0,3.707274E1,0E0,0E0,0E0,0E0,0E0,0E0,0E0,0E0,0E0,0E0,0E0,0E0,0E0,0E0],"parents":[2147483647,0,0,1,1,2,2,3,3,4,4,6,6,7,7,8,8,9,9,11,11,12,12,14,14,16,16,18,18,19,19,21,21,22,22,23,23,25,25,29,29,30,30,32,32,33,33,34,34],"right_children":[2,4,6,8,10,-1,12,14,16,18,-1,20,22,-1,24,-1,26,-1,28,30,-1,32,34,36,-1,38,-1,-1,-1,40,42,-1,44,46,48,-1,-1,-1,-1,-1,-1,-1,-1,-1,-1,-1,-1,-1,-1],"split_conditions":[2.9711374E-3,3.7314745E-5,8.725744E-6,5.227703E-6,6.0807557E-5,-1.08210064E-1,3.939828E-3,2.2509154E-3,4.2013144E-3,3.9051956E-5,-1.1733848E-1,8.221456E-5,5.957109E-3,-1.0636985E-1,2.0894276E-3,-1.1551086E-1,2.0836722E-5,1.21200524E-1,5.657582E-5,5.277436E-3,-1.4827868E-1,2.8159464E-5,8.810572E-3,2.0695364E-3,-8.709399E-2,2.4291498E-3,-1.2280768E-1,-1.0136247E-1,1.14276014E-1,3.0049301E-5,4.2867745E-5,-1.2847738E-1,5.261814E-3,4.872111E-3,9.89749E-3,4.9269204E-3,1.3562673E-1,7.821738E-2,-7.144719E-2,7.189959E-2,-1.6291915E-1,4.3771148E-2,1.0658391E-1,9.2261136E-2,-3.0975452E-2,-2.1425651E-2,6.897512E-2,-1.8124042E-1,4.3011162E-2],"split_indices":[0,3,3,3,3,0,0,1,1,3,0,3,0,0,0,0,3,0,3,1,0,3,0,0,0,0,0,0,0,3,3,0,1,1,0,0,0,0,0,0,0,0,0,0,0,0,0,0,0],"split_type":[0,0,0,0,0,0,0,0,0,0,0,0,0,0,0,0,0,0,0,0,0,0,0,0,0,0,0,0,0,0,0,0,0,0,0,0,0,0,0,0,0,0,0,0,0,0,0,0,0],"sum_hessian":[5.405785E2,1.1064915E2,4.2992935E2,9.835906E1,1.2290083E1,9.859161E0,4.200702E2,3.891388E1,5.9445187E1,9.51371E0,2.7763724E0,1.0417416E2,3.1589603E2,1.9588717E1,1.9325161E1,4.1754795E1,1.7690392E1,3.7083366E0,5.8053737E0,1.0105529E2,3.1188657E0,1.153398E2,2.0055623E2,1.5996436E1,3.328725E0,8.849552E0,8.840839E0,2.2524946E0,3.5528793E0,4.889253E1,5.216276E1,1.1334318E1,1.0400548E2,1.24312935E2,7.6243286E1,8.439158E0,7.5572777E0,7.221729E0,1.6278229E0,4.392465E1,4.9678826E0,1.4292429E1,3.787033E1,2.6407722E1,7.759776E1,9.262104E0,1.1505083E2,7.2394137E0,6.9003876E1],"tree_param":{"num_deleted":"0","num_feature":"4","num_nodes":"49","size_leaf_vector":"1"}},{"base_weights":[-1.0611389E-2,-7.59839E-1,2.1503703E-1,-5.8515024E-1,-1.1085434E-1,6.219783E-1,1.3368365E-1,-1.14269435E-1,-2.8618202E-1,-1.0801726E-1,6.952858E-1,-1.55048E-1,1.6064373E-1,8.6473696E-2,-5.24637E-1,8.830181E-1,2.7352508E-2,-1.02388375E-1,1.827169E-1,-6.9740516E-1,9.2282936E-2,1.296754E-1,6.8865687E-1,-1.0330774E0,7.795612E-1,6.274573E-1,1.1561697E-1,-2.4710044E-2,-1.1032901E-1,-1.02740064E-1,7.966939E-2,2.298124E-2,-2.1488686E-1,1.0354755E-1,1.648763E-2,7.282957E-2,-9.7164E-2,-2.0884044E-1,1.8213648E-2],"categories":[],"categories_nodes":[],"categories_segments":[],"categories_sizes":[],"default_left":[0,0,0,0,0,0,0,0,0,0,0,0,0,0,0,0,0,0,0,0,0,0,0,0,0,0,0,0,0,0,0,0,0,0,0,0,0,0,0],"id":18,"left_children":[1,3,5,7,-1,9,11,-1,13,-1,15,-1,17,-1,19,21,23,-1,25,27,-1,-1,29,31,33,35,37,-1,-1,-1,-1,-1,-1,-1,-1,-1,-1,-1,-1],"loss_changes":[8.446747E1,6.227951E0,1.2542936E1,1.276055E1,0E0,8.628967E0,1.4695273E1,0E0,1.4997557E1,0E0,7.594967E0,0E0,8.394637E0,0E0,1.1798455E1,2.7561607E0,1.2457221E1,0E0,9.171515E0,7.005806E0,0E0,0E0,7.256975E0,9.774441E0,1.1547866E0,7.216219E0,4.017659E1,0E0,0E0,0E0,0E0,0E0,0E0,0E0,0E0,0E0,0E0,0E0,0E0],"parents":[2147483647,0,0,1,1,2,2,3,3,5,5,6,6,8,8,10,10,12,12,14,14,15,15,16,16,18,18,19,19,22,22,23,23,24,24,25,25,26,26],"right_children":[2,4,6,8,-1,10,12,-1,14,-1,16,-1,18,-1,20,22,24,-1,26,28,-1,-1,30,32,34,36,38,-1,-1,-1,-1,-1,-1,-1,-1,-1,-1,-1,-1],"split_conditions":[2.2460354E-5,4.393482E-4,-4.909514E-3,-8.283089E-4,-1.1085434E-1,3.2701113E-3,-4.3749735E-3,-1.14269435E-1,-7.6161744E-4,-1.0801726E-1,8.454106E-3,-1.55048E-1,2.3087072E-3,8.6473696E-2,4.1155305E-4,3.717472E-3,1.5495496E-2,-1.02388375E-1,3.2507111E-3,-3.051113E-4,9.2282936E-2,1.296754E-1,4.5489008E-3,1.0084581E-2,1.6460905E-2,6.0807557E-5,3.4482758E-3,-2.4710044E-2,-1.1032901E-1,-1.02740064E-1,7.966939E-2,2.298124E-2,-2.1488686E-1,1.0354755E-1,1.648763E-2,7.282957E-2,-9.7164E-2,-2.0884044E-1,1.8213648E-2],"split_indices":[3,2,2,2,0,0,2,0,2,0,0,0,0,0,2,0,0,0,0,2,0,0,0,0,0,3,0,0,0,0,0,0,0,0,0,0,0,0,0],"split_type":[0,0,0,0,0,0,0,0,0,0,0,0,0,0,0,0,0,0,0,0,0,0,0,0,0,0,0,0,0,0,0,0,0,0,0,0,0,0,0],"sum_hessian":[4.9733536E2,1.1466971E2,3.8266565E2,7.8372604E1,3.6297108E1,6.2442883E1,3.2022278E2,2.6254368E1,5.2118233E1,1.9547999E0,6.0488083E1,4.096555E0,3.1612622E2,8.422189E0,4.3696045E1,4.6848812E1,1.3639269E1,4.8699617E0,3.1125626E2,3.956132E1,4.1347256E0,1.2996607E1,3.3852207E1,5.4499054E0,8.1893635E0,3.9514114E1,2.7174216E2,1.9633884E1,1.9927435E1,1.4461572E0,3.2406048E1,2.886867E0,2.5630383E0,5.1838875E0,3.0054762E0,3.774126E1,1.7728525E0,7.026638E0,2.647155E2],"tree_param":{"num_deleted":"0","num_feature":"4","num_nodes":"39","size_leaf_vector":"1"}},{"base_weights":[1.0159652E-2,-3.7354645E-1,2.7320296E-1,-7.5137955E-1,-7.857972E-2,2.2310688E-1,1.0764078E0,-3.1871688E-1,-1.066186E0,2.9865103E-2,-1.4570466E-1,4.0075162E-1,3.0846108E-2,1.185382E-1,3.7154827E-2,-1.0371256E-1,3.5331652E-1,-1.1415241E-1,-5.496611E-1,-1.0370298E-1,1.3302377E-1,4.2930835E-1,-1.2306439E-1,-6.9435656E-1,2.4803406E-1,6.427357E-1,-8.507628E-2,8.126321E-2,-1.2093389E-1,8.808008E-1,-7.065217E-2,3.5140643E-1,1.2565637E0,6.6514724E-1,-1.3881919E0,-1.616228E-1,3.038786E-1,3.4155056E-3,1.2553476E-1,-5.9150856E-2,1.0039898E-1,-5.6625545E-2,2.4983903E-2,4.2752493E-2,-1.5925698E-1,1.4269607E-1,6.471845E-2,1.1370132E-1,-1.0385386E-2,-2.1353164E-1,-7.2454266E-2,3.8563706E-2,-4.7005694E-2],"categories":[],"categories_nodes":[],"categories_segments":[],"categories_sizes":[],"default_left":[0,0,0,0,0,0,0,0,0,0,0,0,0,0,0,0,0,0,0,0,0,0,0,0,0,0,0,0,0,0,0,0,0,0,0,0,0,0,0,0,0,0,0,0,0,0,0,0,0,0,0,0,0],"id":19,"left_children":[1,3,5,7,9,11,13,15,17,19,-1,21,23,-1,-1,-1,25,-1,27,-1,29,31,-1,33,35,37,-1,-1,-1,39,41,43,45,47,49,-1,51,-1,-1,-1,-1,-1,-1,-1,-1,-1,-1,-1,-1,-1,-1,-1,-1],"loss_changes":[4.940307E1,2.2033157E1,1.1322374E1,1.1367142E1,1.7079136E1,9.33365E0,6.8520164E-1,1.8871674E1,1.1405678E0,1.1678217E1,0E0,7.0883026E0,2.1134949E1,0E0,0E0,0E0,7.6367197E0,0E0,8.601962E0,0E0,1.4967161E1,8.476624E0,0E0,3.013848E1,1.1133099E1,6.1986737E0,0E0,0E0,0E0,4.4466267E0,1.2453738E1,1.9838366E1,7.6286316E-2,4.237276E0,8.494179E0,0E0,6.586731E0,0E0,0E0,0E0,0E0,0E0,0E0,0E0,0E0,0E0,0E0,0E0,0E0,0E0,0E0,0E0,0E0],"parents":[2147483647,0,0,1,1,2,2,3,3,4,4,5,5,6,6,7,7,8,8,9,9,11,11,12,12,16,16,18,18,20,20,21,21,23,23,24,24,25,25,29,29,30,30,31,31,32,32,33,33,34,34,36,36],"right_children":[2,4,6,8,10,12,14,16,18,20,-1,22,24,-1,-1,-1,26,-1,28,-1,30,32,-1,34,36,38,-1,-1,-1,40,42,44,46,48,50,-1,52,-1,-1,-1,-1,-1,-1,-1,-1,-1,-1,-1,-1,-1,-1,-1,-1],"split_conditions":[3.5463545E-5,3.1746032E-3,1.9393511E-2,5.227703E-6,3.3492062E-5,6.625089E-5,1.1583298E-4,2.2509154E-3,4.8462795E-3,8.725744E-6,-1.4570466E-1,7.937272E-3,7.1327537E-3,1.185382E-1,3.7154827E-2,-1.0371256E-1,2.0894276E-3,-1.1415241E-1,4.872111E-3,-1.0370298E-1,1.1942705E-5,7.375301E-3,-1.2306439E-1,5.319457E-3,7.333901E-5,2.0695364E-3,-8.507628E-2,8.126321E-2,-1.2093389E-1,2.8346388E-3,2.755692E-5,6.908866E-3,4.3688888E-5,4.0032025E-3,5.5329064E-3,-1.616228E-1,1.2600229E-2,3.4155056E-3,1.2553476E-1,-5.9150856E-2,1.0039898E-1,-5.6625545E-2,2.4983903E-2,4.2752493E-2,-1.5925698E-1,1.4269607E-1,6.471845E-2,1.1370132E-1,-1.0385386E-2,-2.1353164E-1,-7.2454266E-2,3.8563706E-2,-4.7005694E-2],"split_indices":[3,0,0,3,3,3,3,1,1,3,0,1,1,0,0,0,0,0,1,0,3,1,0,1,3,0,0,0,0,1,3,1,3,0,0,0,0,0,0,0,0,0,0,0,0,0,0,0,0,0,0,0,0],"split_type":[0,0,0,0,0,0,0,0,0,0,0,0,0,0,0,0,0,0,0,0,0,0,0,0,0,0,0,0,0,0,0,0,0,0,0,0,0,0,0,0,0,0,0,0,0,0,0,0,0,0,0,0,0],"sum_hessian":[4.8756042E2,1.9797313E2,2.895873E2,8.5967735E1,1.1200539E2,2.73906E2,1.56813135E1,3.7187782E1,4.877995E1,1.0467623E2,7.329153E0,1.4153043E2,1.3237558E2,1.2868229E1,2.8130844E0,1.7783077E1,1.9404705E1,4.1345814E1,7.434137E0,8.34525E0,9.6330986E1,1.3988004E2,1.650384E0,2.989547E1,1.024801E2,1.608716E1,3.3175466E0,2.3003204E0,5.1338162E0,2.001484E1,7.631615E1,1.2925397E2,1.0626067E1,1.0067124E1,1.9828346E1,2.1158047E0,1.00364296E2,8.681639E0,7.4055204E0,1.1891512E0,1.8825687E1,2.979176E1,4.6524387E1,1.25183784E2,4.0701876E0,7.127332E0,3.4987352E0,6.0228996E0,4.0442247E0,8.213506E0,1.161484E1,9.1345505E1,9.018797E0],"tree_param":{"num_deleted":"0","num_feature":"4","num_nodes":"53","size_leaf_vector":"1"}},{"base_weights":[3.8783934E-2,-7.629592E-1,1.808297E-1,3.7395063E-1,-8.4933776E-1,6.7543215E-1,1.4440957E-1,-8.436077E-2,1.0414276E-1,-1.7501518E-1,-9.500003E-1,8.787195E-2,3.3141217E-1,-1.5908764E-1,1.6999294E-1,-9.208357E-2,8.810117E-2,-5.3981745E-1,-1.0916604E-1,-7.313152E-1,1.0412456E-1,1.3203716E-1,1.5244716E-1,-1.0481131E-1,7.7366486E-2,-1.8651292E-1,1.4425094E-2,-2.586304E-1,2.233614E-1,-2.1597317E-3,-1.2023014E-1,7.152946E-2,1.6574364E-2],"categories":[],"categories_nodes":[],"categories_segments":[],"categories_sizes":[],"default_left":[0,0,0,0,0,0,0,0,0,0,0,0,0,0,0,0,0,0,0,0,0,0,0,0,0,0,0,0,0,0,0,0,0],"id":20,"left_children":[1,3,5,7,9,11,13,-1,-1,15,17,-1,19,-1,21,-1,-1,23,-1,25,-1,-1,27,-1,-1,-1,-1,29,31,-1,-1,-1,-1],"loss_changes":[5.569345E1,7.5913467E0,7.3096275E0,5.6187687E0,4.3895874E0,1.5497265E0,1.7384403E1,0E0,0E0,8.918123E0,2.7041168E0,0E0,1.0002007E1,0E0,7.402423E0,0E0,0E0,1.2475157E1,0E0,5.8216763E0,0E0,0E0,1.111593E1,0E0,0E0,0E0,0E0,1.2396738E1,8.987419E0,0E0,0E0,0E0,0E0],"parents":[2147483647,0,0,1,1,2,2,3,3,4,4,5,5,6,6,9,9,10,10,12,12,14,14,17,17,19,19,22,22,27,27,28,28],"right_children":[2,4,6,8,10,12,14,-1,-1,16,18,-1,20,-1,22,-1,-1,24,-1,26,-1,-1,28,-1,-1,-1,-1,30,32,-1,-1,-1,-1],"split_conditions":[3.57821E-3,-3.909385E-3,-6.937332E-3,-4.0781666E-3,2.4482301E-6,1.2077172E-4,-5.6482106E-3,-8.436077E-2,1.0414276E-1,2.2357511E-3,-8.707423E-4,8.787195E-2,-7.475174E-3,-1.5908764E-1,3.6048617E-3,-9.208357E-2,8.810117E-2,-8.9840003E-4,-1.0916604E-1,1.1132872E-2,1.0412456E-1,1.3203716E-1,4.699641E-3,-1.0481131E-1,7.7366486E-2,-1.8651292E-1,1.4425094E-2,3.849059E-4,5.0413166E-3,-2.1597317E-3,-1.2023014E-1,7.152946E-2,1.6574364E-2],"split_indices":[1,2,2,2,3,3,2,0,0,1,2,0,2,0,1,0,0,2,0,1,0,0,1,0,0,0,0,2,1,0,0,0,0],"split_type":[0,0,0,0,0,0,0,0,0,0,0,0,0,0,0,0,0,0,0,0,0,0,0,0,0,0,0,0,0,0,0,0,0],"sum_hessian":[4.8733548E2,7.2583E1,4.1475247E2,4.8083878E0,6.777461E1,2.7054075E1,3.876984E2,1.5561287E0,3.252259E0,9.287972E0,5.8486637E1,1.5845657E1,1.1208419E1,4.6870813E0,3.8301132E2,5.5740237E0,3.7139492E0,1.6429861E1,4.2056778E1,4.419949E0,6.78847E0,4.552864E0,3.7845847E2,1.2046309E1,4.383551E0,1.483241E0,2.936708E0,5.5084698E1,3.2337375E2,4.4928364E1,1.0156337E1,3.252546E1,2.908483E2],"tree_param":{"num_deleted":"0","num_feature":"4","num_nodes":"33","size_leaf_vector":"1"}},{"base_weights":[9.4007514E-2,-5.076023E-1,2.3497663E-1,-4.0355977E-1,-1.2659577E-1,1.6939321E-1,6.565645E-1,-6.017835E-1,9.8466426E-2,4.8687872E-1,3.763135E-2,2.0549509E-1,8.5964155E-1,-3.959177E-1,-1.0832864E-1,5.86431E-1,-1.817513E-1,-1.15861535E-1,1.21779226E-1,4.7649953E-1,-1.8589976E-1,1.9203642E-2,9.235169E-1,-6.456844E-1,9.465971E-2,-8.101882E-2,6.407351E-1,7.4706584E-1,-1.8623672E-2,7.884317E-1,-2.4958326E-1,9.676634E-2,4.0974535E-2,-1.0664367E-1,-1.714458E-2,4.5116536E-2,1.0795333E-1,4.820372E-3,1.0116583E-1,-1.9820637E-1,6.6080117E-3,1.22812584E-1,2.1432308E-3,8.49643E-2,-1.4046244E-1],"categories":[],"categories_nodes":[],"categories_segments":[],"categories_sizes":[],"default_left":[0,0,0,0,0,0,0,0,0,0,0,0,0,0,0,0,0,0,0,0,0,0,0,0,0,0,0,0,0,0,0,0,0,0,0,0,0,0,0,0,0,0,0,0,0],"id":21,"left_children":[1,3,5,7,-1,9,11,13,-1,15,17,19,21,23,-1,25,-1,-1,27,29,-1,-1,31,33,-1,-1,35,37,39,41,43,-1,-1,-1,-1,-1,-1,-1,-1,-1,-1,-1,-1,-1,-1],"loss_changes":[4.1339348E1,6.621372E0,1.0723413E1,2.3375935E1,0E0,1.4288076E1,4.5352592E0,6.6846066E0,0E0,2.3967443E1,2.458681E1,1.0704766E1,1.2379398E0,1.8365187E1,0E0,7.8594093E0,0E0,0E0,2.0176697E1,4.0037413E0,0E0,0E0,1.9788933E-1,8.747309E0,0E0,0E0,7.179394E0,7.633074E0,3.1542355E1,3.871334E0,8.413389E0,0E0,0E0,0E0,0E0,0E0,0E0,0E0,0E0,0E0,0E0,0E0,0E0,0E0,0E0],"parents":[2147483647,0,0,1,1,2,2,3,3,5,5,6,6,7,7,9,9,10,10,11,11,12,12,13,13,15,15,18,18,19,19,22,22,23,23,26,26,27,27,28,28,29,29,30,30],"right_children":[2,4,6,8,-1,10,12,14,-1,16,18,20,22,24,-1,26,-1,-1,28,30,-1,-1,32,34,-1,-1,36,38,40,42,44,-1,-1,-1,-1,-1,-1,-1,-1,-1,-1,-1,-1,-1,-1],"split_conditions":[3.0221625E-3,4.872111E-3,8.266479E-3,4.745748E-3,-1.2659577E-1,3.939828E-3,8.040936E-3,2.0894276E-3,9.8466426E-2,4.276312E-3,4.535757E-3,6.921824E-3,9.048502E-3,2.07555E-3,-1.0832864E-1,2.8346388E-3,-1.817513E-1,-1.15861535E-1,5.261814E-3,6.7693084E-3,-1.8589976E-1,1.9203642E-2,1.0575491E-2,2.6363407E-3,9.465971E-2,-8.101882E-2,1.6236098E-3,4.872111E-3,5.3947144E-3,5.088195E-3,8.5528055E-3,9.676634E-2,4.0974535E-2,-1.0664367E-1,-1.714458E-2,4.5116536E-2,1.0795333E-1,4.820372E-3,1.0116583E-1,-1.9820637E-1,6.6080117E-3,1.22812584E-1,2.1432308E-3,8.49643E-2,-1.4046244E-1],"split_indices":[0,1,2,1,0,0,0,0,0,2,1,0,2,0,0,1,0,0,1,1,0,0,1,1,0,0,2,1,1,0,2,0,0,0,0,0,0,0,0,0,0,0,0,0,0],"split_type":[0,0,0,0,0,0,0,0,0,0,0,0,0,0,0,0,0,0,0,0,0,0,0,0,0,0,0,0,0,0,0,0,0,0,0,0,0,0,0,0,0,0,0,0,0],"sum_hessian":[4.8535904E2,9.151082E1,3.9384824E2,8.1933914E1,9.576905E0,3.422464E2,5.1601837E1,7.225518E1,9.678736E0,9.936598E1,2.4288042E2,1.6797035E1,3.4804802E1,5.2036846E1,2.0218332E1,9.600727E1,3.3587103E0,1.5044897E1,2.2783551E2,1.5570711E1,1.2263248E0,3.5258362E0,3.1278963E1,4.4374733E1,7.662112E0,3.0033991E0,9.300387E1,4.111602E1,1.867195E2,1.0927855E1,4.6428566E0,2.7811167E1,3.4677975E0,2.2739914E1,2.163482E1,6.652137E1,2.6482502E1,1.17201E1,2.939592E1,6.8444853E0,1.7987502E2,6.480959E0,4.4468956E0,2.4700212E0,2.172835E0],"tree_param":{"num_deleted":"0","num_feature":"4","num_nodes":"45","size_leaf_vector":"1"}},{"base_weights":[4.7974527E-2,-4.295896E-2,5.3246707E-1,-1.0103392E-1,1.7869602E-3,-1.1189729E-1,5.909926E-1,8.518883E-1,-2.93455E-2,4.7556785E-1,8.5657847E-1,4.8665425E-1,9.885383E-2,4.4391938E-2,-6.1108136E-1,6.357049E-1,7.367414E-2,1.0980298E-1,3.12964E-1,7.366603E-2,1.5061334E-2,1.0651722E-2,6.4881855E-1,-1.9010662E-1,-3.289102E-2,1.053249E0,3.7257242E-1,-1.5260202E-1,4.80462E-1,-1.380516E-1,8.954906E-2,5.2322536E-3,-1.6504568E-1,3.3536067E-3,8.734637E-2,-1.623154E-1,2.3617648E-2,2.9146148E-2,1.1764061E-1,6.480454E-2,-3.9236836E-2,8.110162E-2,-9.580216E-3,8.763195E-2,-1.5088944E-1],"categories":[],"categories_nodes":[],"categories_segments":[],"categories_sizes":[],"default_left":[0,0,0,0,0,0,0,0,0,0,0,0,0,0,0,0,0,0,0,0,0,0,0,0,0,0,0,0,0,0,0,0,0,0,0,0,0,0,0,0,0,0,0,0,0],"id":22,"left_children":[1,3,5,-1,7,-1,9,11,13,15,17,19,-1,21,23,25,27,-1,29,-1,-1,31,33,-1,35,37,39,-1,41,43,-1,-1,-1,-1,-1,-1,-1,-1,-1,-1,-1,-1,-1,-1,-1],"loss_changes":[2.0970427E1,1.742358E1,7.877695E0,0E0,1.0253073E1,0E0,1.7079525E0,5.466652E-2,1.5983801E1,3.3343325E0,2.2335777E0,2.9568863E-1,0E0,6.6518555E0,3.1009205E1,3.645195E0,1.1425757E1,0E0,2.2737408E0,0E0,0E0,2.1626072E1,2.265767E0,0E0,1.3365542E1,8.250971E-1,5.5548472E0,0E0,2.8234012E0,8.643815E0,0E0,0E0,0E0,0E0,0E0,0E0,0E0,0E0,0E0,0E0,0E0,0E0,0E0,0E0,0E0],"parents":[2147483647,0,0,1,1,2,2,4,4,6,6,7,7,8,8,9,9,10,10,11,11,13,13,14,14,15,15,16,16,18,18,21,21,22,22,24,24,25,25,26,26,28,28,29,29],"right_children":[2,4,6,-1,8,-1,10,12,14,16,18,20,-1,22,24,26,28,-1,30,-1,-1,32,34,-1,36,38,40,-1,42,44,-1,-1,-1,-1,-1,-1,-1,-1,-1,-1,-1,-1,-1,-1,-1],"split_conditions":[8.51102E-3,2.2509154E-3,6.8448564E-5,-1.0103392E-1,-6.937332E-3,-1.1189729E-1,5.6112967E-3,8.0340214E-5,7.778986E-5,-3.3826877E-3,1.0970983E-2,5.2390327E-3,9.885383E-2,7.429284E-3,1.006091E-4,9.521627E-5,-1.8407118E-3,1.0980298E-1,1.1753486E-2,7.366603E-2,1.5061334E-2,6.908866E-3,-1.7118601E-3,-1.9010662E-1,3.5634493E-3,9.30145E-3,-6.937332E-3,-1.5260202E-1,3.4105622E-3,1.2489686E-4,8.954906E-2,5.2322536E-3,-1.6504568E-1,3.3536067E-3,8.734637E-2,-1.623154E-1,2.3617648E-2,2.9146148E-2,1.1764061E-1,6.480454E-2,-3.9236836E-2,8.110162E-2,-9.580216E-3,8.763195E-2,-1.5088944E-1],"split_indices":[1,1,3,0,2,0,2,3,3,2,2,1,0,1,3,3,2,0,1,0,0,1,2,0,2,1,2,0,2,3,0,0,0,0,0,0,0,0,0,0,0,0,0,0,0],"split_type":[0,0,0,0,0,0,0,0,0,0,0,0,0,0,0,0,0,0,0,0,0,0,0,0,0,0,0,0,0,0,0,0,0,0,0,0,0,0,0,0,0,0,0,0,0],"sum_hessian":[4.7335803E2,3.9914767E2,7.421034E1,1.6791027E1,3.8235666E2,1.8612974E0,7.2349045E1,1.2690103E1,3.6966656E2,5.2639057E1,1.9709991E1,4.8963623E0,7.7937403E0,3.2874814E2,4.0918404E1,3.7046898E1,1.5592158E1,1.2814493E1,6.8954983E0,1.9533565E0,2.9430058E0,3.1248758E2,1.6260569E1,1.190239E1,2.9016014E1,1.3013706E1,2.4033192E1,2.5534585E0,1.3038699E1,4.2197466E0,2.6757517E0,3.0584384E2,6.6437416E0,4.775457E0,1.1485111E1,3.524484E0,2.549153E1,2.3926334E0,1.0621073E1,1.7878334E1,6.1548586E0,8.137223E0,4.9014764E0,2.590599E0,1.6291478E0],"tree_param":{"num_deleted":"0","num_feature":"4","num_nodes":"45","size_leaf_vector":"1"}},{"base_weights":[1.02759905E-1,-3.6060306E-1,2.1833836E-1,-1.8136674E-1,-1.0872358E-1,4.6439776E-1,1.5290166E-1,-9.994017E-2,4.265987E-2,-1.2403057E-1,6.1239326E-1,-5.3698546E-1,2.1798836E-1,-9.9456295E-2,7.623596E-1,4.479759E-1,-1.406177E-1,8.621979E-1,1.708185E-1,2.1039158E-2,-1.6158313E-1,4.387484E-1,1.0823016E-1,2.7146164E-1,-1.0568491E-1,-6.176423E-2,1.0191742E0,7.755306E-1,-1.142837E-1,6.872651E-1,1.277412E-1,3.486192E-1,-1.1754344E-1,-1.20900266E-1,3.7946817E-1,5.488804E-1,-1.512166E-1,-6.391058E-1,2.6914304E-1,1.4487702E-1,6.799082E-3,5.613714E-2,1.2999861E-1,1.127931E-2,9.8613225E-2,8.1225336E-2,-1.7609475E-2,8.276602E-2,1.7174473E-4,9.6338E-2,-4.0647205E-2,3.831378E-2,9.473018E-2,-4.029966E-3,-1.2520245E-1,6.959879E-2,1.4426139E-2],"categories":[],"categories_nodes":[],"categories_segments":[],"categories_sizes":[],"default_left":[0,0,0,0,0,0,0,0,0,0,0,0,0,0,0,0,0,0,0,0,0,0,0,0,0,0,0,0,0,0,0,0,0,0,0,0,0,0,0,0,0,0,0,0,0,0,0,0,0,0,0,0,0,0,0,0,0],"id":23,"left_children":[1,3,5,7,-1,9,11,-1,13,15,17,19,21,23,25,27,-1,29,31,33,-1,35,37,39,-1,-1,41,43,-1,45,-1,47,-1,-1,49,51,-1,53,55,-1,-1,-1,-1,-1,-1,-1,-1,-1,-1,-1,-1,-1,-1,-1,-1,-1,-1],"loss_changes":[2.5679722E1,1.2138638E1,6.0438614E0,1.4445177E1,0E0,7.0718517E0,1.3772994E1,0E0,6.4986415E0,1.2993631E1,6.8141804E0,1.6108692E1,6.6677074E0,1.9068563E1,4.3837256E0,7.2439947E0,0E0,1.8683052E0,6.199294E0,8.465993E0,0E0,2.0533373E1,2.2772745E1,9.015839E0,0E0,0E0,2.763176E-1,1.2896318E0,0E0,3.5344315E0,0E0,3.6559012E0,0E0,0E0,7.346424E0,5.315813E0,0E0,1.2129222E1,8.115637E0,0E0,0E0,0E0,0E0,0E0,0E0,0E0,0E0,0E0,0E0,0E0,0E0,0E0,0E0,0E0,0E0,0E0,0E0],"parents":[2147483647,0,0,1,1,2,2,3,3,5,5,6,6,8,8,9,9,10,10,11,11,12,12,13,13,14,14,15,15,17,17,18,18,19,19,21,21,22,22,23,23,26,26,27,27,29,29,31,31,34,34,35,35,37,37,38,38],"right_children":[2,4,6,8,-1,10,12,-1,14,16,18,20,22,24,26,28,-1,30,32,34,-1,36,38,40,-1,-1,42,44,-1,46,-1,48,-1,-1,50,52,-1,54,56,-1,-1,-1,-1,-1,-1,-1,-1,-1,-1,-1,-1,-1,-1,-1,-1,-1,-1],"split_conditions":[1.9822519E-5,1.1942705E-5,-4.0781666E-3,2.2509154E-3,-1.0872358E-1,6.1659478E-3,-2.564816E-3,-9.994017E-2,3.808793E-3,-4.909514E-3,9.521627E-5,-3.3826877E-3,5.269366E-4,2.8488701E-3,-3.9832277E-4,5.2390327E-3,-1.406177E-1,9.30145E-3,-5.401246E-3,5.7903607E-3,-1.6158313E-1,7.088317E-5,2.2656396E-3,-1.7118601E-3,-1.0568491E-1,-6.176423E-2,1.1681382E-5,-5.1910332E-3,-1.142837E-1,8.221456E-5,1.277412E-1,8.859445E-3,-1.1754344E-1,-1.20900266E-1,4.658858E-5,1.6767633E-5,-1.512166E-1,1.1580468E-3,3.4105622E-3,1.4487702E-1,6.799082E-3,5.613714E-2,1.2999861E-1,1.127931E-2,9.8613225E-2,8.1225336E-2,-1.7609475E-2,8.276602E-2,1.7174473E-4,9.6338E-2,-4.0647205E-2,3.831378E-2,9.473018E-2,-4.029966E-3,-1.2520245E-1,6.959879E-2,1.4426139E-2],"split_indices":[3,3,2,1,0,1,2,0,1,2,3,2,2,1,2,1,0,1,2,1,0,3,2,2,0,0,3,2,0,3,0,1,0,0,3,2,0,2,2,0,0,0,0,0,0,0,0,0,0,0,0,0,0,0,0,0,0],"split_type":[0,0,0,0,0,0,0,0,0,0,0,0,0,0,0,0,0,0,0,0,0,0,0,0,0,0,0,0,0,0,0,0,0,0,0,0,0,0,0,0,0,0,0,0,0,0,0,0,0,0,0,0,0,0,0,0,0],"sum_hessian":[4.7729938E2,9.4690926E1,3.8260846E2,7.706801E1,1.7622915E1,7.87736E1,3.0383487E2,1.5920278E1,6.1147728E1,1.5727493E1,6.3046104E1,2.543625E1,2.7839862E2,5.1667934E1,9.4797945E0,1.1271519E1,4.455974E0,3.951368E1,2.3532423E1,1.7349936E1,8.086314E0,9.115242E1,1.8724619E2,3.7681274E1,1.3986661E1,1.2058295E0,8.273965E0,9.824061E0,1.4474578E0,2.983853E1,9.67515E0,2.1507267E1,2.0251572E0,3.3164897E0,1.4033446E1,8.701046E1,4.141958E0,3.2537487E1,1.5470871E2,4.578386E0,3.3102886E1,4.4212646E0,3.8527002E0,2.8538263E0,6.970235E0,2.6217983E1,3.620546E0,8.330058E0,1.3177209E1,7.9950314E0,6.0384154E0,6.3010735E1,2.399973E1,1.7079826E1,1.545766E1,3.3801487E1,1.2090722E2],"tree_param":{"num_deleted":"0","num_feature":"4","num_nodes":"57","size_leaf_vector":"1"}},{"base_weights":[7.8960255E-2,-2.882276E-1,2.1639542E-1,-6.1059494E-2,-8.1970626E-1,1.8217425E-1,9.463124E-1,-1.7017348E-1,9.513751E-1,-1.14461124E-1,-3.5909942E-1,2.2514124E-1,-8.897605E-1,1.11700036E-1,1.3670245E-2,-1.665687E-2,-1.16104715E-1,4.9971908E-1,1.2273625E-1,1.10593036E-1,-8.7245345E-1,7.264033E-2,3.9011884E-1,-1.8418317E-1,1.3787626E-1,-3.8422588E-1,5.486009E-1,9.171862E-2,-5.4645587E-2,-2.8767008E-1,-1.2339759E-1,4.14642E-1,-2.1893345E-1,2.6580203E-1,9.1053325E-1,-2.064682E-1,5.682086E-2,4.899719E-3,-1.1544732E-1,-7.451096E-2,6.868904E-2,-8.371852E-2,6.366589E-2,-8.463942E-2,4.585293E-2,6.674221E-5,-1.6923167E-1,3.5510894E-2,-1.9164167E-1,2.9924741E-2,9.858729E-2,5.2523114E-2,-1.3086234E-1],"categories":[],"categories_nodes":[],"categories_segments":[],"categories_sizes":[],"default_left":[0,0,0,0,0,0,0,0,0,0,0,0,0,0,0,0,0,0,0,0,0,0,0,0,0,0,0,0,0,0,0,0,0,0,0,0,0,0,0,0,0,0,0,0,0,0,0,0,0,0,0,0,0],"id":24,"left_children":[1,3,5,7,9,11,13,15,17,-1,19,21,23,-1,-1,25,-1,27,-1,-1,29,31,33,-1,35,37,39,-1,-1,41,-1,43,45,47,49,51,-1,-1,-1,-1,-1,-1,-1,-1,-1,-1,-1,-1,-1,-1,-1,-1,-1],"loss_changes":[2.3881556E1,1.5414867E1,8.315435E0,1.0187228E1,5.1794815E0,1.5345417E1,1.8018179E0,1.256419E1,3.3088207E-1,0E0,1.4066414E1,7.9368496E0,1.29872675E1,0E0,0E0,1.5444481E1,0E0,2.819291E0,0E0,0E0,2.353837E0,1.6764975E1,9.500984E0,0E0,1.1989233E0,1.5240551E1,5.734806E0,0E0,0E0,3.8950672E0,0E0,4.6309423E0,2.9501068E1,2.4806046E1,9.0379715E-1,4.4135914E0,0E0,0E0,0E0,0E0,0E0,0E0,0E0,0E0,0E0,0E0,0E0,0E0,0E0,0E0,0E0,0E0,0E0],"parents":[2147483647,0,0,1,1,2,2,3,3,4,4,5,5,6,6,7,7,8,8,10,10,11,11,12,12,15,15,17,17,20,20,21,21,22,22,24,24,25,25,26,26,29,29,31,31,32,32,33,33,34,34,35,35],"right_children":[2,4,6,8,10,12,14,16,18,-1,20,22,24,-1,-1,26,-1,28,-1,-1,30,32,34,-1,36,38,40,-1,-1,42,-1,44,46,48,50,52,-1,-1,-1,-1,-1,-1,-1,-1,-1,-1,-1,-1,-1,-1,-1,-1,-1],"split_conditions":[2.8159464E-5,4.393482E-4,1.9393511E-2,3.7056784E-4,1.8799377E-3,1.2600229E-2,1.1583298E-4,3.910416E-3,3.6136662E-3,-1.14461124E-1,1.9299176E-3,2.5980137E-3,1.5495496E-2,1.11700036E-1,1.3670245E-2,3.2271077E-3,-1.16104715E-1,2.4482301E-6,1.2273625E-1,1.10593036E-1,2.4291498E-3,-3.3038706E-3,1.0084581E-2,-1.8418317E-1,9.386705E-5,1.9646366E-3,9.958528E-6,9.171862E-2,-5.4645587E-2,2.2650056E-3,-1.2339759E-1,3.0221625E-3,5.904671E-5,8.810572E-3,5.274581E-3,-7.475174E-3,5.682086E-2,4.899719E-3,-1.1544732E-1,-7.451096E-2,6.868904E-2,-8.371852E-2,6.366589E-2,-8.463942E-2,4.585293E-2,6.674221E-5,-1.6923167E-1,3.5510894E-2,-1.9164167E-1,2.9924741E-2,9.858729E-2,5.2523114E-2,-1.3086234E-1],"split_indices":[3,2,0,2,2,0,3,0,0,0,2,2,0,0,0,0,0,3,0,0,0,2,0,0,3,0,3,0,0,0,0,0,3,0,2,2,0,0,0,0,0,0,0,0,0,0,0,0,0,0,0,0,0],"split_type":[0,0,0,0,0,0,0,0,0,0,0,0,0,0,0,0,0,0,0,0,0,0,0,0,0,0,0,0,0,0,0,0,0,0,0,0,0,0,0,0,0,0,0,0,0,0,0,0,0,0,0,0,0],"sum_hessian":[4.71141E2,1.2781927E2,3.4332172E2,9.0458115E1,3.7361156E1,3.2927087E2,1.4050836E1,8.24977E1,7.960408E0,2.0909678E1,1.6451479E1,3.174304E2,1.1840495E1,1.1188747E1,2.8620875E0,7.239867E1,1.0099036E1,4.222781E0,3.737627E0,3.9187834E0,1.2532697E1,1.6601602E2,1.5141437E2,5.7854657E0,6.055029E0,4.4172127E1,2.8226542E1,3.1747901E0,1.0479908E0,5.579637E0,6.953059E0,7.636478E1,8.965124E1,1.2359326E2,2.7821102E1,3.523455E0,2.531574E0,2.878734E1,1.5384786E1,2.232271E0,2.599427E1,3.6262748E0,1.9533621E0,1.8766886E0,7.448809E1,7.88332E1,1.0818043E1,1.19582466E2,4.0107946E0,3.7438428E0,2.407726E1,2.3776793E0,1.1457756E0],"tree_param":{"num_deleted":"0","num_feature":"4","num_nodes":"53","size_leaf_vector":"1"}},{"base_weights":[6.748866E-2,-1.008557E-1,1.1399734E-1,8.6840704E-2,9.1284394E-1,1.3656047E-1,6.9583826E-2,1.013448E-1,3.0666066E-2,-4.0212604E-1,1.412665E-1,-1.08054034E-1,-1.7543714E-1,4.6562776E-1,2.5145482E-2,6.9042765E-2,-7.044793E-2,5.50598E-2,-1.569038E-1,-1.0126858E-1,6.1830156E-3],"categories":[],"categories_nodes":[],"categories_segments":[],"categories_sizes":[],"default_left":[0,0,0,0,0,0,0,0,0,0,0,0,0,0,0,0,0,0,0,0,0],"id":25,"left_children":[1,-1,3,5,7,-1,9,-1,-1,11,13,-1,15,17,19,-1,-1,-1,-1,-1,-1],"loss_changes":[2.2945002E1,0E0,9.36582E0,9.178691E0,4.2558193E-1,0E0,1.4306604E1,0E0,0E0,8.261756E0,1.37783375E1,0E0,2.023416E1,1.7458946E1,1.031745E1,0E0,0E0,0E0,0E0,0E0,0E0],"parents":[2147483647,0,0,2,2,3,3,4,4,6,6,9,9,10,10,12,12,13,13,14,14],"right_children":[2,-1,4,6,8,-1,10,-1,-1,12,14,-1,16,18,20,-1,-1,-1,-1,-1,-1],"split_conditions":[2.3695645E-3,-1.008557E-1,1.9393511E-2,2.379183E-3,1.0350268E-2,1.3656047E-1,2.9711374E-3,1.013448E-1,3.0666066E-2,-8.9840003E-4,3.939828E-3,-1.08054034E-1,-3.4341565E-4,4.6114894E-3,4.1120057E-3,6.9042765E-2,-7.044793E-2,5.50598E-2,-1.569038E-1,-1.0126858E-1,6.1830156E-3],"split_indices":[1,0,0,1,1,0,0,0,0,2,0,0,2,2,1,0,0,0,0,0,0],"split_type":[0,0,0,0,0,0,0,0,0,0,0,0,0,0,0,0,0,0,0,0,0],"sum_hessian":[4.569733E2,1.7986814E1,4.3898648E2,4.2574716E2,1.3239306E1,4.5514092E0,4.2119574E2,1.0637119E1,2.6021874E0,5.477071E1,3.6642505E2,1.2663816E1,4.2106895E1,9.557738E1,2.7084766E2,1.578237E1,2.6324524E1,9.249328E1,3.0840986E0,8.245535E0,2.6260214E2],"tree_param":{"num_deleted":"0","num_feature":"4","num_nodes":"21","size_leaf_vector":"1"}},{"base_weights":[1.0470459E-1,-2.1687855E-1,2.848675E-1,1.02745675E-1,-9.634118E-1,-1.1152309E0,3.0749E-1,2.0742674E-1,-1.4289491E-1,-1.2409211E0,1.9517815E-2,-2.3056248E-3,-2.1866374E-1,9.002556E-2,2.7386108E-1,-1.797933E-1,6.854321E-1,-8.429098E-1,-1.7300467E-1,7.0107985E-1,-1.1454207E-1,1.9381179E-1,5.6270206E-1,1.9220143E-3,-1.036932E-1,-9.38682E-2,8.113144E-1,-1.0181941E-1,6.080946E-2,-5.633008E-2,9.925335E-2,5.703763E-1,6.4418204E-2,-9.306274E-2,6.211666E-1,-4.812726E-2,2.966824E-2,9.318619E-2,-9.517805E-2,6.4227425E-2,-1.01445496E-1,-1.7799054E-1,1.3669538E-2,9.835526E-2,4.410996E-2],"categories":[],"categories_nodes":[],"categories_segments":[],"categories_sizes":[],"default_left":[0,0,0,0,0,0,0,0,0,0,0,0,0,0,0,0,0,0,0,0,0,0,0,0,0,0,0,0,0,0,0,0,0,0,0,0,0,0,0,0,0,0,0,0,0],"id":26,"left_children":[1,3,5,7,9,11,13,15,-1,17,19,-1,-1,-1,21,23,25,27,-1,29,-1,31,33,35,-1,-1,37,-1,-1,-1,-1,39,41,-1,43,-1,-1,-1,-1,-1,-1,-1,-1,-1,-1],"loss_changes":[2.5696663E1,3.8171974E1,9.261944E0,1.8177755E1,1.3216808E1,5.1861663E0,5.227083E0,1.9800182E1,0E0,5.5774536E0,9.853634E0,0E0,0E0,0E0,5.9890976E0,9.335104E0,1.0516903E1,6.4381466E0,0E0,3.5137265E0,0E0,1.017441E1,5.53636E0,7.216294E0,0E0,0E0,1.0435205E1,0E0,0E0,0E0,0E0,6.722172E0,2.1176355E1,0E0,3.0555305E0,0E0,0E0,0E0,0E0,0E0,0E0,0E0,0E0,0E0,0E0],"parents":[2147483647,0,0,1,1,2,2,3,3,4,4,5,5,6,6,7,7,9,9,10,10,14,14,15,15,16,16,17,17,19,19,21,21,22,22,23,23,26,26,31,31,32,32,34,34],"right_children":[2,4,6,8,10,12,14,16,-1,18,20,-1,-1,-1,22,24,26,28,-1,30,-1,32,34,36,-1,-1,38,-1,-1,-1,-1,40,42,-1,44,-1,-1,-1,-1,-1,-1,-1,-1,-1,-1],"split_conditions":[3.5463545E-5,4.393482E-4,-7.927149E-3,3.023677E-5,3.2849063E-3,1.2077172E-4,-6.937332E-3,1.9822519E-5,-1.4289491E-1,2.0836722E-5,3.6231885E-3,-2.3056248E-3,-2.1866374E-1,9.002556E-2,7.6747932E-3,3.3167496E-3,3.117693E-3,1.9822519E-5,-1.7300467E-1,2.8712058E-3,-1.1454207E-1,3.773585E-3,4.520167E-3,1.7624251E-3,-1.036932E-1,-9.38682E-2,6.5247254E-3,-1.0181941E-1,6.080946E-2,-5.633008E-2,9.925335E-2,5.6112967E-3,4.101417E-3,-9.306274E-2,8.5528055E-3,-4.812726E-2,2.966824E-2,9.318619E-2,-9.517805E-2,6.4227425E-2,-1.01445496E-1,-1.7799054E-1,1.3669538E-2,9.835526E-2,4.410996E-2],"split_indices":[3,2,2,3,2,3,2,3,0,3,0,0,0,0,2,0,0,3,0,0,0,0,0,0,0,0,0,0,0,0,0,2,0,0,2,0,0,0,0,0,0,0,0,0,0],"split_type":[0,0,0,0,0,0,0,0,0,0,0,0,0,0,0,0,0,0,0,0,0,0,0,0,0,0,0,0,0,0,0,0,0,0,0,0,0,0,0,0,0,0,0,0,0],"sum_hessian":[4.4134137E2,1.5820079E2,2.8314056E2,1.112837E2,4.69171E1,3.6639233E0,2.7947662E2,1.0503512E2,6.248581E0,3.6462074E1,1.0455027E1,2.3664534E0,1.2974699E0,1.3460958E1,2.660157E2,5.8257145E1,4.6777973E1,2.1717695E1,1.4744379E1,6.9013367E0,3.5536902E0,2.0986969E2,5.6145992E1,4.8793835E1,9.46331E0,2.8432744E0,4.3934696E1,1.9704546E1,2.0131485E0,1.0538222E0,5.8475146E0,5.2602795E1,1.5726689E2,1.4888487E0,5.4657143E1,1.811927E1,3.0674562E1,4.1617386E1,2.3173103E0,5.094925E1,1.6535451E0,4.98757E0,1.5227931E2,1.6477854E1,3.817929E1],"tree_param":{"num_deleted":"0","num_feature":"4","num_nodes":"45","size_leaf_vector":"1"}},{"base_weights":[3.6612425E-2,-6.739612E-1,8.607834E-2,-1.8223998E-1,-1.01549365E-1,1.9990759E-2,4.498422E-1,-9.633597E-2,1.2333142E-1,9.87621E-1,-9.78459E-3,-1.0534213E-1,5.0212824E-1,1.3062197E-1,-6.1840534E-2,-6.984731E-2,4.3920034E-1,6.1311907E-1,6.981045E-2,9.727248E-3,-7.067548E-1,5.939994E-1,-1.4006259E-1,9.438444E-2,4.9950576E-1,-1.427176E-1,3.8770476E-1,4.1910596E-3,-9.525299E-2,4.5702E-2,-1.1283757E-1,2.7808312E-2,9.480492E-2,-2.0172508E-2,6.0394295E-2,5.9846174E-2,5.828963E-3],"categories":[],"categories_nodes":[],"categories_segments":[],"categories_sizes":[],"default_left":[0,0,0,0,0,0,0,0,0,0,0,0,0,0,0,0,0,0,0,0,0,0,0,0,0,0,0,0,0,0,0,0,0,0,0,0,0],"id":27,"left_children":[1,3,5,7,-1,9,11,-1,-1,13,15,-1,17,-1,-1,19,21,23,25,27,29,31,-1,-1,33,-1,35,-1,-1,-1,-1,-1,-1,-1,-1,-1,-1],"loss_changes":[1.5557405E1,4.530072E0,9.916968E0,1.5689139E1,0E0,1.02589655E1,5.464978E0,0E0,0E0,6.314909E0,9.235791E0,0E0,2.8690567E0,0E0,0E0,1.5450144E1,1.2251009E1,1.2294197E0,7.1119394E0,8.325681E0,1.7188393E1,3.8636494E0,0E0,0E0,3.01091E0,0E0,7.596061E-1,0E0,0E0,0E0,0E0,0E0,0E0,0E0,0E0,0E0,0E0],"parents":[2147483647,0,0,1,1,2,2,3,3,5,5,6,6,9,9,10,10,12,12,15,15,16,16,17,17,18,18,19,19,20,20,21,21,24,24,26,26],"right_children":[2,4,6,8,-1,10,12,-1,-1,14,16,-1,18,-1,-1,20,22,24,26,28,30,32,-1,-1,34,-1,36,-1,-1,-1,-1,-1,-1,-1,-1,-1,-1],"split_conditions":[1.7624251E-3,1.234568E-3,8.51102E-3,1.2320329E-3,-1.01549365E-1,1.9646366E-3,3.6231885E-3,-9.633597E-2,1.2333142E-1,-7.781995E-4,7.6747932E-3,-1.0534213E-1,1.1132872E-2,1.3062197E-1,-6.1840534E-2,6.908866E-3,8.246752E-3,4.583333E-3,1.1753486E-2,6.0512125E-3,-5.1910332E-3,7.0955297E-3,-1.4006259E-1,9.438444E-2,6.3060075E-3,-1.427176E-1,1.4325866E-2,4.1910596E-3,-9.525299E-2,4.5702E-2,-1.1283757E-1,2.7808312E-2,9.480492E-2,-2.0172508E-2,6.0394295E-2,5.9846174E-2,5.828963E-3],"split_indices":[0,0,1,0,0,0,0,0,0,2,2,0,1,0,0,1,1,0,1,2,2,1,0,0,0,0,1,0,0,0,0,0,0,0,0,0,0],"split_type":[0,0,0,0,0,0,0,0,0,0,0,0,0,0,0,0,0,0,0,0,0,0,0,0,0,0,0,0,0,0,0,0,0,0,0,0,0],"sum_hessian":[4.416329E2,2.7789711E1,4.138432E2,1.2138991E1,1.5650719E1,3.5134222E2,6.2500988E1,8.073841E0,4.0651507E0,9.628471E0,3.4171375E2,1.3929434E0,6.1108047E1,8.242325E0,1.3861463E0,3.0233606E2,3.9377686E1,4.8107635E1,1.3000411E1,2.6949353E2,3.284252E1,3.6996387E1,2.3813002E0,1.0207164E1,3.790047E1,1.6108358E0,1.1389576E1,2.6179788E2,7.6956415E0,8.648752E0,2.4193771E1,2.0643873E1,1.6352512E1,4.668089E0,3.3232384E1,6.2625446E0,5.127031E0],"tree_param":{"num_deleted":"0","num_feature":"4","num_nodes":"37","size_leaf_vector":"1"}},{"base_weights":[5.6759693E-2,-6.2052008E-2,3.1262395E-1,-2.6480606E-2,-1.0369327E0,5.096241E-1,9.107785E-2,-6.365985E-1,3.287186E-2,-1.5470243E-1,5.337757E-2,3.0052018E-1,1.0366954E0,-1.6253167E-1,3.2136977E-1,-1.07059754E-1,-1.0081313E-1,5.7006262E-2,-1.5133153E-1,4.6605852E-1,-1.9321202E-1,1.2318802E-1,5.451508E-1,-1.1379925E-1,4.2976886E-1,-9.089595E-2,1.1606481E-1,9.0468204E-1,2.0995902E-2,-9.200217E-2,5.4333216E-1,2.5064632E-2,8.202543E-2,7.7459216E-1,2.4893485E-1,1.280012E-1,4.275674E-2,-2.2954557E-3,7.5920165E-2,9.57079E-2,2.1018198E-2,2.2411868E-2,8.9421E-2,-6.6853086E-3,6.075863E-2],"categories":[],"categories_nodes":[],"categories_segments":[],"categories_sizes":[],"default_left":[0,0,0,0,0,0,0,0,0,0,0,0,0,0,0,0,0,0,0,0,0,0,0,0,0,0,0,0,0,0,0,0,0,0,0,0,0,0,0,0,0,0,0,0,0],"id":28,"left_children":[1,3,5,7,9,11,13,15,17,-1,-1,19,21,-1,23,25,-1,27,-1,29,-1,-1,31,-1,33,-1,-1,35,37,-1,39,-1,-1,41,43,-1,-1,-1,-1,-1,-1,-1,-1,-1,-1],"loss_changes":[1.3224871E1,1.0153422E1,5.9129868E0,1.0486199E1,9.193892E0,7.550415E0,2.6627064E1,4.8313274E0,9.742165E0,0E0,0E0,2.052137E1,1.0755692E0,0E0,9.816034E0,1.3040688E1,0E0,7.8143206E0,0E0,5.8862085E0,0E0,0E0,3.0643988E-1,0E0,3.2022943E0,0E0,0E0,1.1521969E0,8.208899E0,0E0,6.389902E0,0E0,0E0,9.1458607E-1,4.450285E0,0E0,0E0,0E0,0E0,0E0,0E0,0E0,0E0,0E0,0E0],"parents":[2147483647,0,0,1,1,2,2,3,3,4,4,5,5,6,6,7,7,8,8,11,11,12,12,14,14,15,15,17,17,19,19,22,22,24,24,27,27,28,28,30,30,33,33,34,34],"right_children":[2,4,6,8,10,12,14,16,18,-1,-1,20,22,-1,24,26,-1,28,-1,30,-1,-1,32,-1,34,-1,-1,36,38,-1,40,-1,-1,42,44,-1,-1,-1,-1,-1,-1,-1,-1,-1,-1],"split_conditions":[6.7114094E-3,1.1583298E-4,8.810572E-3,1.7624251E-3,1.4325866E-2,8.343634E-3,9.89749E-3,4.4168987E-6,6.3946405E-3,-1.5470243E-1,5.337757E-2,8.187967E-3,8.454106E-3,-1.6253167E-1,4.5245986E-5,2.607277E-3,-1.0081313E-1,1.9646366E-3,-1.5133153E-1,3.0884457E-5,-1.9321202E-1,1.2318802E-1,7.2470524E-5,-1.1379925E-1,1.06557375E-2,-9.089595E-2,1.1606481E-1,2.379183E-3,8.51102E-3,-9.200217E-2,5.262722E-5,2.5064632E-2,8.202543E-2,6.31989E-3,1.5495496E-2,1.280012E-1,4.275674E-2,-2.2954557E-3,7.5920165E-2,9.57079E-2,2.1018198E-2,2.2411868E-2,8.9421E-2,-6.6853086E-3,6.075863E-2],"split_indices":[0,3,0,0,1,0,0,3,0,0,0,0,0,0,3,1,0,0,0,3,0,0,3,0,0,0,0,1,1,0,3,0,0,1,0,0,0,0,0,0,0,0,0,0,0],"split_type":[0,0,0,0,0,0,0,0,0,0,0,0,0,0,0,0,0,0,0,0,0,0,0,0,0,0,0,0,0,0,0,0,0,0,0,0,0,0,0,0,0,0,0,0,0],"sum_hessian":[4.32571E2,2.9565088E2,1.3692015E2,2.8633292E2,9.317963E0,7.154776E1,6.537239E1,2.4672216E1,2.616607E2,7.093179E0,2.224784E0,5.2485275E1,1.906248E1,6.965533E0,5.8406857E1,1.0815044E1,1.3857172E1,2.586512E2,3.009475E0,4.9640724E1,2.8445518E0,1.2420793E1,6.6416893E0,3.3178883E0,5.5088966E1,6.8462567E0,3.9687874E0,9.44391E0,2.492073E2,1.9770832E0,4.7663643E1,4.3062973E0,2.3353918E0,1.7631641E1,3.7457325E1,4.2265863E0,5.217324E0,2.3599062E2,1.32167015E1,2.0290915E1,2.7372726E1,3.8096228E0,1.3822018E1,2.0203333E1,1.7253994E1],"tree_param":{"num_deleted":"0","num_feature":"4","num_nodes":"45","size_leaf_vector":"1"}},{"base_weights":[-4.505818E-2,-2.804602E-1,1.2781243E-1,-1.7755333E-1,-8.6719435E-1,7.6769656E-1,7.46236E-2,-3.070874E-1,4.604224E-1,-2.9138184E-1,-2.1824442E-1,3.8385075E-2,1.2191647E-1,8.371151E-1,1.8815262E-2,-4.6169245E-1,1.7984764E-1,-8.5435495E-2,6.6626465E-1,-1.5971905E-1,3.2136548E-1,-8.979235E-2,8.4141806E-2,-1.3930129E-1,1.1387849E-1,-1.2341008E0,1.2755024E-1,-2.1386732E-1,-1.3641034E0,-1.0094058E-1,5.155488E-1,8.1996036E-1,-8.9403026E-2,7.164952E-1,-1.2725115E-1,-3.6086875E-1,-2.0311141E-1,-1.17088325E-1,4.1263613E-1,1.4158921E-2,-7.836563E-2,-1.6129322E-1,5.361327E-2,7.421144E-2,-1.3774964E-1,9.7269945E-2,3.9970413E-2,-1.3106279E-1,7.942561E-2,2.7123203E-3,1.1326777E-1,-1.646905E-1,1.1774899E-1,2.9802058E-2,-5.328851E-2,7.879114E-2,2.717481E-2],"categories":[],"categories_nodes":[],"categories_segments":[],"categories_sizes":[],"default_left":[0,0,0,0,0,0,0,0,0,0,0,0,0,0,0,0,0,0,0,0,0,0,0,0,0,0,0,0,0,0,0,0,0,0,0,0,0,0,0,0,0,0,0,0,0,0,0,0,0,0,0,0,0,0,0,0,0],"id":29,"left_children":[1,3,5,7,9,11,13,15,17,19,-1,21,-1,23,25,27,29,-1,31,-1,33,-1,-1,-1,-1,35,37,39,41,-1,43,45,47,49,-1,51,-1,53,55,-1,-1,-1,-1,-1,-1,-1,-1,-1,-1,-1,-1,-1,-1,-1,-1,-1,-1],"loss_changes":[1.6392174E1,1.0041346E1,7.7536025E0,1.2235543E1,1.8089512E1,5.606123E0,9.065608E0,9.335833E0,7.316495E0,1.5547979E1,0E0,6.635321E0,0E0,1.1347382E1,2.7549458E1,2.0447403E1,1.2485194E1,0E0,2.7298384E0,0E0,9.333671E0,0E0,0E0,0E0,0E0,1.0261652E1,1.3101305E1,1.5280381E1,1.0362583E1,0E0,1.1336338E1,6.7383957E-1,6.004098E0,3.1460605E0,0E0,1.9748446E1,0E0,1.762994E1,4.261156E0,0E0,0E0,0E0,0E0,0E0,0E0,0E0,0E0,0E0,0E0,0E0,0E0,0E0,0E0,0E0,0E0,0E0,0E0],"parents":[2147483647,0,0,1,1,2,2,3,3,4,4,5,5,6,6,7,7,8,8,9,9,11,11,13,13,14,14,15,15,16,16,18,18,20,20,25,25,26,26,27,27,28,28,30,30,31,31,32,32,33,33,35,35,37,37,38,38],"right_children":[2,4,6,8,10,12,14,16,18,20,-1,22,-1,24,26,28,30,-1,32,-1,34,-1,-1,-1,-1,36,38,40,42,-1,44,46,48,50,-1,52,-1,54,56,-1,-1,-1,-1,-1,-1,-1,-1,-1,-1,-1,-1,-1,-1,-1,-1,-1,-1],"split_conditions":[5.5848667E-3,5.261814E-3,3.1486147E-3,2.7417245E-3,4.3829554E-3,2.9711374E-3,5.6360015E-3,4.6669496E-3,4.1659293E-3,5.3947144E-3,-2.1824442E-1,4.6114894E-3,1.2191647E-1,6.127451E-3,6.00387E-3,4.2299535E-3,4.535757E-3,-8.5435495E-2,5.274581E-3,-1.5971905E-1,5.499179E-3,-8.979235E-2,8.4141806E-2,-1.3930129E-1,1.1387849E-1,2.4843527E-4,3.2849063E-3,-3.051113E-4,2.248105E-3,-1.0094058E-1,1.1580468E-3,4.0032025E-3,9.048502E-3,5.5329064E-3,-1.2725115E-1,1.823597E-4,-2.0311141E-1,-3.3826877E-3,4.5489008E-3,1.4158921E-2,-7.836563E-2,-1.6129322E-1,5.361327E-2,7.421144E-2,-1.3774964E-1,9.7269945E-2,3.9970413E-2,-1.3106279E-1,7.942561E-2,2.7123203E-3,1.1326777E-1,-1.646905E-1,1.1774899E-1,2.9802058E-2,-5.328851E-2,7.879114E-2,2.717481E-2],"split_indices":[1,1,0,2,2,0,1,0,1,1,0,2,0,0,1,1,1,0,2,0,1,0,0,0,0,2,2,2,2,0,2,0,2,0,0,2,0,2,0,0,0,0,0,0,0,0,0,0,0,0,0,0,0,0,0,0,0],"split_type":[0,0,0,0,0,0,0,0,0,0,0,0,0,0,0,0,0,0,0,0,0,0,0,0,0,0,0,0,0,0,0,0,0,0,0,0,0,0,0,0,0,0,0,0,0,0,0,0,0,0,0,0,0,0,0,0,0],"sum_hessian":[4.0055856E2,1.6958572E2,2.3097284E2,1.4553372E2,2.405201E1,1.6550446E1,2.144224E2,1.2153313E2,2.400059E1,1.7630848E1,6.4211617E0,6.8275666E0,9.722879E0,1.3546685E1,2.0087572E2,9.2440025E1,2.9093103E1,2.7566545E0,2.1243935E1,5.169936E0,1.2460913E1,3.0401568E0,3.78741E0,1.1435679E0,1.2403117E1,1.5141069E1,1.8573465E2,7.3580696E1,1.8859331E1,5.8971486E0,2.3195953E1,1.7692665E1,3.5512698E0,1.0476859E1,1.9840533E0,7.978178E0,7.162891E0,1.000866E2,8.564804E1,4.566752E1,2.7913174E1,1.6855928E1,2.0034022E0,2.1306704E1,1.8892498E0,1.18378105E1,5.854855E0,1.3355336E0,2.2157362E0,4.435413E0,6.041446E0,4.342436E0,3.6357424E0,5.0106125E1,4.998048E1,2.193058E1,6.371746E1],"tree_param":{"num_deleted":"0","num_feature":"4","num_nodes":"57","size_leaf_vector":"1"}},{"base_weights":[7.375707E-2,-1.0123227E-1,1.2703307E-1,1.8672834E-1,-2.8738284E-1,8.740502E-2,4.7438368E-1,-8.3415484E-1,2.435916E-1,1.2770614E-1,-1.457473E-1,7.757835E-1,-9.963665E-3,-1.4831531E0,-8.721476E-2,-1.5844476E-1,5.835713E-1,2.4058597E-1,-2.0874737E-1,8.390084E-1,-9.072314E-2,-1.5519121E-1,2.3290847E-1,-1.7638415E-1,5.823819E-2,4.0696424E-1,-9.1283685E-1,8.38348E-1,-1.4932045E-1,5.972398E-3,5.7819404E-2,-5.9366086E-3,-1.6861786E-1,7.262485E-2,1.3308276E-1,-1.7832622E-2,8.308778E-2,7.585819E-2,-1.9828726E-2,-1.77647E-1,1.7043378E-2,4.9232822E-2,9.446245E-2,-1.5683071E-1,5.669741E-2],"categories":[],"categories_nodes":[],"categories_segments":[],"categories_sizes":[],"default_left":[0,0,0,0,0,0,0,0,0,0,0,0,0,0,0,0,0,0,0,0,0,0,0,0,0,0,0,0,0,0,0,0,0,0,0,0,0,0,0,0,0,0,0,0,0],"id":30,"left_children":[1,-1,3,5,7,9,11,13,15,17,-1,19,21,23,25,-1,27,29,31,33,-1,-1,35,-1,-1,37,39,41,43,-1,-1,-1,-1,-1,-1,-1,-1,-1,-1,-1,-1,-1,-1,-1,-1],"loss_changes":[2.4451939E1,0E0,1.0016908E1,9.993694E0,1.5052137E1,1.6491953E1,1.3247557E1,1.2034815E1,1.7310411E1,9.863451E0,0E0,6.6836777E0,1.3768452E1,8.952593E0,5.7061324E0,0E0,4.5154915E0,1.1753532E1,1.41156435E1,1.8381042E0,0E0,0E0,7.944139E0,0E0,0E0,2.0616894E0,5.359476E0,3.2050133E-2,7.8171387E0,0E0,0E0,0E0,0E0,0E0,0E0,0E0,0E0,0E0,0E0,0E0,0E0,0E0,0E0,0E0,0E0],"parents":[2147483647,0,0,2,2,3,3,4,4,5,5,6,6,7,7,8,8,9,9,11,11,12,12,13,13,14,14,16,16,17,17,18,18,19,19,22,22,25,25,26,26,27,27,28,28],"right_children":[2,-1,4,6,8,10,12,14,16,18,-1,20,22,24,26,-1,28,30,32,34,-1,-1,36,-1,-1,38,40,42,44,-1,-1,-1,-1,-1,-1,-1,-1,-1,-1,-1,-1,-1,-1,-1,-1],"split_conditions":[1.7624251E-3,-1.0123227E-1,8.810572E-3,6.2480476E-3,5.274581E-3,1.2077172E-4,1.1580468E-3,8.947774E-5,1.0084581E-2,4.6963054E-3,-1.457473E-1,8.454106E-3,3.2849063E-3,1.9393511E-2,1.2077172E-4,-1.5844476E-1,1.2600229E-2,4.9507624E-5,8.0340214E-5,8.343634E-3,-9.072314E-2,-1.5519121E-1,8.264462E-3,-1.7638415E-1,5.823819E-2,-4.232544E-3,2.2865269E-4,1.1026616E-2,1.6460905E-2,5.972398E-3,5.7819404E-2,-5.9366086E-3,-1.6861786E-1,7.262485E-2,1.3308276E-1,-1.7832622E-2,8.308778E-2,7.585819E-2,-1.9828726E-2,-1.77647E-1,1.7043378E-2,4.9232822E-2,9.446245E-2,-1.5683071E-1,5.669741E-2],"split_indices":[0,0,0,0,2,3,2,3,0,0,0,0,2,0,3,0,0,3,3,0,0,0,0,0,0,2,3,0,0,0,0,0,0,0,0,0,0,0,0,0,0,0,0,0,0],"split_type":[0,0,0,0,0,0,0,0,0,0,0,0,0,0,0,0,0,0,0,0,0,0,0,0,0,0,0,0,0,0,0,0,0,0,0,0,0,0,0,0,0,0,0,0,0],"sum_hessian":[4.208982E2,1.8751587E1,4.021466E2,3.5220355E2,4.9943054E1,2.6303333E2,8.9170204E1,2.4416973E1,2.5526081E1,2.5730316E2,5.7301836E0,5.4722332E1,3.4447872E1,1.2466025E1,1.1950948E1,3.3827572E0,2.2143324E1,1.9310034E2,6.420282E1,5.328163E1,1.4406997E0,4.010144E0,3.0437729E1,1.1145872E1,1.320154E0,7.717545E0,4.2334027E0,1.642576E1,5.7175646E0,1.2669886E2,6.640148E1,5.931356E1,4.889256E0,4.552423E1,7.7574024E0,1.8351562E1,1.2086165E1,4.825869E0,2.891676E0,2.0508058E0,2.182597E0,5.404151E0,1.1021608E1,1.5658114E0,4.151753E0],"tree_param":{"num_deleted":"0","num_feature":"4","num_nodes":"45","size_leaf_vector":"1"}}]},"name":"gbtree"},"learner_model_param":{"base_score":"5E-1","boost_from_average":"0","num_class":"0","num_feature":"4","num_target":"1"},"objective":{"name":"binary:logistic","reg_loss_param":{"scale_pos_weight":"16.0689659"}}},"version":[3,0,2]}