{"learner":{"attributes":{"best_iteration":"0","best_score":"0.7165376305949208","scikit_learn":"{\"_estimator_type\": \"classifier\"}"},"feature_names":[],"feature_types":[],"gradient_booster":{"model":{"gbtree_model_param":{"num_parallel_tree":"1","num_trees":"31"},"iteration_indptr":[0,1,2,3,4,5,6,7,8,9,10,11,12,13,14,15,16,17,18,19,20,21,22,23,24,25,26,27,28,29,30,31],"tree_info":[0,0,0,0,0,0,0,0,0,0,0,0,0,0,0,0,0,0,0,0,0,0,0,0,0,0,0,0,0,0,0],"trees":[{"base_weights":[-1.8514374E-2,-9.1352075E-1,6.6019785E-1,-1.9192308E-1,-7.5775826E-1,1.7855251E-1,1.31515E0,-5.9574026E-1,-1.5983768E0,1.6298639E-2,8.78075E-1,1.0204186E0,1.4918034E-1,-1.8212765E-1,-4.8566943E-1,-1.9066666E-1,-1.5552701E-1,4.329157E-1,-4.0168956E-1,1.106951E0,-1.5552701E-1,1.124525E0,-1.16E-1,1.7490591E-1,-6.6257846E-1,1.1103753E-1,-1.4E-1,5.2267134E-1,-1.3538462E-1,-1.86875E-1,9.536826E-2,1.6102515E-1,7.9446363E-1,-1.3E-1,7.200772E-2,1.3458353E0,7.894127E-1,1.3464089E-1,-8.05153E-2,-1.14803925E-1,-1.601015E-2,-3.9790254E-2,7.459417E-2,4.2490225E-2,-1.72E-1,-1.23636365E-1,1.12216495E-1,4.1680958E-2,1.474604E-1,8.854588E-3,1.2918629E-1],"categories":[],"categories_nodes":[],"categories_segments":[],"categories_sizes":[],"default_left":[0,0,0,0,0,0,0,0,0,0,0,0,0,0,0,0,0,0,0,0,0,0,0,0,0,0,0,0,0,0,0,0,0,0,0,0,0,0,0,0,0,0,0,0,0,0,0,0,0,0,0],"id":0,"left_children":[1,3,5,-1,7,9,11,13,15,17,19,21,-1,-1,23,-1,25,27,29,31,33,35,-1,37,39,-1,-1,41,-1,-1,43,-1,45,-1,-1,47,49,-1,-1,-1,-1,-1,-1,-1,-1,-1,-1,-1,-1,-1,-1],"loss_changes":[2.807735E2,2.9511353E1,8.2517296E1,0E0,2.2578209E1,1.7225554E1,4.011963E0,1.8835342E1,1.1722847E1,2.1956701E1,7.035841E0,1.15200615E1,0E0,0E0,1.6191792E1,0E0,1.1011538E1,1.0766178E1,4.6172623E1,2.196165E0,6.991308E0,1.9516068E0,0E0,3.5171764E1,2.6153034E1,0E0,0E0,1.2866993E1,0E0,0E0,2.921491E1,0E0,1.2471995E1,0E0,0E0,2.1404953E0,6.7580748E0,0E0,0E0,0E0,0E0,0E0,0E0,0E0,0E0,0E0,0E0,0E0,0E0,0E0,0E0],"parents":[2147483647,0,0,1,1,2,2,4,4,5,5,6,6,7,7,8,8,9,9,10,10,11,11,14,14,16,16,17,17,18,18,19,19,20,20,21,21,23,23,24,24,27,27,30,30,32,32,35,35,36,36],"right_children":[2,4,6,-1,8,10,12,14,16,18,20,22,-1,-1,24,-1,26,28,30,32,34,36,-1,38,40,-1,-1,42,-1,-1,44,-1,46,-1,-1,48,50,-1,-1,-1,-1,-1,-1,-1,-1,-1,-1,-1,-1,-1,-1],"split_conditions":[3.653229E-3,1.724375E-3,1.1752069E-4,-1.9192308E-1,3.2759486E-3,6.6262125E-3,7.7376286E-3,1.0391567E-5,3.6132107E-3,4.185887E-3,8.409348E-3,7.3775738E-3,1.4918034E-1,-1.8212765E-1,2.1372337E-3,-1.9066666E-1,2.4356039E-5,9.47723E-5,4.733314E-5,6.788157E-3,9.47723E-5,1.6966012E-4,-1.16E-1,1.4550972E-5,2.75781E-3,1.1103753E-1,-1.4E-1,2.6252905E-5,-1.3538462E-1,-1.86875E-1,8.00746E-5,1.6102515E-1,6.957618E-3,-1.3E-1,7.200772E-2,4.9051056E-3,6.788157E-3,1.3464089E-1,-8.05153E-2,-1.14803925E-1,-1.601015E-2,-3.9790254E-2,7.459417E-2,4.2490225E-2,-1.72E-1,-1.23636365E-1,1.12216495E-1,4.1680958E-2,1.474604E-1,8.854588E-3,1.2918629E-1],"split_indices":[0,0,2,0,0,0,0,2,0,0,0,0,0,0,0,0,2,2,2,0,2,2,0,2,0,0,0,2,0,0,2,0,0,0,0,0,0,0,0,0,0,0,0,0,0,0,0,0,0,0,0],"split_type":[0,0,0,0,0,0,0,0,0,0,0,0,0,0,0,0,0,0,0,0,0,0,0,0,0,0,0,0,0,0,0,0,0,0,0,0,0,0,0,0,0,0,0,0,0,0,0,0,0,0,0],"sum_hessian":[4.6018076E2,1.9838077E2,2.618E2,2.5E1,1.7338077E2,1.5168077E2,1.1011923E2,1.4689615E2,2.6484615E1,1.2406923E2,2.7611538E1,4.401923E1,6.61E1,1.075E1,1.3614615E2,2.15E1,4.9846153E0,6.223846E1,6.183077E1,2.2626923E1,4.9846153E0,4.251923E1,1.5E0,2.8642307E1,1.07503845E2,2.4846153E0,2.5E0,5.998846E1,2.25E0,1.5E1,4.683077E1,6.953846E0,1.5673077E1,2E0,2.9846153E0,2.3611538E1,1.8907692E1,1.2923077E1,1.5719231E1,5.3923077E1,5.358077E1,1.1469231E1,4.851923E1,4.033077E1,6.5E0,1.75E0,1.3923077E1,3.4846153E0,2.0126923E1,8.469231E0,1.0438461E1],"tree_param":{"num_deleted":"0","num_feature":"3","num_nodes":"51","size_leaf_vector":"1"}},{"base_weights":[4.579209E-2,-8.0055755E-1,6.965742E-1,-1.7306249E-1,-6.920481E-1,2.8110644E-1,1.1667584E0,-7.492474E-1,6.94514E-1,-1.635519E-1,6.985205E-1,1.0232852E0,1.3423398E0,1.2549925E-1,-7.855297E-1,1.4395519E-1,-1.13890804E-1,4.4249743E-1,-1.1770744E0,1.4424951E-1,4.8098314E-1,1.1262901E0,1.5880589E-1,1.496431E-1,1.0252504E0,-1.679716E-1,-7.100849E-1,-1.5861441E-1,7.178312E-1,-1.682743E-1,-6.096319E-1,-2.50374E-1,8.866684E-1,1.2506827E0,6.889868E-1,-1.21687315E-1,7.426833E-1,-1.1529418E-1,1.2332456E0,2.26479E-2,-8.144224E-2,1.05846E-1,1.8643208E-2,4.4468287E-2,-1.7370866E-1,5.687436E-2,-1.01946905E-1,-1.3077115E-1,1.0820802E-1,1.4114909E-1,8.2463935E-2,-1.2552063E-1,1.0090542E-1,1.3022135E-1,1.8057402E-2,3.0241108E-2,1.4144944E-1],"categories":[],"categories_nodes":[],"categories_segments":[],"categories_sizes":[],"default_left":[0,0,0,0,0,0,0,0,0,0,0,0,0,0,0,0,0,0,0,0,0,0,0,0,0,0,0,0,0,0,0,0,0,0,0,0,0,0,0,0,0,0,0,0,0,0,0,0,0,0,0,0,0,0,0,0,0],"id":1,"left_children":[1,3,5,-1,7,9,11,13,15,17,19,21,23,-1,25,-1,-1,27,29,-1,31,33,35,-1,37,-1,39,-1,41,-1,43,45,47,49,51,-1,53,-1,55,-1,-1,-1,-1,-1,-1,-1,-1,-1,-1,-1,-1,-1,-1,-1,-1,-1,-1],"loss_changes":[2.5574602E2,1.8926208E1,5.0811523E1,0E0,1.4998489E1,2.6302097E1,1.4814453E0,1.3722939E1,1.2159237E1,4.289848E1,1.0917507E1,6.109108E0,7.380829E-1,0E0,1.02621E1,0E0,0E0,2.5496742E1,6.2360077E0,0E0,1.7505154E1,2.4322357E0,8.0366535E0,0E0,1.0619991E1,0E0,1.604322E1,0E0,6.785818E0,0E0,1.7499851E1,1.41056595E1,1.7531925E1,1.9362183E0,1.1574427E1,0E0,1.8017642E0,0E0,2.6131325E0,0E0,0E0,0E0,0E0,0E0,0E0,0E0,0E0,0E0,0E0,0E0,0E0,0E0,0E0,0E0,0E0,0E0,0E0],"parents":[2147483647,0,0,1,1,2,2,4,4,5,5,6,6,7,7,8,8,9,9,10,10,11,11,12,12,14,14,17,17,18,18,20,20,21,21,22,22,24,24,26,26,28,28,30,30,31,31,32,32,33,33,34,34,36,36,38,38],"right_children":[2,4,6,-1,8,10,12,14,16,18,20,22,24,-1,26,-1,-1,28,30,-1,32,34,36,-1,38,-1,40,-1,42,-1,44,46,48,50,52,-1,54,-1,56,-1,-1,-1,-1,-1,-1,-1,-1,-1,-1,-1,-1,-1,-1,-1,-1,-1,-1],"split_conditions":[3.7407246E-3,1.6494878E-3,6.29803E-3,-1.7306249E-1,1.0495761E-4,6.3386025E-5,2.4051977E-4,1.6736713E-3,3.3018624E-3,4.185887E-3,6.909731E-5,8.409348E-3,1.1828756E-2,1.2549925E-1,1.0391567E-5,1.4395519E-1,-1.13890804E-1,2.2765722E-5,4.733314E-5,1.4424951E-1,9.47723E-5,1.61066E-4,9.47723E-5,1.496431E-1,1.2611837E-2,-1.679716E-1,1.232507E-5,-1.5861441E-1,3.5324385E-5,-1.682743E-1,5.1736293E-5,4.5854542E-3,4.1558947E-3,7.0664817E-3,6.788157E-3,-1.21687315E-1,9.218116E-3,-1.1529418E-1,3.386575E-4,2.26479E-2,-8.144224E-2,1.05846E-1,1.8643208E-2,4.4468287E-2,-1.7370866E-1,5.687436E-2,-1.01946905E-1,-1.3077115E-1,1.0820802E-1,1.4114909E-1,8.2463935E-2,-1.2552063E-1,1.0090542E-1,1.3022135E-1,1.8057402E-2,3.0241108E-2,1.4144944E-1],"split_indices":[0,0,0,0,2,2,2,0,0,0,2,0,0,0,2,0,0,2,2,0,2,2,2,0,0,0,2,0,2,0,2,0,0,0,0,0,0,0,2,0,0,0,0,0,0,0,0,0,0,0,0,0,0,0,0,0,0],"split_type":[0,0,0,0,0,0,0,0,0,0,0,0,0,0,0,0,0,0,0,0,0,0,0,0,0,0,0,0,0,0,0,0,0,0,0,0,0,0,0,0,0,0,0,0,0,0,0,0,0,0,0,0,0,0,0,0,0],"sum_hessian":[4.6233292E2,2.0080278E2,2.6153015E2,1.932153E1,1.8148126E2,1.3980507E2,1.2172508E2,1.7480197E2,6.6792784E0,6.787186E1,7.1933205E1,7.1058426E1,5.0666653E1,2.4618752E0,1.723401E2,4.940859E0,1.7384197E0,4.2764812E1,2.510705E1,1.4896536E1,5.703667E1,6.3119095E1,7.9393325E0,3.1381838E1,1.9284813E1,1.165174E1,1.6068835E2,4.4982195E0,3.826659E1,1.214367E1,1.2963379E1,2.0398752E1,3.6637917E1,4.7514687E1,1.5604407E1,1.9915737E0,5.947759E0,1.2430711E0,1.8041742E1,1.5893609E1,1.4479475E2,2.2599934E1,1.5666657E1,6.966086E0,5.9972925E0,9.941321E0,1.0457432E1,2.4885793E0,3.4149338E1,3.264517E1,1.4869521E1,1.7486165E0,1.3855791E1,2.2317212E0,3.7160378E0,3.4652996E0,1.4576443E1],"tree_param":{"num_deleted":"0","num_feature":"3","num_nodes":"57","size_leaf_vector":"1"}},{"base_weights":[-2.7633205E-2,-4.6510732E-1,7.779365E-1,-1.69977E-1,-3.1107846E-1,2.7664477E-1,1.0592012E0,-2.2883283E-1,-1.7919646E-1,4.8224577E-1,-1.576068E-1,1.1876154E0,7.220602E-1,-3.624232E-1,7.448098E-1,-1.4050601E-1,6.337624E-1,1.0101739E0,1.4349152E-1,-1.472663E-1,9.2971885E-1,-2.249221E-1,-8.7807053E-1,-1.0150575E-1,8.753325E-1,9.463129E-1,-4.0422282E-1,1.2270633E0,2.744381E-1,6.2738186E-1,1.3907453E-1,-5.2631576E-2,4.5407945E-3,-1.7464517E-1,-2.9608106E-2,5.9117522E-2,1.4918204E-1,1.4131679E-1,5.9082102E-2,-1.5268748E-1,3.199525E-2,1.5569524E-1,1.0407477E-1,8.448751E-2,-1.4213845E-1,9.473529E-2,-1.3747413E-1],"categories":[],"categories_nodes":[],"categories_segments":[],"categories_sizes":[],"default_left":[0,0,0,0,0,0,0,0,0,0,0,0,0,0,0,0,0,0,0,0,0,0,0,0,0,0,0,0,0,0,0,0,0,0,0,0,0,0,0,0,0,0,0,0,0,0,0],"id":2,"left_children":[1,3,5,-1,7,9,11,13,-1,15,-1,17,19,21,23,-1,25,27,-1,-1,29,31,33,-1,35,37,39,41,43,45,-1,-1,-1,-1,-1,-1,-1,-1,-1,-1,-1,-1,-1,-1,-1,-1,-1],"loss_changes":[1.5680527E2,5.412569E1,2.1647133E1,0E0,3.0781115E1,2.2648918E1,3.272461E0,3.2150757E1,0E0,1.5910823E1,0E0,1.4000702E0,1.512201E1,1.5046423E1,7.730053E0,0E0,1.6531576E1,6.64085E0,0E0,0E0,2.8746033E0,1.4123576E1,2.2067558E1,0E0,3.8803787E0,5.354721E0,1.0452912E1,2.1603394E-1,1.2328602E1,1.3471927E1,0E0,0E0,0E0,0E0,0E0,0E0,0E0,0E0,0E0,0E0,0E0,0E0,0E0,0E0,0E0,0E0,0E0],"parents":[2147483647,0,0,1,1,2,2,4,4,5,5,6,6,7,7,9,9,11,11,12,12,13,13,14,14,16,16,17,17,20,20,21,21,22,22,24,24,25,25,26,26,27,27,28,28,29,29],"right_children":[2,4,6,-1,8,10,12,14,-1,16,-1,18,20,22,24,-1,26,28,-1,-1,30,32,34,-1,36,38,40,42,44,46,-1,-1,-1,-1,-1,-1,-1,-1,-1,-1,-1,-1,-1,-1,-1,-1,-1],"split_conditions":[6.4059505E-3,1.1942696E-5,1.1752069E-4,-1.69977E-1,5.989265E-3,9.670499E-5,1.2336837E-2,5.6644436E-3,-1.7919646E-1,4.571128E-5,-1.576068E-1,2.1768322E-4,1.2568522E-2,3.9108316E-5,3.5324385E-5,-1.4050601E-1,7.0355255E-3,1.0363316E-2,1.4349152E-1,-1.472663E-1,1.55414725E-2,4.1701877E-3,4.865827E-5,-1.0150575E-1,9.0773014E-5,6.538866E-3,7.5654387E-3,7.2233477E-3,1.5602792E-4,1.4157273E-2,1.3907453E-1,-5.2631576E-2,4.5407945E-3,-1.7464517E-1,-2.9608106E-2,5.9117522E-2,1.4918204E-1,1.4131679E-1,5.9082102E-2,-1.5268748E-1,3.199525E-2,1.5569524E-1,1.0407477E-1,8.448751E-2,-1.4213845E-1,9.473529E-2,-1.3747413E-1],"split_indices":[1,2,2,0,1,2,1,1,0,2,0,2,1,2,2,0,1,1,0,0,1,1,2,0,2,1,1,1,2,1,0,0,0,0,0,0,0,0,0,0,0,0,0,0,0,0,0],"split_type":[0,0,0,0,0,0,0,0,0,0,0,0,0,0,0,0,0,0,0,0,0,0,0,0,0,0,0,0,0,0,0,0,0,0,0,0,0,0,0,0,0,0,0,0,0,0,0],"sum_hessian":[4.4300586E2,2.874497E2,1.5555617E2,3.0697823E1,2.5675186E2,5.675037E1,9.880579E1,2.4440039E2,1.2351488E1,5.179609E1,4.9542813E0,6.951058E1,2.9295216E1,2.1555522E2,2.8845171E1,3.1853807E0,4.861071E1,4.3667583E1,2.5842995E1,1.9640508E0,2.7331163E1,1.7146338E2,4.4091835E1,1.4708147E0,2.7374355E1,3.75028E1,1.110791E1,3.3104813E1,1.0562771E1,1.8063215E1,9.267949E0,8.080077E1,9.0662605E1,1.6820889E1,2.7270947E1,2.0189552E1,7.1848035E0,1.4804296E1,2.2698503E1,3.9751284E0,7.132782E0,9.099693E0,2.400512E1,8.323642E0,2.239129E0,1.6071507E1,1.991708E0],"tree_param":{"num_deleted":"0","num_feature":"3","num_nodes":"47","size_leaf_vector":"1"}},{"base_weights":[4.4755507E-3,-7.626584E-1,5.6078297E-1,-1.582769E-1,-5.920743E-1,9.3146496E-2,8.116398E-1,-6.6061366E-1,1.2888601E-1,-1.4973395E-1,1.0297893E0,6.638784E-1,1.0819988E0,-1.1111959E0,-4.179138E-1,1.4915465E-1,-1.6202764E-1,1.1779271E0,2.357664E-2,7.2125334E-1,-3.9347586E-1,1.3348606E0,9.282834E-1,1.8398774E-1,-1.512983E0,-2.585077E-1,-1.1467985E0,5.3180265E-1,-3.3297515E-1,1.3412735E-1,3.6575135E-2,5.9393257E-1,9.6347874E-1,7.475326E-2,-1.4455126E-1,8.613486E-1,1.571733E-1,7.0134187E-1,1.3809323E-1,-1.1852725E-1,6.324343E-2,-1.7128417E-1,-9.258561E-2,-5.3474035E-2,1.1753562E-2,-4.545426E-2,-1.5670645E-1,8.2545705E-2,-5.91142E-2,-1.6764028E-1,3.5096593E-3,7.1697734E-2,2.861683E-3,1.1030644E-1,5.0012875E-2,2.4363885E-2,1.1794265E-1,9.312435E-2,2.4064308E-2],"categories":[],"categories_nodes":[],"categories_segments":[],"categories_sizes":[],"default_left":[0,0,0,0,0,0,0,0,0,0,0,0,0,0,0,0,0,0,0,0,0,0,0,0,0,0,0,0,0,0,0,0,0,0,0,0,0,0,0,0,0,0,0,0,0,0,0,0,0,0,0,0,0,0,0,0,0,0,0],"id":3,"left_children":[1,3,5,-1,7,9,11,13,-1,15,17,19,21,23,25,27,-1,29,-1,31,33,35,37,39,41,43,45,47,49,-1,-1,51,53,-1,-1,55,-1,57,-1,-1,-1,-1,-1,-1,-1,-1,-1,-1,-1,-1,-1,-1,-1,-1,-1,-1,-1,-1,-1],"loss_changes":[1.9513167E2,2.5726227E1,3.0937012E1,0E0,2.1513454E1,2.1589909E1,5.9901276E0,1.6422623E1,0E0,3.348735E1,1.8786602E0,7.246723E0,8.3021545E-1,2.840892E1,1.1532616E1,1.1901416E1,0E0,1.4755363E0,0E0,2.6273956E0,8.87721E0,6.2374496E-1,2.9591103E0,9.027508E0,2.9883652E0,9.031139E0,4.346569E0,1.2340351E1,1.4351149E1,0E0,0E0,5.0656204E0,1.5909424E0,0E0,0E0,1.329937E0,0E0,2.729805E0,0E0,0E0,0E0,0E0,0E0,0E0,0E0,0E0,0E0,0E0,0E0,0E0,0E0,0E0,0E0,0E0,0E0,0E0,0E0,0E0,0E0],"parents":[2147483647,0,0,1,1,2,2,4,4,5,5,6,6,7,7,9,9,10,10,11,11,12,12,13,13,14,14,15,15,17,17,19,19,20,20,21,21,22,22,23,23,24,24,25,25,26,26,27,27,28,28,31,31,32,32,35,35,37,37],"right_children":[2,4,6,-1,8,10,12,14,-1,16,18,20,22,24,26,28,-1,30,-1,32,34,36,38,40,42,44,46,48,50,-1,-1,52,54,-1,-1,56,-1,58,-1,-1,-1,-1,-1,-1,-1,-1,-1,-1,-1,-1,-1,-1,-1,-1,-1,-1,-1,-1,-1],"split_conditions":[3.6132107E-3,1.1942696E-5,6.3386025E-5,-1.582769E-1,1.0495761E-4,6.29803E-3,2.015898E-4,2.4563498E-3,1.2888601E-1,4.8086722E-3,6.99021E-3,1.8343636E-4,8.302829E-3,1.4333697E-5,3.3410334E-3,3.9846147E-3,-1.6202764E-1,5.384264E-5,2.357664E-2,1.1895923E-4,6.013965E-3,7.7376286E-3,1.3809015E-2,1.724375E-3,2.301291E-3,3.0270196E-3,2.5572388E-5,3.4776633E-5,4.0764883E-3,1.3412735E-1,3.6575135E-2,9.670499E-5,6.6262125E-3,7.475326E-2,-1.4455126E-1,2.4051977E-4,1.571733E-1,1.1828756E-2,1.3809323E-1,-1.1852725E-1,6.324343E-2,-1.7128417E-1,-9.258561E-2,-5.3474035E-2,1.1753562E-2,-4.545426E-2,-1.5670645E-1,8.2545705E-2,-5.91142E-2,-1.6764028E-1,3.5096593E-3,7.1697734E-2,2.861683E-3,1.1030644E-1,5.0012875E-2,2.4363885E-2,1.1794265E-1,9.312435E-2,2.4064308E-2],"split_indices":[0,2,2,0,2,0,2,0,0,0,0,2,0,2,0,0,0,2,0,2,0,0,0,0,0,0,2,2,0,0,0,2,0,0,0,2,0,0,0,0,0,0,0,0,0,0,0,0,0,0,0,0,0,0,0,0,0,0,0],"split_type":[0,0,0,0,0,0,0,0,0,0,0,0,0,0,0,0,0,0,0,0,0,0,0,0,0,0,0,0,0,0,0,0,0,0,0,0,0,0,0,0,0,0,0,0,0,0,0,0,0,0,0,0,0,0,0,0,0,0,0],"sum_hessian":[4.5528244E2,1.911461E2,2.6413635E2,3.1386374E1,1.5975974E2,9.283928E1,1.7129707E2,1.5482019E2,4.9395447E0,7.4304726E1,1.8534552E1,1.1323518E2,5.8061882E1,5.28015E1,1.02018684E2,6.24436E1,1.1861128E1,1.5106718E1,3.427834E0,1.077982E2,5.4369836E0,1.8800516E1,3.9261368E1,1.2571079E1,4.023042E1,8.49353E1,1.708338E1,3.487167E1,2.757193E1,1.1932291E1,3.1744273E0,7.319145E1,3.460675E1,2.701454E0,2.7355297E0,7.9556146E0,1.0844902E1,2.7995695E1,1.1265672E1,2.6410367E0,9.930043E0,2.8456232E1,1.1774186E1,4.8876026E1,3.6059277E1,7.329629E0,9.75375E0,2.7923529E1,6.9481416E0,5.2235584E0,2.2348372E1,5.9742847E1,1.34486065E1,2.5368084E1,9.238668E0,3.4112673E0,4.5443473E0,1.7849741E1,1.0145955E1],"tree_param":{"num_deleted":"0","num_feature":"3","num_nodes":"59","size_leaf_vector":"1"}},{"base_weights":[-5.5492014E-2,-6.265378E-1,4.335486E-1,-1.349655E0,-4.4233298E-1,-5.008903E-1,5.209452E-1,-1.0947185E0,-1.5598013E-1,1.4680593E-1,-5.1237565E-1,1.19229436E-1,-8.089229E-1,2.4647021E-1,7.0351845E-1,-1.4282241E-1,8.838654E-2,-6.159938E-1,4.7843444E-1,1.0287937E-1,-1.1783713E0,4.502812E-1,-1.8352358E-1,-3.1834182E-1,7.5724924E-1,-4.5858017E-1,-1.3040614E0,8.742494E-1,-1.97601E-1,-1.6557391E-1,-6.9291073E-1,6.3593405E-1,-3.7076497E-1,-1.5684915E-1,2.556178E-1,4.157438E-1,-1.2537499E-1,8.722281E-1,4.9306336E-1,-1.0925478E-1,-2.2544442E-2,-1.5891719E-1,-8.863972E-2,3.1272583E-2,1.1791058E-1,-1.1939708E-1,8.065543E-2,9.902469E-2,-1.4450397E-1,5.0905284E-2,1.5378045E-1,-1.5621595E-1,4.430158E-2,-1.17967844E-1,5.081713E-2,-8.56065E-2,1.25374E-1,7.494425E-2,1.168495E-1,-1.1331115E-1,6.009692E-2],"categories":[],"categories_nodes":[],"categories_segments":[],"categories_sizes":[],"default_left":[0,0,0,0,0,0,0,0,0,0,0,0,0,0,0,0,0,0,0,0,0,0,0,0,0,0,0,0,0,0,0,0,0,0,0,0,0,0,0,0,0,0,0,0,0,0,0,0,0,0,0,0,0,0,0,0,0,0,0,0,0],"id":4,"left_children":[1,3,5,7,9,11,13,15,-1,-1,17,-1,19,21,23,-1,-1,25,27,-1,29,31,33,35,37,39,41,43,45,-1,47,49,51,-1,53,55,-1,57,59,-1,-1,-1,-1,-1,-1,-1,-1,-1,-1,-1,-1,-1,-1,-1,-1,-1,-1,-1,-1,-1,-1],"loss_changes":[1.2050634E2,2.574279E1,1.9240868E1,1.6039276E-1,2.2101883E1,1.1507149E1,1.0410179E1,1.554488E1,0E0,0E0,1.6261837E1,0E0,1.331952E1,7.7233715E0,7.269661E0,0E0,0E0,1.4520084E1,4.3033133E0,0E0,2.1729488E0,9.315162E0,1.7860275E1,5.3883634E0,3.1164017E0,1.685217E1,1.3957977E0,1.1689625E0,7.3343396E0,0E0,1.3413567E1,4.6087627E0,1.1939076E1,0E0,8.665476E0,6.0092826E0,0E0,1.9487495E0,7.5294094E0,0E0,0E0,0E0,0E0,0E0,0E0,0E0,0E0,0E0,0E0,0E0,0E0,0E0,0E0,0E0,0E0,0E0,0E0,0E0,0E0,0E0,0E0],"parents":[2147483647,0,0,1,1,2,2,3,3,4,4,5,5,6,6,7,7,10,10,12,12,13,13,14,14,17,17,18,18,20,20,21,21,22,22,23,23,24,24,25,25,26,26,27,27,28,28,30,30,31,31,32,32,34,34,35,35,37,37,38,38],"right_children":[2,4,6,8,10,12,14,16,-1,-1,18,-1,20,22,24,-1,-1,26,28,-1,30,32,34,36,38,40,42,44,46,-1,48,50,52,-1,54,56,-1,58,60,-1,-1,-1,-1,-1,-1,-1,-1,-1,-1,-1,-1,-1,-1,-1,-1,-1,-1,-1,-1,-1,-1],"split_conditions":[3.7407246E-3,2.0766961E-3,3.1945274E-5,1.232507E-5,2.1113285E-3,1.7481547E-5,5.5035753E-3,1.2177412E-5,-1.5598013E-1,1.4680593E-1,7.174091E-5,1.19229436E-1,3.7625702E-3,4.8086722E-3,4.571128E-5,-1.4282241E-1,8.838654E-2,3.9108316E-5,3.3018624E-3,1.0287937E-1,4.0952265E-3,7.69189E-5,4.995283E-3,3.9364004E-5,8.409348E-3,1.6924852E-5,3.2428557E-3,1.0184119E-4,3.653229E-3,-1.6557391E-1,4.1042273E-3,7.644564E-5,1.0824878E-4,-1.5684915E-1,6.3386025E-5,6.273818E-3,-1.2537499E-1,7.7376286E-3,9.47723E-5,-1.0925478E-1,-2.2544442E-2,-1.5891719E-1,-8.863972E-2,3.1272583E-2,1.1791058E-1,-1.1939708E-1,8.065543E-2,9.902469E-2,-1.4450397E-1,5.0905284E-2,1.5378045E-1,-1.5621595E-1,4.430158E-2,-1.17967844E-1,5.081713E-2,-8.56065E-2,1.25374E-1,7.494425E-2,1.168495E-1,-1.1331115E-1,6.009692E-2],"split_indices":[0,0,2,2,0,2,0,2,0,0,2,0,0,0,2,0,0,2,0,0,0,2,0,2,0,2,0,2,0,0,0,2,2,0,2,0,0,0,2,0,0,0,0,0,0,0,0,0,0,0,0,0,0,0,0,0,0,0,0,0,0],"split_type":[0,0,0,0,0,0,0,0,0,0,0,0,0,0,0,0,0,0,0,0,0,0,0,0,0,0,0,0,0,0,0,0,0,0,0,0,0,0,0,0,0,0,0,0,0,0,0,0,0,0,0,0,0,0,0,0,0,0,0,0,0],"sum_hessian":[4.2947137E2,1.9808899E2,2.3138239E2,3.8821377E1,1.5926762E2,1.9287394E1,2.1209499E2,2.0561993E1,1.8259384E1,4.8764625E0,1.5439116E2,2.476934E0,1.681046E1,8.588133E1,1.2621365E2,1.787733E1,2.6846628E0,1.4020758E2,1.4183575E1,2.4697986E0,1.4340661E1,5.839046E1,2.7490873E1,5.9659767E0,1.2024768E2,1.15577896E2,2.4629683E1,8.854207E0,5.3293676E0,5.9112787E0,8.429382E0,4.7905457E1,1.0485003E1,6.05393E0,2.1436943E1,3.5940757E0,2.371901E0,8.191611E1,3.8331573E1,2.9968662E1,8.560924E1,1.2828335E1,1.1801348E1,3.9438162E0,4.910391E0,2.630158E0,2.6992095E0,2.4645412E0,5.964841E0,4.3465725E1,4.4397316E0,3.9318833E0,6.55312E0,2.599076E0,1.8837866E1,1.3715737E0,2.222502E0,6.064811E1,2.1267998E1,1.7363633E0,3.6595207E1],"tree_param":{"num_deleted":"0","num_feature":"3","num_nodes":"61","size_leaf_vector":"1"}},{"base_weights":[9.9737845E-2,-3.0259493E-1,7.429661E-1,-1.4088212E-1,-2.1015245E-1,-1.23172306E-1,7.8665465E-1,-2.6067486E-1,7.917789E-1,1.0110052E0,6.954145E-1,-1.9015023E-1,-1.6501641E-1,1.1908944E0,-4.303952E-2,4.8440453E-3,1.0848237E0,2.3925349E-1,8.110459E-1,-2.7354297E-1,7.8832555E-1,4.902046E-2,1.475703E-1,-1.0300167E-1,6.1034407E-2,9.2184097E-1,1.3189249E-1,8.7476295E-1,-9.1455454E-1,1.2915608E-1,7.381032E-1,-1.6673826E-2,-7.160424E-2,-9.282297E-2,9.822373E-2,1.0337957E-1,7.119009E-3,1.14403464E-1,-1.0752169E-1,1.9075966E-2,-1.5684156E-1,-2.6470466E-2,8.40422E-2],"categories":[],"categories_nodes":[],"categories_segments":[],"categories_sizes":[],"default_left":[0,0,0,0,0,0,0,0,0,0,0,0,0,0,0,0,0,0,0,0,0,0,0,0,0,0,0,0,0,0,0,0,0,0,0,0,0,0,0,0,0,0,0],"id":5,"left_children":[1,3,5,-1,7,-1,9,11,13,15,17,19,-1,21,23,-1,25,27,29,31,33,-1,-1,-1,-1,35,-1,37,39,-1,41,-1,-1,-1,-1,-1,-1,-1,-1,-1,-1,-1,-1],"loss_changes":[1.203843E2,2.8804714E1,1.6365807E1,0E0,1.3584971E1,0E0,2.7243118E0,2.4338871E1,4.4609547E0,3.2658653E0,6.4775352E0,1.9944195E1,0E0,8.435211E-1,3.9294722E0,0E0,2.6610565E-1,2.1015072E1,2.4153442E0,1.0388638E1,7.3083124E0,0E0,0E0,0E0,0E0,2.6666794E0,0E0,1.0870921E1,7.8278894E0,0E0,9.615654E0,0E0,0E0,0E0,0E0,0E0,0E0,0E0,0E0,0E0,0E0,0E0,0E0],"parents":[2147483647,0,0,1,1,2,2,4,4,6,6,7,7,8,8,9,9,10,10,11,11,13,13,14,14,16,16,17,17,18,18,19,19,20,20,25,25,27,27,28,28,30,30],"right_children":[2,4,6,-1,8,-1,10,12,14,16,18,20,-1,22,24,-1,26,28,30,32,34,-1,-1,-1,-1,36,-1,38,40,-1,42,-1,-1,-1,-1,-1,-1,-1,-1,-1,-1,-1,-1],"split_conditions":[6.3744853E-3,2.7871171E-3,4.571128E-5,-1.4088212E-1,9.0773014E-5,-1.23172306E-1,7.426964E-5,5.8871717E-3,1.0824878E-4,6.4635063E-3,1.1752069E-4,5.6644436E-3,-1.6501641E-1,1.0184119E-4,1.1895923E-4,4.8440453E-3,7.012723E-3,6.882527E-3,7.2233477E-3,3.9108316E-5,3.5324385E-5,4.902046E-2,1.475703E-1,-1.0300167E-1,6.1034407E-2,6.831859E-5,1.3189249E-1,9.670499E-5,7.761546E-5,1.2915608E-1,7.7648354E-3,-1.6673826E-2,-7.160424E-2,-9.282297E-2,9.822373E-2,1.0337957E-1,7.119009E-3,1.14403464E-1,-1.0752169E-1,1.9075966E-2,-1.5684156E-1,-2.6470466E-2,8.40422E-2],"split_indices":[1,1,2,0,2,0,2,1,2,1,2,1,0,2,2,0,1,1,1,2,2,0,0,0,0,2,0,2,2,0,1,0,0,0,0,0,0,0,0,0,0,0,0],"split_type":[0,0,0,0,0,0,0,0,0,0,0,0,0,0,0,0,0,0,0,0,0,0,0,0,0,0,0,0,0,0,0,0,0,0,0,0,0,0,0,0,0,0,0],"sum_hessian":[4.6313928E2,2.8515305E2,1.7798624E2,2.080965E1,2.6434338E2,3.2144263E0,1.7477182E2,2.5245306E2,1.1890323E1,4.729685E1,1.2747497E2,2.4140897E2,1.1044089E1,7.8368745E0,4.053448E0,3.5832748E0,4.3713573E1,2.6574318E1,1.0090065E2,2.232082E2,1.8200768E1,3.1527426E0,4.6841316E0,1.4459157E0,2.6075323E0,2.8934284E1,1.4779292E1,1.734779E1,9.226526E0,1.0915645E1,8.998501E1,1.8109955E2,4.210865E1,1.4106625E0,1.6790106E1,2.5274971E1,3.659313E0,1.5651127E1,1.6966639E0,3.6357765E0,5.59075E0,8.093886E0,8.189112E1],"tree_param":{"num_deleted":"0","num_feature":"3","num_nodes":"43","size_leaf_vector":"1"}},{"base_weights":[-3.9845917E-2,-4.910112E-1,6.557895E-1,-1.3458905E-1,-4.12601E-1,-1.2667207E-1,7.0953894E-1,-5.690723E-1,-1.2917528E-1,6.6713595E-1,1.2029678E-1,-4.3155995E-1,-1.6284554E-1,8.8490325E-1,-3.1381902E-1,7.10171E-1,-1.5255184E-1,-5.5867004E-1,7.0379066E-1,-1.0662029E-1,1.3089486E0,7.554267E-1,-4.312498E-1,5.829332E-1,8.3796805E-1,-2.5773374E-2,-9.2157334E-2,1.0209918E-1,-1.01737134E-1,5.4102756E-2,1.5585695E-1,1.1413369E-2,1.5675393E-1,-1.2142384E-1,-1.4703556E-2,7.1723975E-2,-1.5976426E-1,9.731129E-2,3.6630694E-2],"categories":[],"categories_nodes":[],"categories_segments":[],"categories_sizes":[],"default_left":[0,0,0,0,0,0,0,0,0,0,0,0,0,0,0,0,0,0,0,0,0,0,0,0,0,0,0,0,0,0,0,0,0,0,0,0,0,0,0],"id":6,"left_children":[1,3,5,-1,7,-1,9,11,13,15,-1,17,-1,19,21,23,-1,25,27,-1,29,31,33,35,37,-1,-1,-1,-1,-1,-1,-1,-1,-1,-1,-1,-1,-1,-1],"loss_changes":[1.3331396E2,1.654491E1,1.8106995E1,0E0,1.03949585E1,0E0,2.425415E0,2.1319168E1,1.6331944E1,1.5413834E1,0E0,2.0077066E1,0E0,1.2533125E1,9.536358E0,1.8169708E0,0E0,1.3120052E1,8.7405205E0,0E0,1.1560516E0,3.5921116E0,1.4606214E1,2.4224308E1,4.1256447E0,0E0,0E0,0E0,0E0,0E0,0E0,0E0,0E0,0E0,0E0,0E0,0E0,0E0,0E0],"parents":[2147483647,0,0,1,1,2,2,4,4,6,6,7,7,8,8,9,9,11,11,13,13,14,14,15,15,17,17,18,18,20,20,21,21,22,22,23,23,24,24],"right_children":[2,4,6,-1,8,-1,10,12,14,16,-1,18,-1,20,22,24,-1,26,28,-1,30,32,34,36,38,-1,-1,-1,-1,-1,-1,-1,-1,-1,-1,-1,-1,-1,-1],"split_conditions":[6.3744853E-3,2.7871171E-3,4.571128E-5,-1.3458905E-1,4.839429E-3,-1.2667207E-1,1.55414725E-2,4.5479937E-3,2.69433E-5,1.4157273E-2,1.2029678E-1,4.489991E-3,-1.6284554E-1,2.3044639E-5,4.918623E-3,1.367133E-4,-1.5255184E-1,3.8915798E-3,3.84675E-5,-1.0662029E-1,2.5171767E-5,4.8987456E-3,5.4134475E-3,8.3197495E-3,1.2336837E-2,-2.5773374E-2,-9.2157334E-2,1.0209918E-1,-1.01737134E-1,5.4102756E-2,1.5585695E-1,1.1413369E-2,1.5675393E-1,-1.2142384E-1,-1.4703556E-2,7.1723975E-2,-1.5976426E-1,9.731129E-2,3.6630694E-2],"split_indices":[1,1,2,0,1,0,1,1,2,1,0,1,0,2,1,2,0,1,2,0,2,1,1,1,1,0,0,0,0,0,0,0,0,0,0,0,0,0,0],"split_type":[0,0,0,0,0,0,0,0,0,0,0,0,0,0,0,0,0,0,0,0,0,0,0,0,0,0,0,0,0,0,0,0,0,0,0,0,0,0,0],"sum_hessian":[4.2280087E2,2.5673154E2,1.6606937E2,2.0104046E1,2.3662747E2,3.85231E0,1.6221706E2,1.5158246E2,8.504503E1,1.5173256E2,1.0484493E1,1.3549625E2,1.6086212E1,1.2432215E1,7.261281E1,1.4951967E2,2.2128897E0,1.22389885E2,1.3106357E1,1.9071062E0,1.0525108E1,6.5636945E0,6.604912E1,7.810267E1,7.1417E1,6.799282E1,5.4397064E1,1.1459358E1,1.646999E0,3.4572878E0,7.0678205E0,4.373662E0,2.1900325E0,1.6624838E1,4.942428E1,7.424659E1,3.8560777E0,5.452018E1,1.6896818E1],"tree_param":{"num_deleted":"0","num_feature":"3","num_nodes":"39","size_leaf_vector":"1"}},{"base_weights":[3.5610416E-3,-3.5926786E-1,5.9897095E-1,-1.3442338E-1,-2.4923672E-1,1.899191E-1,7.257277E-1,-4.3917435E-1,4.8419755E-2,1.1000865E-1,2.1865321E-2,1.0994083E0,6.463641E-1,-2.8363597E-1,-1.5420257E-1,3.111675E-1,-7.007562E-1,-2.5938553E-1,8.650097E-1,1.2763081E-1,1.0824205E-1,-2.1364684E-1,7.5421566E-1,-1.8230475E-1,-1.4156082E-1,4.4836983E-1,-1.4226146E-1,-1.5153506E-1,-1.7620285E-1,-3.1174822E-2,-1.4987114E-1,1.2737052E-1,5.2743626E-1,-1.01729356E-1,9.493672E-2,-1.5168677E-1,2.4119192E-1,5.9711296E-2,8.0121124E-1,-3.0890314E-2,6.877141E-2,-1.12015165E-1,5.204026E-2,9.059141E-2,-4.855664E-2,-1.3322695E-1,1.564928E-2,-8.782626E-2,9.7445674E-2,6.601673E-2,-1.2309467E-1,5.6850057E-2,-1.2969832E-1,9.0316676E-2,5.6584146E-2],"categories":[],"categories_nodes":[],"categories_segments":[],"categories_sizes":[],"default_left":[0,0,0,0,0,0,0,0,0,0,0,0,0,0,0,0,0,0,0,0,0,0,0,0,0,0,0,0,0,0,0,0,0,0,0,0,0,0,0,0,0,0,0,0,0,0,0,0,0,0,0,0,0,0,0],"id":7,"left_children":[1,3,5,-1,7,9,11,13,15,-1,17,19,21,23,-1,25,27,29,31,-1,33,35,37,39,-1,41,-1,-1,43,45,-1,-1,47,-1,-1,-1,49,51,53,-1,-1,-1,-1,-1,-1,-1,-1,-1,-1,-1,-1,-1,-1,-1,-1],"loss_changes":[9.213379E1,2.8207214E1,8.1466675E0,0E0,1.3602926E1,5.944971E0,2.7562332E0,2.4515697E1,1.868355E1,0E0,8.507356E0,3.2059517E0,9.8545265E0,1.4462265E1,0E0,1.7284292E1,1.0082798E1,7.346461E0,3.887787E-1,0E0,4.922256E0,7.7585278E0,2.8906136E0,1.3424364E1,0E0,7.984517E0,0E0,0E0,5.8146667E0,6.0938053E0,0E0,0E0,5.11685E0,0E0,0E0,0E0,6.8565097E0,5.5575337E0,1.4197083E0,0E0,0E0,0E0,0E0,0E0,0E0,0E0,0E0,0E0,0E0,0E0,0E0,0E0,0E0,0E0,0E0],"parents":[2147483647,0,0,1,1,2,2,4,4,5,5,6,6,7,7,8,8,10,10,11,11,12,12,13,13,15,15,16,16,17,17,18,18,20,20,21,21,22,22,23,23,25,25,28,28,29,29,32,32,36,36,37,37,38,38],"right_children":[2,4,6,-1,8,10,12,14,16,-1,18,20,22,24,-1,26,28,30,32,-1,34,36,38,40,-1,42,-1,-1,44,46,-1,-1,48,-1,-1,-1,50,52,54,-1,-1,-1,-1,-1,-1,-1,-1,-1,-1,-1,-1,-1,-1,-1,-1],"split_conditions":[6.3744853E-3,3.0325581E-3,5.381805E-3,-1.3442338E-1,3.6132107E-3,6.4263158E-3,6.013965E-3,4.918623E-3,4.7172215E-3,1.1000865E-1,7.8034243E-3,7.356325E-3,6.6262125E-3,3.3410334E-3,-1.5420257E-1,5.989265E-3,5.5927094E-3,7.2233477E-3,8.3197495E-3,1.2763081E-1,9.023653E-3,7.1872645E-3,6.7457203E-3,3.22655E-3,-1.4156082E-1,4.0041977E-3,-1.4226146E-1,-1.5153506E-1,5.6231814E-3,6.5614623E-3,-1.4987114E-1,1.2737052E-1,1.0548316E-2,-1.01729356E-1,9.493672E-2,-1.5168677E-1,1.0977392E-2,6.621641E-3,1.2336837E-2,-3.0890314E-2,6.877141E-2,-1.12015165E-1,5.204026E-2,9.059141E-2,-4.855664E-2,-1.3322695E-1,1.564928E-2,-8.782626E-2,9.7445674E-2,6.601673E-2,-1.2309467E-1,5.6850057E-2,-1.2969832E-1,9.0316676E-2,5.6584146E-2],"split_indices":[1,1,0,0,0,1,0,1,0,0,1,1,0,0,0,1,0,1,1,0,1,1,1,0,0,1,0,0,0,1,0,0,1,0,0,0,1,1,1,0,0,0,0,0,0,0,0,0,0,0,0,0,0,0,0],"split_type":[0,0,0,0,0,0,0,0,0,0,0,0,0,0,0,0,0,0,0,0,0,0,0,0,0,0,0,0,0,0,0,0,0,0,0,0,0,0,0,0,0,0,0,0,0,0,0,0,0,0,0,0,0,0,0],"sum_hessian":[4.2437518E2,2.6383124E2,1.6054395E2,2.5292719E1,2.3853851E2,3.8757698E1,1.21786255E2,1.4553297E2,9.300555E1,5.0836926E0,3.3674004E1,1.8862074E1,1.0292418E2,1.287262E2,1.6806776E1,6.938816E1,2.3617384E1,2.5681189E1,7.9928155E0,1.5675748E1,3.1863258E0,1.1256496E1,9.166769E1,1.1929648E2,9.429719E0,6.504029E1,4.347874E0,8.436545E0,1.5180839E1,2.2621489E1,3.0597003E0,2.2271204E0,5.765695E0,1.2223412E0,1.9639846E0,2.365029E0,8.891467E0,6.0885816E0,8.55791E1,1.0480583E2,1.44906435E1,2.1559267E0,6.288436E1,2.8745267E0,1.2306312E1,2.1499195E0,2.047157E1,1.1043991E0,4.661296E0,7.4038067E0,1.4876603E0,4.9041104E0,1.184471E0,5.743695E1,2.8142153E1],"tree_param":{"num_deleted":"0","num_feature":"3","num_nodes":"55","size_leaf_vector":"1"}},{"base_weights":[4.115389E-2,-3.5017174E-1,5.839793E-1,-4.4080016E-1,8.070496E-1,2.6723066E-1,7.811098E-1,-2.427522E-1,-7.0680994E-1,1.0327107E0,-1.2779696E-1,3.683292E-1,-1.3281587E-1,3.2639116E-1,8.5855323E-1,-4.4785663E-1,9.687842E-1,-1.263491E0,-4.7726315E-1,1.1240027E-1,3.981712E-2,-4.0713763E-1,4.633743E-1,6.449525E-1,-5.154658E-1,1.3677393E-1,8.147439E-1,-7.530402E-1,-1.3384865E-1,1.8585575E-1,3.22241E-1,7.986745E-1,-1.5899763E-1,1.8502386E-1,-8.7876505E-1,4.7042808E-1,-1.2093895E-1,1.0944859E-1,2.2454043E-1,-0E0,1.0362204E0,5.19898E-2,-1.585463E-1,5.789353E-1,9.2725164E-1,-4.927848E-2,-1.4639772E-1,1.8169329E-2,-7.489965E-2,-1.2416657E-1,9.661926E-2,-8.371901E-2,1.8232372E-1,4.2679843E-2,-1.15794614E-1,-1.4449324E-1,-3.5869826E-2,-7.8510515E-2,1.19560204E-1,-1.5742993E-1,3.5576534E-2,1.0800278E-1,-1.1001175E-1,1.2604651E-1,4.175876E-2,7.349683E-2,-3.2879307E-3,1.0176157E-1,7.2530545E-2],"categories":[],"categories_nodes":[],"categories_segments":[],"categories_sizes":[],"default_left":[0,0,0,0,0,0,0,0,0,0,0,0,0,0,0,0,0,0,0,0,0,0,0,0,0,0,0,0,0,0,0,0,0,0,0,0,0,0,0,0,0,0,0,0,0,0,0,0,0,0,0,0,0,0,0,0,0,0,0,0,0,0,0,0,0,0,0,0,0],"id":8,"left_children":[1,3,5,7,9,11,13,15,17,19,-1,21,-1,23,25,27,29,31,33,-1,-1,35,37,39,41,-1,43,45,47,-1,49,51,-1,53,55,57,-1,-1,59,61,63,-1,-1,65,67,-1,-1,-1,-1,-1,-1,-1,-1,-1,-1,-1,-1,-1,-1,-1,-1,-1,-1,-1,-1,-1,-1,-1,-1],"loss_changes":[9.051677E1,2.6277046E1,1.0834503E1,1.18641205E1,9.88156E0,1.1716541E1,3.4514694E0,3.3612263E1,1.1685707E1,3.886795E-1,0E0,5.1223173E0,0E0,5.095507E0,7.335205E-1,1.0842644E1,1.0462536E1,2.0025818E1,1.9055536E1,0E0,0E0,6.076272E0,8.687988E0,3.4588208E0,6.8378363E0,0E0,1.6455917E0,9.815014E0,1.147385E1,0E0,1.3892066E1,9.025429E0,0E0,9.333949E0,1.2356888E1,4.936885E0,0E0,0E0,1.1061925E1,8.289642E0,4.717722E-1,0E0,0E0,3.0874996E0,1.384697E-1,0E0,0E0,0E0,0E0,0E0,0E0,0E0,0E0,0E0,0E0,0E0,0E0,0E0,0E0,0E0,0E0,0E0,0E0,0E0,0E0,0E0,0E0,0E0,0E0],"parents":[2147483647,0,0,1,1,2,2,3,3,4,4,5,5,6,6,7,7,8,8,9,9,11,11,13,13,14,14,15,15,16,16,17,17,18,18,21,21,22,22,23,23,24,24,26,26,27,27,28,28,30,30,31,31,33,33,34,34,35,35,38,38,39,39,40,40,43,43,44,44],"right_children":[2,4,6,8,10,12,14,16,18,20,-1,22,-1,24,26,28,30,32,34,-1,-1,36,38,40,42,-1,44,46,48,-1,50,52,-1,54,56,58,-1,-1,60,62,64,-1,-1,66,68,-1,-1,-1,-1,-1,-1,-1,-1,-1,-1,-1,-1,-1,-1,-1,-1,-1,-1,-1,-1,-1,-1,-1,-1],"split_conditions":[6.143775E-5,6.29803E-3,1.0410377E-4,2.7065229E-5,7.0664817E-3,9.579357E-5,5.381805E-3,2.5318337E-5,3.2976848E-5,4.733314E-5,-1.2779696E-1,3.6405108E-3,-1.3281587E-1,4.7610328E-3,1.0824878E-4,2.5633364E-3,2.5572388E-5,2.1372337E-3,3.9108316E-5,1.1240027E-1,3.981712E-2,2.7915596E-3,4.1190665E-3,4.0482963E-3,1.4846359E-4,1.3677393E-1,7.7376286E-3,2.2867313E-3,3.3410334E-3,1.8585575E-1,2.6252905E-5,2.1306977E-3,-1.5899763E-1,4.062892E-3,3.9036234E-3,2.743677E-3,-1.2093895E-1,1.0944859E-1,4.393125E-3,3.3018624E-3,4.5854542E-3,5.19898E-2,-1.585463E-1,6.957618E-3,3.226077E-4,-4.927848E-2,-1.4639772E-1,1.8169329E-2,-7.489965E-2,-1.2416657E-1,9.661926E-2,-8.371901E-2,1.8232372E-1,4.2679843E-2,-1.15794614E-1,-1.4449324E-1,-3.5869826E-2,-7.8510515E-2,1.19560204E-1,-1.5742993E-1,3.5576534E-2,1.0800278E-1,-1.1001175E-1,1.2604651E-1,4.175876E-2,7.349683E-2,-3.2879307E-3,1.0176157E-1,7.2530545E-2],"split_indices":[2,0,2,2,0,2,0,2,2,2,0,0,0,0,2,0,2,0,2,0,0,0,0,0,2,0,0,0,0,0,2,0,0,0,0,0,0,0,0,0,0,0,0,0,2,0,0,0,0,0,0,0,0,0,0,0,0,0,0,0,0,0,0,0,0,0,0,0,0],"split_type":[0,0,0,0,0,0,0,0,0,0,0,0,0,0,0,0,0,0,0,0,0,0,0,0,0,0,0,0,0,0,0,0,0,0,0,0,0,0,0,0,0,0,0,0,0,0,0,0,0,0,0,0,0,0,0,0,0,0,0,0,0,0,0,0,0,0,0,0,0],"sum_hessian":[4.24046E2,2.4650787E2,1.7753812E2,2.2925883E2,1.7249035E1,6.9204094E1,1.08334015E2,1.3272885E2,9.652998E1,1.606318E1,1.1858534E0,6.586227E1,3.341829E0,1.6712183E1,9.162183E1,1.1412174E2,1.8607113E1,2.67406E1,6.978939E1,1.3230701E1,2.83248E0,6.7176476E0,5.9144615E1,1.2380166E1,4.332016E0,4.6835165E0,8.693832E1,5.7003532E1,5.711821E1,6.976615E0,1.1630498E1,3.4154093E0,2.3325191E1,2.6449842E1,4.3339542E1,3.3462377E0,3.37141E0,1.5138976E1,4.400564E1,4.9755454E0,7.404621E0,2.4154263E0,1.9165899E0,3.0353672E1,5.658465E1,4.3070396E1,1.3933136E1,3.8111088E1,1.9007124E1,3.0761771E0,8.554321E0,1.3481569E0,2.0672524E0,2.3055777E1,3.3940659E0,1.9806591E1,2.3532953E1,1.1443758E0,2.2018619E0,2.1924455E0,4.1813194E1,2.4834611E0,2.4920843E0,4.554528E0,2.8500926E0,2.41554E1,6.198272E0,3.595969E1,2.0624956E1],"tree_param":{"num_deleted":"0","num_feature":"3","num_nodes":"69","size_leaf_vector":"1"}},{"base_weights":[7.342529E-2,-2.2270899E-1,5.493517E-1,-1.267517E-1,-1.2644193E-1,-2.159896E-1,6.064886E-1,6.0933465E-1,-1.6653973E-1,5.450314E-1,-1.3734983E-1,6.9419503E-1,9.122502E-2,-9.2721246E-2,1.0468078E0,-1.3923658E-1,-1.1414743E-1,-1.01770215E-1,1.21435784E-1,5.1742685E-1,9.066134E-1,-1.96789E-1,4.734142E-1,1.4491627E-1,-8.582815E-2,1.2340657E-1,-1.3743122E-1,6.273496E-1,-1.4855461E-1,-0E0,9.522158E-1,7.4997336E-2,5.1668134E-2,-1.3811974E-1,-9.01143E-3,4.4479057E-2,7.9800874E-2,4.7509335E-2,9.912532E-2,-1.5527454E-1,8.758818E-2],"categories":[],"categories_nodes":[],"categories_segments":[],"categories_sizes":[],"default_left":[0,0,0,0,0,0,0,0,0,0,0,0,0,0,0,0,0,0,0,0,0,0,0,0,0,0,0,0,0,0,0,0,0,0,0,0,0,0,0,0,0],"id":9,"left_children":[1,3,5,-1,7,9,11,13,15,17,-1,19,21,-1,23,-1,25,-1,-1,27,29,-1,31,-1,-1,-1,33,35,-1,-1,37,-1,39,-1,-1,-1,-1,-1,-1,-1,-1],"loss_changes":[5.899629E1,2.5644352E1,7.1909714E0,0E0,7.0606165E0,1.119898E1,6.6272163E0,9.286726E0,1.4206665E1,9.377167E0,0E0,4.1827545E0,1.8964767E1,0E0,9.072588E0,0E0,6.9010544E0,0E0,0E0,1.6759033E1,2.3425064E0,0E0,2.2528582E0,0E0,0E0,0E0,1.23932905E1,1.6787529E0,0E0,0E0,3.8293076E-1,0E0,1.3551511E1,0E0,0E0,0E0,0E0,0E0,0E0,0E0,0E0],"parents":[2147483647,0,0,1,1,2,2,4,4,5,5,6,6,7,7,8,8,9,9,11,11,12,12,14,14,16,16,19,19,20,20,22,22,26,26,27,27,30,30,32,32],"right_children":[2,4,6,-1,8,10,12,14,16,18,-1,20,22,-1,24,-1,26,-1,-1,28,30,-1,32,-1,-1,-1,34,36,-1,-1,38,-1,40,-1,-1,-1,-1,-1,-1,-1,-1],"split_conditions":[6.715668E-5,3.0325581E-3,5.6947637E-3,-1.267517E-1,3.1946127E-3,5.1684272E-3,1.2336837E-2,8.334083E-6,3.3955576E-3,7.644564E-5,-1.3734983E-1,1.367133E-4,1.2788878E-2,-9.2721246E-2,1.4550972E-5,-1.3923658E-1,1.0713403E-5,-1.01770215E-1,1.21435784E-1,8.3197495E-3,7.3104897E-3,-1.96789E-1,1.4157273E-2,1.4491627E-1,-8.582815E-2,1.2340657E-1,1.4074491E-5,6.800734E-3,-1.4855461E-1,-0E0,7.4808546E-3,7.4997336E-2,1.55414725E-2,-1.3811974E-1,-9.01143E-3,4.4479057E-2,7.9800874E-2,4.7509335E-2,9.912532E-2,-1.5527454E-1,8.758818E-2],"split_indices":[2,1,1,0,1,1,1,2,1,2,0,2,1,0,2,0,2,0,0,1,1,0,1,0,0,0,2,1,0,0,1,0,1,0,0,0,0,0,0,0,0],"split_type":[0,0,0,0,0,0,0,0,0,0,0,0,0,0,0,0,0,0,0,0,0,0,0,0,0,0,0,0,0,0,0,0,0,0,0,0,0,0,0,0,0],"sum_hessian":[4.164972E2,2.5694254E2,1.5955466E2,2.056294E1,2.3637961E2,1.0769407E1,1.4878525E2,1.135373E1,2.2502588E2,6.764638E0,4.004769E0,1.2668074E2,2.210451E1,2.21741E0,9.13632E0,8.096934E0,2.1692894E2,1.8276281E0,4.93701E0,7.127472E1,5.5406025E1,2.7699966E0,1.9334513E1,7.7841244E0,1.3521956E0,2.727054E0,2.1420189E2,6.826506E1,3.0096567E0,2.689775E0,5.271625E1,1.106397E1,8.270543E0,6.739687E0,2.074622E2,3.500812E1,3.325694E1,5.17676E0,4.753949E1,2.4656577E0,5.8048854E0],"tree_param":{"num_deleted":"0","num_feature":"3","num_nodes":"41","size_leaf_vector":"1"}},{"base_weights":[4.9993042E-2,-9.6605E-1,1.22479275E-1,-1.2075286E-1,-4.120584E-1,1.7950246E-2,4.9272847E-1,1.2442286E-1,-1.2241836E-1,1.1249738E-1,-1.8368145E-2,4.0899646E-1,1.2063569E-1,-1.3143516E-1,1.6532658E-2,1.1858082E-1,3.119434E-1,3.8118277E-2,-1.3017946E-1,-1.2663929E-1,3.8718578E-1,4.7473248E-2,-1.4566453E-3,1.2552902E-1,2.8363625E-2],"categories":[],"categories_nodes":[],"categories_segments":[],"categories_sizes":[],"default_left":[0,0,0,0,0,0,0,0,0,0,0,0,0,0,0,0,0,0,0,0,0,0,0,0,0],"id":10,"left_children":[1,3,5,-1,7,9,11,-1,-1,-1,13,15,-1,-1,17,-1,19,21,-1,-1,23,-1,-1,-1,-1],"loss_changes":[3.0069426E1,2.9762173E0,1.4710261E1,0E0,1.482965E1,1.2147307E1,4.3509254E0,0E0,0E0,0E0,1.3280607E1,5.2565536E0,0E0,0E0,7.9927535E0,0E0,8.665375E0,6.4948254E0,0E0,0E0,5.5342674E0,0E0,0E0,0E0,0E0],"parents":[2147483647,0,0,1,1,2,2,4,4,5,5,6,6,10,10,11,11,14,14,16,16,17,17,20,20],"right_children":[2,4,6,-1,8,10,12,-1,-1,-1,14,16,-1,-1,18,-1,20,22,-1,-1,24,-1,-1,-1,-1],"split_conditions":[1.1942696E-5,3.1689925E-3,1.0495761E-4,-1.2075286E-1,3.1946127E-3,1.232507E-5,7.0003665E-4,1.2442286E-1,-1.2241836E-1,1.1249738E-1,1.4245962E-5,5.9261597E-3,1.2063569E-1,-1.3143516E-1,9.670499E-5,1.1858082E-1,6.8370537E-3,3.5267586E-3,-1.3017946E-1,-1.2663929E-1,7.0975297E-3,4.7473248E-2,-1.4566453E-3,1.2552902E-1,2.8363625E-2],"split_indices":[2,1,2,0,1,2,2,0,0,0,2,1,0,0,2,0,1,1,0,0,1,0,0,0,0],"split_type":[0,0,0,0,0,0,0,0,0,0,0,0,0,0,0,0,0,0,0,0,0,0,0,0,0],"sum_hessian":[4.0681827E2,2.617767E1,3.806406E2,1.7283707E1,8.893963E0,2.9786554E2,8.2775055E1,2.710612E0,6.183351E0,8.597027E0,2.8926852E2,7.561606E1,7.1589913E0,6.6994953E0,2.8256903E2,7.037719E0,6.857834E1,2.79047E2,3.5220335E0,2.3396807E0,6.623866E1,2.9387897E1,2.4965909E2,5.7708235E0,6.046784E1],"tree_param":{"num_deleted":"0","num_feature":"3","num_nodes":"25","size_leaf_vector":"1"}},{"base_weights":[7.193524E-2,-2.3234311E-1,5.4112345E-1,-1.15514055E-1,-1.7579487E-1,-1.0698016E-1,5.7738274E-1,2.8860328E-1,-2.7460364E-1,9.8090775E-2,4.9069113E-1,-6.1917925E-1,6.744546E-1,1.1017212E0,-3.2448173E-1,4.3850815E-1,1.0989968E-1,-0E0,-1.1884596E-1,3.1971452E-1,1.0830715E0,1.604337E-1,5.007819E-1,-6.3114166E-1,-1.3266727E-1,4.930317E-1,-1.6377574E-1,-9.8995596E-2,1.1967831E-1,1.1195239E-1,-4.82587E-2,-8.5006006E-2,1.3763027E-1,-8.677043E-2,1.4475593E-1,1.3947667E-3,-9.029782E-2,1.4790772E-2,-5.0699748E-2,5.4617435E-2,-1.04978324E-4],"categories":[],"categories_nodes":[],"categories_segments":[],"categories_sizes":[],"default_left":[0,0,0,0,0,0,0,0,0,0,0,0,0,0,0,0,0,0,0,0,0,0,0,0,0,0,0,0,0,0,0,0,0,0,0,0,0,0,0,0,0],"id":11,"left_children":[1,3,5,-1,7,-1,9,11,13,-1,15,17,19,21,23,25,-1,27,-1,29,31,-1,33,35,37,39,-1,-1,-1,-1,-1,-1,-1,-1,-1,-1,-1,-1,-1,-1,-1],"loss_changes":[5.906223E1,1.2754395E1,1.0074722E1,0E0,1.0983143E1,0E0,4.964329E0,1.5136023E1,1.3779678E1,0E0,3.6118202E0,4.531549E0,3.866641E0,1.1108866E0,1.1052383E1,1.4849485E1,0E0,9.759033E0,0E0,1.1914056E1,8.82197E0,0E0,7.4663725E0,1.2882288E1,1.2581295E1,3.2759323E0,0E0,0E0,0E0,0E0,0E0,0E0,0E0,0E0,0E0,0E0,0E0,0E0,0E0,0E0,0E0],"parents":[2147483647,0,0,1,1,2,2,4,4,6,6,7,7,8,8,10,10,11,11,12,12,13,13,14,14,15,15,17,17,19,19,20,20,22,22,23,23,24,24,25,25],"right_children":[2,4,6,-1,8,-1,10,12,14,-1,16,18,20,22,24,26,-1,28,-1,30,32,-1,34,36,38,40,-1,-1,-1,-1,-1,-1,-1,-1,-1,-1,-1,-1,-1,-1,-1],"split_conditions":[6.3744853E-3,2.7871171E-3,4.571128E-5,-1.15514055E-1,3.4671018E-3,-1.0698016E-1,6.621641E-3,1.208532E-5,1.208532E-5,9.8090775E-2,1.55414725E-2,8.56665E-6,3.378896E-3,1.0713403E-5,4.489991E-3,1.3410361E-2,1.0989968E-1,8.334083E-6,-1.1884596E-1,1.4550972E-5,1.5516453E-5,1.604337E-1,4.041251E-3,1.6924852E-5,4.159848E-5,1.2336837E-2,-1.6377574E-1,-9.8995596E-2,1.1967831E-1,1.1195239E-1,-4.82587E-2,-8.5006006E-2,1.3763027E-1,-8.677043E-2,1.4475593E-1,1.3947667E-3,-9.029782E-2,1.4790772E-2,-5.0699748E-2,5.4617435E-2,-1.04978324E-4],"split_indices":[1,1,2,0,1,0,1,2,2,0,1,2,1,2,1,1,0,2,0,2,2,0,1,2,2,1,0,0,0,0,0,0,0,0,0,0,0,0,0,0,0],"split_type":[0,0,0,0,0,0,0,0,0,0,0,0,0,0,0,0,0,0,0,0,0,0,0,0,0,0,0,0,0,0,0,0,0,0,0,0,0,0,0,0,0],"sum_hessian":[4.116089E2,2.4986069E2,1.617482E2,1.3203293E1,2.366574E2,2.8723736E0,1.5887582E2,4.100452E1,1.9565288E2,2.6068035E1,1.328078E2,1.1972725E1,2.9031797E1,6.0348682E0,1.8961801E2,1.2405141E2,8.756385E0,6.2431684E0,5.729557E0,1.6625526E1,1.240627E1,2.2864215E0,3.748447E0,7.188363E1,1.17734375E2,1.2166708E2,2.3843231E0,3.5272522E0,2.7159162E0,8.190108E0,8.435418E0,1.3389904E0,1.106728E1,1.5238082E0,2.2246387E0,2.1483183E1,5.0400444E1,6.7487564E1,5.0246815E1,1.09939156E2,1.1727928E1],"tree_param":{"num_deleted":"0","num_feature":"3","num_nodes":"41","size_leaf_vector":"1"}},{"base_weights":[2.8404107E-2,-1.0598604E-1,5.1109856E-1,-1.1341297E-1,-5.2868586E-2,-8.055114E-2,5.3956455E-1,3.8724655E-1,-1.110772E-1,6.4193195E-1,1.9488019E-1,-9.843195E-2,1.3451805E0,-1.3407235E-1,-6.0244303E-2,8.411457E-1,4.2936954E-1,-1.4251964E-1,4.150694E-1,1.0324042E-1,-8.200276E-1,1.5659122E-1,6.4733714E-1,-1.2339612E-1,-1.8480984E-2,9.13334E-2,3.1948013E-3,-1.1060636E0,7.664342E-1,2.6422655E-2,7.183848E-1,-0E0,-1.3331008E-1,-7.617875E-2,1.4220028E-1,1.048373E-1,-7.92276E-3,-1.7105524E-1,-4.7648754E-2,2.1172404E-2,1.0450275E-1,3.6906313E-2,-1.3151106E-1,1.0550262E-1,3.920259E-2],"categories":[],"categories_nodes":[],"categories_segments":[],"categories_sizes":[],"default_left":[0,0,0,0,0,0,0,0,0,0,0,0,0,0,0,0,0,0,0,0,0,0,0,0,0,0,0,0,0,0,0,0,0,0,0,0,0,0,0,0,0,0,0,0,0],"id":12,"left_children":[1,3,5,-1,7,-1,9,11,13,15,17,19,21,-1,23,25,27,-1,29,-1,31,-1,33,-1,35,-1,-1,37,39,41,43,-1,-1,-1,-1,-1,-1,-1,-1,-1,-1,-1,-1,-1,-1],"loss_changes":[2.5769758E1,1.6765663E1,3.651104E0,0E0,7.6026897E0,0E0,2.803566E0,1.6362516E1,1.6190073E1,2.271202E0,8.0561695E0,2.0273388E1,5.801182E-1,0E0,1.2265851E1,1.7661762E0,1.8312647E1,0E0,2.205226E0,0E0,6.305235E0,0E0,6.219969E0,0E0,1.5905927E1,0E0,0E0,1.4179854E0,4.0372276E0,4.863408E0,6.2490416E-1,0E0,0E0,0E0,0E0,0E0,0E0,0E0,0E0,0E0,0E0,0E0,0E0,0E0,0E0],"parents":[2147483647,0,0,1,1,2,2,4,4,6,6,7,7,8,8,9,9,10,10,11,11,12,12,14,14,15,15,16,16,18,18,20,20,22,22,24,24,27,27,28,28,29,29,30,30],"right_children":[2,4,6,-1,8,-1,10,12,14,16,18,20,22,-1,24,26,28,-1,30,-1,32,-1,34,-1,36,-1,-1,38,40,42,44,-1,-1,-1,-1,-1,-1,-1,-1,-1,-1,-1,-1,-1,-1],"split_conditions":[6.29803E-3,2.7871171E-3,5.6644436E-3,-1.1341297E-1,2.1372337E-3,-8.055114E-2,1.2336837E-2,2.0766961E-3,2.2796625E-3,7.0664817E-3,1.2568522E-2,3.1946127E-3,2.1113285E-3,-1.3407235E-1,3.378896E-3,1.0548316E-2,7.7376286E-3,-1.4251964E-1,1.32749975E-2,1.0324042E-1,1.789294E-3,1.5659122E-1,4.1395375E-3,-1.2339612E-1,3.4671018E-3,9.13334E-2,3.1948013E-3,8.3197495E-3,7.972091E-3,1.0641368E-2,1.3410361E-2,-0E0,-1.3331008E-1,-7.617875E-2,1.4220028E-1,1.048373E-1,-7.92276E-3,-1.7105524E-1,-4.7648754E-2,2.1172404E-2,1.0450275E-1,3.6906313E-2,-1.3151106E-1,1.0550262E-1,3.920259E-2],"split_indices":[0,1,1,0,0,0,1,0,0,0,1,1,0,0,1,1,0,0,0,0,0,0,1,0,1,0,0,1,1,0,1,0,0,0,0,0,0,0,0,0,0,0,0,0,0],"split_type":[0,0,0,0,0,0,0,0,0,0,0,0,0,0,0,0,0,0,0,0,0,0,0,0,0,0,0,0,0,0,0,0,0,0,0,0,0,0,0,0,0,0,0,0,0],"sum_hessian":[3.9479657E2,3.0926526E2,8.553132E1,1.4100544E1,2.951647E2,1.158066E0,8.437325E1,3.361688E1,2.6154782E2,6.416459E1,2.0208666E1,2.2833174E1,1.0783707E1,9.297568E0,2.5225026E2,3.1352947E1,3.281164E1,1.7088418E0,1.8499825E1,8.672659E0,1.4160514E1,7.1385226E0,3.6451838E0,7.604081E0,2.4464618E2,2.8553434E1,2.7995136E0,5.442274E0,2.7369368E1,8.730275E0,9.769549E0,5.876109E0,8.284405E0,1.2531774E0,2.3920066E0,1.2215142E1,2.3243105E2,1.8194739E0,3.6228E0,9.85864E0,1.7510727E1,7.5909176E0,1.1393573E0,3.559142E0,6.2104073E0],"tree_param":{"num_deleted":"0","num_feature":"3","num_nodes":"45","size_leaf_vector":"1"}},{"base_weights":[4.6007935E-2,-1.7600682E-1,4.008004E-1,-1.158941E-1,-9.981703E-2,-1.0424123E-1,4.3487424E-1,-4.421323E-2,-9.25268E-1,4.0066993E-1,1.0097926E-1,-1.0243497E-1,7.3505384E-1,-1.3968359E-1,2.1031536E-1,4.4039237E-1,-1.33328E-1,-7.1378395E-2,-1.3349763E-1,1.4129277E-1,3.194134E-1,1.3163209E-1,-1.0998484E-1,3.5708132E-1,7.3844606E-1,-1.5296734E-2,3.8498297E-2,-1.0168624E-1,6.8057165E-2,3.902539E-2,-1.272947E-1,8.980857E-2,5.1442783E-2],"categories":[],"categories_nodes":[],"categories_segments":[],"categories_sizes":[],"default_left":[0,0,0,0,0,0,0,0,0,0,0,0,0,0,0,0,0,0,0,0,0,0,0,0,0,0,0,0,0,0,0,0,0],"id":13,"left_children":[1,3,5,-1,7,-1,9,11,13,15,-1,17,19,-1,21,23,-1,25,-1,-1,27,-1,-1,29,31,-1,-1,-1,-1,-1,-1,-1,-1],"loss_changes":[3.1813328E1,1.8347586E1,8.038349E0,0E0,1.0490025E1,0E0,2.4564838E0,9.907453E0,8.150338E0,1.054804E1,0E0,7.570525E0,3.6483192E0,0E0,8.782373E0,3.1889248E0,0E0,7.484785E0,0E0,0E0,5.863141E0,0E0,0E0,6.5897865E0,4.7462273E-1,0E0,0E0,0E0,0E0,0E0,0E0,0E0,0E0],"parents":[2147483647,0,0,1,1,2,2,4,4,6,6,7,7,8,8,9,9,11,11,12,12,14,14,15,15,17,17,20,20,23,23,24,24],"right_children":[2,4,6,-1,8,-1,10,12,14,16,-1,18,20,-1,22,24,-1,26,-1,-1,28,-1,-1,30,32,-1,-1,-1,-1,-1,-1,-1,-1],"split_conditions":[6.3744853E-3,3.0325581E-3,4.571128E-5,-1.158941E-1,5.989265E-3,-1.0424123E-1,1.55414725E-2,7.644564E-5,1.0184119E-4,1.4157273E-2,1.0097926E-1,6.766073E-5,5.1684272E-3,-1.3968359E-1,1.0495761E-4,2.4051977E-4,-1.33328E-1,5.4134475E-3,-1.3349763E-1,1.4129277E-1,5.6947637E-3,1.3163209E-1,-1.0998484E-1,1.2145103E-2,1.2336837E-2,-1.5296734E-2,3.8498297E-2,-1.0168624E-1,6.8057165E-2,3.902539E-2,-1.272947E-1,8.980857E-2,5.1442783E-2],"split_indices":[1,1,2,0,1,0,1,2,2,1,0,2,1,0,2,2,0,1,0,0,1,0,0,1,1,0,0,0,0,0,0,0,0],"split_type":[0,0,0,0,0,0,0,0,0,0,0,0,0,0,0,0,0,0,0,0,0,0,0,0,0,0,0,0,0,0,0,0,0],"sum_hessian":[4.016995E2,2.472208E2,1.544787E2,1.6667501E1,2.305533E2,2.8128185E0,1.5166588E2,2.1710353E2,1.34497595E1,1.4491513E2,6.7507524E0,2.029382E2,1.41653385E1,9.403018E0,4.0467415E0,1.4245535E2,2.4597707E0,1.9906145E2,3.876744E0,4.380739E0,9.784599E0,2.2331784E0,1.8135633E0,1.13315346E2,2.9140015E1,1.696204E2,2.9441044E1,1.6366377E0,8.147962E0,1.1186081E2,1.4545357E0,1.4997285E1,1.414273E1],"tree_param":{"num_deleted":"0","num_feature":"3","num_nodes":"33","size_leaf_vector":"1"}},{"base_weights":[4.6171147E-2,-1.1713499E-1,1.0581484E-1,-1.2359162E-2,4.7853807E-1,8.532639E-1,-4.391158E-2,6.2224126E-1,2.171272E-1,1.3138536E-1,1.8999627E-1,-1.2770584E-1,2.3488939E-2,5.276651E-1,1.15426205E-1,-6.179573E-1,3.697831E-1,-1.0577261E-1,1.359305E-1,1.4427696E-1,-2.1417897E-2,6.60002E-1,1.6544311E-1,7.09336E-2,-1.6353236E-1,5.410355E-1,1.5335011E-1,-1.3830736E-1,3.6513065E-3,5.0877463E-2,1.1505836E-1,-1.3502224E-1,4.2905282E-2,-8.931847E-2,8.761997E-2,4.718357E-3,7.308789E-2,-1.7035617E-2,6.926004E-2],"categories":[],"categories_nodes":[],"categories_segments":[],"categories_sizes":[],"default_left":[0,0,0,0,0,0,0,0,0,0,0,0,0,0,0,0,0,0,0,0,0,0,0,0,0,0,0,0,0,0,0,0,0,0,0,0,0,0,0],"id":14,"left_children":[1,-1,3,5,7,9,11,13,15,-1,17,-1,19,21,-1,23,25,-1,-1,-1,27,29,31,33,-1,35,37,-1,-1,-1,-1,-1,-1,-1,-1,-1,-1,-1,-1],"loss_changes":[2.844164E1,0E0,1.6531996E1,7.7363477E0,3.1729736E0,2.641203E0,2.3085827E1,2.1150932E0,4.5141735E0,0E0,9.2558E0,0E0,1.6903358E1,2.2437868E0,0E0,4.1263857E0,9.3410397E-1,0E0,0E0,0E0,2.0328691E1,1.969657E0,6.533246E0,4.025048E0,0E0,1.3607402E0,2.7191782E0,0E0,0E0,0E0,0E0,0E0,0E0,0E0,0E0,0E0,0E0,0E0,0E0],"parents":[2147483647,0,0,2,2,3,3,4,4,5,5,6,6,7,7,8,8,10,10,12,12,13,13,15,15,16,16,20,20,21,21,22,22,23,23,25,25,26,26],"right_children":[2,-1,4,6,8,10,12,14,16,-1,18,-1,20,22,-1,24,26,-1,-1,-1,28,30,32,34,-1,36,38,-1,-1,-1,-1,-1,-1,-1,-1,-1,-1,-1,-1],"split_conditions":[1.1942696E-5,-1.1713499E-1,6.29803E-3,1.232507E-5,8.409348E-3,1.9444516E-3,2.0766961E-3,2.4051977E-4,2.2227208E-4,1.3138536E-1,2.9857175E-3,-1.2770584E-1,2.1113285E-3,1.61066E-4,1.15426205E-1,9.218116E-3,1.1828756E-2,-1.0577261E-1,1.359305E-1,1.4427696E-1,1.5516453E-5,1.4846359E-4,6.788157E-3,8.914659E-3,-1.6353236E-1,9.344372E-3,7.0003665E-4,-1.3830736E-1,3.6513065E-3,5.0877463E-2,1.1505836E-1,-1.3502224E-1,4.2905282E-2,-8.931847E-2,8.761997E-2,4.718357E-3,7.308789E-2,-1.7035617E-2,6.926004E-2],"split_indices":[2,0,0,2,0,0,0,2,2,0,0,0,0,2,0,0,0,0,0,0,2,2,0,0,0,0,2,0,0,0,0,0,0,0,0,0,0,0,0],"split_type":[0,0,0,0,0,0,0,0,0,0,0,0,0,0,0,0,0,0,0,0,0,0,0,0,0,0,0,0,0,0,0,0,0,0,0,0,0,0,0],"sum_hessian":[3.904245E2,1.7284107E1,3.731404E2,2.8384445E2,8.929594E1,8.955068E0,2.748894E2,5.6483097E1,3.2812843E1,4.617153E0,4.3379145E0,1.3392847E1,2.6149655E2,4.9808517E1,6.6745806E0,4.4989276E0,2.8313913E1,2.1033838E0,2.234531E0,7.1337314E0,2.5436282E2,3.5676155E1,1.4132361E1,3.178589E0,1.3203386E0,1.4711576E1,1.3602338E1,9.517095E0,2.4484572E2,2.8982803E1,6.6933517E0,1.4268817E0,1.2705481E1,1.3404047E0,1.8381842E0,4.57795E0,1.0133626E1,8.811519E0,4.7908187E0],"tree_param":{"num_deleted":"0","num_feature":"3","num_nodes":"39","size_leaf_vector":"1"}},{"base_weights":[9.408225E-2,-9.6422054E-2,4.438764E-1,-3.0187104E-2,-9.462283E-1,-9.108246E-2,4.7163182E-1,-1.0582943E-1,2.3572292E-2,-1.3508129E-1,-4.0441188E-1,3.769402E-1,6.885401E-1,-2.5042035E-2,1.0868206E0,-1.4429599E-1,1.4189725E-1,4.7109577E-1,-3.67231E-1,8.6446255E-1,5.464312E-1,8.951824E-2,-4.319089E-1,3.6509823E-2,1.3365082E-1,6.2045836E-1,-1.1411675E-1,6.507682E-1,2.4437767E-1,-1.140961E0,3.7553975E-1,3.673279E-1,1.04439795E-1,-1.2260655E-1,6.899257E-1,-3.157944E-3,7.6584645E-2,4.6218775E-2,-6.379609E-2,1.4684807E-2,8.996524E-2,5.307573E-2,1.07942484E-1,-1.9114716E-1,5.771779E-2,-1.6539994E-1,-4.0596586E-2,-1.2530987E-3,5.8956575E-2,4.9678445E-2,-0E0,2.0401819E-2,7.340024E-2],"categories":[],"categories_nodes":[],"categories_segments":[],"categories_sizes":[],"default_left":[0,0,0,0,0,0,0,0,0,0,0,0,0,0,0,0,0,0,0,0,0,0,0,0,0,0,0,0,0,0,0,0,0,0,0,0,0,0,0,0,0,0,0,0,0,0,0,0,0,0,0,0,0],"id":15,"left_children":[1,3,5,7,9,-1,11,-1,13,-1,15,17,19,21,23,-1,25,27,29,31,33,35,37,-1,-1,39,-1,41,43,45,47,49,-1,-1,51,-1,-1,-1,-1,-1,-1,-1,-1,-1,-1,-1,-1,-1,-1,-1,-1,-1,-1],"loss_changes":[2.67482E1,1.4494481E1,5.705469E0,1.3510135E1,3.3641682E0,0E0,2.4965706E0,0E0,1.2071941E1,0E0,5.725609E0,7.1586685E0,4.071331E-1,1.040918E1,1.1819868E0,0E0,4.999303E0,3.3738842E0,7.185108E0,9.251127E-1,7.307173E0,1.43217E1,9.355322E0,0E0,0E0,5.376384E-1,0E0,1.774622E0,3.0503294E1,1.3875456E0,6.1466706E-1,2.6052845E-1,0E0,0E0,2.7877808E-1,0E0,0E0,0E0,0E0,0E0,0E0,0E0,0E0,0E0,0E0,0E0,0E0,0E0,0E0,0E0,0E0,0E0,0E0],"parents":[2147483647,0,0,1,1,2,2,3,3,4,4,6,6,8,8,10,10,11,11,12,12,13,13,14,14,16,16,17,17,18,18,19,19,20,20,21,21,22,22,25,25,27,27,28,28,29,29,30,30,31,31,34,34],"right_children":[2,4,6,8,10,-1,12,-1,14,-1,16,18,20,22,24,-1,26,28,30,32,34,36,38,-1,-1,40,-1,42,44,46,48,50,-1,-1,52,-1,-1,-1,-1,-1,-1,-1,-1,-1,-1,-1,-1,-1,-1,-1,-1,-1,-1],"split_conditions":[6.5614623E-3,5.989265E-3,4.467617E-5,2.7871171E-3,6.3744853E-3,-9.108246E-2,2.4051977E-4,-1.0582943E-1,9.0773014E-5,-1.3508129E-1,6.3386025E-5,1.9041481E-4,1.2336837E-2,3.9626193E-5,5.8871717E-3,-1.4429599E-1,6.4878305E-3,7.2233477E-3,2.1768322E-4,1.1687918E-2,1.2568522E-2,3.416341E-5,4.339292E-3,3.6509823E-2,1.3365082E-1,8.642072E-5,-1.1411675E-1,1.1895923E-4,7.5654387E-3,2.015898E-4,9.902549E-3,3.226077E-4,1.04439795E-1,-1.2260655E-1,1.2788878E-2,-3.157944E-3,7.6584645E-2,4.6218775E-2,-6.379609E-2,1.4684807E-2,8.996524E-2,5.307573E-2,1.07942484E-1,-1.9114716E-1,5.771779E-2,-1.6539994E-1,-4.0596586E-2,-1.2530987E-3,5.8956575E-2,4.9678445E-2,-0E0,2.0401819E-2,7.340024E-2],"split_indices":[1,1,2,1,1,0,2,0,2,0,2,2,1,2,1,0,1,1,2,1,1,2,1,0,0,2,0,2,1,2,1,2,0,0,1,0,0,0,0,0,0,0,0,0,0,0,0,0,0,0,0,0,0],"split_type":[0,0,0,0,0,0,0,0,0,0,0,0,0,0,0,0,0,0,0,0,0,0,0,0,0,0,0,0,0,0,0,0,0,0,0,0,0,0,0,0,0,0,0,0,0,0,0,0,0,0,0,0,0],"sum_hessian":[3.992362E2,2.5875302E2,1.4048318E2,2.4111354E2,1.763949E1,2.109363E0,1.3837383E2,1.1145166E1,2.2996837E2,9.138165E0,8.501326E0,9.855033E1,3.9823483E1,2.207572E2,9.211165E0,2.4277902E0,6.073535E0,8.79268E1,1.062353E1,1.5208935E1,2.461455E1,1.7267252E2,4.808468E1,3.1034262E0,6.107739E0,4.8565054E0,1.2170298E0,4.776329E1,4.0163513E1,5.0066953E0,5.6168346E0,4.9978414E0,1.0211093E1,1.2262483E0,2.3388302E1,1.4713348E2,2.5539043E1,8.682287E0,3.9402393E1,2.4999182E0,2.3565872E0,3.9246838E1,8.516452E0,4.6964245E0,3.546709E1,2.1320684E0,2.8746269E0,2.165173E0,3.4516618E0,3.3348396E0,1.663002E0,2.6019144E0,2.0786386E1],"tree_param":{"num_deleted":"0","num_feature":"3","num_nodes":"53","size_leaf_vector":"1"}},{"base_weights":[6.543395E-2,-1.5164103E-1,4.166352E-1,-3.919985E-1,3.5830564E-3,2.2183152E-1,5.6352067E-1,-2.0434318E-1,-1.377245E-1,1.7815268E-1,-9.7865246E-2,3.6083996E-1,-4.6615764E-1,6.6777694E-1,3.1601316E-1,-1.0254607E-1,-7.884109E-2,1.235765E-2,-7.779579E-1,1.2200313E-1,6.8995124E-1,5.7849593E-2,-1.1696788E0,4.1908276E-1,8.4095985E-1,-1.3252E-1,4.8661062E-1,4.1504586E-1,-4.532449E-1,-3.4718856E-1,3.6442423E-1,-1.0566899E0,1.4541782E-1,2.1518408E-1,-1.2551318E-1,9.3019575E-2,2.0384878E-1,-1.834616E-1,-2.0146365E-1,5.9460616E-1,-1.4942895E-1,8.8533074E-1,-0E0,2.6560336E-1,8.683163E-2,8.398441E-3,1.943354E-1,-8.469618E-2,3.2657977E-2,-9.9154525E-2,-1.3336348E-3,4.817724E-2,-1.1221309E-1,-1.4106005E-1,2.6191195E-2,1.0009036E-1,-1.0476389E-1,5.320372E-2,-4.9936976E-3,-1.17364764E-1,5.8407377E-2,5.102271E-2,-1.0925664E-1,8.954544E-2,2.3087303E-3,5.2498627E-2,1.0866461E-1,6.111085E-2,-1.2909652E-1],"categories":[],"categories_nodes":[],"categories_segments":[],"categories_sizes":[],"default_left":[0,0,0,0,0,0,0,0,0,0,0,0,0,0,0,0,0,0,0,0,0,0,0,0,0,0,0,0,0,0,0,0,0,0,0,0,0,0,0,0,0,0,0,0,0,0,0,0,0,0,0,0,0,0,0,0,0,0,0,0,0,0,0,0,0,0,0,0,0],"id":16,"left_children":[1,3,5,7,9,11,13,15,-1,-1,17,19,21,23,25,-1,27,29,31,33,35,-1,37,39,41,-1,43,45,47,49,51,53,55,57,-1,-1,59,-1,61,63,-1,65,-1,67,-1,-1,-1,-1,-1,-1,-1,-1,-1,-1,-1,-1,-1,-1,-1,-1,-1,-1,-1,-1,-1,-1,-1,-1,-1],"loss_changes":[2.9403267E1,8.9268055E0,4.011837E0,1.6888899E1,2.657951E1,6.4000244E0,1.8335819E0,8.051757E0,0E0,0E0,1.0468701E1,4.156658E0,9.030853E0,1.9873581E0,8.063669E0,0E0,1.3241838E1,1.5324092E1,5.2530184E0,4.433236E0,2.3516617E0,0E0,4.0188665E0,9.440573E0,1.2095432E0,0E0,1.7700353E0,1.523682E1,1.2835644E1,1.2742577E1,1.116688E1,7.5548725E0,6.461256E0,2.768589E0,0E0,0E0,5.3073683E0,0E0,3.2086933E0,4.071377E0,0E0,1.5087967E0,0E0,1.0120334E1,0E0,0E0,0E0,0E0,0E0,0E0,0E0,0E0,0E0,0E0,0E0,0E0,0E0,0E0,0E0,0E0,0E0,0E0,0E0,0E0,0E0,0E0,0E0,0E0,0E0],"parents":[2147483647,0,0,1,1,2,2,3,3,4,4,5,5,6,6,7,7,10,10,11,11,12,12,13,13,14,14,16,16,17,17,18,18,19,19,20,20,22,22,23,23,24,24,26,26,27,27,28,28,29,29,30,30,31,31,32,32,33,33,36,36,38,38,39,39,41,41,43,43],"right_children":[2,4,6,8,10,12,14,16,-1,-1,18,20,22,24,26,-1,28,30,32,34,36,-1,38,40,42,-1,44,46,48,50,52,54,56,58,-1,-1,60,-1,62,64,-1,66,-1,68,-1,-1,-1,-1,-1,-1,-1,-1,-1,-1,-1,-1,-1,-1,-1,-1,-1,-1,-1,-1,-1,-1,-1,-1,-1],"split_conditions":[6.4059505E-3,4.1701877E-3,6.788157E-3,4.012127E-3,4.181666E-3,6.013965E-3,1.2336837E-2,2.7871171E-3,-1.377245E-1,1.7815268E-1,4.8086722E-3,5.1385006E-3,6.697573E-3,7.7376286E-3,1.2568522E-2,-1.0254607E-1,2.322306E-3,3.6132107E-3,6.202257E-3,5.022721E-3,7.2233477E-3,5.7849593E-2,1.0363316E-2,1.0548316E-2,1.2886213E-2,-1.3252E-1,1.55414725E-2,2.2796625E-3,3.191794E-3,4.5369025E-3,5.989265E-3,6.6262125E-3,6.2406207E-3,6.697573E-3,-1.2551318E-1,9.3019575E-2,7.3104897E-3,-1.834616E-1,1.0977392E-2,7.0664817E-3,-1.4942895E-1,7.972091E-3,-0E0,1.4157273E-2,8.683163E-2,8.398441E-3,1.943354E-1,-8.469618E-2,3.2657977E-2,-9.9154525E-2,-1.3336348E-3,4.817724E-2,-1.1221309E-1,-1.4106005E-1,2.6191195E-2,1.0009036E-1,-1.0476389E-1,5.320372E-2,-4.9936976E-3,-1.17364764E-1,5.8407377E-2,5.102271E-2,-1.0925664E-1,8.954544E-2,2.3087303E-3,5.2498627E-2,1.0866461E-1,6.111085E-2,-1.2909652E-1],"split_indices":[1,1,0,1,1,0,1,1,0,0,0,0,1,0,1,0,0,0,1,0,1,0,1,1,0,0,1,0,0,1,1,0,1,1,0,0,1,0,1,0,0,1,0,1,0,0,0,0,0,0,0,0,0,0,0,0,0,0,0,0,0,0,0,0,0,0,0,0,0],"split_type":[0,0,0,0,0,0,0,0,0,0,0,0,0,0,0,0,0,0,0,0,0,0,0,0,0,0,0,0,0,0,0,0,0,0,0,0,0,0,0,0,0,0,0,0,0,0,0,0,0,0,0,0,0,0,0,0,0,0,0,0,0,0,0,0,0,0,0,0,0],"sum_hessian":[3.8350604E2,2.3718636E2,1.463197E2,9.272489E1,1.4446146E2,6.4271736E1,8.2047966E1,7.8989105E1,1.3735788E1,6.957192E0,1.3750427E2,5.398493E1,1.0286807E1,5.6251442E1,2.5796522E1,9.415968E0,6.9573135E1,1.19045334E2,1.8458935E1,3.2253235E1,2.1731695E1,4.1540537E0,6.1327534E0,2.4732452E1,3.1518988E1,1.7365053E0,2.4060017E1,2.9837708E1,3.973543E1,5.8763363E1,6.028197E1,1.415116E1,4.3077755E0,3.106748E1,1.1857561E0,1.3794698E1,7.936997E0,3.044066E0,3.0886874E0,2.3333456E1,1.3989966E0,2.9884262E1,1.6347257E0,1.647742E1,7.5825963E0,2.5445992E1,4.3917155E0,2.643241E1,1.33030205E1,1.9280735E1,3.9482628E1,5.6560303E1,3.721668E0,1.1161499E1,2.9896607E0,2.6514332E0,1.6563421E0,1.3866124E1,1.7201355E1,1.2086227E0,6.7283745E0,1.8924541E0,1.1962333E0,1.480062E1,8.532836E0,1.2182575E1,1.7701687E1,1.4033997E1,2.4434242E0],"tree_param":{"num_deleted":"0","num_feature":"3","num_nodes":"69","size_leaf_vector":"1"}},{"base_weights":[3.183987E-2,-1.2157114E-1,3.9324847E-1,-9.3620956E-2,-1.4414196E-1,6.0651696E-1,2.984988E-1,-1.382141E-1,8.020461E-1,4.2948067E-1,1.0020818E-1,-1.2842785E-1,3.8557047E-1,-9.712346E-2,-1.0598847E0,-8.83398E-3,1.03694096E-1,6.515082E-1,-1.3129742E-1,-1.1925223E-1,4.3007222E-1,-1.00572325E-1,-5.8363713E-2,4.508084E-1,-1.8069129E-1,9.0921515E-1,-1.18004896E-1,6.0021746E-1,-1.5344279E-1,-1.2547883E-1,4.777467E-1,-1.1049827E-2,5.0463647E-2,-7.580925E-2,1.132464E-1,3.3283684E-2,9.848956E-2,7.664223E-2,1.7459372E-2,5.8295704E-2,2.2316644E-2],"categories":[],"categories_nodes":[],"categories_segments":[],"categories_sizes":[],"default_left":[0,0,0,0,0,0,0,0,0,0,0,0,0,0,0,0,0,0,0,0,0,0,0,0,0,0,0,0,0,0,0,0,0,0,0,0,0,0,0,0,0],"id":17,"left_children":[1,3,5,7,-1,9,11,13,15,17,-1,-1,19,21,23,-1,-1,25,-1,27,29,-1,31,33,-1,35,-1,37,-1,-1,39,-1,-1,-1,-1,-1,-1,-1,-1,-1,-1],"loss_changes":[2.115754E1,9.579937E0,2.0268288E0,1.0553031E1,0E0,1.7860451E0,1.1574759E1,9.309429E0,2.8047209E0,1.0538971E1,0E0,0E0,1.826807E0,8.359297E0,1.2836918E1,0E0,0E0,1.1936074E1,0E0,8.031076E0,6.2857323E0,0E0,6.8646107E0,4.3908787E0,0E0,4.4942856E-1,0E0,1.4281464E-1,0E0,0E0,1.6793556E0,0E0,0E0,0E0,0E0,0E0,0E0,0E0,0E0,0E0,0E0],"parents":[2147483647,0,0,1,1,2,2,3,3,5,5,6,6,7,7,8,8,9,9,12,12,13,13,14,14,17,17,19,19,20,20,22,22,23,23,25,25,27,27,30,30],"right_children":[2,4,6,8,-1,10,12,14,16,18,-1,-1,20,22,24,-1,-1,26,-1,28,30,-1,32,34,-1,36,-1,38,-1,-1,40,-1,-1,-1,-1,-1,-1,-1,-1,-1,-1],"split_conditions":[8.383786E-5,7.761546E-5,7.0975297E-3,7.1411165E-3,-1.4414196E-1,6.9300737E-3,1.1752069E-4,6.909731E-5,5.7498357E-5,6.621641E-3,1.0020818E-1,-1.2842785E-1,1.367133E-4,2.7871171E-3,4.849273E-3,-8.83398E-3,1.03694096E-1,1.1133127E-4,-1.3129742E-1,1.2393238E-4,7.3104897E-3,-1.00572325E-1,6.143775E-5,4.7140718E-3,-1.8069129E-1,5.8871717E-3,-1.18004896E-1,7.3104897E-3,-1.5344279E-1,-1.2547883E-1,1.2336837E-2,-1.1049827E-2,5.0463647E-2,-7.580925E-2,1.132464E-1,3.3283684E-2,9.848956E-2,7.664223E-2,1.7459372E-2,5.8295704E-2,2.2316644E-2],"split_indices":[2,2,1,1,0,1,2,2,2,1,0,0,2,1,1,0,0,2,0,2,1,0,2,1,0,1,0,1,0,0,1,0,0,0,0,0,0,0,0,0,0],"split_type":[0,0,0,0,0,0,0,0,0,0,0,0,0,0,0,0,0,0,0,0,0,0,0,0,0,0,0,0,0,0,0,0,0,0,0,0,0,0,0,0,0],"sum_hessian":[3.7924933E2,2.6650848E2,1.1274082E2,2.6210464E2,4.403842E0,3.2694134E1,8.0046684E1,2.505859E2,1.15187435E1,2.420131E1,8.492826E0,3.397068E0,7.664962E1,2.4105298E2,9.532936E0,2.4458327E0,9.072911E0,2.2072294E1,2.1290138E0,5.8914065E0,7.075821E1,8.736059E0,2.3231693E2,3.2411401E0,6.291796E0,1.9839048E1,2.2332466E0,4.240673E0,1.6507335E0,1.1926146E0,6.95656E1,2.1352553E2,1.879139E1,1.0752944E0,2.1658459E0,3.0824592E0,1.6756588E1,2.304946E0,1.9357271E0,4.8032524E1,2.153307E1],"tree_param":{"num_deleted":"0","num_feature":"3","num_nodes":"41","size_leaf_vector":"1"}},{"base_weights":[-1.5961662E-3,-3.926201E-1,1.7973655E-1,-1.7636186E-1,-1.0572056E0,1.1065918E0,1.1780783E-1,-4.292049E-1,4.7892752E-1,-1.3958327E-1,4.419142E-1,1.9926845E-1,1.3955142E-1,-1.4461002E-1,2.0490885E-1,-2.0096588E-1,-1.3437347E-1,-9.7775444E-2,6.988044E-1,9.669933E-2,-3.4719206E-2,1.0278177E-1,-8.868532E-2,1.485292E-1,1.8534207E-1,-3.144435E-1,1.7207104E-1,9.3396556E-1,-1.064523E-1,7.407584E-2,-8.605289E-2,-3.8548246E-1,2.501189E-1,2.0211192E-2,-7.694048E-2,5.0446708E-2,2.0977412E-1,1.0118934E-1,-9.671264E-2,5.2290894E-2,1.4508626E-2],"categories":[],"categories_nodes":[],"categories_segments":[],"categories_sizes":[],"default_left":[0,0,0,0,0,0,0,0,0,0,0,0,0,0,0,0,0,0,0,0,0,0,0,0,0,0,0,0,0,0,0,0,0,0,0,0,0,0,0,0,0],"id":18,"left_children":[1,3,5,7,9,11,13,15,17,-1,19,21,-1,-1,23,25,-1,-1,27,-1,29,-1,-1,-1,31,33,-1,35,-1,-1,-1,37,39,-1,-1,-1,-1,-1,-1,-1,-1],"loss_changes":[2.647341E1,1.6702015E1,1.4366754E1,1.5214908E1,1.5305241E1,3.6865005E0,3.2860256E1,1.3357309E1,8.852518E0,0E0,1.6289306E0,5.4699755E0,0E0,0E0,5.275875E0,1.2198498E1,0E0,0E0,1.0468425E1,0E0,3.2184787E0,0E0,0E0,0E0,8.440587E0,1.2428375E1,0E0,9.063091E0,0E0,0E0,0E0,1.9888887E1,5.695365E0,0E0,0E0,0E0,0E0,0E0,0E0,0E0,0E0],"parents":[2147483647,0,0,1,1,2,2,3,3,4,4,5,5,6,6,7,7,8,8,10,10,11,11,14,14,15,15,18,18,20,20,24,24,25,25,27,27,31,31,32,32],"right_children":[2,4,6,8,10,12,14,16,18,-1,20,22,-1,-1,24,26,-1,-1,28,-1,30,-1,-1,-1,32,34,-1,36,-1,-1,-1,38,40,-1,-1,-1,-1,-1,-1,-1,-1],"split_conditions":[3.191794E-3,2.9924124E-5,1.7481547E-5,2.372163E-5,7.174091E-5,1.5516453E-5,2.5171767E-5,1.987997E-5,2.059149E-3,-1.3958327E-1,7.426964E-5,1.208532E-5,1.3955142E-1,-1.4461002E-1,2.5572388E-5,1.9562169E-5,-1.3437347E-1,-9.7775444E-2,3.040101E-3,9.669933E-2,2.3825916E-3,1.0278177E-1,-8.868532E-2,1.485292E-1,3.653229E-3,2.1113285E-3,1.7207104E-1,2.9857175E-3,-1.064523E-1,7.407584E-2,-8.605289E-2,3.2513246E-3,4.211427E-3,2.0211192E-2,-7.694048E-2,5.0446708E-2,2.0977412E-1,1.0118934E-1,-9.671264E-2,5.2290894E-2,1.4508626E-2],"split_indices":[0,2,2,2,2,2,2,2,0,0,2,2,0,0,2,2,0,0,0,0,0,0,0,0,0,0,0,0,0,0,0,0,0,0,0,0,0,0,0,0,0],"split_type":[0,0,0,0,0,0,0,0,0,0,0,0,0,0,0,0,0,0,0,0,0,0,0,0,0,0,0,0,0,0,0,0,0,0,0,0,0,0,0,0,0],"sum_hessian":[3.7106677E2,1.173661E2,2.5370068E2,8.961948E1,2.7746618E1,1.4731933E1,2.3896875E2,6.502661E1,2.4592863E1,2.2744585E1,5.0020323E0,4.049815E0,1.06821165E1,1.1723392E1,2.2724536E2,5.310284E1,1.1923772E1,2.7136085E0,2.1879255E1,1.9903674E0,3.0116646E0,2.3799891E0,1.6698263E0,2.2160356E0,2.2502933E2,5.0980766E1,2.1220763E0,1.9769766E1,2.109489E0,1.5438286E0,1.4678361E0,2.2271793E1,2.0275752E2,2.4031624E1,2.6949142E1,1.5550252E1,4.219514E0,6.277857E0,1.5993937E1,5.499481E1,1.4776273E2],"tree_param":{"num_deleted":"0","num_feature":"3","num_nodes":"41","size_leaf_vector":"1"}},{"base_weights":[1.8881549E-3,-2.1412362E-1,3.4514737E-1,-1.4962104E-1,-9.8821646E-1,-2.6479395E-2,4.3357462E-1,-2.2671475E-1,8.1891304E-1,-1.3890372E-1,3.4510407E-1,1.9941078E-1,-1.4748858E-1,5.1101786E-1,5.8038726E-2,-4.744444E-1,-4.103072E-2,-7.522467E-2,9.974947E-1,9.147174E-2,-7.269042E-2,7.412729E-1,-1.8108183E-1,5.292381E-1,-2.452368E-2,-1.3168214E-1,2.9432574E-1,2.559617E-1,-9.3187034E-1,1.7768984E-1,-1.7312747E-1,1.4247401E-1,4.0237823E-1,-0E0,1.023942E0,-1.3247971E-1,6.608451E-2,4.3034855E-1,7.2793067E-1,4.8519477E-2,7.257112E-2,-9.9131905E-2,7.405741E-2,-3.478605E-2,-1.1794305E-1,-1.0643921E-2,-1.175349E-1,1.2751089E-1,-1.0908592E-1,1.222707E-1,4.316985E-2,-1.4411627E-2,9.205066E-2,6.1727196E-2,2.030241E-2,4.8118193E-2,1.0195058E-1,3.5511017E-2,-1.1234101E-1],"categories":[],"categories_nodes":[],"categories_segments":[],"categories_sizes":[],"default_left":[0,0,0,0,0,0,0,0,0,0,0,0,0,0,0,0,0,0,0,0,0,0,0,0,0,0,0,0,0,0,0,0,0,0,0,0,0,0,0,0,0,0,0,0,0,0,0,0,0,0,0,0,0,0,0,0,0,0,0],"id":19,"left_children":[1,3,5,7,9,11,13,15,17,-1,19,21,-1,23,25,27,29,-1,31,-1,-1,33,35,37,-1,-1,39,41,43,-1,45,-1,47,-1,49,-1,51,53,55,57,-1,-1,-1,-1,-1,-1,-1,-1,-1,-1,-1,-1,-1,-1,-1,-1,-1,-1,-1],"loss_changes":[2.7375368E1,1.1038656E1,4.7418213E0,1.5822237E1,9.727806E0,9.633396E0,3.2740078E0,8.925943E0,5.1574793E0,0E0,3.552485E0,5.381212E0,0E0,1.4733791E0,7.141265E0,2.8193672E1,2.731203E1,0E0,2.933999E0,0E0,0E0,2.1858296E0,4.5912557E0,1.4109688E0,0E0,0E0,1.8902484E0,2.0561352E1,6.900856E0,0E0,6.859387E0,0E0,1.12566185E1,0E0,2.1171379E-1,0E0,2.655562E0,2.5678291E0,1.4701147E0,5.083469E0,0E0,0E0,0E0,0E0,0E0,0E0,0E0,0E0,0E0,0E0,0E0,0E0,0E0,0E0,0E0,0E0,0E0,0E0,0E0],"parents":[2147483647,0,0,1,1,2,2,3,3,4,4,5,5,6,6,7,7,8,8,10,10,11,11,13,13,14,14,15,15,16,16,18,18,21,21,22,22,23,23,26,26,27,27,28,28,30,30,32,32,34,34,36,36,37,37,38,38,39,39],"right_children":[2,4,6,8,10,12,14,16,18,-1,20,22,-1,24,26,28,30,-1,32,-1,-1,34,36,38,-1,-1,40,42,44,-1,46,-1,48,-1,50,-1,52,54,56,58,-1,-1,-1,-1,-1,-1,-1,-1,-1,-1,-1,-1,-1,-1,-1,-1,-1,-1,-1],"split_conditions":[6.3744853E-3,4.8086722E-3,4.9296836E-3,4.442355E-3,6.202257E-3,4.7610328E-3,1.2336837E-2,4.1701877E-3,4.784817E-3,-1.3890372E-1,5.6231814E-3,6.621641E-3,-1.4748858E-1,1.1828756E-2,1.2568522E-2,2.1113285E-3,4.181666E-3,-7.522467E-2,5.495107E-3,9.147174E-2,-7.269042E-2,4.062892E-3,6.800734E-3,7.7376286E-3,-2.452368E-2,-1.3168214E-1,1.55414725E-2,2.7871171E-3,3.4146255E-3,1.7768984E-1,5.989265E-3,1.4247401E-1,4.5854542E-3,-0E0,4.1190665E-3,-1.3247971E-1,1.0548316E-2,7.2233477E-3,1.1180657E-2,1.4157273E-2,7.257112E-2,-9.9131905E-2,7.405741E-2,-3.478605E-2,-1.1794305E-1,-1.0643921E-2,-1.175349E-1,1.2751089E-1,-1.0908592E-1,1.222707E-1,4.316985E-2,-1.4411627E-2,9.205066E-2,6.1727196E-2,2.030241E-2,4.8118193E-2,1.0195058E-1,3.5511017E-2,-1.1234101E-1],"split_indices":[1,0,0,0,1,0,1,1,1,0,0,1,0,0,1,0,1,0,1,0,0,0,1,0,0,0,1,1,1,0,1,0,0,0,0,0,1,1,1,1,0,0,0,0,0,0,0,0,0,0,0,0,0,0,0,0,0,0,0],"split_type":[0,0,0,0,0,0,0,0,0,0,0,0,0,0,0,0,0,0,0,0,0,0,0,0,0,0,0,0,0,0,0,0,0,0,0,0,0,0,0,0,0,0,0,0,0,0,0,0,0,0,0,0,0,0,0,0,0,0,0],"sum_hessian":[3.6702545E2,2.2531831E2,1.4170712E2,2.0920818E2,1.6110151E1,2.7154898E1,1.1455223E2,1.9458842E2,1.4619746E1,1.2412067E1,3.698084E0,2.417751E1,2.9773872E0,9.4448044E1,2.0104187E1,8.2469025E1,1.121194E2,1.1071085E0,1.3512637E1,2.5716448E0,1.1264393E0,9.691048E0,1.4486463E1,9.264831E1,1.7997338E0,2.2157032E0,1.7888483E1,3.1843674E1,5.0625347E1,6.7003255E0,1.05419075E2,6.956411E0,6.5562263E0,3.0031748E0,6.6878724E0,1.8714285E0,1.2615034E1,6.431023E1,2.8338081E1,1.225168E1,5.6368036E0,8.560073E0,2.32836E1,1.5907548E1,3.47178E1,9.9972824E1,5.4462543E0,4.272302E0,2.283924E0,4.0838823E0,2.6039903E0,1.0697562E1,1.9174719E0,3.4108418E1,3.0201807E1,1.697015E1,1.1367932E1,1.0331225E1,1.9204549E0],"tree_param":{"num_deleted":"0","num_feature":"3","num_nodes":"59","size_leaf_vector":"1"}},{"base_weights":[1.2933876E-1,-1.03112794E-1,1.5714811E-1,9.9894124E-1,1.3438055E-1,1.3091439E-1,-6.6238485E-2,-1.19999945E-1,1.690702E-1,1.3612227E-1,1.4246266E-1,-1.2130004E-1,1.8101484E-1,-4.491152E-2,2.1632584E-2],"categories":[],"categories_nodes":[],"categories_segments":[],"categories_sizes":[],"default_left":[0,0,0,0,0,0,0,0,0,0,0,0,0,0,0],"id":20,"left_children":[1,-1,3,5,7,-1,-1,-1,9,-1,11,-1,13,-1,-1],"loss_changes":[1.2602001E1,0E0,7.036297E0,5.94989E0,1.7287544E1,0E0,0E0,0E0,1.1165521E1,0E0,1.872637E1,0E0,7.7997856E0,0E0,0E0],"parents":[2147483647,0,0,2,2,3,3,4,4,8,8,10,10,12,12],"right_children":[2,-1,4,6,8,-1,-1,-1,10,-1,12,-1,14,-1,-1],"split_conditions":[1.6494878E-3,-1.03112794E-1,1.789294E-3,1.4333697E-5,2.0766961E-3,1.3091439E-1,-6.6238485E-2,-1.19999945E-1,2.1113285E-3,1.3612227E-1,2.2796625E-3,-1.2130004E-1,1.5516453E-5,-4.491152E-2,2.1632584E-2],"split_indices":[0,0,0,2,0,0,0,0,0,0,0,0,2,0,0],"split_type":[0,0,0,0,0,0,0,0,0,0,0,0,0,0,0],"sum_hessian":[3.8718253E2,8.1327715E0,3.7904974E2,8.737225E0,3.7031253E2,7.591855E0,1.145369E0,8.458812E0,3.618537E2,6.7227535E0,3.5513095E2,8.907093E0,3.4622388E2,1.7599913E1,3.2862396E2],"tree_param":{"num_deleted":"0","num_feature":"3","num_nodes":"15","size_leaf_vector":"1"}},{"base_weights":[1.0088798E-2,-3.119395E-1,1.5400097E-1,-4.234898E-1,3.188218E-1,1.1239932E0,1.1259816E-1,9.38684E-2,-7.1856636E-1,1.2491164E-1,-2.5957465E-1,1.6265622E-1,-9.170886E-2,-5.06401E-1,1.8576588E-1,-1.01629056E-1,4.5966917E-1,-5.137039E-1,-1.3423003E-1,-1.1105788E-1,2.4543716E-1,6.384196E-2,-7.023888E-1,9.1827995E-1,1.4831465E-1,-7.6019846E-2,6.08337E-1,-8.9768344E-1,6.961404E-1,1.6130331E-1,-5.417868E-1,-1.2811458E-1,-6.701698E-2,1.4408219E0,-9.386843E-2,-1.3894282E-1,1.8967037E-1,1.23760305E-1,2.6902819E-2,-5.1502795E-3,-1.3275085E-1,-9.889639E-2,1.3216273E-1,3.0548869E-2,-1.15650825E-1,7.533298E-2,-1.10575415E-1,1.7709391E-1,5.598224E-2,1.3783011E-1,1.4088297E-2],"categories":[],"categories_nodes":[],"categories_segments":[],"categories_sizes":[],"default_left":[0,0,0,0,0,0,0,0,0,0,0,0,0,0,0,0,0,0,0,0,0,0,0,0,0,0,0,0,0,0,0,0,0,0,0,0,0,0,0,0,0,0,0,0,0,0,0,0,0,0,0],"id":21,"left_children":[1,3,5,7,9,11,13,15,17,-1,19,-1,-1,21,23,-1,25,27,-1,-1,29,-1,31,33,35,-1,37,39,41,-1,43,-1,45,47,-1,-1,49,-1,-1,-1,-1,-1,-1,-1,-1,-1,-1,-1,-1,-1,-1],"loss_changes":[1.672334E1,7.9806547E0,9.781946E0,1.4661049E1,9.66184E0,1.1836692E1,1.0967415E1,1.4760111E1,6.9006424E0,0E0,5.236475E0,0E0,0E0,6.1935573E0,5.688541E0,0E0,5.404138E0,2.2733932E1,0E0,0E0,9.451294E0,0E0,8.012388E0,1.1294316E1,1.3308603E1,0E0,4.8525133E0,1.31028385E1,1.3941751E1,0E0,3.404813E0,0E0,1.0931935E1,1.2161465E0,0E0,0E0,1.1399076E1,0E0,0E0,0E0,0E0,0E0,0E0,0E0,0E0,0E0,0E0,0E0,0E0,0E0,0E0],"parents":[2147483647,0,0,1,1,2,2,3,3,4,4,5,5,6,6,7,7,8,8,10,10,13,13,14,14,16,16,17,17,20,20,22,22,23,23,24,24,26,26,27,27,28,28,30,30,32,32,33,33,36,36],"right_children":[2,4,6,8,10,12,14,16,18,-1,20,-1,-1,22,24,-1,26,28,-1,-1,30,-1,32,34,36,-1,38,40,42,-1,44,-1,46,48,-1,-1,50,-1,-1,-1,-1,-1,-1,-1,-1,-1,-1,-1,-1,-1,-1],"split_conditions":[3.191794E-3,4.8987456E-3,3.2513246E-3,2.1372337E-3,5.0793067E-3,4.339292E-3,3.6132107E-3,1.6494878E-3,4.281379E-3,1.2491164E-1,5.4134475E-3,1.6265622E-1,-9.170886E-2,3.4488926E-3,3.6647557E-3,-1.01629056E-1,2.7871171E-3,4.1701877E-3,-1.3423003E-1,-1.1105788E-1,5.4337066E-3,6.384196E-2,4.8987456E-3,5.1354286E-3,3.7407246E-3,-7.6019846E-2,1.789294E-3,3.4146255E-3,2.6440602E-3,1.6130331E-1,2.3825916E-3,-1.2811458E-1,5.1684272E-3,4.339292E-3,-9.386843E-2,-1.3894282E-1,3.7625702E-3,1.23760305E-1,2.6902819E-2,-5.1502795E-3,-1.3275085E-1,-9.889639E-2,1.3216273E-1,3.0548869E-2,-1.15650825E-1,7.533298E-2,-1.10575415E-1,1.7709391E-1,5.598224E-2,1.3783011E-1,1.4088297E-2],"split_indices":[0,1,0,0,1,1,0,0,1,0,1,0,0,1,0,0,1,1,0,0,1,0,1,1,0,0,0,1,0,0,0,0,1,1,0,0,0,0,0,0,0,0,0,0,0,0,0,0,0,0,0],"split_type":[0,0,0,0,0,0,0,0,0,0,0,0,0,0,0,0,0,0,0,0,0,0,0,0,0,0,0,0,0,0,0,0,0,0,0,0,0,0,0,0,0,0,0,0,0,0,0,0,0,0,0],"sum_hessian":[3.5915814E2,1.1035573E2,2.4880241E2,9.418604E1,1.6169683E1,9.015793E0,2.3978662E2,3.4332977E1,5.985307E1,5.8207865E0,1.0348898E1,7.4367485E0,1.5790447E0,2.4577028E1,2.152096E2,8.000584E0,2.6332394E1,4.6548386E1,1.3304684E1,3.4813373E0,6.867561E0,3.187903E0,2.1389126E1,9.193961E0,2.0601562E2,2.3406403E0,2.3991753E1,3.5592678E1,1.0955708E1,2.172107E0,4.6954536E0,1.0579004E1,1.0810122E1,7.39187E0,1.8020917E0,4.4784102E0,2.0153722E2,7.374049E0,1.6617704E1,1.2445049E1,2.3147629E1,2.7651687E0,8.190539E0,2.1173975E0,2.578056E0,6.1397347E0,4.670387E0,4.5596714E0,2.8321984E0,6.790724E0,1.9474649E2],"tree_param":{"num_deleted":"0","num_feature":"3","num_nodes":"51","size_leaf_vector":"1"}},{"base_weights":[1.887177E-2,-4.4197553E-1,1.4292203E-1,-1.0996221E-1,-1.0548302E0,1.2267484E-1,1.1880712E-1,-1.0208958E-1,1.2200307E-1,5.1577044E-1,-1.3121246E-1,-1.3071914E-1,1.8226352E-1,3.9064008E-1,-1.1267302E-1,-6.442233E-2,1.1624595E-1,1.1354171E0,1.5621376E-1,1.9820398E-2,1.3978428E0,5.847258E-1,1.5240277E-1,5.0125744E-2,3.599532E-1,-3.851243E-2,1.2071184E-1,2.3806608E-1,8.276553E-2,-8.22125E-2,1.4267163E-1,7.6278574E-3,-1.1585461E-1,7.504162E-2,2.258264E-2],"categories":[],"categories_nodes":[],"categories_segments":[],"categories_sizes":[],"default_left":[0,0,0,0,0,0,0,0,0,0,0,0,0,0,0,0,0,0,0,0,0,0,0,0,0,0,0,0,0,0,0,0,0,0,0],"id":22,"left_children":[1,3,5,7,9,-1,11,-1,13,15,-1,-1,17,19,-1,-1,-1,21,23,25,27,29,-1,31,33,-1,-1,-1,-1,-1,-1,-1,-1,-1,-1],"loss_changes":[2.010633E1,1.4935155E1,6.974639E0,1.0689167E1,1.125145E1,0E0,2.4805298E1,0E0,1.3890845E1,4.04048E0,0E0,0E0,6.2002954E0,1.2524361E1,0E0,0E0,0E0,3.339491E-1,5.481805E0,1.301312E1,2.7852745E0,6.569862E0,0E0,5.3557286E0,4.3045635E0,0E0,0E0,0E0,0E0,0E0,0E0,0E0,0E0,0E0,0E0],"parents":[2147483647,0,0,1,1,2,2,3,3,4,4,6,6,8,8,9,9,12,12,13,13,17,17,18,18,19,19,20,20,21,21,23,23,24,24],"right_children":[2,4,6,8,10,-1,12,-1,14,16,-1,-1,18,20,-1,-1,-1,22,24,26,28,30,-1,32,34,-1,-1,-1,-1,-1,-1,-1,-1,-1,-1],"split_conditions":[4.1701877E-3,1.987997E-5,4.181666E-3,1.0391567E-5,3.285406E-3,1.2267484E-1,2.3044639E-5,-1.0208958E-1,3.8915798E-3,3.2325287E-3,-1.3121246E-1,-1.3071914E-1,2.3925995E-5,3.719066E-3,-1.1267302E-1,-6.442233E-2,1.1624595E-1,4.8617776E-3,1.0410377E-4,1.8075809E-5,1.0713403E-5,2.372163E-5,1.5240277E-1,9.670499E-5,7.2233477E-3,-3.851243E-2,1.2071184E-1,2.3806608E-1,8.276553E-2,-8.22125E-2,1.4267163E-1,7.6278574E-3,-1.1585461E-1,7.504162E-2,2.258264E-2],"split_indices":[1,2,1,2,1,0,2,0,1,1,0,0,2,1,0,0,0,1,2,2,2,2,0,2,1,0,0,0,0,0,0,0,0,0,0],"split_type":[0,0,0,0,0,0,0,0,0,0,0,0,0,0,0,0,0,0,0,0,0,0,0,0,0,0,0,0,0,0,0,0,0,0,0],"sum_hessian":[3.5012277E2,7.354262E1,2.7658017E2,4.8571606E1,2.4971014E1,4.8441863E0,2.7173596E2,9.255409E0,3.9316196E1,3.318803E0,2.165221E1,1.0674813E1,2.6106116E2,3.2987026E1,6.329168E0,1.1339563E0,2.1848466E0,5.7099614E0,2.553512E2,2.492822E1,8.058806E0,3.505037E0,2.2049243E0,1.6905852E2,8.629267E1,1.9029387E1,5.898835E0,1.7286211E0,6.330185E0,1.27669E0,2.228347E0,1.66476E2,2.5825255E0,2.0697824E1,6.559485E1],"tree_param":{"num_deleted":"0","num_feature":"3","num_nodes":"35","size_leaf_vector":"1"}},{"base_weights":[5.0386053E-2,-1.11835435E-1,2.0910577E-1,-1.682539E-2,-1.2554346E-1,1.2621523E0,1.6691476E-1,2.200414E-2,-1.12987936E-1,6.543687E-1,1.7393033E-1,-4.0059718E-1,2.6105985E-1,-9.524288E-2,6.749698E-2,-7.822414E-2,1.6196702E-1,-9.698334E-2,-1.3241982E-1,9.7505546E-1,2.0846424E-1,9.0206003E-1,2.102798E-2,-5.476802E-1,9.5184845E-1,5.2268636E-1,1.1482911E0,-1.2784243E-1,2.4325825E-1,-5.8749307E-2,1.2956545E-1,-2.1969494E-3,9.614106E-2,-1.2863575E-1,5.8908105E-2,4.6791002E-2,1.2048608E-1,1.4949584E-2,7.485825E-2,1.3237338E-1,3.6396064E-2,2.1504303E-2,8.203896E-2],"categories":[],"categories_nodes":[],"categories_segments":[],"categories_sizes":[],"default_left":[0,0,0,0,0,0,0,0,0,0,0,0,0,0,0,0,0,0,0,0,0,0,0,0,0,0,0,0,0,0,0,0,0,0,0,0,0,0,0,0,0,0,0],"id":23,"left_children":[1,3,5,7,-1,9,11,13,-1,15,-1,17,19,-1,21,-1,-1,23,-1,25,27,29,31,33,35,37,39,-1,41,-1,-1,-1,-1,-1,-1,-1,-1,-1,-1,-1,-1,-1,-1],"loss_changes":[9.310158E0,1.9249203E1,7.767092E0,7.306905E0,0E0,5.937424E-1,9.546442E0,7.1229706E0,0E0,7.847356E0,0E0,6.8592176E0,5.407303E0,0E0,5.9024677E0,0E0,0E0,1.0074774E1,0E0,2.1417618E-2,7.6309514E0,5.5465827E0,6.100385E0,1.3336586E1,5.24168E-2,2.0143759E-1,2.138977E-1,0E0,2.017953E0,0E0,0E0,0E0,0E0,0E0,0E0,0E0,0E0,0E0,0E0,0E0,0E0,0E0,0E0],"parents":[2147483647,0,0,1,1,2,2,3,3,5,5,6,6,7,7,9,9,11,11,12,12,14,14,17,17,19,19,20,20,21,21,22,22,23,23,24,24,25,25,26,26,28,28],"right_children":[2,4,6,8,-1,10,12,14,-1,16,-1,18,20,-1,22,-1,-1,24,-1,26,28,30,32,34,36,38,40,-1,42,-1,-1,-1,-1,-1,-1,-1,-1,-1,-1,-1,-1,-1,-1],"split_conditions":[4.571128E-5,3.9364004E-5,4.339292E-3,5.6947637E-3,-1.2554346E-1,5.4723372E-5,5.833063E-3,8.334083E-6,-1.12987936E-1,4.320276E-3,1.7393033E-1,5.495107E-3,4.733314E-5,-9.524288E-2,1.0713403E-5,-7.822414E-2,1.6196702E-1,5.4134475E-3,-1.3241982E-1,4.6418874E-5,5.338906E-5,3.0690392E-3,3.873972E-5,7.644564E-5,5.4666754E-3,6.538866E-3,6.588668E-3,-1.2784243E-1,1.55414725E-2,-5.8749307E-2,1.2956545E-1,-2.1969494E-3,9.614106E-2,-1.2863575E-1,5.8908105E-2,4.6791002E-2,1.2048608E-1,1.4949584E-2,7.485825E-2,1.3237338E-1,3.6396064E-2,2.1504303E-2,8.203896E-2],"split_indices":[2,2,1,1,0,2,1,2,0,1,0,1,2,0,2,0,0,1,0,2,2,1,2,2,1,1,1,0,1,0,0,0,0,0,0,0,0,0,0,0,0,0,0],"split_type":[0,0,0,0,0,0,0,0,0,0,0,0,0,0,0,0,0,0,0,0,0,0,0,0,0,0,0,0,0,0,0,0,0,0,0,0,0,0,0,0,0,0,0],"sum_hessian":[3.5930508E2,1.7752687E2,1.8177821E2,1.6492693E2,1.2599948E1,5.7973223E0,1.759809E2,1.6022768E2,4.699247E0,3.6847548E0,2.1125677E0,2.4425467E1,1.5155542E2,6.1595416E0,1.5406813E2,1.5154427E0,2.169312E0,1.92957E1,5.1297665E0,9.0644E0,1.4249103E2,7.0415154E0,1.4702661E2,1.3897098E1,5.398603E0,3.7822583E0,5.282141E0,2.3751366E0,1.4011589E2,1.3156708E0,5.7258444E0,1.4143025E2,5.5963707E0,8.397015E0,5.5000825E0,2.967411E0,2.4311917E0,2.2196949E0,1.5625634E0,3.6503844E0,1.6317567E0,1.3505891E2,5.05698E0],"tree_param":{"num_deleted":"0","num_feature":"3","num_nodes":"43","size_leaf_vector":"1"}},{"base_weights":[2.0389507E-2,-8.13179E-2,3.2063556E-1,-1.01555824E-1,-4.6944484E-2,8.811357E-2,2.6445925E-1,-2.0977695E-2,-1.2985088E-1,-1.1299924E-1,3.1225407E-1,-6.6068135E-2,5.139293E-1,2.6245E-1,8.566397E-2,-2.3913402E-2,-8.539321E-1,7.323358E-1,-3.6654912E-2,3.4464863E-1,-5.8199186E-2,-5.120833E-3,1.1038816E-1,3.8246785E-3,-1.9487533E-1,3.3289574E-2,8.400407E-2,-1.21398106E-1,6.2204033E-2,2.66335E-2,7.037404E-2,-3.5723157E-2,6.3769124E-2],"categories":[],"categories_nodes":[],"categories_segments":[],"categories_sizes":[],"default_left":[0,0,0,0,0,0,0,0,0,0,0,0,0,0,0,0,0,0,0,0,0,0,0,0,0,0,0,0,0,0,0,0,0],"id":24,"left_children":[1,3,5,-1,7,-1,9,11,-1,-1,13,15,17,19,-1,21,23,25,27,29,31,-1,-1,-1,-1,-1,-1,-1,-1,-1,-1,-1,-1],"loss_changes":[1.0772699E1,8.28651E0,2.464182E0,0E0,8.117022E0,0E0,5.7865543E0,6.032911E0,0E0,0E0,1.8557625E0,7.602209E0,2.4319377E0,2.0438752E0,0E0,6.770167E0,1.1636609E1,2.0895863E-1,5.729834E0,1.4210124E0,3.5402977E0,0E0,0E0,0E0,0E0,0E0,0E0,0E0,0E0,0E0,0E0,0E0,0E0],"parents":[2147483647,0,0,1,1,2,2,4,4,6,6,7,7,10,10,11,11,12,12,13,13,15,15,16,16,17,17,18,18,19,19,20,20],"right_children":[2,4,6,-1,8,-1,10,12,-1,-1,14,16,18,20,-1,22,24,26,28,30,32,-1,-1,-1,-1,-1,-1,-1,-1,-1,-1,-1,-1],"split_conditions":[1.0495761E-4,1.724375E-3,1.1133127E-4,-1.01555824E-1,9.579357E-5,8.811357E-2,1.1752069E-4,6.957618E-3,-1.2985088E-1,-1.1299924E-1,7.0003665E-4,5.686457E-3,7.803501E-3,1.0343095E-2,8.566397E-2,5.6231814E-3,4.733314E-5,4.6898138E-5,7.129258E-5,2.6956887E-4,1.4517404E-2,-5.120833E-3,1.1038816E-1,3.8246785E-3,-1.9487533E-1,3.3289574E-2,8.400407E-2,-1.21398106E-1,6.2204033E-2,2.66335E-2,7.037404E-2,-3.5723157E-2,6.3769124E-2],"split_indices":[2,0,2,0,2,0,2,0,0,0,2,0,0,0,0,0,2,2,2,2,0,0,0,0,0,0,0,0,0,0,0,0,0],"split_type":[0,0,0,0,0,0,0,0,0,0,0,0,0,0,0,0,0,0,0,0,0,0,0,0,0,0,0,0,0,0,0,0,0],"sum_hessian":[3.5013495E2,2.618352E2,8.829974E1,8.175586E0,2.536596E2,6.5437803E0,8.175597E1,2.4957816E2,4.0814533E0,1.8896312E0,7.986633E1,2.311561E2,1.8422064E1,7.4698235E1,5.168098E0,2.2051471E2,1.0641382E1,1.3083573E1,5.338491E0,5.9645184E1,1.5053053E1,2.1632253E2,4.192181E0,6.344733E0,4.2966495E0,3.8445911E0,9.238982E0,1.6672753E0,3.6712158E0,5.0624706E1,9.020475E0,1.0969628E1,4.0834236E0],"tree_param":{"num_deleted":"0","num_feature":"3","num_nodes":"33","size_leaf_vector":"1"}},{"base_weights":[2.3518547E-2,-1.04776464E-1,6.1085954E-2,-4.1095536E-2,1.5635271E-1,7.546033E-2,-1.0733262E0,1.3198656E-1,1.11090854E-1,-3.5831615E-2,7.577831E-1,-1.2674372E-1,-0E0,-1.1161276E-1,1.428627E-1,1.3943258E-1,-6.283511E-1,1.243354E0,-2.52797E-1,9.732638E-1,9.610046E-2,-5.6345025E-3,1.1057488E-1,-3.2623723E-2,-1.2744367E-1,3.4713507E-2,1.5767203E-1,1.4799727E-1,-1.2649767E-1,1.1909073E-1,1.9470577E-3,-1.1706455E-1,1.3283034E-2],"categories":[],"categories_nodes":[],"categories_segments":[],"categories_sizes":[],"default_left":[0,0,0,0,0,0,0,0,0,0,0,0,0,0,0,0,0,0,0,0,0,0,0,0,0,0,0,0,0,0,0,0,0],"id":25,"left_children":[1,-1,3,5,7,9,11,-1,13,15,17,-1,-1,-1,19,21,23,25,27,29,31,-1,-1,-1,-1,-1,-1,-1,-1,-1,-1,-1,-1],"loss_changes":[1.40764E1,0E0,3.3255599E0,1.9939323E1,9.008171E0,1.1369287E1,3.4432354E0,0E0,6.7342267E0,1.34734335E1,1.0710169E1,0E0,0E0,0E0,6.3141465E0,1.9047632E1,5.2073927E0,3.5653114E0,1.5135065E1,1.6659727E0,7.498262E0,0E0,0E0,0E0,0E0,0E0,0E0,0E0,0E0,0E0,0E0,0E0,0E0],"parents":[2147483647,0,0,2,2,3,3,4,4,5,5,6,6,8,8,9,9,10,10,14,14,15,15,16,16,17,17,18,18,19,19,20,20],"right_children":[2,-1,4,6,8,10,12,-1,14,16,18,-1,-1,-1,20,22,24,26,28,30,32,-1,-1,-1,-1,-1,-1,-1,-1,-1,-1,-1,-1],"split_conditions":[3.08852E-3,-1.04776464E-1,4.6418874E-5,3.9108316E-5,4.339292E-3,3.416341E-5,6.4878305E-3,1.3198656E-1,4.8231278E-3,2.7609132E-5,4.7480725E-3,-1.2674372E-1,-0E0,-1.1161276E-1,4.7880727E-5,4.849273E-3,4.918623E-3,4.2688097E-3,3.4776633E-5,6.588668E-3,5.080041E-5,-5.6345025E-3,1.1057488E-1,-3.2623723E-2,-1.2744367E-1,3.4713507E-2,1.5767203E-1,1.4799727E-1,-1.2649767E-1,1.1909073E-1,1.9470577E-3,-1.1706455E-1,1.3283034E-2],"split_indices":[1,0,2,2,1,2,1,0,1,2,1,0,0,0,2,1,1,1,2,1,2,0,0,0,0,0,0,0,0,0,0,0,0],"split_type":[0,0,0,0,0,0,0,0,0,0,0,0,0,0,0,0,0,0,0,0,0,0,0,0,0,0,0,0,0,0,0,0,0],"sum_hessian":[3.4962613E2,1.0843976E1,3.3878214E2,1.632268E2,1.7555533E2,1.4741162E2,1.5815185E1,5.436379E0,1.7011896E2,1.27428085E2,1.9983543E1,1.32024765E1,2.6127083E0,3.3523998E0,1.6676656E2,9.879958E1,2.8628496E1,1.3409207E1,6.5743365E0,7.720202E0,1.5904636E2,8.2851845E1,1.5947743E1,2.0637833E1,7.990664E0,4.270286E0,9.138921E0,2.2173874E0,4.356949E0,5.9980726E0,1.7221292E0,3.5350394E0,1.555113E2],"tree_param":{"num_deleted":"0","num_feature":"3","num_nodes":"33","size_leaf_vector":"1"}},{"base_weights":[1.4981619E-1,-9.315343E-2,1.6890718E-1,4.0277097E-2,2.5762513E-1,2.6114103E-1,-3.499335E-1,1.2095009E0,2.0511523E-1,6.1545998E-2,7.1409875E-1,-6.623562E-2,-9.633687E-1,1.357597E-1,5.6832798E-2,-1.0370803E-1,2.2408059E-1,5.18061E-1,-1.2845431E-1,-9.819906E-2,9.687451E-1,-2.9095006E-1,9.5649487E-1,-1.2571359E-1,2.360926E-2,6.76234E-1,1.7754507E-1,-8.110388E-2,8.0634624E-2,-1.1117631E-1,1.1016703E-3,1.2157174E-1,5.5621024E-2,7.048068E-3,-1.2475872E-1,1.3870625E-1,4.4357743E-2,9.2219494E-2,-8.700343E-2,-0E0,9.125434E-2,-1.4730157E-1,2.255421E-2],"categories":[],"categories_nodes":[],"categories_segments":[],"categories_sizes":[],"default_left":[0,0,0,0,0,0,0,0,0,0,0,0,0,0,0,0,0,0,0,0,0,0,0,0,0,0,0,0,0,0,0,0,0,0,0,0,0,0,0,0,0,0,0],"id":26,"left_children":[1,-1,3,5,7,9,11,13,15,17,19,21,23,-1,-1,-1,25,27,29,-1,31,33,35,-1,37,39,41,-1,-1,-1,-1,-1,-1,-1,-1,-1,-1,-1,-1,-1,-1,-1,-1],"loss_changes":[7.6159296E0,0E0,4.063448E0,1.2874357E1,1.0215235E1,8.513889E0,9.215214E0,6.027317E-2,4.91889E0,5.9644976E0,1.3461203E1,8.955909E0,5.042179E0,0E0,0E0,0E0,4.007805E0,8.395123E0,6.7522955E0,0E0,1.7692184E0,1.1283932E1,7.4911976E-1,0E0,4.638968E0,2.8510342E0,1.4713749E1,0E0,0E0,0E0,0E0,0E0,0E0,0E0,0E0,0E0,0E0,0E0,0E0,0E0,0E0,0E0,0E0],"parents":[2147483647,0,0,2,2,3,3,4,4,5,5,6,6,7,7,8,8,9,9,10,10,11,11,12,12,16,16,17,17,18,18,20,20,21,21,22,22,24,24,25,25,26,26],"right_children":[2,-1,4,6,8,10,12,14,16,18,20,22,24,-1,-1,-1,26,28,30,-1,32,34,36,-1,38,40,42,-1,-1,-1,-1,-1,-1,-1,-1,-1,-1,-1,-1,-1,-1,-1,-1],"split_conditions":[1.6494878E-3,-9.315343E-2,3.7407246E-3,2.8067358E-5,3.7738164E-3,2.3044639E-5,3.2513246E-3,3.206706E-5,3.8464502E-3,1.232507E-5,2.2796625E-3,3.191794E-3,8.844736E-5,1.357597E-1,5.6832798E-2,-1.0370803E-1,3.9846147E-3,8.334083E-6,2.0766961E-3,-9.819906E-2,2.5572388E-5,2.8353783E-3,3.2090214E-3,-1.2571359E-1,9.47723E-5,3.1945274E-5,4.0482963E-3,-8.110388E-2,8.0634624E-2,-1.1117631E-1,1.1016703E-3,1.2157174E-1,5.5621024E-2,7.048068E-3,-1.2475872E-1,1.3870625E-1,4.4357743E-2,9.2219494E-2,-8.700343E-2,-0E0,9.125434E-2,-1.4730157E-1,2.255421E-2],"split_indices":[0,0,0,2,0,2,0,2,0,2,0,0,2,0,0,0,0,2,0,0,2,0,0,0,2,2,0,0,0,0,0,0,0,0,0,0,0,0,0,0,0,0,0],"split_type":[0,0,0,0,0,0,0,0,0,0,0,0,0,0,0,0,0,0,0,0,0,0,0,0,0,0,0,0,0,0,0,0,0,0,0,0,0,0,0,0,0,0,0],"sum_hessian":[3.6398868E2,5.3946214E0,3.5859406E2,1.4742587E2,2.1116817E2,9.4515816E1,5.2910057E1,9.788503E0,2.0137967E2,6.6548134E1,2.7967676E1,3.7047527E1,1.5862531E1,6.9174113E0,2.8710911E0,2.1417766E0,1.992379E2,1.9204659E1,4.734348E1,3.2267435E0,2.4740932E1,3.104058E1,6.006946E0,1.2091251E1,3.7712793E0,1.7128798E1,1.821091E2,3.0380316E0,1.6166628E1,5.104074E0,4.2239403E1,1.4106466E1,1.0634466E1,2.312531E1,7.915271E0,2.2331276E0,3.7738185E0,1.9203058E0,1.8509736E0,4.7497616E0,1.2379036E1,4.248119E0,1.7786098E2],"tree_param":{"num_deleted":"0","num_feature":"3","num_nodes":"43","size_leaf_vector":"1"}},{"base_weights":[5.2422147E-2,-2.910912E-1,2.4189946E-1,-5.735958E-2,-7.9937625E-1,-1.01063944E-1,2.639953E-1,-2.1743643E-1,8.553768E-1,-1.3054381E-1,-3.6227247E-1,8.6472493E-1,1.8855868E-1,3.8442326E-1,-6.028398E-1,-7.023326E-2,1.1029489E0,3.1831697E-1,-1.1468112E-1,9.8747337E-1,-7.545337E-2,-1.216165E-1,2.178269E-1,-8.743934E-2,6.8152153E-1,5.6939524E-1,-7.210785E-1,1.5436903E-1,6.058886E-1,7.8397757E-1,-2.5771645E-1,1.24944724E-1,7.779552E-1,-8.30877E-2,2.3121245E-1,-6.1930146E-2,7.851462E-2,-6.683269E-2,1.2781705E-1,-1.0018066E-1,7.646069E-5,-8.343037E-2,1.20243065E-1,-8.279887E-2,1.2327372E-1,-1.0303237E-1,5.872922E-2,-9.141928E-2,9.8393895E-2,-0E0,2.7161462E-2],"categories":[],"categories_nodes":[],"categories_segments":[],"categories_sizes":[],"default_left":[0,0,0,0,0,0,0,0,0,0,0,0,0,0,0,0,0,0,0,0,0,0,0,0,0,0,0,0,0,0,0,0,0,0,0,0,0,0,0,0,0,0,0,0,0,0,0,0,0,0,0],"id":27,"left_children":[1,3,5,7,9,-1,11,13,15,-1,17,19,21,23,25,-1,27,29,-1,31,-1,-1,33,-1,35,37,39,-1,41,43,45,-1,47,-1,49,-1,-1,-1,-1,-1,-1,-1,-1,-1,-1,-1,-1,-1,-1,-1,-1],"loss_changes":[2.2902378E1,1.4718407E1,6.4708214E0,1.2809573E1,8.02286E0,0E0,9.873717E0,1.7596964E1,5.853697E0,0E0,1.2463041E1,5.6463623E0,8.398582E0,1.1683229E1,6.8114624E0,0E0,1.4170637E0,3.6784244E0,0E0,1.043129E-1,0E0,0E0,2.8988142E0,0E0,3.825986E0,5.0406346E0,8.686647E0,0E0,7.2775764E0,6.4153633E0,4.803146E0,0E0,6.417117E0,0E0,1.8313828E0,0E0,0E0,0E0,0E0,0E0,0E0,0E0,0E0,0E0,0E0,0E0,0E0,0E0,0E0,0E0,0E0],"parents":[2147483647,0,0,1,1,2,2,3,3,4,4,6,6,7,7,8,8,10,10,11,11,12,12,13,13,14,14,16,16,17,17,19,19,22,22,24,24,25,25,26,26,28,28,29,29,30,30,32,32,34,34],"right_children":[2,4,6,8,10,-1,12,14,16,-1,18,20,22,24,26,-1,28,30,-1,32,-1,-1,34,-1,36,38,40,-1,42,44,46,-1,48,-1,50,-1,-1,-1,-1,-1,-1,-1,-1,-1,-1,-1,-1,-1,-1,-1,-1],"split_conditions":[3.6132107E-3,2.8573796E-3,4.081053E-3,2.75781E-3,3.2428557E-3,-1.01063944E-1,4.600095E-3,3.4146255E-3,4.020355E-3,-1.3054381E-1,3.3410334E-3,4.185887E-3,4.7274604E-3,2.7871171E-3,1.789294E-3,-7.023326E-2,4.181666E-3,4.339292E-3,-1.1468112E-1,3.7738164E-3,-7.545337E-2,-1.216165E-1,3.653229E-3,-8.743934E-2,1.6494878E-3,1.724375E-3,4.5820037E-3,1.5436903E-1,5.2055297E-3,3.4276291E-3,5.089146E-3,1.24944724E-1,3.8691065E-3,-8.30877E-2,5.6644436E-3,-6.1930146E-2,7.851462E-2,-6.683269E-2,1.2781705E-1,-1.0018066E-1,7.646069E-5,-8.343037E-2,1.20243065E-1,-8.279887E-2,1.2327372E-1,-1.0303237E-1,5.872922E-2,-9.141928E-2,9.8393895E-2,-0E0,2.7161462E-2],"split_indices":[0,0,1,0,0,0,1,1,1,0,0,0,1,1,0,0,1,1,0,0,0,0,0,0,0,0,1,0,1,1,1,0,0,0,1,0,0,0,0,0,0,0,0,0,0,0,0,0,0,0,0],"split_type":[0,0,0,0,0,0,0,0,0,0,0,0,0,0,0,0,0,0,0,0,0,0,0,0,0,0,0,0,0,0,0,0,0,0,0,0,0,0,0,0,0,0,0,0,0,0,0,0,0,0,0],"sum_hessian":[3.4986172E2,1.23997E2,2.2586472E2,8.5835625E1,3.8161373E1,3.0613666E0,2.2280334E2,7.3769226E1,1.2066403E1,1.6658945E1,2.150243E1,2.3541904E1,1.9926144E2,2.8697405E1,4.507182E1,1.3474596E0,1.0718944E1,1.176396E1,9.738469E0,2.2303133E1,1.2387702E0,3.1695662E0,1.9609187E2,5.0443983E0,2.3653006E1,3.7025757E0,4.1369244E1,4.4586525E0,6.2602916E0,6.4015822E0,5.3623776E0,7.493196E0,1.48099375E1,1.607496E0,1.9448438E2,1.3068181E0,2.2346188E1,1.3176193E0,2.3849564E0,2.9606014E1,1.1763228E1,1.6677507E0,4.5925407E0,1.1615045E0,5.240078E0,2.7484524E0,2.6139255E0,1.181371E0,1.3628567E1,2.9006529E1,1.6547786E2],"tree_param":{"num_deleted":"0","num_feature":"3","num_nodes":"51","size_leaf_vector":"1"}},{"base_weights":[1.0692545E-1,-9.7768374E-2,1.3471457E-1,1.3670044E-1,1.2038566E-1,-8.8214055E-2,1.3316861E-1,1.1388051E-1,1.1586676E-1,-1.0722522E-1,1.4022833E-1,-4.884419E-2,1.7437477E-2],"categories":[],"categories_nodes":[],"categories_segments":[],"categories_sizes":[],"default_left":[0,0,0,0,0,0,0,0,0,0,0,0,0],"id":28,"left_children":[1,-1,3,-1,5,-1,7,-1,9,-1,11,-1,-1],"loss_changes":[1.0300262E1,0E0,5.560266E0,0E0,4.2715387E0,0E0,5.4288263E0,0E0,9.391476E0,0E0,6.8582797E0,0E0,0E0],"parents":[2147483647,0,0,2,2,4,4,6,6,8,8,10,10],"right_children":[2,-1,4,-1,6,-1,8,-1,10,-1,12,-1,-1],"split_conditions":[1.0391567E-5,-9.7768374E-2,1.0713403E-5,1.3670044E-1,1.724375E-3,-8.8214055E-2,1.789294E-3,1.1388051E-1,2.0766961E-3,-1.0722522E-1,1.5516453E-5,-4.884419E-2,1.7437477E-2],"split_indices":[2,0,2,0,0,0,0,0,0,0,2,0,0],"split_type":[0,0,0,0,0,0,0,0,0,0,0,0,0],"sum_hessian":[3.3917044E2,7.529097E0,3.3164136E2,2.6466675E0,3.289947E2,3.1873693E0,3.258073E2,4.316553E0,3.2149075E2,5.512775E0,3.15978E2,1.544201E1,3.0053598E2],"tree_param":{"num_deleted":"0","num_feature":"3","num_nodes":"13","size_leaf_vector":"1"}},{"base_weights":[7.412189E-2,-8.874673E-2,1.723303E-1,1.5990038E-1,-6.3292724E-1,8.192964E-1,7.604266E-2,5.001494E-2,8.212928E-1,-1.6370457E-1,-1.2337712E-1,-8.7071486E-2,9.9272686E-1,-1.2144015E-1,1.10749856E-1,4.206858E-1,-3.598243E-1,-7.220819E-2,1.0873383E0,-1.17616855E-1,4.9722973E-1,1.21336274E-1,5.432439E-1,1.4769082E-1,-5.7643014E-1,-8.389852E-2,5.9138745E-1,-9.0358293E-1,3.7465099E-1,1.4218229E-1,6.4739805E-1,8.9940554E-1,-9.272861E-2,1.3311686E-1,1.3790156E-1,4.1589722E-1,7.74124E-2,-1.4153785E0,8.495838E-2,3.6168303E-2,1.1488207E-1,7.256647E-2,-1.21281885E-1,1.1258221E-1,-1.1969625E-1,-8.163367E-2,1.2526542E-1,-9.586099E-2,1.2652466E-1,5.433591E-2,-9.670586E-2,1.534466E-2,1.2033973E-1,-1.0131559E-2,2.8192803E-2,-1.8169615E-1,-4.442073E-2],"categories":[],"categories_nodes":[],"categories_segments":[],"categories_sizes":[],"default_left":[0,0,0,0,0,0,0,0,0,0,0,0,0,0,0,0,0,0,0,0,0,0,0,0,0,0,0,0,0,0,0,0,0,0,0,0,0,0,0,0,0,0,0,0,0,0,0,0,0,0,0,0,0,0,0,0,0],"id":29,"left_children":[1,3,5,7,9,11,13,15,17,19,-1,-1,21,-1,23,25,27,-1,29,-1,31,-1,33,35,37,-1,39,41,43,-1,45,47,-1,49,-1,51,53,55,-1,-1,-1,-1,-1,-1,-1,-1,-1,-1,-1,-1,-1,-1,-1,-1,-1,-1,-1],"loss_changes":[5.5270724E0,1.7698692E1,1.3264309E1,6.390863E0,1.1219038E1,8.984726E0,8.475649E0,1.2024133E1,5.989193E0,1.6894384E1,0E0,0E0,1.7049599E0,0E0,4.7321887E0,9.417849E0,1.537115E1,0E0,5.19084E-1,0E0,9.612758E0,0E0,3.227266E0,3.2408276E0,1.261356E1,0E0,4.2091503E0,1.1974266E1,2.0919159E1,0E0,7.0885916E0,9.750956E0,0E0,4.165184E0,0E0,7.135057E0,5.2074323E0,1.4607525E0,0E0,0E0,0E0,0E0,0E0,0E0,0E0,0E0,0E0,0E0,0E0,0E0,0E0,0E0,0E0,0E0,0E0,0E0,0E0],"parents":[2147483647,0,0,1,1,2,2,3,3,4,4,5,5,6,6,7,7,8,8,9,9,12,12,14,14,15,15,16,16,18,18,20,20,22,22,23,23,24,24,26,26,27,27,28,28,30,30,31,31,33,33,35,35,36,36,37,37],"right_children":[2,4,6,8,10,12,14,16,18,20,-1,-1,22,-1,24,26,28,-1,30,-1,32,-1,34,36,38,-1,40,42,44,-1,46,48,-1,50,-1,52,54,56,-1,-1,-1,-1,-1,-1,-1,-1,-1,-1,-1,-1,-1,-1,-1,-1,-1,-1,-1],"split_conditions":[3.6132107E-3,2.8573796E-3,4.600095E-3,2.75781E-3,4.339292E-3,4.0041977E-3,4.7274604E-3,3.7646566E-3,4.020355E-3,3.191794E-3,-1.2337712E-1,-8.7071486E-2,3.920697E-3,-1.2144015E-1,1.1828756E-2,2.7871171E-3,4.52609E-3,-7.220819E-2,4.181666E-3,-1.17616855E-1,3.3410334E-3,1.21336274E-1,4.5820037E-3,4.1190665E-3,1.55414725E-2,-8.389852E-2,2.5633364E-3,1.789294E-3,2.5044805E-3,1.4218229E-1,5.2055297E-3,3.4276291E-3,-9.272861E-2,4.0952265E-3,1.3790156E-1,4.0952265E-3,6.29803E-3,1.3809015E-2,8.495838E-2,3.6168303E-2,1.1488207E-1,7.256647E-2,-1.21281885E-1,1.1258221E-1,-1.1969625E-1,-8.163367E-2,1.2526542E-1,-9.586099E-2,1.2652466E-1,5.433591E-2,-9.670586E-2,1.534466E-2,1.2033973E-1,-1.0131559E-2,2.8192803E-2,-1.8169615E-1,-4.442073E-2],"split_indices":[0,0,1,0,1,1,1,1,1,0,0,0,0,0,0,1,1,0,1,0,0,0,1,0,1,0,0,0,0,0,1,1,0,0,0,0,0,0,0,0,0,0,0,0,0,0,0,0,0,0,0,0,0,0,0,0,0],"split_type":[0,0,0,0,0,0,0,0,0,0,0,0,0,0,0,0,0,0,0,0,0,0,0,0,0,0,0,0,0,0,0,0,0,0,0,0,0,0,0,0,0,0,0,0,0,0,0,0,0,0,0,0,0,0,0,0,0],"sum_hessian":[3.4306982E2,1.2870457E2,2.1436526E2,8.869872E1,4.0005844E1,2.6663462E1,1.877018E2,7.711368E1,1.1585049E1,2.3271278E1,1.6734566E1,2.0537114E0,2.4609749E1,3.950423E0,1.8375137E2,4.0605965E1,3.6507713E1,1.3960906E0,1.0188958E1,8.943209E0,1.4328069E1,1.52178755E1,9.391874E0,1.7526044E2,8.490933E0,4.3088226E0,3.6297142E1,2.0923326E1,1.5584386E1,4.3911953E0,5.797763E0,1.151572E1,2.8123484E0,7.1581674E0,2.233707E0,3.50722E1,1.4018825E2,5.3947144E0,3.0962188E0,2.6999533E1,9.297608E0,3.0713775E0,1.7851948E1,1.0779486E1,4.8049006E0,1.5457057E0,4.252057E0,1.582905E0,9.932816E0,5.648806E0,1.5093614E0,2.7296812E1,7.775388E0,7.4818954E1,6.5369286E1,3.1275818E0,2.2671325E0],"tree_param":{"num_deleted":"0","num_feature":"3","num_nodes":"57","size_leaf_vector":"1"}},{"base_weights":[5.9329472E-2,2.0242998E-1,-2.8468795E-2,-4.6805064E-3,5.6528705E-1,-1.1473744E-1,6.916183E-3,-1.08231656E-1,1.1818766E-1,-9.110914E-2,6.367994E-1,1.3303032E0,-3.0262768E-2,-1.0808629E-2,-1.06173E-1,1.0978284E-1,4.1581756E-1,1.6729604E-1,5.9788126E-2,-1.12480156E-1,-3.7629157E-4,-7.640275E-2,1.3178293E-1,-9.868876E-2,6.596199E-1,-2.6635095E-2,7.920866E-1,7.0885182E-3,-1.13706045E-1,-8.198285E-2,8.001108E-2,-8.9642237E-4,-1.1382498E-1,2.0686893E-2,8.886435E-2],"categories":[],"categories_nodes":[],"categories_segments":[],"categories_sizes":[],"default_left":[0,0,0,0,0,0,0,0,0,0,0,0,0,0,0,0,0,0,0,0,0,0,0,0,0,0,0,0,0,0,0,0,0,0,0],"id":30,"left_children":[1,3,5,7,9,-1,11,13,-1,-1,15,17,19,21,-1,-1,23,-1,-1,-1,25,27,-1,-1,29,31,33,-1,-1,-1,-1,-1,-1,-1,-1],"loss_changes":[4.291942E0,9.809622E0,8.476529E0,1.027017E1,5.5499544E0,0E0,1.027896E1,7.100594E0,0E0,0E0,4.05797E0,2.057085E-1,6.453727E0,6.218086E0,0E0,0E0,1.1806184E1,0E0,0E0,0E0,4.0334644E0,1.1007978E1,0E0,0E0,6.58409E0,3.632495E0,5.7669878E-2,0E0,0E0,0E0,0E0,0E0,0E0,0E0,0E0],"parents":[2147483647,0,0,1,1,2,2,3,3,4,4,6,6,7,7,10,10,11,11,12,12,13,13,16,16,20,20,21,21,24,24,25,25,26,26],"right_children":[2,4,6,8,10,-1,12,14,-1,-1,16,18,20,22,-1,-1,24,-1,-1,-1,26,28,-1,-1,30,32,34,-1,-1,-1,-1,-1,-1,-1,-1],"split_conditions":[4.600095E-3,3.191794E-3,4.7274604E-3,4.52609E-3,3.4276291E-3,-1.1473744E-1,4.7480725E-3,4.281379E-3,1.1818766E-1,-9.110914E-2,3.3410334E-3,3.040101E-3,4.849273E-3,4.2737313E-3,-1.06173E-1,1.0978284E-1,3.6132107E-3,1.6729604E-1,5.9788126E-2,-1.12480156E-1,1.55414725E-2,2.8573796E-3,1.3178293E-1,-9.868876E-2,4.0041977E-3,1.4157273E-2,1.2886213E-2,7.0885182E-3,-1.13706045E-1,-8.198285E-2,8.001108E-2,-8.9642237E-4,-1.1382498E-1,2.0686893E-2,8.886435E-2],"split_indices":[1,0,1,1,1,0,1,1,0,0,0,0,1,1,0,0,0,0,0,0,1,0,0,0,1,1,0,0,0,0,0,0,0,0,0],"split_type":[0,0,0,0,0,0,0,0,0,0,0,0,0,0,0,0,0,0,0,0,0,0,0,0,0,0,0,0,0,0,0,0,0,0,0],"sum_hessian":[3.3876376E2,1.287501E2,2.1001366E2,8.241884E1,4.6331264E1,5.5612855E0,2.0445238E2,7.6716805E1,5.702033E0,1.5334917E0,4.479777E1,4.709952E0,1.9974242E2,7.06177E1,6.099101E0,1.3082853E1,3.1714918E1,2.24089E0,2.4690619E0,4.246331E0,1.954961E2,6.826524E1,2.3524575E0,4.1840606E0,2.7530859E1,1.902835E2,5.2125964E0,6.0678085E1,7.5871587E0,1.9065505E0,2.5624308E1,1.8838681E2,1.8966827E0,1.3299673E0,3.8826292E0],"tree_param":{"num_deleted":"0","num_feature":"3","num_nodes":"35","size_leaf_vector":"1"}}]},"name":"gbtree"},"learner_model_param":{"base_score":"5E-1","boost_from_average":"0","num_class":"0","num_feature":"3","num_target":"1"},"objective":{"name":"binary:logistic","reg_loss_param":{"scale_pos_weight":"8.9384613"}}},"version":[3,0,2]}