{"learner":{"attributes":{"best_iteration":"245","best_score":"0.20238894949092487","scikit_learn":"{\"_estimator_type\": \"classifier\"}"},"feature_names":[],"feature_types":[],"gradient_booster":{"model":{"gbtree_model_param":{"num_parallel_tree":"1","num_trees":"276"},"iteration_indptr":[0,1,2,3,4,5,6,7,8,9,10,11,12,13,14,15,16,17,18,19,20,21,22,23,24,25,26,27,28,29,30,31,32,33,34,35,36,37,38,39,40,41,42,43,44,45,46,47,48,49,50,51,52,53,54,55,56,57,58,59,60,61,62,63,64,65,66,67,68,69,70,71,72,73,74,75,76,77,78,79,80,81,82,83,84,85,86,87,88,89,90,91,92,93,94,95,96,97,98,99,100,101,102,103,104,105,106,107,108,109,110,111,112,113,114,115,116,117,118,119,120,121,122,123,124,125,126,127,128,129,130,131,132,133,134,135,136,137,138,139,140,141,142,143,144,145,146,147,148,149,150,151,152,153,154,155,156,157,158,159,160,161,162,163,164,165,166,167,168,169,170,171,172,173,174,175,176,177,178,179,180,181,182,183,184,185,186,187,188,189,190,191,192,193,194,195,196,197,198,199,200,201,202,203,204,205,206,207,208,209,210,211,212,213,214,215,216,217,218,219,220,221,222,223,224,225,226,227,228,229,230,231,232,233,234,235,236,237,238,239,240,241,242,243,244,245,246,247,248,249,250,251,252,253,254,255,256,257,258,259,260,261,262,263,264,265,266,267,268,269,270,271,272,273,274,275,276],"tree_info":[0,0,0,0,0,0,0,0,0,0,0,0,0,0,0,0,0,0,0,0,0,0,0,0,0,0,0,0,0,0,0,0,0,0,0,0,0,0,0,0,0,0,0,0,0,0,0,0,0,0,0,0,0,0,0,0,0,0,0,0,0,0,0,0,0,0,0,0,0,0,0,0,0,0,0,0,0,0,0,0,0,0,0,0,0,0,0,0,0,0,0,0,0,0,0,0,0,0,0,0,0,0,0,0,0,0,0,0,0,0,0,0,0,0,0,0,0,0,0,0,0,0,0,0,0,0,0,0,0,0,0,0,0,0,0,0,0,0,0,0,0,0,0,0,0,0,0,0,0,0,0,0,0,0,0,0,0,0,0,0,0,0,0,0,0,0,0,0,0,0,0,0,0,0,0,0,0,0,0,0,0,0,0,0,0,0,0,0,0,0,0,0,0,0,0,0,0,0,0,0,0,0,0,0,0,0,0,0,0,0,0,0,0,0,0,0,0,0,0,0,0,0,0,0,0,0,0,0,0,0,0,0,0,0,0,0,0,0,0,0,0,0,0,0,0,0,0,0,0,0,0,0,0,0,0,0,0,0,0,0,0,0,0,0,0,0,0,0,0,0,0,0,0,0,0,0],"trees":[{"base_weights":[-2.730799E-2,-6.6148674E-1,9.144977E-1,-1.1575011E0,-1.7413059E-1,6.875943E-1,1.2884843E0,-1.7262001E0,-9.86401E-1,7.286408E-2,-7.7721125E-1,1.4642578E-1,6.349853E-1,1.2130351E0,1.6586186E-1,-1.3778797E0,-1.9783506E-1,1.3097985E-1,-1.1002026E0,-4.3719384E-1,3.1261325E-1,-1.9305785E-1,-5.914294E-1,6.913603E-1,3.3587602E-1,1.5062854E-1,1.0428174E0,-1.964557E-1,7.159777E-2,-9.5830166E-1,-1.9723685E-1,2.1030074E-1,-1.3498802E0,1.0397601E0,2.1104017E-1,6.607821E-2,-8.592772E-1,5.2020365E-1,9.9135065E-1,-1.8046512E-1,5.974818E-1,9.3652666E-1,1.320465E-1,-1.9708334E-1,-7.75492E-2,-3.6490288E-2,4.3021396E-2,-7.551249E-2,-1.9408451E-1,1.2224628E-1,6.770925E-2,-5.9156097E-2,4.108665E-2,-1.461698E-1,-1.2527706E-2,6.991997E-2,-1.0578514E-2,1.2219206E-1,6.04808E-2,7.63647E-2,8.116437E-3,1.0919062E-1,1.3918795E-3],"categories":[],"categories_nodes":[],"categories_segments":[],"categories_sizes":[],"default_left":[0,0,0,0,0,0,0,0,0,0,0,0,0,0,0,0,0,0,0,0,0,0,0,0,0,0,0,0,0,0,0,0,0,0,0,0,0,0,0,0,0,0,0,0,0,0,0,0,0,0,0,0,0,0,0,0,0,0,0,0,0,0,0],"id":0,"left_children":[1,3,5,7,9,11,13,15,17,19,21,-1,23,25,-1,27,-1,-1,29,31,33,-1,35,37,39,-1,41,-1,-1,43,-1,45,47,49,51,-1,53,55,57,-1,59,61,-1,-1,-1,-1,-1,-1,-1,-1,-1,-1,-1,-1,-1,-1,-1,-1,-1,-1,-1,-1,-1],"loss_changes":[1.5083842E3,3.645094E2,8.515094E1,7.07818E1,1.1371592E2,2.4797424E1,8.380554E0,1.1997742E1,1.522619E2,6.637734E1,4.612552E1,0E0,9.721802E0,1.422818E1,0E0,9.422978E1,0E0,0E0,6.595679E1,1.02940674E2,2.6929176E1,0E0,6.5159E1,2.5036438E1,5.516733E1,0E0,4.6453705E0,0E0,0E0,8.622656E1,0E0,1.3104917E1,2.364569E1,1.9563942E0,5.241044E1,0E0,7.000682E1,3.6107666E1,1.5168823E1,0E0,7.322567E0,2.1859818E1,0E0,0E0,0E0,0E0,0E0,0E0,0E0,0E0,0E0,0E0,0E0,0E0,0E0,0E0,0E0,0E0,0E0,0E0,0E0,0E0,0E0],"parents":[2147483647,0,0,1,1,2,2,3,3,4,4,5,5,6,6,7,7,8,8,9,9,10,10,12,12,13,13,15,15,18,18,19,19,20,20,22,22,23,23,24,24,26,26,29,29,31,31,32,32,33,33,34,34,36,36,37,37,38,38,40,40,41,41],"right_children":[2,4,6,8,10,12,14,16,18,20,22,-1,24,26,-1,28,-1,-1,30,32,34,-1,36,38,40,-1,42,-1,-1,44,-1,46,48,50,52,-1,54,56,58,-1,60,62,-1,-1,-1,-1,-1,-1,-1,-1,-1,-1,-1,-1,-1,-1,-1,-1,-1,-1,-1,-1,-1],"split_conditions":[4.232388E-3,2.8866741E-3,6.2219347E-3,1.7370806E-3,3.62532E-3,4.2578396E-3,9.560482E-3,1.2475161E-3,1.7633189E-3,3.16531E-3,3.7161405E-3,1.4642578E-1,5.506439E-3,6.575619E-3,1.6586186E-1,1.2188945E-3,-1.9783506E-1,1.3097985E-1,2.7028557E-3,3.0007635E-3,3.1881907E-3,-1.9305785E-1,3.7360622E-3,4.946054E-3,5.683854E-3,1.5062854E-1,8.385598E-3,-1.964557E-1,7.159777E-2,2.01134E-3,-1.9723685E-1,2.9261548E-3,3.0679596E-3,3.1769613E-3,3.2981224E-3,6.607821E-2,4.0205456E-3,4.7070906E-3,5.1872325E-3,-1.8046512E-1,6.0374234E-3,7.6691466E-3,1.320465E-1,-1.9708334E-1,-7.75492E-2,-3.6490288E-2,4.3021396E-2,-7.551249E-2,-1.9408451E-1,1.2224628E-1,6.770925E-2,-5.9156097E-2,4.108665E-2,-1.461698E-1,-1.2527706E-2,6.991997E-2,-1.0578514E-2,1.2219206E-1,6.04808E-2,7.63647E-2,8.116437E-3,1.0919062E-1,1.3918795E-3],"split_indices":[1,1,1,1,1,1,1,1,1,1,1,0,1,1,0,1,0,0,1,1,1,0,1,1,1,0,1,0,0,1,0,1,1,1,1,0,1,1,1,0,1,1,0,0,0,0,0,0,0,0,0,0,0,0,0,0,0,0,0,0,0,0,0],"split_type":[0,0,0,0,0,0,0,0,0,0,0,0,0,0,0,0,0,0,0,0,0,0,0,0,0,0,0,0,0,0,0,0,0,0,0,0,0,0,0,0,0,0,0,0,0,0,0,0,0,0,0,0,0,0,0,0,0,0,0,0,0,0,0],"sum_hessian":[2.5234807E3,1.5082692E3,1.01521155E3,7.4671155E2,7.615577E2,6.3378845E2,3.8142307E2,1.7046153E2,5.7625E2,5.4078845E2,2.2076923E2,3.8384613E1,5.954039E2,3.206154E2,6.0807693E1,7.446154E1,9.6E1,2.6673077E1,5.495769E2,1.7251923E2,3.6826923E2,2.925E1,1.9151923E2,4.9959616E2,9.580769E1,1.1465385E2,2.0596153E2,5.825E1,1.6211538E1,4.7457693E2,7.5E1,1.0130769E2,7.121154E1,4.3884613E1,3.243846E2,3.3423077E1,1.5809616E2,3.2005768E2,1.7953845E2,9.75E0,8.605769E1,1.5236539E2,5.3596153E1,7.1E1,4.0357693E2,2.7711538E1,7.359615E1,3.671154E1,3.45E1,2.7423077E1,1.6461538E1,6.417308E1,2.6021155E2,8.621154E1,7.188461E1,2.4892308E2,7.113461E1,1.1094231E2,6.859615E1,6.459615E1,2.1461538E1,1.3015384E2,2.2211538E1],"tree_param":{"num_deleted":"0","num_feature":"2","num_nodes":"63","size_leaf_vector":"1"}},{"base_weights":[-9.570689E-3,1.2339317E-1,-5.179895E-2,-1.8389243E-1,-3.964472E-2,9.920033E-1,-5.8891222E-2,6.89645E-2,1.1281975E-1,-2.5951645E-1,2.040246E-2,8.805992E-3,-7.865263E-1,1.1248866E0,-1.8068299E-2,-1.7992531E-1,5.8376677E-3,-6.671991E-2,-1.8492241E-1,1.494176E-1,7.857096E-2,-1.8511777E-1,6.7525107E-4],"categories":[],"categories_nodes":[],"categories_segments":[],"categories_sizes":[],"default_left":[0,0,0,0,0,0,0,0,0,0,0,0,0,0,0,0,0,0,0,0,0,0,0],"id":1,"left_children":[1,-1,3,-1,5,7,9,-1,-1,11,13,15,17,19,21,-1,-1,-1,-1,-1,-1,-1,-1],"loss_changes":[1.3275357E2,0E0,5.28934E1,0E0,4.8247314E1,8.724556E-1,3.8020943E1,0E0,0E0,9.5809204E1,7.288438E1,4.0211E1,2.7492355E1,5.8296432E0,7.552086E1,0E0,0E0,0E0,0E0,0E0,0E0,0E0,0E0],"parents":[2147483647,0,0,2,2,4,4,5,5,6,6,9,9,10,10,11,11,12,12,13,13,14,14],"right_children":[2,-1,4,-1,6,8,10,-1,-1,12,14,16,18,20,22,-1,-1,-1,-1,-1,-1,-1,-1],"split_conditions":[-2.1928964E0,1.2339317E-1,-1.8870103E0,-1.8389243E-1,-1.7323598E0,-1.8071821E0,-2.5863433E-1,6.89645E-2,1.1281975E-1,-5.292095E-1,-2.3717648E-1,-1.512598E0,-2.9043013E-1,-2.5252542E-1,-2.0554483E-1,-1.7992531E-1,5.8376677E-3,-6.671991E-2,-1.8492241E-1,1.494176E-1,7.857096E-2,-1.8511777E-1,6.7525107E-4],"split_indices":[0,0,0,0,0,0,0,0,0,0,0,0,0,0,0,0,0,0,0,0,0,0,0],"split_type":[0,0,0,0,0,0,0,0,0,0,0,0,0,0,0,0,0,0,0,0,0,0,0],"sum_hessian":[2.5281465E3,8.202925E1,2.4461172E3,1.5452798E1,2.4306643E3,4.3495358E1,2.387169E3,1.5618783E1,2.7876575E1,6.759357E2,1.7112333E3,4.4842014E2,2.2751562E2,5.6735416E1,1.6544978E3,1.097033E1,4.374498E2,2.0609567E2,2.1419943E1,2.539055E1,3.1344866E1,2.1173895E1,1.633324E3],"tree_param":{"num_deleted":"0","num_feature":"2","num_nodes":"23","size_leaf_vector":"1"}},{"base_weights":[-1.1731641E-2,6.080915E-1,-1.07553005E-1,1.4083807E-1,5.0454843E-1,-1.8694296E-1,-8.6399846E-2,3.5028532E-1,1.1739815E0,5.186679E-1,-1.2878948E-1,4.871987E-1,-5.5957264E-1,1.372699E-1,6.500425E-2,-6.4254954E-2,1.0883453E0,-1.8566436E-1,-1.10215776E-1,2.0664509E-1,8.3916634E-1,-1.7914096E-1,1.2043202E-1,6.199664E-1,-1.8528228E-1,6.6747636E-2,1.4229932E-1,-3.324188E-1,-7.5210007E-3,3.1495076E-2,-1.6656603E-1,1.0279566E-1,1.4941755E-2,7.320173E-2,-1.6125555E-1,1.7687287E-2,9.03019E-2,-1.8711833E-2,-1.9016565E-1,2.7196905E-2,-2.5625387E-2],"categories":[],"categories_nodes":[],"categories_segments":[],"categories_sizes":[],"default_left":[0,0,0,0,0,0,0,0,0,0,0,0,0,0,0,0,0,0,0,0,0,0,0,0,0,0,0,0,0,0,0,0,0,0,0,0,0,0,0,0,0],"id":2,"left_children":[1,3,5,-1,7,-1,9,11,13,15,17,19,21,-1,-1,23,25,-1,27,29,31,-1,33,35,-1,-1,-1,37,39,-1,-1,-1,-1,-1,-1,-1,-1,-1,-1,-1,-1],"loss_changes":[1.5024297E2,2.7163177E1,8.132689E1,0E0,3.0577644E1,0E0,5.5603943E1,3.098808E1,4.7285156E0,4.7297115E1,6.461586E1,2.0952248E1,2.7713533E1,0E0,0E0,8.8155785E1,8.969467E0,0E0,4.5727043E1,2.4950666E1,1.208342E1,0E0,2.4311272E1,6.261671E0,0E0,0E0,0E0,1.4389673E2,9.551139E1,0E0,0E0,0E0,0E0,0E0,0E0,0E0,0E0,0E0,0E0,0E0,0E0],"parents":[2147483647,0,0,1,1,2,2,4,4,6,6,7,7,8,8,9,9,10,10,11,11,12,12,15,15,16,16,18,18,19,19,20,20,22,22,23,23,27,27,28,28],"right_children":[2,4,6,-1,8,-1,10,12,14,16,18,20,22,-1,-1,24,26,-1,28,30,32,-1,34,36,-1,-1,-1,38,40,-1,-1,-1,-1,-1,-1,-1,-1,-1,-1,-1,-1],"split_conditions":[-9.372794E-1,-2.7232838E0,-8.320007E-1,1.4083807E-1,-9.85097E-1,-1.8694296E-1,-6.786949E-1,-1.1087654E0,-9.671262E-1,-7.1229875E-1,-6.2618756E-1,-1.3925446E0,-1.0446638E0,1.372699E-1,6.500425E-2,-7.6505446E-1,-6.9168895E-1,-1.8566436E-1,-2.5478773E-2,-1.4574053E0,-1.1787121E0,-1.7914096E-1,-1.0111624E0,-8.011872E-1,-1.8528228E-1,6.6747636E-2,1.4229932E-1,-9.2119075E-2,3.6796722E-1,3.1495076E-2,-1.6656603E-1,1.0279566E-1,1.4941755E-2,7.320173E-2,-1.6125555E-1,1.7687287E-2,9.03019E-2,-1.8711833E-2,-1.9016565E-1,2.7196905E-2,-2.5625387E-2],"split_indices":[0,0,0,0,0,0,0,0,0,0,0,0,0,0,0,0,0,0,0,0,0,0,0,0,0,0,0,0,0,0,0,0,0,0,0,0,0,0,0,0,0],"split_type":[0,0,0,0,0,0,0,0,0,0,0,0,0,0,0,0,0,0,0,0,0,0,0,0,0,0,0,0,0,0,0,0,0,0,0,0,0,0,0,0,0],"sum_hessian":[2.5284124E3,3.3768674E2,2.1907256E3,3.7131084E1,3.0055566E2,2.4897228E1,2.1658284E3,2.4562651E2,5.4929146E1,1.4090877E2,2.0249197E3,2.1399889E2,3.162763E1,3.8511757E1,1.641739E1,6.999649E1,7.0912285E1,2.0425821E1,2.0044938E3,1.2012133E2,9.3877556E1,1.0720308E1,2.0907322E1,5.106059E1,1.8935902E1,3.2868584E1,3.80437E1,6.325722E2,1.3719216E3,1.1438953E2,5.7317996E0,7.3205315E1,2.0672245E1,1.5923199E1,4.984123E0,2.067457E1,3.0386017E1,5.800468E2,5.2525333E1,6.4578564E2,7.2613605E2],"tree_param":{"num_deleted":"0","num_feature":"2","num_nodes":"41","size_leaf_vector":"1"}},{"base_weights":[2.6497882E-2,-1.0623554E0,4.483229E-1,-9.2851055E-1,-1.8222164E-1,-9.3906414E-4,8.222474E-1,-1.1852136E0,5.109894E-1,5.1043045E-2,-1.8659756E-1,6.056366E-1,1.1837678E0,-1.3168116E0,-6.901102E-1,3.5398874E-1,7.771566E-2,1.843482E-1,-3.5973746E-1,6.302976E-1,-1.6859134E-1,1.0912036E0,1.3889046E-1,-1.1917347E0,-1.874314E-1,1.3328849E-1,-1.3568344E0,5.759918E-1,-1.5843725E-1,-1.2407183E-1,7.8841794E-1,-6.942355E-1,5.986124E-1,1.3918549E-1,5.796255E-1,1.1721907E-1,1.3366558E-1,-1.2961666E-1,8.597548E-2,-6.2859915E-2,-1.866722E-1,1.5012683E-2,8.375935E-2,4.625487E-2,-3.4342147E-2,4.986793E-2,1.0772752E-1,-4.6693735E-2,-1.7554647E-1,8.922737E-2,4.4972967E-2,-1.8179317E-1,6.198842E-2,-1.5598136E-1,6.0276594E-2],"categories":[],"categories_nodes":[],"categories_segments":[],"categories_sizes":[],"default_left":[0,0,0,0,0,0,0,0,0,0,0,0,0,0,0,0,0,0,0,0,0,0,0,0,0,0,0,0,0,0,0,0,0,0,0,0,0,0,0,0,0,0,0,0,0,0,0,0,0,0,0,0,0,0,0],"id":3,"left_children":[1,3,5,7,-1,9,11,13,15,17,-1,19,21,23,25,27,-1,29,31,33,-1,35,-1,37,-1,-1,39,41,-1,43,45,47,49,-1,51,-1,53,-1,-1,-1,-1,-1,-1,-1,-1,-1,-1,-1,-1,-1,-1,-1,-1,-1,-1],"loss_changes":[1.181414E3,7.107684E1,3.115478E2,2.2711505E2,0E0,8.20111E1,7.835297E1,3.2797913E1,3.5139809E0,4.5013172E1,0E0,3.6844833E1,5.413025E0,2.6040466E1,1.522537E2,2.697859E1,0E0,1.1582225E2,6.496735E1,2.327127E1,0E0,2.0296692E1,0E0,7.349884E1,0E0,0E0,2.9925293E1,5.9405823E0,0E0,5.3124966E1,1.6886795E1,3.5088875E1,1.7621403E0,0E0,5.811473E1,0E0,1.826142E1,0E0,0E0,0E0,0E0,0E0,0E0,0E0,0E0,0E0,0E0,0E0,0E0,0E0,0E0,0E0,0E0,0E0,0E0],"parents":[2147483647,0,0,1,1,2,2,3,3,5,5,6,6,7,7,8,8,9,9,11,11,12,12,13,13,14,14,15,15,17,17,18,18,19,19,21,21,23,23,26,26,27,27,29,29,30,30,31,31,32,32,34,34,36,36],"right_children":[2,4,6,8,-1,10,12,14,16,18,-1,20,22,24,26,28,-1,30,32,34,-1,36,-1,38,-1,-1,40,42,-1,44,46,48,50,-1,52,-1,54,-1,-1,-1,-1,-1,-1,-1,-1,-1,-1,-1,-1,-1,-1,-1,-1,-1,-1],"split_conditions":[2.8453171E-3,2.6166188E-3,4.232388E-3,2.5241105E-3,-1.8222164E-1,4.1106245E-3,6.2219347E-3,2.3342366E-3,2.5896593E-3,3.654015E-3,-1.8659756E-1,6.1225765E-3,8.385598E-3,2.128602E-3,2.3485566E-3,2.5782273E-3,7.771566E-2,3.4419617E-3,4.0205456E-3,4.2578396E-3,-1.6859134E-1,7.6691466E-3,1.3889046E-1,2.1156855E-3,-1.874314E-1,1.3328849E-1,2.4169157E-3,2.5528711E-3,-1.5843725E-1,2.957602E-3,3.566012E-3,3.908867E-3,4.035845E-3,1.3918549E-1,4.332078E-3,1.1721907E-1,7.939557E-3,-1.2961666E-1,8.597548E-2,-6.2859915E-2,-1.866722E-1,1.5012683E-2,8.375935E-2,4.625487E-2,-3.4342147E-2,4.986793E-2,1.0772752E-1,-4.6693735E-2,-1.7554647E-1,8.922737E-2,4.4972967E-2,-1.8179317E-1,6.198842E-2,-1.5598136E-1,6.0276594E-2],"split_indices":[1,1,1,1,0,1,1,1,1,1,0,1,1,1,1,1,0,1,1,1,0,1,0,1,0,0,1,1,0,1,1,1,1,0,1,0,1,0,0,0,0,0,0,0,0,0,0,0,0,0,0,0,0,0,0],"split_type":[0,0,0,0,0,0,0,0,0,0,0,0,0,0,0,0,0,0,0,0,0,0,0,0,0,0,0,0,0,0,0,0,0,0,0,0,0,0,0,0,0,0,0,0,0,0,0,0,0,0,0,0,0,0,0],"sum_hessian":[2.5702712E3,7.1720374E2,1.8530675E3,6.117936E2,1.0541018E2,8.420697E2,1.0109978E3,5.194137E2,9.2379845E1,8.201301E2,2.1939571E1,6.34049E2,3.769488E2,4.0887378E2,1.1053993E2,5.9807568E1,3.2572273E1,6.1979193E2,2.003382E2,6.2805865E2,5.9903917E0,2.6443442E2,1.1251437E2,3.3666028E2,7.221352E1,2.711565E1,8.342428E1,5.433854E1,5.469029E0,4.107197E2,2.090722E2,1.487864E2,5.155179E1,3.740797E1,5.906507E2,2.4351012E2,2.09243E1,3.207493E2,1.5910967E1,3.5356342E1,4.806794E1,2.142181E1,3.291673E1,1.1135402E2,2.993657E2,1.0591081E2,1.0316139E2,1.2380385E2,2.4982561E1,1.5437518E1,3.611427E1,8.983924E0,5.8166675E2,3.9882383E0,1.6936062E1],"tree_param":{"num_deleted":"0","num_feature":"2","num_nodes":"55","size_leaf_vector":"1"}},{"base_weights":[-3.8930506E-2,-9.456154E-1,4.620238E-1,-1.2349403E0,-5.5860156E-1,1.01353124E-1,8.314187E-1,-1.1333803E0,-1.7591164E-1,-3.4483802E-1,-1.2917346E0,3.2712635E-1,-1.2073819E-1,7.037707E-1,1.3831075E-1,-1.29586E0,1.12210944E-1,-6.746291E-1,9.3444985E-1,-1.8747595E-1,-8.180988E-1,2.0879488E-3,8.391684E-1,-4.4819638E-1,2.782609E-1,1.23227514E-1,6.535387E-1,-1.1881491E0,-1.7367898E-1,-1.5757795E-2,-9.474726E-1,6.6422874E-1,1.2231117E-1,1.0164978E-1,-1.7109387E-1,7.25044E-1,-3.611198E-1,1.1790289E-1,6.422318E-1,2.9507445E-2,-7.9742575E-1,3.4390306E-1,-1.7081372E-1,3.7764785E-1,7.036886E-1,-1.3027285E-1,8.668681E-2,-6.758694E-2,7.202348E-2,-1.285134E-1,-2.432671E-2,1.07967354E-1,-1.6425575E-1,1.1170077E-1,5.056894E-2,-1.8188544E-1,-7.1173133E-3,-3.1092545E-2,9.554441E-2,-4.3176312E-2,9.196859E-2,-1.72005E-1,-5.602586E-2,9.448538E-2,2.2929385E-2,5.1266026E-2,-1.6426826E-1,1.00773945E-1,5.8160063E-2],"categories":[],"categories_nodes":[],"categories_segments":[],"categories_sizes":[],"default_left":[0,0,0,0,0,0,0,0,0,0,0,0,0,0,0,0,0,0,0,0,0,0,0,0,0,0,0,0,0,0,0,0,0,0,0,0,0,0,0,0,0,0,0,0,0,0,0,0,0,0,0,0,0,0,0,0,0,0,0,0,0,0,0,0,0,0,0,0,0],"id":4,"left_children":[1,3,5,7,9,11,13,15,-1,17,19,21,23,25,-1,27,-1,29,31,-1,33,35,37,39,41,-1,43,45,-1,47,49,51,-1,-1,-1,53,55,-1,57,59,61,63,-1,65,67,-1,-1,-1,-1,-1,-1,-1,-1,-1,-1,-1,-1,-1,-1,-1,-1,-1,-1,-1,-1,-1,-1,-1,-1],"loss_changes":[1.119396E3,9.734119E1,2.113038E2,2.4383423E1,5.8501045E1,4.039612E1,5.402246E1,1.5633698E2,0E0,1.2443085E2,2.1580261E1,6.638788E1,5.319166E1,1.5964691E1,0E0,1.63891E1,0E0,4.195231E1,3.718895E0,0E0,8.14012E1,6.4745575E1,9.432663E0,3.7391094E1,2.437801E1,0E0,7.7292023E0,7.665149E1,0E0,3.431851E1,3.885005E1,3.393805E1,0E0,0E0,0E0,6.3658943E0,6.897279E1,0E0,3.0363533E1,3.955408E1,2.7097847E1,1.196088E1,0E0,2.5973202E1,1.759665E1,0E0,0E0,0E0,0E0,0E0,0E0,0E0,0E0,0E0,0E0,0E0,0E0,0E0,0E0,0E0,0E0,0E0,0E0,0E0,0E0,0E0,0E0,0E0,0E0],"parents":[2147483647,0,0,1,1,2,2,3,3,4,4,5,5,6,6,7,7,9,9,10,10,11,11,12,12,13,13,15,15,17,17,18,18,20,20,21,21,22,22,23,23,24,24,26,26,27,27,29,29,30,30,31,31,35,35,36,36,38,38,39,39,40,40,41,41,43,43,44,44],"right_children":[2,4,6,8,10,12,14,16,-1,18,20,22,24,26,-1,28,-1,30,32,-1,34,36,38,40,42,-1,44,46,-1,48,50,52,-1,-1,-1,54,56,-1,58,60,62,64,-1,66,68,-1,-1,-1,-1,-1,-1,-1,-1,-1,-1,-1,-1,-1,-1,-1,-1,-1,-1,-1,-1,-1,-1,-1,-1],"split_conditions":[3.16531E-3,2.5241105E-3,4.6300506E-3,2.3485566E-3,2.957602E-3,3.654015E-3,8.385598E-3,2.3342366E-3,-1.7591164E-1,2.9261548E-3,3.0568321E-3,3.4953977E-3,4.232388E-3,4.678984E-3,1.3831075E-1,2.1156855E-3,1.12210944E-1,2.6166188E-3,2.9469486E-3,-1.8747595E-1,3.0679596E-3,3.2228227E-3,3.5316108E-3,3.8075428E-3,4.60966E-3,1.23227514E-1,4.9094753E-3,2.1042153E-3,-1.7367898E-1,2.5896593E-3,2.8453171E-3,2.9362636E-3,1.2231117E-1,1.0164978E-1,-1.7109387E-1,3.1769613E-3,3.2981224E-3,1.1790289E-1,3.583622E-3,3.7740027E-3,3.8932809E-3,4.2578396E-3,-1.7081372E-1,4.8639495E-3,5.1872325E-3,-1.3027285E-1,8.668681E-2,-6.758694E-2,7.202348E-2,-1.285134E-1,-2.432671E-2,1.07967354E-1,-1.6425575E-1,1.1170077E-1,5.056894E-2,-1.8188544E-1,-7.1173133E-3,-3.1092545E-2,9.554441E-2,-4.3176312E-2,9.196859E-2,-1.72005E-1,-5.602586E-2,9.448538E-2,2.2929385E-2,5.1266026E-2,-1.6426826E-1,1.00773945E-1,5.8160063E-2],"split_indices":[1,1,1,1,1,1,1,1,0,1,1,1,1,1,0,1,0,1,1,0,1,1,1,1,1,0,1,1,0,1,1,1,0,0,0,1,1,0,1,1,1,1,0,1,1,0,0,0,0,0,0,0,0,0,0,0,0,0,0,0,0,0,0,0,0,0,0,0,0],"split_type":[0,0,0,0,0,0,0,0,0,0,0,0,0,0,0,0,0,0,0,0,0,0,0,0,0,0,0,0,0,0,0,0,0,0,0,0,0,0,0,0,0,0,0,0,0,0,0,0,0,0,0,0,0,0,0,0,0,0,0,0,0,0,0,0,0,0,0,0,0],"sum_hessian":[2.4624338E3,8.760925E2,1.5863414E3,4.9991522E2,3.761773E2,8.034308E2,7.8291064E2,4.2158536E2,7.832988E1,2.9249866E2,8.3678635E1,3.9840164E2,4.0502914E2,6.3779626E2,1.4511433E2,3.936944E2,2.7890936E1,2.329871E2,5.951156E1,3.6087345E1,4.759129E1,2.444359E2,1.5396573E2,2.2252797E2,1.8250119E2,5.314291E1,5.846534E2,3.1955457E2,7.413984E1,6.864504E1,1.6434206E2,3.2621506E1,2.6890053E1,1.5497242E1,3.2094048E1,8.1497086E1,1.6293881E2,5.447011E1,9.949561E1,9.424343E1,1.2828453E2,1.7751234E2,4.988831E0,9.154719E1,4.9310617E2,3.030713E2,1.6483292E1,3.630271E1,3.2342335E1,1.1042644E2,5.3915623E1,2.8130587E1,4.4909196E0,2.7610994E1,5.388609E1,2.6100105E1,1.3683871E2,2.4531178E1,7.496444E1,6.2341892E1,3.190154E1,2.4868267E1,1.0341627E2,2.713163E1,1.5038072E2,8.65585E1,4.98869E0,1.3896109E2,3.541451E2],"tree_param":{"num_deleted":"0","num_feature":"2","num_nodes":"69","size_leaf_vector":"1"}},{"base_weights":[-4.3202695E-2,-5.0173444E-1,6.495695E-1,-1.0978547E0,-2.7894723E-1,5.79977E-1,1.1868603E0,-9.887023E-1,-1.6026749E-1,-1.6034637E-1,-1.3460109E0,1.0479442E-1,5.1945865E-1,1.3299796E-1,1.05624974E-1,-1.092423E0,1.1665463E-1,-5.152333E-1,1.9366506E-1,-1.6842245E-1,-8.2477266E-1,2.5577205E-1,6.533207E-1,-1.3537645E0,-8.093341E-1,1.0474511E-1,-6.126328E-1,7.1906865E-1,8.8030346E-2,6.815584E-2,-1.7303345E-1,4.5639172E-1,-8.753263E-1,8.568421E-1,5.177149E-1,-9.857362E-2,-1.5994331E-1,1.4122091E-1,-1.2937073E-1,-5.3687435E-2,-1.5915304E-1,9.139874E-2,4.7081865E-2,-1.7195396E-1,2.3519233E-2,5.182906E-2,-9.886157E-3,-1.8735737E-1,-4.3097403E-2,6.708841E-2,9.9865116E-2,-1.8137987E-1,6.334739E-2],"categories":[],"categories_nodes":[],"categories_segments":[],"categories_sizes":[],"default_left":[0,0,0,0,0,0,0,0,0,0,0,0,0,0,0,0,0,0,0,0,0,0,0,0,0,0,0,0,0,0,0,0,0,0,0,0,0,0,0,0,0,0,0,0,0,0,0,0,0,0,0,0,0],"id":5,"left_children":[1,3,5,7,9,11,13,15,-1,17,19,-1,21,-1,-1,23,-1,25,27,-1,29,31,33,35,37,-1,39,41,43,-1,-1,45,47,49,51,-1,-1,-1,-1,-1,-1,-1,-1,-1,-1,-1,-1,-1,-1,-1,-1,-1,-1],"loss_changes":[7.720552E2,1.9379285E2,3.532773E1,2.005542E1,1.3455493E2,2.3628143E1,4.1047668E-1,7.4934784E1,0E0,1.2082717E2,1.71212E1,0E0,2.6669327E1,0E0,0E0,2.1990753E1,0E0,7.368168E1,2.6580954E1,0E0,6.1243042E1,5.9076862E1,1.3358994E1,1.2821533E1,1.6738448E2,0E0,3.2503677E1,3.317196E0,1.0724748E2,0E0,0E0,7.6722107E0,1.6372324E1,4.441147E0,8.3604454E1,0E0,0E0,0E0,0E0,0E0,0E0,0E0,0E0,0E0,0E0,0E0,0E0,0E0,0E0,0E0,0E0,0E0,0E0],"parents":[2147483647,0,0,1,1,2,2,3,3,4,4,5,5,6,6,7,7,9,9,10,10,12,12,15,15,17,17,18,18,20,20,21,21,22,22,23,23,24,24,26,26,27,27,28,28,31,31,32,32,33,33,34,34],"right_children":[2,4,6,8,10,12,14,16,-1,18,20,-1,22,-1,-1,24,-1,26,28,-1,30,32,34,36,38,-1,40,42,44,-1,-1,46,48,50,52,-1,-1,-1,-1,-1,-1,-1,-1,-1,-1,-1,-1,-1,-1,-1,-1,-1,-1],"split_conditions":[4.232388E-3,2.3342366E-3,8.385598E-3,2.128602E-3,3.8075428E-3,4.3585943E-3,8.759189E-3,2.1156855E-3,-1.6026749E-1,3.16531E-3,4.06087E-3,1.0479442E-1,4.9094753E-3,1.3299796E-1,1.05624974E-1,1.7370806E-3,1.1665463E-1,2.3485566E-3,3.2228227E-3,-1.6842245E-1,4.088588E-3,4.7360235E-3,5.4293396E-3,1.2475161E-3,1.7633189E-3,1.0474511E-1,3.0679596E-3,3.1881907E-3,3.310308E-3,6.815584E-2,-1.7303345E-1,4.678984E-3,4.80045E-3,5.13581E-3,5.683854E-3,-9.857362E-2,-1.5994331E-1,1.4122091E-1,-1.2937073E-1,-5.3687435E-2,-1.5915304E-1,9.139874E-2,4.7081865E-2,-1.7195396E-1,2.3519233E-2,5.182906E-2,-9.886157E-3,-1.8735737E-1,-4.3097403E-2,6.708841E-2,9.9865116E-2,-1.8137987E-1,6.334739E-2],"split_indices":[1,1,1,1,1,1,1,1,0,1,1,0,1,0,0,1,0,1,1,0,1,1,1,1,1,0,1,1,1,0,0,1,1,1,1,0,0,0,0,0,0,0,0,0,0,0,0,0,0,0,0,0,0],"split_type":[0,0,0,0,0,0,0,0,0,0,0,0,0,0,0,0,0,0,0,0,0,0,0,0,0,0,0,0,0,0,0,0,0,0,0,0,0,0,0,0,0,0,0,0,0,0,0,0,0,0,0,0,0],"sum_hessian":[2.4284805E3,1.4615383E3,9.6694214E2,3.9642688E2,1.0651115E3,8.5806665E2,1.0887546E2,3.2854526E2,6.788162E1,9.5968896E2,1.0542249E2,9.620189E1,7.618648E2,4.7203194E1,6.1672264E1,3.1397482E2,1.457041E1,4.791655E2,4.8052344E2,6.246685E1,4.2955647E1,2.577657E2,5.040991E2,1.6110802E2,1.5286682E2,2.7480804E1,4.516847E2,7.930821E1,4.0121524E2,1.6179407E1,2.677624E1,2.1951573E2,3.824996E1,1.9915099E2,3.0494812E2,6.666252E1,9.444549E1,2.6984118E1,1.25882706E2,4.2077115E2,3.0913546E1,4.2698242E1,3.6609974E1,2.9349932E1,3.718653E2,1.9772076E2,2.1794964E1,1.072178E1,2.7528185E1,8.894762E1,1.1020337E2,1.3689713E1,2.912584E2],"tree_param":{"num_deleted":"0","num_feature":"2","num_nodes":"53","size_leaf_vector":"1"}},{"base_weights":[2.3030955E-2,-8.1991506E-1,4.5252612E-1,-9.676232E-1,-2.361972E-1,3.3302215E-1,8.738982E-1,-8.905874E-1,-1.5853891E-1,5.3697117E-2,-1.4970736E-1,3.5059908E-1,-1.9770516E-1,7.442161E-1,1.13451995E-1,-9.506019E-1,1.3495009E-1,2.4947663E-1,-4.906E-1,2.7905084E-2,4.1077068E-1,8.697851E-1,-1.8486582E-1,-8.758168E-1,-1.6685945E-1,1.04998454E-1,9.6255645E-2,-1.6092932E-1,8.099296E-2,3.2970032E-1,-6.204752E-1,1.25851E-1,3.645257E-1,9.048999E-1,3.52711E-2,-9.968235E-2,9.392545E-2,3.4805592E-2,-1.6075246E-1,-4.003575E-3,1.0728153E-1,-1.9085224E-1,3.6183682E-3,-1.8808855E-1,3.8957886E-2,8.210737E-2,1.0345807E-1],"categories":[],"categories_nodes":[],"categories_segments":[],"categories_sizes":[],"default_left":[0,0,0,0,0,0,0,0,0,0,0,0,0,0,0,0,0,0,0,0,0,0,0,0,0,0,0,0,0,0,0,0,0,0,0,0,0,0,0,0,0,0,0,0,0,0,0],"id":6,"left_children":[1,3,5,7,9,11,13,15,-1,17,-1,19,-1,21,-1,23,-1,25,27,29,31,33,-1,35,-1,37,-1,-1,-1,39,41,-1,43,45,-1,-1,-1,-1,-1,-1,-1,-1,-1,-1,-1,-1,-1],"loss_changes":[8.858824E2,7.085889E1,8.121979E1,2.9685425E1,6.1721302E1,5.1883514E1,1.1046326E1,8.029791E1,0E0,1.4771241E1,0E0,2.433377E1,0E0,8.023508E1,0E0,2.9069153E1,0E0,1.030751E1,5.4672363E1,3.9064404E1,4.086934E1,3.7555847E0,0E0,1.1547681E2,0E0,3.6275974E1,0E0,0E0,0E0,3.7615818E1,5.3851234E1,0E0,5.712526E1,1.3109741E0,0E0,0E0,0E0,0E0,0E0,0E0,0E0,0E0,0E0,0E0,0E0,0E0,0E0],"parents":[2147483647,0,0,1,1,2,2,3,3,4,4,5,5,6,6,7,7,9,9,11,11,13,13,15,15,17,17,18,18,19,19,20,20,21,21,23,23,25,25,29,29,30,30,32,32,33,33],"right_children":[2,4,6,8,10,12,14,16,-1,18,-1,20,-1,22,-1,24,-1,26,28,30,32,34,-1,36,-1,38,-1,-1,-1,40,42,-1,44,46,-1,-1,-1,-1,-1,-1,-1,-1,-1,-1,-1,-1,-1],"split_conditions":[3.16531E-3,2.8866741E-3,6.1225765E-3,2.7028557E-3,3.0679596E-3,5.937625E-3,8.385598E-3,2.6901006E-3,-1.5853891E-1,3.0007635E-3,-1.4970736E-1,3.4419617E-3,-1.9770516E-1,7.6691466E-3,1.13451995E-1,2.5782273E-3,1.3495009E-1,2.9852227E-3,3.0568321E-3,3.3261948E-3,3.4732486E-3,7.4986946E-3,-1.8486582E-1,2.5528711E-3,-1.6685945E-1,2.957602E-3,9.6255645E-2,-1.6092932E-1,8.099296E-2,3.2981224E-3,3.3856474E-3,1.25851E-1,3.4953977E-3,6.8042064E-3,3.52711E-2,-9.968235E-2,9.392545E-2,3.4805592E-2,-1.6075246E-1,-4.003575E-3,1.0728153E-1,-1.9085224E-1,3.6183682E-3,-1.8808855E-1,3.8957886E-2,8.210737E-2,1.0345807E-1],"split_indices":[1,1,1,1,1,1,1,1,0,1,0,1,0,1,0,1,0,1,1,1,1,1,0,1,0,1,0,0,0,1,1,0,1,1,0,0,0,0,0,0,0,0,0,0,0,0,0],"split_type":[0,0,0,0,0,0,0,0,0,0,0,0,0,0,0,0,0,0,0,0,0,0,0,0,0,0,0,0,0,0,0,0,0,0,0,0,0,0,0,0,0,0,0,0,0,0,0],"sum_hessian":[2.4449868E3,8.248866E2,1.6201003E3,6.5764294E2,1.6724365E2,1.2637266E3,3.563738E2,5.8704193E2,7.0601E1,1.3669382E2,3.0549845E1,1.2550685E3,8.658077E0,2.4079596E2,1.1557784E2,5.7232886E2,1.4713043E1,1.0106638E2,3.562743E1,1.9773926E2,1.0573292E3,2.3034387E2,1.0452091E1,5.20476E2,5.1852886E1,8.5109665E1,1.5956716E1,1.9066355E1,1.6561073E1,1.3537384E2,6.2365414E1,5.3226772E1,1.0041024E3,2.1481238E2,1.5531481E1,4.8842004E2,3.2055954E1,7.528033E1,9.829343E0,9.0938866E1,4.443498E1,2.04663E1,4.1899113E1,1.0218212E1,9.938842E2,1.3539507E2,7.941732E1],"tree_param":{"num_deleted":"0","num_feature":"2","num_nodes":"47","size_leaf_vector":"1"}},{"base_weights":[7.066188E-2,-5.549601E-1,5.135235E-1,-1.4820124E-1,-4.0902725E-1,3.7419716E-1,7.352238E-1,1.4252433E-1,-4.6661466E-1,1.2526043E-1,3.0589256E-1,1.345705E-1,6.777444E-1,-1.4663363E-1,-3.8568842E-1,-1.710634E-1,3.340545E-1,5.7570875E-1,1.0339805E-1,1.367987E-1,-4.201296E-1,3.4804288E-1,-1.983756E-1,6.1015403E-1,-0E0,-8.2022525E-2,-2.5865866E-2,6.92947E-2,2.6832983E-2,4.083852E-2,7.633693E-2,-1.4998373E-1,5.729583E-2],"categories":[],"categories_nodes":[],"categories_segments":[],"categories_sizes":[],"default_left":[0,0,0,0,0,0,0,0,0,0,0,0,0,0,0,0,0,0,0,0,0,0,0,0,0,0,0,0,0,0,0,0,0],"id":7,"left_children":[1,3,5,-1,7,9,11,-1,13,-1,15,-1,17,-1,19,-1,21,23,-1,-1,25,27,-1,29,31,-1,-1,-1,-1,-1,-1,-1,-1],"loss_changes":[6.9462256E2,1.397811E2,4.4957794E1,0E0,9.55573E1,5.3686623E1,1.8718658E1,0E0,6.9852264E1,0E0,4.8136475E1,0E0,1.8098969E1,0E0,4.9328957E1,0E0,2.7415054E1,7.9856415E0,0E0,0E0,5.097664E1,2.2406242E1,0E0,1.1400162E1,2.1447891E1,0E0,0E0,0E0,0E0,0E0,0E0,0E0,0E0],"parents":[2147483647,0,0,1,1,2,2,4,4,5,5,6,6,8,8,10,10,12,12,14,14,16,16,17,17,20,20,21,21,23,23,24,24],"right_children":[2,4,6,-1,8,10,12,-1,14,-1,16,-1,18,-1,20,-1,22,24,-1,-1,26,28,-1,30,32,-1,-1,-1,-1,-1,-1,-1,-1],"split_conditions":[3.4419617E-3,1.7370806E-3,5.13581E-3,-1.4820124E-1,1.7633189E-3,3.4732486E-3,5.1872325E-3,1.4252433E-1,2.01134E-3,1.2526043E-1,3.4953977E-3,1.345705E-1,8.385598E-3,-1.4663363E-1,2.0226098E-3,-1.710634E-1,5.0902637E-3,7.6691466E-3,1.0339805E-1,1.367987E-1,2.5241105E-3,3.654015E-3,-1.983756E-1,6.1225765E-3,7.939557E-3,-8.2022525E-2,-2.5865866E-2,6.92947E-2,2.6832983E-2,4.083852E-2,7.633693E-2,-1.4998373E-1,5.729583E-2],"split_indices":[1,1,1,0,1,1,1,0,1,0,1,0,1,0,1,0,1,1,0,0,1,1,0,1,1,0,0,0,0,0,0,0,0],"split_type":[0,0,0,0,0,0,0,0,0,0,0,0,0,0,0,0,0,0,0,0,0,0,0,0,0,0,0,0,0,0,0,0,0],"sum_hessian":[2.50507E3,1.038095E3,1.4669752E3,1.398491E2,8.9824585E2,9.027718E2,5.6420337E2,2.656647E1,8.716794E2,6.3777794E1,8.38994E2,4.6472588E1,5.177308E2,6.39027E1,8.077767E2,1.0683897E1,8.283101E2,4.0470825E2,1.1302254E2,1.4756998E1,7.930197E2,8.2422876E2,4.081371E0,3.8164426E2,2.3064005E1,2.2667107E2,5.6634863E2,1.5305206E2,6.711767E2,1.6658583E2,2.1505843E2,5.8809285E0,1.7183077E1],"tree_param":{"num_deleted":"0","num_feature":"2","num_nodes":"33","size_leaf_vector":"1"}},{"base_weights":[6.533315E-2,1.0537331E0,3.346564E-2,1.2090309E-1,8.825431E-1,-3.3478092E-2,3.3425483E-1,4.4480782E-2,1.0997861E-1,8.031936E-2,-6.967102E-1,6.623636E-1,-5.964366E-2,-6.806764E-2,4.3784344E-1,-1.7707597E-1,-5.4820216E-1,3.5753605E-1,1.2182772E0,-3.191977E-1,8.7263674E-1,2.2555766E-1,-1.8263231E-1,3.6531943E-1,1.3104406E-1,1.0381904E0,-7.733341E-1,9.0883225E-1,-1.7538022E-2,1.4877568E-1,7.3846185E-1,-2.3890847E-2,-1.0410948E0,3.838732E-2,1.13682054E-1,-1.6589856E-1,3.109344E-2,-1.6385138E-1,-1.4862566E-2,4.2277884E-2,-1.7515846E-1,1.2755518E-1,7.540062E-2,-1.4108728E-1,-3.156961E-2,4.537634E-2,1.4852034E-1,-7.165367E-2,5.1672768E-2,-1.49682E-1,1.2861796E-1,-6.5451026E-2,1.0396303E-1,-1.8111616E-1,-1.3381344E-2],"categories":[],"categories_nodes":[],"categories_segments":[],"categories_sizes":[],"default_left":[0,0,0,0,0,0,0,0,0,0,0,0,0,0,0,0,0,0,0,0,0,0,0,0,0,0,0,0,0,0,0,0,0,0,0,0,0,0,0,0,0,0,0,0,0,0,0,0,0,0,0,0,0,0,0],"id":8,"left_children":[1,3,5,-1,7,9,11,-1,-1,13,15,17,19,21,23,-1,25,27,29,31,33,35,37,39,-1,41,43,45,47,-1,49,51,53,-1,-1,-1,-1,-1,-1,-1,-1,-1,-1,-1,-1,-1,-1,-1,-1,-1,-1,-1,-1,-1,-1],"loss_changes":[7.759518E1,7.697983E-1,4.8208885E1,0E0,3.2186775E0,1.4784198E2,5.6427784E1,0E0,0E0,8.873804E1,4.4556213E1,3.973703E1,4.8337864E1,3.9792877E1,3.0398796E1,0E0,9.133549E1,3.2205536E1,9.508087E0,3.3200157E1,5.026676E0,5.378301E1,4.1707283E1,5.588085E1,0E0,9.8596954E-1,6.435097E1,1.5651669E1,3.5218224E1,0E0,4.1376213E1,7.5813866E1,3.1191414E1,0E0,0E0,0E0,0E0,0E0,0E0,0E0,0E0,0E0,0E0,0E0,0E0,0E0,0E0,0E0,0E0,0E0,0E0,0E0,0E0,0E0,0E0],"parents":[2147483647,0,0,1,1,2,2,4,4,5,5,6,6,9,9,10,10,11,11,12,12,13,13,14,14,16,16,17,17,18,18,19,19,20,20,21,21,22,22,23,23,25,25,26,26,27,27,28,28,30,30,31,31,32,32],"right_children":[2,4,6,-1,8,10,12,-1,-1,14,16,18,20,22,24,-1,26,28,30,32,34,36,38,40,-1,42,44,46,48,-1,50,52,54,-1,-1,-1,-1,-1,-1,-1,-1,-1,-1,-1,-1,-1,-1,-1,-1,-1,-1,-1,-1,-1,-1],"split_conditions":[-2.1928964E0,-2.7232838E0,7.3559994E-1,1.2090309E-1,-2.4098105E0,3.6796722E-1,1.0277447E0,4.4480782E-2,1.0997861E-1,8.516085E-2,4.229781E-1,9.5096046E-1,2.3571877E0,-7.6505446E-1,3.610055E-1,-1.7707597E-1,4.381117E-1,7.840266E-1,9.859445E-1,1.5501943E0,2.5548947E0,-1.8870103E0,-7.1229875E-1,3.414055E-1,1.3104406E-1,4.3053874E-1,5.7621014E-1,7.7483886E-1,8.6586356E-1,1.4877568E-1,1.0040026E0,1.4410499E0,2.0419104E0,3.838732E-2,1.13682054E-1,-1.6589856E-1,3.109344E-2,-1.6385138E-1,-1.4862566E-2,4.2277884E-2,-1.7515846E-1,1.2755518E-1,7.540062E-2,-1.4108728E-1,-3.156961E-2,4.537634E-2,1.4852034E-1,-7.165367E-2,5.1672768E-2,-1.49682E-1,1.2861796E-1,-6.5451026E-2,1.0396303E-1,-1.8111616E-1,-1.3381344E-2],"split_indices":[0,0,0,0,0,0,0,0,0,0,0,0,0,0,0,0,0,0,0,0,0,0,0,0,0,0,0,0,0,0,0,0,0,0,0,0,0,0,0,0,0,0,0,0,0,0,0,0,0,0,0,0,0,0,0],"split_type":[0,0,0,0,0,0,0,0,0,0,0,0,0,0,0,0,0,0,0,0,0,0,0,0,0,0,0,0,0,0,0,0,0,0,0,0,0,0,0,0,0,0,0,0,0,0,0,0,0,0,0,0,0,0,0],"sum_hessian":[2.4670786E3,7.5958305E1,2.3911204E3,3.634274E1,3.9615566E1,1.9562853E3,4.3483517E2,1.4303153E1,2.5312414E1,1.670405E3,2.858802E2,2.3699548E2,1.9783969E2,1.1808389E3,4.8956616E2,3.331808E1,2.525621E2,1.5424203E2,8.2753456E1,1.5535307E2,4.2486614E1,3.3090332E2,8.4993555E2,4.5341483E2,3.615133E1,3.0883787E1,2.2167831E2,6.198216E1,9.225987E1,5.1512997E1,3.1240456E1,1.1108364E2,4.4269432E1,1.5900626E1,2.6585989E1,1.3491839E1,3.174115E2,1.8255703E1,8.316799E2,4.422581E2,1.115674E1,1.4735659E1,1.6148129E1,9.167031E1,1.3000801E2,3.5731464E1,2.6250694E1,3.9901432E1,5.235844E1,5.771416E0,2.546904E1,7.0034805E1,4.104883E1,2.3346943E1,2.092249E1],"tree_param":{"num_deleted":"0","num_feature":"2","num_nodes":"55","size_leaf_vector":"1"}},{"base_weights":[3.8576927E-2,-3.4223923E-1,5.9083366E-1,-8.329504E-1,-1.1492186E-1,5.110022E-1,1.05328836E-1,-1.0646561E0,-6.1053795E-1,-6.974897E-3,-9.4563955E-1,5.2396715E-1,-1.3744742E-1,-9.2674595E-1,-1.3945465E-1,1.7366606E-1,-9.0938526E-1,-2.2536045E-1,3.8370374E-1,-1.6101669E-1,-8.942315E-2,8.1715214E-1,4.4995037E-1,-1.1112984E0,7.130437E-2,-7.540583E-1,-1.4523213E-1,6.436943E-1,-3.9120108E-1,1.11598514E-1,2.8035527E-1,8.078903E-1,-1.576499E-1,6.792036E-1,1.2710312E-1,-1.2212081E0,5.6897736E-1,-7.494889E-2,-1.3859166E-1,-9.6646786E-2,1.1414408E-1,4.529848E-2,9.763667E-2,-1.1222364E-1,-1.5023242E-2,4.3883156E-2,-2.623025E-3,5.846975E-2,9.8117396E-2,7.7996545E-2,-1.7753206E-1,5.297891E-2,-2.1423082E-1,3.7765887E-2,6.5677844E-2],"categories":[],"categories_nodes":[],"categories_segments":[],"categories_sizes":[],"default_left":[0,0,0,0,0,0,0,0,0,0,0,0,0,0,0,0,0,0,0,0,0,0,0,0,0,0,0,0,0,0,0,0,0,0,0,0,0,0,0,0,0,0,0,0,0,0,0,0,0,0,0,0,0,0,0],"id":9,"left_children":[1,3,5,7,9,11,-1,13,15,17,19,21,-1,23,-1,-1,25,27,29,-1,31,33,35,37,-1,39,-1,41,43,-1,45,47,-1,49,-1,51,53,-1,-1,-1,-1,-1,-1,-1,-1,-1,-1,-1,-1,-1,-1,-1,-1,-1,-1],"loss_changes":[5.1094092E2,1.6019467E2,3.5912964E1,2.2625122E1,8.8130455E1,2.1358109E1,0E0,8.540298E0,1.6610434E2,7.44591E1,6.4002556E1,1.7793198E1,0E0,4.9011612E1,0E0,0E0,1.6297699E1,8.094503E1,2.3222534E1,0E0,6.876242E1,9.483643E0,1.3496606E2,1.3010193E1,0E0,6.7365524E1,0E0,5.126652E0,8.2679214E1,0E0,1.3442995E1,5.122509E-1,0E0,3.3793495E1,0E0,7.414075E1,1.0251205E1,0E0,0E0,0E0,0E0,0E0,0E0,0E0,0E0,0E0,0E0,0E0,0E0,0E0,0E0,0E0,0E0,0E0,0E0],"parents":[2147483647,0,0,1,1,2,2,3,3,4,4,5,5,7,7,8,8,9,9,10,10,11,11,13,13,16,16,17,17,18,18,20,20,21,21,22,22,23,23,25,25,27,27,28,28,30,30,31,31,33,33,35,35,36,36],"right_children":[2,4,6,8,10,12,-1,14,16,18,20,22,-1,24,-1,-1,26,28,30,-1,32,34,36,38,-1,40,-1,42,44,-1,46,48,-1,50,-1,52,54,-1,-1,-1,-1,-1,-1,-1,-1,-1,-1,-1,-1,-1,-1,-1,-1,-1,-1],"split_conditions":[4.232388E-3,2.5241105E-3,7.939557E-3,2.01134E-3,3.8075428E-3,7.6691466E-3,1.05328836E-1,1.7633189E-3,2.0226098E-3,3.4419617E-3,4.06087E-3,4.4620195E-3,-1.3744742E-1,1.7370806E-3,-1.3945465E-1,1.7366606E-1,2.4169157E-3,2.6166188E-3,3.458779E-3,-1.6101669E-1,4.1106245E-3,4.432493E-3,4.6300506E-3,1.2475161E-3,7.130437E-2,2.4065843E-3,-1.4523213E-1,2.5896593E-3,2.8866741E-3,1.11598514E-1,3.654015E-3,4.088588E-3,-1.576499E-1,4.4107186E-3,1.2710312E-1,4.481073E-3,5.13581E-3,-7.494889E-2,-1.3859166E-1,-9.6646786E-2,1.1414408E-1,4.529848E-2,9.763667E-2,-1.1222364E-1,-1.5023242E-2,4.3883156E-2,-2.623025E-3,5.846975E-2,9.8117396E-2,7.7996545E-2,-1.7753206E-1,5.297891E-2,-2.1423082E-1,3.7765887E-2,6.5677844E-2],"split_indices":[1,1,1,1,1,1,0,1,1,1,1,1,0,1,0,0,1,1,1,0,1,1,1,1,0,1,0,1,1,0,1,1,0,1,0,1,1,0,0,0,0,0,0,0,0,0,0,0,0,0,0,0,0,0,0],"split_type":[0,0,0,0,0,0,0,0,0,0,0,0,0,0,0,0,0,0,0,0,0,0,0,0,0,0,0,0,0,0,0,0,0,0,0,0,0,0,0,0,0,0,0,0,0,0,0,0,0,0,0,0,0,0,0],"sum_hessian":[2.4274058E3,1.4368237E3,9.9058215E2,4.5389468E2,9.82929E2,8.4673535E2,1.4384685E2,2.2022813E2,2.3366655E2,8.7089056E2,1.1203842E2,8.417226E2,5.0127287E0,1.5820367E2,6.2024456E1,2.5809381E1,2.0785718E2,5.5906036E2,3.118302E2,6.2518875E1,4.9519547E1,1.6736974E2,6.7435284E2,1.4254411E2,1.5659558E1,1.6362051E2,4.4236664E1,8.903033E1,4.7003006E2,3.723483E1,2.7459537E2,3.1126842E1,1.8392706E1,1.3044121E2,3.6928535E1,4.416527E1,6.301876E2,6.3273964E1,7.927015E1,1.4762099E2,1.5999522E1,5.82817E1,3.0748625E1,1.1551523E2,3.5451483E2,1.8095384E2,9.3641525E1,1.5768286E1,1.5358556E1,1.2599203E2,4.4491806E0,1.5333254E1,2.8832016E1,2.002603E2,4.299273E2],"tree_param":{"num_deleted":"0","num_feature":"2","num_nodes":"55","size_leaf_vector":"1"}},{"base_weights":[6.908355E-2,6.296023E-1,3.6392566E-2,7.497429E-1,3.6990464E-1,-3.0058611E-2,3.2797068E-1,3.9104138E-2,9.246857E-2,-1.3922065E-1,5.7737875E-1,6.2455107E-2,-5.5824745E-1,7.910023E-1,1.860851E-1,5.7111694E-3,8.5540354E-2,-5.4483903E-3,6.8241006E-1,-1.1093258E0,1.4567299E-2,5.652379E-1,1.3489212E-1,-1.6653582E-1,2.7333087E-1,1.9621735E-2,-1.8114127E-1,5.1468927E-1,1.2146598E-1,-8.840774E-1,-1.6768193E-1,5.312611E-1,-9.1008395E-1,8.642701E-1,-1.5106824E-1,1.8530512E-1,8.29019E-1,-1.3586095E-3,1.0565871E-1,7.432844E-2,-1.618068E-1,-1.15941726E-1,6.837068E-2,1.169755E-1,2.4408355E-2,-1.5642883E-1,-8.315786E-3,5.9160996E-2,1.1667885E-1,3.7635658E-2,-4.9642764E-2,5.196618E-2,9.67039E-2],"categories":[],"categories_nodes":[],"categories_segments":[],"categories_sizes":[],"default_left":[0,0,0,0,0,0,0,0,0,0,0,0,0,0,0,0,0,0,0,0,0,0,0,0,0,0,0,0,0,0,0,0,0,0,0,0,0,0,0,0,0,0,0,0,0,0,0,0,0,0,0,0,0],"id":10,"left_children":[1,3,5,7,9,11,13,-1,-1,-1,15,17,19,21,23,-1,-1,25,27,29,31,33,-1,-1,35,37,-1,39,-1,41,-1,43,45,47,-1,49,51,-1,-1,-1,-1,-1,-1,-1,-1,-1,-1,-1,-1,-1,-1,-1,-1],"loss_changes":[4.321873E1,3.6673088E0,4.3333977E1,5.0075264E0,1.6574865E1,8.903671E1,2.7025188E1,0E0,0E0,0E0,5.580858E0,6.53133E1,8.5855194E1,1.1249836E1,5.187635E1,0E0,0E0,6.3494396E1,1.2873047E1,1.5968048E1,6.449598E1,4.520652E1,0E0,0E0,1.4700403E1,4.7620483E1,0E0,5.8804478E1,0E0,4.4613007E1,0E0,1.5471455E1,2.5865993E1,4.296192E0,0E0,3.473929E1,1.1150341E0,0E0,0E0,0E0,0E0,0E0,0E0,0E0,0E0,0E0,0E0,0E0,0E0,0E0,0E0,0E0,0E0],"parents":[2147483647,0,0,1,1,2,2,3,3,4,4,5,5,6,6,10,10,11,11,12,12,13,13,14,14,17,17,18,18,19,19,20,20,21,21,24,24,25,25,27,27,29,29,31,31,32,32,33,33,35,35,36,36],"right_children":[2,4,6,8,10,12,14,-1,-1,-1,16,18,20,22,24,-1,-1,26,28,30,32,34,-1,-1,36,38,-1,40,-1,42,-1,44,46,48,-1,50,52,-1,-1,-1,-1,-1,-1,-1,-1,-1,-1,-1,-1,-1,-1,-1,-1],"split_conditions":[-1.7323598E0,-1.9327955E0,7.3559994E-1,-2.4098105E0,-1.8870103E0,3.6796722E-1,8.2114923E-1,3.9104138E-2,9.246857E-2,-1.3922065E-1,-1.8071821E0,2.971271E-1,5.7621014E-1,8.083144E-1,8.6586356E-1,5.7111694E-3,8.5540354E-2,2.6560667E-1,3.610055E-1,5.1105154E-1,6.352527E-1,7.840266E-1,1.3489212E-1,-1.6653582E-1,2.3571877E0,2.4776465E-1,-1.8114127E-1,3.414055E-1,1.2146598E-1,5.035893E-1,-1.6768193E-1,5.828159E-1,6.991672E-1,7.7483886E-1,-1.5106824E-1,1.5037521E0,2.5548947E0,-1.3586095E-3,1.0565871E-1,7.432844E-2,-1.618068E-1,-1.15941726E-1,6.837068E-2,1.169755E-1,2.4408355E-2,-1.5642883E-1,-8.315786E-3,5.9160996E-2,1.1667885E-1,3.7635658E-2,-4.9642764E-2,5.196618E-2,9.67039E-2],"split_indices":[0,0,0,0,0,0,0,0,0,0,0,0,0,0,0,0,0,0,0,0,0,0,0,0,0,0,0,0,0,0,0,0,0,0,0,0,0,0,0,0,0,0,0,0,0,0,0,0,0,0,0,0,0],"split_type":[0,0,0,0,0,0,0,0,0,0,0,0,0,0,0,0,0,0,0,0,0,0,0,0,0,0,0,0,0,0,0,0,0,0,0,0,0,0,0,0,0,0,0,0,0,0,0,0,0,0,0,0,0],"sum_hessian":[2.3624827E3,1.290184E2,2.2334644E3,8.6657234E1,4.2361168E1,1.8193785E3,4.1408572E2,2.9656527E1,5.70007E1,3.809997E0,3.855117E1,1.5487953E3,2.705833E2,9.5886955E1,3.1819876E2,1.3971478E1,2.4579693E1,1.3966504E3,1.5214484E2,1.3751984E2,1.3306346E2,6.982451E1,2.6062449E1,1.3454134E1,3.0474463E2,1.3784487E3,1.8201656E1,1.17327774E2,3.481705E1,1.00402405E2,3.711743E1,8.570515E1,4.735832E1,6.1585133E1,8.239376E0,2.6437827E2,4.036635E1,1.3365378E3,4.1910892E1,1.0660042E2,1.0727363E1,8.5679344E1,1.4723057E1,2.5527433E1,6.0177715E1,2.5875147E1,2.1483171E1,3.411943E1,2.7465704E1,2.0697064E2,5.740763E1,1.4147E1,2.6219349E1],"tree_param":{"num_deleted":"0","num_feature":"2","num_nodes":"53","size_leaf_vector":"1"}},{"base_weights":[4.131511E-2,-4.7590393E-1,3.9866087E-1,-7.763963E-1,-2.3553401E-1,2.0932825E-1,6.663896E-1,-6.615508E-1,-1.4325549E-1,-1.8599737E-1,-1.8169929E-1,5.7130903E-1,8.145077E-2,5.988776E-1,1.02059744E-1,-8.135635E-1,1.1768627E-1,3.061923E-1,-2.7357835E-1,9.1701925E-2,4.5264325E-1,-5.546421E-1,2.7309608E-1,1.1149575E-1,5.4387033E-1,-6.9522583E-1,-1.3649364E-1,-1.076361E-2,7.598259E-2,-8.43178E-1,-2.5787985E-2,-1.5791772E-1,5.976146E-1,-4.413459E-2,-1.4789836E-1,3.0362397E-1,-1.8690054E-1,3.1278035E-1,6.981571E-1,-9.901548E-2,6.6330507E-3,4.244333E-2,-1.6209774E-1,-6.491799E-2,-1.6920409E-1,8.94762E-2,-2.462553E-2,9.597827E-2,5.1416118E-2,-1.6716711E-1,3.8194116E-2,3.9774664E-2,5.493023E-3,5.589027E-2,7.4034394E-3,8.469114E-2,3.956402E-2],"categories":[],"categories_nodes":[],"categories_segments":[],"categories_sizes":[],"default_left":[0,0,0,0,0,0,0,0,0,0,0,0,0,0,0,0,0,0,0,0,0,0,0,0,0,0,0,0,0,0,0,0,0,0,0,0,0,0,0,0,0,0,0,0,0,0,0,0,0,0,0,0,0,0,0,0,0],"id":11,"left_children":[1,3,5,7,9,11,13,15,-1,17,-1,19,21,23,-1,25,-1,27,29,-1,31,33,35,-1,37,39,-1,41,-1,43,45,-1,47,49,-1,51,-1,53,55,-1,-1,-1,-1,-1,-1,-1,-1,-1,-1,-1,-1,-1,-1,-1,-1,-1,-1],"loss_changes":[4.3649237E2,6.9410095E1,7.057405E1,3.1110718E1,4.1585274E1,3.7837936E1,1.30466E1,1.0331764E2,0E0,2.2605543E1,0E0,8.212669E0,7.4142525E1,1.3082657E1,0E0,2.0968353E1,0E0,1.147574E1,6.2601685E1,0E0,4.8340767E1,6.621956E1,3.0975994E1,0E0,1.548143E1,6.334816E1,0E0,3.409448E1,0E0,2.0822784E1,6.3226887E1,0E0,3.9313202E0,6.442617E1,0E0,1.0741131E1,0E0,1.0442652E1,1.1451233E1,0E0,0E0,0E0,0E0,0E0,0E0,0E0,0E0,0E0,0E0,0E0,0E0,0E0,0E0,0E0,0E0,0E0,0E0],"parents":[2147483647,0,0,1,1,2,2,3,3,4,4,5,5,6,6,7,7,9,9,11,11,12,12,13,13,15,15,17,17,18,18,20,20,21,21,22,22,24,24,25,25,27,27,29,29,30,30,32,32,33,33,35,35,37,37,38,38],"right_children":[2,4,6,8,10,12,14,16,-1,18,-1,20,22,24,-1,26,-1,28,30,-1,32,34,36,-1,38,40,-1,42,-1,44,46,-1,48,50,-1,52,-1,54,56,-1,-1,-1,-1,-1,-1,-1,-1,-1,-1,-1,-1,-1,-1,-1,-1,-1,-1],"split_conditions":[3.4419617E-3,2.5241105E-3,5.13581E-3,2.3485566E-3,3.3947949E-3,3.654015E-3,8.759189E-3,2.3342366E-3,-1.4325549E-1,2.6166188E-3,-1.8169929E-1,3.4732486E-3,4.0205456E-3,5.1872325E-3,1.02059744E-1,2.128602E-3,1.1768627E-1,2.5896593E-3,2.9261548E-3,9.1701925E-2,3.4953977E-3,3.8075428E-3,5.0902637E-3,1.1149575E-1,6.2219347E-3,2.01134E-3,-1.3649364E-1,2.5643997E-3,7.598259E-2,2.8604239E-3,2.957602E-3,-1.5791772E-1,3.5119324E-3,3.7161405E-3,-1.4789836E-1,4.678984E-3,-1.8690054E-1,5.506439E-3,7.004879E-3,-9.901548E-2,6.6330507E-3,4.244333E-2,-1.6209774E-1,-6.491799E-2,-1.6920409E-1,8.94762E-2,-2.462553E-2,9.597827E-2,5.1416118E-2,-1.6716711E-1,3.8194116E-2,3.9774664E-2,5.493023E-3,5.589027E-2,7.4034394E-3,8.469114E-2,3.956402E-2],"split_indices":[1,1,1,1,1,1,1,1,0,1,0,1,1,1,0,1,0,1,1,0,1,1,1,0,1,1,0,1,0,1,1,0,1,1,0,1,0,1,1,0,0,0,0,0,0,0,0,0,0,0,0,0,0,0,0,0,0],"split_type":[0,0,0,0,0,0,0,0,0,0,0,0,0,0,0,0,0,0,0,0,0,0,0,0,0,0,0,0,0,0,0,0,0,0,0,0,0,0,0,0,0,0,0,0,0,0,0,0,0,0,0,0,0,0,0,0,0],"sum_hessian":[2.359654E3,9.63901E2,1.3957532E3,4.2720074E2,5.367002E2,8.1884033E2,5.7691284E2,3.6540552E2,6.1795227E1,5.215445E2,1.5155697E1,2.1264886E2,6.0619147E2,4.870536E2,8.98593E1,3.3806393E2,2.7341599E1,7.82357E1,4.433088E2,5.240536E1,1.602435E2,1.397915E2,4.6639996E2,4.4881977E1,4.421716E2,2.8033884E2,5.7725098E1,4.650104E1,3.173466E1,1.3353755E2,3.0977127E2,9.967194E0,1.502763E2,9.07995E1,4.8992012E1,4.6073874E2,5.6612144E0,1.7849619E2,2.636754E2,2.019576E2,7.838124E1,3.7137966E1,9.363073E0,1.1022861E2,2.3308945E1,5.9175392E1,2.5059587E2,2.5951925E1,1.2432438E2,1.8280893E1,7.251861E1,3.3351318E2,1.2722556E2,8.70238E1,9.1472374E1,1.7533112E2,8.834431E1],"tree_param":{"num_deleted":"0","num_feature":"2","num_nodes":"57","size_leaf_vector":"1"}},{"base_weights":[-5.969503E-3,9.1005486E-1,-5.0596282E-2,1.1306963E-1,7.781892E-1,-1.3737394E-1,3.0067375E-1,2.3042962E-2,9.083684E-1,-4.625099E-2,-6.1159086E-1,5.7960767E-1,6.0549658E-2,1.0101181E-1,5.8545765E-2,-1.0182252E-1,6.86416E-1,-1.1477474E0,-4.2795286E-2,3.0219167E-1,1.3587083E-1,-5.6939757E-1,2.7210987E-1,-7.7837944E-2,-1.6953272E-1,4.9518588E-1,8.115379E-1,-7.126197E-1,-1.5974216E-1,1.0747061E-1,-2.9583487E-1,9.3210764E-2,5.5365175E-2,-3.2857952E-1,-1.6187525E-1,5.872638E-1,-9.5807865E-2,-1.0658414E-2,8.178913E-2,8.575048E-2,5.5750497E-3,9.321526E-2,3.0068478E-2,-1.1357448E-1,9.049628E-2,-1.5699899E-1,-9.211852E-3,-1.672603E-1,4.056868E-2,-7.628628E-2,5.4845937E-2,3.2358196E-2,7.244726E-2,-1.6313943E-1,4.2779703E-2],"categories":[],"categories_nodes":[],"categories_segments":[],"categories_sizes":[],"default_left":[0,0,0,0,0,0,0,0,0,0,0,0,0,0,0,0,0,0,0,0,0,0,0,0,0,0,0,0,0,0,0,0,0,0,0,0,0,0,0,0,0,0,0,0,0,0,0,0,0,0,0,0,0,0,0],"id":12,"left_children":[1,3,5,-1,7,9,11,-1,13,15,17,19,21,-1,-1,23,25,27,29,31,-1,33,35,37,-1,39,41,43,-1,-1,45,-1,47,49,-1,51,53,-1,-1,-1,-1,-1,-1,-1,-1,-1,-1,-1,-1,-1,-1,-1,-1,-1,-1],"loss_changes":[9.276185E1,1.996048E0,6.6041824E1,0E0,4.630356E0,7.499194E1,2.8642815E1,0E0,1.0772095E0,5.940719E1,8.516517E1,4.226301E1,3.1032516E1,0E0,0E0,5.155283E1,1.9283485E0,2.6789093E1,3.8952682E1,2.2789783E1,0E0,1.4058718E1,2.0327595E1,3.4466446E1,0E0,6.796273E0,3.311245E0,5.2422806E1,0E0,0E0,2.8886433E1,0E0,6.54349E1,1.9072588E1,0E0,3.069748E0,6.608955E1,0E0,0E0,0E0,0E0,0E0,0E0,0E0,0E0,0E0,0E0,0E0,0E0,0E0,0E0,0E0,0E0,0E0,0E0],"parents":[2147483647,0,0,1,1,2,2,4,4,5,5,6,6,8,8,9,9,10,10,11,11,12,12,15,15,16,16,17,17,18,18,19,19,21,21,22,22,23,23,25,25,26,26,27,27,30,30,32,32,33,33,35,35,36,36],"right_children":[2,4,6,-1,8,10,12,-1,14,16,18,20,22,-1,-1,24,26,28,30,32,-1,34,36,38,-1,40,42,44,-1,-1,46,-1,48,50,-1,52,54,-1,-1,-1,-1,-1,-1,-1,-1,-1,-1,-1,-1,-1,-1,-1,-1,-1,-1],"split_conditions":[-1.9327955E0,-2.7232838E0,7.3559994E-1,1.1306963E-1,-2.4098105E0,3.414055E-1,9.859445E-1,2.3042962E-2,-2.0487194E0,2.971271E-1,5.7621014E-1,9.5096046E-1,1.2155843E0,1.0101181E-1,5.8545765E-2,2.6560667E-1,3.188699E-1,4.381117E-1,5.828159E-1,7.633595E-1,1.3587083E-1,1.1629497E0,1.5501943E0,2.4776465E-1,-1.6953272E-1,3.0320695E-1,3.3447838E-1,4.3053874E-1,-1.5974216E-1,1.0747061E-1,6.0455114E-1,9.3210764E-2,8.083144E-1,1.1375312E0,-1.6187525E-1,1.340772E0,2.0419104E0,-1.0658414E-2,8.178913E-2,8.575048E-2,5.5750497E-3,9.321526E-2,3.0068478E-2,-1.1357448E-1,9.049628E-2,-1.5699899E-1,-9.211852E-3,-1.672603E-1,4.056868E-2,-7.628628E-2,5.4845937E-2,3.2358196E-2,7.244726E-2,-1.6313943E-1,4.2779703E-2],"split_indices":[0,0,0,0,0,0,0,0,0,0,0,0,0,0,0,0,0,0,0,0,0,0,0,0,0,0,0,0,0,0,0,0,0,0,0,0,0,0,0,0,0,0,0,0,0,0,0,0,0,0,0,0,0,0,0],"split_type":[0,0,0,0,0,0,0,0,0,0,0,0,0,0,0,0,0,0,0,0,0,0,0,0,0,0,0,0,0,0,0,0,0,0,0,0,0,0,0,0,0,0,0,0,0,0,0,0,0,0,0,0,0,0,0],"sum_hessian":[2.269145E3,1.0440751E2,2.1647373E3,3.593954E1,6.846797E1,1.7366174E3,4.2811996E2,1.3826794E1,5.464118E1,1.4578025E3,2.78815E2,1.9720807E2,2.3091188E2,3.969529E1,1.4945889E1,1.3559532E3,1.01849205E2,1.42911E2,1.35904E2,1.4654404E2,5.0664024E1,5.750862E1,1.7340327E2,1.3369419E3,1.9011324E1,4.2559795E1,5.9289406E1,7.405691E1,6.885408E1,2.441914E1,1.1148487E2,4.0360397E1,1.0618364E2,4.7919846E1,9.588775E0,9.3224174E1,8.017909E1,1.296332E3,4.0609886E1,2.2680527E1,1.9879269E1,4.713919E1,1.2150216E1,5.8986893E1,1.5070017E1,1.4375419E1,9.710945E1,1.7214224E1,8.896942E1,3.2213097E1,1.5706749E1,3.3305748E1,5.9918427E1,1.9898285E1,6.0280807E1],"tree_param":{"num_deleted":"0","num_feature":"2","num_nodes":"55","size_leaf_vector":"1"}},{"base_weights":[3.180618E-2,-4.3759847E-1,3.588755E-1,-9.726221E-1,-3.5551533E-1,2.5126746E-1,6.267644E-1,-5.8178455E-1,-1.2852396E-1,1.3559777E-1,-4.1410875E-1,2.757542E-1,-6.234083E-1,4.7448742E-1,6.630583E-1,-1.3186425E-1,1.5305261E-1,-1.2929867E-1,-3.522552E-1,1.4896005E-1,4.259787E-1,-1.639047E-1,8.563003E-3,5.4026204E-1,1.834335E-2,8.422813E-2,6.3854015E-1,1.4108762E-1,-4.221569E-1,4.1419894E-1,-2.60047E-1,1.22846924E-1,3.4995374E-1,4.4577148E-2,6.138162E-2,5.965552E-1,7.266988E-1,-1.3998744E-1,-3.7603434E-2,5.8734287E-2,3.0916078E-2,-1.3619292E-1,-1.2363362E-2,4.2504366E-3,4.2511858E-2,6.612566E-2,4.543525E-3,8.875293E-2,6.0789116E-2],"categories":[],"categories_nodes":[],"categories_segments":[],"categories_sizes":[],"default_left":[0,0,0,0,0,0,0,0,0,0,0,0,0,0,0,0,0,0,0,0,0,0,0,0,0,0,0,0,0,0,0,0,0,0,0,0,0,0,0,0,0,0,0,0,0,0,0,0,0],"id":13,"left_children":[1,3,5,7,9,11,13,15,-1,-1,17,19,21,23,25,-1,-1,-1,27,29,31,-1,-1,33,-1,-1,35,-1,37,39,41,-1,43,-1,-1,45,47,-1,-1,-1,-1,-1,-1,-1,-1,-1,-1,-1,-1],"loss_changes":[3.5296323E2,4.0978912E1,3.881636E1,1.4317284E1,8.271708E1,2.0883705E1,1.7125702E0,9.140518E1,0E0,0E0,4.253537E1,1.78424E1,1.9432789E1,1.3333492E0,6.7533875E-1,0E0,0E0,0E0,9.208565E1,5.5810463E1,2.5692444E1,0E0,0E0,6.051445E-2,0E0,0E0,4.5989227E-1,0E0,3.1566994E1,5.4015923E0,3.0105953E1,0E0,9.063194E0,0E0,0E0,6.819664E0,9.169502E-1,0E0,0E0,0E0,0E0,0E0,0E0,0E0,0E0,0E0,0E0,0E0,0E0],"parents":[2147483647,0,0,1,1,2,2,3,3,4,4,5,5,6,6,7,7,10,10,11,11,12,12,13,13,14,14,18,18,19,19,20,20,23,23,26,26,28,28,29,29,30,30,32,32,35,35,36,36],"right_children":[2,4,6,8,10,12,14,16,-1,-1,18,20,22,24,26,-1,-1,-1,28,30,32,-1,-1,34,-1,-1,36,-1,38,40,42,-1,44,-1,-1,46,48,-1,-1,-1,-1,-1,-1,-1,-1,-1,-1,-1,-1],"split_conditions":[3.4419617E-3,1.7370806E-3,5.7586334E-3,1.2475161E-3,1.7633189E-3,5.506439E-3,6.2219347E-3,1.2188945E-3,-1.2852396E-1,1.3559777E-1,2.01134E-3,4.432493E-3,5.683854E-3,6.1225765E-3,6.3458765E-3,-1.3186425E-1,1.5305261E-1,-1.2929867E-1,2.0226098E-3,3.8075428E-3,4.4620195E-3,-1.639047E-1,8.563003E-3,5.937625E-3,1.834335E-2,8.422813E-2,8.385598E-3,1.4108762E-1,2.1042153E-3,3.5460999E-3,3.8932809E-3,1.22846924E-1,4.6300506E-3,4.4577148E-2,6.138162E-2,7.6691466E-3,8.759189E-3,-1.3998744E-1,-3.7603434E-2,5.8734287E-2,3.0916078E-2,-1.3619292E-1,-1.2363362E-2,4.2504366E-3,4.2511858E-2,6.612566E-2,4.543525E-3,8.875293E-2,6.0789116E-2],"split_indices":[1,1,1,1,1,1,1,1,0,0,1,1,1,1,1,0,0,0,1,1,1,0,0,1,0,0,1,0,1,1,1,0,1,0,0,1,1,0,0,0,0,0,0,0,0,0,0,0,0],"split_type":[0,0,0,0,0,0,0,0,0,0,0,0,0,0,0,0,0,0,0,0,0,0,0,0,0,0,0,0,0,0,0,0,0,0,0,0,0,0,0,0,0,0,0,0,0,0,0,0,0],"sum_hessian":[2.2970457E3,9.430097E2,1.354036E3,1.2382728E2,8.1918243E2,9.6765204E2,3.8638397E2,5.6442795E1,6.738448E1,2.6327152E1,7.928553E2,9.4207745E2,2.5574623E1,7.760552E1,3.0877847E2,4.21591E1,1.4283694E1,5.0715626E1,7.4213965E2,5.123203E2,4.2975714E2,1.0032824E1,1.55418E1,6.232176E1,1.5283761E1,3.2653725E1,2.7612473E2,2.7514973E1,7.146247E2,3.109213E2,2.01399E2,3.5764668E1,3.9399246E2,3.0964071E1,3.1357687E1,1.9307509E2,8.3049644E1,3.0772963E1,6.8385175E2,1.1530686E2,1.9561443E2,2.1116123E1,1.8028288E2,7.796898E1,3.160235E2,1.7244836E2,2.062673E1,3.2178062E1,5.0871582E1],"tree_param":{"num_deleted":"0","num_feature":"2","num_nodes":"49","size_leaf_vector":"1"}},{"base_weights":[9.129783E-2,1.0304604E-1,7.649984E-2,2.5356518E-2,3.7199232E-1,3.8038198E-2,-1.598799E-1,6.63399E-1,2.2509348E-1,9.196162E-2,-2.1981287E-1,5.065897E-1,1.1673295E-1,-1.5947855E-1,3.4770384E-1,-1.11201275E-2,3.5596797E-1,-1.5453237E-1,-8.963821E-2,6.2055254E-1,-1.3394912E-1,-2.8355667E-1,4.2952323E-1,4.562001E-3,-1.20186985E-1,6.8570614E-2,2.478791E-2,1.1453396E-1,-2.2378901E-2,3.7080597E-2,1.0152137E-1,5.0421756E-2,-1.5556754E-1,7.1083575E-2,1.1561468E-2],"categories":[],"categories_nodes":[],"categories_segments":[],"categories_sizes":[],"default_left":[0,0,0,0,0,0,0,0,0,0,0,0,0,0,0,0,0,0,0,0,0,0,0,0,0,0,0,0,0,0,0,0,0,0,0],"id":14,"left_children":[1,-1,3,5,7,9,-1,11,13,15,17,19,-1,-1,21,23,25,-1,27,29,-1,31,33,-1,-1,-1,-1,-1,-1,-1,-1,-1,-1,-1,-1],"loss_changes":[3.2369125E1,0E0,3.4824028E1,4.0449463E1,1.4320713E1,2.71799E1,0E0,8.18993E0,5.127326E1,4.4051632E1,5.801513E1,1.933353E1,0E0,0E0,1.12073555E1,7.8802925E1,1.59337845E1,0E0,5.133785E1,7.753395E0,0E0,2.5999878E1,1.6639172E1,0E0,0E0,0E0,0E0,0E0,0E0,0E0,0E0,0E0,0E0,0E0,0E0],"parents":[2147483647,0,0,2,2,3,3,4,4,5,5,7,7,8,8,9,9,10,10,11,11,14,14,15,15,16,16,18,18,19,19,21,21,22,22],"right_children":[2,-1,4,6,8,10,-1,12,14,16,18,20,-1,-1,22,24,26,-1,28,30,-1,32,34,-1,-1,-1,-1,-1,-1,-1,-1,-1,-1,-1,-1],"split_conditions":[-2.7232838E0,1.0304604E-1,8.6586356E-1,8.2114923E-1,1.0277447E0,3.6796722E-1,-1.598799E-1,1.0040026E0,1.1375312E0,8.516085E-2,4.229781E-1,9.859445E-1,1.1673295E-1,-1.5947855E-1,1.2155843E0,2.458432E-2,1.3357413E-1,-1.5453237E-1,4.381117E-1,9.5096046E-1,-1.3394912E-1,1.1629497E0,1.5501943E0,4.562001E-3,-1.20186985E-1,6.8570614E-2,2.478791E-2,1.1453396E-1,-2.2378901E-2,3.7080597E-2,1.0152137E-1,5.0421756E-2,-1.5556754E-1,7.1083575E-2,1.1561468E-2],"split_indices":[0,0,0,0,0,0,0,0,0,0,0,0,0,0,0,0,0,0,0,0,0,0,0,0,0,0,0,0,0,0,0,0,0,0,0],"split_type":[0,0,0,0,0,0,0,0,0,0,0,0,0,0,0,0,0,0,0,0,0,0,0,0,0,0,0,0,0,0,0,0,0,0,0],"sum_hessian":[2.341734E3,3.5155838E1,2.3065781E3,1.9674751E3,3.3910297E2,1.9532618E3,1.421325E1,1.12244385E2,2.2685858E2,1.6162854E3,3.369765E2,8.728684E1,2.4957544E1,1.3510004E1,2.1334859E2,1.1628339E3,4.5345148E2,2.909327E1,3.0788324E2,8.288799E1,4.3988457E0,2.4056652E1,1.8929193E2,1.110782E3,5.2051907E1,1.1039847E2,3.43053E2,2.93556E1,2.7852762E2,5.210698E1,3.0781015E1,1.5180799E1,8.8758545E0,9.8994194E1,9.029774E1],"tree_param":{"num_deleted":"0","num_feature":"2","num_nodes":"35","size_leaf_vector":"1"}},{"base_weights":[-3.928421E-2,-3.0482388E-1,4.419713E-1,-7.9325795E-1,-1.1739785E-1,2.482008E-1,6.981074E-1,-1.2844501E-1,-6.059243E-1,2.0655362E-2,-6.069102E-1,3.8030168E-1,-3.1395477E-1,5.998085E-1,9.0558267E-1,-4.463918E-1,-1.387554E-1,-1.5884246E-1,2.8633836E-1,-1.2411568E0,-4.5442626E-2,2.43003E-1,5.577918E-1,-1.1777978E0,4.2430714E-2,8.6552906E-1,4.1181475E-1,9.940121E-2,6.252322E-2,-5.7692736E-1,1.5213917E-1,6.7236316E-1,-3.0227062E-1,4.3647853E-1,-1.847209E-1,-1.5121298E-1,-7.733456E-1,1.4877085E-1,-1.947412E-1,4.8998094E-1,-1.2290002E-1,9.301877E-2,4.5358047E-1,-8.2006365E-1,-2.1593983E-1,1.0021911E-1,7.3898934E-2,-9.738839E-3,4.7374165E-1,-1.5520421E-2,-8.6022176E-2,9.068845E-2,4.5222677E-2,-2.258418E-2,-1.6614583E-1,6.178124E-2,3.0540317E-2,-1.7453514E-1,2.3421464E-2,5.1629152E-2,-1.592524E-1,-3.2157206E-3,7.894546E-2,1.4451294E-2,7.670025E-2,-1.7802058E-1,1.9652932E-3,-3.0815383E-2,6.1402358E-2,-1.722446E-1,6.473937E-3,5.638532E-2,2.2480804E-3],"categories":[],"categories_nodes":[],"categories_segments":[],"categories_sizes":[],"default_left":[0,0,0,0,0,0,0,0,0,0,0,0,0,0,0,0,0,0,0,0,0,0,0,0,0,0,0,0,0,0,0,0,0,0,0,0,0,0,0,0,0,0,0,0,0,0,0,0,0,0,0,0,0,0,0,0,0,0,0,0,0,0,0,0,0,0,0,0,0,0,0,0,0],"id":15,"left_children":[1,3,5,7,9,11,13,-1,15,17,19,21,23,25,27,29,-1,31,33,35,37,39,41,43,-1,45,47,-1,-1,49,-1,51,53,55,57,-1,59,61,-1,63,65,-1,67,69,-1,-1,-1,-1,71,-1,-1,-1,-1,-1,-1,-1,-1,-1,-1,-1,-1,-1,-1,-1,-1,-1,-1,-1,-1,-1,-1,-1,-1],"loss_changes":[2.8025433E2,1.2920343E2,3.8431E1,3.5069E1,6.918704E1,3.3222614E1,6.139389E0,0E0,3.4803223E1,3.814154E1,8.000282E1,8.593143E0,5.491449E1,1.1036446E1,1.8300858E0,6.210308E1,0E0,5.7033604E1,2.2919224E1,1.1990189E1,4.500433E1,1.8704235E1,5.5158653E0,1.1833591E1,0E0,7.182617E-1,4.409994E0,0E0,0E0,2.6603683E1,0E0,3.0886784E0,4.1777836E1,5.5437164E0,5.188597E1,0E0,4.415911E1,1.2883884E1,0E0,1.1597233E1,1.996427E1,0E0,1.5435249E1,2.4791565E1,0E0,0E0,0E0,0E0,4.916706E0,0E0,0E0,0E0,0E0,0E0,0E0,0E0,0E0,0E0,0E0,0E0,0E0,0E0,0E0,0E0,0E0,0E0,0E0,0E0,0E0,0E0,0E0,0E0,0E0],"parents":[2147483647,0,0,1,1,2,2,3,3,4,4,5,5,6,6,8,8,9,9,10,10,11,11,12,12,13,13,14,14,15,15,17,17,18,18,19,19,20,20,21,21,22,22,23,23,25,25,26,26,29,29,31,31,32,32,33,33,34,34,36,36,37,37,39,39,40,40,42,42,43,43,48,48],"right_children":[2,4,6,8,10,12,14,-1,16,18,20,22,24,26,28,30,-1,32,34,36,38,40,42,44,-1,46,48,-1,-1,50,-1,52,54,56,58,-1,60,62,-1,64,66,-1,68,70,-1,-1,-1,-1,72,-1,-1,-1,-1,-1,-1,-1,-1,-1,-1,-1,-1,-1,-1,-1,-1,-1,-1,-1,-1,-1,-1,-1,-1],"split_conditions":[4.5082057E-3,2.5528711E-3,6.2219347E-3,1.7370806E-3,3.7740027E-3,5.4293396E-3,8.385598E-3,-1.2844501E-1,2.4169157E-3,3.3856474E-3,4.232388E-3,5.000309E-3,5.937625E-3,6.575619E-3,9.560482E-3,2.4065843E-3,-1.387554E-1,2.6166188E-3,3.6389537E-3,4.06087E-3,4.4620195E-3,4.7070906E-3,5.0388086E-3,5.7586334E-3,4.2430714E-2,6.3458765E-3,6.6825785E-3,9.940121E-2,6.252322E-2,2.0226098E-3,1.5213917E-1,2.5782273E-3,3.3261948E-3,3.4732486E-3,3.685955E-3,-1.5121298E-1,4.088588E-3,4.432493E-3,-1.947412E-1,4.6300506E-3,4.7360235E-3,9.301877E-2,5.13581E-3,5.683854E-3,-2.1593983E-1,1.0021911E-1,7.3898934E-2,-9.738839E-3,7.6691466E-3,-1.5520421E-2,-8.6022176E-2,9.068845E-2,4.5222677E-2,-2.258418E-2,-1.6614583E-1,6.178124E-2,3.0540317E-2,-1.7453514E-1,2.3421464E-2,5.1629152E-2,-1.592524E-1,-3.2157206E-3,7.894546E-2,1.4451294E-2,7.670025E-2,-1.7802058E-1,1.9652932E-3,-3.0815383E-2,6.1402358E-2,-1.722446E-1,6.473937E-3,5.638532E-2,2.2480804E-3],"split_indices":[1,1,1,1,1,1,1,0,1,1,1,1,1,1,1,1,0,1,1,1,1,1,1,1,0,1,1,0,0,1,0,1,1,1,1,0,1,1,0,1,1,0,1,1,0,0,0,0,1,0,0,0,0,0,0,0,0,0,0,0,0,0,0,0,0,0,0,0,0,0,0,0,0],"split_type":[0,0,0,0,0,0,0,0,0,0,0,0,0,0,0,0,0,0,0,0,0,0,0,0,0,0,0,0,0,0,0,0,0,0,0,0,0,0,0,0,0,0,0,0,0,0,0,0,0,0,0,0,0,0,0,0,0,0,0,0,0,0,0,0,0,0,0,0,0,0,0,0,0],"sum_hessian":[2.1910964E3,1.4123734E3,7.78723E2,3.9062775E2,1.02174567E3,4.446777E2,3.3404535E2,1.0608382E2,2.8454395E2,7.975676E2,2.2417804E2,3.6047183E2,8.4205864E1,2.296251E2,1.04420235E2,2.3772311E2,4.6820824E1,4.760021E2,3.2156555E2,1.0461448E2,1.1956356E2,2.0490143E2,1.5557039E2,3.859076E1,4.56151E1,9.343003E1,1.3619507E2,7.717501E1,2.724522E1,2.2364496E2,1.4078159E1,6.940369E1,4.0659842E2,2.4406174E2,7.7503815E1,6.4694824E1,3.991966E1,1.0927454E2,1.0289015E1,1.22291245E2,8.261019E1,3.2072998E1,1.234974E2,2.9703087E1,8.887671E0,4.1211586E1,5.221845E1,1.4530272E1,1.21664795E2,9.0630165E1,1.330148E2,3.1873487E1,3.7530193E1,3.861258E2,2.047261E1,1.0052117E2,1.4354057E2,1.5782595E1,6.1721222E1,1.5603172E1,2.4316484E1,8.583001E1,2.3444532E1,5.526011E1,6.7031136E1,5.6885986E0,7.692159E1,2.1217815E1,1.0227958E2,1.429272E1,1.5410367E1,1.0102097E2,2.0643826E1],"tree_param":{"num_deleted":"0","num_feature":"2","num_nodes":"73","size_leaf_vector":"1"}},{"base_weights":[1.1096926E-1,-3.043877E-1,3.193567E-1,-2.2157784E-1,-1.4526868E-1,2.362942E-1,4.878719E-1,-3.8276324E-1,4.898765E-1,2.6085815E-1,-2.0029998E-1,1.1196468E-1,4.124205E-1,-2.926443E-1,-1.3335921E-1,1.4877239E-1,3.5436213E-1,7.376726E-1,2.1996783E-1,-1.5631266E-2,5.1556224E-1,-3.4654868E-1,1.6195366E-1,-1.292844E-1,4.904033E-1,5.767519E-1,9.688891E-2,-1.486588E-1,2.654247E-1,2.2459479E-2,-2.5918338E-1,6.599623E-1,4.4488877E-1,-8.7517284E-2,-2.0123849E-2,3.5901096E-2,1.2561549E-1,8.7821655E-2,-1.5249224E-1,1.1207678E-1,2.2183074E-2,-2.1054564E-1,-1.0342372E-3,5.2248765E-2,8.996161E-2,3.2951374E-2,6.630564E-2],"categories":[],"categories_nodes":[],"categories_segments":[],"categories_sizes":[],"default_left":[0,0,0,0,0,0,0,0,0,0,0,0,0,0,0,0,0,0,0,0,0,0,0,0,0,0,0,0,0,0,0,0,0,0,0,0,0,0,0,0,0,0,0,0,0,0,0],"id":16,"left_children":[1,3,5,7,-1,9,11,13,15,17,-1,-1,19,21,-1,-1,23,25,27,29,31,33,-1,-1,35,37,-1,-1,39,-1,41,43,45,-1,-1,-1,-1,-1,-1,-1,-1,-1,-1,-1,-1,-1,-1],"loss_changes":[1.9832266E2,7.229949E1,2.1167648E1,8.219786E1,0E0,5.669005E1,2.333313E1,4.9472008E1,1.7196995E1,1.9513985E1,0E0,0E0,1.994838E1,5.55419E1,0E0,0E0,2.6996593E1,2.2438622E0,7.2853E1,5.225493E0,3.303032E0,3.9725544E1,0E0,0E0,1.0432995E1,3.2693436E1,0E0,0E0,3.363298E1,0E0,2.0209877E1,3.2369957E0,5.910202E0,0E0,0E0,0E0,0E0,0E0,0E0,0E0,0E0,0E0,0E0,0E0,0E0,0E0,0E0],"parents":[2147483647,0,0,1,1,2,2,3,3,5,5,6,6,7,7,8,8,9,9,12,12,13,13,16,16,17,17,18,18,19,19,20,20,21,21,24,24,25,25,28,28,30,30,31,31,32,32],"right_children":[2,4,6,8,-1,10,12,14,16,18,-1,-1,20,22,-1,-1,24,26,28,30,32,34,-1,-1,36,38,-1,-1,40,-1,42,44,46,-1,-1,-1,-1,-1,-1,-1,-1,-1,-1,-1,-1,-1,-1],"split_conditions":[3.16531E-3,3.0007635E-3,5.13581E-3,2.8453171E-3,-1.4526868E-1,5.0388086E-3,5.1872325E-3,2.7028557E-3,2.8604239E-3,3.2228227E-3,-2.0029998E-1,1.1196468E-1,5.7586334E-3,2.6901006E-3,-1.3335921E-1,1.4877239E-1,2.8866741E-3,3.2015934E-3,3.2981224E-3,5.371925E-3,6.3458765E-3,1.7370806E-3,1.6195366E-1,-1.292844E-1,2.9852227E-3,3.1881907E-3,9.688891E-2,-1.486588E-1,3.3261948E-3,2.2459479E-2,5.4293396E-3,6.2219347E-3,8.385598E-3,-8.7517284E-2,-2.0123849E-2,3.5901096E-2,1.2561549E-1,8.7821655E-2,-1.5249224E-1,1.1207678E-1,2.2183074E-2,-2.1054564E-1,-1.0342372E-3,5.2248765E-2,8.996161E-2,3.2951374E-2,6.630564E-2],"split_indices":[1,1,1,1,0,1,1,1,1,1,0,0,1,1,0,0,1,1,1,1,1,1,0,0,1,1,0,0,1,0,1,1,1,0,0,0,0,0,0,0,0,0,0,0,0,0,0],"split_type":[0,0,0,0,0,0,0,0,0,0,0,0,0,0,0,0,0,0,0,0,0,0,0,0,0,0,0,0,0,0,0,0,0,0,0,0,0,0,0,0,0,0,0,0,0,0,0],"sum_hessian":[2.2891455E3,7.6446893E2,1.5246766E3,7.1424133E2,5.022763E1,1.0232861E3,5.0139056E2,5.8280493E2,1.3143636E2,1.013101E3,1.0185049E1,5.187366E1,4.495169E2,5.3363983E2,4.91651E1,1.4434321E1,1.17002045E2,7.8479515E1,9.3462146E2,8.725907E1,3.6225784E2,5.198562E2,1.3783682E1,8.221122E0,1.0878092E2,4.8589424E1,2.9890089E1,2.3369598E1,9.112519E2,4.3761974E1,4.3497093E1,1.15833496E2,2.4642435E2,1.108573E2,4.0899887E2,9.4214455E1,1.4566465E1,4.304479E1,5.544639E0,4.288165E1,8.6837024E2,4.2323446E0,3.926475E1,7.5894775E1,3.993872E1,1.6312604E2,8.32983E1],"tree_param":{"num_deleted":"0","num_feature":"2","num_nodes":"47","size_leaf_vector":"1"}},{"base_weights":[-5.257981E-3,-3.5856077E-1,2.3838004E-1,-1.2275398E-1,-2.5189355E-1,1.7896149E-1,7.972901E-2,1.1394813E-1,-3.039955E-1,5.647832E-1,7.860369E-2,-1.2441561E-1,-2.398743E-1,8.21212E-2,4.7335297E-1,-4.0917656E-1,2.1096879E-1,-1.533874E-1,-8.000255E-1,-1.5323196E-1,6.038786E-1,2.007305E-1,-6.832793E-1,2.2212794E-1,-1.2823288E-1,-3.4999695E-2,1.4170243E-2,-1.4827636E-1,-5.0043773E-2,4.7598E-2,7.28625E-2,-1.4366901E-1,5.3699613E-2,-1.03208855E-1,-2.4173772E-2,5.7432663E-2,1.8180693E-2],"categories":[],"categories_nodes":[],"categories_segments":[],"categories_sizes":[],"default_left":[0,0,0,0,0,0,0,0,0,0,0,0,0,0,0,0,0,0,0,0,0,0,0,0,0,0,0,0,0,0,0,0,0,0,0,0,0],"id":17,"left_children":[1,3,5,-1,7,9,-1,-1,11,13,15,-1,17,-1,19,21,23,25,27,-1,29,31,33,35,-1,-1,-1,-1,-1,-1,-1,-1,-1,-1,-1,-1,-1],"loss_changes":[1.8383484E2,8.034851E1,4.1729202E1,0E0,5.6649582E1,4.417883E1,0E0,0E0,4.480269E1,5.0086823E0,5.8759377E1,0E0,3.3888577E1,0E0,4.701845E1,3.2652626E1,1.2107555E1,3.5533474E1,1.8239239E1,0E0,2.187729E0,3.4201195E1,2.0311924E1,9.92329E0,0E0,0E0,0E0,0E0,0E0,0E0,0E0,0E0,0E0,0E0,0E0,0E0,0E0],"parents":[2147483647,0,0,1,1,2,2,4,4,5,5,8,8,9,9,10,10,12,12,14,14,15,15,16,16,17,17,18,18,20,20,21,21,22,22,23,23],"right_children":[2,4,6,-1,8,10,-1,-1,12,14,16,-1,18,-1,20,22,24,26,28,-1,30,32,34,36,-1,-1,-1,-1,-1,-1,-1,-1,-1,-1,-1,-1,-1],"split_conditions":[3.4419617E-3,1.7370806E-3,7.939557E-3,-1.2275398E-1,1.7633189E-3,3.654015E-3,7.972901E-2,1.1394813E-1,2.01134E-3,3.4732486E-3,4.232388E-3,-1.2441561E-1,3.2228227E-3,8.21212E-2,3.4953977E-3,3.7360622E-3,7.6691466E-3,2.8453171E-3,3.310308E-3,-1.5323196E-1,3.583622E-3,3.685955E-3,4.0205456E-3,4.3585943E-3,-1.2823288E-1,-3.4999695E-2,1.4170243E-2,-1.4827636E-1,-5.0043773E-2,4.7598E-2,7.28625E-2,-1.4366901E-1,5.3699613E-2,-1.03208855E-1,-2.4173772E-2,5.7432663E-2,1.8180693E-2],"split_indices":[1,1,1,0,1,1,0,0,1,1,1,0,1,0,1,1,1,1,1,0,1,1,1,1,0,0,0,0,0,0,0,0,0,0,0,0,0],"split_type":[0,0,0,0,0,0,0,0,0,0,0,0,0,0,0,0,0,0,0,0,0,0,0,0,0,0,0,0,0,0,0,0,0,0,0,0,0],"sum_hessian":[2.1335447E3,8.707692E2,1.2627755E3,9.394971E1,7.768195E2,1.1427837E3,1.1999191E2,2.7216534E1,7.49603E2,2.347339E2,9.0804974E2,4.658594E1,7.030171E2,5.931138E1,1.7542253E2,1.9320839E2,7.148413E2,6.102477E2,9.27694E1,1.0015618E1,1.654069E2,5.987753E1,1.3333086E2,7.104505E2,4.3908587E0,3.6632742E2,2.4392023E2,2.6986366E1,6.5783035E1,8.444512E1,8.0961784E1,9.593384E0,5.0284145E1,7.36136E1,5.971726E1,7.136479E1,6.390857E2],"tree_param":{"num_deleted":"0","num_feature":"2","num_nodes":"37","size_leaf_vector":"1"}},{"base_weights":[-8.615071E-3,4.7038775E-3,-2.1686926E-1,7.0744735E-1,-2.6475193E-2,4.6424183E-1,8.5798377E-1,-8.949954E-2,2.589604E-1,5.7787687E-2,2.1334419E-2,1.0157859E0,3.85566E-2,-1.5029596E-3,-6.510744E-1,7.377632E-1,1.6986178E-1,8.230668E-2,1.2531962E-1,-2.8664887E-2,1.16252735E-1,-1.0279497E0,-9.010833E-2,1.5133807E-1,1.3566807E-1,-6.759349E-1,2.756002E-1,-1.3819364E-3,-1.582864E-1,-7.583508E-2,-1.565297E-1,3.9071754E-2,-7.4470975E-2,8.425325E-2,-1.5236427E-1,-1.8741293E-2,-1.4855039E-1,5.033219E-2,1.4603021E-2],"categories":[],"categories_nodes":[],"categories_segments":[],"categories_sizes":[],"default_left":[0,0,0,0,0,0,0,0,0,0,0,0,0,0,0,0,0,0,0,0,0,0,0,0,0,0,0,0,0,0,0,0,0,0,0,0,0,0,0],"id":18,"left_children":[1,3,-1,5,7,9,11,13,15,-1,-1,17,-1,19,21,23,25,-1,-1,27,-1,29,31,33,-1,35,37,-1,-1,-1,-1,-1,-1,-1,-1,-1,-1,-1,-1],"loss_changes":[6.094332E1,4.6065502E1,0E0,2.739582E0,3.616706E1,8.405719E-1,3.474289E0,8.1352104E1,1.5292393E1,0E0,0E0,5.6871796E-1,0E0,4.4991936E1,4.6949486E1,2.0172094E1,2.7689127E1,0E0,0E0,3.1984444E1,0E0,1.787819E1,2.8915798E1,3.623788E1,0E0,1.3162234E1,7.96282E0,0E0,0E0,0E0,0E0,0E0,0E0,0E0,0E0,0E0,0E0,0E0,0E0],"parents":[2147483647,0,0,1,1,3,3,4,4,5,5,6,6,7,7,8,8,11,11,13,13,14,14,15,15,16,16,19,19,21,21,22,22,23,23,25,25,26,26],"right_children":[2,4,-1,6,8,10,12,14,16,-1,-1,18,-1,20,22,24,26,-1,-1,28,-1,30,32,34,-1,36,38,-1,-1,-1,-1,-1,-1,-1,-1,-1,-1,-1,-1],"split_conditions":[2.2331913E0,-1.9327955E0,-2.1686926E-1,-2.4098105E0,7.3559994E-1,-2.7232838E0,-2.0487194E0,3.6796722E-1,7.840266E-1,5.7787687E-2,2.1334419E-2,-2.1928964E0,3.85566E-2,3.610055E-1,6.0455114E-1,7.7483886E-1,8.6586356E-1,8.230668E-2,1.2531962E-1,3.3447838E-1,1.16252735E-1,5.1105154E-1,6.5329427E-1,7.520756E-1,1.3566807E-1,8.2114923E-1,1.0277447E0,-1.3819364E-3,-1.582864E-1,-7.583508E-2,-1.565297E-1,3.9071754E-2,-7.4470975E-2,8.425325E-2,-1.5236427E-1,-1.8741293E-2,-1.4855039E-1,5.033219E-2,1.4603021E-2],"split_indices":[0,0,0,0,0,0,0,0,0,0,0,0,0,0,0,0,0,0,0,0,0,0,0,0,0,0,0,0,0,0,0,0,0,0,0,0,0,0,0],"split_type":[0,0,0,0,0,0,0,0,0,0,0,0,0,0,0,0,0,0,0,0,0,0,0,0,0,0,0,0,0,0,0,0,0,0,0,0,0,0,0],"sum_hessian":[2.109421E3,2.0974397E3,1.1981198E1,8.831988E1,2.0091198E3,3.558202E1,5.2737858E1,1.6465887E3,3.62531E2,2.3318804E1,1.2263216E1,3.8511845E1,1.4226013E1,1.4245483E3,2.220404E2,5.555954E1,3.0697147E2,2.3954613E1,1.455723E1,1.3931024E3,3.14459E1,1.3220802E2,8.983238E1,2.9250622E1,2.6308916E1,3.3407574E1,2.735639E2,1.3809846E3,1.2117767E1,8.976722E1,4.24408E1,5.193489E1,3.7897495E1,2.110016E1,8.150461E0,2.168008E1,1.1727492E1,9.7880585E1,1.756833E2],"tree_param":{"num_deleted":"0","num_feature":"2","num_nodes":"39","size_leaf_vector":"1"}},{"base_weights":[9.329971E-2,-2.7218452E-1,3.0310938E-1,-1.18242025E-1,-2.3379895E-1,1.12545885E-1,2.7635914E-1,1.8185033E-1,-2.7245256E-1,-1.5271093E-1,3.0460134E-1,-1.1686595E-1,-2.0470782E-1,2.0827922E-1,4.4070908E-1,9.938122E-2,-2.5501868E-1,2.4675865E-1,-3.812717E-1,7.152389E-1,3.7443972E-1,-1.2135859E-1,-1.874519E-2,2.0100681E-2,5.9094805E-2,-1.8800265E-1,1.0550651E-2,3.268656E-2,1.15807906E-1,3.3160947E-2,7.898337E-2],"categories":[],"categories_nodes":[],"categories_segments":[],"categories_sizes":[],"default_left":[0,0,0,0,0,0,0,0,0,0,0,0,0,0,0,0,0,0,0,0,0,0,0,0,0,0,0,0,0,0,0],"id":19,"left_children":[1,3,5,-1,7,-1,9,-1,11,-1,13,-1,15,17,19,-1,21,23,25,27,29,-1,-1,-1,-1,-1,-1,-1,-1,-1,-1],"loss_changes":[1.6807048E2,2.750901E1,3.0178352E1,0E0,6.1289024E1,0E0,6.9101425E1,0E0,4.5462727E1,0E0,1.7280235E1,0E0,4.258561E1,1.780199E1,9.626694E0,0E0,4.3402897E1,1.1361744E1,3.5464897E1,1.7622585E1,7.548935E0,0E0,0E0,0E0,0E0,0E0,0E0,0E0,0E0,0E0,0E0],"parents":[2147483647,0,0,1,1,2,2,4,4,6,6,8,8,10,10,12,12,13,13,14,14,16,16,17,17,18,18,19,19,20,20],"right_children":[2,4,6,-1,8,-1,10,-1,12,-1,14,-1,16,18,20,-1,22,24,26,28,30,-1,-1,-1,-1,-1,-1,-1,-1,-1,-1],"split_conditions":[3.2981224E-3,1.2188945E-3,3.3261948E-3,-1.18242025E-1,1.2475161E-3,1.12545885E-1,3.3856474E-3,1.8185033E-1,1.7370806E-3,-1.5271093E-1,4.946054E-3,-1.1686595E-1,1.7633189E-3,4.763653E-3,5.1872325E-3,9.938122E-2,2.01134E-3,4.6300506E-3,4.8291846E-3,5.13581E-3,9.560482E-3,-1.2135859E-1,-1.874519E-2,2.0100681E-2,5.9094805E-2,-1.8800265E-1,1.0550651E-2,3.268656E-2,1.15807906E-1,3.3160947E-2,7.898337E-2],"split_indices":[1,1,1,0,1,0,1,0,1,0,1,0,1,1,1,0,1,1,1,1,1,0,0,0,0,0,0,0,0,0,0],"split_type":[0,0,0,0,0,0,0,0,0,0,0,0,0,0,0,0,0,0,0,0,0,0,0,0,0,0,0,0,0,0,0],"sum_hessian":[2.1896655E3,7.982887E2,1.391377E3,3.0991013E1,7.6729767E2,4.2422523E1,1.3489543E3,1.32852955E1,7.540124E2,1.9925962E1,1.3290284E3,5.1744766E1,7.0226764E2,7.8017267E2,5.488557E2,2.7456236E1,6.748114E2,7.3307654E2,4.7096157E1,1.0452884E2,4.443269E2,4.321934E1,6.3159204E2,6.487192E2,8.435734E1,1.0894876E1,3.6201283E1,5.6735455E1,4.7793385E1,4.0464407E2,3.968282E1],"tree_param":{"num_deleted":"0","num_feature":"2","num_nodes":"31","size_leaf_vector":"1"}},{"base_weights":[8.601005E-2,7.977571E-1,5.7319384E-2,6.4968735E-1,9.520342E-2,-9.228118E-2,1.9930148E-1,8.3608985E-2,1.2540519E-2,1.4335139E-1,-2.5446892E-1,4.8300964E-1,8.23473E-2,1.2320944E-2,4.6227354E-1,-9.266799E-1,-9.087095E-2,3.7076154E-1,1.0632101E0,-1.643825E-1,1.19580746E-1,2.5216138E-1,-7.0020103E-1,9.6471834E-1,5.569692E-2,-6.3131756E-1,-1.7207102E-1,1.4131032E-1,-1.3934548E-1,5.121502E-1,-1.6582571E-1,1.3175134E-1,3.081421E-2,-1.7997393E-1,2.5652558E-1,5.6327605E-3,9.900036E-2,-1.6734408E-1,-3.3391256E-2,5.4512132E-2,1.1035631E-1,-1.5787674E-1,5.4948326E-2,-8.9111716E-2,6.995888E-2,-1.717336E-1,-9.099747E-3,4.147998E-2,1.2736917E-1,4.6391923E-2,-8.789311E-2,1.0323197E-1,2.1655818E-2],"categories":[],"categories_nodes":[],"categories_segments":[],"categories_sizes":[],"default_left":[0,0,0,0,0,0,0,0,0,0,0,0,0,0,0,0,0,0,0,0,0,0,0,0,0,0,0,0,0,0,0,0,0,0,0,0,0,0,0,0,0,0,0,0,0,0,0,0,0,0,0,0,0],"id":20,"left_children":[1,3,5,7,-1,9,11,-1,-1,13,15,17,19,21,23,25,27,29,31,-1,33,35,37,39,41,43,-1,-1,45,47,-1,-1,-1,49,51,-1,-1,-1,-1,-1,-1,-1,-1,-1,-1,-1,-1,-1,-1,-1,-1,-1,-1],"loss_changes":[4.4318863E1,1.1432037E0,4.4498573E1,4.3344727E0,0E0,3.9020737E1,3.5566933E1,0E0,0E0,1.7337082E1,6.630821E1,1.9865547E1,4.905287E1,5.0751884E1,2.4549482E1,2.6381325E1,3.5612053E1,7.652289E1,9.052372E0,0E0,3.071471E1,3.1983099E1,2.5890343E1,2.3748703E0,5.565937E1,3.0989899E1,0E0,0E0,3.5770252E1,1.7672424E1,0E0,0E0,0E0,1.06143875E2,1.5575489E1,0E0,0E0,0E0,0E0,0E0,0E0,0E0,0E0,0E0,0E0,0E0,0E0,0E0,0E0,0E0,0E0,0E0,0E0],"parents":[2147483647,0,0,1,1,2,2,3,3,5,5,6,6,9,9,10,10,11,11,12,12,13,13,14,14,15,15,16,16,17,17,18,18,20,20,21,21,22,22,23,23,24,24,25,25,28,28,29,29,33,33,34,34],"right_children":[2,4,6,8,-1,10,12,-1,-1,14,16,18,20,22,24,26,28,30,32,-1,34,36,38,40,42,44,-1,-1,46,48,-1,-1,-1,50,52,-1,-1,-1,-1,-1,-1,-1,-1,-1,-1,-1,-1,-1,-1,-1,-1,-1,-1],"split_conditions":[-2.0487194E0,-2.4098105E0,8.516085E-2,-2.7232838E0,9.520342E-2,-5.683987E-1,2.6560667E-1,8.3608985E-2,1.2540519E-2,-7.1229875E-1,-3.8192868E-1,2.4776465E-1,2.971271E-1,-9.372794E-1,-6.786949E-1,-4.417597E-1,-3.716235E-1,2.2271349E-1,2.5891322E-1,-1.643825E-1,5.7621014E-1,-9.85097E-1,-8.320007E-1,-7.024094E-1,-6.2618756E-1,-4.5203823E-1,-1.7207102E-1,1.4131032E-1,-3.516511E-1,2.155776E-1,-1.6582571E-1,1.3175134E-1,3.081421E-2,3.6796722E-1,5.828159E-1,5.6327605E-3,9.900036E-2,-1.6734408E-1,-3.3391256E-2,5.4512132E-2,1.1035631E-1,-1.5787674E-1,5.4948326E-2,-8.9111716E-2,6.995888E-2,-1.717336E-1,-9.099747E-3,4.147998E-2,1.2736917E-1,4.6391923E-2,-8.789311E-2,1.0323197E-1,2.1655818E-2],"split_indices":[0,0,0,0,0,0,0,0,0,0,0,0,0,0,0,0,0,0,0,0,0,0,0,0,0,0,0,0,0,0,0,0,0,0,0,0,0,0,0,0,0,0,0,0,0,0,0,0,0,0,0,0,0],"split_type":[0,0,0,0,0,0,0,0,0,0,0,0,0,0,0,0,0,0,0,0,0,0,0,0,0,0,0,0,0,0,0,0,0,0,0,0,0,0,0,0,0,0,0,0,0,0,0,0,0,0,0,0,0],"sum_hessian":[2.1757395E3,8.313236E1,2.0926072E3,4.540939E1,3.7722977E1,1.0187933E3,1.0738138E3,3.29197E1,1.2489691E1,4.1514877E2,6.0364453E2,3.1228534E2,7.615285E2,2.9521194E2,1.1993683E2,1.1712238E2,4.8652213E2,2.6318066E2,4.9104683E1,1.5111517E1,7.46417E2,2.2145494E2,7.3757E1,5.291995E1,6.701688E1,8.6767685E1,3.03547E1,1.424801E1,4.722741E2,2.46781E2,1.6399641E1,3.6076843E1,1.3027838E1,2.3384889E2,5.125681E2,1.7596358E2,4.549136E1,1.9118065E1,5.463894E1,1.4561269E1,3.835868E1,1.4992142E1,5.202474E1,7.293583E1,1.3831858E1,1.2952115E1,4.59322E2,2.2029584E2,2.6485172E1,1.21819534E2,1.1202936E2,2.3773685E1,4.8879443E2],"tree_param":{"num_deleted":"0","num_feature":"2","num_nodes":"53","size_leaf_vector":"1"}},{"base_weights":[7.819385E-2,-4.2896676E-3,4.0788E-1,3.6021003E-1,-8.647835E-2,6.3861394E-1,1.5730229E-1,3.0743536E-1,1.3597198E-1,-3.916774E-1,-9.365996E-3,4.06556E-1,1.0741593E0,-7.940757E-1,3.4614414E-1,3.542258E-1,-1.3566323E-1,-2.5032222E-1,-1.6565047E-1,7.501408E-2,-4.508615E-1,7.6624626E-1,-3.2899767E-1,1.2095151E-1,7.8521425E-1,-1.4925851E-1,-3.8108778E-1,2.2330715E-1,1.0119432E-1,2.54262E-1,8.923097E-1,-1.457616E-1,-2.0686159E-1,3.779513E-2,1.1758944E0,-1.0363941E0,-9.235886E-2,9.052948E-1,4.748566E-1,-1.570339E-1,1.9897474E-1,-1.2527172E-1,1.19598866E-1,3.892032E-2,-1.5550779E-1,4.2669433E-1,-5.7767924E-2,3.8680185E-2,-3.1615805E-2,1.0340786E-1,5.1535096E-2,7.6649844E-4,-5.061827E-2,7.511966E-3,-1.4172132E-1,1.5029706E-1,8.056747E-2,-1.4633279E-1,-7.1489684E-2,3.6563214E-3,-1.5345863E-1,6.720241E-2,1.2062063E-1,-1.4409074E-1,1.0774841E-1,4.7634847E-2,-1.4519915E-1,1.7790517E-2,7.442932E-2,-1.5306686E-1,2.7170703E-2],"categories":[],"categories_nodes":[],"categories_segments":[],"categories_sizes":[],"default_left":[0,0,0,0,0,0,0,0,0,0,0,0,0,0,0,0,0,0,0,0,0,0,0,0,0,0,0,0,0,0,0,0,0,0,0,0,0,0,0,0,0,0,0,0,0,0,0,0,0,0,0,0,0,0,0,0,0,0,0,0,0,0,0,0,0,0,0,0,0,0,0],"id":21,"left_children":[1,3,5,7,9,11,13,15,-1,17,19,21,23,25,27,29,-1,31,-1,33,35,37,39,-1,41,-1,43,45,-1,47,49,-1,51,53,55,57,59,61,63,-1,65,-1,-1,-1,-1,67,69,-1,-1,-1,-1,-1,-1,-1,-1,-1,-1,-1,-1,-1,-1,-1,-1,-1,-1,-1,-1,-1,-1,-1,-1],"loss_changes":[5.860862E1,5.1633957E1,2.4753342E1,1.6140514E1,3.307789E1,2.2053215E1,3.7647655E1,2.3938288E1,0E0,5.0095673E1,4.1973328E1,3.9421524E1,1.8660583E0,9.256575E0,1.392683E1,1.5533485E1,0E0,1.298115E1,0E0,3.855299E1,3.774633E1,3.4720154E0,3.267848E1,0E0,2.466489E1,0E0,2.1742989E1,8.566888E0,0E0,1.9064339E1,1.7535439E0,0E0,1.6020784E1,4.9673794E1,2.2856216E0,8.132759E0,2.1281775E1,3.645832E0,4.139848E1,0E0,1.6773756E1,0E0,0E0,0E0,0E0,6.6216364E0,3.11804E1,0E0,0E0,0E0,0E0,0E0,0E0,0E0,0E0,0E0,0E0,0E0,0E0,0E0,0E0,0E0,0E0,0E0,0E0,0E0,0E0,0E0,0E0,0E0,0E0],"parents":[2147483647,0,0,1,1,2,2,3,3,4,4,5,5,6,6,7,7,9,9,10,10,11,11,12,12,13,13,14,14,15,15,17,17,19,19,20,20,21,21,22,22,24,24,26,26,27,27,29,29,30,30,32,32,33,33,34,34,35,35,36,36,37,37,38,38,40,40,45,45,46,46],"right_children":[2,4,6,8,10,12,14,16,-1,18,20,22,24,26,28,30,-1,32,-1,34,36,38,40,-1,42,-1,44,46,-1,48,50,-1,52,54,56,58,60,62,64,-1,66,-1,-1,-1,-1,68,70,-1,-1,-1,-1,-1,-1,-1,-1,-1,-1,-1,-1,-1,-1,-1,-1,-1,-1,-1,-1,-1,-1,-1,-1],"split_conditions":[7.3559994E-1,-8.7638146E-1,1.0277447E0,-8.969654E-1,-3.8192868E-1,9.5096046E-1,1.2155843E0,-9.372794E-1,1.3597198E-1,-4.417597E-1,4.381117E-1,8.2114923E-1,9.859445E-1,1.1375312E0,2.5548947E0,-9.85097E-1,-1.3566323E-1,-8.320007E-1,-1.6565047E-1,4.229781E-1,5.7621014E-1,7.840266E-1,8.876772E-1,1.2095151E-1,1.0040026E0,-1.4925851E-1,1.1629497E0,1.5501943E0,1.0119432E-1,-1.1787121E0,-9.671262E-1,-1.457616E-1,-5.897714E-1,3.6796722E-1,4.3053874E-1,5.035893E-1,7.1056783E-1,7.7483886E-1,8.083144E-1,-1.570339E-1,9.2314214E-1,-1.2527172E-1,1.19598866E-1,3.892032E-2,-1.5550779E-1,1.4410499E0,1.8179309E0,3.8680185E-2,-3.1615805E-2,1.0340786E-1,5.1535096E-2,7.6649844E-4,-5.061827E-2,7.511966E-3,-1.4172132E-1,1.5029706E-1,8.056747E-2,-1.4633279E-1,-7.1489684E-2,3.6563214E-3,-1.5345863E-1,6.720241E-2,1.2062063E-1,-1.4409074E-1,1.0774841E-1,4.7634847E-2,-1.4519915E-1,1.7790517E-2,7.442932E-2,-1.5306686E-1,2.7170703E-2],"split_indices":[0,0,0,0,0,0,0,0,0,0,0,0,0,0,0,0,0,0,0,0,0,0,0,0,0,0,0,0,0,0,0,0,0,0,0,0,0,0,0,0,0,0,0,0,0,0,0,0,0,0,0,0,0,0,0,0,0,0,0,0,0,0,0,0,0,0,0,0,0,0,0],"split_type":[0,0,0,0,0,0,0,0,0,0,0,0,0,0,0,0,0,0,0,0,0,0,0,0,0,0,0,0,0,0,0,0,0,0,0,0,0,0,0,0,0,0,0,0,0,0,0,0,0,0,0,0,0,0,0,0,0,0,0,0,0,0,0,0,0,0,0,0,0,0,0],"sum_hessian":[2.1526812E3,1.7224329E3,4.3024835E2,3.1607373E2,1.4063591E3,2.2297948E2,2.0726888E2,3.015589E2,1.4514842E1,2.825788E2,1.1237804E3,1.468833E2,7.6096176E1,3.3709118E1,1.7355975E2,2.941356E2,7.4233093E0,2.5532144E2,2.7257364E1,9.439694E2,1.7981093E2,9.870848E1,4.8174824E1,4.9415497E1,2.6680676E1,1.1463692E1,2.2245426E1,1.4778049E2,2.5779263E1,2.4945152E2,4.468406E1,7.6611996E0,2.4766025E2,9.141874E2,2.9782E1,6.74602E1,1.1235074E2,6.516319E1,3.3545288E1,1.3842999E1,3.4331825E1,4.091057E0,2.258962E1,1.3784373E1,8.461053E0,8.564504E1,6.213545E1,2.0282207E2,4.6629467E1,3.1012287E1,1.3671773E1,1.446374E2,1.0302284E2,8.9231445E2,2.1872953E1,1.4044442E1,1.5737557E1,2.731908E1,4.0141117E1,1.0396272E2,8.388016E0,3.87158E1,2.644739E1,7.6545033E0,2.5890783E1,3.0054504E1,4.277321E0,4.907637E1,3.6568672E1,1.07474165E1,5.138803E1],"tree_param":{"num_deleted":"0","num_feature":"2","num_nodes":"71","size_leaf_vector":"1"}},{"base_weights":[2.4612922E-2,-5.015942E-1,1.8343681E-1,-4.2782548E-1,-1.2692489E-1,3.6121063E-2,3.1300938E-1,-4.8995423E-1,1.2665577E-1,1.3848378E-1,-6.542549E-1,2.7642208E-1,7.1446925E-2,-3.9236864E-1,-1.4397874E-1,8.795244E-3,4.2987633E-1,-1.2983648E-1,-2.0392886E-1,3.049234E-1,-4.5940644E-1,-5.008965E-1,8.198457E-1,5.653936E-2,-2.1757737E-1,3.3412722E-1,7.4602924E-2,3.4162235E-1,-1.4207652E-1,5.600395E-1,2.3639667E-1,-1.7843692E-1,2.7105484E-2,-3.2712054E-2,-1.3425857E-1,4.619646E-2,1.1497366E-1,1.17935084E-1,1.270915E-3,3.9441574E-2,-1.3850364E-1,-5.371355E-3,9.15347E-2,4.505287E-2,7.967482E-2,-1.47303315E-2,3.6916498E-2],"categories":[],"categories_nodes":[],"categories_segments":[],"categories_sizes":[],"default_left":[0,0,0,0,0,0,0,0,0,0,0,0,0,0,0,0,0,0,0,0,0,0,0,0,0,0,0,0,0,0,0,0,0,0,0,0,0,0,0,0,0,0,0,0,0,0,0],"id":22,"left_children":[1,3,5,7,-1,9,11,13,-1,15,17,19,-1,21,-1,23,25,-1,27,29,31,33,35,37,-1,39,-1,41,-1,43,45,-1,-1,-1,-1,-1,-1,-1,-1,-1,-1,-1,-1,-1,-1,-1,-1],"loss_changes":[1.7576878E2,2.6897675E1,3.0797398E1,4.7540535E1,0E0,5.358105E1,1.2323776E1,3.924167E1,0E0,2.492294E1,2.7976044E1,1.6677994E1,0E0,5.2043316E1,0E0,4.773451E1,5.7954025E0,0E0,3.9682693E1,1.3085045E1,2.9380356E1,5.2215645E1,3.1533432E0,2.1998365E1,0E0,1.682928E1,0E0,9.526607E0,0E0,3.664051E0,3.0723816E1,0E0,0E0,0E0,0E0,0E0,0E0,0E0,0E0,0E0,0E0,0E0,0E0,0E0,0E0,0E0,0E0],"parents":[2147483647,0,0,1,1,2,2,3,3,5,5,6,6,7,7,9,9,10,10,11,11,13,13,15,15,16,16,18,18,19,19,20,20,21,21,22,22,23,23,25,25,27,27,29,29,30,30],"right_children":[2,4,6,8,-1,10,12,14,-1,16,18,20,-1,22,-1,24,26,-1,28,30,32,34,36,38,-1,40,-1,42,-1,44,46,-1,-1,-1,-1,-1,-1,-1,-1,-1,-1,-1,-1,-1,-1,-1,-1],"split_conditions":[2.8453171E-3,2.7028557E-3,4.232388E-3,2.6901006E-3,-1.2692489E-1,3.8075428E-3,8.759189E-3,2.5782273E-3,1.2665577E-1,3.566012E-3,4.0205456E-3,7.6691466E-3,7.1446925E-2,2.5528711E-3,-1.4397874E-1,3.5316108E-3,3.7556551E-3,-1.2983648E-1,4.1106245E-3,4.481073E-3,8.385598E-3,2.3485566E-3,2.5643997E-3,2.8604239E-3,-2.1757737E-1,3.7360622E-3,7.4602924E-2,4.088588E-3,-1.4207652E-1,4.432493E-3,4.9094753E-3,-1.7843692E-1,2.7105484E-2,-3.2712054E-2,-1.3425857E-1,4.619646E-2,1.1497366E-1,1.17935084E-1,1.270915E-3,3.9441574E-2,-1.3850364E-1,-5.371355E-3,9.15347E-2,4.505287E-2,7.967482E-2,-1.47303315E-2,3.6916498E-2],"split_indices":[1,1,1,1,0,1,1,1,0,1,1,1,0,1,0,1,1,0,1,1,1,1,1,1,0,1,0,1,0,1,1,0,0,0,0,0,0,0,0,0,0,0,0,0,0,0,0],"split_type":[0,0,0,0,0,0,0,0,0,0,0,0,0,0,0,0,0,0,0,0,0,0,0,0,0,0,0,0,0,0,0,0,0,0,0,0,0,0,0,0,0,0,0,0,0,0,0],"sum_hessian":[2.1014248E3,4.865673E2,1.6148574E3,4.4544894E2,4.1118366E1,7.566477E2,8.582097E2,4.304358E2,1.501314E1,6.597676E2,9.688011E1,7.883047E2,6.990502E1,3.9171E2,3.8725807E1,4.575165E2,2.0225107E2,3.89969E1,5.7883217E1,7.59604E2,2.8700712E1,3.6013672E2,3.157326E1,4.4872934E2,8.78716E0,1.5705807E2,4.5192986E1,4.0405197E1,1.7478022E1,1.5900752E2,6.005965E2,9.735631E0,1.896508E1,2.997562E2,6.0380524E1,1.6440893E1,1.5132365E1,1.57995205E1,4.329298E2,1.5253755E2,4.520522E0,2.4354998E1,1.6050198E1,1.1098651E2,4.8021008E1,1.5417336E2,4.4642313E2],"tree_param":{"num_deleted":"0","num_feature":"2","num_nodes":"47","size_leaf_vector":"1"}},{"base_weights":[3.924095E-2,2.7916748E-2,9.435558E-2,-8.295268E-2,8.2201965E-2,-1.5407515E-2,-1.5907536E-1,1.1174376E0,5.134043E-2,-7.460671E-2,6.4565337E-1,1.345203E-1,6.0546428E-2,-8.6351144E-1,7.277756E-2,1.05936974E-1,-6.5405303E-1,4.7493216E-1,1.0266074E-1,3.436657E-2,-1.6412996E-1,8.327075E-2,4.895837E-2,-2.1897058E-3,4.729935E-2,-5.5085897E-2,-1.5760729E-1,7.2833635E-2,-1.2498321E-1,-1.646616E-1,6.6615962E-3],"categories":[],"categories_nodes":[],"categories_segments":[],"categories_sizes":[],"default_left":[0,0,0,0,0,0,0,0,0,0,0,0,0,0,0,0,0,0,0,0,0,0,0,0,0,0,0,0,0,0,0],"id":23,"left_children":[1,3,-1,5,7,9,-1,11,13,15,17,-1,-1,19,21,23,25,27,-1,-1,-1,-1,29,-1,-1,-1,-1,-1,-1,-1,-1],"loss_changes":[2.120394E1,1.2393014E1,0E0,6.8697075E1,4.4000393E1,2.53665E1,0E0,3.6412773E0,2.6337702E1,6.2491642E1,2.8260975E0,0E0,0E0,2.9554495E1,2.3656425E1,2.1417564E1,1.2420006E1,1.7824844E1,0E0,0E0,0E0,0E0,3.8133747E1,0E0,0E0,0E0,0E0,0E0,0E0,0E0,0E0],"parents":[2147483647,0,0,1,1,3,3,4,4,5,5,7,7,8,8,9,9,10,10,13,13,14,14,15,15,16,16,17,17,22,22],"right_children":[2,4,-1,6,8,10,-1,12,14,16,18,-1,-1,20,22,24,26,28,-1,-1,-1,-1,30,-1,-1,-1,-1,-1,-1,-1,-1],"split_conditions":[2.5548947E0,-2.5863433E-1,9.435558E-2,-3.1753588E-1,-2.4232976E-1,-3.516511E-1,-1.5907536E-1,-2.5252542E-1,-2.0554483E-1,-5.683987E-1,-3.26339E-1,1.345203E-1,6.0546428E-2,-2.3717648E-1,-1.8489833E-1,-7.024094E-1,-3.716235E-1,-3.3412918E-1,1.0266074E-1,3.436657E-2,-1.6412996E-1,8.327075E-2,-1.6692196E-1,-2.1897058E-3,4.729935E-2,-5.5085897E-2,-1.5760729E-1,7.2833635E-2,-1.2498321E-1,-1.646616E-1,6.6615962E-3],"split_indices":[0,0,0,0,0,0,0,0,0,0,0,0,0,0,0,0,0,0,0,0,0,0,0,0,0,0,0,0,0,0,0],"split_type":[0,0,0,0,0,0,0,0,0,0,0,0,0,0,0,0,0,0,0,0,0,0,0,0,0,0,0,0,0,0,0],"sum_hessian":[2.0816257E3,2.0570085E3,2.461725E1,6.7534576E2,1.3816628E3,6.4741974E2,2.792601E1,3.8883564E1,1.3427793E3,5.9516046E2,5.2259277E1,2.5649754E1,1.3233809E1,2.9737896E1,1.3130414E3,4.5426523E2,1.4089522E2,3.781984E1,1.443944E1,1.1820813E1,1.7917082E1,3.874543E1,1.2742959E3,3.3742044E2,1.1684482E2,1.2824745E2,1.2647763E1,3.3529366E1,4.2904725E0,1.2124477E1,1.2621714E3],"tree_param":{"num_deleted":"0","num_feature":"2","num_nodes":"31","size_leaf_vector":"1"}},{"base_weights":[5.824935E-2,6.594807E-1,3.900124E-2,8.587355E-2,4.5751333E-1,-5.785013E-1,5.5374864E-2,8.344442E-3,6.502179E-2,-3.0601257E-1,-1.7590605E-1,3.7312347E-1,2.2453476E-2,-1.673675E-1,-1.0662092E-1,3.0434254E-1,1.0721489E-1,-3.7158486E-1,9.050824E-2,3.7732113E-2,-3.4381217E-1,3.7483898E-1,-1.3237022E-1,-2.5103146E-1,-1.494214E-1,1.2797575E-1,7.028521E-2,-1.4940444E-1,-9.169772E-3,2.2664882E-2,7.734637E-2,-6.8982914E-2,-8.638405E-3,-1.4794345E-1,8.270019E-3],"categories":[],"categories_nodes":[],"categories_segments":[],"categories_sizes":[],"default_left":[0,0,0,0,0,0,0,0,0,0,0,0,0,0,0,0,0,0,0,0,0,0,0,0,0,0,0,0,0,0,0,0,0,0,0],"id":24,"left_children":[1,3,5,-1,7,9,11,-1,-1,13,-1,15,17,-1,19,21,-1,23,25,-1,27,29,-1,31,-1,-1,33,-1,-1,-1,-1,-1,-1,-1,-1],"loss_changes":[2.4366837E1,2.10536E0,2.070148E1,0E0,2.3840637E0,1.6262753E1,2.084849E1,0E0,0E0,1.170626E1,0E0,8.536024E0,4.8580864E1,0E0,4.68776E0,2.0135883E1,0E0,3.5552303E1,3.6948574E1,0E0,7.629683E0,9.509926E0,0E0,1.7358875E1,0E0,0E0,2.9245533E1,0E0,0E0,0E0,0E0,0E0,0E0,0E0,0E0],"parents":[2147483647,0,0,1,1,2,2,4,4,5,5,6,6,9,9,11,11,12,12,14,14,15,15,17,17,18,18,20,20,21,21,23,23,26,26],"right_children":[2,4,6,-1,8,10,12,-1,-1,14,-1,16,18,-1,20,22,-1,24,26,-1,28,30,-1,32,-1,-1,34,-1,-1,-1,-1,-1,-1,-1,-1],"split_conditions":[-2.1928964E0,-2.7232838E0,-1.512598E0,8.587355E-2,-2.4098105E0,-1.7323598E0,-8.7638146E-1,8.344442E-3,6.502179E-2,-2.0487194E0,-1.7590605E-1,-8.969654E-1,-3.8192868E-1,-1.673675E-1,-1.9327955E0,-9.372794E-1,1.0721489E-1,-4.417597E-1,-3.716235E-1,3.7732113E-2,-1.8870103E0,-9.85097E-1,-1.3237022E-1,-7.024094E-1,-1.494214E-1,1.2797575E-1,-3.516511E-1,-1.4940444E-1,-9.169772E-3,2.2664882E-2,7.734637E-2,-6.8982914E-2,-8.638405E-3,-1.4794345E-1,8.270019E-3],"split_indices":[0,0,0,0,0,0,0,0,0,0,0,0,0,0,0,0,0,0,0,0,0,0,0,0,0,0,0,0,0,0,0,0,0,0,0],"split_type":[0,0,0,0,0,0,0,0,0,0,0,0,0,0,0,0,0,0,0,0,0,0,0,0,0,0,0,0,0,0,0,0,0,0,0],"sum_hessian":[2.1128271E3,6.434974E1,2.0484773E3,3.0506239E1,3.3843502E1,5.1869545E1,1.9966079E3,1.2170551E1,2.1672949E1,4.323439E1,8.635156E0,1.8618903E2,1.8104188E3,4.496522E0,3.8737865E1,1.7094705E2,1.5241974E1,2.6575616E2,1.5446627E3,1.2408459E1,2.6329409E1,1.6464873E2,6.2983184E0,2.4117075E2,2.458541E1,2.4703516E1,1.5199591E3,3.776594E0,2.2552814E1,1.2135428E2,4.329445E1,6.476638E1,1.7640437E2,1.1076665E1,1.5088824E3],"tree_param":{"num_deleted":"0","num_feature":"2","num_nodes":"35","size_leaf_vector":"1"}},{"base_weights":[3.626108E-2,-1.2267091E-1,1.13879696E-1,-6.895316E-2,3.3820304E-1,1.4119509E-1,-1.0786142E-1,6.208668E-1,3.0191883E-1,-1.2696676E-1,-7.8416064E-2,7.4576266E-2,5.546339E-1,-9.362165E-3,3.56555E-1,1.0578374E-1,-1.1428944E-1,3.3161703E-2,6.07893E-1,7.238954E-2,-1.5550058E-1,7.2283953E-1,2.968664E-1,-1.2411886E-1,-5.871709E-3,6.593572E-2,4.360382E-2,3.603371E-2,-1.7960688E-2,8.118705E-2,6.1595816E-2,-1.5026502E-1,3.1551074E-2],"categories":[],"categories_nodes":[],"categories_segments":[],"categories_sizes":[],"default_left":[0,0,0,0,0,0,0,0,0,0,0,0,0,0,0,0,0,0,0,0,0,0,0,0,0,0,0,0,0,0,0,0,0],"id":25,"left_children":[1,-1,3,5,7,-1,9,11,13,-1,15,-1,17,19,21,-1,23,-1,25,27,-1,29,31,-1,-1,-1,-1,-1,-1,-1,-1,-1,-1],"loss_changes":[2.0503189E2,0E0,8.089402E1,6.2630478E1,8.802704E0,0E0,3.602002E1,2.792778E-1,1.3423927E1,0E0,4.220304E1,0E0,5.291672E-1,1.5199115E1,1.4328384E1,0E0,6.2674583E1,0E0,8.485222E-2,8.29506E0,0E0,2.4143219E-1,1.9745056E1,0E0,0E0,0E0,0E0,0E0,0E0,0E0,0E0,0E0,0E0],"parents":[2147483647,0,0,2,2,3,3,4,4,6,6,7,7,8,8,10,10,12,12,13,13,14,14,16,16,18,18,19,19,21,21,22,22],"right_children":[2,-1,4,6,8,-1,10,12,14,-1,16,-1,18,20,22,-1,24,-1,26,28,-1,30,32,-1,-1,-1,-1,-1,-1,-1,-1,-1,-1],"split_conditions":[2.01134E-3,-1.2267091E-1,4.232388E-3,2.0226098E-3,4.385412E-3,1.4119509E-1,2.1042153E-3,4.2578396E-3,4.6300506E-3,-1.2696676E-1,2.128602E-3,7.4576266E-2,4.3024146E-3,4.60966E-3,4.763653E-3,1.0578374E-1,2.3342366E-3,3.3161703E-2,4.3585943E-3,4.4620195E-3,-1.5550058E-1,4.678984E-3,4.80045E-3,-1.2411886E-1,-5.871709E-3,6.593572E-2,4.360382E-2,3.603371E-2,-1.7960688E-2,8.118705E-2,6.1595816E-2,-1.5026502E-1,3.1551074E-2],"split_indices":[1,0,1,1,1,0,1,1,1,0,1,0,1,1,1,0,1,0,1,1,0,1,1,0,0,0,0,0,0,0,0,0,0],"split_type":[0,0,0,0,0,0,0,0,0,0,0,0,0,0,0,0,0,0,0,0,0,0,0,0,0,0,0,0,0,0,0,0,0],"sum_hessian":[2.0902322E3,1.2009038E2,1.9701417E3,1.0855887E3,8.8455304E2,2.682261E1,1.0587661E3,9.848234E1,7.860707E2,2.5045528E1,1.0337206E3,3.0049034E1,6.8433304E1,1.17220985E2,6.6884973E2,3.0680195E1,1.0030404E3,1.4947263E1,5.348604E1,1.1217626E2,5.0447245E0,9.192966E1,5.7692004E2,4.605244E1,9.569879E2,3.8529312E1,1.4956729E1,5.2338165E1,5.9838093E1,4.604397E1,4.5885693E1,5.044811E0,5.7187524E2],"tree_param":{"num_deleted":"0","num_feature":"2","num_nodes":"33","size_leaf_vector":"1"}},{"base_weights":[-4.3327804E-3,-3.3013943E-1,1.030927E-1,-1.767013E-1,-1.2877366E-1,6.1190887E-3,3.0332997E-1,-4.0492702E-1,1.8326965E-1,3.3586472E-2,-8.940426E-1,5.9035486E-1,2.4244356E-1,-2.4217483E-1,-1.2052435E-1,1.136327E-1,-1.3256697E-2,1.1551936E-1,1.4062623E-2,-1.985187E-1,1.2898005E-2,3.692327E-1,8.699128E-2,-3.653606E-2,4.0624142E-1,-4.4572252E-1,9.460105E-2,-5.726461E-1,4.266265E-1,-1.2349901E-1,2.4830595E-2,6.514824E-2,-1.6937207E-1,2.3846772E-1,-2.902597E-1,6.964098E-2,3.6831698E-1,-3.2038834E-2,-1.2360712E-1,1.1380147E-2,-1.20222844E-1,9.748005E-2,2.6491243E-2,9.011539E-2,8.3071506E-4,-6.0393162E-2,5.1975854E-2,-1.8012567E-1,7.4187503E-3,-2.7019689E-2,4.024829E-2],"categories":[],"categories_nodes":[],"categories_segments":[],"categories_sizes":[],"default_left":[0,0,0,0,0,0,0,0,0,0,0,0,0,0,0,0,0,0,0,0,0,0,0,0,0,0,0,0,0,0,0,0,0,0,0,0,0,0,0,0,0,0,0,0,0,0,0,0,0,0,0],"id":26,"left_children":[1,3,5,7,-1,9,11,13,15,17,19,21,23,25,-1,-1,27,-1,29,-1,-1,31,-1,33,35,37,-1,39,41,-1,43,-1,-1,45,47,-1,49,-1,-1,-1,-1,-1,-1,-1,-1,-1,-1,-1,-1,-1,-1],"loss_changes":[6.9102776E1,7.156928E1,2.878526E1,3.4869576E1,0E0,2.4699574E1,8.229782E0,3.3366177E1,3.0985046E1,2.1166191E1,3.3455486E1,4.7287235E0,1.8384235E1,5.285718E1,0E0,0E0,3.4089554E1,0E0,1.278265E1,0E0,0E0,2.9338099E1,0E0,1.0477925E1,2.4220238E0,1.7875736E1,0E0,2.6629465E1,6.4824066E0,0E0,1.3657397E1,0E0,0E0,1.7345203E1,4.3364582E1,0E0,5.0577736E0,0E0,0E0,0E0,0E0,0E0,0E0,0E0,0E0,0E0,0E0,0E0,0E0,0E0,0E0],"parents":[2147483647,0,0,1,1,2,2,3,3,5,5,6,6,7,7,8,8,9,9,10,10,11,11,12,12,13,13,16,16,18,18,21,21,23,23,24,24,25,25,27,27,28,28,30,30,33,33,34,34,36,36],"right_children":[2,4,6,8,-1,10,12,14,16,18,20,22,24,26,-1,-1,28,-1,30,-1,-1,32,-1,34,36,38,-1,40,42,-1,44,-1,-1,46,48,-1,50,-1,-1,-1,-1,-1,-1,-1,-1,-1,-1,-1,-1,-1,-1],"split_conditions":[2.8453171E-3,2.6166188E-3,5.000309E-3,2.3342366E-3,-1.2877366E-1,4.8291846E-3,5.1872325E-3,2.128602E-3,2.3485566E-3,2.8604239E-3,4.946054E-3,5.13581E-3,6.2219347E-3,2.1042153E-3,-1.2052435E-1,1.136327E-1,2.5241105E-3,1.1551936E-1,2.8866741E-3,-1.985187E-1,1.2898005E-2,5.0902637E-3,8.699128E-2,5.506439E-3,6.3458765E-3,2.0226098E-3,9.460105E-2,2.4169157E-3,2.5399034E-3,-1.2349901E-1,2.8999862E-3,6.514824E-2,-1.6937207E-1,5.3197844E-3,5.7586334E-3,6.964098E-2,6.4537236E-3,-3.2038834E-2,-1.2360712E-1,1.1380147E-2,-1.20222844E-1,9.748005E-2,2.6491243E-2,9.011539E-2,8.3071506E-4,-6.0393162E-2,5.1975854E-2,-1.8012567E-1,7.4187503E-3,-2.7019689E-2,4.024829E-2],"split_indices":[1,1,1,1,0,1,1,1,1,1,1,1,1,1,0,0,1,0,1,0,0,1,0,1,1,1,0,1,1,0,1,0,0,1,1,0,1,0,0,0,0,0,0,0,0,0,0,0,0,0,0],"split_type":[0,0,0,0,0,0,0,0,0,0,0,0,0,0,0,0,0,0,0,0,0,0,0,0,0,0,0,0,0,0,0,0,0,0,0,0,0,0,0,0,0,0,0,0,0,0,0,0,0,0,0],"sum_hessian":[1.9717473E3,4.8863687E2,1.4831105E3,4.2226523E2,6.6371635E1,1.00023376E3,4.8287674E2,2.5851602E2,1.637492E2,9.716585E2,2.8575243E1,8.269683E1,4.001799E2,2.1601485E2,4.2501186E1,2.7263113E1,1.3648608E2,1.5541462E1,9.56117E2,1.341945E1,1.5155793E1,4.7669853E1,3.502698E1,1.4810118E2,2.5207872E2,1.8502696E2,3.0987885E1,6.004886E1,7.643723E1,7.121029E0,9.4899603E2,4.257719E1,5.0926642E0,7.0909935E1,7.7191246E1,2.6826124E1,2.252526E2,1.610236E2,2.4003363E1,2.9043018E1,3.1005838E1,1.6126331E1,6.0310898E1,1.6459768E1,9.3253625E2,1.7374605E1,5.3535328E1,1.4287455E1,6.290379E1,1.0941216E1,2.1431139E2],"tree_param":{"num_deleted":"0","num_feature":"2","num_nodes":"51","size_leaf_vector":"1"}},{"base_weights":[1.5934063E-2,-2.364234E-1,1.3778113E-1,-1.589887E-1,-8.6480826E-1,7.792591E-1,1.16498575E-1,-6.3079345E-1,-2.234616E-2,-1.483138E-1,-3.9718625E-1,9.0481944E-2,5.1065225E-2,-4.9041556E-3,2.5398457E-1,-4.3165007E-1,-1.1456355E-1,1.269645E-1,-1.0739524E-1,1.0341308E-1,-1.2919812E-1,6.442495E-2,-5.798239E-1,6.591478E-1,2.203488E-1,-6.413899E-1,6.520938E-2,-1.1966997E-1,-4.4339444E-2,-4.1949665E-3,4.0731296E-1,-2.2257046E-1,-3.123377E-1,4.8563115E-2,7.8107975E-2,-2.0523398E-1,2.4788924E-1,-1.6503712E-2,-1.1160364E-1,7.686469E-2,-1.1644885E-2,4.39823E-3,-1.3579716E-1,2.092815E-2,4.5287218E-2,4.2818915E-2,-5.5307884E-2,1.4087871E-2,3.8254656E-2],"categories":[],"categories_nodes":[],"categories_segments":[],"categories_sizes":[],"default_left":[0,0,0,0,0,0,0,0,0,0,0,0,0,0,0,0,0,0,0,0,0,0,0,0,0,0,0,0,0,0,0,0,0,0,0,0,0,0,0,0,0,0,0,0,0,0,0,0,0],"id":27,"left_children":[1,3,5,7,9,11,13,15,17,-1,19,-1,-1,21,23,25,-1,-1,27,-1,-1,29,31,33,35,37,-1,-1,39,41,43,-1,45,-1,-1,-1,47,-1,-1,-1,-1,-1,-1,-1,-1,-1,-1,-1,-1],"loss_changes":[6.2153984E1,3.1779518E1,1.8435293E1,3.7777412E1,1.9990936E1,8.621464E-1,2.207678E1,1.2847824E1,5.018601E1,0E0,5.5607048E1,0E0,0E0,2.8076788E1,8.215023E0,2.2395578E1,0E0,0E0,2.9312767E1,0E0,0E0,1.4803141E1,3.243003E1,4.8394012E-1,3.626342E1,1.8136116E1,0E0,0E0,2.3882513E1,3.4334E1,7.8513336E-1,0E0,1.2092931E1,0E0,0E0,0E0,8.081234E0,0E0,0E0,0E0,0E0,0E0,0E0,0E0,0E0,0E0,0E0,0E0,0E0],"parents":[2147483647,0,0,1,1,2,2,3,3,4,4,5,5,6,6,7,7,8,8,10,10,13,13,14,14,15,15,18,18,21,21,22,22,23,23,24,24,25,25,28,28,29,29,30,30,32,32,36,36],"right_children":[2,4,6,8,10,12,14,16,18,-1,20,-1,-1,22,24,26,-1,-1,28,-1,-1,30,32,34,36,38,-1,-1,40,42,44,-1,46,-1,-1,-1,48,-1,-1,-1,-1,-1,-1,-1,-1,-1,-1,-1,-1],"split_conditions":[3.16531E-3,2.957602E-3,3.1881907E-3,2.01134E-3,3.0568321E-3,3.1769613E-3,4.6300506E-3,1.7633189E-3,2.0226098E-3,-1.483138E-1,3.0679596E-3,9.0481944E-2,5.1065225E-2,4.4107186E-3,4.678984E-3,1.7370806E-3,-1.1456355E-1,1.269645E-1,2.1042153E-3,1.0341308E-1,-1.2919812E-1,4.232388E-3,4.4620195E-3,4.6507483E-3,4.7070906E-3,1.2475161E-3,6.520938E-2,-1.1966997E-1,2.128602E-3,4.1106245E-3,4.2578396E-3,-2.2257046E-1,4.481073E-3,4.8563115E-2,7.8107975E-2,-2.0523398E-1,6.2219347E-3,-1.6503712E-2,-1.1160364E-1,7.686469E-2,-1.1644885E-2,4.39823E-3,-1.3579716E-1,2.092815E-2,4.5287218E-2,4.2818915E-2,-5.5307884E-2,1.4087871E-2,3.8254656E-2],"split_indices":[1,1,1,1,1,1,1,1,1,0,1,0,0,1,1,1,0,0,1,0,0,1,1,1,1,1,0,0,1,1,1,0,1,0,0,0,1,0,0,0,0,0,0,0,0,0,0,0,0],"split_type":[0,0,0,0,0,0,0,0,0,0,0,0,0,0,0,0,0,0,0,0,0,0,0,0,0,0,0,0,0,0,0,0,0,0,0,0,0,0,0,0,0,0,0,0,0,0,0,0,0],"sum_hessian":[2.0195939E3,6.570392E2,1.3625548E3,5.862133E2,7.082583E1,4.2459793E1,1.320095E3,1.3067282E2,4.555405E2,2.9471107E1,4.135472E1,2.7066635E1,1.539316E1,7.011783E2,6.189167E2,9.569153E1,3.4981297E1,2.7202332E1,4.2833817E2,1.5805199E1,2.5549522E1,6.2636005E2,7.4818245E1,4.578915E1,5.731275E2,8.059434E1,1.5097194E1,2.2367622E1,4.0597055E2,5.224931E2,1.0386697E2,9.383788E0,6.5434456E1,2.12921E1,2.449705E1,5.9382706E0,5.671893E2,4.1002663E1,3.9591675E1,3.2174774E1,3.7379578E2,5.0540088E2,1.7092215E1,2.0883125E1,8.298384E1,1.5760543E1,4.9673916E1,3.1759177E2,2.4959749E2],"tree_param":{"num_deleted":"0","num_feature":"2","num_nodes":"49","size_leaf_vector":"1"}},{"base_weights":[6.9604956E-2,2.3862466E-2,2.7031478E-1,8.47032E-2,-3.7772045E-1,5.6069416E-1,-1.2077878E-2,7.281578E-2,8.72428E-2,-8.7042123E-1,4.43208E-2,4.4584766E-1,9.221628E-1,-1.4325096E-1,7.368727E-2,8.260087E-2,-1.5231316E-1,-1.4615017E-1,-6.5873224E-1,4.6100977E-1,-9.9972206E-1,7.7274036E-1,6.8421535E-2,1.0695926E-1,6.4885914E-1,-2.9930815E-2,7.245038E-2,2.307279E-1,2.4210358E-2,6.4873934E-2,-1.0070155E0,-1.3757221E-1,7.0832926E-1,-1.4231068E-1,1.10364435E-2,6.069134E-1,1.0705366E-1,-1.3443898E-1,2.954438E-1,-1.2441409E-1,1.1381852E-1,2.7459096E-2,-4.3030226E-1,1.1091554E-2,9.897616E-2,-1.5710406E-1,5.262596E-3,-1.462575E-1,-6.513641E-2,8.3741695E-2,-1.4505848E-1,8.1371754E-2,4.238946E-2,8.9365825E-2,-1.3534844E-1,5.3527903E-2,-4.063191E-2,-9.080977E-3,3.9891064E-2,-1.9179893E-1,1.4896761E-2],"categories":[],"categories_nodes":[],"categories_segments":[],"categories_sizes":[],"default_left":[0,0,0,0,0,0,0,0,0,0,0,0,0,0,0,0,0,0,0,0,0,0,0,0,0,0,0,0,0,0,0,0,0,0,0,0,0,0,0,0,0,0,0,0,0,0,0,0,0,0,0,0,0,0,0,0,0,0,0,0,0],"id":28,"left_children":[1,3,5,7,9,11,13,15,-1,17,19,21,23,-1,25,27,-1,-1,29,31,33,35,37,-1,39,41,-1,43,45,-1,47,49,51,-1,-1,53,-1,-1,55,-1,-1,57,59,-1,-1,-1,-1,-1,-1,-1,-1,-1,-1,-1,-1,-1,-1,-1,-1,-1,-1],"loss_changes":[1.8685535E1,4.0614113E1,3.1055727E1,1.3368479E1,4.5589134E1,7.1962395E0,2.3683407E1,2.2223759E1,0E0,1.1468163E1,5.201024E1,1.7594065E1,9.003105E-1,0E0,1.2388384E1,1.2221356E1,0E0,0E0,3.5453255E1,1.2816919E1,1.6307526E1,2.9737968E0,2.2083433E1,0E0,1.8207989E1,3.6856284E0,0E0,3.6149986E1,4.606185E1,0E0,8.676472E0,3.4210793E1,1.354044E0,0E0,0E0,3.0303465E1,0E0,0E0,1.0230425E1,0E0,0E0,6.174856E0,1.7787724E1,0E0,0E0,0E0,0E0,0E0,0E0,0E0,0E0,0E0,0E0,0E0,0E0,0E0,0E0,0E0,0E0,0E0,0E0],"parents":[2147483647,0,0,1,1,2,2,3,3,4,4,5,5,6,6,7,7,9,9,10,10,11,11,12,12,14,14,15,15,18,18,19,19,20,20,21,21,22,22,24,24,25,25,27,27,28,28,30,30,31,31,32,32,35,35,38,38,41,41,42,42],"right_children":[2,4,6,8,10,12,14,16,-1,18,20,22,24,-1,26,28,-1,-1,30,32,34,36,38,-1,40,42,-1,44,46,-1,48,50,52,-1,-1,54,-1,-1,56,-1,-1,58,60,-1,-1,-1,-1,-1,-1,-1,-1,-1,-1,-1,-1,-1,-1,-1,-1,-1,-1],"split_conditions":[7.520756E-1,3.6796722E-1,1.0277447E0,3.610055E-1,5.7621014E-1,9.6765006E-1,1.1375312E0,3.414055E-1,8.72428E-2,4.3053874E-1,6.5329427E-1,8.2114923E-1,9.859445E-1,-1.4325096E-1,2.5548947E0,-6.786949E-1,-1.5231316E-1,-1.4615017E-1,4.381117E-1,6.0455114E-1,7.3559994E-1,8.083144E-1,8.6586356E-1,1.0695926E-1,1.0040026E0,2.2331913E0,7.245038E-2,-7.1229875E-1,-6.2618756E-1,6.4873934E-2,5.035893E-1,5.828159E-1,6.352527E-1,-1.4231068E-1,1.10364435E-2,7.840266E-1,1.0705366E-1,-1.3443898E-1,9.2314214E-1,-1.2441409E-1,1.1381852E-1,1.8179309E0,2.3571877E0,1.1091554E-2,9.897616E-2,-1.5710406E-1,5.262596E-3,-1.462575E-1,-6.513641E-2,8.3741695E-2,-1.4505848E-1,8.1371754E-2,4.238946E-2,8.9365825E-2,-1.3534844E-1,5.3527903E-2,-4.063191E-2,-9.080977E-3,3.9891064E-2,-1.9179893E-1,1.4896761E-2],"split_indices":[0,0,0,0,0,0,0,0,0,0,0,0,0,0,0,0,0,0,0,0,0,0,0,0,0,0,0,0,0,0,0,0,0,0,0,0,0,0,0,0,0,0,0,0,0,0,0,0,0,0,0,0,0,0,0,0,0,0,0,0,0],"split_type":[0,0,0,0,0,0,0,0,0,0,0,0,0,0,0,0,0,0,0,0,0,0,0,0,0,0,0,0,0,0,0,0,0,0,0,0,0,0,0,0,0,0,0,0,0,0,0,0,0,0,0,0,0,0,0,0,0,0,0,0,0],"sum_hessian":[2.0381539E3,1.6611818E3,3.7697217E2,1.4435228E3,2.1765895E2,1.8554655E2,1.9142561E2,1.423264E3,2.0258846E1,1.0004205E2,1.176169E2,1.4271346E2,4.28331E1,1.0072324E1,1.8135329E2,1.4155956E3,7.668412E0,2.4699482E1,7.534257E1,8.453305E1,3.3083847E1,7.577317E1,6.694028E1,2.5693592E1,1.713951E1,1.571357E2,2.4217602E1,3.9892502E2,1.01667053E3,1.5606234E1,5.9736336E1,2.472678E1,5.980627E1,2.3810627E1,9.273221E0,5.0837997E1,2.4935171E1,8.524991E0,5.8415287E1,3.1616125E0,1.3977896E1,1.3803165E2,1.910404E1,3.4564355E2,5.328146E1,1.6780956E1,9.998896E2,2.4701817E1,3.5034515E1,1.4354083E1,1.0372696E1,4.202342E1,1.778285E1,4.4870068E1,5.9679313E0,4.3819294E1,1.4595993E1,1.0506548E2,3.2966167E1,4.754659E0,1.43493805E1],"tree_param":{"num_deleted":"0","num_feature":"2","num_nodes":"61","size_leaf_vector":"1"}},{"base_weights":[-1.5825622E-2,-4.3660942E-1,1.1642457E-1,-2.8321734E-1,-9.66518E-1,8.174753E-2,6.498336E-2,-3.9093283E-1,7.0386636E-1,-1.2707059E-1,-4.368714E-1,7.21798E-1,5.30122E-2,-2.507142E-1,-1.3423431E-1,9.7946115E-2,4.4153413E-1,1.1675989E-1,-1.5390532E-1,4.8681995E-1,9.6250646E-2,-1.3069694E-1,6.222417E-2,-3.4871486E-1,1.4776401E-1,-1.0494619E-1,8.120216E-2,8.825017E-2,-1.4619015E-1,1.0569906E-1,4.9273867E-2,-1.2219465E-2,-6.861558E-2,-1.3116793E-1,6.7566307E-3],"categories":[],"categories_nodes":[],"categories_segments":[],"categories_sizes":[],"default_left":[0,0,0,0,0,0,0,0,0,0,0,0,0,0,0,0,0,0,0,0,0,0,0,0,0,0,0,0,0,0,0,0,0,0,0],"id":29,"left_children":[1,3,5,7,9,11,-1,13,15,-1,17,19,21,23,-1,-1,25,-1,-1,27,-1,-1,29,31,-1,-1,-1,-1,-1,-1,33,-1,-1,-1,-1],"loss_changes":[1.07374565E2,3.7109627E1,2.7019386E1,3.8458977E1,1.587323E1,2.5252514E1,0E0,4.2833176E1,2.0012856E0,0E0,7.120787E1,2.7255917E0,1.6509857E1,4.8573017E1,0E0,0E0,1.2020072E1,0E0,0E0,2.5988821E1,0E0,0E0,1.6757303E1,2.0473179E1,0E0,0E0,0E0,0E0,0E0,0E0,3.227009E1,0E0,0E0,0E0,0E0],"parents":[2147483647,0,0,1,1,2,2,3,3,4,4,5,5,7,7,8,8,10,10,11,11,12,12,13,13,16,16,19,19,22,22,23,23,30,30],"right_children":[2,4,6,8,10,12,-1,14,16,-1,18,20,22,24,-1,-1,26,-1,-1,28,-1,-1,30,32,-1,-1,-1,-1,-1,-1,34,-1,-1,-1,-1],"split_conditions":[2.9261548E-3,2.6043244E-3,8.385598E-3,2.5643997E-3,2.8453171E-3,2.957602E-3,6.498336E-2,2.4169157E-3,2.5782273E-3,-1.2707059E-1,2.8604239E-3,2.9469486E-3,2.9852227E-3,2.4065843E-3,-1.3423431E-1,9.7946115E-2,2.5896593E-3,1.1675989E-1,-1.5390532E-1,2.9362636E-3,9.6250646E-2,-1.3069694E-1,3.0007635E-3,2.0226098E-3,1.4776401E-1,-1.0494619E-1,8.120216E-2,8.825017E-2,-1.4619015E-1,1.0569906E-1,3.0568321E-3,-1.2219465E-2,-6.861558E-2,-1.3116793E-1,6.7566307E-3],"split_indices":[1,1,1,1,1,1,0,1,1,0,1,1,1,1,0,0,1,0,0,1,0,0,1,1,0,0,0,0,0,0,1,0,0,0,0],"split_type":[0,0,0,0,0,0,0,0,0,0,0,0,0,0,0,0,0,0,0,0,0,0,0,0,0,0,0,0,0,0,0,0,0,0,0],"sum_hessian":[1.9270171E3,4.6044913E2,1.466568E3,3.5842065E2,1.0202847E2,1.3783048E3,8.826317E1,3.237921E2,3.462854E1,6.379921E1,3.8229263E1,5.8034996E1,1.3202699E3,2.8339417E2,4.0397938E1,1.5368357E1,1.9260183E1,1.55063095E1,2.2722956E1,3.1106707E1,2.6928288E1,7.8619466E0,1.312408E3,2.6899765E2,1.4396529E1,3.4148471E0,1.5845336E1,2.6354053E1,4.7526526E0,1.5730649E1,1.2966772E3,1.619446E2,1.07053055E2,1.6187113E1,1.2804901E3],"tree_param":{"num_deleted":"0","num_feature":"2","num_nodes":"35","size_leaf_vector":"1"}},{"base_weights":[4.348739E-2,-2.3519069E-1,2.1697532E-1,-2.0510307E-1,-1.6712657E-1,1.8682498E-1,6.2042017E-2,-1.1147093E-1,-1.7227125E-1,2.0372081E-1,-1.7177825E-1,1.6175075E-1,-2.0941296E-1,3.8199458E-1,1.6463035E-1,-1.0978947E-1,-1.5984383E-1,7.9914175E-2,4.6427998E-1,-1.3884692E-1,1.7953715E-1,1.20954156E-1,-2.1692041E-2,4.754114E-2,-1.3975206E-1,7.827417E-2,4.046227E-2,7.608363E-2,1.681955E-2],"categories":[],"categories_nodes":[],"categories_segments":[],"categories_sizes":[],"default_left":[0,0,0,0,0,0,0,0,0,0,0,0,0,0,0,0,0,0,0,0,0,0,0,0,0,0,0,0,0],"id":30,"left_children":[1,3,5,7,-1,9,-1,-1,11,13,-1,-1,15,17,19,-1,21,23,25,-1,27,-1,-1,-1,-1,-1,-1,-1,-1],"loss_changes":[9.712596E1,3.2768135E1,1.4865425E1,2.2257921E1,0E0,3.7328E1,0E0,0E0,4.879139E1,7.859009E0,0E0,0E0,3.1279755E1,4.9948635E0,2.191375E1,0E0,5.3347954E1,2.7027275E1,2.6110077E0,0E0,5.9302025E0,0E0,0E0,0E0,0E0,0E0,0E0,0E0,0E0],"parents":[2147483647,0,0,1,1,2,2,3,3,5,5,8,8,9,9,12,12,13,13,14,14,16,16,17,17,18,18,20,20],"right_children":[2,4,6,8,-1,10,-1,-1,12,14,-1,-1,16,18,20,-1,22,24,26,-1,28,-1,-1,-1,-1,-1,-1,-1,-1],"split_conditions":[3.4419617E-3,3.3947949E-3,8.385598E-3,1.2188945E-3,-1.6712657E-1,7.6691466E-3,6.2042017E-2,-1.1147093E-1,1.2475161E-3,3.654015E-3,-1.7177825E-1,1.6175075E-1,1.7370806E-3,3.4953977E-3,3.685955E-3,-1.0978947E-1,1.7633189E-3,3.4732486E-3,3.5119324E-3,-1.3884692E-1,3.7043702E-3,1.20954156E-1,