{"learner":{"attributes":{"best_iteration":"0","best_score":"0.6910667715444383","scikit_learn":"{\"_estimator_type\": \"classifier\"}"},"feature_names":[],"feature_types":[],"gradient_booster":{"model":{"gbtree_model_param":{"num_parallel_tree":"1","num_trees":"31"},"iteration_indptr":[0,1,2,3,4,5,6,7,8,9,10,11,12,13,14,15,16,17,18,19,20,21,22,23,24,25,26,27,28,29,30,31],"tree_info":[0,0,0,0,0,0,0,0,0,0,0,0,0,0,0,0,0,0,0,0,0,0,0,0,0,0,0,0,0,0,0],"trees":[{"base_weights":[-8.801963E-3,-5.084698E-1,1.4481628E0,-1.0705996E0,-1.7414369E-1,9.593756E-1,1.6090511E0,-1.962332E-1,-9.914387E-1,-4.5026875E-1,5.1126387E-2,9.995606E-1,4.7614463E-2,1.5314978E0,1.7078729E-1,3.1642105E-2,-1.0222901E0,-7.063735E-3,-1.1551293E0,1.0427057E0,-4.343449E-2,8.3093804E-1,1.2048689E-1,1.6563994E-1,1.2670317E-1,-1.2423942E0,-7.9525167E-1,-2.998056E-1,6.088564E-1,-1.9603774E-1,-8.6564404E-1,1.2139875E-1,9.065404E-1,-1.8987952E-1,2.373201E-2,9.640332E-1,5.192058E-1,-9.9093996E-2,-1.97375E-1,3.2209013E-2,-9.789048E-2,2.2743499E-2,-1.16527356E-1,9.262031E-2,1.9924918E-2,-4.135259E-2,-1.9525425E-1,6.1118066E-2,1.039355E-1,5.7889866E-3,-1.7999999E-1,5.1957756E-2,1.0817849E-1,3.5438847E-2,6.595262E-2],"categories":[],"categories_nodes":[],"categories_segments":[],"categories_sizes":[],"default_left":[0,0,0,0,0,0,0,0,0,0,0,0,0,0,0,0,0,0,0,0,0,0,0,0,0,0,0,0,0,0,0,0,0,0,0,0,0,0,0,0,0,0,0,0,0,0,0,0,0,0,0,0,0,0,0],"id":0,"left_children":[1,3,5,7,9,11,13,-1,15,17,19,21,-1,23,-1,-1,25,27,29,31,33,35,-1,-1,-1,37,39,41,43,-1,45,-1,47,-1,49,51,53,-1,-1,-1,-1,-1,-1,-1,-1,-1,-1,-1,-1,-1,-1,-1,-1,-1,-1],"loss_changes":[1.8292982E3,3.5135617E2,4.866089E1,4.699939E1,7.313056E1,2.5133514E0,7.479248E-1,0E0,2.633075E1,1.6484178E2,6.0867626E1,3.9201508E0,0E0,6.852295E0,0E0,0E0,3.0205566E1,5.880524E1,4.5519196E1,5.458832E-3,7.401787E1,2.868206E0,0E0,0E0,0E0,5.6048218E1,6.446175E1,1.0133086E2,1.3354389E1,0E0,7.35335E1,0E0,6.0243034E-1,0E0,3.558387E1,2.3139496E0,3.067851E-1,0E0,0E0,0E0,0E0,0E0,0E0,0E0,0E0,0E0,0E0,0E0,0E0,0E0,0E0,0E0,0E0,0E0,0E0],"parents":[2147483647,0,0,1,1,2,2,3,3,4,4,5,5,6,6,8,8,9,9,10,10,11,11,13,13,16,16,17,17,18,18,19,19,20,20,21,21,25,25,26,26,27,27,28,28,30,30,32,32,34,34,35,35,36,36],"right_children":[2,4,6,8,10,12,14,-1,16,18,20,22,-1,24,-1,-1,26,28,30,32,34,36,-1,-1,-1,38,40,42,44,-1,46,-1,48,-1,50,52,54,-1,-1,-1,-1,-1,-1,-1,-1,-1,-1,-1,-1,-1,-1,-1,-1,-1,-1],"split_conditions":[7.5514917E-3,3.6528583E-3,1.0002575E-2,1.914309E-3,4.7994163E-3,9.369167E-3,1.6994994E-2,-1.962332E-1,1.9513717E-3,4.1862433E-3,4.859202E-3,8.529481E-3,4.7614463E-2,1.3125653E-2,1.7078729E-1,3.1642105E-2,2.9618044E-3,4.0814853E-3,4.346603E-3,4.8188707E-3,4.944686E-3,8.0863815E-3,1.2048689E-1,1.6563994E-1,1.2670317E-1,2.6827476E-3,3.0281048E-3,3.8767783E-3,4.1160164E-3,-1.9603774E-1,4.614773E-3,1.2139875E-1,4.8374864E-3,-1.8987952E-1,7.1329763E-3,7.7416585E-3,8.305649E-3,-9.9093996E-2,-1.97375E-1,3.2209013E-2,-9.789048E-2,2.2743499E-2,-1.16527356E-1,9.262031E-2,1.9924918E-2,-4.135259E-2,-1.9525425E-1,6.1118066E-2,1.039355E-1,5.7889866E-3,-1.7999999E-1,5.1957756E-2,1.0817849E-1,3.5438847E-2,6.595262E-2],"split_indices":[1,1,1,1,1,1,1,0,1,1,1,1,0,1,0,0,1,1,1,1,1,1,0,0,0,1,1,1,1,0,1,0,1,0,1,1,1,0,0,0,0,0,0,0,0,0,0,0,0,0,0,0,0,0,0],"split_type":[0,0,0,0,0,0,0,0,0,0,0,0,0,0,0,0,0,0,0,0,0,0,0,0,0,0,0,0,0,0,0,0,0,0,0,0,0,0,0,0,0,0,0,0,0,0,0,0,0,0,0,0,0,0,0],"sum_hessian":[2.5108953E3,1.8702205E3,6.4067474E2,6.965511E2,1.1736693E3,1.6053764E2,4.8013712E2,5.475E1,6.418011E2,5.270645E2,6.4660486E2,1.4703494E2,1.3502688E1,2.7882797E2,2.0130914E2,1.4502688E1,6.272984E2,3.243011E2,2.0276344E2,5.5513443E1,5.9109143E2,8.376882E1,6.326613E1,1.8555377E2,9.327419E1,3.1601883E2,3.1127957E2,2.2027957E2,1.0402151E2,5.2E1,1.5076344E2,2.0755377E1,3.4758064E1,1.975E1,5.7134143E2,5.7013443E1,2.6755377E1,2.3701881E2,7.9E1,4.3758064E1,2.675215E2,1.372742E2,8.300538E1,5.7763443E1,4.6258064E1,1.0751344E2,4.325E1,1.2752688E1,2.2005377E1,5.6184143E2,9.5E0,1.3252688E1,4.3760754E1,1.4252688E1,1.2502688E1],"tree_param":{"num_deleted":"0","num_feature":"2","num_nodes":"55","size_leaf_vector":"1"}},{"base_weights":[-1.781968E-2,-3.944902E-1,1.1888628E0,-1.0211492E0,-2.321604E-1,7.5836027E-1,1.3919258E0,-9.025872E-1,-1.8588759E-1,-2.151032E-1,-1.8588808E-1,4.621534E-1,9.683716E-1,1.1620953E-1,1.4556824E-1,-1.0451927E0,1.1608799E-1,-2.7122954E-1,6.740992E-1,8.201231E-1,-1.8557653E-1,1.1385534E0,3.999699E-2,-1.8000802E-1,-9.262684E-1,-9.633122E-4,-3.9264125E-1,7.5811136E-1,4.602843E-2,1.237525E-1,4.742252E-2,9.932574E-2,1.3663161E-1,-1.6662369E-2,-1.1264797E-1,-2.091149E-2,3.564717E-2,-8.964249E-2,-2.0818118E-2,5.339684E-2,1.1371306E-1],"categories":[],"categories_nodes":[],"categories_segments":[],"categories_sizes":[],"default_left":[0,0,0,0,0,0,0,0,0,0,0,0,0,0,0,0,0,0,0,0,0,0,0,0,0,0,0,0,0,0,0,0,0,0,0,0,0,0,0,0,0],"id":1,"left_children":[1,3,5,7,9,11,13,15,-1,17,-1,19,21,-1,-1,23,-1,25,27,29,-1,31,-1,-1,33,35,37,39,-1,-1,-1,-1,-1,-1,-1,-1,-1,-1,-1,-1,-1],"loss_changes":[1.1321704E3,1.9276279E2,5.052997E1,3.6799988E1,4.127208E1,1.1370117E1,3.9266357E0,1.0238547E2,0E0,7.474658E1,0E0,6.93559E1,1.0166237E1,0E0,0E0,2.6985321E1,0E0,4.612581E1,1.126728E0,9.587429E0,0E0,1.2215424E0,0E0,0E0,4.234767E1,3.2600334E1,8.989308E1,4.489937E0,0E0,0E0,0E0,0E0,0E0,0E0,0E0,0E0,0E0,0E0,0E0,0E0,0E0],"parents":[2147483647,0,0,1,1,2,2,3,3,4,4,5,5,6,6,7,7,9,9,11,11,12,12,15,15,17,17,18,18,19,19,21,21,24,24,25,25,26,26,27,27],"right_children":[2,4,6,8,10,12,14,16,-1,18,-1,20,22,-1,-1,24,-1,26,28,30,-1,32,-1,-1,34,36,38,40,-1,-1,-1,-1,-1,-1,-1,-1,-1,-1,-1,-1,-1],"split_conditions":[4.455471E-3,1.8513596E-3,6.178108E-3,1.7527023E-3,4.275319E-3,5.039831E-3,9.001313E-3,1.7411989E-3,-1.8588759E-1,4.013999E-3,-1.8588808E-1,4.857531E-3,5.439095E-3,1.1620953E-1,1.4556824E-1,1.1745864E-3,1.1608799E-1,2.4122163E-3,4.12433E-3,4.540552E-3,-1.8557653E-1,5.264495E-3,3.999699E-2,-1.8000802E-1,1.2975293E-3,2.2387973E-3,2.8461083E-3,4.0942184E-3,4.602843E-2,1.237525E-1,4.742252E-2,9.932574E-2,1.3663161E-1,-1.6662369E-2,-1.1264797E-1,-2.091149E-2,3.564717E-2,-8.964249E-2,-2.0818118E-2,5.339684E-2,1.1371306E-1],"split_indices":[0,0,0,0,0,0,0,0,0,0,0,0,0,0,0,0,0,0,0,0,0,0,0,0,0,0,0,0,0,0,0,0,0,0,0,0,0,0,0,0,0],"split_type":[0,0,0,0,0,0,0,0,0,0,0,0,0,0,0,0,0,0,0,0,0,0,0,0,0,0,0,0,0,0,0,0,0,0,0,0,0,0,0,0,0],"sum_hessian":[2.4890479E3,1.8974939E3,5.91554E2,3.8918295E2,1.5083109E3,1.9127325E2,4.0028073E2,3.4285593E2,4.6327026E1,1.4938408E3,1.4470183E1,8.087761E1,1.1039564E2,9.14425E1,3.0883823E2,3.2119986E2,2.1656078E1,1.4059075E3,8.793327E1,7.0655235E1,1.0222377E1,8.405133E1,2.6344305E1,4.1676384E1,2.7952347E2,4.363687E2,9.6953876E2,6.0965397E1,2.6967876E1,3.0719086E1,3.993615E1,5.485672E1,2.9194613E1,5.8790703E1,2.2073277E2,2.7621194E2,1.6015678E2,2.5867178E2,7.10867E2,3.9989323E1,2.0976074E1],"tree_param":{"num_deleted":"0","num_feature":"2","num_nodes":"41","size_leaf_vector":"1"}},{"base_weights":[4.8707807E-3,-3.9725995E-1,1.1476365E0,-1.1849864E0,-3.1966564E-1,7.1825546E-1,1.319386E0,-8.050275E-1,-1.7675905E-1,-3.8066465E-1,1.6970341E-1,4.2396158E-1,9.316654E-1,1.273035E0,1.5286808E-1,-1.358162E0,1.2256848E-1,-2.9309323E-1,-7.550864E-1,3.393429E-1,-1.7195353E-1,7.953986E-1,-1.7020307E-1,1.0069572E-1,3.4980312E-2,1.305482E-1,1.0728618E-1,-1.6673075E-1,-9.894955E-1,-3.4948984E-1,7.495119E-1,-1.1380484E0,-1.9659449E-1,7.307827E-1,1.1315913E-1,1.2312732E-1,4.455514E-2,5.5932906E-2,-1.7916304E-1,-2.967756E-2,-1.8798506E-1,4.9154695E-2,1.2028482E-1,-8.287777E-2,-1.9033037E-1,1.5273936E-2,-1.8367009E-1,5.396046E-2,1.0319477E-1,-1.641649E-1,2.1625405E-2],"categories":[],"categories_nodes":[],"categories_segments":[],"categories_sizes":[],"default_left":[0,0,0,0,0,0,0,0,0,0,0,0,0,0,0,0,0,0,0,0,0,0,0,0,0,0,0,0,0,0,0,0,0,0,0,0,0,0,0,0,0,0,0,0,0,0,0,0,0,0,0],"id":2,"left_children":[1,3,5,7,9,11,13,15,-1,17,19,21,23,25,-1,27,-1,29,31,33,-1,35,-1,-1,-1,-1,-1,-1,37,39,41,43,45,47,49,-1,-1,-1,-1,-1,-1,-1,-1,-1,-1,-1,-1,-1,-1,-1,-1],"loss_changes":[1.1542467E3,1.1302307E2,4.7065002E1,3.5089233E1,5.0613388E1,1.1349915E1,2.2910767E0,1.1678511E2,0E0,4.9038803E1,6.0733696E1,6.565752E1,4.270569E0,8.789673E-1,0E0,7.3221283E0,0E0,7.2076035E1,6.049794E1,1.5193895E1,0E0,9.979202E0,0E0,0E0,0E0,0E0,0E0,0E0,5.0291416E1,9.281055E1,6.599411E0,3.802214E1,6.751468E1,2.9243736E0,2.0348837E1,0E0,0E0,0E0,0E0,0E0,0E0,0E0,0E0,0E0,0E0,0E0,0E0,0E0,0E0,0E0,0E0],"parents":[2147483647,0,0,1,1,2,2,3,3,4,4,5,5,6,6,7,7,9,9,10,10,11,11,12,12,13,13,15,15,17,17,18,18,19,19,21,21,28,28,29,29,30,30,31,31,32,32,33,33,34,34],"right_children":[2,4,6,8,10,12,14,16,-1,18,20,22,24,26,-1,28,-1,30,32,34,-1,36,-1,-1,-1,-1,-1,-1,38,40,42,44,46,48,50,-1,-1,-1,-1,-1,-1,-1,-1,-1,-1,-1,-1,-1,-1,-1,-1],"split_conditions":[4.455471E-3,1.4621336E-3,5.6800125E-3,1.2975293E-3,3.8246019E-3,5.039831E-3,1.5705857E-2,1.28447E-3,-1.7675905E-1,3.185447E-3,4.275319E-3,4.857531E-3,5.439095E-3,1.0456084E-2,1.5286808E-1,1.1745864E-3,1.2256848E-1,3.117041E-3,3.581586E-3,3.9173807E-3,-1.7195353E-1,4.540552E-3,-1.7020307E-1,1.0069572E-1,3.4980312E-2,1.305482E-1,1.0728618E-1,-1.6673075E-1,1.2155453E-3,3.0419482E-3,3.1666176E-3,3.445191E-3,3.7617625E-3,3.8895125E-3,3.9438386E-3,1.2312732E-1,4.455514E-2,5.5932906E-2,-1.7916304E-1,-2.967756E-2,-1.8798506E-1,4.9154695E-2,1.2028482E-1,-8.287777E-2,-1.9033037E-1,1.5273936E-2,-1.8367009E-1,5.396046E-2,1.0319477E-1,-1.641649E-1,2.1625405E-2],"split_indices":[0,0,0,0,0,0,0,0,0,0,0,0,0,0,0,0,0,0,0,0,0,0,0,0,0,0,0,0,0,0,0,0,0,0,0,0,0,0,0,0,0,0,0,0,0,0,0,0,0,0,0],"split_type":[0,0,0,0,0,0,0,0,0,0,0,0,0,0,0,0,0,0,0,0,0,0,0,0,0,0,0,0,0,0,0,0,0,0,0,0,0,0,0,0,0,0,0,0,0,0,0,0,0,0,0],"sum_hessian":[2.5095815E3,1.8567648E3,6.528168E2,1.6510292E2,1.6916619E3,1.8816362E2,4.6465314E2,1.0147624E2,6.3626682E1,1.504549E3,1.871129E2,8.05457E1,1.0761792E2,3.8659665E2,7.805648E1,8.00518E1,2.142444E1,1.221021E3,2.835279E2,1.7249725E2,1.4615649E1,6.9139145E1,1.1406553E1,9.448884E1,1.3129087E1,3.2749094E2,5.9105705E1,4.1477264E1,3.857454E1,1.1590845E3,6.1936512E1,1.674734E2,1.16054504E2,6.2192383E1,1.1030487E2,2.9535538E1,3.960361E1,1.3222171E1,2.5352367E1,1.1217059E3,3.7378593E1,4.0943207E1,2.0993305E1,1.2084765E2,4.662575E1,9.637339E1,1.9681114E1,3.9953728E1,2.2238655E1,5.238873E0,1.05065994E2],"tree_param":{"num_deleted":"0","num_feature":"2","num_nodes":"51","size_leaf_vector":"1"}},{"base_weights":[1.6462682E-2,-3.825152E-1,1.0693341E0,-9.673412E-1,-7.838472E-2,7.087596E-1,1.2564377E0,-8.7270397E-1,-1.7990483E-1,-2.7424774E-1,1.5487911E-1,1.06715076E-1,6.231773E-1,1.169936E0,1.3585652E-1,-1.6329426E-1,-7.5771415E-1,1.4444236E-1,-3.3210158E-1,8.269422E-2,8.891626E-2,-1.6222169E-1,6.8522376E-1,1.3085216E-1,9.091141E-1,7.7339716E-2,-8.015168E-1,-1.7231548E-1,-2.9266432E-1,-1.7419724E-1,1.309856E-1,2.9447958E-1,7.60154E-1,3.1076653E-2,9.9503405E-2,-1.6890703E-1,-7.176321E-2,1.0292436E-2,-4.389967E-2,1.5152079E-2,-1.6075407E-1,7.1614966E-2,-1.5180627E-1,1.2808709E-1,6.314177E-2],"categories":[],"categories_nodes":[],"categories_segments":[],"categories_sizes":[],"default_left":[0,0,0,0,0,0,0,0,0,0,0,0,0,0,0,0,0,0,0,0,0,0,0,0,0,0,0,0,0,0,0,0,0,0,0,0,0,0,0,0,0,0,0,0,0],"id":3,"left_children":[1,3,5,7,9,11,13,15,-1,17,19,-1,21,23,-1,-1,25,-1,27,-1,29,-1,31,-1,33,-1,35,-1,37,-1,39,41,43,-1,-1,-1,-1,-1,-1,-1,-1,-1,-1,-1,-1],"loss_changes":[1.0515166E3,3.2266516E2,4.5322693E1,4.7025757E1,5.4666737E1,6.450157E0,2.145691E0,4.7428192E1,0E0,6.503424E1,2.4039047E1,0E0,2.8092743E1,7.702545E0,0E0,0E0,3.334482E1,0E0,3.3857864E1,0E0,3.845923E1,0E0,5.2294617E0,0E0,4.2392273E0,0E0,3.3903656E1,0E0,3.5618683E1,0E0,1.7528257E1,2.5767525E1,9.622505E0,0E0,0E0,0E0,0E0,0E0,0E0,0E0,0E0,0E0,0E0,0E0,0E0],"parents":[2147483647,0,0,1,1,2,2,3,3,4,4,5,5,6,6,7,7,9,9,10,10,12,12,13,13,16,16,18,18,20,20,22,22,24,24,26,26,28,28,30,30,31,31,32,32],"right_children":[2,4,6,8,10,12,14,16,-1,18,20,-1,22,24,-1,-1,26,-1,28,-1,30,-1,32,-1,34,-1,36,-1,38,-1,40,42,44,-1,-1,-1,-1,-1,-1,-1,-1,-1,-1,-1,-1],"split_conditions":[6.797046E-3,3.520218E-3,1.0002575E-2,3.3184628E-3,4.944686E-3,6.9339983E-3,1.6994994E-2,1.9883742E-3,-1.7990483E-1,3.5314867E-3,5.004635E-3,1.06715076E-1,7.02571E-3,1.3125653E-2,1.3585652E-1,-1.6329426E-1,2.0071405E-3,1.4444236E-1,3.5889505E-3,8.269422E-2,5.0531803E-3,-1.6222169E-1,7.5514917E-3,1.3085216E-1,1.4357376E-2,7.7339716E-2,2.1549643E-3,-1.7231548E-1,3.8767783E-3,-1.7419724E-1,6.72137E-3,7.298483E-3,7.7416585E-3,3.1076653E-2,9.9503405E-2,-1.6890703E-1,-7.176321E-2,1.0292436E-2,-4.389967E-2,1.5152079E-2,-1.6075407E-1,7.1614966E-2,-1.5180627E-1,1.2808709E-1,6.314177E-2],"split_indices":[1,1,1,1,1,1,1,1,0,1,1,0,1,1,0,0,1,0,1,0,1,0,1,0,1,0,1,0,1,0,1,1,1,0,0,0,0,0,0,0,0,0,0,0,0],"split_type":[0,0,0,0,0,0,0,0,0,0,0,0,0,0,0,0,0,0,0,0,0,0,0,0,0,0,0,0,0,0,0,0,0,0,0,0,0,0,0,0,0,0,0,0,0],"sum_hessian":[2.5010422E3,1.8141321E3,6.869102E2,6.197937E2,1.1943384E3,2.3648784E2,4.504224E2,5.584222E2,6.1371513E1,6.493534E2,5.44985E2,4.3150326E1,1.9333751E2,2.5114128E2,1.9928111E2,7.1518364E1,4.869038E2,2.0309887E1,6.2904346E2,4.754275E1,4.9744226E2,4.4793077E0,1.888582E2,1.6112729E2,9.001399E1,1.3015365E1,4.7388843E2,1.6095203E1,6.129483E2,1.0212276E1,4.8722998E2,3.1396608E1,1.574616E2,1.2028457E1,7.7985535E1,3.9165432E1,4.34723E2,1.654071E2,4.4754117E2,4.8250113E2,4.7288594E0,2.6006512E1,5.390095E0,2.928446E1,1.2817714E2],"tree_param":{"num_deleted":"0","num_feature":"2","num_nodes":"45","size_leaf_vector":"1"}},{"base_weights":[3.26236E-2,-2.364522E-1,9.725552E-1,-7.85051E-1,2.3484757E-2,8.352708E-1,1.2356608E-1,-1.5056673E-1,-7.155496E-1,-1.3971856E-1,1.7307828E-1,8.965965E-1,5.8492786E-1,-3.8704696E-1,-9.783731E-1,1.0094445E-1,-5.753174E-1,4.7699165E-1,-7.780472E-2,6.81852E-1,1.1098526E-1,1.4602846E-1,7.9834247E-1,-5.275472E-1,7.6904394E-2,-1.6559575E-1,-8.03641E-1,-1.5727198E-1,7.789127E-1,-1.6907619E-1,-2.3755878E-1,3.9417663E-1,1.1298553E0,-5.491313E-1,1.4856203E-1,7.5543576E-1,-1.7116587E-1,9.029807E-3,1.8656364E-2,5.7947613E-2,9.3222834E-2,7.831884E-2,-6.0867574E-2,4.318624E-3,-1.0396363E-1,1.595264E-2,-9.606924E-2,9.948488E-2,2.1830613E-2,1.1148039E-1,-5.7393093E-2,4.390401E-2,-1.6039175E-1,1.3944064E-1,6.405481E-2,-7.1681933E-3,-1.879122E-1,1.4726488E-1,-2.7835711E-3,1.0098604E-1,6.7789525E-2],"categories":[],"categories_nodes":[],"categories_segments":[],"categories_sizes":[],"default_left":[0,0,0,0,0,0,0,0,0,0,0,0,0,0,0,0,0,0,0,0,0,0,0,0,0,0,0,0,0,0,0,0,0,0,0,0,0,0,0,0,0,0,0,0,0,0,0,0,0,0,0,0,0,0,0,0,0,0,0,0,0],"id":4,"left_children":[1,3,5,7,9,11,-1,-1,13,15,17,19,21,23,25,27,29,31,33,35,-1,37,39,41,-1,-1,43,45,47,-1,49,51,53,55,57,59,-1,-1,-1,-1,-1,-1,-1,-1,-1,-1,-1,-1,-1,-1,-1,-1,-1,-1,-1,-1,-1,-1,-1,-1,-1],"loss_changes":[6.2657135E2,2.7472092E2,1.8677002E1,2.971701E1,3.1950117E1,4.9411926E0,0E0,0E0,4.8425476E1,6.568456E1,5.2152325E1,1.241423E1,6.8278694E0,4.160134E1,3.560907E1,7.084749E1,8.338964E1,1.6118149E1,4.0111458E1,2.7277374E1,0E0,1.4118671E-2,7.791939E-1,2.4591557E1,0E0,0E0,5.045645E1,7.481769E1,1.3172089E1,0E0,7.89818E1,2.5332264E1,3.321537E0,7.711807E1,5.947588E1,1.9953079E0,0E0,0E0,0E0,0E0,0E0,0E0,0E0,0E0,0E0,0E0,0E0,0E0,0E0,0E0,0E0,0E0,0E0,0E0,0E0,0E0,0E0,0E0,0E0,0E0,0E0],"parents":[2147483647,0,0,1,1,2,2,3,3,4,4,5,5,8,8,9,9,10,10,11,11,12,12,13,13,14,14,15,15,16,16,17,17,18,18,19,19,21,21,22,22,23,23,26,26,27,27,28,28,30,30,31,31,32,32,33,33,34,34,35,35],"right_children":[2,4,6,8,10,12,-1,-1,14,16,18,20,22,24,26,28,30,32,34,36,-1,38,40,42,-1,-1,44,46,48,-1,50,52,54,56,58,60,-1,-1,-1,-1,-1,-1,-1,-1,-1,-1,-1,-1,-1,-1,-1,-1,-1,-1,-1,-1,-1,-1,-1,-1,-1],"split_conditions":[7.5514917E-3,3.520218E-3,1.6994994E-2,1.914309E-3,4.7994163E-3,1.3125653E-2,1.2356608E-1,-1.5056673E-1,2.6827476E-3,4.1862433E-3,5.434852E-3,1.0002575E-2,1.5169509E-2,2.6466986E-3,2.9134161E-3,4.0814853E-3,4.346603E-3,5.386024E-3,5.8890707E-3,9.369167E-3,1.1098526E-1,1.4357376E-2,1.6056674E-2,1.9513717E-3,7.6904394E-2,-1.6559575E-1,3.0131198E-3,3.8767783E-3,4.1318284E-3,-1.6907619E-1,4.378233E-3,5.3596846E-3,5.4095765E-3,5.7022977E-3,5.9266197E-3,7.7416585E-3,-1.7116587E-1,9.029807E-3,1.8656364E-2,5.7947613E-2,9.3222834E-2,7.831884E-2,-6.0867574E-2,4.318624E-3,-1.0396363E-1,1.595264E-2,-9.606924E-2,9.948488E-2,2.1830613E-2,1.1148039E-1,-5.7393093E-2,4.390401E-2,-1.6039175E-1,1.3944064E-1,6.405481E-2,-7.1681933E-3,-1.879122E-1,1.4726488E-1,-2.7835711E-3,1.0098604E-1,6.7789525E-2],"split_indices":[1,1,1,1,1,1,0,0,1,1,1,1,1,1,1,1,1,1,1,1,0,1,1,1,0,0,1,1,1,0,1,1,1,1,1,1,0,0,0,0,0,0,0,0,0,0,0,0,0,0,0,0,0,0,0,0,0,0,0,0,0],"split_type":[0,0,0,0,0,0,0,0,0,0,0,0,0,0,0,0,0,0,0,0,0,0,0,0,0,0,0,0,0,0,0,0,0,0,0,0,0,0,0,0,0,0,0,0,0,0,0,0,0,0,0,0,0,0,0,0,0,0,0,0,0],"sum_hessian":[2.47522E3,1.9248359E3,5.50384E2,6.182916E2,1.3065443E3,3.6466315E2,1.8572081E2,5.24428E1,5.658488E2,6.245601E2,6.8198413E2,2.905156E2,7.4147575E1,2.5276787E2,3.1308093E2,4.026433E2,2.2191682E2,3.0817093E2,3.738132E2,1.4707767E2,1.4343791E2,2.4962852E1,4.9184723E1,2.2593951E2,2.6828352E1,6.2329025E1,2.5075192E2,2.920365E2,1.1060683E2,5.057883E1,1.71338E2,2.7503943E2,3.313151E1,1.20964485E2,2.5284871E2,1.4339542E2,3.6822464E0,1.2909153E1,1.2053699E1,2.0973646E1,2.8211075E1,1.2593241E1,2.1334628E2,5.473571E1,1.960162E2,2.0993396E2,8.210252E1,7.9162E1,3.1444822E1,3.360794E1,1.3773006E2,2.6981165E2,5.227798E0,2.0171417E1,1.29600935E1,8.9841606E1,3.1122885E1,2.8927786E1,2.2392093E2,3.0384604E1,1.1301081E2],"tree_param":{"num_deleted":"0","num_feature":"2","num_nodes":"61","size_leaf_vector":"1"}},{"base_weights":[6.2005427E-2,-2.705643E-1,9.2554754E-1,-6.907749E-1,-1.0250177E-1,6.322673E-1,1.0931708E0,-1.4802226E-1,-5.7849246E-1,1.2276304E0,-1.3991006E-1,9.394214E-2,5.6484544E-1,1.0503062E0,1.2077329E-1,-4.9851978E-1,-1.6374011E-1,9.003433E-2,1.3646558E-1,-1.105366E0,-8.392522E-2,-1.5741406E-1,6.341325E-1,1.14052154E-1,9.586059E-1,-5.929719E-1,9.35453E-2,-5.7551354E-1,-1.5791537E-1,1.17018856E-1,-1.0771399E-1,1.9128019E-1,7.145327E-1,5.299901E-1,1.0546031E-1,-4.494605E-2,-1.649733E-1,-1.5443692E-1,8.62545E-2,-3.1125506E-2,8.21304E-3,5.2876722E-2,-1.4087246E-1,7.371759E-2,3.980302E-2,7.279938E-2,1.5222005E-2],"categories":[],"categories_nodes":[],"categories_segments":[],"categories_sizes":[],"default_left":[0,0,0,0,0,0,0,0,0,0,0,0,0,0,0,0,0,0,0,0,0,0,0,0,0,0,0,0,0,0,0,0,0,0,0,0,0,0,0,0,0,0,0,0,0,0,0],"id":5,"left_children":[1,3,5,7,9,11,13,-1,15,17,19,-1,21,23,-1,25,-1,-1,-1,27,29,-1,31,-1,33,35,-1,37,-1,-1,39,41,43,45,-1,-1,-1,-1,-1,-1,-1,-1,-1,-1,-1,-1,-1],"loss_changes":[7.21434E2,1.27922165E2,3.3473145E1,4.4831802E1,6.458653E1,4.633026E0,6.804199E-1,0E0,3.7504044E1,1.3694382E-1,6.80139E1,0E0,3.250064E1,1.4315796E0,0E0,5.802987E1,0E0,0E0,0E0,1.6198135E1,3.564866E1,0E0,7.1524734E0,0E0,6.3087006E0,5.9566544E1,0E0,4.911619E1,0E0,0E0,4.537478E1,1.869431E1,8.462219E-1,2.3030424E0,0E0,0E0,0E0,0E0,0E0,0E0,0E0,0E0,0E0,0E0,0E0,0E0,0E0],"parents":[2147483647,0,0,1,1,2,2,3,3,4,4,5,5,6,6,8,8,9,9,10,10,12,12,13,13,15,15,19,19,20,20,22,22,24,24,25,25,27,27,30,30,31,31,32,32,33,33],"right_children":[2,4,6,8,10,12,14,-1,16,18,20,-1,22,24,-1,26,-1,-1,-1,28,30,-1,32,-1,34,36,-1,38,-1,-1,40,42,44,46,-1,-1,-1,-1,-1,-1,-1,-1,-1,-1,-1,-1,-1],"split_conditions":[6.797046E-3,3.2894514E-3,1.0002575E-2,1.9883742E-3,3.3184628E-3,6.9339983E-3,1.8639347E-2,-1.4802226E-1,3.196475E-3,3.3034445E-3,3.520218E-3,9.394214E-2,7.02571E-3,1.3125653E-2,1.2077329E-1,3.1631275E-3,-1.6374011E-1,9.003433E-2,1.3646558E-1,3.385816E-3,3.5314867E-3,-1.5741406E-1,7.5514917E-3,1.14052154E-1,1.5169509E-2,3.0281048E-3,9.35453E-2,3.3742131E-3,-1.5791537E-1,1.17018856E-1,4.7994163E-3,7.298483E-3,9.369167E-3,1.4357376E-2,1.0546031E-1,-4.494605E-2,-1.649733E-1,-1.5443692E-1,8.62545E-2,-3.1125506E-2,8.21304E-3,5.2876722E-2,-1.4087246E-1,7.371759E-2,3.980302E-2,7.279938E-2,1.5222005E-2],"split_indices":[1,1,1,1,1,1,1,0,1,1,1,0,1,1,0,1,0,0,0,1,1,0,1,0,1,1,0,1,0,0,1,1,1,1,0,0,0,0,0,0,0,0,0,0,0,0,0],"split_type":[0,0,0,0,0,0,0,0,0,0,0,0,0,0,0,0,0,0,0,0,0,0,0,0,0,0,0,0,0,0,0,0,0,0,0,0,0,0,0,0,0,0,0,0,0,0,0],"sum_hessian":[2.5099624E3,1.8124988E3,6.974636E2,5.1675037E2,1.2957484E3,2.5560886E2,4.4185477E2,6.2717297E1,4.5403308E2,3.4500988E1,1.2612473E3,4.341343E1,2.1219542E2,3.295801E2,1.1227466E2,4.2360602E2,3.0427061E1,1.2631318E1,2.1869669E1,6.80033E1,1.193244E3,5.9311247E0,2.062643E2,1.5982019E2,1.6975992E2,3.9804407E2,2.556194E1,3.3247406E1,3.4755898E1,2.1237463E1,1.1720066E3,3.2403805E1,1.738605E2,3.2447636E1,1.3731227E2,3.5178986E2,4.625422E1,1.9861698E1,1.3385706E1,5.655457E2,6.064609E2,2.7363976E1,5.0398283E0,1.607174E2,1.3143088E1,2.0507223E1,1.1940414E1],"tree_param":{"num_deleted":"0","num_feature":"2","num_nodes":"47","size_leaf_vector":"1"}},{"base_weights":[1.4835398E-2,-2.2098576E-1,9.230436E-1,-4.4728935E-1,1.5525158E-1,7.1175086E-1,9.899213E-1,-1.3675687E-1,-4.0781528E-1,8.9868736E-1,5.6487303E-2,8.591565E-2,5.035217E-1,1.0704348E-1,9.469327E-1,-5.4191715E-1,-2.4165289E-1,9.415836E-2,6.283543E-2,-1.8072456E-1,1.15708336E-1,2.1418242E-1,7.596738E-2,4.0492278E-1,1.02631606E-1,8.67447E-2,-5.719248E-1,6.361892E-2,-7.097497E-1,3.3079758E-1,-6.0004134E-2,1.1285745E-2,2.8392954E-2,6.7013435E-2,-2.1248541E-3,-5.4054894E-2,-1.7221509E-1,-2.2472212E-2,6.454276E-2,-1.559691E-1,-4.409569E-2,2.5859654E-2,1.17727995E-1,-9.913074E-2,7.876026E-3],"categories":[],"categories_nodes":[],"categories_segments":[],"categories_sizes":[],"default_left":[0,0,0,0,0,0,0,0,0,0,0,0,0,0,0,0,0,0,0,0,0,0,0,0,0,0,0,0,0,0,0,0,0,0,0,0,0,0,0,0,0,0,0,0,0],"id":6,"left_children":[1,3,5,7,9,11,13,-1,15,17,19,-1,21,-1,23,25,27,-1,-1,-1,29,31,-1,33,-1,-1,35,37,39,41,43,-1,-1,-1,-1,-1,-1,-1,-1,-1,-1,-1,-1,-1,-1],"loss_changes":[5.135987E2,1.6216379E2,6.110504E0,4.2456238E1,5.2387E1,3.1992836E0,7.41272E-2,0E0,2.5228271E1,2.2216797E-1,6.987827E1,0E0,3.711071E0,0E0,1.0299454E1,2.7135757E1,7.327071E1,0E0,0E0,0E0,2.3262104E1,1.17229104E-1,0E0,3.9278336E0,0E0,0E0,2.115062E1,5.2306137E1,4.5330894E1,1.6456442E1,4.3935654E1,0E0,0E0,0E0,0E0,0E0,0E0,0E0,0E0,0E0,0E0,0E0,0E0,0E0,0E0],"parents":[2147483647,0,0,1,1,2,2,3,3,4,4,5,5,6,6,8,8,9,9,10,10,12,12,14,14,15,15,16,16,20,20,21,21,23,23,26,26,27,27,28,28,29,29,30,30],"right_children":[2,4,6,8,10,12,14,-1,16,18,20,-1,22,-1,24,26,28,-1,-1,-1,30,32,-1,34,-1,-1,36,38,40,42,44,-1,-1,-1,-1,-1,-1,-1,-1,-1,-1,-1,-1,-1,-1],"split_conditions":[8.305649E-3,4.7994163E-3,1.05090095E-2,1.914309E-3,4.904875E-3,9.001209E-3,1.3125653E-2,-1.3675687E-1,3.6528583E-3,4.8715593E-3,4.984665E-3,8.591565E-2,1.0002575E-2,1.0704348E-1,1.5169509E-2,1.9513717E-3,4.1862433E-3,9.415836E-2,6.283543E-2,-1.8072456E-1,5.668885E-3,9.369167E-3,7.596738E-2,1.4357376E-2,1.02631606E-1,8.67447E-2,3.606682E-3,4.0814853E-3,4.346603E-3,5.6411913E-3,5.8890707E-3,1.1285745E-2,2.8392954E-2,6.7013435E-2,-2.1248541E-3,-5.4054894E-2,-1.7221509E-1,-2.2472212E-2,6.454276E-2,-1.559691E-1,-4.409569E-2,2.5859654E-2,1.17727995E-1,-9.913074E-2,7.876026E-3],"split_indices":[1,1,1,1,1,1,1,0,1,1,1,0,1,0,1,1,1,0,0,0,1,1,0,1,0,0,1,1,1,1,1,0,0,0,0,0,0,0,0,0,0,0,0,0,0],"split_type":[0,0,0,0,0,0,0,0,0,0,0,0,0,0,0,0,0,0,0,0,0,0,0,0,0,0,0,0,0,0,0,0,0,0,0,0,0,0,0,0,0,0,0,0,0],"sum_hessian":[2.3957563E3,1.9024274E3,4.9332895E2,1.1879578E3,7.1446967E2,1.217646E2,3.7156433E2,4.737199E1,1.1405857E3,8.271687E1,6.317528E2,6.918339E1,5.258122E1,1.2020503E2,2.513593E2,6.2960114E2,5.1098462E2,6.892668E1,1.3790195E1,1.8494999E1,6.132578E2,2.5736658E1,2.6844559E1,3.305164E1,2.1830766E2,1.2474474E1,6.1712665E2,3.0967737E2,2.0130725E2,2.7559235E2,3.3766547E2,1.2144951E1,1.3591706E1,2.0164944E1,1.2886694E1,6.022552E2,1.4871438E1,2.073552E2,1.0232217E2,4.7123837E1,1.5418341E2,2.5524477E2,2.0347565E1,4.3084564E1,2.945809E2],"tree_param":{"num_deleted":"0","num_feature":"2","num_nodes":"45","size_leaf_vector":"1"}},{"base_weights":[-4.4207904E-2,-9.594062E-1,2.285092E-1,-7.342981E-1,-1.1402713E0,-3.5742685E-2,8.266471E-1,-8.322649E-1,9.515774E-2,-1.5410458E-1,-9.8286307E-1,1.1093836E-1,-5.640108E-2,7.051853E-1,1.0777686E-1,-7.183225E-1,-1.5771024E-1,9.001296E-2,-1.1043503E0,-1.5585142E-1,-3.5016198E-2,6.40492E-1,8.232025E-1,-8.3498776E-1,9.446415E-2,-9.524813E-1,-1.4909886E-1,-2.0005834E-1,9.756145E-2,9.145763E-2,5.9979427E-1,8.8941866E-1,4.0169287E-2,-1.1370634E-1,-4.989092E-2,-1.1222299E-1,7.2316244E-2,5.5854428E-3,-6.490055E-2,9.766238E-2,6.723378E-3,2.0330974E-3,6.355347E-2,1.03789344E-1,7.68538E-2],"categories":[],"categories_nodes":[],"categories_segments":[],"categories_sizes":[],"default_left":[0,0,0,0,0,0,0,0,0,0,0,0,0,0,0,0,0,0,0,0,0,0,0,0,0,0,0,0,0,0,0,0,0,0,0,0,0,0,0,0,0,0,0,0,0],"id":7,"left_children":[1,3,5,7,9,11,13,15,-1,-1,17,-1,19,21,-1,23,-1,-1,25,-1,27,29,31,33,-1,35,-1,37,39,-1,41,43,-1,-1,-1,-1,-1,-1,-1,-1,-1,-1,-1,-1,-1],"loss_changes":[5.867414E2,2.094873E1,2.8634537E2,4.099588E1,1.6982056E1,2.9690687E1,1.5992035E1,1.821791E1,0E0,0E0,5.050235E1,0E0,3.9478184E1,2.2068481E0,0E0,3.9978615E1,0E0,0E0,1.0297577E1,0E0,2.671116E1,2.0746384E0,3.1289215E0,1.8496857E1,0E0,4.3295578E1,0E0,6.257964E1,1.7866398E1,0E0,4.4737625E0,1.0123978E0,0E0,0E0,0E0,0E0,0E0,0E0,0E0,0E0,0E0,0E0,0E0,0E0,0E0],"parents":[2147483647,0,0,1,1,2,2,3,3,4,4,5,5,6,6,7,7,10,10,12,12,13,13,15,15,18,18,20,20,21,21,22,22,23,23,25,25,27,27,28,28,30,30,31,31],"right_children":[2,4,6,8,10,12,14,16,-1,-1,18,-1,20,22,-1,24,-1,-1,26,-1,28,30,32,34,-1,36,-1,38,40,-1,42,44,-1,-1,-1,-1,-1,-1,-1,-1,-1,-1,-1,-1,-1],"split_conditions":[3.520218E-3,2.5940568E-3,7.5514917E-3,2.5738492E-3,2.9134161E-3,3.5314867E-3,1.6994994E-2,2.4553086E-3,9.515774E-2,-1.5410458E-1,2.9296277E-3,1.1093836E-1,3.5889505E-3,1.1979663E-2,1.0777686E-1,2.432749E-3,-1.5771024E-1,9.001296E-2,3.3184628E-3,-1.5585142E-1,4.7994163E-3,7.7416585E-3,1.6056674E-2,2.1186057E-3,9.446415E-2,3.3034445E-3,-1.4909886E-1,4.1862433E-3,4.8188707E-3,9.145763E-2,7.873508E-3,1.3125653E-2,4.0169287E-2,-1.1370634E-1,-4.989092E-2,-1.1222299E-1,7.2316244E-2,5.5854428E-3,-6.490055E-2,9.766238E-2,6.723378E-3,2.0330974E-3,6.355347E-2,1.03789344E-1,7.68538E-2],"split_indices":[1,1,1,1,1,1,1,1,0,0,1,0,1,1,0,1,0,0,1,0,1,1,1,1,0,1,0,1,1,0,1,1,0,0,0,0,0,0,0,0,0,0,0,0,0],"split_type":[0,0,0,0,0,0,0,0,0,0,0,0,0,0,0,0,0,0,0,0,0,0,0,0,0,0,0,0,0,0,0,0,0,0,0,0,0,0,0,0,0,0,0,0,0],"sum_hessian":[2.3486475E3,5.3869965E2,1.8099478E3,2.424966E2,2.9620303E2,1.255883E3,5.5406464E2,2.2971352E2,1.278308E1,8.087167E1,2.1533138E2,2.1235315E1,1.2346477E3,3.7627518E2,1.7778949E2,2.0105548E2,2.865804E1,1.2612434E1,2.0271893E2,1.6255795E1,1.218392E3,2.4774417E2,1.2853099E2,1.8839655E2,1.2658937E1,1.4822089E2,5.4498043E1,5.428538E2,6.755381E2,2.8936699E1,2.1880748E2,1.09916565E2,1.861443E1,9.7805595E1,9.059095E1,1.3494086E2,1.3280039E1,3.4617624E2,1.9667758E2,2.1378286E1,6.541598E2,1.2965344E1,2.0584213E2,4.555237E1,6.43642E1],"tree_param":{"num_deleted":"0","num_feature":"2","num_nodes":"45","size_leaf_vector":"1"}},{"base_weights":[-2.8234396E-2,-2.3893431E-1,8.113748E-1,-5.8700776E-1,-1.6631632E-1,5.684922E-1,9.460114E-2,-5.1659054E-1,-1.4558014E-1,4.5943145E-2,-2.4738126E-1,1.0384118E-1,4.4291255E-1,-5.771493E-1,7.117348E-2,-1.6286655E-1,4.537098E-1,-8.0490834E-1,-8.205059E-2,-0E0,4.8825094E-1,-1.2870151E-1,-4.910938E-1,-1.3257632E-2,-1.680487E-1,1.2237012E-1,3.0546594E-1,-1.6254152E-1,-6.362261E-1,9.1014284E-1,-1.7531414E-1,4.014472E-1,5.9880015E-2,1.9583035E-2,-6.855493E-2,-3.2208577E-2,2.6713083E-2,9.457568E-3,1.2210532E-1,-4.149347E-2,-1.6980313E-1,1.0689875E-1,7.416104E-2,-1.6987008E-1,-1.44606205E-2,5.8116533E-2,1.5670145E-2],"categories":[],"categories_nodes":[],"categories_segments":[],"categories_sizes":[],"default_left":[0,0,0,0,0,0,0,0,0,0,0,0,0,0,0,0,0,0,0,0,0,0,0,0,0,0,0,0,0,0,0,0,0,0,0,0,0,0,0,0,0,0,0,0,0,0,0],"id":8,"left_children":[1,3,5,7,9,11,-1,13,-1,15,17,-1,19,21,-1,23,25,27,29,-1,31,-1,33,35,-1,-1,37,-1,39,41,43,45,-1,-1,-1,-1,-1,-1,-1,-1,-1,-1,-1,-1,-1,-1,-1],"loss_changes":[4.0820575E2,4.645771E1,1.4447174E1,1.8493927E1,2.6323792E1,9.297039E0,0E0,2.2388916E1,0E0,3.6102097E1,1.0181277E2,0E0,2.7104397E0,1.6440216E1,0E0,6.3424156E1,1.5865854E1,3.3723083E1,7.915404E1,0E0,8.2971954E-1,0E0,3.4057163E1,2.2268595E1,0E0,0E0,2.328397E1,0E0,4.8757195E1,9.93412E-1,3.615088E1,2.9953032E0,0E0,0E0,0E0,0E0,0E0,0E0,0E0,0E0,0E0,0E0,0E0,0E0,0E0,0E0,0E0],"parents":[2147483647,0,0,1,1,2,2,3,3,4,4,5,5,7,7,9,9,10,10,12,12,13,13,15,15,16,16,17,17,18,18,20,20,22,22,23,23,26,26,28,28,29,29,30,30,31,31],"right_children":[2,4,6,8,10,12,-1,14,-1,16,18,-1,20,22,-1,24,26,28,30,-1,32,-1,34,36,-1,-1,38,-1,40,42,44,46,-1,-1,-1,-1,-1,-1,-1,-1,-1,-1,-1,-1,-1,-1,-1],"split_conditions":[5.039831E-3,1.8172461E-3,7.616074E-3,1.7527023E-3,2.3857953E-3,5.1016696E-3,9.460114E-2,1.7411989E-3,-1.4558014E-1,2.2387973E-3,2.8461083E-3,1.0384118E-1,5.168888E-3,1.1745864E-3,7.117348E-2,2.1847119E-3,2.2508823E-3,2.4965678E-3,2.9048815E-3,-0E0,6.178108E-3,-1.2870151E-1,1.2975293E-3,2.0228636E-3,-1.680487E-1,1.2237012E-1,2.3760176E-3,-1.6254152E-1,2.7545257E-3,2.872096E-3,2.9376962E-3,5.439095E-3,5.9880015E-2,1.9583035E-2,-6.855493E-2,-3.2208577E-2,2.6713083E-2,9.457568E-3,1.2210532E-1,-4.149347E-2,-1.6980313E-1,1.0689875E-1,7.416104E-2,-1.6987008E-1,-1.44606205E-2,5.8116533E-2,1.5670145E-2],"split_indices":[0,0,0,0,0,0,0,0,0,0,0,0,0,0,0,0,0,0,0,0,0,0,0,0,0,0,0,0,0,0,0,0,0,0,0,0,0,0,0,0,0,0,0,0,0,0,0],"split_type":[0,0,0,0,0,0,0,0,0,0,0,0,0,0,0,0,0,0,0,0,0,0,0,0,0,0,0,0,0,0,0,0,0,0,0,0,0,0,0,0,0,0,0,0,0,0,0],"sum_hessian":[2.3057058E3,1.8438309E3,4.6187482E2,3.1681393E2,1.527017E3,1.668481E2,2.950267E2,2.946424E2,2.2171562E1,4.2179468E2,1.1052223E3,3.3484325E1,1.3336378E2,2.8138132E2,1.3261075E1,2.7918472E2,1.4260994E2,2.5176125E2,8.5346106E2,1.2425314E1,1.2093847E2,2.8788572E1,2.5259273E2,2.5511028E2,2.407446E1,2.174344E1,1.2086649E2,4.135803E1,2.1040323E2,7.2485535E1,7.809755E2,7.084591E1,5.009256E1,5.5613567E1,1.9697917E2,1.2149739E2,1.3361288E2,9.9224335E1,2.1642155E1,1.7534454E2,3.505868E1,3.4259304E1,3.822623E1,1.4293952E1,7.666816E2,3.9821564E1,3.1024343E1],"tree_param":{"num_deleted":"0","num_feature":"2","num_nodes":"47","size_leaf_vector":"1"}},{"base_weights":[-1.0433707E-2,-2.267931E-1,7.1651006E-1,-4.0246645E-1,-1.0019491E-2,3.3940116E-1,7.8249085E-1,-3.4109518E-1,-1.4836146E-1,1.0509697E0,-6.032624E-2,5.1182914E-1,-2.5295667E-2,7.166711E-1,9.143614E-2,-4.1173565E-1,6.340904E-1,7.267081E-2,1.19780675E-1,-1.4859156E-1,-4.1760072E-2,4.1202807E-1,6.4399086E-2,-3.6381178E-3,-4.2935784E-4,7.773813E-1,5.7810766E-1,-3.4331575E-1,-9.9028003E-1,1.1641063E-1,1.0819338E-1,4.0681228E-2,-3.8389733E-1,5.0736386E-2,2.1891108E-2,6.1325294E-1,8.732658E-2,4.4402063E-2,6.5887414E-2,-4.8501413E-2,3.173193E-2,-1.6067843E-1,-5.782106E-2,-1.7760243E-1,9.8914705E-2,-7.633312E-3,6.093372E-2,-1.8676212E-1,-1.2587805E-2,7.079135E-2,1.2193844E-2],"categories":[],"categories_nodes":[],"categories_segments":[],"categories_sizes":[],"default_left":[0,0,0,0,0,0,0,0,0,0,0,0,0,0,0,0,0,0,0,0,0,0,0,0,0,0,0,0,0,0,0,0,0,0,0,0,0,0,0,0,0,0,0,0,0,0,0,0,0,0,0],"id":9,"left_children":[1,3,5,7,9,11,13,15,-1,17,19,21,23,25,-1,27,29,-1,-1,-1,31,33,-1,-1,-1,35,37,39,41,-1,43,45,47,-1,-1,49,-1,-1,-1,-1,-1,-1,-1,-1,-1,-1,-1,-1,-1,-1,-1],"loss_changes":[3.5967508E2,6.7077774E1,1.2672424E1,6.3893295E1,4.2146206E1,5.0981646E0,3.0474548E0,6.3782967E1,0E0,6.3879395E-1,1.9782988E1,3.494177E-1,1.9409452E-3,1.957489E0,0E0,3.3601654E1,1.7196642E1,0E0,0E0,0E0,2.111827E1,4.4824934E-1,0E0,0E0,0E0,2.569542E0,6.4201355E-1,7.238931E1,2.1805687E1,0E0,5.5826298E1,4.0195553E1,5.521593E1,0E0,0E0,3.5507221E0,0E0,0E0,0E0,0E0,0E0,0E0,0E0,0E0,0E0,0E0,0E0,0E0,0E0,0E0,0E0],"parents":[2147483647,0,0,1,1,2,2,3,3,4,4,5,5,6,6,7,7,9,9,10,10,11,11,12,12,13,13,15,15,16,16,20,20,21,21,25,25,26,26,27,27,28,28,30,30,31,31,32,32,35,35],"right_children":[2,4,6,8,10,12,14,16,-1,18,20,22,24,26,-1,28,30,-1,-1,-1,32,34,-1,-1,-1,36,38,40,42,-1,44,46,48,-1,-1,50,-1,-1,-1,-1,-1,-1,-1,-1,-1,-1,-1,-1,-1,-1,-1],"split_conditions":[7.5514917E-3,4.346603E-3,8.529481E-3,4.170388E-3,4.378233E-3,8.0863815E-3,1.6994994E-2,4.103612E-3,-1.4836146E-1,4.3622423E-3,4.425276E-3,7.873508E-3,8.305649E-3,1.3125653E-2,9.143614E-2,3.8767783E-3,4.1160164E-3,7.267081E-2,1.19780675E-1,-1.4859156E-1,6.1731837E-3,7.7416585E-3,6.4399086E-2,-3.6381178E-3,-4.2935784E-4,1.0002575E-2,1.5169509E-2,3.6528583E-3,3.9922893E-3,1.1641063E-1,4.1502407E-3,5.8890707E-3,6.357117E-3,5.0736386E-2,2.1891108E-2,9.369167E-3,8.732658E-2,4.4402063E-2,6.5887414E-2,-4.8501413E-2,3.173193E-2,-1.6067843E-1,-5.782106E-2,-1.7760243E-1,9.8914705E-2,-7.633312E-3,6.093372E-2,-1.8676212E-1,-1.2587805E-2,7.079135E-2,1.2193844E-2],"split_indices":[1,1,1,1,1,1,1,1,0,1,1,1,1,1,0,1,1,0,0,0,1,1,0,0,0,1,1,1,1,0,1,1,1,0,0,1,0,0,0,0,0,0,0,0,0,0,0,0,0,0,0],"split_type":[0,0,0,0,0,0,0,0,0,0,0,0,0,0,0,0,0,0,0,0,0,0,0,0,0,0,0,0,0,0,0,0,0,0,0,0,0,0,0,0,0,0,0,0,0,0,0,0,0,0,0],"sum_hessian":[2.2851074E3,1.7616233E3,5.2348425E2,9.7232947E2,7.892938E2,7.9093E1,4.4439124E2,9.2143243E2,5.0897022E1,3.473975E1,7.545541E2,5.361479E1,2.5478209E1,3.0123206E2,1.4315918E2,8.5982855E2,6.1603905E1,1.2894591E1,2.184516E1,8.615298E0,7.459388E2,3.3324368E1,2.0290424E1,1.3080335E1,1.2397874E1,2.0575194E2,9.5480125E1,7.7047656E2,8.9351974E1,2.9982683E1,3.1621222E1,6.0157275E2,1.44366E2,2.0874317E1,1.2450051E1,7.89867E1,1.26765236E2,3.8800312E1,5.6679813E1,6.3474786E2,1.3572871E2,3.4537636E1,5.4814342E1,9.714321E0,2.19069E1,4.9948242E2,1.02090355E2,2.040462E1,1.2396137E2,6.568661E1,1.3300093E1],"tree_param":{"num_deleted":"0","num_feature":"2","num_nodes":"51","size_leaf_vector":"1"}},{"base_weights":[7.417352E-2,-8.846136E-2,7.475823E-1,-6.942595E-1,-4.124472E-2,5.365655E-1,8.3677E-1,-2.2795327E-1,-1.3788043E-1,1.0479149E0,-6.724098E-2,6.4933413E-1,3.411164E-1,7.908321E-1,1.0612307E-1,-8.440671E-1,1.5094796E-1,1.313478E-1,5.8752316E-1,-1.3997124E-1,-5.116319E-2,4.1486984E-1,9.519209E-2,-9.701364E-3,4.6491086E-1,8.5304594E-1,4.65742E-2,-4.8503146E-1,-1.390362E-1,-1.1263164E-1,1.1866468E-1,-3.89378E-2,-1.7468046E-1,5.4160304E-2,3.2010946E-1,3.5003196E-2,5.305282E-2,6.7777954E-2,8.768283E-1,-1.2285992E-1,1.1935178E-1,-1.7402543E-2,8.366411E-3,5.233118E-4,5.090768E-2,9.0193205E-2,6.98183E-2],"categories":[],"categories_nodes":[],"categories_segments":[],"categories_sizes":[],"default_left":[0,0,0,0,0,0,0,0,0,0,0,0,0,0,0,0,0,0,0,0,0,0,0,0,0,0,0,0,0,0,0,0,0,0,0,0,0,0,0,0,0,0,0,0,0,0,0],"id":10,"left_children":[1,3,5,7,9,11,13,15,-1,17,19,21,23,25,-1,27,-1,-1,29,-1,31,33,-1,-1,35,37,-1,39,-1,-1,-1,41,-1,-1,43,-1,-1,-1,45,-1,-1,-1,-1,-1,-1,-1,-1],"loss_changes":[2.5317711E2,5.315264E1,7.8767853E0,4.2427544E1,4.8910717E1,2.6927757E0,2.2129364E0,8.816092E1,0E0,3.960865E0,3.5970215E1,5.5175705E0,2.926805E0,4.828888E0,0E0,1.103384E1,0E0,0E0,1.8465233E1,0E0,3.4374794E1,3.4090614E-1,0E0,0E0,3.7166595E-2,1.7102051E-1,0E0,4.9201973E1,0E0,0E0,0E0,2.7504032E1,0E0,0E0,1.820483E0,0E0,0E0,0E0,6.5078735E-2,0E0,0E0,0E0,0E0,0E0,0E0,0E0,0E0],"parents":[2147483647,0,0,1,1,2,2,3,3,4,4,5,5,6,6,7,7,9,9,10,10,11,11,12,12,13,13,15,15,18,18,20,20,21,21,24,24,25,25,27,27,31,31,34,34,38,38],"right_children":[2,4,6,8,10,12,14,16,-1,18,20,22,24,26,-1,28,-1,-1,30,-1,32,34,-1,-1,36,38,-1,40,-1,-1,-1,42,-1,-1,44,-1,-1,-1,46,-1,-1,-1,-1,-1,-1,-1,-1],"split_conditions":[5.039831E-3,1.4621336E-3,6.7391396E-3,1.2975293E-3,1.5106389E-3,5.439095E-3,1.5705857E-2,1.28447E-3,-1.3788043E-1,1.489228E-3,1.5634093E-3,5.264495E-3,5.6800125E-3,1.0456084E-2,1.0612307E-1,1.2155453E-3,1.5094796E-1,1.313478E-1,1.4987647E-3,-1.3997124E-1,4.857531E-3,5.1016696E-3,9.519209E-2,-9.701364E-3,6.178108E-3,7.616074E-3,4.65742E-2,1.1745864E-3,-1.390362E-1,-1.1263164E-1,1.1866468E-1,2.8552203E-3,-1.7468046E-1,5.4160304E-2,5.168888E-3,3.5003196E-2,5.305282E-2,6.7777954E-2,1.01419985E-2,-1.2285992E-1,1.1935178E-1,-1.7402543E-2,8.366411E-3,5.233118E-4,5.090768E-2,9.0193205E-2,6.98183E-2],"split_indices":[0,0,0,0,0,0,0,0,0,0,0,0,0,0,0,0,0,0,0,0,0,0,0,0,0,0,0,0,0,0,0,0,0,0,0,0,0,0,0,0,0,0,0,0,0,0,0],"split_type":[0,0,0,0,0,0,0,0,0,0,0,0,0,0,0,0,0,0,0,0,0,0,0,0,0,0,0,0,0,0,0,0,0,0,0,0,0,0,0,0,0,0,0,0,0,0,0],"sum_hessian":[2.309497E3,1.8608126E3,4.4868448E2,1.3340323E2,1.7274093E3,1.3571709E2,3.1296738E2,8.023017E1,5.317305E1,3.9262913E1,1.6881465E3,8.426478E1,5.145231E1,2.6392215E2,4.9045246E1,5.964951E1,2.0580664E1,2.358719E1,1.5675723E1,1.9026394E1,1.66912E3,4.8998806E1,3.5265972E1,1.1204873E1,4.0247437E1,2.1990617E2,4.4015972E1,3.724336E1,2.2406153E1,3.789296E0,1.1886427E1,1.6582462E3,1.08738365E1,1.8494001E1,3.0504805E1,1.7488335E1,2.27591E1,3.0301374E1,1.896048E2,2.6037043E1,1.1206317E1,7.891385E2,8.691077E2,1.2024784E1,1.848002E1,1.6220305E2,2.7401749E1],"tree_param":{"num_deleted":"0","num_feature":"2","num_nodes":"47","size_leaf_vector":"1"}},{"base_weights":[5.92718E-2,-1.3726124E-1,6.4427286E-1,-3.2692426E-1,3.7258413E-2,4.630782E-1,7.6340365E-1,-2.2935875E-1,-1.5561032E-1,7.206932E-1,-5.8225896E-2,9.5073804E-2,4.103749E-1,6.7652273E-1,8.654067E-2,-2.9505593E-1,1.3301522E-1,3.7327263E-1,8.319458E-1,-1.3641772E-1,2.0139527E-2,-2.6187104E-1,4.7630987E-1,7.794272E-2,4.9975234E-1,-1.2149059E-1,-2.4816008E-1,9.3157284E-2,-1.6645788E-1,1.15295485E-1,4.891021E-1,9.879024E-2,-2.8251825E-2,1.793243E-2,-1.3983949E-1,2.1204448E-1,5.265332E-1,2.4601196E-1,6.4996886E-1,-1.9492985E-3,-3.7110552E-2,-1.5048586E-1,8.468096E-2,-6.999103E-2,9.370437E-3,5.4982573E-2,-1.3377467E-1,7.13852E-2,3.8217008E-2,3.8813036E-2,-3.513232E-4,7.925411E-2,3.498966E-2],"categories":[],"categories_nodes":[],"categories_segments":[],"categories_sizes":[],"default_left":[0,0,0,0,0,0,0,0,0,0,0,0,0,0,0,0,0,0,0,0,0,0,0,0,0,0,0,0,0,0,0,0,0,0,0,0,0,0,0,0,0,0,0,0,0,0,0,0,0,0,0,0,0],"id":11,"left_children":[1,3,5,7,9,11,13,15,-1,17,19,-1,21,23,-1,25,-1,27,29,-1,31,33,35,-1,37,-1,39,-1,-1,-1,41,-1,43,-1,-1,45,47,49,51,-1,-1,-1,-1,-1,-1,-1,-1,-1,-1,-1,-1,-1,-1],"loss_changes":[2.6330743E2,5.6776466E1,1.1955429E1,9.801582E1,5.840197E1,5.4190598E0,2.3230133E0,7.842027E1,0E0,3.8092995E0,8.045724E1,0E0,9.485657E0,2.970398E0,0E0,3.1156258E1,0E0,3.4064095E1,8.303734E0,0E0,3.4829727E1,1.0065449E1,2.3677711E0,0E0,2.5594234E0,0E0,1.9589966E1,0E0,0E0,0E0,3.0859081E1,0E0,5.801107E1,0E0,0E0,1.778244E1,3.9622002E0,1.0774689E0,1.5521812E0,0E0,0E0,0E0,0E0,0E0,0E0,0E0,0E0,0E0,0E0,0E0,0E0,0E0,0E0],"parents":[2147483647,0,0,1,1,2,2,3,3,4,4,5,5,6,6,7,7,9,9,10,10,12,12,13,13,15,15,17,17,18,18,20,20,21,21,22,22,24,24,26,26,30,30,32,32,35,35,36,36,37,37,38,38],"right_children":[2,4,6,8,10,12,14,16,-1,18,20,-1,22,24,-1,26,-1,28,30,-1,32,34,36,-1,38,-1,40,-1,-1,-1,42,-1,44,-1,-1,46,48,50,52,-1,-1,-1,-1,-1,-1,-1,-1,-1,-1,-1,-1,-1,-1],"split_conditions":[6.797046E-3,4.0814853E-3,1.0002575E-2,3.8767783E-3,4.1862433E-3,6.8625445E-3,1.6994994E-2,3.8616017E-3,-1.5561032E-1,4.103612E-3,4.346603E-3,9.5073804E-2,7.02571E-3,1.3125653E-2,8.654067E-2,1.914309E-3,1.3301522E-1,4.0918426E-3,4.1318284E-3,-1.3641772E-1,4.378233E-3,6.9339983E-3,7.5514917E-3,7.794272E-2,1.5169509E-2,-1.2149059E-1,2.6827476E-3,9.3157284E-2,-1.6645788E-1,1.15295485E-1,4.1502407E-3,9.879024E-2,4.7994163E-3,1.793243E-2,-1.3983949E-1,7.298483E-3,8.0863815E-3,1.4357376E-2,1.6056674E-2,-1.9492985E-3,-3.7110552E-2,-1.5048586E-1,8.468096E-2,-6.999103E-2,9.370437E-3,5.4982573E-2,-1.3377467E-1,7.13852E-2,3.8217008E-2,3.8813036E-2,-3.513232E-4,7.925411E-2,3.498966E-2],"split_indices":[1,1,1,1,1,1,1,1,0,1,1,0,1,1,0,1,0,1,1,0,1,1,1,0,1,0,1,0,0,0,1,0,1,0,0,1,1,1,1,0,0,0,0,0,0,0,0,0,0,0,0,0,0],"split_type":[0,0,0,0,0,0,0,0,0,0,0,0,0,0,0,0,0,0,0,0,0,0,0,0,0,0,0,0,0,0,0,0,0,0,0,0,0,0,0,0,0,0,0,0,0,0,0,0,0,0,0,0,0],"sum_hessian":[2.2879766E3,1.713062E3,5.749144E2,8.2077106E2,8.92291E2,2.303242E2,3.445902E2,7.6158826E2,5.9182755E1,1.087078E2,7.835832E2,2.0617262E1,2.0970695E2,1.9074026E2,1.5384995E2,7.3164154E2,2.9946768E1,2.7641804E1,8.1066E1,4.350162E1,7.4008154E2,1.8330305E1,1.9137665E2,1.1804625E2,7.269402E1,3.4179543E1,6.97462E2,2.2162098E1,5.4797053E0,4.0495213E1,4.057079E1,3.441804E1,7.056635E2,1.3747711E1,4.5825934E0,3.1714458E1,1.5966219E2,2.8260616E1,4.4433407E1,2.4456525E2,4.5289673E2,5.6408143E0,3.4929974E1,1.0783833E2,5.978252E2,2.6621893E1,5.0925646E0,6.747381E1,9.218838E1,1.790692E1,1.0353696E1,2.8783285E1,1.5650123E1],"tree_param":{"num_deleted":"0","num_feature":"2","num_nodes":"53","size_leaf_vector":"1"}},{"base_weights":[6.665862E-2,-7.047717E-2,6.6312206E-1,-8.453466E-1,-1.7775254E-2,5.44284E-1,8.069076E-1,-4.8924738E-1,-1.3163215E-1,1.263491E-1,-3.608405E-2,6.8633235E-1,4.4676474E-1,7.35362E-1,9.644537E-2,-7.967336E-1,8.251293E-2,-2.7751533E-2,-1.5410513E-1,5.73753E-1,8.604398E-2,-2.2311999E-2,5.051199E-1,8.8187E-2,3.000718E-1,-4.5678413E-1,-1.3186131E-1,-8.225517E-2,1.764392E-1,7.672375E-2,3.4303904E-1,3.3853397E-1,5.699483E-1,1.01194605E-2,4.3555763E-2,-1.17598966E-1,7.4129604E-2,6.648383E-4,-7.694655E-2,1.11564696E-1,1.1299462E-2,2.0232594E-2,4.060405E-2,4.9707983E-2,7.44925E-3,6.7562506E-2,4.264925E-2],"categories":[],"categories_nodes":[],"categories_segments":[],"categories_sizes":[],"default_left":[0,0,0,0,0,0,0,0,0,0,0,0,0,0,0,0,0,0,0,0,0,0,0,0,0,0,0,0,0,0,0,0,0,0,0,0,0,0,0,0,0,0,0,0,0,0,0],"id":12,"left_children":[1,3,5,7,9,11,13,15,-1,-1,17,19,21,23,-1,25,-1,27,-1,29,-1,-1,31,-1,33,35,-1,37,39,-1,41,43,45,-1,-1,-1,-1,-1,-1,-1,-1,-1,-1,-1,-1,-1,-1],"loss_changes":[1.8711354E2,7.584095E1,6.732437E0,1.9013374E1,4.0795784E1,2.8709946E0,1.2741776E0,2.856905E1,0E0,0E0,2.1355108E1,1.2136955E0,5.77577E0,8.292107E0,0E0,9.251915E0,0E0,1.9041233E1,0E0,2.335167E0,0E0,0E0,1.1529694E0,0E0,8.7070394E-1,3.183758E1,0E0,8.263172E1,2.1220938E1,0E0,1.2055707E-1,1.5872173E0,1.0247765E0,0E0,0E0,0E0,0E0,0E0,0E0,0E0,0E0,0E0,0E0,0E0,0E0,0E0,0E0],"parents":[2147483647,0,0,1,1,2,2,3,3,4,4,5,5,6,6,7,7,10,10,11,11,12,12,13,13,15,15,17,17,19,19,22,22,24,24,25,25,27,27,28,28,30,30,31,31,32,32],"right_children":[2,4,6,8,10,12,14,16,-1,-1,18,20,22,24,-1,26,-1,28,-1,30,-1,-1,32,-1,34,36,-1,38,40,-1,42,44,46,-1,-1,-1,-1,-1,-1,-1,-1,-1,-1,-1,-1,-1,-1],"split_conditions":[5.039831E-3,1.4621336E-3,9.545046E-3,1.2975293E-3,1.489228E-3,5.439095E-3,1.5705857E-2,1.28447E-3,-1.3163215E-1,1.263491E-1,4.857531E-3,5.264495E-3,5.6800125E-3,1.0456084E-2,9.644537E-2,1.2155453E-3,8.251293E-2,3.6246912E-3,-1.5410513E-1,5.1016696E-3,8.604398E-2,-2.2311999E-2,6.7391396E-3,8.8187E-2,1.1787906E-2,1.1745864E-3,-1.3186131E-1,3.2596893E-3,3.6435395E-3,7.672375E-2,5.168888E-3,6.178108E-3,8.429039E-3,1.01194605E-2,4.3555763E-2,-1.17598966E-1,7.4129604E-2,6.648383E-4,-7.694655E-2,1.11564696E-1,1.1299462E-2,2.0232594E-2,4.060405E-2,4.9707983E-2,7.44925E-3,6.7562506E-2,4.264925E-2],"split_indices":[0,0,0,0,0,0,0,0,0,0,0,0,0,0,0,0,0,0,0,0,0,0,0,0,0,0,0,0,0,0,0,0,0,0,0,0,0,0,0,0,0,0,0,0,0,0,0],"split_type":[0,0,0,0,0,0,0,0,0,0,0,0,0,0,0,0,0,0,0,0,0,0,0,0,0,0,0,0,0,0,0,0,0,0,0,0,0,0,0,0,0,0,0,0,0,0,0],"sum_hessian":[2.285254E3,1.8586393E3,4.2661456E2,1.172844E2,1.7413549E3,2.3657079E2,1.9004378E2,6.8069145E1,4.9215256E1,2.3497627E1,1.7178573E3,9.342413E1,1.4314665E2,1.35027E2,5.5016785E1,5.5544853E1,1.252429E1,1.7094773E3,8.379936E0,5.969476E1,3.372937E1,1.1107029E1,1.3203963E2,1.0008511E2,3.494187E1,3.4886715E1,2.0658136E1,1.3501699E3,3.593074E2,3.0966387E1,2.8728373E1,3.9164734E1,9.287489E1,1.5165579E1,1.9776293E1,2.1863811E1,1.3022903E1,1.1962565E3,1.5391342E2,2.1586647E1,3.3772076E2,1.0677967E1,1.8050404E1,2.3682858E1,1.5481876E1,5.094186E1,4.1933033E1],"tree_param":{"num_deleted":"0","num_feature":"2","num_nodes":"47","size_leaf_vector":"1"}},{"base_weights":[7.078149E-2,-1.24395646E-1,4.6509123E-1,-4.1833064E-1,8.332453E-3,2.86595E-1,5.7499135E-1,-3.544797E-1,-1.3788639E-1,1.3487267E-1,-3.698791E-2,1.0962911E-1,1.868866E-1,5.3585666E-1,7.958333E-2,-4.4302124E-1,1.1054774E-1,-6.390529E-3,-1.6085209E-1,-1.6182022E-1,2.3081909E-1,5.880691E-1,4.0691552E-1,-3.3828786E-1,-1.3944767E-1,-6.219932E-1,7.0869625E-2,2.664834E-1,-1.2785654E-1,4.944897E-1,7.6719694E-2,1.0117161E-1,5.8708537E-2,-4.7286995E-2,6.695058E-2,-4.625834E-2,-1.5263766E-1,7.5291984E-2,-6.0446694E-4,1.5085516E-2,5.2550633E-2,7.152756E-2,4.514953E-2,3.4300335E-2,-7.211608E-2],"categories":[],"categories_nodes":[],"categories_segments":[],"categories_sizes":[],"default_left":[0,0,0,0,0,0,0,0,0,0,0,0,0,0,0,0,0,0,0,0,0,0,0,0,0,0,0,0,0,0,0,0,0,0,0,0,0,0,0,0,0,0,0,0,0],"id":13,"left_children":[1,3,5,7,9,11,13,15,-1,-1,17,-1,19,21,-1,23,-1,25,-1,-1,27,29,31,33,-1,35,37,39,-1,41,-1,43,-1,-1,-1,-1,-1,-1,-1,-1,-1,-1,-1,-1,-1],"loss_changes":[1.7445662E2,5.919345E1,1.4472E1,2.8279594E1,6.3675426E1,2.294605E1,3.4434662E0,5.780815E1,0E0,0E0,4.848717E1,0E0,2.0698475E1,2.33329E0,0E0,4.11398E1,0E0,4.7360207E1,0E0,0E0,1.3850481E1,4.1831436E0,6.382635E0,5.172195E1,0E0,1.5104916E1,4.643396E1,7.27783E0,0E0,1.3346024E0,0E0,9.206033E0,0E0,0E0,0E0,0E0,0E0,0E0,0E0,0E0,0E0,0E0,0E0,0E0,0E0],"parents":[2147483647,0,0,1,1,2,2,3,3,4,4,5,5,6,6,7,7,10,10,12,12,13,13,15,15,17,17,20,20,21,21,22,22,23,23,25,25,26,26,27,27,29,29,31,31],"right_children":[2,4,6,8,10,12,14,16,-1,-1,18,-1,20,22,-1,24,-1,26,-1,-1,28,30,32,34,-1,36,38,40,-1,42,-1,44,-1,-1,-1,-1,-1,-1,-1,-1,-1,-1,-1,-1,-1],"split_conditions":[5.8890707E-3,3.2894514E-3,7.5514917E-3,3.196475E-3,3.3184628E-3,5.9266197E-3,1.8639347E-2,3.1631275E-3,-1.3788639E-1,1.3487267E-1,5.7677515E-3,1.0962911E-1,5.967755E-3,1.3125653E-2,7.958333E-2,3.0281048E-3,1.1054774E-1,3.6528583E-3,-1.6085209E-1,-1.6182022E-1,7.298483E-3,1.05090095E-2,1.6056674E-2,2.9618044E-3,-1.3944767E-1,3.606682E-3,3.7666357E-3,6.797046E-3,-1.2785654E-1,7.7416585E-3,7.6719694E-2,1.5169509E-2,5.8708537E-2,-4.7286995E-2,6.695058E-2,-4.625834E-2,-1.5263766E-1,7.5291984E-2,-6.0446694E-4,1.5085516E-2,5.2550633E-2,7.152756E-2,4.514953E-2,3.4300335E-2,-7.211608E-2],"split_indices":[1,1,1,1,1,1,1,1,0,0,1,0,1,1,0,1,0,1,0,0,1,1,1,1,0,1,1,1,0,1,0,1,0,0,0,0,0,0,0,0,0,0,0,0,0],"split_type":[0,0,0,0,0,0,0,0,0,0,0,0,0,0,0,0,0,0,0,0,0,0,0,0,0,0,0,0,0,0,0,0,0,0,0,0,0,0,0,0,0,0,0,0,0],"sum_hessian":[2.2646465E3,1.5151178E3,7.495286E2,4.70894E2,1.0442238E3,2.873469E2,4.6218173E2,4.42924E2,2.797E1,3.3283325E1,1.0109404E3,3.0299292E1,2.5704758E2,3.9590402E2,6.6277725E1,4.1831937E2,2.4604633E1,9.9268085E2,1.8259565E1,5.2019253E0,2.5184566E2,2.7870923E2,1.1719478E2,3.78154E2,4.0165398E1,1.1005057E2,8.826303E2,2.4690149E2,4.9441795E0,1.8590704E2,9.280219E1,4.4238934E1,7.295585E1,3.3415985E2,4.399412E1,9.4938446E1,1.5112122E1,8.868779E1,7.939425E2,1.7206146E2,7.484003E1,2.7373844E1,1.585332E2,3.473002E1,9.508918E0],"tree_param":{"num_deleted":"0","num_feature":"2","num_nodes":"45","size_leaf_vector":"1"}},{"base_weights":[1.1482988E-2,-8.696903E-2,6.8966347E-1,-4.3627408E-1,-8.878292E-3,4.223452E-2,7.086321E-1,-3.5097274E-1,-1.4837505E-1,7.5035477E-1,-6.7430876E-2,7.7891074E-2,5.968557E-1,-3.9894122E-1,8.4374644E-2,1.6580485E-1,5.316552E-1,-1.5278219E-1,-4.4390716E-2,4.2700347E-1,8.500784E-2,-2.6508212E-1,-9.308428E-1,-1.3520174E-1,1.1530404E0,1.0001354E0,-7.078806E-2,6.2074777E-2,2.9264295E-1,-4.619845E-2,5.1434387E-2,-1.4190792E-1,-1.4339549E-2,2.268961E-2,-1.3801815E-1,1.5086734E-1,8.069106E-2,1.21026576E-1,6.0446378E-2,-9.474934E-2,-3.841032E-3,1.8194543E-2,3.988458E-2],"categories":[],"categories_nodes":[],"categories_segments":[],"categories_sizes":[],"default_left":[0,0,0,0,0,0,0,0,0,0,0,0,0,0,0,0,0,0,0,0,0,0,0,0,0,0,0,0,0,0,0,0,0,0,0,0,0,0,0,0,0,0,0],"id":14,"left_children":[1,3,5,7,9,-1,11,13,-1,15,17,-1,19,21,-1,-1,23,-1,25,27,-1,29,31,33,35,37,39,-1,41,-1,-1,-1,-1,-1,-1,-1,-1,-1,-1,-1,-1,-1,-1],"loss_changes":[1.4675711E2,5.2285046E1,1.000534E0,3.0594635E1,6.974417E1,0E0,1.4270782E0,1.8935314E1,0E0,2.1196018E1,4.8831512E1,0E0,4.006607E0,2.1955746E1,0E0,0E0,3.840969E1,0E0,3.9583366E1,1.4146223E0,0E0,3.8911003E1,2.3664104E1,2.0817516E1,4.4403343E0,2.0284576E0,3.9662483E1,0E0,3.452313E-1,0E0,0E0,0E0,0E0,0E0,0E0,0E0,0E0,0E0,0E0,0E0,0E0,0E0,0E0],"parents":[2147483647,0,0,1,1,2,2,3,3,4,4,6,6,7,7,9,9,10,10,12,12,13,13,16,16,18,18,19,19,21,21,22,22,23,23,24,24,25,25,26,26,28,28],"right_children":[2,4,6,8,10,-1,12,14,-1,16,18,-1,20,22,-1,-1,24,-1,26,28,-1,30,32,34,36,38,40,-1,42,-1,-1,-1,-1,-1,-1,-1,-1,-1,-1,-1,-1,-1,-1],"split_conditions":[6.7391396E-3,1.933905E-3,7.616074E-3,1.8595989E-3,2.072088E-3,4.223452E-2,1.01419985E-2,1.8513596E-3,-1.4837505E-1,1.9466386E-3,2.129405E-3,7.7891074E-2,1.5705857E-2,1.7031905E-3,8.4374644E-2,1.6580485E-1,2.0228636E-3,-1.5278219E-1,2.1468978E-3,1.0456084E-2,8.500784E-2,1.6291114E-3,1.8172461E-3,1.994543E-3,2.0360257E-3,2.1375513E-3,2.2387973E-3,6.2074777E-2,1.1787906E-2,-4.619845E-2,5.1434387E-2,-1.4190792E-1,-1.4339549E-2,2.268961E-2,-1.3801815E-1,1.5086734E-1,8.069106E-2,1.21026576E-1,6.0446378E-2,-9.474934E-2,-3.841032E-3,1.8194543E-2,3.988458E-2],"split_indices":[0,0,0,0,0,0,0,0,0,0,0,0,0,0,0,0,0,0,0,0,0,0,0,0,0,0,0,0,0,0,0,0,0,0,0,0,0,0,0,0,0,0,0],"split_type":[0,0,0,0,0,0,0,0,0,0,0,0,0,0,0,0,0,0,0,0,0,0,0,0,0,0,0,0,0,0,0,0,0,0,0,0,0,0,0,0,0,0,0],"sum_hessian":[2.1952068E3,1.9175576E3,2.776491E2,3.4929056E2,1.5682671E3,2.0287157E1,2.5736197E2,3.243108E2,2.4979748E1,1.1131803E2,1.4569491E3,1.5379892E2,1.03563034E2,3.1251306E2,1.1797749E1,2.0246801E1,9.107123E1,2.1547045E1,1.435402E3,6.382968E1,3.9733353E1,2.5102591E2,6.1487152E1,4.4228096E1,4.6843136E1,3.4378803E1,1.4010232E3,2.4351372E1,3.947831E1,2.0082747E2,5.019843E1,3.7380947E1,2.4106207E1,3.483414E1,9.393955E0,2.130529E1,2.5537846E1,2.094434E1,1.3434462E1,4.878196E1,1.3522412E3,2.1119635E1,1.8358675E1],"tree_param":{"num_deleted":"0","num_feature":"2","num_nodes":"43","size_leaf_vector":"1"}},{"base_weights":[-2.013153E-2,-1.8134816E-1,4.828852E-1,-4.1040188E-1,-4.1586842E-2,2.6281464E-1,5.7416004E-1,-3.717244E-1,-1.8264776E-1,1.4594084E-2,-1.2129723E0,3.9084226E-1,-1.4430203E-1,5.289733E-1,6.7239426E-2,-9.0863764E-1,-2.9127115E-1,-1.6458933E-1,1.6238938E-1,-1.8813366E-1,-1.8317543E-1,2.300149E-1,6.2756896E-2,-2.8521807E-3,-1.9629195E-2,6.0916954E-1,2.9975814E-1,-5.237348E-1,-1.324307E-1,9.759259E-1,-3.619462E-1,3.441873E-2,-1.5215953E-1,6.824667E-1,7.4845254E-2,4.466417E-2,-1.532059E-1,3.4811962E-1,-1.1944588E-1,4.681654E-1,6.921412E-2,7.455722E-2,4.332647E-2,-1.1474078E-1,7.7543505E-2,6.647458E-2,1.3023406E-1,-3.8877036E-2,5.7925057E-2,1.0062199E-1,-2.9875818E-3,9.118331E-2,5.7436675E-2,-1.4667915E-1,1.1516913E-2,5.7986725E-2,9.129824E-3,5.72805E-2,-4.4388864E-3,1.7145127E-2,-8.429757E-3],"categories":[],"categories_nodes":[],"categories_segments":[],"categories_sizes":[],"default_left":[0,0,0,0,0,0,0,0,0,0,0,0,0,0,0,0,0,0,0,0,0,0,0,0,0,0,0,0,0,0,0,0,0,0,0,0,0,0,0,0,0,0,0,0,0,0,0,0,0,0,0,0,0,0,0,0,0,0,0,0,0],"id":15,"left_children":[1,3,5,7,9,11,13,15,-1,17,19,21,23,25,-1,27,29,31,33,-1,35,37,-1,-1,-1,39,41,43,-1,45,47,49,-1,51,53,-1,-1,55,-1,57,-1,59,-1,-1,-1,-1,-1,-1,-1,-1,-1,-1,-1,-1,-1,-1,-1,-1,-1,-1,-1],"loss_changes":[1.7285545E2,5.162323E1,1.015625E1,3.258966E1,6.621615E1,8.098321E0,1.1420593E0,2.5382133E1,0E0,2.542431E1,3.1141838E1,4.2423935E0,1.9669992E-1,4.4145203E0,0E0,1.1457119E1,4.689863E1,1.1731875E2,2.3838285E1,0E0,1.718049E1,1.240743E1,0E0,0E0,0E0,1.7551651E0,1.9732089E0,3.480453E1,0E0,1.7498188E0,1.2670914E1,2.3816195E1,0E0,1.2008476E0,2.8120602E1,0E0,0E0,3.875043E0,0E0,3.996008E0,0E0,4.3785763E-1,0E0,0E0,0E0,0E0,0E0,0E0,0E0,0E0,0E0,0E0,0E0,0E0,0E0,0E0,0E0,0E0,0E0,0E0,0E0],"parents":[2147483647,0,0,1,1,2,2,3,3,4,4,5,5,6,6,7,7,9,9,10,10,11,11,12,12,13,13,15,15,16,16,17,17,18,18,20,20,21,21,25,25,26,26,27,27,29,29,30,30,31,31,33,33,34,34,37,37,39,39,41,41],"right_children":[2,4,6,8,10,12,14,16,-1,18,20,22,24,26,-1,28,30,32,34,-1,36,38,-1,-1,-1,40,42,44,-1,46,48,50,-1,52,54,-1,-1,56,-1,58,-1,60,-1,-1,-1,-1,-1,-1,-1,-1,-1,-1,-1,-1,-1,-1,-1,-1,-1,-1,-1],"split_conditions":[6.797046E-3,3.7524337E-3,8.529481E-3,3.687817E-3,6.3063144E-3,7.873508E-3,1.6994994E-2,2.1186057E-3,-1.8264776E-1,4.7994163E-3,6.641812E-3,7.5514917E-3,8.0863815E-3,1.3125653E-2,6.7239426E-2,1.9513717E-3,2.1789225E-3,4.521185E-3,4.904875E-3,-1.8813366E-1,6.72137E-3,7.298483E-3,6.2756896E-2,-2.8521807E-3,-1.9629195E-2,1.0002575E-2,1.5169509E-2,1.914309E-3,-1.324307E-1,2.1549643E-3,3.6746648E-3,3.7666357E-3,-1.5215953E-1,4.8188707E-3,4.944686E-3,4.466417E-2,-1.532059E-1,6.9339983E-3,-1.1944588E-1,9.369167E-3,6.921412E-2,1.4357376E-2,4.332647E-2,-1.1474078E-1,7.7543505E-2,6.647458E-2,1.3023406E-1,-3.8877036E-2,5.7925057E-2,1.0062199E-1,-2.9875818E-3,9.118331E-2,5.7436675E-2,-1.4667915E-1,1.1516913E-2,5.7986725E-2,9.129824E-3,5.72805E-2,-4.4388864E-3,1.7145127E-2,-8.429757E-3],"split_indices":[1,1,1,1,1,1,1,1,0,1,1,1,1,1,0,1,1,1,1,0,1,1,0,0,0,1,1,1,0,1,1,1,0,1,1,0,0,1,0,1,0,1,0,0,0,0,0,0,0,0,0,0,0,0,0,0,0,0,0,0,0],"split_type":[0,0,0,0,0,0,0,0,0,0,0,0,0,0,0,0,0,0,0,0,0,0,0,0,0,0,0,0,0,0,0,0,0,0,0,0,0,0,0,0,0,0,0,0,0,0,0,0,0,0,0,0,0,0,0,0,0,0,0,0,0],"sum_hessian":[2.1298188E3,1.6135236E3,5.162952E2,6.104348E2,1.00308875E3,1.5281691E2,3.6347833E2,5.9550287E2,1.49319315E1,9.580422E2,4.5046577E1,1.16474365E2,3.634255E1,2.5402985E2,1.0944848E2,7.6100586E1,5.194023E2,4.3268057E2,5.2536163E2,2.6756758E1,1.8289822E1,7.078116E1,4.5693207E1,1.233806E1,2.4004488E1,1.866367E2,6.7393135E1,4.0810917E1,3.5289665E1,2.6686792E1,4.9271548E2,3.7812814E2,5.4552425E1,7.454872E1,4.508129E2,1.287364E1,5.4161816E0,6.612452E1,4.6566405E0,7.204656E1,1.1459014E2,2.5941727E1,4.1451412E1,2.7704853E1,1.3106066E1,1.5373587E1,1.1313205E1,4.7973615E2,1.2979334E1,2.2652014E1,3.5547614E2,2.1202053E1,5.334667E1,1.0526213E1,4.4028668E2,3.389315E1,3.2231365E1,5.989613E1,1.2150435E1,1.6455093E1,9.486633E0],"tree_param":{"num_deleted":"0","num_feature":"2","num_nodes":"61","size_leaf_vector":"1"}},{"base_weights":[7.7600315E-2,-6.722625E-1,1.454249E-1,-3.9794666E-1,-1.3924621E-1,-3.5933614E-2,2.9215157E-1,-5.454884E-1,9.290862E-2,1.0566804E0,-1.04817815E-1,2.5536892E-1,6.396789E-2,-2.665443E-1,-1.3986191E-1,8.730057E-2,1.6868012E-1,-1.3206303E-1,-2.473849E-2,4.8195407E-1,2.2359937E-1,-5.1140404E-1,1.4607264E-1,1.0557925E-1,-1.2688461E-1,-3.7608846E-4,-1.3416387E-1,2.6867062E-1,8.026875E-2,-1.6674915E-1,2.4968794E-1,-2.182676E-2,-1.2562244E-1,-2.2468215E-3,1.3610579E-1,5.0661325E-2,-1.3655327E-1,4.5764904E-2,2.1049831E-2],"categories":[],"categories_nodes":[],"categories_segments":[],"categories_sizes":[],"default_left":[0,0,0,0,0,0,0,0,0,0,0,0,0,0,0,0,0,0,0,0,0,0,0,0,0,0,0,0,0,0,0,0,0,0,0,0,0,0,0],"id":16,"left_children":[1,3,5,7,-1,9,11,13,-1,15,17,19,-1,21,-1,23,-1,-1,25,27,29,31,-1,-1,-1,33,-1,35,-1,-1,37,-1,-1,-1,-1,-1,-1,-1,-1],"loss_changes":[1.11145355E2,3.5075066E1,5.336868E1,2.646132E1,0E0,6.752088E1,1.3914574E1,2.8058636E1,0E0,3.21694E1,8.2075806E1,7.0500717E0,0E0,3.951387E1,0E0,3.0310617E1,0E0,0E0,2.5326744E1,8.0383835E0,4.383447E1,1.7321922E1,0E0,0E0,0E0,2.3365038E1,0E0,2.9808443E1,0E0,0E0,6.942215E0,0E0,0E0,0E0,0E0,0E0,0E0,0E0,0E0],"parents":[2147483647,0,0,1,1,2,2,3,3,5,5,6,6,7,7,9,9,10,10,11,11,13,13,15,15,18,18,19,19,20,20,21,21,25,25,27,27,30,30],"right_children":[2,4,6,8,-1,10,12,14,-1,16,18,20,-1,22,-1,24,-1,-1,26,28,30,32,-1,-1,-1,34,-1,36,-1,-1,38,-1,-1,-1,-1,-1,-1,-1,-1],"split_conditions":[2.5738492E-3,2.314207E-3,4.7994163E-3,2.2926133E-3,-1.3924621E-1,2.6827476E-3,1.6994994E-2,2.1413984E-3,9.290862E-2,2.6466986E-3,2.9134161E-3,5.004635E-3,6.396789E-2,2.1186057E-3,-1.3986191E-1,2.5940568E-3,1.6868012E-1,-1.3206303E-1,4.735269E-3,4.944686E-3,5.0531803E-3,2.0071405E-3,1.4607264E-1,1.0557925E-1,-1.2688461E-1,4.714097E-3,-1.3416387E-1,4.904875E-3,8.026875E-2,-1.6674915E-1,5.3596846E-3,-2.182676E-2,-1.2562244E-1,-2.2468215E-3,1.3610579E-1,5.0661325E-2,-1.3655327E-1,4.5764904E-2,2.1049831E-2],"split_indices":[1,1,1,1,0,1,1,1,0,1,1,1,0,1,0,1,0,0,1,1,1,1,0,0,0,1,0,1,0,0,1,0,0,0,0,0,0,0,0],"split_type":[0,0,0,0,0,0,0,0,0,0,0,0,0,0,0,0,0,0,0,0,0,0,0,0,0,0,0,0,0,0,0,0,0,0,0,0,0,0,0],"sum_hessian":[2.1834702E3,1.8025047E2,2.0032198E3,1.317571E2,4.849338E1,8.9591534E2,1.1073044E3,1.1917169E2,1.258541E1,5.2196903E1,8.4371844E2,1.0031523E3,1.0415218E2,9.088507E1,2.8286615E1,2.1073935E1,3.1122969E1,5.1102917E1,7.9261554E2,1.2122674E2,8.8192554E2,8.026801E1,1.061706E1,1.2466326E1,8.60761E0,7.792753E2,1.3340223E1,7.410041E1,4.7126328E1,1.1092744E1,8.708328E2,5.8623188E1,2.1644825E1,7.6787195E2,1.1403387E1,6.533824E1,8.762167E0,1.3598651E2,7.348463E2],"tree_param":{"num_deleted":"0","num_feature":"2","num_nodes":"39","size_leaf_vector":"1"}},{"base_weights":[7.0936285E-2,-8.773316E-2,2.891397E-1,-5.7144217E-2,-1.9621365E-1,1.8818368E-1,5.1257175E-1,-8.2580787E-1,-1.1711782E-2,2.0903824E-1,-2.0330985E-1,4.128348E-1,6.476215E-2,-4.8218173E-1,-1.24708734E-1,-6.762053E-2,3.199304E-1,5.320161E-1,1.4296463E-1,5.9902348E-2,8.753398E-2,-1.1214304E-1,8.04574E-2,1.1937458E-2,-4.3341744E-1,6.6201633E-1,-1.77367E-2,3.53563E-1,8.756336E-1,-1.6318758E-1,1.6326225E-1,-5.710409E-2,4.3988717E-1,-8.122435E-3,6.157533E-2,-1.3009402E-1,-2.0988014E-2,7.215146E-2,3.446708E-2,-1.5199314E-1,2.5939701E-2,5.0593097E-2,-1.4857115E-1,1.05011426E-1,5.3457048E-2,8.150018E-3,3.8449056E-2,6.548116E-2,1.6387423E-4],"categories":[],"categories_nodes":[],"categories_segments":[],"categories_sizes":[],"default_left":[0,0,0,0,0,0,0,0,0,0,0,0,0,0,0,0,0,0,0,0,0,0,0,0,0,0,0,0,0,0,0,0,0,0,0,0,0,0,0,0,0,0,0,0,0,0,0,0,0],"id":17,"left_children":[1,3,5,7,-1,9,11,13,15,17,-1,19,-1,21,-1,23,25,27,29,-1,31,-1,-1,33,35,37,39,41,43,-1,45,-1,47,-1,-1,-1,-1,-1,-1,-1,-1,-1,-1,-1,-1,-1,-1,-1,-1],"loss_changes":[7.532039E1,7.189015E1,2.0492393E1,4.321641E1,0E0,2.9552439E1,3.453888E0,9.225037E0,2.1729216E1,1.32535095E1,0E0,9.970974E0,0E0,3.3675133E1,0E0,2.9268663E1,1.9598276E1,6.0669613E0,1.8953056E1,0E0,1.4629991E1,0E0,0E0,4.6538578E1,3.440903E1,1.233139E0,3.62726E1,2.0728231E1,1.3845062E0,0E0,9.288842E0,0E0,3.8014312E0,0E0,0E0,0E0,0E0,0E0,0E0,0E0,0E0,0E0,0E0,0E0,0E0,0E0,0E0,0E0,0E0],"parents":[2147483647,0,0,1,1,2,2,3,3,5,5,6,6,7,7,8,8,9,9,11,11,13,13,15,15,16,16,17,17,18,18,20,20,23,23,24,24,25,25,26,26,27,27,28,28,30,30,32,32],"right_children":[2,4,6,8,-1,10,12,14,16,18,-1,20,-1,22,-1,24,26,28,30,-1,32,-1,-1,34,36,38,40,42,44,-1,46,-1,48,-1,-1,-1,-1,-1,-1,-1,-1,-1,-1,-1,-1,-1,-1,-1,-1],"split_conditions":[5.226499E-3,5.1116166E-3,1.0002575E-2,2.1186057E-3,-1.9621365E-1,9.369167E-3,1.6994994E-2,1.9513717E-3,4.7994163E-3,5.434852E-3,-2.0330985E-1,1.3125653E-2,6.476215E-2,1.914309E-3,-1.24708734E-1,4.1862433E-3,4.904875E-3,5.386024E-3,5.46263E-3,5.9902348E-2,1.5169509E-2,-1.1214304E-1,8.04574E-2,4.0814853E-3,4.346603E-3,4.8715593E-3,4.9645617E-3,5.3596846E-3,5.4095765E-3,-1.6318758E-1,7.5514917E-3,-5.710409E-2,1.6056674E-2,-8.122435E-3,6.157533E-2,-1.3009402E-1,-2.0988014E-2,7.215146E-2,3.446708E-2,-1.5199314E-1,2.5939701E-2,5.0593097E-2,-1.4857115E-1,1.05011426E-1,5.3457048E-2,8.150018E-3,3.8449056E-2,6.548116E-2,1.6387423E-4],"split_indices":[1,1,1,1,0,1,1,1,1,1,0,1,0,1,0,1,1,1,1,0,1,0,0,1,1,1,1,1,1,0,1,0,1,0,0,0,0,0,0,0,0,0,0,0,0,0,0,0,0],"split_type":[0,0,0,0,0,0,0,0,0,0,0,0,0,0,0,0,0,0,0,0,0,0,0,0,0,0,0,0,0,0,0,0,0,0,0,0,0,0,0,0,0,0,0,0,0,0,0,0,0],"sum_hessian":[2.173179E3,1.258317E3,9.14862E2,1.2391783E3,1.9138681E1,6.3171594E2,2.8314603E2,6.807368E1,1.1711047E3,6.267823E2,4.933648E0,1.656256E2,1.1752043E2,3.8804142E1,2.9269537E1,1.00309845E3,1.6800624E2,1.04993385E2,5.2178894E2,1.0460512E2,6.102048E1,2.6062647E1,1.2741493E1,8.2447546E2,1.7862302E2,8.3127E1,8.487924E1,7.063172E1,3.4361656E1,4.946415E0,5.168425E2,2.0953098E1,4.0067383E1,7.148779E2,1.09597534E2,3.55173E1,1.4310571E2,6.866456E1,1.4462445E1,1.2577836E1,7.230141E1,6.5947815E1,4.683908E0,2.116298E1,1.3198678E1,3.7870154E2,1.3814098E2,2.6398684E1,1.3668699E1],"tree_param":{"num_deleted":"0","num_feature":"2","num_nodes":"49","size_leaf_vector":"1"}},{"base_weights":[6.383882E-2,-1.251561E-2,5.155951E-1,-1.2609695E-1,9.873831E-2,8.21339E-2,4.79124E-1,-2.0429213E-2,-9.8743534E-1,6.1080545E-1,-5.288881E-2,-2.8599286E-2,5.0942963E-1,-1.09109245E-1,4.677244E-3,-6.25575E-1,-1.5766118E-1,1.0306344E0,4.0837517E-1,-1.0736711E0,1.9097062E-2,5.6348157E-1,3.2458633E-1,6.9844685E-2,-2.7486563E-1,-9.764223E-1,7.206496E-2,5.8630735E-1,1.2855945E0,-3.1293035E-3,1.055097E0,-9.71364E-2,-1.6225277E-1,6.172942E-1,-9.135608E-2,4.066103E-2,6.2733924E-1,-2.6381552E-2,6.420439E-2,3.0770234E-3,1.1533079E-1,-1.4528279E-1,1.360364E-2,-6.2125754E-2,-1.5391676E-1,1.0207925E-1,-1.4116368E-1,1.4722635E-1,7.124644E-2,3.1190095E-2,-1.604414E-1,1.2112589E-1,4.953578E-2,-1.4221059E-1,4.1429356E-2,3.77665E-2,1.10090755E-1,-1.2003638E-1,3.7239601E-3,8.9267805E-2,5.5912167E-2,1.405824E-2,-2.8417764E-2],"categories":[],"categories_nodes":[],"categories_segments":[],"categories_sizes":[],"default_left":[0,0,0,0,0,0,0,0,0,0,0,0,0,0,0,0,0,0,0,0,0,0,0,0,0,0,0,0,0,0,0,0,0,0,0,0,0,0,0,0,0,0,0,0,0,0,0,0,0,0,0,0,0,0,0,0,0,0,0,0,0,0,0],"id":18,"left_children":[1,3,5,7,9,-1,11,13,15,17,19,-1,21,-1,23,25,-1,27,29,31,33,35,37,39,41,43,-1,45,47,49,51,53,-1,55,57,-1,59,61,-1,-1,-1,-1,-1,-1,-1,-1,-1,-1,-1,-1,-1,-1,-1,-1,-1,-1,-1,-1,-1,-1,-1,-1,-1],"loss_changes":[7.445268E1,2.3338884E1,2.9559784E0,8.3086525E1,7.249426E1,0E0,6.6948395E0,2.2033133E1,2.006527E1,1.7561028E1,5.305272E1,0E0,2.4383087E0,0E0,1.4529697E1,3.0756422E1,0E0,6.826622E0,3.8887142E1,2.5159687E1,4.4623035E1,1.7260895E0,7.2256966E0,2.727745E1,7.327682E1,9.003864E0,0E0,2.482319E1,3.2886276E0,4.6007088E1,4.190727E0,1.30504055E1,0E0,1.1636784E1,8.137019E1,0E0,1.9911118E0,1.400551E0,0E0,0E0,0E0,0E0,0E0,0E0,0E0,0E0,0E0,0E0,0E0,0E0,0E0,0E0,0E0,0E0,0E0,0E0,0E0,0E0,0E0,0E0,0E0,0E0,0E0],"parents":[2147483647,0,0,1,1,2,2,3,3,4,4,6,6,7,7,8,8,9,9,10,10,12,12,14,14,15,15,17,17,18,18,19,19,20,20,21,21,22,22,23,23,24,24,25,25,27,27,28,28,29,29,30,30,31,31,33,33,34,34,36,36,37,37],"right_children":[2,4,6,8,10,-1,12,14,16,18,20,-1,22,-1,24,26,-1,28,30,32,34,36,38,40,42,44,-1,46,48,50,52,54,-1,56,58,-1,60,62,-1,-1,-1,-1,-1,-1,-1,-1,-1,-1,-1,-1,-1,-1,-1,-1,-1,-1,-1,-1,-1,-1,-1,-1,-1],"split_conditions":[5.264495E-3,2.8552203E-3,5.439095E-3,2.6321851E-3,3.02877E-3,8.21339E-2,5.6800125E-3,1.1745864E-3,2.7545257E-3,2.9048815E-3,3.117041E-3,-2.8599286E-2,1.0456084E-2,-1.09109245E-1,2.3857953E-3,2.7446419E-3,-1.5766118E-1,2.880942E-3,3.0035966E-3,3.0419482E-3,3.233566E-3,7.616074E-3,1.5705857E-2,2.3760176E-3,2.4965678E-3,2.6980303E-3,7.206496E-2,2.872096E-3,2.8929063E-3,2.9772653E-3,3.0169245E-3,3.03431E-3,-1.6225277E-1,3.2110356E-3,3.3716036E-3,4.066103E-2,8.429039E-3,1.1787906E-2,6.420439E-2,3.0770234E-3,1.1533079E-1,-1.4528279E-1,1.360364E-2,-6.2125754E-2,-1.5391676E-1,1.0207925E-1,-1.4116368E-1,1.4722635E-1,7.124644E-2,3.1190095E-2,-1.604414E-1,1.2112589E-1,4.953578E-2,-1.4221059E-1,4.1429356E-2,3.77665E-2,1.10090755E-1,-1.2003638E-1,3.7239601E-3,8.9267805E-2,5.5912167E-2,1.405824E-2,-2.8417764E-2],"split_indices":[0,0,0,0,0,0,0,0,0,0,0,0,0,0,0,0,0,0,0,0,0,0,0,0,0,0,0,0,0,0,0,0,0,0,0,0,0,0,0,0,0,0,0,0,0,0,0,0,0,0,0,0,0,0,0,0,0,0,0,0,0,0,0],"split_type":[0,0,0,0,0,0,0,0,0,0,0,0,0,0,0,0,0,0,0,0,0,0,0,0,0,0,0,0,0,0,0,0,0,0,0,0,0,0,0,0,0,0,0,0,0,0,0,0,0,0,0,0,0,0,0,0,0,0,0,0,0,0,0],"sum_hessian":[2.1558042E3,1.8447596E3,3.1104453E2,9.1321045E2,9.315492E2,3.0563435E1,2.804811E2,8.144364E2,9.877405E1,2.1227989E2,7.192693E2,1.0239177E1,2.702419E2,1.7778942E1,7.966575E2,6.2573914E1,3.6200134E1,6.756616E1,1.4471375E2,4.6556576E1,6.727127E2,2.0709401E2,6.3147915E1,6.469479E2,1.4970955E2,4.991441E1,1.2659503E1,2.5980658E1,4.1585503E1,8.895368E1,5.5760056E1,1.7240742E1,2.9315832E1,1.04277664E2,5.6843506E2,6.2497498E1,1.4459651E2,3.0276907E1,3.2871006E1,6.2550995E2,2.1437944E1,3.812411E1,1.1158544E2,3.1999979E1,1.791443E1,2.1782772E1,4.1978846E0,3.0053698E1,1.1531805E1,7.495091E1,1.4002769E1,4.254718E1,1.3212875E1,4.36003E0,1.2880712E1,7.105687E1,3.322079E1,5.827919E1,5.1015588E2,2.680075E1,1.1779576E2,1.8416237E1,1.186067E1],"tree_param":{"num_deleted":"0","num_feature":"2","num_nodes":"63","size_leaf_vector":"1"}},{"base_weights":[-1.7113931E-2,-3.8207436E-1,7.674284E-2,-3.5843216E-2,-8.41945E-1,1.2456008E-1,5.968018E-2,-1.7929046E-1,1.195213E-1,-1.2717678E-1,-6.7605954E-1,-3.170997E-2,3.01254E-1,-1.0955671E-1,-6.1801597E-2,5.2948517E-1,-1.0741395E0,-5.7159443E-3,-9.092016E-1,2.1905597E-1,5.8705337E-2,2.0518845E-1,-4.95964E-1,1.20434105E-1,1.0530228E-1,-1.38603E-1,-5.9909713E-1,-6.9680834E-1,2.8666442E-2,-1.721703E-1,-2.0729207E-1,2.7624974E-1,-7.816168E-2,6.7862E-2,3.7373304E-3,-1.291971E-1,-1.8105835E-2,-1.2698394E-1,1.1722884E-1,1.13058686E-1,-1.336071E-1,-9.11896E-3,-1.2921904E-1,1.297952E-1,2.2618864E-4,3.254239E-2,-1.4232486E-1,1.6802503E-2,5.3964414E-2,-4.3722805E-2,5.5825495E-4],"categories":[],"categories_nodes":[],"categories_segments":[],"categories_sizes":[],"default_left":[0,0,0,0,0,0,0,0,0,0,0,0,0,0,0,0,0,0,0,0,0,0,0,0,0,0,0,0,0,0,0,0,0,0,0,0,0,0,0,0,0,0,0,0,0,0,0,0,0,0,0],"id":19,"left_children":[1,3,5,7,9,-1,11,13,-1,-1,15,17,19,-1,21,23,25,27,29,31,-1,33,35,-1,37,-1,39,41,43,-1,45,47,49,-1,-1,-1,-1,-1,-1,-1,-1,-1,-1,-1,-1,-1,-1,-1,-1,-1,-1],"loss_changes":[6.989137E1,6.634334E1,3.214849E1,4.2370686E1,1.1716644E1,0E0,3.5360863E1,2.2990463E1,0E0,0E0,6.3750088E1,2.6395647E1,1.0117001E1,0E0,2.2381989E1,9.263543E0,1.36805725E1,2.6917202E1,1.8440765E1,5.876213E0,0E0,9.391408E0,1.8050394E1,0E0,3.3186817E1,0E0,5.4096848E1,1.9103624E1,3.594478E1,0E0,1.2924626E1,8.0583515E0,1.7261719E0,0E0,0E0,0E0,0E0,0E0,0E0,0E0,0E0,0E0,0E0,0E0,0E0,0E0,0E0,0E0,0E0,0E0,0E0],"parents":[2147483647,0,0,1,1,2,2,3,3,4,4,6,6,7,7,10,10,11,11,12,12,14,14,15,15,16,16,17,17,18,18,19,19,21,21,22,22,24,24,26,26,27,27,28,28,30,30,31,31,32,32],"right_children":[2,4,6,8,10,-1,12,14,-1,-1,16,18,20,-1,22,24,26,28,30,32,-1,34,36,-1,38,-1,40,42,44,-1,46,48,50,-1,-1,-1,-1,-1,-1,-1,-1,-1,-1,-1,-1,-1,-1,-1,-1,-1,-1],"split_conditions":[3.3034445E-3,2.6827476E-3,3.3184628E-3,2.6466986E-3,2.9134161E-3,1.2456008E-1,6.797046E-3,1.914309E-3,1.195213E-1,-1.2717678E-1,2.978119E-3,6.4630876E-3,1.6994994E-2,-1.0955671E-1,2.314207E-3,2.9296277E-3,3.183017E-3,3.520218E-3,6.641812E-3,1.3125653E-2,5.8705337E-2,2.0071405E-3,2.432749E-3,1.20434105E-1,2.9618044E-3,-1.38603E-1,3.196475E-3,3.385816E-3,3.5314867E-3,-1.721703E-1,6.72137E-3,1.0002575E-2,1.4357376E-2,6.7862E-2,3.7373304E-3,-1.291971E-1,-1.8105835E-2,-1.2698394E-1,1.1722884E-1,1.13058686E-1,-1.336071E-1,-9.11896E-3,-1.2921904E-1,1.297952E-1,2.2618864E-4,3.254239E-2,-1.4232486E-1,1.6802503E-2,5.3964414E-2,-4.3722805E-2,5.5825495E-4],"split_indices":[1,1,1,1,1,0,1,1,0,0,1,1,1,0,1,1,1,1,1,1,0,1,1,0,1,0,1,1,1,0,1,1,1,0,0,0,0,0,0,0,0,0,0,0,0,0,0,0,0,0,0],"split_type":[0,0,0,0,0,0,0,0,0,0,0,0,0,0,0,0,0,0,0,0,0,0,0,0,0,0,0,0,0,0,0,0,0,0,0,0,0,0,0,0,0,0,0,0,0,0,0,0,0,0,0],"sum_hessian":[2.0376377E3,4.1641397E2,1.6212238E3,2.3829779E2,1.7811618E2,2.2205416E1,1.5990183E3,2.1426628E2,2.4031511E1,4.757531E1,1.3054088E2,1.1604584E3,4.3855997E2,2.3308792E1,1.9095749E2,3.2260853E1,9.828003E1,1.1281593E3,3.2299103E1,3.422443E2,9.631566E1,1.18427216E2,7.2530266E1,1.1650492E1,2.061036E1,5.804331E1,4.0236717E1,5.269154E1,1.0754678E3,1.4230785E1,1.806832E1,2.8735532E2,5.4888966E1,3.0040043E1,8.838718E1,1.9590311E1,5.2939957E1,8.880827E0,1.1729533E1,1.1821581E1,2.8415136E1,2.677614E1,2.59154E1,2.0858152E1,1.0546096E3,1.3016059E1,5.0522604E0,2.0510033E2,8.2255005E1,9.808145E0,4.5080822E1],"tree_param":{"num_deleted":"0","num_feature":"2","num_nodes":"51","size_leaf_vector":"1"}},{"base_weights":[1.3563148E-3,-1.20197535E-1,2.3087839E-2,1.4213221E-1,7.5092386E-3,-1.2284749E-1,3.513121E-2,-5.0643478E-3,4.1533968E-1,1.9192918E-1,-1.0167204E-1,5.269844E-1,9.1249526E-2,5.570652E-3,5.7991114E-2,-1.3727607E-1,-6.9135823E-3,4.6036057E-2,7.5290665E-2,-3.111792E-2,5.3506117E-2],"categories":[],"categories_nodes":[],"categories_segments":[],"categories_sizes":[],"default_left":[0,0,0,0,0,0,0,0,0,0,0,0,0,0,0,0,0,0,0,0,0],"id":20,"left_children":[1,-1,3,-1,5,-1,7,9,11,13,15,17,19,-1,-1,-1,-1,-1,-1,-1,-1],"loss_changes":[5.303342E1,0E0,4.333531E1,0E0,6.737071E1,0E0,2.9591372E1,3.3302235E1,6.5879097E0,3.0326427E1,4.8343155E1,1.5978012E0,8.916852E0,0E0,0E0,0E0,0E0,0E0,0E0,0E0,0E0],"parents":[2147483647,0,0,2,2,4,4,6,6,7,7,8,8,9,9,10,10,11,11,12,12],"right_children":[2,-1,4,-1,6,-1,8,10,12,14,16,18,20,-1,-1,-1,-1,-1,-1,-1,-1],"split_conditions":[1.28447E-3,-1.20197535E-1,1.2975293E-3,1.4213221E-1,1.472735E-3,-1.2284749E-1,7.616074E-3,2.4122163E-3,1.0456084E-2,2.2387973E-3,2.4965678E-3,1.01419985E-2,1.5705857E-2,5.570652E-3,5.7991114E-2,-1.3727607E-1,-6.9135823E-3,4.6036057E-2,7.5290665E-2,-3.111792E-2,5.3506117E-2],"split_indices":[0,0,0,0,0,0,0,0,0,0,0,0,0,0,0,0,0,0,0,0,0],"split_type":[0,0,0,0,0,0,0,0,0,0,0,0,0,0,0,0,0,0,0,0,0],"sum_hessian":[2.0304757E3,3.4973778E1,1.995502E3,2.0923126E1,1.9745789E3,4.2134098E1,1.9324447E3,1.7483348E3,1.841099E2,5.7461365E2,1.1737212E3,1.3624182E2,4.786808E1,4.263286E2,1.4828506E2,2.8189259E1,1.145532E3,1.079021E2,2.8339718E1,2.5143026E1,2.2725054E1],"tree_param":{"num_deleted":"0","num_feature":"2","num_nodes":"21","size_leaf_vector":"1"}},{"base_weights":[-9.992436E-4,-7.3096156E-2,3.731109E-1,1.8373373E-1,-1.6519116E-1,4.164526E-1,1.3444045E-1,-9.847117E-3,7.982224E-1,-1.1297139E0,-1.0186654E-1,2.8617617E-1,4.7024366E-1,-2.4290362E-1,5.1276762E-2,3.7500918E-2,-1.290981E-1,1.5352967E-1,6.0773516E-1,-6.257425E-1,-1.5066734E-1,7.574723E-1,-1.6682453E-1,3.957213E-1,-4.244472E-2,5.211491E-1,4.220529E-1,1.2876897E-2,-1.08342625E-1,-3.766408E-1,2.1336399E-1,1.9082982E-2,1.0818578E0,-1.4211969E-1,7.3512726E-2,1.0056561E0,4.376773E-2,-1.5358607E-1,-1.5952967E-1,3.1156865E-1,5.6450564E-2,4.0554473E-1,7.2782986E-2,2.3913147E-2,4.5725965E-1,8.929998E-3,-1.17749944E-1,1.3912013E-1,7.7801617E-3,3.259892E-2,-1.24254785E-1,1.3503328E-1,8.034541E-2,1.1726475E-1,8.169848E-2,-1.5579863E-1,-1.4069413E-2,4.540706E-2,-1.6269624E-2,5.7879295E-2,3.1056603E-2,4.8955876E-2,3.2636646E-2],"categories":[],"categories_nodes":[],"categories_segments":[],"categories_sizes":[],"default_left":[0,0,0,0,0,0,0,0,0,0,0,0,0,0,0,0,0,0,0,0,0,0,0,0,0,0,0,0,0,0,0,0,0,0,0,0,0,0,0,0,0,0,0,0,0,0,0,0,0,0,0,0,0,0,0,0,0,0,0,0,0,0,0],"id":21,"left_children":[1,3,5,7,9,11,13,15,17,19,21,23,25,27,-1,29,-1,-1,31,33,-1,35,37,39,-1,41,43,-1,-1,45,47,49,51,-1,-1,53,-1,55,-1,57,-1,59,-1,-1,61,-1,-1,-1,-1,-1,-1,-1,-1,-1,-1,-1,-1,-1,-1,-1,-1,-1,-1],"loss_changes":[5.4429512E1,4.0074287E1,3.261364E0,5.326533E1,7.592705E1,1.7174759E0,7.565892E0,2.0847778E1,1.3908394E1,1.3402069E1,6.545512E1,6.6641197E0,1.5819168E-1,8.52855E0,0E0,2.4067495E1,0E0,0E0,2.4143032E1,3.858448E1,0E0,5.955055E0,2.0192656E1,7.7302265E-1,0E0,1.7034416E0,4.9853134E-1,0E0,0E0,3.6942585E1,3.6811413E1,1.5767632E1,2.2919922E0,0E0,0E0,2.7481842E-1,0E0,1.9185781E1,0E0,3.57163E0,0E0,7.063236E-1,0E0,0E0,1.2504005E-1,0E0,0E0,0E0,0E0,0E0,0E0,0E0,0E0,0E0,0E0,0E0,0E0,0E0,0E0,0E0,0E0,0E0,0E0],"parents":[2147483647,0,0,1,1,2,2,3,3,4,4,5,5,6,6,7,7,8,8,9,9,10,10,11,11,12,12,13,13,15,15,18,18,19,19,21,21,22,22,23,23,25,25,26,26,29,29,30,30,31,31,32,32,35,35,37,37,39,39,41,41,44,44],"right_children":[2,4,6,8,10,12,14,16,18,20,22,24,26,28,-1,30,-1,-1,32,34,-1,36,38,40,-1,42,44,-1,-1,46,48,50,52,-1,-1,54,-1,56,-1,58,-1,60,-1,-1,62,-1,-1,-1,-1,-1,-1,-1,-1,-1,-1,-1,-1,-1,-1,-1,-1,-1,-1],"split_conditions":[5.039831E-3,2.072088E-3,1.0456084E-2,1.933905E-3,2.2387973E-3,5.6800125E-3,1.5705857E-2,1.8838213E-3,1.9466386E-3,2.1375513E-3,2.3025258E-3,5.439095E-3,8.429039E-3,1.1787906E-2,5.1276762E-2,1.4621336E-3,-1.290981E-1,1.5352967E-1,2.0228636E-3,2.129405E-3,-1.5066734E-1,2.2732178E-3,4.857531E-3,5.264495E-3,-4.244472E-2,7.616074E-3,9.001313E-3,1.2876897E-2,-1.08342625E-1,1.2975293E-3,1.489228E-3,1.994543E-3,2.0360257E-3,-1.4211969E-1,7.3512726E-2,2.2508823E-3,4.376773E-2,2.3345307E-3,-1.5952967E-1,5.168888E-3,5.6450564E-2,6.178108E-3,7.2782986E-2,2.3913147E-2,1.01419985E-2,8.929998E-3,-1.17749944E-1,1.3912013E-1,7.7801617E-3,3.259892E-2,-1.24254785E-1,1.3503328E-1,8.034541E-2,1.1726475E-1,8.169848E-2,-1.5579863E-1,-1.4069413E-2,4.540706E-2,-1.6269624E-2,5.7879295E-2,3.1056603E-2,4.8955876E-2,3.2636646E-2],"split_indices":[0,0,0,0,0,0,0,0,0,0,0,0,0,0,0,0,0,0,0,0,0,0,0,0,0,0,0,0,0,0,0,0,0,0,0,0,0,0,0,0,0,0,0,0,0,0,0,0,0,0,0,0,0,0,0,0,0,0,0,0,0,0,0],"split_type":[0,0,0,0,0,0,0,0,0,0,0,0,0,0,0,0,0,0,0,0,0,0,0,0,0,0,0,0,0,0,0,0,0,0,0,0,0,0,0,0,0,0,0,0,0,0,0,0,0,0,0,0,0,0,0,0,0,0,0,0,0,0,0],"sum_hessian":[2.017088E3,1.6920712E3,3.250168E2,4.460549E2,1.2460162E3,2.7408087E2,5.0935966E1,3.3982263E2,1.06232254E2,7.563098E1,1.1703853E3,8.248646E1,1.915944E2,2.5547993E1,2.5387974E1,3.28572E2,1.1250663E1,2.0258585E1,8.597367E1,3.3615032E1,4.2015953E1,8.139525E1,1.0889901E3,7.19751E1,1.0511359E1,8.7391106E1,1.0420329E2,1.8219358E1,7.3286333E0,9.742785E1,2.3114413E2,3.891254E1,4.7061127E1,2.1233057E1,1.2381975E1,4.4445198E1,3.695005E1,1.0801571E3,8.832906E0,5.03233E1,2.1651802E1,5.8253666E1,2.9137444E1,1.8534977E1,8.566832E1,6.2075726E1,3.5352127E1,2.2825352E1,2.0831879E2,3.1959019E1,6.9535236E0,2.1814823E1,2.5246304E1,2.052945E1,2.3915749E1,8.664581E0,1.0714926E3,3.8891144E1,1.1432155E1,1.845096E1,3.9802704E1,6.590223E1,1.9766092E1],"tree_param":{"num_deleted":"0","num_feature":"2","num_nodes":"63","size_leaf_vector":"1"}},{"base_weights":[-1.5769056E-3,-9.118519E-2,3.4246486E-1,-3.359852E-1,-1.0639312E-2,2.508154E-1,4.1771737E-1,-2.5257617E-1,-1.3227405E-1,1.0394018E-1,-3.4462538E-1,3.3619115E-1,-5.44838E-1,6.4833455E-2,2.9017386E-1,-3.0397087E-1,1.1435514E-1,1.15783356E-1,7.588839E-2,-9.028887E-1,-3.5557553E-2,2.5240633E-1,4.373137E-1,-1.8961255E-1,-4.66993E-4,-2.6258117E-1,4.1329464E-1,-1.9817148E-1,-1.2631422E-1,-1.23010814E-1,9.835848E-2,-1.7113347E-1,-1.3068742E0,4.4431216E-1,-4.368641E-1,3.4450063E-1,-3.8593903E-2,5.774439E-2,2.5264034E-1,3.4680017E-4,-6.5376095E-2,3.615965E-1,4.7912487E-1,-3.5159476E-2,8.090326E-2,1.875913E-1,7.5654997E-3,-1.7225063E-1,3.605091E-2,-1.8592057E-1,-9.584635E-2,1.7360013E-2,8.800555E-2,-1.7270218E-1,7.0940093E-3,2.064798E-2,4.1484598E-2,9.169584E-3,3.695977E-2,5.0674E-2,2.7836299E-2,5.4925323E-2,3.673107E-2],"categories":[],"categories_nodes":[],"categories_segments":[],"categories_sizes":[],"default_left":[0,0,0,0,0,0,0,0,0,0,0,0,0,0,0,0,0,0,0,0,0,0,0,0,0,0,0,0,0,0,0,0,0,0,0,0,0,0,0,0,0,0,0,0,0,0,0,0,0,0,0,0,0,0,0,0,0,0,0,0,0,0,0],"id":22,"left_children":[1,3,5,7,9,11,13,15,-1,17,19,21,23,-1,25,27,-1,-1,29,31,33,35,37,-1,-1,39,41,43,-1,-1,45,47,49,51,53,55,-1,-1,57,-1,-1,59,61,-1,-1,-1,-1,-1,-1,-1,-1,-1,-1,-1,-1,-1,-1,-1,-1,-1,-1,-1,-1],"loss_changes":[6.1884422E1,3.138015E1,2.688717E0,3.1947948E1,4.599192E1,1.3075378E1,6.3548164E0,2.6435886E1,0E0,2.6225327E1,5.2852333E1,1.2813606E0,1.3442716E1,0E0,1.0153283E1,3.539142E1,0E0,0E0,2.5603418E1,3.1927208E1,3.847515E1,5.8425126E0,1.7434063E0,0E0,0E0,2.909536E0,1.5469551E-1,4.951866E1,0E0,0E0,3.4307236E1,3.3832348E1,1.1436928E1,1.0466293E1,7.161665E1,6.833401E-1,0E0,0E0,5.7818484E-1,0E0,0E0,6.591711E-1,9.338188E-2,0E0,0E0,0E0,0E0,0E0,0E0,0E0,0E0,0E0,0E0,0E0,0E0,0E0,0E0,0E0,0E0,0E0,0E0,0E0,0E0],"parents":[2147483647,0,0,1,1,2,2,3,3,4,4,5,5,6,6,7,7,9,9,10,10,11,11,12,12,14,14,15,15,18,18,19,19,20,20,21,21,22,22,25,25,26,26,27,27,30,30,31,31,32,32,33,33,34,34,35,35,38,38,41,41,42,42],"right_children":[2,4,6,8,10,12,14,16,-1,18,20,22,24,-1,26,28,-1,-1,30,32,34,36,38,-1,-1,40,42,44,-1,-1,46,48,50,52,54,56,-1,-1,58,-1,-1,60,62,-1,-1,-1,-1,-1,-1,-1,-1,-1,-1,-1,-1,-1,-1,-1,-1,-1,-1,-1,-1],"split_conditions":[7.02571E-3,3.3034445E-3,1.05090095E-2,3.183017E-3,5.3596846E-3,9.369167E-3,1.3125653E-2,3.1631275E-3,-1.3227405E-1,3.3184628E-3,5.8890707E-3,8.305649E-3,1.0002575E-2,6.4833455E-2,1.5169509E-2,3.0281048E-3,1.1435514E-1,1.15783356E-1,3.3742131E-3,5.5026887E-3,6.1731837E-3,8.0863815E-3,8.771739E-3,-1.8961255E-1,-4.66993E-4,1.4357376E-2,1.8639347E-2,2.9618044E-3,-1.2631422E-1,-1.23010814E-1,3.385816E-3,5.4095765E-3,5.6411913E-3,6.095342E-3,6.4630876E-3,7.5514917E-3,-3.8593903E-2,5.774439E-2,9.001209E-3,3.4680017E-4,-6.5376095E-2,1.6056674E-2,2.0195328E-2,-3.5159476E-2,8.090326E-2,1.875913E-1,7.5654997E-3,-1.7225063E-1,3.605091E-2,-1.8592057E-1,-9.584635E-2,1.7360013E-2,8.800555E-2,-1.7270218E-1,7.0940093E-3,2.064798E-2,4.1484598E-2,9.169584E-3,3.695977E-2,5.0674E-2,2.7836299E-2,5.4925323E-2,3.673107E-2],"split_indices":[1,1,1,1,1,1,1,1,0,1,1,1,1,0,1,1,0,0,1,1,1,1,1,0,0,1,1,1,0,0,1,1,1,1,1,1,0,0,1,0,0,1,1,0,0,0,0,0,0,0,0,0,0,0,0,0,0,0,0,0,0,0,0],"split_type":[0,0,0,0,0,0,0,0,0,0,0,0,0,0,0,0,0,0,0,0,0,0,0,0,0,0,0,0,0,0,0,0,0,0,0,0,0,0,0,0,0,0,0,0,0,0,0,0,0,0,0,0,0,0,0,0,0,0,0,0,0,0,0],"sum_hessian":[2.006147E3,1.5924159E3,4.1373114E2,3.9314185E2,1.199274E3,1.8909518E2,2.2463594E2,3.637517E2,2.939012E1,8.93227E2,3.0604706E2,1.71406E2,1.7689178E1,7.826113E1,1.463748E2,3.516602E2,1.2091529E1,2.2022219E1,8.712048E2,1.0825793E2,1.9778912E2,9.619165E1,7.521436E1,4.2819786E0,1.34072E1,2.6310043E1,1.2006476E2,3.1790518E2,3.375501E1,1.3751504E1,8.574533E2,3.9102013E1,6.9155914E1,8.9915115E1,1.0787401E2,8.4602936E1,1.1588716E1,4.1247456E1,3.3966908E1,1.6097387E1,1.0212657E1,7.173855E1,4.8326214E1,2.7653235E2,4.1372837E1,9.728586E0,8.4772473E2,9.456209E0,2.9645803E1,2.4961493E1,4.4194424E1,5.646394E1,3.345117E1,2.9844713E1,7.80293E1,3.0370806E1,5.4232132E1,1.5405919E1,1.8560987E1,2.3853294E1,4.7885254E1,2.6745354E1,2.158086E1],"tree_param":{"num_deleted":"0","num_feature":"2","num_nodes":"63","size_leaf_vector":"1"}},{"base_weights":[9.876856E-2,4.583926E-2,3.850643E-1,7.27668E-2,-5.9113616E-1,5.8842206E-1,3.186549E-1,-1.0360934E-1,8.219762E-2,-1.7219011E-1,-2.8602755E-1,4.2570028E-1,8.476319E-2,-2.4660371E-1,3.7955353E-1,2.1597019E-1,-6.867601E-3,-1.8648425E-2,-1.5354918E-1,3.596112E-2,5.402835E-2,-3.4961585E-2,-1.4102993E-2,3.387208E-1,6.2428992E-2,1.2090292E-1,5.4783696E-1,-5.1542723E-1,1.3163868E-1,3.0224228E-2,-1.298686E-1,3.9481422E-1,7.4655734E-2,1.8024998E-2,-1.362233E-1,9.298836E-2,2.499664E-2,-3.683671E-2,-1.4581747E-1,9.809501E-2,9.291767E-3,-2.1434028E-2,3.8321342E-3,1.7837103E-2,4.1759532E-2,2.8220697E-3,1.1220539E-2],"categories":[],"categories_nodes":[],"categories_segments":[],"categories_sizes":[],"default_left":[0,0,0,0,0,0,0,0,0,0,0,0,0,0,0,0,0,0,0,0,0,0,0,0,0,0,0,0,0,0,0,0,0,0,0,0,0,0,0,0,0,0,0,0,0,0,0],"id":23,"left_children":[1,3,5,7,9,11,13,-1,15,-1,17,19,-1,21,23,25,27,29,-1,-1,-1,-1,-1,31,-1,33,35,37,39,-1,41,43,45,-1,-1,-1,-1,-1,-1,-1,-1,-1,-1,-1,-1,-1,-1],"loss_changes":[3.1954165E1,3.0599236E1,4.1678276E0,1.7905094E1,2.4263504E1,2.8647518E0,8.737707E0,0E0,2.0273804E1,0E0,1.9271206E1,1.0254288E-1,0E0,1.7167974E-1,1.9596405E0,2.1315577E1,7.201652E1,1.7725174E0,0E0,0E0,0E0,0E0,0E0,2.8414116E0,0E0,4.6775467E1,1.6818096E1,2.9626232E1,2.6209381E1,0E0,5.56523E-1,6.643524E-1,4.566346E-2,0E0,0E0,0E0,0E0,0E0,0E0,0E0,0E0,0E0,0E0,0E0,0E0,0E0,0E0],"parents":[2147483647,0,0,1,1,2,2,3,3,4,4,5,5,6,6,8,8,10,10,11,11,13,13,14,14,15,15,16,16,17,17,23,23,25,25,26,26,27,27,28,28,30,30,31,31,32,32],"right_children":[2,4,6,8,10,12,14,-1,16,-1,18,20,-1,22,24,26,28,30,-1,-1,-1,-1,-1,32,-1,34,36,38,40,-1,42,44,46,-1,-1,-1,-1,-1,-1,-1,-1,-1,-1,-1,-1,-1,-1],"split_conditions":[5.039831E-3,4.275319E-3,5.439095E-3,1.1745864E-3,4.455471E-3,5.264495E-3,6.178108E-3,-1.0360934E-1,2.3857953E-3,-1.7219011E-1,4.857531E-3,5.168888E-3,8.476319E-2,5.6800125E-3,1.5705857E-2,2.2387973E-3,2.8461083E-3,4.540552E-3,-1.5354918E-1,3.596112E-2,5.402835E-2,-3.4961585E-2,-1.4102993E-2,1.0456084E-2,6.2428992E-2,2.1847119E-3,2.281883E-3,2.7545257E-3,2.872096E-3,3.0224228E-2,4.7679935E-3,6.7391396E-3,1.1787906E-2,1.8024998E-2,-1.362233E-1,9.298836E-2,2.499664E-2,-3.683671E-2,-1.4581747E-1,9.809501E-2,9.291767E-3,-2.1434028E-2,3.8321342E-3,1.7837103E-2,4.1759532E-2,2.8220697E-3,1.1220539E-2],"split_indices":[0,0,0,0,0,0,0,0,0,0,0,0,0,0,0,0,0,0,0,0,0,0,0,0,0,0,0,0,0,0,0,0,0,0,0,0,0,0,0,0,0,0,0,0,0,0,0],"split_type":[0,0,0,0,0,0,0,0,0,0,0,0,0,0,0,0,0,0,0,0,0,0,0,0,0,0,0,0,0,0,0,0,0,0,0,0,0,0,0,0,0,0,0,0,0,0,0],"sum_hessian":[2.1117166E3,1.7834993E3,3.2821735E2,1.7121619E3,7.1337296E1,7.849253E1,2.4972481E2,1.3431587E1,1.6987303E3,1.41021E1,5.72352E1,5.0081448E1,2.8411083E1,2.3831375E1,2.2589343E2,6.7883856E2,1.0198918E3,4.8048103E1,9.187095E0,3.4939987E1,1.5141457E1,1.0412622E1,1.3418754E1,1.959869E2,2.9906542E1,5.289733E2,1.4986522E2,2.1788274E2,8.0200903E2,1.1693518E1,3.6354588E1,1.6092822E2,3.505866E1,5.0953058E2,1.9442762E1,6.457908E1,8.528615E1,1.8977617E2,2.810657E1,3.3796486E1,7.682125E2,2.4413385E1,1.19412E1,1.6583883E1,1.4434435E2,1.7648582E1,1.7410074E1],"tree_param":{"num_deleted":"0","num_feature":"2","num_nodes":"47","size_leaf_vector":"1"}},{"base_weights":[4.4366036E-2,-2.098021E-1,1.221275E-1,-9.725284E-2,-1.4243971E-1,1.0266774E0,7.779318E-2,-5.6997824E-1,1.7474411E-2,1.0951478E0,5.7092793E-2,2.151359E-2,4.5571196E-1,-1.7862909E-1,-1.149589E-1,9.4627887E-1,-1.03480294E-1,9.308985E-2,1.3408221E-1,1.2132356E-1,-4.487722E-2,7.562129E-2,4.0797147E-1,-4.7951508E-1,6.887377E-2,1.1423381E-1,5.900927E-1,-6.1778045E-1,8.407271E-2,3.261205E-2,1.09451406E-1,-1.592101E-1,5.381117E-2,-5.024392E-3,4.5428967E-1,-8.823704E-3,-1.13939516E-1,-1.0234572E-1,1.1255471E-1,-3.2390438E-2,-1.3413414E-1,1.6221485E-1,-7.149772E-3,8.432669E-3,-1.5207869E-1,6.2274218E-2,-3.7366578E-3,4.0970124E-2,6.2564924E-2],"categories":[],"categories_nodes":[],"categories_segments":[],"categories_sizes":[],"default_left":[0,0,0,0,0,0,0,0,0,0,0,0,0,0,0,0,0,0,0,0,0,0,0,0,0,0,0,0,0,0,0,0,0,0,0,0,0,0,0,0,0,0,0,0,0,0,0,0,0],"id":24,"left_children":[1,3,5,7,-1,9,11,13,15,17,-1,19,21,23,-1,25,27,-1,-1,29,31,-1,33,35,-1,-1,37,39,41,43,-1,-1,45,-1,47,-1,-1,-1,-1,-1,-1,-1,-1,-1,-1,-1,-1,-1,-1],"loss_changes":[4.0298695E1,6.498882E1,6.243229E1,2.3829868E1,0E0,1.479042E0,3.1628912E1,1.9118313E1,3.9885212E1,1.0259781E0,0E0,8.614005E0,2.3413086E0,1.4008189E1,0E0,2.0098457E0,3.0344486E1,0E0,0E0,4.4689476E1,1.1927989E2,0E0,3.6467857E0,1.0013286E1,0E0,0E0,1.5655442E1,1.7268158E1,5.541487E1,3.831138E1,0E0,0E0,3.8145157E1,0E0,8.1407166E-1,0E0,0E0,0E0,0E0,0E0,0E0,0E0,0E0,0E0,0E0,0E0,0E0,0E0,0E0],"parents":[2147483647,0,0,1,1,2,2,3,3,5,5,6,6,7,7,8,8,9,9,11,11,12,12,13,13,15,15,16,16,19,19,20,20,22,22,23,23,26,26,27,27,28,28,29,29,32,32,34,34],"right_children":[2,4,6,8,-1,10,12,14,16,18,-1,20,22,24,-1,26,28,-1,-1,30,32,-1,34,36,-1,-1,38,40,42,44,-1,-1,46,-1,48,-1,-1,-1,-1,-1,-1,-1,-1,-1,-1,-1,-1,-1,-1],"split_conditions":[2.2387973E-3,2.1375513E-3,2.281883E-3,1.4621336E-3,-1.4243971E-1,2.2732178E-3,7.616074E-3,1.2975293E-3,1.5106389E-3,2.262852E-3,5.7092793E-2,3.0169245E-3,8.429039E-3,1.28447E-3,-1.149589E-1,1.489228E-3,1.7411989E-3,9.308985E-2,1.3408221E-1,3.0035966E-3,3.117041E-3,7.562129E-2,9.001313E-3,1.2155453E-3,6.887377E-2,1.1423381E-1,1.4987647E-3,1.6738457E-3,1.7527023E-3,2.9772653E-3,1.09451406E-1,-1.592101E-1,3.233566E-3,-5.024392E-3,1.5705857E-2,-8.823704E-3,-1.13939516E-1,-1.0234572E-1,1.1255471E-1,-3.2390438E-2,-1.3413414E-1,1.6221485E-1,-7.149772E-3,8.432669E-3,-1.5207869E-1,6.2274218E-2,-3.7366578E-3,4.0970124E-2,6.2564924E-2],"split_indices":[0,0,0,0,0,0,0,0,0,0,0,0,0,0,0,0,0,0,0,0,0,0,0,0,0,0,0,0,0,0,0,0,0,0,0,0,0,0,0,0,0,0,0,0,0,0,0,0,0],"split_type":[0,0,0,0,0,0,0,0,0,0,0,0,0,0,0,0,0,0,0,0,0,0,0,0,0,0,0,0,0,0,0,0,0,0,0,0,0,0,0,0,0,0,0,0,0,0,0,0,0],"sum_hessian":[2.0370918E3,4.7653235E2,1.5605594E3,4.3718356E2,3.934879E1,7.177272E1,1.4887866E3,8.477555E1,3.5240802E2,6.098772E1,1.0785E1,1.2969645E3,1.9182216E2,5.1490345E1,3.3285202E1,3.9913998E1,3.1249402E2,3.966516E1,2.1322561E1,5.183585E2,7.78606E2,2.397535E1,1.678468E2,3.864649E1,1.2843858E1,2.4139019E1,1.5774978E1,8.3035835E1,2.2945819E2,4.760961E2,4.2262436E1,4.583839E1,7.3276764E2,1.520302E1,1.5264378E2,2.5067745E1,1.3578743E1,3.656939E0,1.2118039E1,6.0179604E1,2.2856236E1,2.0270073E1,2.0918811E2,4.6173444E2,1.4361639E1,1.0056E2,6.3220764E2,1.24280075E2,2.836371E1],"tree_param":{"num_deleted":"0","num_feature":"2","num_nodes":"49","size_leaf_vector":"1"}},{"base_weights":[1.591745E-2,-3.4426624E-1,8.978207E-2,-2.4855673E-1,-1.2297151E-1,1.0726153E-1,7.430387E-2,-3.5871404E-1,9.330435E-2,-1.19785845E-1,9.028074E-2,-1.6941711E-1,-9.0866005E-1,1.18368104E-1,6.630319E-2,-3.4081683E-1,1.03157E-1,-1.2328272E-1,-3.9229873E-1,-9.2228584E-2,1.8015297E-1,-8.232248E-3,-1.3444301E-1,8.645158E-2,-1.3985847E-1,-1.1972902E-1,-6.4827087E-3,7.591341E-2,1.47952335E-2],"categories":[],"categories_nodes":[],"categories_segments":[],"categories_sizes":[],"default_left":[0,0,0,0,0,0,0,0,0,0,0,0,0,0,0,0,0,0,0,0,0,0,0,0,0,0,0,0,0],"id":25,"left_children":[1,3,5,7,-1,-1,9,11,-1,-1,13,15,17,-1,19,21,-1,-1,23,25,27,-1,-1,-1,-1,-1,-1,-1,-1],"loss_changes":[5.2729034E1,2.812447E1,2.4837914E1,4.006511E1,0E0,0E0,3.2947994E1,2.8929996E1,0E0,0E0,4.1798138E1,4.3504925E1,1.1312042E1,0E0,2.8341145E1,4.7629982E1,0E0,0E0,3.81139E1,1.9661215E1,1.6833553E1,0E0,0E0,0E0,0E0,0E0,0E0,0E0,0E0],"parents":[2147483647,0,0,1,1,2,2,3,3,6,6,7,7,10,10,11,11,12,12,14,14,15,15,18,18,19,19,20,20],"right_children":[2,4,6,8,-1,-1,10,12,-1,-1,14,16,18,-1,20,22,-1,-1,24,26,28,-1,-1,-1,-1,-1,-1,-1,-1],"split_conditions":[3.1631275E-3,3.0281048E-3,3.196475E-3,2.9944612E-3,-1.2297151E-1,1.0726153E-1,3.2894514E-3,2.6827476E-3,9.330435E-2,-1.19785845E-1,3.3184628E-3,2.6466986E-3,2.9134161E-3,1.18368104E-1,4.944686E-3,2.4553086E-3,1.03157E-1,-1.2328272E-1,2.9296277E-3,3.3742131E-3,5.004635E-3,-8.232248E-3,-1.3444301E-1,8.645158E-2,-1.3985847E-1,-1.1972902E-1,-6.4827087E-3,7.591341E-2,1.47952335E-2],"split_indices":[1,1,1,1,0,0,1,1,0,0,1,1,1,0,1,1,0,0,1,1,1,0,0,0,0,0,0,0,0],"split_type":[0,0,0,0,0,0,0,0,0,0,0,0,0,0,0,0,0,0,0,0,0,0,0,0,0,0,0,0,0],"sum_hessian":[1.9807294E3,3.362193E2,1.64451E3,3.0467966E2,3.1539637E1,2.4338015E1,1.620172E3,2.7941193E2,2.526775E1,1.9099955E1,1.6010721E3,2.0897168E2,7.044025E1,3.322966E1,1.5678424E3,1.8357248E2,2.539919E1,4.230214E1,2.8138107E1,6.5503754E2,9.1280493E2,1.4691435E2,3.6658134E1,1.25300455E1,1.5608061E1,1.4728183E1,6.403093E2,4.6738914E1,8.6606604E2],"tree_param":{"num_deleted":"0","num_feature":"2","num_nodes":"29","size_leaf_vector":"1"}},{"base_weights":[7.464506E-2,-1.5943755E-1,1.9923706E-1,-8.134156E-2,-9.511649E-1,8.292643E-1,1.6280453E-1,-1.8878461E-1,5.8223957E-1,-1.3900054E-1,-5.5502206E-1,4.2645043E-1,1.0251731E-1,-3.848257E-1,1.9464833E-1,-7.018521E-2,-1.1067703E0,1.365088E-1,1.6971943E-1,9.2077605E-2,-1.4339161E-1,9.485882E-2,-1.492874E-1,3.8860416E-1,-1.2450744E-1,7.335269E-1,1.6318907E-1,-1.1491182E-1,-5.4664644E-3,-1.5347162E-1,-3.4653792E-1,-6.899869E-1,9.839063E-2,-1.3560899E-1,6.717172E-2,4.246159E-1,1.2984458E-1,-1.4548546E-1,1.828812E-1,1.7903529E-1,-4.9325745E-3,5.4492753E-2,-1.555164E-1,-2.9778495E-2,-1.5284072E-1,9.220216E-2,-1.332722E-1,6.754284E-2,1.6162707E-2],"categories":[],"categories_nodes":[],"categories_segments":[],"categories_sizes":[],"default_left":[0,0,0,0,0,0,0,0,0,0,0,0,0,0,0,0,0,0,0,0,0,0,0,0,0,0,0,0,0,0,0,0,0,0,0,0,0,0,0,0,0,0,0,0,0,0,0,0,0],"id":26,"left_children":[1,3,5,7,9,11,13,15,17,-1,19,21,-1,23,25,27,29,-1,31,-1,-1,-1,-1,33,-1,35,37,-1,39,-1,41,43,-1,-1,-1,45,-1,-1,47,-1,-1,-1,-1,-1,-1,-1,-1,-1,-1],"loss_changes":[5.926523E1,4.345517E1,3.0204952E1,4.595567E1,1.0013027E1,5.1073494E0,2.1941792E1,6.0204628E1,2.861428E1,0E0,4.67386E1,2.688748E1,0E0,4.6564995E1,1.9911701E1,3.4265865E1,1.9877151E1,0E0,4.2730106E1,0E0,0E0,0E0,0E0,1.9169405E1,0E0,1.0620594E1,3.5917152E1,0E0,3.659359E1,0E0,2.6999142E1,9.138039E0,0E0,0E0,0E0,3.9321728E1,0E0,0E0,1.1430859E1,0E0,0E0,0E0,0E0,0E0,0E0,0E0,0E0,0E0,0E0],"parents":[2147483647,0,0,1,1,2,2,3,3,4,4,5,5,6,6,7,7,8,8,10,10,11,11,13,13,14,14,15,15,16,16,18,18,23,23,25,25,26,26,28,28,30,30,31,31,35,35,38,38],"right_children":[2,4,6,8,10,12,14,16,18,-1,20,22,-1,24,26,28,30,-1,32,-1,-1,-1,-1,34,-1,36,38,-1,40,-1,42,44,-1,-1,-1,46,-1,-1,48,-1,-1,-1,-1,-1,-1,-1,-1,-1,-1],"split_conditions":[4.0814853E-3,3.8767783E-3,4.1318284E-3,3.7524337E-3,3.9922893E-3,4.103612E-3,4.346603E-3,3.5314867E-3,3.7666357E-3,-1.3900054E-1,4.003684E-3,4.0918426E-3,1.0251731E-1,4.1862433E-3,4.4491496E-3,1.9883742E-3,3.687817E-3,1.365088E-1,3.8616017E-3,9.2077605E-2,-1.4339161E-1,9.485882E-2,-1.492874E-1,4.1502407E-3,-1.2450744E-1,4.425276E-3,4.504104E-3,-1.1491182E-1,2.0071405E-3,-1.5347162E-1,3.7132755E-3,3.825277E-3,9.839063E-2,-1.3560899E-1,6.717172E-2,4.378233E-3,1.2984458E-1,-1.4548546E-1,4.614773E-3,1.7903529E-1,-4.9325745E-3,5.4492753E-2,-1.555164E-1,-2.9778495E-2,-1.5284072E-1,9.220216E-2,-1.332722E-1,6.754284E-2,1.6162707E-2],"split_indices":[1,1,1,1,1,1,1,1,1,0,1,1,0,1,1,1,1,0,1,0,0,0,0,1,0,1,1,0,1,0,1,1,0,0,0,1,0,0,1,0,0,0,0,0,0,0,0,0,0],"split_type":[0,0,0,0,0,0,0,0,0,0,0,0,0,0,0,0,0,0,0,0,0,0,0,0,0,0,0,0,0,0,0,0,0,0,0,0,0,0,0,0,0,0,0,0,0,0,0,0,0],"sum_hessian":[2.0298534E3,7.0472974E2,1.3251237E3,6.4257513E2,6.215458E1,7.109925E1,1.2540244E3,5.537771E2,8.879804E1,2.8178085E1,3.3976494E1,2.4470978E1,4.6628277E1,6.8130615E1,1.1858938E3,4.9146725E2,6.230985E1,2.9763556E1,5.903449E1,1.2621547E1,2.1354948E1,1.9676111E1,4.7948666E0,3.6103134E1,3.2027477E1,6.40064E1,1.1218875E3,2.6776283E1,4.6469098E2,3.913174E1,2.317811E1,2.8729017E1,3.0305471E1,4.4621077E0,3.1641027E1,4.2626095E1,2.1380306E1,1.2552212E1,1.1093352E3,1.0074867E1,4.546161E2,1.3607677E1,9.570434E0,2.0577555E1,8.151462E0,3.3637424E1,8.98867E0,4.4421444E1,1.0649138E3],"tree_param":{"num_deleted":"0","num_feature":"2","num_nodes":"49","size_leaf_vector":"1"}},{"base_weights":[3.0531336E-2,-1.09163456E-1,2.1573429E-1,-8.670086E-2,-1.7195876E-1,5.31893E-1,1.4406052E-1,-1.038622E-1,-7.13346E-2,4.3636724E-1,8.11256E-1,-1.4869314E-1,1.5868549E-1,7.5951034E-1,-9.45849E-2,5.2664983E-1,-1.5600911E-1,6.815924E-2,1.0135285E-1,-5.7210077E-2,2.13474E-1,3.4168327E-1,1.3031559E-1,-1.17376104E-1,-7.64309E-2,3.8610944E-1,8.311147E-1,2.4404379E-2,-1.7337689E-1,7.39978E-2,1.9075412E-1,9.205353E-2,-9.8414294E-2,8.0034286E-2,-1.0041288E-2,5.1642682E-2,-1.31988E-1,1.032455E-1,4.4177536E-2,3.5423677E-2,-1.4643042E-2,-5.1963605E-2,2.238751E-2],"categories":[],"categories_nodes":[],"categories_segments":[],"categories_sizes":[],"default_left":[0,0,0,0,0,0,0,0,0,0,0,0,0,0,0,0,0,0,0,0,0,0,0,0,0,0,0,0,0,0,0,0,0,0,0,0,0,0,0,0,0,0,0],"id":27,"left_children":[1,3,5,7,-1,9,11,-1,13,15,17,-1,19,21,23,25,-1,-1,-1,27,29,31,-1,-1,33,35,37,39,-1,-1,41,-1,-1,-1,-1,-1,-1,-1,-1,-1,-1,-1,-1],"loss_changes":[5.2032787E1,4.1127464E1,1.9452618E1,1.636427E1,0E0,3.7695007E0,1.6958206E1,0E0,2.1536367E1,2.253867E1,1.660366E-1,0E0,8.32325E0,6.280895E0,2.1046932E1,4.5473824E0,0E0,0E0,0E0,1.969365E1,6.4637566E0,1.51833725E1,0E0,0E0,2.2476711E1,1.8804813E1,2.1979065E0,7.7746143E0,0E0,0E0,1.27523155E1,0E0,0E0,0E0,0E0,0E0,0E0,0E0,0E0,0E0,0E0,0E0,0E0],"parents":[2147483647,0,0,1,1,2,2,3,3,5,5,6,6,8,8,9,9,10,10,12,12,13,13,14,14,15,15,19,19,20,20,21,21,24,24,25,25,26,26,27,27,30,30],"right_children":[2,4,6,8,-1,10,12,-1,14,16,18,-1,20,22,24,26,-1,-1,-1,28,30,32,-1,-1,34,36,38,40,-1,-1,42,-1,-1,-1,-1,-1,-1,-1,-1,-1,-1,-1,-1],"split_conditions":[5.226499E-3,5.1457114E-3,5.552891E-3,1.914309E-3,-1.7195876E-1,5.46263E-3,5.5787694E-3,-1.038622E-1,2.0071405E-3,5.434852E-3,5.5262153E-3,-1.4869314E-1,6.095342E-3,1.9883742E-3,2.1186057E-3,5.386024E-3,-1.5600911E-1,6.815924E-2,1.0135285E-1,6.0474095E-3,6.1300574E-3,1.9513717E-3,1.3031559E-1,-1.17376104E-1,2.1789225E-3,5.3596846E-3,5.4095765E-3,5.7022977E-3,-1.7337689E-1,7.39978E-2,6.2551727E-3,9.205353E-2,-9.8414294E-2,8.0034286E-2,-1.0041288E-2,5.1642682E-2,-1.31988E-1,1.032455E-1,4.4177536E-2,3.5423677E-2,-1.4643042E-2,-5.1963605E-2,2.238751E-2],"split_indices":[1,1,1,1,0,1,1,0,1,1,1,0,1,1,1,1,0,0,0,1,1,1,0,0,1,1,1,1,0,0,1,0,0,0,0,0,0,0,0,0,0,0,0],"split_type":[0,0,0,0,0,0,0,0,0,0,0,0,0,0,0,0,0,0,0,0,0,0,0,0,0,0,0,0,0,0,0,0,0,0,0,0,0,0,0,0,0,0,0],"sum_hessian":[2.008849E3,1.1450397E3,8.638093E2,1.1303887E3,1.4651008E1,1.5819263E2,7.056167E2,1.6796034E1,1.1135927E3,1.20059326E2,3.8133305E1,5.315524E0,7.0030115E2,2.9335255E1,1.0842573E3,1.15617256E2,4.442075E0,2.6201376E1,1.193193E1,1.413679E2,5.589332E2,1.7611845E1,1.1723409E1,1.6793484E1,1.0674639E3,8.087987E1,3.4737385E1,1.3568842E2,5.67948E0,2.1633512E1,5.3729974E2,1.2524707E1,5.087138E0,2.7447538E1,1.0400164E3,7.5842316E1,5.037551E0,2.1638657E1,1.3098728E1,4.6132244E1,8.9556175E1,2.3146093E1,5.141536E2],"tree_param":{"num_deleted":"0","num_feature":"2","num_nodes":"43","size_leaf_vector":"1"}},{"base_weights":[3.2009505E-4,-8.5602486E-1,3.604789E-2,-4.7751433E-1,-1.2046357E-1,1.14062585E-1,2.8232878E-2,-1.1411659E-1,9.4180204E-2,-1.2266983E-1,3.907185E-2,6.658665E-1,1.7224597E-2,3.7211654E-1,1.0310625E0,-5.712199E-2,1.5225671E-1,8.599611E-2,-1.21024646E-1,1.3396275E-1,7.150771E-2,1.7090284E-5,-1.1762402E-1,8.0480956E-2,6.7266785E-3],"categories":[],"categories_nodes":[],"categories_segments":[],"categories_sizes":[],"default_left":[0,0,0,0,0,0,0,0,0,0,0,0,0,0,0,0,0,0,0,0,0,0,0,0,0],"id":28,"left_children":[1,3,5,7,-1,-1,9,-1,-1,-1,11,13,15,17,19,21,23,-1,-1,-1,-1,-1,-1,-1,-1],"loss_changes":[5.9804928E1,9.586082E0,1.6071829E1,3.8136826E1,0E0,0E0,2.532457E1,0E0,0E0,0E0,2.528202E1,6.1485844E0,1.7997099E1,2.8941303E1,1.4702663E0,7.418738E1,3.5167915E1,0E0,0E0,0E0,0E0,0E0,0E0,0E0,0E0],"parents":[2147483647,0,0,1,1,2,2,3,3,6,6,10,10,11,11,12,12,13,13,14,14,15,15,16,16],"right_children":[2,4,6,8,-1,-1,10,-1,-1,-1,12,14,16,18,20,22,24,-1,-1,-1,-1,-1,-1,-1,-1],"split_conditions":[1.4987647E-3,1.2975293E-3,1.5106389E-3,1.28447E-3,-1.2046357E-1,1.14062585E-1,1.5634093E-3,-1.1411659E-1,9.4180204E-2,-1.2266983E-1,1.6738457E-3,1.6291114E-3,3.6246912E-3,1.5960888E-3,1.652208E-3,3.4729168E-3,3.728126E-3,8.599611E-2,-1.21024646E-1,1.3396275E-1,7.150771E-2,1.7090284E-5,-1.1762402E-1,8.0480956E-2,6.7266785E-3],"split_indices":[0,0,0,0,0,0,0,0,0,0,0,0,0,0,0,0,0,0,0,0,0,0,0,0,0],"split_type":[0,0,0,0,0,0,0,0,0,0,0,0,0,0,0,0,0,0,0,0,0,0,0,0,0],"sum_hessian":[1.9553801E3,7.728195E1,1.8780981E3,3.8325726E1,3.8956226E1,1.2086151E1,1.8660121E3,2.6296364E1,1.2029363E1,1.4939358E1,1.8510726E3,6.1199924E1,1.7898728E3,3.5188442E1,2.6011482E1,1.1542158E3,6.356569E2,2.7293537E1,7.8949027E0,1.1361143E1,1.4650339E1,1.09887E3,5.5345802E1,7.2137665E1,5.635193E2],"tree_param":{"num_deleted":"0","num_feature":"2","num_nodes":"25","size_leaf_vector":"1"}},{"base_weights":[1.9728506E-2,-2.518414E-1,9.78723E-2,-1.452638E-1,-1.269276E-1,1.3276681E-1,8.0807395E-2,-2.0974198E-1,7.926576E-1,-1.24909155E-1,9.2232086E-2,-1.5484038E-1,-1.166798E-1,1.2161485E-1,3.6858346E-2,5.5471826E-1,5.3848352E-2,-2.4118836E-1,9.122867E-2,2.9910275E-1,1.22741915E-1,-1.5320395E-1,6.554546E-2,-1.4846948E-2,-1.1910894E-1,5.1850736E-2,-1.4505951E-1,3.4219067E-4,2.1108638E-2],"categories":[],"categories_nodes":[],"categories_segments":[],"categories_sizes":[],"default_left":[0,0,0,0,0,0,0,0,0,0,0,0,0,0,0,0,0,0,0,0,0,0,0,0,0,0,0,0,0],"id":29,"left_children":[1,3,5,7,-1,-1,9,11,13,-1,15,17,-1,-1,-1,19,21,23,-1,25,-1,-1,27,-1,-1,-1,-1,-1,-1],"loss_changes":[4.1505833E1,4.7053E1,3.1640045E1,2.4099735E1,0E0,0E0,2.2787338E1,1.9238289E1,3.99584E0,0E0,2.6325102E1,3.2694225E1,0E0,0E0,0E0,1.9036148E1,2.5466463E1,2.854188E1,0E0,3.2845505E1,0E0,0E0,1.23310375E1,0E0,0E0,0E0,0E0,0E0,0E0],"parents":[2147483647,0,0,1,1,2,2,3,3,6,6,7,7,8,8,10,10,11,11,15,15,16,16,17,17,19,19,22,22],"right_children":[2,4,6,8,-1,-1,10,12,14,-1,16,18,-1,-1,-1,20,22,24,-1,26,-1,-1,28,-1,-1,-1,-1,-1,-1],"split_conditions":[3.520218E-3,3.3184628E-3,3.5314867E-3,3.2894514E-3,-1.269276E-1,1.3276681E-1,3.5889505E-3,3.196475E-3,3.3034445E-3,-1.24909155E-1,3.7666357E-3,3.1631275E-3,-1.166798E-1,1.2161485E-1,3.6858346E-2,3.7524337E-3,3.8007188E-3,3.0281048E-3,9.122867E-2,3.7132755E-3,1.22741915E-1,-1.5320395E-1,6.797046E-3,-1.4846948E-2,-1.1910894E-1,5.1850736E-2,-1.4505951E-1,3.4219067E-4,2.1108638E-2],"split_indices":[1,1,1,1,0,0,1,1,1,0,1,1,0,0,0,1,1,1,0,1,0,0,1,0,0,0,0,0,0],"split_type":[0,0,0,0,0,0,0,0,0,0,0,0,0,0,0,0,0,0,0,0,0,0,0,0,0,0,0,0,0],"sum_hessian":[1.9544027E3,4.3593015E2,1.5184725E3,3.9571912E2,4.0211033E1,1.9650944E1,1.4988217E3,3.7109116E2,2.462797E1,1.1768902E1,1.4870527E3,3.5215598E2,1.8935179E1,1.1269945E1,1.3358026E1,1.1272848E2,1.3743242E3,3.2659665E2,2.5559305E1,8.284282E1,2.9885653E1,9.048211E0,1.365276E3,2.987022E2,2.7894451E1,7.4288216E1,8.55461E0,9.580477E2,4.0722827E2],"tree_param":{"num_deleted":"0","num_feature":"2","num_nodes":"29","size_leaf_vector":"1"}},{"base_weights":[3.2414503E-2,-1.3138433E-1,1.8418007E-1,-8.007543E-2,-8.8988066E-1,6.323289E-1,1.5062985E-1,1.4568567E-1,-1.5531665E-1,-1.4243573E-1,-5.9620507E-2,3.9886072E-2,7.449487E-1,7.5771143E-3,2.6605427E-1,-5.117034E-2,1.2323556E0,-1.1911668E-1,-9.063447E-2,1.1774164E-1,-1.2549043E-1,8.502991E-2,4.5612566E-2,6.97991E-2,-1.6499949E-1,5.7848954E-1,2.1644819E-1,-1.0170304E-1,3.2263167E-2,8.166714E-2,1.4476532E-1,4.0099669E-1,-1.3256238E-1,-1.196867E-1,9.598503E-2,1.2752806E-1,7.330656E-2,-1.4601442E-1,2.3839308E-1,6.964801E-2,-1.0524045E-2,5.5354303E-3,6.302742E-2,-1.20963626E-1,-6.8153567E-3,6.1835586E-3,6.891334E-2,8.062162E-2,-1.3536733E-1,1.8902587E-2,4.4479027E-2],"categories":[],"categories_nodes":[],"categories_segments":[],"categories_sizes":[],"default_left":[0,0,0,0,0,0,0,0,0,0,0,0,0,0,0,0,0,0,0,0,0,0,0,0,0,0,0,0,0,0,0,0,0,0,0,0,0,0,0,0,0,0,0,0,0,0,0,0,0,0,0],"id":30,"left_children":[1,3,5,7,9,11,13,15,17,-1,19,-1,21,23,25,27,29,-1,31,-1,-1,-1,-1,33,-1,35,37,-1,39,-1,-1,41,43,-1,45,47,-1,-1,49,-1,-1,-1,-1,-1,-1,-1,-1,-1,-1,-1,-1],"loss_changes":[4.9426357E1,3.7033905E1,1.5345486E1,1.52533245E1,2.6544765E1,1.4650135E0,1.5851488E1,4.8162888E1,4.4874084E1,0E0,3.808065E1,0E0,9.025974E-1,4.44E1,8.0387535E0,1.55054E1,1.6806068E0,0E0,1.31131115E1,0E0,0E0,0E0,0E0,1.3814183E1,0E0,4.839632E0,1.718284E1,0E0,1.6251215E1,0E0,0E0,3.855052E0,4.043739E1,0E0,8.16498E0,2.0896824E1,0E0,0E0,4.4972363E0,0E0,0E0,0E0,0E0,0E0,0E0,0E0,0E0,0E0,0E0,0E0,0E0],"parents":[2147483647,0,0,1,1,2,2,3,3,4,4,5,5,6,6,7,7,8,8,10,10,12,12,13,13,14,14,15,15,16,16,18,18,23,23,25,25,26,26,28,28,31,31,32,32,34,34,35,35,38,38],"right_children":[2,4,6,8,10,12,14,16,18,-1,20,-1,22,24,26,28,30,-1,32,-1,-1,-1,-1,34,-1,36,38,-1,40,-1,-1,42,44,-1,46,48,-1,-1,50,-1,-1,-1,-1,-1,-1,-1,-1,-1,-1,-1,-1],"split_conditions":[4.7994163E-3,4.521185E-3,4.904875E-3,2.6827476E-3,4.714097E-3,4.8374864E-3,6.2551727E-3,2.6466986E-3,2.9134161E-3,-1.4243573E-1,4.735269E-3,3.9886072E-2,4.8715593E-3,6.1300574E-3,6.5842248E-3,1.914309E-3,2.6662701E-3,-1.1911668E-1,3.0131198E-3,1.1774164E-1,-1.2549043E-1,8.502991E-2,4.5612566E-2,4.944686E-3,-1.6499949E-1,6.357117E-3,6.641812E-3,-1.0170304E-1,2.0071405E-3,8.166714E-2,1.4476532E-1,2.9618044E-3,3.1631275E-3,-1.196867E-1,6.095342E-3,6.3063144E-3,7.330656E-2,-1.4601442E-1,1.6994994E-2,6.964801E-2,-1.0524045E-2,5.5354303E-3,6.302742E-2,-1.20963626E-1,-6.8153567E-3,6.1835586E-3,6.891334E-2,8.062162E-2,-1.3536733E-1,1.8902587E-2,4.4479027E-2],"split_indices":[1,1,1,1,1,1,1,1,1,0,1,0,1,1,1,1,1,0,1,0,0,0,0,1,0,1,1,0,1,0,0,1,1,0,1,1,0,0,1,0,0,0,0,0,0,0,0,0,0,0,0],"split_type":[0,0,0,0,0,0,0,0,0,0,0,0,0,0,0,0,0,0,0,0,0,0,0,0,0,0,0,0,0,0,0,0,0,0,0,0,0,0,0,0,0,0,0,0,0,0,0,0,0,0,0],"sum_hessian":[1.9860806E3,9.5492084E2,1.0311598E3,8.955765E2,5.934436E1,7.036935E1,9.607904E2,2.2330005E2,6.722764E2,3.559453E1,2.3749832E1,2.4665575E1,4.5703773E1,4.299091E2,5.3088135E2,1.8978108E2,3.3518963E1,3.8397625E1,6.3387885E2,1.1637305E1,1.2112528E1,3.1810436E1,1.3893337E1,4.153364E2,1.4572691E1,7.100308E1,4.5987827E2,1.4295814E1,1.7548528E2,1.3231006E1,2.0287958E1,4.895081E1,5.8492804E2,7.4295335E0,4.0790686E2,1.8756025E1,5.224706E1,5.0359683E0,4.548423E2,2.9525103E1,1.4596016E2,2.0190556E1,2.8760252E1,3.1914015E1,5.53014E2,3.8690436E2,2.1002481E1,1.3221249E1,5.5347776E0,3.6898642E2,8.5855865E1],"tree_param":{"num_deleted":"0","num_feature":"2","num_nodes":"51","size_leaf_vector":"1"}}]},"name":"gbtree"},"learner_model_param":{"base_score":"5E-1","boost_from_average":"0","num_class":"0","num_feature":"2","num_target":"1"},"objective":{"name":"binary:logistic","reg_loss_param":{"scale_pos_weight":"34.0107536"}}},"version":[3,0,2]}