{"learner":{"attributes":{"best_iteration":"58","best_score":"0.4594097927103948","scikit_learn":"{\"_estimator_type\": \"classifier\"}"},"feature_names":[],"feature_types":[],"gradient_booster":{"model":{"gbtree_model_param":{"num_parallel_tree":"1","num_trees":"89"},"iteration_indptr":[0,1,2,3,4,5,6,7,8,9,10,11,12,13,14,15,16,17,18,19,20,21,22,23,24,25,26,27,28,29,30,31,32,33,34,35,36,37,38,39,40,41,42,43,44,45,46,47,48,49,50,51,52,53,54,55,56,57,58,59,60,61,62,63,64,65,66,67,68,69,70,71,72,73,74,75,76,77,78,79,80,81,82,83,84,85,86,87,88,89],"tree_info":[0,0,0,0,0,0,0,0,0,0,0,0,0,0,0,0,0,0,0,0,0,0,0,0,0,0,0,0,0,0,0,0,0,0,0,0,0,0,0,0,0,0,0,0,0,0,0,0,0,0,0,0,0,0,0,0,0,0,0,0,0,0,0,0,0,0,0,0,0,0,0,0,0,0,0,0,0,0,0,0,0,0,0,0,0,0,0,0,0],"trees":[{"base_weights":[9.3994424E-2,1.2363774E0,-1.4091237E-1,1.6449533E-1,1.0519285E0,-3.743828E-1,1.09717056E-1,-1.7E-1,1.2319969E0,1.8664734E-2,-1.3759385E0,1.8465069E-1,-1.8415095E-1,1.4457277E0,7.946649E-1,-1.7789474E-1,8.2778804E-2,-1.1444044E0,-1.9305785E-1,1.1072458E0,5.3858604E-2,1.0796055E0,1.5856487E-1,-1.11923195E-1,1.6673659E-1,1.4001513E-1,3.0238507E-2,-1.4972198E0,1.24080755E-1,1.1969976E0,7.841437E-1,-3.1730983E-1,5.6387633E-1,1.2665795E-1,-1.0666668E-1,5.7666954E-2,-1.65E-1,-8.09171E-3,7.0027016E-2,-8.660647E-2,-1.9468354E-1,8.4134005E-2,1.3478844E-1,-1.3538462E-1,1.4001513E-1,1.1766321E-2,-1.9436242E-1,1.03732966E-1,-1.198816E-2],"categories":[],"categories_nodes":[],"categories_segments":[],"categories_sizes":[],"default_left":[0,0,0,0,0,0,0,0,0,0,0,0,0,0,0,0,0,0,0,0,0,0,0,0,0,0,0,0,0,0,0,0,0,0,0,0,0,0,0,0,0,0,0,0,0,0,0,0,0],"id":0,"left_children":[1,3,5,-1,7,9,11,-1,13,15,17,19,-1,21,23,-1,25,27,-1,29,31,33,-1,35,-1,-1,37,39,-1,41,43,45,47,-1,-1,-1,-1,-1,-1,-1,-1,-1,-1,-1,-1,-1,-1,-1,-1],"loss_changes":[2.3922472E2,9.457748E0,4.333073E1,0E0,5.541294E1,1.510176E2,5.239302E1,0E0,8.1324005E0,3.1801882E1,1.1363647E1,4.1441765E1,0E0,1.450531E0,2.8632938E1,0E0,1.8338455E1,6.822908E1,0E0,1.0085678E-1,5.760301E1,1.0134726E1,0E0,2.0566801E1,0E0,0E0,1.9367954E1,1.766127E1,0E0,3.244629E-1,1.8256569E1,1.2493051E2,4.171546E1,0E0,0E0,0E0,0E0,0E0,0E0,0E0,0E0,0E0,0E0,0E0,0E0,0E0,0E0,0E0,0E0],"parents":[2147483647,0,0,1,1,2,2,4,4,5,5,6,6,8,8,9,9,10,10,11,11,13,13,14,14,16,16,17,17,19,19,20,20,21,21,23,23,26,26,27,27,29,29,30,30,31,31,32,32],"right_children":[2,4,6,-1,8,10,12,-1,14,16,18,20,-1,22,24,-1,26,28,-1,30,32,34,-1,36,-1,-1,38,40,-1,42,44,46,48,-1,-1,-1,-1,-1,-1,-1,-1,-1,-1,-1,-1,-1,-1,-1,-1],"split_conditions":[8.0611416E3,7.93536E3,8.660683E3,1.6449533E-1,7.9646284E3,8.494298E3,9.162288E3,-1.7E-1,8.0351265E3,8.0835767E3,8.63506E3,8.682672E3,-1.8415095E-1,8.007725E3,8.0587505E3,-1.7789474E-1,8.0853115E3,8.628474E3,-1.9305785E-1,8.669194E3,8.975862E3,7.997228E3,1.5856487E-1,8.047603E3,1.6673659E-1,1.4001513E-1,8.394094E3,8.557453E3,1.24080755E-1,8.666019E3,8.672693E3,8.900645E3,9.004434E3,1.2665795E-1,-1.0666668E-1,5.7666954E-2,-1.65E-1,-8.09171E-3,7.0027016E-2,-8.660647E-2,-1.9468354E-1,8.4134005E-2,1.3478844E-1,-1.3538462E-1,1.4001513E-1,1.1766321E-2,-1.9436242E-1,1.03732966E-1,-1.198816E-2],"split_indices":[0,0,0,0,0,0,0,0,0,0,0,0,0,0,0,0,0,0,0,0,0,0,0,0,0,0,0,0,0,0,0,0,0,0,0,0,0,0,0,0,0,0,0,0,0,0,0,0,0],"split_type":[0,0,0,0,0,0,0,0,0,0,0,0,0,0,0,0,0,0,0,0,0,0,0,0,0,0,0,0,0,0,0,0,0,0,0,0,0,0,0,0,0,0,0,0,0,0,0,0,0],"sum_hessian":[8.893961E2,1.5103845E2,7.3835767E2,4.4346153E1,1.0669231E2,3.822154E2,3.561423E2,6E0,1.0069231E2,2.7512692E2,1.0708846E2,3.438923E2,1.225E1,6.5934616E1,3.475769E1,8.5E0,2.6662692E2,7.783846E1,2.925E1,4.167692E1,3.022154E2,2.083846E1,4.5096153E1,1.7419231E1,1.733846E1,9.16923E0,2.574577E2,6.816923E1,9.66923E0,3.025769E1,1.141923E1,1.7502307E2,1.2719231E2,1.958846E1,1.25E0,1.241923E1,5E0,2.2145E2,3.600769E1,2.9669231E1,3.85E1,1.116923E1,1.908846E1,2.25E0,9.16923E0,1.3877307E2,3.625E1,7.4934616E1,5.225769E1],"tree_param":{"num_deleted":"0","num_feature":"1","num_nodes":"49","size_leaf_vector":"1"}},{"base_weights":[6.429239E-3,1.0602034E0,-1.5643997E-1,1.1279148E0,4.7647762E-1,-5.4161036E-1,2.3209973E-1,7.3410887E-1,1.316605E-1,-1.519185E-1,1.18945554E-1,-1.0055304E-2,-1.0544189E0,6.254654E-1,-1.1884307E-1,1.2360795E0,-1.5539399E-1,-9.4033726E-2,1.407468E-1,-1.9386423E-1,-8.1381327E-1,3.491016E-1,1.6541474E-1,-1.2655016E0,3.2844853E-1,7.552395E-2,1.4721271E-1,2.1370677E-2,-1.8017617E-1,6.513175E-1,-1.2821723E0,7.5729805E-1,-5.071463E-1,-4.9390054E-1,-1.7645407E-1,9.1363865E-1,-3.8669014E-1,-1.5344466E-1,8.325459E-3,1.2416215E-1,-6.9593205E-3,-1.8319574E-1,-1.12308495E-1,5.892205E-2,1.3367479E-1,-1.8553986E-1,6.828591E-3,-1.852447E-1,1.2301828E-1,7.076996E-2,1.52385E-1,-1.8210314E-1,-3.3616049E-3],"categories":[],"categories_nodes":[],"categories_segments":[],"categories_sizes":[],"default_left":[0,0,0,0,0,0,0,0,0,0,0,0,0,0,0,0,0,0,0,0,0,0,0,0,0,0,0,0,0,0,0,0,0,0,0,0,0,0,0,0,0,0,0,0,0,0,0,0,0,0,0,0,0],"id":1,"left_children":[1,3,5,7,9,11,13,15,-1,-1,-1,17,19,21,23,25,-1,27,-1,-1,29,31,-1,33,35,-1,-1,37,-1,39,41,43,45,47,-1,49,51,-1,-1,-1,-1,-1,-1,-1,-1,-1,-1,-1,-1,-1,-1,-1,-1],"loss_changes":[1.4520978E2,3.779251E0,1.0974973E2,6.304764E0,2.1208502E1,1.0024329E2,5.0530937E1,4.2115646E1,0E0,0E0,0E0,2.1653475E1,3.7992493E1,4.8249245E1,9.984456E1,1.9928207E0,0E0,3.4256317E1,0E0,0E0,1.0316983E2,4.8390232E1,0E0,1.993386E1,5.901956E1,0E0,0E0,1.5649453E1,0E0,1.5827451E1,7.558899E0,8.120258E0,3.5091156E1,5.6021797E1,0E0,8.42527E0,3.1990955E1,0E0,0E0,0E0,0E0,0E0,0E0,0E0,0E0,0E0,0E0,0E0,0E0,0E0,0E0,0E0,0E0],"parents":[2147483647,0,0,1,1,2,2,3,3,4,4,5,5,6,6,7,7,11,11,12,12,13,13,14,14,15,15,17,17,20,20,21,21,23,23,24,24,27,27,29,29,30,30,31,31,32,32,33,33,35,35,36,36],"right_children":[2,4,6,8,10,12,14,16,-1,-1,-1,18,20,22,24,26,-1,28,-1,-1,30,32,-1,34,36,-1,-1,38,-1,40,42,44,46,48,-1,50,52,-1,-1,-1,-1,-1,-1,-1,-1,-1,-1,-1,-1,-1,-1,-1,-1],"split_conditions":[8.047603E3,8.0351265E3,8.660683E3,7.9646284E3,8.0431035E3,8.285273E3,8.841613E3,7.93536E3,1.316605E-1,-1.519185E-1,1.18945554E-1,8.282977E3,8.394094E3,8.835464E3,8.972035E3,7.925111E3,-1.5539399E-1,8.256095E3,1.407468E-1,-1.9386423E-1,8.494298E3,8.746395E3,1.6541474E-1,8.900645E3,9.004434E3,7.552395E-2,1.4721271E-1,8.0587505E3,-1.8017617E-1,8.425252E3,8.554589E3,8.724986E3,8.784557E3,8.894869E3,-1.7645407E-1,8.999852E3,9.080756E3,-1.5344466E-1,8.325459E-3,1.2416215E-1,-6.9593205E-3,-1.8319574E-1,-1.12308495E-1,5.892205E-2,1.3367479E-1,-1.8553986E-1,6.828591E-3,-1.852447E-1,1.2301828E-1,7.076996E-2,1.52385E-1,-1.8210314E-1,-3.3616049E-3],"split_indices":[0,0,0,0,0,0,0,0,0,0,0,0,0,0,0,0,0,0,0,0,0,0,0,0,0,0,0,0,0,0,0,0,0,0,0,0,0,0,0,0,0,0,0,0,0,0,0,0,0,0,0,0,0],"split_type":[0,0,0,0,0,0,0,0,0,0,0,0,0,0,0,0,0,0,0,0,0,0,0,0,0,0,0,0,0,0,0,0,0,0,0,0,0,0,0,0,0,0,0,0,0,0,0,0,0,0,0,0,0],"sum_hessian":[8.435829E2,1.1227311E2,7.313098E2,9.96144E1,1.2658704E1,3.6717865E2,3.6413116E2,3.4024364E1,6.559004E1,2.9975073E0,9.661197E0,1.8089027E2,1.8628836E2,1.7145403E2,1.9267714E2,2.831571E1,5.708656E0,1.7172119E2,9.169081E0,3.8249374E1,1.4803899E2,1.3627832E2,3.51757E1,5.361815E1,1.3905899E2,1.0845696E1,1.7470015E1,1.6172136E2,9.999836E0,3.571389E1,1.12325096E2,9.2441376E1,4.383694E1,2.191847E1,3.1699677E1,7.640218E1,6.2656803E1,5.2144284E0,1.5650693E2,1.9314772E1,1.6399118E1,2.2707394E1,8.961771E1,7.335358E1,1.90878E1,1.2499567E1,3.1337376E1,1.2249576E1,9.668896E0,5.8860954E1,1.754123E1,1.1499587E1,5.1157215E1],"tree_param":{"num_deleted":"0","num_feature":"1","num_nodes":"53","size_leaf_vector":"1"}},{"base_weights":[-7.542423E-2,1.0678914E0,-2.7500293E-1,1.1319804E0,4.718939E-1,-2.4484812E-1,-1.6901045E-1,1.3192887E0,9.731553E-1,-1.3731666E-1,1.0888181E-1,-4.4984326E-1,-5.5742823E-3,1.0137471E0,1.5069966E-1,-1.4241713E-1,1.21818975E-1,-7.710691E-2,-1.4215821E0,4.211263E-1,-4.441514E-1,1.3146845E-1,-1.4010929E-1,-8.646766E-1,1.511009E-1,-1.7162614E-1,-9.2708015E-1,1.9160856E-1,1.5072495E-1,-1.1794676E0,-1.7109869E-2,2.0965678E-3,-1.9217204E-1,1.2663572E-1,2.3797841E-3,1.1559504E-1,-1.6742356E-1,9.3598805E-2,-4.937542E-3,-3.9563727E-2,-1.6387641E-1,1.3573593E-1,-1.8444346E-2],"categories":[],"categories_nodes":[],"categories_segments":[],"categories_sizes":[],"default_left":[0,0,0,0,0,0,0,0,0,0,0,0,0,0,0,0,0,0,0,0,0,0,0,0,0,0,0,0,0,0,0,0,0,0,0,0,0,0,0,0,0,0,0],"id":2,"left_children":[1,3,5,7,9,11,-1,13,15,-1,-1,17,19,21,-1,-1,-1,23,25,27,29,-1,-1,31,33,-1,35,37,-1,39,41,-1,-1,-1,-1,-1,-1,-1,-1,-1,-1,-1,-1],"loss_changes":[1.8142126E2,3.8185272E0,2.8280914E1,1.6348114E0,1.6648977E1,3.252581E1,0E0,8.270874E-1,3.7759903E1,0E0,0E0,1.2920251E2,5.7766182E1,1.6771326E1,0E0,0E0,0E0,4.6836334E1,1.2565048E1,3.8514923E1,4.769134E1,0E0,0E0,5.5033733E1,2.8509825E1,0E0,6.3078796E1,2.350661E1,0E0,1.9259018E1,2.254876E1,0E0,0E0,0E0,0E0,0E0,0E0,0E0,0E0,0E0,0E0,0E0,0E0],"parents":[2147483647,0,0,1,1,2,2,3,3,4,4,5,5,7,7,8,8,11,11,12,12,13,13,17,17,18,18,19,19,20,20,23,23,24,24,26,26,27,27,29,29,30,30],"right_children":[2,4,6,8,10,12,-1,14,16,-1,-1,18,20,22,-1,-1,-1,24,26,28,30,-1,-1,32,34,-1,36,38,-1,40,42,-1,-1,-1,-1,-1,-1,-1,-1,-1,-1,-1,-1],"split_conditions":[8.047603E3,8.0351265E3,9.162288E3,7.93536E3,8.0431035E3,8.660683E3,-1.6901045E-1,7.925111E3,7.9646284E3,-1.3731666E-1,1.0888181E-1,8.494298E3,8.841613E3,7.875832E3,1.5069966E-1,-1.4241713E-1,1.21818975E-1,8.1593403E3,8.628474E3,8.835464E3,8.972035E3,1.3146845E-1,-1.4010929E-1,8.0853115E3,8.1648105E3,-1.7162614E-1,8.63506E3,8.669194E3,1.5072495E-1,8.900645E3,8.973576E3,2.0965678E-3,-1.9217204E-1,1.2663572E-1,2.3797841E-3,1.1559504E-1,-1.6742356E-1,9.3598805E-2,-4.937542E-3,-3.9563727E-2,-1.6387641E-1,1.3573593E-1,-1.8444346E-2],"split_indices":[0,0,0,0,0,0,0,0,0,0,0,0,0,0,0,0,0,0,0,0,0,0,0,0,0,0,0,0,0,0,0,0,0,0,0,0,0,0,0,0,0,0,0],"split_type":[0,0,0,0,0,0,0,0,0,0,0,0,0,0,0,0,0,0,0,0,0,0,0,0,0,0,0,0,0,0,0,0,0,0,0,0,0,0,0,0,0,0,0],"sum_hessian":[7.9313513E2,1.17153336E2,6.759818E2,1.04815216E2,1.2338122E1,6.630954E2,1.2886393E1,4.4453457E1,6.036176E1,2.7439017E0,9.59422E0,3.5643005E2,3.0666534E2,1.9555462E1,2.4897995E1,5.113447E0,5.5248314E1,2.5846945E2,9.7960594E1,1.5534187E2,1.5132349E2,1.7830427E1,1.725036E0,5.7540436E1,2.0092902E2,5.970739E1,3.8253204E1,1.2928918E2,2.6052689E1,5.4861755E1,9.646172E1,3.1790436E1,2.575E1,1.958846E1,1.8134055E2,9.918886E0,2.8334316E1,3.1015575E1,9.8273605E1,2.103788E1,3.382388E1,9.6324005E0,8.682932E1],"tree_param":{"num_deleted":"0","num_feature":"1","num_nodes":"43","size_leaf_vector":"1"}},{"base_weights":[3.0404827E-2,5.6555974E-1,-2.0190519E-1,8.1771916E-1,3.195911E-1,-1.8919528E-1,-1.4468592E-1,7.116254E-1,1.3659354E-1,-1.659308E-1,4.8854172E-1,-8.483011E-2,-1.7032745E-1,8.1647074E-1,-1.3894634E-1,6.417458E-2,7.862684E-1,-2.3399422E-1,4.711912E-1,9.031653E-1,2.1928053E-1,3.1306332E-1,-1.5481316E-1,1.1831627E-1,2.142579E-1,2.548811E-1,-4.539883E-1,7.590581E-1,-1.3708945E-1,7.180445E-2,1.1468878E-1,-1.3681644E-1,8.5316345E-2,-2.4154836E-3,1.4260541E-1,-1.7313112E-1,8.4863186E-2,1.0789319E-1,8.779784E-3,-1.0551267E-1,-1.1262084E-2,2.845336E-2,1.2515779E-1,-1.6682716E-1,6.868655E-2],"categories":[],"categories_nodes":[],"categories_segments":[],"categories_sizes":[],"default_left":[0,0,0,0,0,0,0,0,0,0,0,0,0,0,0,0,0,0,0,0,0,0,0,0,0,0,0,0,0,0,0,0,0,0,0,0,0,0,0,0,0,0,0,0,0],"id":3,"left_children":[1,3,5,7,9,-1,11,13,-1,-1,15,17,-1,19,-1,21,23,25,27,29,31,33,-1,-1,35,37,39,41,43,-1,-1,-1,-1,-1,-1,-1,-1,-1,-1,-1,-1,-1,-1,-1,-1],"loss_changes":[1.042467E2,1.5369293E1,5.604235E1,6.0616074E0,4.4271828E1,0E0,5.2522636E1,2.4550297E1,0E0,0E0,1.5140791E1,4.542318E1,0E0,4.9791946E0,0E0,2.0858532E1,1.5687042E1,4.657712E1,2.0446049E1,2.994156E0,1.5624235E1,1.711447E1,0E0,0E0,3.88252E1,1.8308735E1,6.097899E1,1.792487E1,4.910831E1,0E0,0E0,0E0,0E0,0E0,0E0,0E0,0E0,0E0,0E0,0E0,0E0,0E0,0E0,0E0,0E0],"parents":[2147483647,0,0,1,1,2,2,3,3,4,4,6,6,7,7,10,10,11,11,13,13,15,15,16,16,17,17,18,18,19,19,20,20,21,21,24,24,25,25,26,26,27,27,28,28],"right_children":[2,4,6,8,10,-1,12,14,-1,-1,16,18,-1,20,-1,22,24,26,28,30,32,34,-1,-1,36,38,40,42,44,-1,-1,-1,-1,-1,-1,-1,-1,-1,-1,-1,-1,-1,-1,-1,-1],"split_conditions":[8.198689E3,8.0611416E3,8.249575E3,8.0587505E3,8.0835767E3,-1.8919528E-1,9.123495E3,8.047603E3,1.3659354E-1,-1.659308E-1,8.154444E3,8.972035E3,-1.7032745E-1,8.0351265E3,-1.3894634E-1,8.13424E3,8.16735E3,8.494298E3,9.004434E3,8.007725E3,8.0431035E3,8.128506E3,-1.5481316E-1,1.1831627E-1,8.183904E3,8.271955E3,8.660683E3,8.995241E3,9.080756E3,7.180445E-2,1.1468878E-1,-1.3681644E-1,8.5316345E-2,-2.4154836E-3,1.4260541E-1,-1.7313112E-1,8.4863186E-2,1.0789319E-1,8.779784E-3,-1.0551267E-1,-1.1262084E-2,2.845336E-2,1.2515779E-1,-1.6682716E-1,6.868655E-2],"split_indices":[0,0,0,0,0,0,0,0,0,0,0,0,0,0,0,0,0,0,0,0,0,0,0,0,0,0,0,0,0,0,0,0,0,0,0,0,0,0,0,0,0,0,0,0,0],"split_type":[0,0,0,0,0,0,0,0,0,0,0,0,0,0,0,0,0,0,0,0,0,0,0,0,0,0,0,0,0,0,0,0,0,0,0,0,0,0,0,0,0,0,0,0,0],"sum_hessian":[8.363117E2,2.5284586E2,5.834658E2,1.2350319E2,1.2934267E2,1.799997E1,5.654659E2,1.05555916E2,1.7947271E1,9.433699E0,1.19908966E2,5.456302E2,1.9835716E1,1.0116665E2,4.3892655E0,5.007936E1,6.9829605E1,4.308144E2,1.1481578E2,8.774836E1,1.3418293E1,4.4134285E1,5.945077E0,4.049119E1,2.933841E1,1.335108E2,2.973036E2,7.787717E1,3.6938606E1,5.2345497E1,3.540286E1,3.453495E0,9.964798E0,3.4553566E1,9.58072E0,6.7499886E0,2.258842E1,2.1486069E1,1.1202474E2,1.0681739E2,1.9048619E2,4.0570114E1,3.7307056E1,1.2607093E1,2.4331514E1],"tree_param":{"num_deleted":"0","num_feature":"1","num_nodes":"45","size_leaf_vector":"1"}},{"base_weights":[1.6799139E-2,8.180414E-1,-7.8487284E-2,1.10224545E-1,6.0592544E-1,-4.109457E-2,-1.5798463E-1,-1.5721776E-1,9.235467E-1,-1.9771887E-1,1.6496065E-1,4.2006552E-1,1.0637337E-1,1.6210712E-1,-8.3357507E-1,5.14827E-1,-2.0658362E-1,7.987282E-2,-1.2998955E-1,-4.1135392E-1,3.418533E-1,-4.5137838E-1,-1.1750419E0,2.4748957E-1,1.4732678E-1,-1.0686549E0,3.214265E-1,1.2482577E-2,-1.7184697E-1,8.817041E-2,1.2910642E-2,-8.1066385E-2,1.9157508E-1,-1.5159856E-1,-7.874175E-2,9.325628E-2,-8.680912E-3,-5.7572372E-2,-1.5663481E-1,1.10038616E-1,1.0290368E-2],"categories":[],"categories_nodes":[],"categories_segments":[],"categories_sizes":[],"default_left":[0,0,0,0,0,0,0,0,0,0,0,0,0,0,0,0,0,0,0,0,0,0,0,0,0,0,0,0,0,0,0,0,0,0,0,0,0,0,0,0,0],"id":4,"left_children":[1,3,5,-1,7,9,-1,-1,11,13,15,17,-1,19,21,23,25,-1,-1,27,29,31,33,35,-1,37,39,-1,-1,-1,-1,-1,-1,-1,-1,-1,-1,-1,-1,-1,-1],"loss_changes":[6.267613E1,4.421612E0,4.0915886E1,0E0,3.7630104E1,2.3148275E1,0E0,0E0,2.6791496E0,9.3461784E1,4.03745E1,8.746058E0,0E0,2.7041023E1,1.8565552E1,4.0420055E1,6.9011536E1,0E0,0E0,4.4258232E1,2.2689262E1,6.2160175E1,8.775162E0,2.908316E1,0E0,1.3000946E1,1.5792885E1,0E0,0E0,0E0,0E0,0E0,0E0,0E0,0E0,0E0,0E0,0E0,0E0,0E0,0E0],"parents":[2147483647,0,0,1,1,2,2,4,4,5,5,8,8,9,9,10,10,11,11,13,13,14,14,15,15,16,16,19,19,20,20,21,21,22,22,23,23,25,25,26,26],"right_children":[2,4,6,-1,8,10,-1,-1,12,14,16,18,-1,20,22,24,26,-1,-1,28,30,32,34,36,-1,38,40,-1,-1,-1,-1,-1,-1,-1,-1,-1,-1,-1,-1,-1,-1],"split_conditions":[8.0351265E3,7.93536E3,9.123495E3,1.10224545E-1,7.978361E3,8.660683E3,-1.5798463E-1,-1.5721776E-1,8.007725E3,8.326347E3,8.841613E3,7.997228E3,1.0637337E-1,8.128506E3,8.557453E3,8.835464E3,8.975862E3,7.987282E-2,-1.2998955E-1,8.0853115E3,8.16735E3,8.554589E3,8.628474E3,8.682672E3,1.4732678E-1,8.923899E3,8.981027E3,1.2482577E-2,-1.7184697E-1,8.817041E-2,1.2910642E-2,-8.1066385E-2,1.9157508E-1,-1.5159856E-1,-7.874175E-2,9.325628E-2,-8.680912E-3,-5.7572372E-2,-1.5663481E-1,1.10038616E-1,1.0290368E-2],"split_indices":[0,0,0,0,0,0,0,0,0,0,0,0,0,0,0,0,0,0,0,0,0,0,0,0,0,0,0,0,0,0,0,0,0,0,0,0,0,0,0,0,0],"split_type":[0,0,0,0,0,0,0,0,0,0,0,0,0,0,0,0,0,0,0,0,0,0,0,0,0,0,0,0,0,0,0,0,0,0,0,0,0,0,0,0,0],"sum_hessian":[8.181226E2,8.625851E1,7.3186414E2,3.486999E1,5.1388515E1,7.151467E2,1.6717402E1,5.997268E0,4.5391247E1,4.0660706E2,3.0853967E2,1.0911701E1,3.4479546E1,2.6004016E2,1.465669E2,1.5884554E2,1.4969412E2,9.4294815E0,1.4822192E0,6.1616E1,1.9842416E2,7.039264E1,7.6174255E1,1.2526734E2,3.35782E1,5.654299E1,9.315112E1,4.4280228E1,1.7335775E1,5.5069485E1,1.4335468E2,6.1723896E1,8.668741E0,3.884145E1,3.73328E1,4.05921E1,8.467524E1,2.9591919E1,2.6951073E1,1.9422682E1,7.372844E1],"tree_param":{"num_deleted":"0","num_feature":"1","num_nodes":"41","size_leaf_vector":"1"}},{"base_weights":[1.1413783E-1,8.962417E-1,-6.277853E-2,1.0194682E0,4.6014544E-1,-2.5014974E-2,-1.4850004E-1,1.2327701E-1,8.618143E-1,-3.0353683E-1,1.2477515E-1,-1.0554284E-1,5.500067E-1,-1.2896271E-1,1.03140116E-1,2.3038387E-1,-1.3827838E-1,-2.4523333E-2,-1.0976634E0,1.0161456E0,-8.802303E-2,-1.290532E-1,8.503083E-2,-5.986589E-2,2.0036124E-1,-1.5415464E-1,-2.9877397E-1,5.015968E-1,1.1624731E-1,-1.5544598E-1,6.921801E-1,-1.9666506E-2,2.2472575E-2,1.074973E-1,-1.9404249E-1,9.2688315E-2,-1.368146E-1,1.3600443E-1,2.0030474E-2],"categories":[],"categories_nodes":[],"categories_segments":[],"categories_sizes":[],"default_left":[0,0,0,0,0,0,0,0,0,0,0,0,0,0,0,0,0,0,0,0,0,0,0,0,0,0,0,0,0,0,0,0,0,0,0,0,0,0,0],"id":5,"left_children":[1,3,5,7,9,11,-1,-1,13,15,-1,17,19,-1,-1,21,-1,23,25,27,29,-1,-1,31,-1,-1,33,35,-1,-1,37,-1,-1,-1,-1,-1,-1,-1,-1],"loss_changes":[1.2013751E2,7.9894714E0,3.7841965E1,2.8936005E0,2.2899927E1,3.2003998E1,0E0,0E0,2.860231E1,1.1768498E1,0E0,4.8650997E1,2.5424587E1,0E0,0E0,1.421095E1,0E0,4.0229164E1,1.5564724E1,2.9559135E0,4.3105846E1,0E0,0E0,2.1596586E1,0E0,0E0,4.197051E1,1.1407696E1,0E0,0E0,7.6450443E0,0E0,0E0,0E0,0E0,0E0,0E0,0E0,0E0],"parents":[2147483647,0,0,1,1,2,2,3,3,4,4,5,5,8,8,9,9,11,11,12,12,15,15,17,17,18,18,19,19,20,20,23,23,26,26,27,27,30,30],"right_children":[2,4,6,8,10,12,-1,-1,14,16,-1,18,20,-1,-1,22,-1,24,26,28,30,-1,-1,32,-1,-1,34,36,-1,-1,38,-1,-1,-1,-1,-1,-1,-1,-1],"split_conditions":[8.0611416E3,8.0351265E3,9.123495E3,7.93536E3,8.0587505E3,8.988587E3,-1.4850004E-1,1.2327701E-1,7.9646284E3,8.047603E3,1.2477515E-1,8.923899E3,9.004434E3,-1.2896271E-1,1.03140116E-1,8.0431035E3,-1.3827838E-1,8.920189E3,8.978347E3,8.995241E3,9.080756E3,-1.290532E-1,8.503083E-2,8.660683E3,2.0036124E-1,-1.5415464E-1,8.981027E3,8.990641E3,1.1624731E-1,-1.5544598E-1,9.084115E3,-1.9666506E-2,2.2472575E-2,1.074973E-1,-1.9404249E-1,9.2688315E-2,-1.368146E-1,1.3600443E-1,2.0030474E-2],"split_indices":[0,0,0,0,0,0,0,0,0,0,0,0,0,0,0,0,0,0,0,0,0,0,0,0,0,0,0,0,0,0,0,0,0,0,0,0,0,0,0],"split_type":[0,0,0,0,0,0,0,0,0,0,0,0,0,0,0,0,0,0,0,0,0,0,0,0,0,0,0,0,0,0,0,0,0,0,0,0,0,0,0],"sum_hessian":[8.662438E2,1.5915552E2,7.0708826E2,1.2286959E2,3.628593E1,6.898587E2,1.7229578E1,4.9051018E1,7.381857E1,1.8670345E1,1.7615587E1,6.05985E2,8.38737E1,4.867936E0,6.895064E1,1.2955116E1,5.715228E0,5.612751E2,4.4709873E1,4.8213467E1,3.5660236E1,3.3914654E0,9.563651E0,5.5266406E2,8.611008E0,2.8062735E1,1.664714E1,1.1806864E1,3.64066E1,1.208381E1,2.3576426E1,3.7369467E2,1.789694E2,9.217846E0,7.429295E0,1.0073362E1,1.7335021E0,9.164552E0,1.4411873E1],"tree_param":{"num_deleted":"0","num_feature":"1","num_nodes":"39","size_leaf_vector":"1"}},{"base_weights":[6.276824E-2,8.4374416E-1,-3.2532554E-2,5.3875387E-1,9.888786E-2,-1.5666918E-1,2.3152101E-1,8.807248E-1,-1.2114926E-1,1.8608987E-1,-4.774098E-1,1.0413692E0,7.095256E-2,5.408916E-2,1.0596746E-1,1.2995477E-1,1.3574402E-1,-8.045971E-1,-1.4260179E-2,5.1457286E-1,1.2765494E-1,-1.6332689E-1,1.9693495E-1,1.9032152E-1,-1.5785913E-1,-2.834142E-1,-1.4725585E-1,6.1629695E-1,-1.1059699E0,1.22621074E-1,-1.4872132E-1,2.9873934E-1,-1.3042103E-1,1.25489775E-2,1.5098119E-1,-1.682937E-1,1.2952477E-2,3.5658225E-2,1.2029737E-1,-1.8479186E-1,-2.4729155E-2,1.9902429E-2,1.9612299E-1],"categories":[],"categories_nodes":[],"categories_segments":[],"categories_sizes":[],"default_left":[0,0,0,0,0,0,0,0,0,0,0,0,0,0,0,0,0,0,0,0,0,0,0,0,0,0,0,0,0,0,0,0,0,0,0,0,0,0,0,0,0,0,0],"id":6,"left_children":[1,3,5,7,-1,9,11,13,-1,15,17,19,21,-1,-1,23,-1,25,27,29,-1,-1,31,33,-1,35,-1,37,39,-1,-1,41,-1,-1,-1,-1,-1,-1,-1,-1,-1,-1,-1],"loss_changes":[6.0933617E1,3.2554054E0,2.3931234E1,1.9663578E1,0E0,5.474253E1,3.0156685E1,8.883476E-1,0E0,1.5505796E1,3.8868523E1,3.9254303E0,4.223849E1,0E0,0E0,2.3980368E1,0E0,5.1810013E1,7.479046E1,2.1268812E1,0E0,0E0,2.8311314E1,1.880952E1,0E0,5.0002472E1,0E0,9.894991E0,2.4693047E1,0E0,0E0,2.8005524E1,0E0,0E0,0E0,0E0,0E0,0E0,0E0,0E0,0E0,0E0,0E0],"parents":[2147483647,0,0,1,1,2,2,3,3,5,5,6,6,7,7,9,9,10,10,11,11,12,12,15,15,17,17,18,18,19,19,22,22,23,23,25,25,27,27,28,28,31,31],"right_children":[2,4,6,8,-1,10,12,14,-1,16,18,20,22,-1,-1,24,-1,26,28,30,-1,-1,32,34,-1,36,-1,38,40,-1,-1,42,-1,-1,-1,-1,-1,-1,-1,-1,-1,-1,-1],"split_conditions":[8.0351265E3,7.9646284E3,8.810528E3,7.93536E3,9.888786E-2,8.310606E3,8.841613E3,7.925111E3,-1.2114926E-1,8.306924E3,8.660683E3,8.835464E3,8.894869E3,5.408916E-2,1.0596746E-1,8.295418E3,1.3574402E-1,8.557453E3,8.705646E3,8.82736E3,1.2765494E-1,-1.6332689E-1,9.162288E3,8.293289E3,-1.5785913E-1,8.394094E3,-1.4725585E-1,8.698234E3,8.784557E3,1.22621074E-1,-1.4872132E-1,9.154757E3,-1.3042103E-1,1.25489775E-2,1.5098119E-1,-1.682937E-1,1.2952477E-2,3.5658225E-2,1.2029737E-1,-1.8479186E-1,-2.4729155E-2,1.9902429E-2,1.9612299E-1],"split_indices":[0,0,0,0,0,0,0,0,0,0,0,0,0,0,0,0,0,0,0,0,0,0,0,0,0,0,0,0,0,0,0,0,0,0,0,0,0,0,0,0,0,0,0],"split_type":[0,0,0,0,0,0,0,0,0,0,0,0,0,0,0,0,0,0,0,0,0,0,0,0,0,0,0,0,0,0,0,0,0,0,0,0,0,0,0,0,0,0,0],"sum_hessian":[8.162374E2,8.8031136E1,7.282063E2,3.0125517E1,5.790562E1,4.9587253E2,2.3233379E2,2.5664925E1,4.4605923E0,2.3976065E2,2.5611188E2,3.743204E1,1.9490175E2,1.0433218E1,1.5231708E1,2.2993758E2,9.823077E0,1.4952696E2,1.0658492E2,1.2668401E1,2.476364E1,1.2537894E1,1.8236385E2,2.2300543E2,6.9321446E0,8.487583E1,6.465113E1,6.7779976E1,3.8804947E1,9.668597E0,2.9998035E0,1.7159431E2,1.0769542E1,2.136775E2,9.327924E0,1.8692001E1,6.618383E1,4.821433E1,1.9565649E1,2.0136938E1,1.8668007E1,1.6299768E2,8.596625E0],"tree_param":{"num_deleted":"0","num_feature":"1","num_nodes":"43","size_leaf_vector":"1"}},{"base_weights":[5.028877E-2,5.248049E-1,-1.1517124E-1,3.997184E-1,1.0373561E0,-5.211795E-1,1.9519888E-1,4.769401E-1,-1.4959554E-1,7.2236955E-1,1.1360385E-1,-3.84595E-1,-1.4987086E-1,2.395776E-1,-1.23893276E-1,1.0330125E-1,2.9377264E-1,1.2340887E-1,-1.3049659E-1,-4.6944422E-1,1.3846976E-1,1.9467252E-1,1.636533E-1,1.9177707E-1,1.457657E-1,-3.1265503E-1,-1.3596174E-1,5.5209154E-1,6.9983855E-2,3.6093857E-2,-1.520667E-1,-4.1664563E-2,1.4569436E-1,2.9046481E-2,1.3469902E-1,-1.7592542E-1,2.7386853E-2],"categories":[],"categories_nodes":[],"categories_segments":[],"categories_sizes":[],"default_left":[0,0,0,0,0,0,0,0,0,0,0,0,0,0,0,0,0,0,0,0,0,0,0,0,0,0,0,0,0,0,0,0,0,0,0,0,0],"id":7,"left_children":[1,3,5,7,9,11,13,15,-1,17,-1,19,-1,21,-1,-1,23,-1,-1,25,-1,27,-1,29,-1,31,-1,33,35,-1,-1,-1,-1,-1,-1,-1,-1],"loss_changes":[6.403499E1,1.296096E1,7.630087E1,2.5685364E1,2.5497055E-1,3.425402E1,2.203677E1,1.6409416E1,0E0,1.4746582E1,0E0,3.5321495E1,0E0,2.0435036E1,0E0,0E0,1.4506183E1,0E0,0E0,3.035962E1,0E0,1.4363859E1,0E0,3.4332554E1,0E0,3.5457962E1,0E0,1.6829165E1,9.057924E1,0E0,0E0,0E0,0E0,0E0,0E0,0E0,0E0],"parents":[2147483647,0,0,1,1,2,2,3,3,4,4,5,5,6,6,7,7,9,9,11,11,13,13,16,16,19,19,21,21,23,23,25,25,27,27,28,28],"right_children":[2,4,6,8,10,12,14,16,-1,18,-1,20,-1,22,-1,-1,24,-1,-1,26,-1,28,-1,30,-1,32,-1,34,36,-1,-1,-1,-1,-1,-1,-1,-1],"split_conditions":[8.16735E3,8.154444E3,8.666019E3,8.13424E3,8.1593403E3,8.63506E3,9.162288E3,7.93536E3,-1.4959554E-1,8.1564053E3,1.1360385E-1,8.628474E3,-1.4987086E-1,9.154757E3,-1.23893276E-1,1.0330125E-1,8.128506E3,1.2340887E-1,-1.3049659E-1,8.557453E3,1.3846976E-1,8.746395E3,1.636533E-1,8.1065474E3,1.457657E-1,8.554589E3,-1.3596174E-1,8.724986E3,8.810528E3,3.6093857E-2,-1.520667E-1,-4.1664563E-2,1.4569436E-1,2.9046481E-2,1.3469902E-1,-1.7592542E-1,2.7386853E-2],"split_indices":[0,0,0,0,0,0,0,0,0,0,0,0,0,0,0,0,0,0,0,0,0,0,0,0,0,0,0,0,0,0,0,0,0,0,0,0,0],"split_type":[0,0,0,0,0,0,0,0,0,0,0,0,0,0,0,0,0,0,0,0,0,0,0,0,0,0,0,0,0,0,0,0,0,0,0,0,0],"sum_hessian":[8.1330115E2,2.0986638E2,6.0343475E2,1.7028407E2,3.9582314E1,2.6128275E2,3.42152E2,1.6438873E2,5.89534E0,1.1669069E1,2.7913242E1,2.3056323E2,3.0719528E1,3.327576E2,9.394397E0,3.9447037E1,1.24941696E2,9.669097E0,1.9999723E0,2.2076718E2,9.796045E0,3.2356747E2,9.190126E0,1.1602471E2,8.916987E0,1.889503E2,3.1816885E1,8.259109E1,2.409764E2,1.0636519E2,9.65952E0,1.792384E2,9.711896E0,6.326105E1,1.9330032E1,2.3351284E1,2.1762512E2],"tree_param":{"num_deleted":"0","num_feature":"1","num_nodes":"37","size_leaf_vector":"1"}},{"base_weights":[8.537371E-2,7.540365E-1,-4.3734707E-2,1.10907726E-1,5.647469E-1,-2.2142293E-1,1.4414218E-1,-1.1928947E-1,6.8054736E-1,2.7896842E-2,-8.49366E-1,1.81185E-1,-1.1792099E-1,5.0431734E-1,1.3309251E-1,-1.5433425E-1,8.6530164E-2,-6.459668E-1,-1.3872385E-1,1.4126915E-1,1.3101086E-1,6.5139085E-1,-1.2763761E-1,8.5204977E-1,1.3944033E-3,-9.525029E-1,1.1753279E-1,8.177917E-1,6.867218E-2,7.434639E-2,2.4772933E-2,2.7940825E-2,1.5836023E-1,-1.427764E-1,7.1642096E-3,-5.3615298E-2,-1.3109587E-1,9.6779585E-2,5.0491672E-2,-1.8921159E-1,1.3222458E-2],"categories":[],"categories_nodes":[],"categories_segments":[],"categories_sizes":[],"default_left":[0,0,0,0,0,0,0,0,0,0,0,0,0,0,0,0,0,0,0,0,0,0,0,0,0,0,0,0,0,0,0,0,0,0,0,0,0,0,0,0,0],"id":8,"left_children":[1,3,5,-1,7,9,11,-1,13,15,17,19,-1,21,-1,-1,23,25,-1,27,-1,29,-1,31,33,35,-1,37,39,-1,-1,-1,-1,-1,-1,-1,-1,-1,-1,-1,-1],"loss_changes":[7.0353966E1,8.068832E0,2.2836079E1,0E0,1.8719635E1,5.5154434E1,1.6400913E1,0E0,8.712444E0,2.325367E1,9.849152E0,1.4276255E1,0E0,1.8422268E1,0E0,0E0,1.5845937E1,4.275821E1,0E0,1.529053E1,0E0,2.0573692E0,0E0,9.570768E0,2.216569E1,8.734322E0,0E0,7.829151E-1,3.5594746E1,0E0,0E0,0E0,0E0,0E0,0E0,0E0,0E0,0E0,0E0,0E0,0E0],"parents":[2147483647,0,0,1,1,2,2,4,4,5,5,6,6,8,8,9,9,10,10,11,11,13,13,16,16,17,17,19,19,21,21,23,23,24,24,25,25,27,27,28,28],"right_children":[2,4,6,-1,8,10,12,-1,14,16,18,20,-1,22,-1,-1,24,26,-1,28,-1,30,-1,32,34,36,-1,38,40,-1,-1,-1,-1,-1,-1,-1,-1,-1,-1,-1,-1],"split_conditions":[8.0611416E3,7.93536E3,8.666019E3,1.10907726E-1,7.9646284E3,8.494298E3,9.162288E3,-1.1928947E-1,8.0587505E3,8.0835767E3,8.63506E3,9.154757E3,-1.1792099E-1,8.047603E3,1.3309251E-1,-1.5433425E-1,8.1065474E3,8.628474E3,-1.3872385E-1,8.682672E3,1.3101086E-1,8.0351265E3,-1.2763761E-1,8.1035845E3,8.128506E3,8.557453E3,1.1753279E-1,8.669194E3,8.698234E3,7.434639E-2,2.4772933E-2,2.7940825E-2,1.5836023E-1,-1.427764E-1,7.1642096E-3,-5.3615298E-2,-1.3109587E-1,9.6779585E-2,5.0491672E-2,-1.8921159E-1,1.3222458E-2],"split_indices":[0,0,0,0,0,0,0,0,0,0,0,0,0,0,0,0,0,0,0,0,0,0,0,0,0,0,0,0,0,0,0,0,0,0,0,0,0,0,0,0,0],"split_type":[0,0,0,0,0,0,0,0,0,0,0,0,0,0,0,0,0,0,0,0,0,0,0,0,0,0,0,0,0,0,0,0,0,0,0,0,0,0,0,0,0],"sum_hessian":[8.127377E2,1.3087254E2,6.818651E2,4.3637146E1,8.72354E1,3.506165E2,3.3124863E2,4.763853E0,8.247154E1,2.5154062E2,9.907586E1,3.23142E2,8.106632E0,6.640677E1,1.6064774E1,8.076676E0,2.4346394E2,7.3622154E1,2.5453709E1,3.1327896E2,9.8630295E0,6.1978138E1,4.428634E0,2.3347382E1,2.2011656E2,6.3471413E1,1.0150738E1,2.9231531E1,2.8404742E2,4.9579735E1,1.2398403E1,1.3947921E1,9.39946E0,9.340475E0,2.107761E2,3.0648075E1,3.2823338E1,1.8127615E1,1.1103917E1,7.964734E0,2.760827E2],"tree_param":{"num_deleted":"0","num_feature":"1","num_nodes":"41","size_leaf_vector":"1"}},{"base_weights":[9.054024E-2,5.678354E-1,9.504955E-3,9.6359456E-1,3.8220617E-1,-2.60612E-1,2.6620448E-1,7.252529E-2,1.1155748E-1,-1.1668768E-1,5.04509E-1,-3.8419035E-3,-1.0394741E0,3.024269E-1,-1.1436949E-1,3.1467208E-1,1.139664E-1,-1.3935398E-1,8.498277E-1,-1.3645926E-1,-4.727044E-1,2.6744616E-1,1.4181462E-1,4.8768082E-1,-1.254615E-1,1.5703632E-1,-6.086926E-1,1.22980885E-1,2.8753796E-1,1.2119188E-1,-1.2644337E-1,3.506059E-1,-3.3553E-1,-0E0,6.19538E-2,-7.879154E-2,4.7848415E-2,-1.1114346E-1,2.380235E-3,-1.6370696E-1,1.5298417E-1,2.2773856E-2,7.075128E-2,-1.4835168E-1,1.2525606E-2],"categories":[],"categories_nodes":[],"categories_segments":[],"categories_sizes":[],"default_left":[0,0,0,0,0,0,0,0,0,0,0,0,0,0,0,0,0,0,0,0,0,0,0,0,0,0,0,0,0,0,0,0,0,0,0,0,0,0,0,0,0,0,0,0,0],"id":9,"left_children":[1,3,5,7,9,11,13,-1,-1,-1,15,17,19,21,-1,23,-1,25,27,-1,29,31,-1,33,-1,35,37,-1,39,-1,-1,41,43,-1,-1,-1,-1,-1,-1,-1,-1,-1,-1,-1,-1],"loss_changes":[3.0969416E1,8.037647E0,4.7711452E1,3.2134247E-1,1.5861856E1,6.690921E1,1.828819E1,0E0,0E0,0E0,8.635397E0,2.9329208E1,1.4462585E1,1.2916826E1,0E0,1.678696E1,0E0,3.0661787E1,6.9120617E0,0E0,4.4074608E1,1.6958563E1,0E0,3.5491047E0,0E0,4.1396744E1,2.72467E1,0E0,3.934041E1,0E0,0E0,1.2714996E1,2.2045292E1,0E0,0E0,0E0,0E0,0E0,0E0,0E0,0E0,0E0,0E0,0E0,0E0],"parents":[2147483647,0,0,1,1,2,2,3,3,4,4,5,5,6,6,10,10,11,11,12,12,13,13,15,15,17,17,18,18,20,20,21,21,23,23,25,25,26,26,28,28,31,31,32,32],"right_children":[2,4,6,8,10,12,14,-1,-1,-1,16,18,20,22,-1,24,-1,26,28,-1,30,32,-1,34,-1,36,38,-1,40,-1,-1,42,44,-1,-1,-1,-1,-1,-1,-1,-1,-1,-1,-1,-1],"split_conditions":[8.0611416E3,7.93536E3,8.660683E3,7.925111E3,7.9646284E3,8.494298E3,9.162288E3,7.252529E-2,1.1155748E-1,-1.1668768E-1,8.0587505E3,8.394094E3,8.628474E3,9.154757E3,-1.1436949E-1,8.047603E3,1.139664E-1,8.231412E3,8.425252E3,-1.3645926E-1,8.63506E3,9.004434E3,1.4181462E-1,8.007725E3,-1.254615E-1,8.128506E3,8.306924E3,1.22980885E-1,8.4628125E3,1.2119188E-1,-1.2644337E-1,8.972035E3,9.080756E3,-0E0,6.19538E-2,-7.879154E-2,4.7848415E-2,-1.1114346E-1,2.380235E-3,-1.6370696E-1,1.5298417E-1,2.2773856E-2,7.075128E-2,-1.4835168E-1,1.2525606E-2],"split_indices":[0,0,0,0,0,0,0,0,0,0,0,0,0,0,0,0,0,0,0,0,0,0,0,0,0,0,0,0,0,0,0,0,0,0,0,0,0,0,0,0,0,0,0,0,0],"split_type":[0,0,0,0,0,0,0,0,0,0,0,0,0,0,0,0,0,0,0,0,0,0,0,0,0,0,0,0,0,0,0,0,0,0,0,0,0,0,0,0,0,0,0,0,0],"sum_hessian":[8.0133594E2,1.1525377E2,6.8608215E2,3.5288807E1,7.996496E1,3.3410696E2,3.5197522E2,1.6244122E1,1.9044685E1,5.16659E0,7.479837E1,2.5212228E2,8.198468E1,3.4399393E2,7.981293E0,5.8859226E1,1.5939143E1,2.1840623E2,3.371605E1,5.109229E1,3.0892391E1,3.348256E2,9.16833E0,5.3692738E1,5.1664906E0,1.341451E2,8.426113E1,1.930514E1,1.441091E1,9.666726E0,2.1225666E1,2.9475824E2,4.0067337E1,1.1556627E1,4.213611E1,3.3602493E1,1.005426E2,4.661212E1,3.7649014E1,5.496826E0,8.9140835E0,2.2069942E2,7.405883E1,1.0902559E1,2.916478E1],"tree_param":{"num_deleted":"0","num_feature":"1","num_nodes":"45","size_leaf_vector":"1"}},{"base_weights":[5.559856E-2,8.0009454E-1,-1.7952127E-2,9.395324E-2,5.717594E-1,-9.5160514E-2,3.28286E-1,-1.1007666E-1,9.244905E-2,-4.4956952E-2,-1.3888724E-1,1.1437892E0,8.569251E-2,-7.633622E-2,1.6426556E-1,1.5318616E-1,8.8834256E-1,-1.8197756E-1,2.2640043E-1,-5.843065E-2,-1.3754745E-1,-9.157564E-2,1.0577353E-1,3.6734644E-1,-1.1177784E-1,-8.402E-3,1.2862225E-1,7.366367E-2,5.9992736E-3],"categories":[],"categories_nodes":[],"categories_segments":[],"categories_sizes":[],"default_left":[0,0,0,0,0,0,0,0,0,0,0,0,0,0,0,0,0,0,0,0,0,0,0,0,0,0,0,0,0],"id":10,"left_children":[1,3,5,-1,7,9,11,-1,-1,13,-1,15,17,19,-1,-1,21,-1,23,25,-1,-1,-1,27,-1,-1,-1,-1,-1],"loss_changes":[4.2578022E1,1.5373001E0,1.8907011E1,0E0,1.8303131E1,3.7404675E1,2.5278654E1,0E0,0E0,2.9547548E1,0E0,1.3092728E0,2.7202625E1,1.2555612E1,0E0,0E0,7.171584E0,0E0,1.8247313E1,1.867261E1,0E0,0E0,0E0,9.681657E0,0E0,0E0,0E0,0E0,0E0],"parents":[2147483647,0,0,1,1,2,2,4,4,5,5,6,6,9,9,11,11,12,12,13,13,16,16,18,18,19,19,23,23],"right_children":[2,4,6,-1,8,10,12,-1,-1,14,-1,16,18,20,-1,-1,22,-1,24,26,-1,-1,-1,28,-1,-1,-1,-1,-1],"split_conditions":[7.997228E3,7.93536E3,8.972035E3,9.395324E-2,7.9646284E3,8.923899E3,8.981027E3,-1.1007666E-1,9.244905E-2,8.920189E3,-1.3888724E-1,8.973576E3,8.988587E3,8.900645E3,1.6426556E-1,1.5318616E-1,8.975862E3,-1.8197756E-1,9.162288E3,8.894869E3,-1.3754745E-1,-9.157564E-2,1.0577353E-1,9.004434E3,-1.1177784E-1,-8.402E-3,1.2862225E-1,7.366367E-2,5.9992736E-3],"split_indices":[0,0,0,0,0,0,0,0,0,0,0,0,0,0,0,0,0,0,0,0,0,0,0,0,0,0,0,0,0],"split_type":[0,0,0,0,0,0,0,0,0,0,0,0,0,0,0,0,0,0,0,0,0,0,0,0,0,0,0,0,0],"sum_hessian":[7.748738E2,6.890311E1,7.059707E2,4.057341E1,2.8329697E1,5.780778E2,1.2789285E2,4.515342E0,2.3814354E1,5.575535E2,2.052428E1,2.8376213E1,9.951664E1,5.483712E2,9.182329E0,9.125128E0,1.9251087E1,5.973931E0,9.354271E1,5.4202264E2,6.3485603E0,1.2235318E0,1.8027554E1,8.539011E1,8.152606E0,5.328933E2,9.129318E0,3.800475E1,4.7385353E1],"tree_param":{"num_deleted":"0","num_feature":"1","num_nodes":"29","size_leaf_vector":"1"}},{"base_weights":[7.224928E-2,1.2162681E-1,-1.6348358E0,6.352886E-1,1.5355502E-2,-1.8508868E-1,-1.0864451E-1,5.6607175E-1,1.0766729E-1,-1.5454791E-1,5.2625164E-2,6.481829E-1,-1.16998784E-1,2.9256383E-1,-1.07178815E-1,7.191886E-1,7.48977E-2,1.4295976E-1,2.3966275E-1,-1.3122348E-1,7.482865E-2,6.367354E-2,8.3739646E-2,-1.2653652E-1,6.1609454E-2,-1.3042758E-1,3.0272951E-2,2.5683705E-2,-1.7493337E-2],"categories":[],"categories_nodes":[],"categories_segments":[],"categories_sizes":[],"default_left":[0,0,0,0,0,0,0,0,0,0,0,0,0,0,0,0,0,0,0,0,0,0,0,0,0,0,0,0,0],"id":11,"left_children":[1,3,5,7,9,-1,-1,11,-1,-1,13,15,-1,17,19,21,23,-1,25,-1,27,-1,-1,-1,-1,-1,-1,-1,-1],"loss_changes":[6.61093E1,4.1558212E1,3.07209E-1,3.2149048E0,3.6762234E1,0E0,0E0,1.71226E1,0E0,0E0,2.3799355E1,4.371311E0,0E0,1.4415611E1,8.186973E1,2.7643204E-1,1.0482908E1,0E0,2.3506546E1,0E0,1.4794859E1,0E0,0E0,0E0,0E0,0E0,0E0,0E0,0E0],"parents":[2147483647,0,0,1,1,2,2,3,3,4,4,7,7,10,10,11,11,13,13,14,14,15,15,16,16,18,18,20,20],"right_children":[2,4,6,8,10,-1,-1,12,-1,-1,14,16,-1,18,20,22,24,-1,26,-1,28,-1,-1,-1,-1,-1,-1,-1,-1],"split_conditions":[9.084115E3,8.0611416E3,9.162288E3,8.0587505E3,8.1035845E3,-1.8508868E-1,-1.0864451E-1,8.047603E3,1.0766729E-1,-1.5454791E-1,8.494298E3,8.0351265E3,-1.16998784E-1,8.1065474E3,8.628474E3,8.007725E3,8.0431035E3,1.4295976E-1,8.128506E3,-1.3122348E-1,8.841613E3,6.367354E-2,8.3739646E-2,-1.2653652E-1,6.1609454E-2,-1.3042758E-1,3.0272951E-2,2.5683705E-2,-1.7493337E-2],"split_indices":[0,0,0,0,0,0,0,0,0,0,0,0,0,0,0,0,0,0,0,0,0,0,0,0,0,0,0,0,0],"split_type":[0,0,0,0,0,0,0,0,0,0,0,0,0,0,0,0,0,0,0,0,0,0,0,0,0,0,0,0,0],"sum_hessian":[7.827287E2,7.6168427E2,2.104443E1,1.2955618E2,6.3212805E2,1.3262064E1,7.7823653E0,1.1416254E2,1.5393648E1,1.37356415E1,6.1839246E2,1.09660126E2,4.5024085E0,2.4713103E2,3.712614E2,9.71931E1,1.2467022E1,9.745744E0,2.3738528E2,4.7973377E1,3.2328802E2,6.1516327E1,3.5676777E1,3.148058E0,9.318964E0,8.48156E0,2.2890372E2,1.8722449E2,1.3606354E2],"tree_param":{"num_deleted":"0","num_feature":"1","num_nodes":"29","size_leaf_vector":"1"}},{"base_weights":[4.642242E-2,4.6068966E-1,-1.1370678E-1,3.6200616E-1,8.834993E-2,-1.6137663E-1,-9.274674E-2,4.3052518E-1,-1.4377396E-1,1.2070618E-1,-1.1795058E-1,8.5443693E-1,3.028078E-1,-1.8003316E-1,-7.349944E-2,6.895328E-2,1.0076838E-1,-1.0381722E-1,3.498821E-1,1.3048705E-1,-1.0274491E-1,2.8078979E-2,1.1058422E-1,-1.5498464E-1,-7.4236165E-3],"categories":[],"categories_nodes":[],"categories_segments":[],"categories_sizes":[],"default_left":[0,0,0,0,0,0,0,0,0,0,0,0,0,0,0,0,0,0,0,0,0,0,0,0,0],"id":12,"left_children":[1,3,5,7,-1,-1,9,11,-1,-1,13,15,17,-1,19,-1,-1,-1,21,-1,23,-1,-1,-1,-1],"loss_changes":[5.0753223E1,8.455273E0,1.7018948E1,2.2076471E1,0E0,0E0,1.7888008E1,8.787874E0,0E0,0E0,3.973652E1,1.0715675E-1,8.613094E0,0E0,2.109413E1,0E0,0E0,0E0,6.2432194E0,0E0,2.0889393E1,0E0,0E0,0E0,0E0],"parents":[2147483647,0,0,1,1,2,2,3,3,6,6,7,7,10,10,11,11,12,12,14,14,18,18,20,20],"right_children":[2,4,6,8,-1,-1,10,12,-1,-1,14,16,18,-1,20,-1,-1,-1,22,-1,24,-1,-1,-1,-1],"split_conditions":[8.16735E3,8.154444E3,8.183904E3,8.13424E3,8.834993E-2,-1.6137663E-1,8.187474E3,7.93536E3,-1.4377396E-1,1.2070618E-1,8.224035E3,7.925111E3,7.9646284E3,-1.8003316E-1,8.231412E3,6.895328E-2,1.0076838E-1,-1.0381722E-1,8.128506E3,1.3048705E-1,8.249575E3,2.8078979E-2,1.1058422E-1,-1.5498464E-1,-7.4236165E-3],"split_indices":[0,0,0,0,0,0,0,0,0,0,0,0,0,0,0,0,0,0,0,0,0,0,0,0,0],"split_type":[0,0,0,0,0,0,0,0,0,0,0,0,0,0,0,0,0,0,0,0,0,0,0,0,0],"sum_hessian":[7.6277716E2,2.1229646E2,5.504807E2,1.7381975E2,3.847671E1,6.4728227E0,5.440079E2,1.6823128E2,5.588467E0,9.380461E0,5.346274E2,3.7451492E1,1.3077979E2,1.26873455E1,5.2194006E2,2.1002928E1,1.6448565E1,3.6491842E0,1.2713061E2,9.866867E0,5.120732E2,1.17862114E2,9.268494E0,8.79448E0,5.0327872E2],"tree_param":{"num_deleted":"0","num_feature":"1","num_nodes":"25","size_leaf_vector":"1"}},{"base_weights":[1.1780454E-1,3.143687E-1,-4.274596E-2,2.6166752E-1,1.19522035E-1,-5.0855654E-1,9.2632376E-2,3.232341E-1,-1.4724426E-1,-3.1463033E-1,-1.2244028E-1,3.8670158E-1,-2.035498E-1,2.7892295E-1,1.6374388E-1,-5.290025E-1,1.09980345E-1,2.0602448E-1,1.1440083E-1,-1.5710905E-1,-1.4793757E-2,3.2018518E-1,-1.4441769E-1,-1.2349775E-1,-1.1828872E-1,4.9540544E-1,-3.9557004E-1,1.5739907E-1,-1.3007863E-1,2.8157175E-2,1.3923685E-1,-6.7302436E-2,1.7592506E-1,3.0159712E-2,1.18036084E-1,-1.49133E-1,9.735841E-3,-1.3239945E-1,9.154572E-3],"categories":[],"categories_nodes":[],"categories_segments":[],"categories_sizes":[],"default_left":[0,0,0,0,0,0,0,0,0,0,0,0,0,0,0,0,0,0,0,0,0,0,0,0,0,0,0,0,0,0,0,0,0,0,0,0,0,0,0],"id":13,"left_children":[1,3,5,7,-1,9,11,13,-1,15,-1,17,19,21,-1,23,-1,25,-1,-1,27,29,-1,31,-1,33,35,-1,37,-1,-1,-1,-1,-1,-1,-1,-1,-1,-1],"loss_changes":[2.4880098E1,1.5986958E1,2.744664E1,3.619589E1,0E0,1.3067207E1,2.9433565E1,1.8278584E1,0E0,2.4350351E1,0E0,2.282549E1,4.3260117E1,2.2795456E1,0E0,1.8011312E1,0E0,2.4265081E1,0E0,0E0,2.734355E1,1.2241039E1,0E0,4.637328E1,0E0,1.1957012E1,2.4768589E1,0E0,3.7251804E1,0E0,0E0,0E0,0E0,0E0,0E0,0E0,0E0,0E0,0E0],"parents":[2147483647,0,0,1,1,2,2,3,3,5,5,6,6,7,7,9,9,11,11,12,12,13,13,15,15,17,17,20,20,21,21,23,23,25,25,26,26,28,28],"right_children":[2,4,6,8,-1,10,12,14,-1,16,-1,18,20,22,-1,24,-1,26,-1,-1,28,30,-1,32,-1,34,36,-1,38,-1,-1,-1,-1,-1,-1,-1,-1,-1,-1],"split_conditions":[8.425252E3,8.394094E3,8.660683E3,8.326347E3,1.19522035E-1,8.63506E3,8.841613E3,8.318873E3,-1.4724426E-1,8.628474E3,-1.2244028E-1,8.835464E3,8.920189E3,8.310606E3,1.6374388E-1,8.557453E3,1.09980345E-1,8.746395E3,1.1440083E-1,-1.5710905E-1,8.923899E3,8.306924E3,-1.4441769E-1,8.554589E3,-1.1828872E-1,8.724986E3,8.784557E3,1.5739907E-1,8.972035E3,2.8157175E-2,1.3923685E-1,-6.7302436E-2,1.7592506E-1,3.0159712E-2,1.18036084E-1,-1.49133E-1,9.735841E-3,-1.3239945E-1,9.154572E-3],"split_indices":[0,0,0,0,0,0,0,0,0,0,0,0,0,0,0,0,0,0,0,0,0,0,0,0,0,0,0,0,0,0,0,0,0,0,0,0,0,0,0],"split_type":[0,0,0,0,0,0,0,0,0,0,0,0,0,0,0,0,0,0,0,0,0,0,0,0,0,0,0,0,0,0,0,0,0,0,0,0,0,0,0],"sum_hessian":[7.860945E2,3.5325925E2,4.3283527E2,3.3464792E2,1.861133E1,9.701333E1,3.3582193E2,3.2401556E2,1.0632348E1,7.757665E1,1.9436676E1,1.685281E2,1.6729382E2,3.1469333E2,9.322214E0,6.797155E1,9.605099E0,1.3719939E2,3.132873E1,1.933782E1,1.4795601E2,3.0818558E2,6.5077515E0,4.2782135E1,2.5189419E1,9.286965E1,4.4329723E1,9.094925E0,1.3886108E2,2.9878122E2,9.404369E0,3.3654793E1,9.127339E0,7.362403E1,1.9245625E1,1.3188856E1,3.114087E1,2.1032694E1,1.17828384E2],"tree_param":{"num_deleted":"0","num_feature":"1","num_nodes":"39","size_leaf_vector":"1"}},{"base_weights":[3.0906264E-2,-1.1713308E-1,2.049763E-1,5.1773828E-2,-7.224082E-1,8.890196E-2,1.17739744E-1,-8.312218E-3,9.319289E-2,-1.4525102E-1,-4.0479368E-1,-1.795926E-1,1.822824E-1,4.933592E-2,-1.3979867E-1,1.5491034E-1,-7.8152317E-1,7.447817E-1,8.355564E-2,-5.8862776E-3,1.5330552E-1,-1.1540406E-1,-4.4980076E-1,4.4112632E-1,1.0806221E-1,-1.4018378E-1,1.6353036E-1,7.859415E-3,-6.7981854E-2,1.0912774E-1,-1.1933863E-1,1.0507508E-1,-1.6405027E-1,1.6075574E-1,1.009939E-2],"categories":[],"categories_nodes":[],"categories_segments":[],"categories_sizes":[],"default_left":[0,0,0,0,0,0,0,0,0,0,0,0,0,0,0,0,0,0,0,0,0,0,0,0,0,0,0,0,0,0,0,0,0,0,0],"id":14,"left_children":[1,3,5,7,9,-1,11,13,-1,-1,15,-1,17,19,-1,-1,21,23,25,27,-1,-1,29,31,-1,-1,33,-1,-1,-1,-1,-1,-1,-1,-1],"loss_changes":[1.9209894E1,4.1253006E1,2.0244627E1,1.678429E1,1.9634785E1,0E0,3.7864475E1,2.3933395E1,0E0,0E0,4.7368443E1,0E0,1.6305056E1,2.3537827E1,0E0,0E0,5.915039E0,3.8531837E0,3.0192123E1,1.5827168E1,0E0,0E0,3.5700726E1,3.32979E1,0E0,0E0,2.1456152E1,0E0,0E0,0E0,0E0,0E0,0E0,0E0,0E0],"parents":[2147483647,0,0,1,1,2,2,3,3,4,4,6,6,7,7,10,10,12,12,13,13,16,16,17,17,18,18,19,19,22,22,23,23,26,26],"right_children":[2,4,6,8,10,-1,12,14,-1,-1,16,-1,18,20,-1,-1,22,24,26,28,-1,-1,30,32,-1,-1,34,-1,-1,-1,-1,-1,-1,-1,-1],"split_conditions":[8.660683E3,8.425252E3,8.682672E3,8.394094E3,8.554589E3,8.890196E-2,8.698234E3,8.326347E3,9.319289E-2,-1.4525102E-1,8.557453E3,-1.795926E-1,8.746395E3,8.318873E3,-1.3979867E-1,1.5491034E-1,8.628474E3,8.724986E3,8.784557E3,8.285273E3,1.5330552E-1,-1.1540406E-1,8.63506E3,8.705646E3,1.0806221E-1,-1.4018378E-1,8.788672E3,7.859415E-3,-6.7981854E-2,1.0912774E-1,-1.1933863E-1,1.0507508E-1,-1.6405027E-1,1.6075574E-1,1.009939E-2],"split_indices":[0,0,0,0,0,0,0,0,0,0,0,0,0,0,0,0,0,0,0,0,0,0,0,0,0,0,0,0,0,0,0,0,0,0,0],"split_type":[0,0,0,0,0,0,0,0,0,0,0,0,0,0,0,0,0,0,0,0,0,0,0,0,0,0,0,0,0,0,0,0,0,0,0],"sum_hessian":[7.431865E2,4.0148923E2,3.4169733E2,3.1448022E2,8.7009E1,3.747889E1,3.042184E2,2.9520428E2,1.927594E1,2.5198061E1,6.181094E1,8.999903E0,2.952185E2,2.84303E2,1.0901259E1,9.445369E0,5.2365574E1,4.295039E1,2.5226813E2,2.749966E2,9.3064E0,2.3356413E1,2.9009161E1,2.3927359E1,1.9023033E1,1.1980064E1,2.4028806E2,2.4501756E2,2.9979055E1,9.245606E0,1.9763554E1,1.892752E1,4.9998364E0,8.8822975E0,2.3140576E2],"tree_param":{"num_deleted":"0","num_feature":"1","num_nodes":"35","size_leaf_vector":"1"}},{"base_weights":[1.7170051E-2,-9.9666685E-2,1.5586454E-1,-4.7296696E-4,-7.7643114E-1,1.856196E-1,-1.05579175E-1,-4.5209046E-2,1.4631128E-1,-1.1292386E-1,-4.6733344E-1,1.4833795E-1,1.2824164E-1,1.6116004E-2,-1.2121328E-1,8.51024E-2,-1.1616365E-1,1.7401628E-1,-1.2622333E-1,-2.78814E-2,1.3277969E-1,1.334118E-1,1.345046E-1,1.8908127E-3,-1.6084148E-1,1.6646318E-2,-1.6111007E-1],"categories":[],"categories_nodes":[],"categories_segments":[],"categories_sizes":[],"default_left":[0,0,0,0,0,0,0,0,0,0,0,0,0,0,0,0,0,0,0,0,0,0,0,0,0,0,0],"id":15,"left_children":[1,3,5,7,9,11,-1,13,-1,-1,15,17,-1,19,-1,-1,-1,21,-1,23,-1,25,-1,-1,-1,-1,-1],"loss_changes":[1.1980812E1,2.6828247E1,1.2303355E1,2.28863E1,4.8859158E0,1.3203875E1,0E0,2.456544E1,0E0,0E0,2.76542E1,1.17521515E1,0E0,1.8934217E1,0E0,0E0,0E0,1.4726658E1,0E0,2.3524828E1,0E0,1.7835331E1,0E0,0E0,0E0,0E0,0E0],"parents":[2147483647,0,0,1,1,2,2,3,3,4,4,5,5,7,7,10,10,11,11,13,13,17,17,19,19,21,21],"right_children":[2,4,6,8,10,12,-1,14,-1,-1,16,18,-1,20,-1,-1,-1,22,-1,24,-1,26,-1,-1,-1,-1,-1],"split_conditions":[8.660683E3,8.557453E3,9.162288E3,8.554589E3,8.628474E3,9.154757E3,-1.05579175E-1,8.494298E3,1.4631128E-1,-1.1292386E-1,8.63506E3,9.123495E3,1.2824164E-1,8.4628125E3,-1.2121328E-1,8.51024E-2,-1.1616365E-1,9.112143E3,-1.2622333E-1,8.405632E3,1.3277969E-1,9.084115E3,1.345046E-1,1.8908127E-3,-1.6084148E-1,1.6646318E-2,-1.6111007E-1],"split_indices":[0,0,0,0,0,0,0,0,0,0,0,0,0,0,0,0,0,0,0,0,0,0,0,0,0,0,0],"split_type":[0,0,0,0,0,0,0,0,0,0,0,0,0,0,0,0,0,0,0,0,0,0,0,0,0,0,0],"sum_hessian":[7.3704047E2,3.998043E2,3.372362E2,3.4969742E2,5.010687E1,3.3006012E2,7.176063E0,3.403322E2,9.365187E0,2.200886E1,2.8098011E1,3.2039584E2,9.66428E0,3.2419537E2,1.6136864E1,9.565355E0,1.8532656E1,3.1559818E2,4.7976913E0,3.145471E2,9.648274E0,3.061809E2,9.41725E0,3.0640128E2,8.1458235E0,3.0143192E2,4.749001E0],"tree_param":{"num_deleted":"0","num_feature":"1","num_nodes":"27","size_leaf_vector":"1"}},{"base_weights":[-2.6048398E-2,5.243686E-1,-1.3287999E-1,4.410983E-1,1.0393032E-1,-1.5044172E-1,-9.561663E-2,5.305139E-1,-1.15761675E-1,1.2935077E-1,-1.2152752E-1,6.046483E-1,1.4102822E-2,-2.1247803E-1,2.9768127E-1,7.507358E-2,5.0890183E-1,-1.2940176E-1,6.875983E-2,-1.0961968E-1,-8.062839E-1,9.1063875E-1,-1.6088034E-1,-9.845733E-2,6.21951E-2,-1.7639002E-2,9.5311455E-2,-1.5005356E-1,-5.3044017E-2,6.8767086E-2,1.0464374E-1,-1.413701E-1,1.5223093E-2],"categories":[],"categories_nodes":[],"categories_segments":[],"categories_sizes":[],"default_left":[0,0,0,0,0,0,0,0,0,0,0,0,0,0,0,0,0,0,0,0,0,0,0,0,0,0,0,0,0,0,0,0,0],"id":16,"left_children":[1,3,5,7,-1,-1,9,11,-1,-1,13,15,17,19,21,-1,23,-1,-1,25,27,29,31,-1,-1,-1,-1,-1,-1,-1,-1,-1,-1],"loss_changes":[4.1813934E1,4.348171E0,3.0158035E1,1.5042276E1,0E0,0E0,2.0966675E1,3.6333942E0,0E0,0E0,2.1853645E1,6.726246E-1,1.2580284E1,2.8562752E1,2.8933594E1,0E0,9.778825E0,0E0,0E0,2.8645264E1,1.2249107E1,4.3800354E-1,2.356026E1,0E0,0E0,0E0,0E0,0E0,0E0,0E0,0E0,0E0,0E0],"parents":[2147483647,0,0,1,1,2,2,3,3,6,6,7,7,10,10,11,11,12,12,13,13,14,14,16,16,19,19,20,20,21,21,22,22],"right_children":[2,4,6,8,-1,-1,10,12,-1,-1,14,16,18,20,22,-1,24,-1,-1,26,28,30,32,-1,-1,-1,-1,-1,-1,-1,-1,-1,-1],"split_conditions":[8.0611416E3,8.0587505E3,8.1035845E3,8.047603E3,1.0393032E-1,-1.5044172E-1,8.1065474E3,8.0351265E3,-1.15761675E-1,1.2935077E-1,8.988587E3,7.93536E3,8.0431035E3,8.841613E3,9.004434E3,7.507358E-2,7.9646284E3,-1.2940176E-1,6.875983E-2,8.835464E3,8.920189E3,8.997278E3,9.080756E3,-9.845733E-2,6.21951E-2,-1.7639002E-2,9.5311455E-2,-1.5005356E-1,-5.3044017E-2,6.8767086E-2,1.0464374E-1,-1.413701E-1,1.5223093E-2],"split_indices":[0,0,0,0,0,0,0,0,0,0,0,0,0,0,0,0,0,0,0,0,0,0,0,0,0,0,0,0,0,0,0,0,0],"split_type":[0,0,0,0,0,0,0,0,0,0,0,0,0,0,0,0,0,0,0,0,0,0,0,0,0,0,0,0,0,0,0,0,0],"sum_hessian":[7.095789E2,1.14550125E2,5.9502875E2,1.00370056E2,1.4180066E1,1.4626353E1,5.804024E2,9.574574E1,4.6243153E0,9.661349E0,5.707411E2,8.340751E1,1.2338238E1,4.6959137E2,1.0114969E2,2.9900629E1,5.3506878E1,3.8298166E0,8.508421E0,4.0141223E2,6.817914E1,4.2958904E1,5.819079E1,3.160478E0,5.0346397E1,3.7855612E2,2.2856113E1,1.8021008E1,5.015813E1,1.8834614E1,2.4124292E1,1.0996391E1,4.7194393E1],"tree_param":{"num_deleted":"0","num_feature":"1","num_nodes":"33","size_leaf_vector":"1"}},{"base_weights":[7.293295E-2,6.071517E-1,5.5063535E-3,4.3926877E-1,8.506283E-1,-1.5284318E-1,2.8691452E-2,5.604352E-1,-1.77454E-1,6.865739E-2,1.03470206E-1,2.6842028E-1,-7.0363306E-2,3.3016276E-1,8.294946E-2,2.0742379E-1,1.2840389E-1,-1.5372458E-1,4.153468E-2,5.106187E-1,-9.3176976E-2,2.653379E-1,-1.452456E-1,9.36948E-2,-3.034378E-3,6.742176E-2,3.1758897E-2,1.9213937E-2,1.3426724E-1,-6.192985E-2,1.4660622E-2],"categories":[],"categories_nodes":[],"categories_segments":[],"categories_sizes":[],"default_left":[0,0,0,0,0,0,0,0,0,0,0,0,0,0,0,0,0,0,0,0,0,0,0,0,0,0,0,0,0,0,0],"id":17,"left_children":[1,3,5,7,9,-1,11,13,-1,-1,-1,15,17,19,-1,21,-1,-1,23,25,-1,27,-1,-1,29,-1,-1,-1,-1,-1,-1],"loss_changes":[2.6376434E1,2.85285E0,2.3116222E1,1.4526168E1,8.959389E-2,0E0,1.533812E1,2.6497993E0,0E0,0E0,0E0,1.1285591E1,7.512836E1,6.877576E0,0E0,1.7518852E1,0E0,0E0,1.7055723E1,4.910941E-1,0E0,1.3335245E1,0E0,0E0,3.755172E1,0E0,0E0,0E0,0E0,0E0,0E0],"parents":[2147483647,0,0,1,1,2,2,3,3,4,4,6,6,7,7,11,11,12,12,13,13,15,15,18,18,19,19,21,21,24,24],"right_children":[2,4,6,8,10,-1,12,14,-1,-1,-1,16,18,20,-1,22,-1,-1,24,26,-1,28,-1,-1,30,-1,-1,-1,-1,-1,-1],"split_conditions":[8.0351265E3,8.007725E3,8.0587505E3,7.997228E3,8.025816E3,-1.5284318E-1,8.285273E3,7.9646284E3,-1.77454E-1,6.865739E-2,1.03470206E-1,8.282977E3,8.394094E3,7.93536E3,8.294946E-2,8.271955E3,1.2840389E-1,-1.5372458E-1,8.425252E3,7.875832E3,-9.3176976E-2,8.265961E3,-1.452456E-1,9.36948E-2,8.660683E3,6.742176E-2,3.1758897E-2,1.9213937E-2,1.3426724E-1,-6.192985E-2,1.4660622E-2],"split_indices":[0,0,0,0,0,0,0,0,0,0,0,0,0,0,0,0,0,0,0,0,0,0,0,0,0,0,0,0,0,0,0],"split_type":[0,0,0,0,0,0,0,0,0,0,0,0,0,0,0,0,0,0,0,0,0,0,0,0,0,0,0,0,0,0,0],"sum_hessian":[7.3305444E2,8.109037E1,6.5196405E2,4.9898823E1,3.1191547E1,8.676645E0,6.432874E2,4.806039E1,1.8384302E0,1.9280811E1,1.1910737E1,1.8788194E2,4.554055E2,2.7297121E1,2.076327E1,1.7846623E2,9.415709E0,3.1437943E1,4.2396756E2,2.4472214E1,2.824908E0,1.7331941E2,5.1468177E0,1.9259357E1,4.047082E2,1.1616226E1,1.2855988E1,1.6348288E2,9.83653E0,7.858826E1,3.2611993E2],"tree_param":{"num_deleted":"0","num_feature":"1","num_nodes":"31","size_leaf_vector":"1"}},{"base_weights":[7.259249E-2,6.0551137E-1,-2.669632E-2,6.92328E-1,3.275683E-1,-1.9314067E-1,1.7089091E-1,8.1009877E-1,6.0805744E-1,-1.031943E-1,4.890228E-1,4.651722E-2,-7.660281E-1,9.577348E-2,1.1258126E-1,6.2967315E-2,9.806469E-2,-9.977025E-2,7.542509E-1,1.1107336E-1,7.912579E-2,-1.2885427E-1,9.599637E-2,-9.8361033E-1,-1.8574399E-1,-1.5367715E-1,1.5150046E-1,9.130086E-2,6.278747E-1,5.8386814E-2,-1.0000002E-1,1.4835306E-1,3.2370336E-2,-4.9453208E-1,-1.3421082E0,5.5374587E-1,-1.6563033E-1,9.837496E-2,8.352651E-2,-1.3193057E-1,7.484858E-2,-5.060808E-3,9.033938E-2,-1.3151044E-1,1.245861E-1,-1.19484715E-1,-2.0680247E-1,2.8418541E-2,7.868193E-2,-1.3369565E-1,1.5829947E-2],"categories":[],"categories_nodes":[],"categories_segments":[],"categories_sizes":[],"default_left":[0,0,0,0,0,0,0,0,0,0,0,0,0,0,0,0,0,0,0,0,0,0,0,0,0,0,0,0,0,0,0,0,0,0,0,0,0,0,0,0,0,0,0,0,0,0,0,0,0,0,0],"id":18,"left_children":[1,3,5,7,9,11,13,15,17,-1,19,21,23,-1,25,-1,-1,-1,27,29,-1,-1,31,33,35,-1,37,-1,39,-1,-1,-1,41,43,45,47,-1,-1,49,-1,-1,-1,-1,-1,-1,-1,-1,-1,-1,-1,-1],"loss_changes":[3.936946E1,2.4904175E0,2.0649315E1,2.3751068E-1,7.030876E0,4.6920517E1,1.2945956E1,2.4120331E-1,1.3807299E1,0E0,2.9679365E0,1.5938551E1,1.2420483E1,0E0,1.7317526E1,0E0,0E0,0E0,3.0976677E-1,7.659254E0,0E0,0E0,2.0423178E1,1.1936844E1,3.2381218E1,0E0,1.4694688E1,0E0,8.524101E0,0E0,0E0,0E0,1.6353163E1,4.8118713E1,1.6253967E0,9.188671E-1,0E0,0E0,2.6055862E1,0E0,0E0,0E0,0E0,0E0,0E0,0E0,0E0,0E0,0E0,0E0,0E0],"parents":[2147483647,0,0,1,1,2,2,3,3,4,4,5,5,6,6,7,7,8,8,10,10,11,11,12,12,14,14,18,18,19,19,22,22,23,23,24,24,26,26,28,28,32,32,33,33,34,34,35,35,38,38],"right_children":[2,4,6,8,10,12,14,16,18,-1,20,22,24,-1,26,-1,-1,-1,28,30,-1,-1,32,34,36,-1,38,-1,40,-1,-1,-1,42,44,46,48,-1,-1,50,-1,-1,-1,-1,-1,-1,-1,-1,-1,-1,-1,-1],"split_conditions":[8.0611416E3,8.0351265E3,8.698234E3,7.93536E3,8.0431035E3,8.425252E3,8.705646E3,7.925111E3,7.9646284E3,-1.031943E-1,8.0587505E3,8.0835767E3,8.667329E3,9.577348E-2,8.724986E3,6.2967315E-2,9.806469E-2,-9.977025E-2,7.997228E3,8.047603E3,7.912579E-2,-1.2885427E-1,8.0853115E3,8.557453E3,8.682672E3,-1.5367715E-1,8.746395E3,9.130086E-2,8.007725E3,5.8386814E-2,-1.0000002E-1,1.4835306E-1,8.394094E3,8.554589E3,8.660683E3,8.672693E3,-1.6563033E-1,9.837496E-2,8.784557E3,-1.3193057E-1,7.484858E-2,-5.060808E-3,9.033938E-2,-1.3151044E-1,1.245861E-1,-1.19484715E-1,-2.0680247E-1,2.8418541E-2,7.868193E-2,-1.3369565E-1,1.5829947E-2],"split_indices":[0,0,0,0,0,0,0,0,0,0,0,0,0,0,0,0,0,0,0,0,0,0,0,0,0,0,0,0,0,0,0,0,0,0,0,0,0,0,0,0,0,0,0,0,0,0,0,0,0,0,0],"split_type":[0,0,0,0,0,0,0,0,0,0,0,0,0,0,0,0,0,0,0,0,0,0,0,0,0,0,0,0,0,0,0,0,0,0,0,0,0,0,0,0,0,0,0,0,0,0,0,0,0,0,0],"sum_hessian":[7.4164355E2,1.1583327E2,6.258103E2,8.685355E1,2.897972E1,3.3996106E2,2.858492E2,3.213879E1,5.4714764E1,2.4381993E0,2.654152E1,2.4021527E2,9.9745804E1,1.8539047E1,2.6731018E2,1.8182077E1,1.3956711E1,4.0226116E0,5.069215E1,1.2548195E1,1.3993324E1,7.617398E0,2.3259787E2,7.191377E1,2.7832035E1,5.2157755E0,2.620944E2,1.935809E1,3.133406E1,9.198475E0,3.3497202E0,9.150868E0,2.23447E2,3.1541668E1,4.0372105E1,1.8888933E1,8.943102E0,1.8661839E1,2.4343256E2,1.1996081E0,3.0134453E1,2.0476689E2,1.8680113E1,2.164035E1,9.901317E0,3.5877625E1,4.494478E0,9.986925E0,8.902007E0,1.1262279E1,2.3217029E2],"tree_param":{"num_deleted":"0","num_feature":"1","num_nodes":"51","size_leaf_vector":"1"}},{"base_weights":[-6.844469E-2,-4.2622156E-2,-1.3224606E-1,-6.0715616E-2,1.0348605E-1,-4.469326E-2,-1.5730523E-1,-6.246639E-2,1.0580591E-1,-3.7617024E-2,-1.3589148E-1,-6.512388E-3,1.0185335E-1],"categories":[],"categories_nodes":[],"categories_segments":[],"categories_sizes":[],"default_left":[0,0,0,0,0,0,0,0,0,0,0,0,0],"id":19,"left_children":[1,3,-1,5,-1,7,-1,9,-1,11,-1,-1,-1],"loss_changes":[2.1579903E1,1.2830832E1,0E0,1.5519605E1,0E0,1.2595145E1,0E0,2.0271214E1,0E0,1.8108065E1,0E0,0E0,0E0],"parents":[2147483647,0,0,1,1,3,3,5,5,7,7,9,9],"right_children":[2,4,-1,6,-1,8,-1,10,-1,12,-1,-1,-1],"split_conditions":[9.123495E3,9.112143E3,-1.3224606E-1,9.084115E3,1.0348605E-1,9.080756E3,-1.5730523E-1,9.004434E3,1.0580591E-1,8.999852E3,-1.3589148E-1,-6.512388E-3,1.0185335E-1],"split_indices":[0,0,0,0,0,0,0,0,0,0,0,0,0],"split_type":[0,0,0,0,0,0,0,0,0,0,0,0,0],"sum_hessian":[6.713755E2,6.589208E2,1.2454681E1,6.4905804E2,9.862747E0,6.433379E2,5.720128E0,6.341513E2,9.18662E0,6.233103E2,1.0841001E1,6.084954E2,1.4814902E1],"tree_param":{"num_deleted":"0","num_feature":"1","num_nodes":"13","size_leaf_vector":"1"}},{"base_weights":[1.1848438E-2,8.208827E-2,-3.1754053E-1,6.041141E-2,1.1899038E-1,-1.3985607E-1,-2.8232565E-2,4.28572E-1,7.776207E-3,2.8975955E-1,-3.741385E-1,-1.1596982E-2,5.9858453E-1,-6.9467413E-1,4.5880143E-2,-3.5174352E-1,5.8693755E-1,-1.2954508E-1,-8.0715634E-2,2.4094377E-1,-9.5255084E-2,5.1722366E-1,8.093542E-2,1.154827E-1,-1.4106981E-1,1.2721023E-1,1.7979607E-2,7.575863E-2,-1.6796902E-1,2.8797603E-1,9.6270286E-2,8.205465E-2,-4.2339638E-1,-3.2211654E-2,6.603422E-2,7.343581E-2,2.7887333E-2,-1.03488885E-1,5.455795E-2,-4.352201E-2,8.664928E-3,6.9335215E-2,-5.94496E-3,-1.49783E-1,2.5561351E-2],"categories":[],"categories_nodes":[],"categories_segments":[],"categories_sizes":[],"default_left":[0,0,0,0,0,0,0,0,0,0,0,0,0,0,0,0,0,0,0,0,0,0,0,0,0,0,0,0,0,0,0,0,0,0,0,0,0,0,0,0,0,0,0,0,0],"id":20,"left_children":[1,3,5,7,-1,-1,9,11,13,15,17,19,21,23,25,27,29,-1,31,33,-1,35,-1,37,-1,-1,39,-1,-1,41,-1,-1,43,-1,-1,-1,-1,-1,-1,-1,-1,-1,-1,-1,-1],"loss_changes":[1.614909E1,1.3641675E1,3.816646E1,1.09279785E1,0E0,0E0,1.0877078E1,5.3479156E0,1.3263565E1,1.00254E1,1.2583211E1,5.168342E0,3.2504272E-1,1.5077402E1,1.600593E1,2.6092278E1,3.5965214E0,0E0,1.1775611E1,4.2289553E0,0E0,1.7631426E0,0E0,6.8568907E0,0E0,0E0,1.4407825E1,0E0,0E0,3.1183903E0,0E0,0E0,2.0673784E1,0E0,0E0,0E0,0E0,0E0,0E0,0E0,0E0,0E0,0E0,0E0,0E0],"parents":[2147483647,0,0,1,1,2,2,3,3,6,6,7,7,8,8,9,9,10,10,11,11,12,12,13,13,14,14,15,15,16,16,18,18,19,19,21,21,23,23,26,26,29,29,32,32],"right_children":[2,4,6,8,-1,-1,10,12,14,16,18,20,22,24,26,28,30,-1,32,34,-1,36,-1,38,-1,-1,40,-1,-1,42,-1,-1,44,-1,-1,-1,-1,-1,-1,-1,-1,-1,-1,-1,-1],"split_conditions":[8.923899E3,8.920189E3,8.978347E3,8.0351265E3,1.1899038E-1,-1.3985607E-1,9.004434E3,7.9646284E3,8.0835767E3,8.988587E3,9.080756E3,7.93536E3,8.025816E3,8.047603E3,8.0853115E3,8.981027E3,8.999852E3,-1.2954508E-1,9.084115E3,7.925111E3,-9.5255084E-2,7.997228E3,8.093542E-2,8.0431035E3,-1.4106981E-1,1.2721023E-1,8.183904E3,7.575863E-2,-1.6796902E-1,8.990641E3,9.6270286E-2,8.205465E-2,9.154757E3,-3.2211654E-2,6.603422E-2,7.343581E-2,2.7887333E-2,-1.03488885E-1,5.455795E-2,-4.352201E-2,8.664928E-3,6.9335215E-2,-5.94496E-3,-1.49783E-1,2.5561351E-2],"split_indices":[0,0,0,0,0,0,0,0,0,0,0,0,0,0,0,0,0,0,0,0,0,0,0,0,0,0,0,0,0,0,0,0,0,0,0,0,0,0,0,0,0,0,0,0,0],"split_type":[0,0,0,0,0,0,0,0,0,0,0,0,0,0,0,0,0,0,0,0,0,0,0,0,0,0,0,0,0,0,0,0,0,0,0,0,0,0,0,0,0,0,0,0,0],"sum_hessian":[6.968911E2,5.752727E2,1.216184E2,5.653551E2,9.917624E0,2.4794004E1,9.6824394E1,6.958635E1,4.9576874E2,5.038165E1,4.6442745E1,1.9484312E1,5.0102036E1,2.4487293E1,4.7128143E2,1.5785717E1,3.4595932E1,1.0311166E1,3.613158E1,1.5864209E1,3.6201026E0,3.898251E1,1.1119526E1,1.1816445E1,1.2670848E1,9.412798E0,4.6186865E2,8.793812E0,6.991905E0,2.0398909E1,1.4197024E1,9.488966E0,2.6642614E1,6.769451E0,9.094759E0,1.9090618E1,1.9891891E1,2.7696998E0,9.046745E0,5.9880543E1,4.019881E2,9.087622E0,1.1311287E1,9.907236E0,1.6735378E1],"tree_param":{"num_deleted":"0","num_feature":"1","num_nodes":"45","size_leaf_vector":"1"}},{"base_weights":[4.461836E-2,3.339348E-1,-8.163652E-2,2.864843E-1,1.1802669E-1,-1.5337507E-1,-5.5375382E-2,3.261578E-1,-1.5217565E-1,1.0762767E-1,-8.226007E-2,2.8685403E-1,1.00185834E-1,-1.4677872E-1,-5.3850234E-2,3.564474E-1,-1.4862135E-1,1.2212926E-1,-8.393399E-2,2.6179418E-2,8.746437E-2,-1.5825425E-1,-4.8920303E-3],"categories":[],"categories_nodes":[],"categories_segments":[],"categories_sizes":[],"default_left":[0,0,0,0,0,0,0,0,0,0,0,0,0,0,0,0,0,0,0,0,0,0,0],"id":21,"left_children":[1,3,5,7,-1,-1,9,11,-1,-1,13,15,-1,-1,17,19,-1,-1,21,-1,-1,-1,-1],"loss_changes":[2.5706686E1,8.101576E0,1.842333E1,1.5003803E1,0E0,0E0,1.4651204E1,4.9056644E0,0E0,0E0,1.8338287E1,2.3974766E1,0E0,0E0,1.7764708E1,8.710218E0,0E0,0E0,2.3566757E1,0E0,0E0,0E0,0E0],"parents":[2147483647,0,0,1,1,2,2,3,3,6,6,7,7,10,10,11,11,14,14,15,15,18,18],"right_children":[2,4,6,8,-1,-1,10,12,-1,-1,14,16,-1,-1,18,20,-1,-1,22,-1,-1,-1,-1],"split_conditions":[8.198689E3,8.193044E3,8.224035E3,8.187474E3,1.1802669E-1,-1.5337507E-1,8.231412E3,8.183904E3,-1.5217565E-1,1.0762767E-1,8.249575E3,8.16735E3,1.00185834E-1,-1.4677872E-1,8.256095E3,8.1593403E3,-1.4862135E-1,1.2212926E-1,8.282977E3,2.6179418E-2,8.746437E-2,-1.5825425E-1,-4.8920303E-3],"split_indices":[0,0,0,0,0,0,0,0,0,0,0,0,0,0,0,0,0,0,0,0,0,0,0],"split_type":[0,0,0,0,0,0,0,0,0,0,0,0,0,0,0,0,0,0,0,0,0,0,0],"sum_hessian":[7.0132324E2,2.1281015E2,4.885131E2,2.0289148E2,9.918674E0,7.5903735E0,4.809227E2,1.9939168E2,3.4998038E0,1.01680565E1,4.7075464E2,1.8991719E2,9.474479E0,8.370025E0,4.6238464E2,1.8356749E2,6.349707E0,9.668095E0,4.5271652E2,1.5665181E2,2.6915684E1,9.261567E0,4.4345496E2],"tree_param":{"num_deleted":"0","num_feature":"1","num_nodes":"23","size_leaf_vector":"1"}},{"base_weights":[7.9047866E-2,1.0419887E-1,-1.2522255E-1,8.692173E-2,1.2310004E-1,1.8063022E-1,-1.6242486E-1,1.4689298E-1,1.0453371E-1,-4.3962547E-1,1.8796326E-1,1.6306083E-1,-1.3721804E-1,-2.1198241E-2,-9.1175896E-1,4.8026112E-1,-5.215252E-1,1.3104498E-2,9.31819E-2,-6.164616E-2,5.8045056E-2,-1.524758E-1,-4.9551494E-2,1.0371281E-1,2.2024924E-2,-1.2364878E-1,-0E0],"categories":[],"categories_nodes":[],"categories_segments":[],"categories_sizes":[],"default_left":[0,0,0,0,0,0,0,0,0,0,0,0,0,0,0,0,0,0,0,0,0,0,0,0,0,0,0],"id":22,"left_children":[1,3,-1,5,-1,7,9,11,-1,13,15,17,-1,19,21,23,25,-1,-1,-1,-1,-1,-1,-1,-1,-1,-1],"loss_changes":[2.383568E1,1.3373459E1,0E0,1.6149395E1,0E0,1.4376472E1,1.8432426E1,1.2004007E1,0E0,2.078699E1,1.7640072E1,1.1596115E1,0E0,2.0854929E1,1.1690582E1,8.336426E0,9.353733E0,0E0,0E0,0E0,0E0,0E0,0E0,0E0,0E0,0E0,0E0],"parents":[2147483647,0,0,1,1,3,3,5,5,6,6,7,7,9,9,10,10,11,11,13,13,14,14,15,15,16,16],"right_children":[2,4,-1,6,-1,8,10,12,-1,14,16,18,-1,20,22,24,26,-1,-1,-1,-1,-1,-1,-1,-1,-1,-1],"split_conditions":[9.123495E3,9.112143E3,-1.2522255E-1,8.746395E3,1.2310004E-1,8.724986E3,8.975862E3,8.705646E3,1.0453371E-1,8.837614E3,9.004434E3,8.698234E3,-1.3721804E-1,8.810528E3,8.920189E3,8.981027E3,9.080756E3,1.3104498E-2,9.31819E-2,-6.164616E-2,5.8045056E-2,-1.524758E-1,-4.9551494E-2,1.0371281E-1,2.2024924E-2,-1.2364878E-1,-0E0],"split_indices":[0,0,0,0,0,0,0,0,0,0,0,0,0,0,0,0,0,0,0,0,0,0,0,0,0,0,0],"split_type":[0,0,0,0,0,0,0,0,0,0,0,0,0,0,0,0,0,0,0,0,0,0,0,0,0,0,0],"sum_hessian":[7.1040875E2,6.982146E2,1.2194134E1,6.888189E2,9.395711E0,5.0115378E2,1.8766508E2,4.8357233E2,1.758145E1,1.0479217E2,8.2872925E1,4.7942816E2,4.144178E0,5.622213E1,4.8570034E1,5.9021183E1,2.3851744E1,4.6150864E2,1.791953E1,2.8332209E1,2.7889923E1,1.84684E1,3.0101637E1,1.7712652E1,4.130853E1,9.539016E0,1.4312727E1],"tree_param":{"num_deleted":"0","num_feature":"1","num_nodes":"27","size_leaf_vector":"1"}},{"base_weights":[1.2847033E-1,3.3101684E-1,-2.9230116E-2,2.950969E-1,1.331772E-1,-1.4736432E-1,4.780468E-2,3.27462E-1,-1.2571879E-1,-3.3692846E-1,1.4390759E-1,2.8091183E-1,1.63536E-1,6.086955E-1,-7.7179563E-1,8.224479E-1,7.3626935E-2,3.2132223E-1,-1.3627142E-1,6.812855E-2,1.3203976E-1,-1.1680082E-1,-2.5217134E-1,1.2678878E-1,5.4709065E-1,-4.1954336E-1,1.3893966E-1,2.8883403E-2,1.1709356E-1,8.793559E-2,-1.21843435E-1,1.0073018E-1,-1.088058E-1,-1.2733564E-1,7.941381E-2,-1.53180305E-2,-1.573068E-1,8.3419375E-2,8.313724E-3],"categories":[],"categories_nodes":[],"categories_segments":[],"categories_sizes":[],"default_left":[0,0,0,0,0,0,0,0,0,0,0,0,0,0,0,0,0,0,0,0,0,0,0,0,0,0,0,0,0,0,0,0,0,0,0,0,0,0,0],"id":23,"left_children":[1,3,5,7,-1,-1,9,11,-1,13,15,17,-1,19,21,23,25,27,-1,29,-1,-1,31,-1,33,35,37,-1,-1,-1,-1,-1,-1,-1,-1,-1,-1,-1,-1],"loss_changes":[2.3656357E1,1.1091869E1,4.6539593E1,1.6102743E1,0E0,0E0,1.4677007E1,1.8138256E1,0E0,3.3084183E1,1.5009661E1,2.0212337E1,0E0,9.565408E0,1.0848568E1,2.755951E0,9.348352E0,7.6026344E0,0E0,1.7322021E1,0E0,0E0,2.7526878E1,0E0,1.004464E1,1.0002784E1,9.786001E0,0E0,0E0,0E0,0E0,0E0,0E0,0E0,0E0,0E0,0E0,0E0,0E0],"parents":[2147483647,0,0,1,1,2,2,3,3,6,6,7,7,9,9,10,10,11,11,13,13,14,14,15,15,16,16,17,17,19,19,22,22,24,24,25,25,26,26],"right_children":[2,4,6,8,-1,-1,10,12,-1,14,16,18,-1,20,22,24,26,28,-1,30,-1,-1,32,-1,34,36,38,-1,-1,-1,-1,-1,-1,-1,-1,-1,-1,-1,-1],"split_conditions":[8.310606E3,8.306924E3,8.405632E3,8.295418E3,1.331772E-1,-1.4736432E-1,8.660683E3,8.293289E3,-1.2571879E-1,8.494298E3,8.669194E3,8.285273E3,1.63536E-1,8.4628125E3,8.628474E3,8.664431E3,8.724986E3,8.282977E3,-1.3627142E-1,8.425252E3,1.3203976E-1,-1.1680082E-1,8.63506E3,1.2678878E-1,8.666019E3,8.701421E3,8.746395E3,2.8883403E-2,1.1709356E-1,8.793559E-2,-1.21843435E-1,1.0073018E-1,-1.088058E-1,-1.2733564E-1,7.941381E-2,-1.53180305E-2,-1.573068E-1,8.3419375E-2,8.313724E-3],"split_indices":[0,0,0,0,0,0,0,0,0,0,0,0,0,0,0,0,0,0,0,0,0,0,0,0,0,0,0,0,0,0,0,0,0,0,0,0,0,0,0],"split_type":[0,0,0,0,0,0,0,0,0,0,0,0,0,0,0,0,0,0,0,0,0,0,0,0,0,0,0,0,0,0,0,0,0,0,0,0,0,0,0],"sum_hessian":[7.383633E2,3.2301984E2,4.1534344E2,3.1317392E2,9.845895E0,2.0177683E1,3.9516577E2,3.0761368E2,5.560265E0,7.827149E1,3.168943E2,2.9828836E2,9.325314E0,2.445787E1,5.381362E1,2.8604126E1,2.8829016E2,2.9197516E2,6.313193E0,1.460273E1,9.855141E0,2.9715422E1,2.4098198E1,9.411554E0,1.9192572E1,3.290124E1,2.5538892E2,2.8262555E2,9.349596E0,9.197554E0,5.4051766E0,9.4837885E0,1.461441E1,1.7485739E0,1.7443998E1,2.7719866E1,5.1813745E0,1.780549E1,2.3758342E2],"tree_param":{"num_deleted":"0","num_feature":"1","num_nodes":"39","size_leaf_vector":"1"}},{"base_weights":[2.1194415E-2,4.301753E-2,-1.2048169E-1,-6.545631E-2,2.0780064E-1,-1.2890078E-2,-1.7655174E-1,9.7217E-2,1.4965121E-1,-7.616657E-2,7.977454E-1,-1.2581055E-1,1.8264686E-1,4.715308E-2,-4.7306752E-1,1.0828644E-1,5.9156884E-2,7.743275E-2,1.3375139E-1,-7.77721E-3,8.197699E-2,-1.4209352E-1,-3.2221448E-2,-1.2471511E-1,2.0211624E-2],"categories":[],"categories_nodes":[],"categories_segments":[],"categories_sizes":[],"default_left":[0,0,0,0,0,0,0,0,0,0,0,0,0,0,0,0,0,0,0,0,0,0,0,0,0],"id":24,"left_children":[1,3,-1,5,7,9,-1,-1,11,13,15,-1,17,19,21,-1,-1,-1,23,-1,-1,-1,-1,-1,-1],"loss_changes":[1.8235725E1,1.2058573E1,0E0,3.6106308E1,1.1644884E1,2.0257603E1,0E0,0E0,1.1742128E1,1.8055767E1,8.72282E-1,0E0,6.9044E0,2.727456E1,1.1867313E1,0E0,0E0,0E0,2.1672789E1,0E0,0E0,0E0,0E0,0E0,0E0],"parents":[2147483647,0,0,1,1,3,3,4,4,5,5,8,8,9,9,10,10,12,12,13,13,14,14,18,18],"right_children":[2,4,-1,6,8,10,-1,-1,12,14,16,-1,18,20,22,-1,-1,-1,24,-1,-1,-1,-1,-1,-1],"split_conditions":[9.123495E3,8.698234E3,-1.2048169E-1,8.669194E3,8.705646E3,8.660683E3,-1.7655174E-1,9.7217E-2,8.724986E3,8.326347E3,8.664431E3,-1.2581055E-1,8.746395E3,8.293289E3,8.405632E3,1.0828644E-1,5.9156884E-2,7.743275E-2,8.784557E3,-7.77721E-3,8.197699E-2,-1.4209352E-1,-3.2221448E-2,-1.2471511E-1,2.0211624E-2],"split_indices":[0,0,0,0,0,0,0,0,0,0,0,0,0,0,0,0,0,0,0,0,0,0,0,0,0],"split_type":[0,0,0,0,0,0,0,0,0,0,0,0,0,0,0,0,0,0,0,0,0,0,0,0,0],"sum_hessian":[6.829774E2,6.720611E2,1.0916271E1,4.0527295E2,2.6678818E2,3.941521E2,1.1120857E1,1.762824E1,2.4915993E2,3.66568E2,2.7584122E1,4.7864447E0,2.4437347E2,2.8015216E2,8.641582E1,9.58794E0,1.7996181E1,1.7364557E1,2.2700893E2,2.4182169E2,3.833048E1,1.0617808E1,7.579801E1,9.826098E0,2.1718283E2],"tree_param":{"num_deleted":"0","num_feature":"1","num_nodes":"25","size_leaf_vector":"1"}},{"base_weights":[9.885306E-3,3.7591594E-1,-7.610492E-2,2.8842428E-1,1.4018658E-1,-1.5929314E-1,-1.9338092E-2,3.7103757E-1,-1.2797654E-1,6.6820267E-3,-1.1981493E-1,3.0083004E-1,1.0378497E-1,2.659397E-1,-8.811421E-2,4.2196715E-1,-1.1984477E-1,1.8283789E-1,1.2804468E-1,-1.2972544E-1,-3.0019587E-2,3.220259E-2,9.807237E-2,2.5507957E-2,-1.2359359E-1,-6.127183E-3,1.0285461E-1],"categories":[],"categories_nodes":[],"categories_segments":[],"categories_sizes":[],"default_left":[0,0,0,0,0,0,0,0,0,0,0,0,0,0,0,0,0,0,0,0,0,0,0,0,0,0,0],"id":25,"left_children":[1,3,5,7,-1,-1,9,11,-1,13,-1,15,-1,17,19,21,-1,23,-1,-1,25,-1,-1,-1,-1,-1,-1],"loss_changes":[2.1570759E1,1.11324215E1,4.7515385E1,1.6126076E1,0E0,0E0,1.6541601E1,4.996916E0,0E0,1.2931688E1,0E0,1.9812908E1,0E0,1.1503851E1,2.6839947E1,5.113411E0,0E0,1.3700236E1,0E0,0E0,1.2141031E1,0E0,0E0,0E0,0E0,0E0,0E0],"parents":[2147483647,0,0,1,1,2,2,3,3,6,6,7,7,9,9,11,11,13,13,14,14,15,15,17,17,20,20],"right_children":[2,4,6,8,-1,-1,10,12,-1,14,-1,16,-1,18,20,22,-1,24,-1,-1,26,-1,-1,-1,-1,-1,-1],"split_conditions":[8.1065474E3,8.1035845E3,8.1593403E3,8.0853115E3,1.4018658E-1,-1.5929314E-1,9.123495E3,8.0835767E3,-1.2797654E-1,8.310606E3,-1.1981493E-1,8.0611416E3,1.0378497E-1,8.306924E3,8.394094E3,8.0587505E3,-1.1984477E-1,8.295418E3,1.2804468E-1,-1.2972544E-1,9.112143E3,3.220259E-2,9.807237E-2,2.5507957E-2,-1.2359359E-1,-6.127183E-3,1.0285461E-1],"split_indices":[0,0,0,0,0,0,0,0,0,0,0,0,0,0,0,0,0,0,0,0,0,0,0,0,0,0,0],"split_type":[0,0,0,0,0,0,0,0,0,0,0,0,0,0,0,0,0,0,0,0,0,0,0,0,0,0,0],"sum_hessian":[6.824672E2,1.2940903E2,5.5305817E2,1.20510635E2,8.898392E0,1.8911615E1,5.3414655E2,1.1526553E2,5.2451015E0,5.2350073E2,1.0645828E1,1.0573408E2,9.531457E0,1.3996387E2,3.8353687E2,9.855628E1,7.1777987E0,1.3054895E2,9.414926E0,1.6525959E1,3.670109E2,8.509175E1,1.3464531E1,1.2507122E2,5.4777317E0,3.5749316E2,9.517755E0],"tree_param":{"num_deleted":"0","num_feature":"1","num_nodes":"27","size_leaf_vector":"1"}},{"base_weights":[3.0856824E-2,3.4674555E-1,-2.002379E-2,2.4986273E-1,8.662383E-2,-1.4361131E-1,3.9072495E-2,3.185851E-1,-9.691956E-2,6.180286E-1,-9.406269E-3,4.8697948E-1,4.9803585E-2,1.19219385E-1,4.2668614E-1,-9.5340186E-1,5.2298237E-2,3.7394235E-1,6.353606E-2,-2.4880424E-1,3.5169792E-1,-1.2772565E-1,7.7255297E-1,-3.711427E-1,-1.6748224E-1,1.0788405E-1,2.8889233E-2,5.576541E-2,-9.057853E-2,5.457601E-2,5.5200034E-3,1.0096464E-1,5.9104916E-2,-1.6550809E-1,8.033939E-2,-1.4157373E-1,5.7799476E-3],"categories":[],"categories_nodes":[],"categories_segments":[],"categories_sizes":[],"default_left":[0,0,0,0,0,0,0,0,0,0,0,0,0,0,0,0,0,0,0,0,0,0,0,0,0,0,0,0,0,0,0,0,0,0,0,0,0],"id":26,"left_children":[1,3,5,7,-1,-1,9,11,-1,13,15,17,19,-1,21,23,25,27,-1,-1,29,-1,31,33,-1,-1,35,-1,-1,-1,-1,-1,-1,-1,-1,-1,-1],"loss_changes":[1.07512665E1,4.3416605E0,4.8287563E1,6.9262323E0,0E0,0E0,1.5575304E1,3.3772955E0,0E0,4.038946E0,2.988694E1,4.4294834E-1,2.4219069E1,0E0,2.0879835E1,1.2399029E1,1.1397514E1,7.3490157E0,0E0,0E0,1.5433228E0,0E0,4.8265266E-1,2.974189E1,0E0,0E0,1.9601248E1,0E0,0E0,0E0,0E0,0E0,0E0,0E0,0E0,0E0,0E0],"parents":[2147483647,0,0,1,1,2,2,3,3,6,6,7,7,9,9,10,10,11,11,12,12,14,14,15,15,16,16,17,17,20,20,22,22,23,23,26,26],"right_children":[2,4,6,8,-1,-1,10,12,-1,14,16,18,20,-1,22,24,26,28,-1,-1,30,-1,32,34,-1,-1,36,-1,-1,-1,-1,-1,-1,-1,-1,-1,-1],"split_conditions":[8.0611416E3,8.0587505E3,8.128506E3,8.047603E3,8.662383E-2,-1.4361131E-1,8.1648105E3,7.997228E3,-9.691956E-2,8.13424E3,8.224035E3,7.9646284E3,8.020086E3,1.19219385E-1,8.154444E3,8.187474E3,8.231412E3,7.93536E3,6.353606E-2,-2.4880424E-1,8.0351265E3,-1.2772565E-1,8.1564053E3,8.183904E3,-1.6748224E-1,1.0788405E-1,8.249575E3,5.576541E-2,-9.057853E-2,5.457601E-2,5.5200034E-3,1.0096464E-1,5.9104916E-2,-1.6550809E-1,8.033939E-2,-1.4157373E-1,5.7799476E-3],"split_indices":[0,0,0,0,0,0,0,0,0,0,0,0,0,0,0,0,0,0,0,0,0,0,0,0,0,0,0,0,0,0,0,0,0,0,0,0,0],"split_type":[0,0,0,0,0,0,0,0,0,0,0,0,0,0,0,0,0,0,0,0,0,0,0,0,0,0,0,0,0,0,0,0,0,0,0,0,0],"sum_hessian":[6.654536E2,9.1782E1,5.7367163E2,7.8766E1,1.3015999E1,2.2115755E1,5.5155585E2,7.5339554E1,3.4264474E0,4.1867607E1,5.0968826E2,4.5591904E1,2.9747652E1,9.026949E0,3.284066E1,3.04846E1,4.7920364E2,2.8258549E1,1.7333353E1,2.3574338E0,2.7390219E1,5.038081E0,2.7802578E1,1.7784107E1,1.2700493E1,9.58354E0,4.6962012E2,2.5272875E1,2.9856744E0,1.5842872E1,1.1547347E1,9.837935E0,1.7964643E1,8.34157E0,9.442537E0,8.204752E0,4.6141537E2],"tree_param":{"num_deleted":"0","num_feature":"1","num_nodes":"37","size_leaf_vector":"1"}},{"base_weights":[-8.329786E-2,3.594965E-1,-1.25711E-1,2.0675264E-1,8.174409E-2,-9.854327E-1,-7.179105E-2,3.2078993E-1,-1.397972E-1,3.5155655E-5,-1.1927624E0,1.23669304E-1,-9.715673E-2,1.0199056E-1,5.9908386E-2,-2.324249E-1,-8.172636E-1,-1.20963946E-1,7.19624E-1,3.2799682E-1,-9.320823E-2,-1.6575767E-1,-1.329013E-1,-8.724913E-2,-1.4935514E-1,1.5802753E-1,-9.183621E-2,6.424159E-3,4.097719E-2,-9.356227E-2,2.4977466E-2,-1.51415095E-2,2.5928384E-2],"categories":[],"categories_nodes":[],"categories_segments":[],"categories_sizes":[],"default_left":[0,0,0,0,0,0,0,0,0,0,0,0,0,0,0,0,0,0,0,0,0,0,0,0,0,0,0,0,0,0,0,0,0],"id":27,"left_children":[1,3,5,7,-1,9,11,13,-1,-1,15,-1,17,19,-1,-1,21,23,25,27,-1,29,-1,31,-1,-1,-1,-1,-1,-1,-1,-1,-1],"loss_changes":[1.1937588E1,3.6117191E0,2.6708626E1,8.23378E0,0E0,7.076771E0,1.8159082E1,2.3739233E0,0E0,0E0,9.771381E0,0E0,1.0479597E1,5.956908E0,0E0,0E0,7.2280912E0,2.3927238E1,2.3014378E1,3.7651515E-1,0E0,3.902406E0,0E0,1.1410197E1,0E0,0E0,0E0,0E0,0E0,0E0,0E0,0E0,0E0],"parents":[2147483647,0,0,1,1,2,2,3,3,5,5,6,6,7,7,10,10,12,12,13,13,16,16,17,17,18,18,19,19,21,21,23,23],"right_children":[2,4,6,8,-1,10,12,14,-1,-1,16,-1,18,20,-1,-1,22,24,26,28,-1,30,-1,32,-1,-1,-1,-1,-1,-1,-1,-1,-1],"split_conditions":[8.020086E3,8.007725E3,8.1035845E3,7.997228E3,8.174409E-2,8.025816E3,8.1065474E3,7.9646284E3,-1.397972E-1,3.5155655E-5,8.047603E3,1.23669304E-1,9.154757E3,7.93536E3,5.9908386E-2,-2.324249E-1,8.0611416E3,9.084115E3,9.162288E3,7.875832E3,-9.320823E-2,8.0587505E3,-1.329013E-1,8.972035E3,-1.4935514E-1,1.5802753E-1,-9.183621E-2,6.424159E-3,4.097719E-2,-9.356227E-2,2.4977466E-2,-1.51415095E-2,2.5928384E-2],"split_indices":[0,0,0,0,0,0,0,0,0,0,0,0,0,0,0,0,0,0,0,0,0,0,0,0,0,0,0,0,0,0,0,0,0],"split_type":[0,0,0,0,0,0,0,0,0,0,0,0,0,0,0,0,0,0,0,0,0,0,0,0,0,0,0,0,0,0,0,0,0],"sum_hessian":[6.334829E2,5.451463E1,5.7896826E2,4.2131752E1,1.2382877E1,3.3039673E1,5.459286E2,4.0141567E1,1.9901862E0,5.8310304E0,2.7208643E1,9.398751E0,5.3652985E2,2.3439138E1,1.6702429E1,5.420133E0,2.178851E1,5.2228094E2,1.4248912E1,1.9874826E1,3.564313E0,1.02537775E1,1.1534732E1,5.1086893E2,1.1412035E1,9.404017E0,4.8448944E0,5.4156823E0,1.4459144E1,3.2399986E0,7.013779E0,4.3177136E2,7.909756E1],"tree_param":{"num_deleted":"0","num_feature":"1","num_nodes":"33","size_leaf_vector":"1"}},{"base_weights":[7.70284E-2,3.000863E-1,-9.06661E-2,2.6002234E-1,1.2797615E-1,-1.3774526E-1,-3.842301E-2,3.048015E-1,-1.3140067E-1,1.623407E-1,-8.729373E-2,2.7310625E-1,1.072466E-1,-3.3047745E-1,8.65147E-2,3.0521464E-1,-1.2731965E-1,-6.584319E-2,-1.1188378E0,5.6415427E-1,-1.0093341E-1,2.5880426E-2,1.3189504E-1,-1.20070696E-1,3.9557773E-3,-1.8161865E-1,-3.0804569E-2,-5.619313E-3,8.259978E-2,-1.3349538E-1,1.3148842E-3],"categories":[],"categories_nodes":[],"categories_segments":[],"categories_sizes":[],"default_left":[0,0,0,0,0,0,0,0,0,0,0,0,0,0,0,0,0,0,0,0,0,0,0,0,0,0,0,0,0,0,0],"id":28,"left_children":[1,3,5,7,-1,-1,9,11,-1,-1,13,15,-1,17,19,21,-1,23,25,27,29,-1,-1,-1,-1,-1,-1,-1,-1,-1,-1],"loss_changes":[2.493375E1,1.0738764E1,2.5370626E1,1.97615E1,0E0,0E0,2.975775E1,6.126301E0,0E0,0E0,1.5146253E1,1.3207636E1,0E0,3.0953337E1,1.8797897E1,1.1531935E1,0E0,1.3671436E1,2.0352123E1,9.73152E0,2.1358429E1,0E0,0E0,0E0,0E0,0E0,0E0,0E0,0E0,0E0,0E0],"parents":[2147483647,0,0,1,1,2,2,3,3,6,6,7,7,10,10,11,11,13,13,14,14,15,15,17,17,18,18,19,19,20,20],"right_children":[2,4,6,8,-1,-1,10,12,-1,-1,14,16,-1,18,20,22,-1,24,26,28,30,-1,-1,-1,-1,-1,-1,-1,-1,-1,-1],"split_conditions":[8.295418E3,8.293289E3,8.318873E3,8.285273E3,1.2797615E-1,-1.3774526E-1,8.326347E3,8.282977E3,-1.3140067E-1,1.623407E-1,8.784557E3,8.271955E3,1.072466E-1,8.669194E3,8.841613E3,8.265961E3,-1.2731965E-1,8.405632E3,8.738848E3,8.810528E3,8.894869E3,2.5880426E-2,1.3189504E-1,-1.20070696E-1,3.9557773E-3,-1.8161865E-1,-3.0804569E-2,-5.619313E-3,8.259978E-2,-1.3349538E-1,1.3148842E-3],"split_indices":[0,0,0,0,0,0,0,0,0,0,0,0,0,0,0,0,0,0,0,0,0,0,0,0,0,0,0,0,0,0,0],"split_type":[0,0,0,0,0,0,0,0,0,0,0,0,0,0,0,0,0,0,0,0,0,0,0,0,0,0,0,0,0,0,0],"sum_hessian":[6.642911E2,2.850029E2,3.7928815E2,2.7511935E2,9.883547E0,1.3733807E1,3.6555432E2,2.683549E2,6.7644706E0,9.464173E0,3.5609015E2,2.591415E2,9.213374E0,1.4828769E2,2.0780247E2,2.5471965E2,4.4218693E0,1.1192683E2,3.6360867E1,5.8150944E1,1.4965154E2,2.4486337E2,9.856278E0,8.709341E0,1.0321748E2,1.881503E1,1.7545837E1,1.7379572E1,4.077137E1,1.1832713E1,1.3781882E2],"tree_param":{"num_deleted":"0","num_feature":"1","num_nodes":"31","size_leaf_vector":"1"}},{"base_weights":[3.5912063E-2,1.2147123E-1,-3.4292248E-1,9.271713E-2,1.6336703E-1,-1.303528E-1,-7.8064464E-2,1.21574275E-1,-1.2628132E-1,1.3020247E-1,-2.5287473E-1,3.2737695E-2,3.419058E-1,5.254881E-2,-6.9949263E-1,1.4244013E-1,-1.159439E-1,5.312711E-1,7.111372E-2,-7.084969E-1,4.8358774E-1,-1.4591841E-1,-5.1842652E-2,9.839228E-3,1.5896054E-1,3.2884423E-2,7.561494E-2,-1.189638E-1,3.2560922E-2,-1.8961918E-2,-1.5691528E-1,2.275065E-2,8.095021E-2,9.1250025E-2,-1.1227E-1],"categories":[],"categories_nodes":[],"categories_segments":[],"categories_sizes":[],"default_left":[0,0,0,0,0,0,0,0,0,0,0,0,0,0,0,0,0,0,0,0,0,0,0,0,0,0,0,0,0,0,0,0,0,0,0],"id":29,"left_children":[1,3,5,7,-1,-1,9,11,-1,-1,13,15,17,19,21,23,-1,25,27,29,31,-1,33,-1,-1,-1,-1,-1,-1,-1,-1,-1,-1,-1,-1],"loss_changes":[2.1255682E1,2.2957151E1,3.0483166E1,2.0636627E1,0E0,0E0,2.333693E1,1.0062353E1,0E0,0E0,1.1823381E1,4.8396908E1,7.4912777E0,1.7322655E1,1.7044182E1,2.1309118E1,0E0,3.59062E0,2.028312E1,8.039598E0,2.5304022E0,0E0,2.175724E1,0E0,0E0,0E0,0E0,0E0,0E0,0E0,0E0,0E0,0E0,0E0,0E0],"parents":[2147483647,0,0,1,1,2,2,3,3,6,6,7,7,10,10,11,11,12,12,13,13,14,14,15,15,17,17,18,18,19,19,20,20,22,22],"right_children":[2,4,6,8,-1,-1,10,12,-1,-1,14,16,18,20,22,24,-1,26,28,30,32,-1,34,-1,-1,-1,-1,-1,-1,-1,-1,-1,-1,-1,-1],"split_conditions":[8.900645E3,8.894869E3,8.972035E3,8.841613E3,1.6336703E-1,-1.303528E-1,8.973576E3,8.660683E3,-1.2628132E-1,1.3020247E-1,9.004434E3,8.557453E3,8.746395E3,8.988587E3,9.112143E3,8.554589E3,-1.159439E-1,8.698234E3,8.784557E3,8.981027E3,8.999852E3,-1.4591841E-1,9.123495E3,9.839228E-3,1.5896054E-1,3.2884423E-2,7.561494E-2,-1.189638E-1,3.2560922E-2,-1.8961918E-2,-1.5691528E-1,2.275065E-2,8.095021E-2,9.1250025E-2,-1.1227E-1],"split_indices":[0,0,0,0,0,0,0,0,0,0,0,0,0,0,0,0,0,0,0,0,0,0,0,0,0,0,0,0,0,0,0,0,0,0,0],"split_type":[0,0,0,0,0,0,0,0,0,0,0,0,0,0,0,0,0,0,0,0,0,0,0,0,0,0,0,0,0,0,0,0,0,0,0],"sum_hessian":[6.541792E2,5.3442377E2,1.1975543E2,5.2555786E2,8.865914E0,2.495343E1,9.4802E1,5.1556635E2,9.991526E0,9.868901E0,8.4933105E1,3.6856516E2,1.470012E2,5.0830593E1,3.410251E1,3.3839127E2,3.0173887E1,8.5723465E1,6.127774E1,1.80629E1,3.2767693E1,1.5046069E1,1.905644E1,3.2949927E2,8.891986E0,4.6643642E1,3.907982E1,9.608838E0,5.1668903E1,1.2102797E1,5.9601035E0,1.9472452E1,1.329524E1,1.0055564E1,9.000877E0],"tree_param":{"num_deleted":"0","num_feature":"1","num_nodes":"35","size_leaf_vector":"1"}},{"base_weights":[1.0754912E-1,-2.61416E-2,2.5832462E-1,8.131645E-2,-6.960784E-1,7.26633E-1,1.9266511E-1,3.9177284E-2,1.22490935E-1,-1.1530061E-1,-7.883842E-2,5.581074E-1,1.14584856E-1,-1.3242245E-1,2.4014045E-1,2.4951132E-1,-1.739957E-1,1.1329334E-1,-1.0354584E-1,6.700751E-1,-1.0590918E-1,9.008431E-2,1.8904601E-1,1.7618448E-1,7.2779137E-1,-1.818038E-1,-4.1152336E-2,9.80448E-2,4.587443E-1,-1.4852479E-1,2.3549435E-1,2.3963328E-2,-1.2230752E-1,1.15243495E-1,2.5603691E-2,6.85316E-2,-1.8278828E-2,-1.0723946E-1,6.329124E-2,-2.2035873E-2,3.1138578E-2],"categories":[],"categories_nodes":[],"categories_segments":[],"categories_sizes":[],"default_left":[0,0,0,0,0,0,0,0,0,0,0,0,0,0,0,0,0,0,0,0,0,0,0,0,0,0,0,0,0,0,0,0,0,0,0,0,0,0,0,0,0],"id":30,"left_children":[1,3,5,7,9,11,13,15,-1,-1,17,19,-1,-1,21,23,25,-1,-1,27,-1,-1,29,31,33,-1,35,-1,37,-1,39,-1,-1,-1,-1,-1,-1,-1,-1,-1,-1],"loss_changes":[1.36676655E1,2.5973717E1,9.5587845E0,1.4777853E1,1.3853413E1,1.9174919E0,2.0431606E1,1.3518697E1,0E0,0E0,2.711079E1,6.040597E0,0E0,0E0,8.943191E0,5.106429E0,3.239662E1,0E0,0E0,1.2694578E0,0E0,0E0,2.0054714E1,1.2016321E1,3.5072384E0,0E0,1.4421556E1,0E0,5.6936235E0,0E0,8.692861E0,0E0,0E0,0E0,0E0,0E0,0E0,0E0,0E0,0E0,0E0],"parents":[2147483647,0,0,1,1,2,2,3,3,4,4,5,5,6,6,7,7,10,10,11,11,14,14,15,15,16,16,19,19,22,22,23,23,24,24,26,26,28,28,30,30],"right_children":[2,4,6,8,10,12,14,16,-1,-1,18,20,-1,-1,22,24,26,-1,-1,28,-1,-1,30,32,34,-1,36,-1,38,-1,40,-1,-1,-1,-1,-1,-1,-1,-1,-1,-1],"split_conditions":[8.660683E3,8.494298E3,8.682672E3,8.4628125E3,8.628474E3,8.672693E3,8.698234E3,8.1615474E3,1.22490935E-1,-1.1530061E-1,8.63506E3,8.669194E3,1.14584856E-1,-1.3242245E-1,8.705646E3,8.154444E3,8.183904E3,1.1329334E-1,-1.0354584E-1,8.664431E3,-1.0590918E-1,9.008431E-2,8.738848E3,8.13424E3,8.1564053E3,-1.818038E-1,8.198689E3,9.80448E-2,8.666019E3,-1.4852479E-1,8.810528E3,2.3963328E-2,-1.2230752E-1,1.15243495E-1,2.5603691E-2,6.85316E-2,-1.8278828E-2,-1.0723946E-1,6.329124E-2,-2.2035873E-2,3.1138578E-2],"split_indices":[0,0,0,0,0,0,0,0,0,0,0,0,0,0,0,0,0,0,0,0,0,0,0,0,0,0,0,0,0,0,0,0,0,0,0,0,0,0,0,0,0],"split_type":[0,0,0,0,0,0,0,0,0,0,0,0,0,0,0,0,0,0,0,0,0,0,0,0,0,0,0,0,0,0,0,0,0,0,0,0,0,0,0,0,0],"sum_hessian":[6.7556396E2,3.5815546E2,3.174085E2,3.0927673E2,4.887872E1,3.760509E1,2.7980344E2,2.9936734E2,9.909399E0,2.7494902E1,2.1383818E1,2.8655403E1,8.949689E0,7.611404E0,2.7219202E2,1.5083739E2,1.4852995E2,9.306377E0,1.2077439E1,2.7405462E1,1.2499415E0,1.8204277E1,2.5398775E2,1.3215385E2,1.8683529E1,1.0099708E1,1.3843024E2,9.435437E0,1.7970026E1,5.9616747E0,2.4802608E2,1.2728249E2,4.871358E0,8.96182E0,9.721709E0,2.184417E1,1.16586075E2,1.249967E0,1.6720058E1,3.4938934E1,2.1308714E2],"tree_param":{"num_deleted":"0","num_feature":"1","num_nodes":"41","size_leaf_vector":"1"}},{"base_weights":[6.1335612E-2,3.533721E-2,6.589868E-1,3.5582417E-1,-2.2895716E-2,1.0021373E0,-8.848419E-2,3.0637747E-1,6.392594E-2,-1.3630883E-1,3.407431E-2,5.268074E-1,1.4935973E-1,3.7301207E-1,-9.469729E-2,4.8193354E-2,-1.21868506E-1,1.0448021E-1,-8.859649E-2,5.1444378E-2,2.93774E-1,2.9503282E-2,9.677451E-2,-9.11706E-2,3.914551E-2,5.239956E-3,-1.16259076E-1],"categories":[],"categories_nodes":[],"categories_segments":[],"categories_sizes":[],"default_left":[0,0,0,0,0,0,0,0,0,0,0,0,0,0,0,0,0,0,0,0,0,0,0,0,0,0,0],"id":31,"left_children":[1,3,5,7,9,11,-1,13,-1,-1,15,17,-1,19,-1,21,-1,-1,-1,-1,23,25,-1,-1,-1,-1,-1],"loss_changes":[1.0091967E1,1.17871685E1,1.5259314E1,1.0703869E0,4.0894615E1,4.314022E0,0E0,7.385949E0,0E0,0E0,9.005345E0,1.0592497E1,0E0,6.8030643E-1,0E0,8.598261E0,0E0,0E0,0E0,0E0,6.7761817E0,1.3563833E1,0E0,0E0,0E0,0E0,0E0],"parents":[2147483647,0,0,1,1,2,2,3,3,4,4,5,5,7,7,10,10,11,11,13,13,15,15,20,20,21,21],"right_children":[2,4,6,8,10,12,-1,14,-1,-1,16,18,-1,20,-1,22,-1,-1,-1,-1,24,26,-1,-1,-1,-1,-1],"split_conditions":[9.112143E3,8.0611416E3,9.162288E3,8.0587505E3,8.128506E3,9.154757E3,-8.848419E-2,8.047603E3,6.392594E-2,-1.3630883E-1,9.084115E3,9.123495E3,1.4935973E-1,7.93536E3,-9.469729E-2,9.080756E3,-1.21868506E-1,1.0448021E-1,-8.859649E-2,5.1444378E-2,7.9646284E3,9.004434E3,9.677451E-2,-9.11706E-2,3.914551E-2,5.239956E-3,-1.16259076E-1],"split_indices":[0,0,0,0,0,0,0,0,0,0,0,0,0,0,0,0,0,0,0,0,0,0,0,0,0,0,0],"split_type":[0,0,0,0,0,0,0,0,0,0,0,0,0,0,0,0,0,0,0,0,0,0,0,0,0,0,0],"sum_hessian":[6.544706E2,6.283626E2,2.6107931E1,9.609689E1,5.3226575E2,2.170022E1,4.4077115E0,8.389479E1,1.2202107E1,2.084015E1,5.114256E2,1.2187816E1,9.5124035E0,8.040236E1,3.4924304E0,5.067556E2,4.6699615E0,9.160391E0,3.027425E0,2.6445494E1,5.3956863E1,4.97779E2,8.976624E0,3.3430567E0,5.0613808E1,4.894188E2,8.360225E0],"tree_param":{"num_deleted":"0","num_feature":"1","num_nodes":"27","size_leaf_vector":"1"}},{"base_weights":[6.698582E-2,2.029352E-1,-7.0656896E-2,4.6552114E-2,4.560594E-1,-4.690002E-1,1.8354128E-1,1.959557E-1,-7.68201E-1,3.780647E-1,1.2612508E-1,-2.9102007E-1,-1.5022942E-1,6.280025E-1,6.634852E-2,-7.109087E-2,3.9580837E-1,-1.5787719E-1,-5.999652E-2,4.6300647E-1,-1.1521077E-1,-1.1270481E-1,-3.0484546E-2,2.333725E-2,9.012827E-2,-1.2240546E-1,1.5751146E-1,1.9324054E-1,-8.055074E-1,1.249419E-1,2.8810093E-1,9.1118954E-2,-1.327554E-1,3.497367E-1,9.410994E-2,9.6154906E-2,-1.699806E-1,7.770101E-2,-1.7105587E-1,1.1264264E-1,7.8838274E-2,6.501995E-2,8.875295E-3,-1.3653529E-1,-3.6971644E-2,-1.0752072E-1,3.747006E-2,4.8449673E-2,-1.0635616E-1,-1.2776637E-1,1.22329835E-2,-4.4772774E-2,2.4465298E-2],"categories":[],"categories_nodes":[],"categories_segments":[],"categories_sizes":[],"default_left":[0,0,0,0,0,0,0,0,0,0,0,0,0,0,0,0,0,0,0,0,0,0,0,0,0,0,0,0,0,0,0,0,0,0,0,0,0,0,0,0,0,0,0,0,0,0,0,0,0,0,0,0,0],"id":32,"left_children":[1,3,5,7,9,11,13,15,17,19,-1,21,-1,23,25,27,29,-1,31,33,-1,-1,35,37,-1,-1,39,41,43,-1,45,-1,-1,47,-1,-1,49,-1,-1,-1,51,-1,-1,-1,-1,-1,-1,-1,-1,-1,-1,-1,-1],"loss_changes":[1.2116809E1,1.2819148E1,3.265937E1,2.476108E1,7.1466217E0,2.2488964E1,1.0137978E1,9.24808E0,1.78248E1,1.5358721E1,0E0,2.3482769E1,0E0,6.62187E0,1.855582E1,1.4644517E1,8.572475E0,0E0,2.330856E1,5.4629707E0,0E0,0E0,1.1686468E1,1.930614E1,0E0,0E0,1.1042174E1,2.5114756E0,4.1922503E0,0E0,1.0859019E1,0E0,0E0,1.7628574E1,0E0,0E0,2.43753E1,0E0,0E0,0E0,1.2111256E1,0E0,0E0,0E0,0E0,0E0,0E0,0E0,0E0,0E0,0E0,0E0,0E0],"parents":[2147483647,0,0,1,1,2,2,3,3,4,4,5,5,6,6,7,7,8,8,9,9,11,11,13,13,14,14,15,15,16,16,18,18,19,19,22,22,23,23,26,26,27,27,28,28,30,30,33,33,36,36,40,40],"right_children":[2,4,6,8,10,12,14,16,18,20,-1,22,-1,24,26,28,30,-1,32,34,-1,-1,36,38,-1,-1,40,42,44,-1,46,-1,-1,48,-1,-1,50,-1,-1,-1,52,-1,-1,-1,-1,-1,-1,-1,-1,-1,-1,-1,-1],"split_conditions":[8.494298E3,8.249575E3,8.810528E3,8.187474E3,8.4628125E3,8.746395E3,8.841613E3,8.0835767E3,8.224035E3,8.425252E3,1.2612508E-1,8.628474E3,-1.5022942E-1,8.835464E3,8.894869E3,8.0351265E3,8.0853115E3,-1.5787719E-1,8.231412E3,8.394094E3,-1.1521077E-1,-1.1270481E-1,8.63506E3,8.82736E3,9.012827E-2,-1.2240546E-1,8.900645E3,7.875832E3,8.0587505E3,1.249419E-1,8.1035845E3,9.1118954E-2,-1.327554E-1,8.326347E3,9.410994E-2,9.6154906E-2,8.666019E3,7.770101E-2,-1.7105587E-1,1.1264264E-1,8.972035E3,6.501995E-2,8.875295E-3,-1.3653529E-1,-3.6971644E-2,-1.0752072E-1,3.747006E-2,4.8449673E-2,-1.0635616E-1,-1.2776637E-1,1.22329835E-2,-4.4772774E-2,2.4465298E-2],"split_indices":[0,0,0,0,0,0,0,0,0,0,0,0,0,0,0,0,0,0,0,0,0,0,0,0,0,0,0,0,0,0,0,0,0,0,0,0,0,0,0,0,0,0,0,0,0,0,0,0,0,0,0,0,0],"split_type":[0,0,0,0,0,0,0,0,0,0,0,0,0,0,0,0,0,0,0,0,0,0,0,0,0,0,0,0,0,0,0,0,0,0,0,0,0,0,0,0,0,0,0,0,0,0,0,0,0,0,0,0,0],"sum_hessian":[6.450537E2,3.2464993E2,3.2040378E2,2.0164825E2,1.2300168E2,1.2463768E2,1.957661E2,1.711468E2,3.0501446E1,1.1359231E2,9.409366E0,1.0749976E2,1.7137915E1,3.976035E1,1.5600574E2,7.3319695E1,9.782712E1,1.3583771E1,1.6917677E1,1.08340935E2,5.251373E0,2.465976E1,8.2840004E1,1.2828058E1,2.6932291E1,9.401686E0,1.4660405E2,5.435643E1,1.8963264E1,9.669014E0,8.8158104E1,9.693158E0,7.224518E0,8.915826E1,1.9182684E1,9.397722E0,7.344228E1,9.366336E0,3.4617229E0,9.914253E0,1.366898E2,8.965877E0,4.5390553E1,7.2661643E0,1.16971E1,4.514671E0,8.364343E1,8.2061516E1,7.0967393E0,1.4701919E1,5.8740364E1,3.2183544E1,1.04506256E2],"tree_param":{"num_deleted":"0","num_feature":"1","num_nodes":"53","size_leaf_vector":"1"}},{"base_weights":[6.825456E-2,2.2659145E-1,-2.2753045E-2,1.7311144E-1,1.3844885E-1,-1.3263586E-1,2.5566757E-1,1.9510108E-1,-1.2643723E-1,-3.8975015E-2,-1.23814024E-1,1.3572861E-1,1.47433E-1,1.5622759E-1,9.418937E-2,-8.929403E-2,1.2655212E-1,-4.8015803E-1,2.902097E-1,2.15334E-1,-1.2774716E-1,-5.006523E-2,-1.16679326E-1,5.5703384E-1,-1.7927766E-1,3.6288145E-1,-8.7707E-2,1.802375E-2,8.4114574E-2,-1.2497805E-2,8.352462E-2,-9.614579E-2,9.038546E-2,2.1141909E-2,1.3950357E-1],"categories":[],"categories_nodes":[],"categories_segments":[],"categories_sizes":[],"default_left":[0,0,0,0,0,0,0,0,0,0,0,0,0,0,0,0,0,0,0,0,0,0,0,0,0,0,0,0,0,0,0,0,0,0,0],"id":33,"left_children":[1,3,5,7,-1,9,11,13,-1,15,-1,-1,17,19,-1,21,-1,23,25,27,-1,29,-1,31,-1,33,-1,-1,-1,-1,-1,-1,-1,-1,-1],"loss_changes":[9.301156E0,1.4183695E1,1.2542508E1,7.2919626E0,0E0,3.0303446E1,1.3468375E1,6.239808E0,0E0,1.7881933E1,0E0,0E0,9.684353E0,1.830721E1,0E0,1.0952624E1,0E0,2.8389982E1,7.706801E0,4.28162E0,0E0,1.6962532E1,0E0,7.1348143E0,0E0,1.257531E1,0E0,0E0,0E0,0E0,0E0,0E0,0E0,0E0,0E0],"parents":[2147483647,0,0,1,1,2,2,3,3,5,5,6,6,7,7,9,9,12,12,13,13,15,15,17,17,18,18,19,19,21,21,23,23,25,25],"right_children":[2,4,6,8,-1,10,12,14,-1,16,-1,-1,18,20,-1,22,-1,24,26,28,-1,30,-1,32,-1,34,-1,-1,-1,-1,-1,-1,-1,-1,-1],"split_conditions":[8.271955E3,8.265961E3,8.972035E3,8.256095E3,1.3844885E-1,8.900645E3,8.973576E3,8.249575E3,-1.2643723E-1,8.894869E3,-1.23814024E-1,1.3572861E-1,8.988587E3,8.231412E3,9.418937E-2,8.841613E3,1.2655212E-1,8.978347E3,9.162288E3,8.224035E3,-1.2774716E-1,8.835464E3,-1.16679326E-1,8.975862E3,-1.7927766E-1,9.154757E3,-8.7707E-2,1.802375E-2,8.4114574E-2,-1.2497805E-2,8.352462E-2,-9.614579E-2,9.038546E-2,2.1141909E-2,1.3950357E-1],"split_indices":[0,0,0,0,0,0,0,0,0,0,0,0,0,0,0,0,0,0,0,0,0,0,0,0,0,0,0,0,0,0,0,0,0,0,0],"split_type":[0,0,0,0,0,0,0,0,0,0,0,0,0,0,0,0,0,0,0,0,0,0,0,0,0,0,0,0,0,0,0,0,0,0,0],"sum_hessian":[6.426993E2,2.3443446E2,4.0826483E2,2.2526593E2,9.16853E0,2.9336627E2,1.1489856E2,2.2279166E2,2.474272E0,2.714907E2,2.1875595E1,9.163876E0,1.0573468E2,2.1304494E2,9.746726E0,2.6237805E2,9.112638E0,1.9028664E1,8.670602E1,2.0549274E2,7.5521927E0,2.5426039E2,8.117654E0,1.0908524E1,8.12014E0,8.235369E1,4.3523307E0,1.9595128E2,9.541454E0,2.3531999E2,1.89404E1,1.645121E0,9.263403E0,7.295038E1,9.403308E0],"tree_param":{"num_deleted":"0","num_feature":"1","num_nodes":"35","size_leaf_vector":"1"}},{"base_weights":[1.42064E-1,3.4050748E-1,9.903656E-2,2.6435152E-1,1.07313745E-1,-1.3887955E-1,1.3985102E-1,3.2147542E-1,-1.0120336E-1,7.934277E-1,9.0950966E-2,2.326297E-1,1.0497574E-1,6.1876273E-1,1.2094355E-1,-1.5612702E-1,1.6092575E-1,3.131092E-1,-1.00583196E-1,8.576995E-2,4.5330986E-1,3.6038002E-1,9.004139E-2,1.9671593E-2,6.1886538E-2,-1.120032E-1,6.327694E-2,2.3896122E-2,1.0078819E-1,-1.2398416E-1,1.579399E-2],"categories":[],"categories_nodes":[],"categories_segments":[],"categories_sizes":[],"default_left":[0,0,0,0,0,0,0,0,0,0,0,0,0,0,0,0,0,0,0,0,0,0,0,0,0,0,0,0,0,0,0],"id":34,"left_children":[1,3,5,7,-1,-1,9,11,-1,13,15,17,-1,19,-1,-1,21,23,-1,-1,25,27,29,-1,-1,-1,-1,-1,-1,-1,-1],"loss_changes":[5.57374E0,6.1168575E0,3.32106E1,8.097052E0,0E0,0E0,1.6847248E1,6.341613E0,0E0,1.7407856E0,5.7500656E1,9.603683E0,0E0,5.915785E-1,0E0,0E0,6.669038E0,2.9639864E0,0E0,0E0,6.019167E0,9.416052E0,3.2031773E1,0E0,0E0,0E0,0E0,0E0,0E0,0E0,0E0],"parents":[2147483647,0,0,1,1,2,2,3,3,6,6,7,7,9,9,10,10,11,11,13,13,16,16,17,17,20,20,21,21,22,22],"right_children":[2,4,6,8,-1,-1,10,12,-1,14,16,18,-1,20,-1,-1,22,24,-1,-1,26,28,30,-1,-1,-1,-1,-1,-1,-1,-1],"split_conditions":[8.1065474E3,8.1035845E3,8.154444E3,8.0853115E3,1.07313745E-1,-1.3887955E-1,8.16735E3,8.0835767E3,-1.0120336E-1,8.1648105E3,8.224035E3,8.0611416E3,1.0497574E-1,8.1564053E3,1.2094355E-1,-1.5612702E-1,8.425252E3,8.0431035E3,-1.00583196E-1,8.576995E-2,8.1593403E3,8.394094E3,8.554589E3,1.9671593E-2,6.1886538E-2,-1.120032E-1,6.327694E-2,2.3896122E-2,1.0078819E-1,-1.2398416E-1,1.579399E-2],"split_indices":[0,0,0,0,0,0,0,0,0,0,0,0,0,0,0,0,0,0,0,0,0,0,0,0,0,0,0,0,0,0,0],"split_type":[0,0,0,0,0,0,0,0,0,0,0,0,0,0,0,0,0,0,0,0,0,0,0,0,0,0,0,0,0,0,0],"sum_hessian":[6.6087354E2,1.1611429E2,5.447593E2,1.0653719E2,9.577089E0,1.3597701E1,5.3116156E2,1.0276451E2,3.7726877E0,3.5772434E1,4.9538913E2,9.2889336E1,9.875171E0,2.711549E1,8.656944E0,1.9204231E1,4.761849E2,8.79988E1,4.890538E0,9.1349745E0,1.7980515E1,1.2341768E2,3.527672E2,6.51633E1,2.2835503E1,1.247262E0,1.6733252E1,1.05211945E2,1.820573E1,1.6226017E1,3.365412E2],"tree_param":{"num_deleted":"0","num_feature":"1","num_nodes":"31","size_leaf_vector":"1"}},{"base_weights":[1.244557E-1,2.1151556E-1,-2.2686185E-2,1.6726989E-1,6.375645E-1,-6.9935304E-1,1.5494715E-1,1.9883052E-1,-9.854749E-2,5.0350785E-1,9.629159E-2,-4.0766023E-2,-1.5890579E-1,1.8321067E-1,-8.7079674E-2,1.7668734E-1,9.6970126E-2,6.0916495E-1,-1.01318076E-1,-1.503221E-1,6.172592E-1,9.679675E-2,8.289951E-1,2.1976386E-1,-9.918694E-2,8.47693E-2,4.2939556E-1,9.066913E-2,3.4566134E-1,1.9971597E-1,-5.129569E-1,1.10466085E-1,5.77666E-1,1.8182209E-2,1.4048235E-1,-1.03801094E-1,6.243368E-2,-1.0011052E-1,8.496134E-2,2.7097608E-3,3.977146E-2,-1.16854005E-1,-0E0,-8.651945E-2,1.030524E-1],"categories":[],"categories_nodes":[],"categories_segments":[],"categories_sizes":[],"default_left":[0,0,0,0,0,0,0,0,0,0,0,0,0,0,0,0,0,0,0,0,0,0,0,0,0,0,0,0,0,0,0,0,0,0,0,0,0,0,0,0,0,0,0,0,0],"id":35,"left_children":[1,3,5,7,9,11,13,15,-1,17,-1,19,-1,21,-1,23,-1,25,-1,-1,27,29,31,33,-1,-1,35,-1,37,39,41,-1,43,-1,-1,-1,-1,-1,-1,-1,-1,-1,-1,-1,-1],"loss_changes":[8.511646E0,7.670143E0,2.9825815E1,1.3911905E1,1.054079E0,3.0014027E1,5.778019E0,6.029401E0,0E0,5.333386E0,0E0,3.0607117E1,0E0,1.0532333E1,0E0,1.8312428E1,0E0,7.2761345E-1,0E0,0E0,1.2804337E0,1.0768468E1,7.4358463E-1,1.5280981E1,0E0,0E0,5.8932133E0,0E0,9.710352E0,4.960833E0,8.348824E0,0E0,1.00481E1,0E0,0E0,0E0,0E0,0E0,0E0,0E0,0E0,0E0,0E0,0E0,0E0],"parents":[2147483647,0,0,1,1,2,2,3,3,4,4,5,5,6,6,7,7,9,9,11,11,13,13,15,15,17,17,20,20,21,21,22,22,23,23,26,26,28,28,29,29,30,30,32,32],"right_children":[2,4,6,8,10,12,14,16,-1,18,-1,20,-1,22,-1,24,-1,26,-1,-1,28,30,32,34,-1,-1,36,-1,38,40,42,-1,44,-1,-1,-1,-1,-1,-1,-1,-1,-1,-1,-1,-1],"split_conditions":[8.682672E3,8.660683E3,8.810528E3,8.63506E3,8.672693E3,8.738848E3,9.162288E3,8.628474E3,-9.854749E-2,8.669194E3,9.629159E-2,8.701421E3,-1.5890579E-1,9.112143E3,-8.7079674E-2,8.557453E3,9.6970126E-2,8.664431E3,-1.01318076E-1,-1.503221E-1,8.705646E3,9.004434E3,9.123495E3,8.554589E3,-9.918694E-2,8.47693E-2,8.666019E3,9.066913E-2,8.724986E3,8.972035E3,9.080756E3,1.10466085E-1,9.154757E3,1.8182209E-2,1.4048235E-1,-1.03801094E-1,6.243368E-2,-1.0011052E-1,8.496134E-2,2.7097608E-3,3.977146E-2,-1.16854005E-1,-0E0,-8.651945E-2,1.030524E-1],"split_indices":[0,0,0,0,0,0,0,0,0,0,0,0,0,0,0,0,0,0,0,0,0,0,0,0,0,0,0,0,0,0,0,0,0,0,0,0,0,0,0,0,0,0,0,0,0],"split_type":[0,0,0,0,0,0,0,0,0,0,0,0,0,0,0,0,0,0,0,0,0,0,0,0,0,0,0,0,0,0,0,0,0,0,0,0,0,0,0,0,0,0,0,0,0],"sum_hessian":[6.615967E2,4.1581332E2,2.4578337E2,3.781675E2,3.7645813E1,5.0611717E1,1.9517165E2,3.6897958E2,9.187906E0,2.8682514E1,8.9633E0,2.9748886E1,2.086283E1,1.908323E2,4.339348E0,3.5999762E2,8.981959E0,2.743556E1,1.246953E0,8.880217E0,2.086867E1,1.6946106E2,2.1371239E1,3.4806445E2,1.193319E1,9.955E0,1.748056E1,8.792386E0,1.2076283E1,1.4570436E2,2.375671E1,8.383161E0,1.2988079E1,3.3846567E2,9.598761E0,1.4826092E0,1.59979515E1,2.9657207E0,9.110563E0,7.871835E1,6.6986E1,9.884717E0,1.3871992E1,2.8323925E0,1.0155686E1],"tree_param":{"num_deleted":"0","num_feature":"1","num_nodes":"45","size_leaf_vector":"1"}},{"base_weights":[6.190455E-2,7.982438E-2,-1.1997189E-1,6.618137E-2,9.402179E-2,7.6231904E-2,-1.1522185E-1,6.431629E-2,7.730785E-2,8.315779E-2,-1.11688696E-1,1.628959E-2,8.526507E-4],"categories":[],"categories_nodes":[],"categories_segments":[],"categories_sizes":[],"default_left":[0,0,0,0,0,0,0,0,0,0,0,0,0],"id":36,"left_children":[1,3,-1,5,-1,7,-1,9,-1,11,-1,-1,-1],"loss_changes":[1.399519E1,7.022051E0,0E0,7.3731866E0,0E0,4.8469315E0,0E0,1.3141539E1,0E0,3.4490213E0,0E0,0E0,0E0],"parents":[2147483647,0,0,1,1,3,3,5,5,7,7,9,9],"right_children":[2,4,-1,6,-1,8,-1,10,-1,12,-1,-1,-1],"split_conditions":[9.123495E3,9.112143E3,-1.1997189E-1,9.084115E3,9.402179E-2,9.080756E3,-1.1522185E-1,9.004434E3,7.730785E-2,8.326347E3,-1.11688696E-1,1.628959E-2,8.526507E-4],"split_indices":[0,0,0,0,0,0,0,0,0,0,0,0,0],"split_type":[0,0,0,0,0,0,0,0,0,0,0,0,0],"sum_hessian":[6.1875244E2,6.110887E2,7.663782E0,6.0272455E2,8.364082E0,5.9880457E2,3.9200082E0,5.899526E2,8.852001E0,5.8168823E2,8.2643175E0,2.800029E2,3.0168533E2],"tree_param":{"num_deleted":"0","num_feature":"1","num_nodes":"13","size_leaf_vector":"1"}},{"base_weights":[-6.2061767E-3,1.02689965E-2,-1.166892E-1,-9.67785E-2,2.1582006E-1,7.2842026E-3,-1.6040424E0,1.7721131E-1,1.3600442E-1,-5.853002E-2,5.7536805E-1,-1.7652696E-1,-1.0503756E-1,-1.4600788E-1,2.162247E-1,1.7900713E-1,-1.7129093E-1,1.0128211E-1,3.996397E-1,4.644465E-1,6.966964E-2,3.5852732E-3,6.672061E-2,-1.3407455E-1,-9.562663E-3,-9.849221E-2,5.1272135E-2,2.9130464E-2,1.3494429E-1,-1.1470386E-1,2.747657E-2],"categories":[],"categories_nodes":[],"categories_segments":[],"categories_sizes":[],"default_left":[0,0,0,0,0,0,0,0,0,0,0,0,0,0,0,0,0,0,0,0,0,0,0,0,0,0,0,0,0,0,0],"id":37,"left_children":[1,3,-1,5,7,9,11,-1,13,15,17,-1,-1,-1,19,21,23,-1,25,27,29,-1,-1,-1,-1,-1,-1,-1,-1,-1,-1],"loss_changes":[1.1550081E1,1.3012261E1,0E0,6.1067886E1,2.473804E1,1.3698578E1,1.08421326E-1,0E0,2.5016424E1,8.789984E0,2.379261E0,0E0,0E0,0E0,6.663844E0,7.277679E0,1.9422598E1,0E0,4.992411E0,9.931304E0,2.9696608E1,0E0,0E0,0E0,0E0,0E0,0E0,0E0,0E0,0E0,0E0],"parents":[2147483647,0,0,1,1,3,3,4,4,5,5,6,6,8,8,9,9,10,10,14,14,15,15,16,16,18,18,19,19,20,20],"right_children":[2,4,-1,6,8,10,12,-1,14,16,18,-1,-1,-1,20,22,24,-1,26,28,30,-1,-1,-1,-1,-1,-1,-1,-1,-1,-1],"split_conditions":[9.123495E3,8.784557E3,-1.166892E-1,8.682672E3,8.788672E3,8.660683E3,8.746395E3,1.7721131E-1,8.810528E3,8.1065474E3,8.664431E3,-1.7652696E-1,-1.0503756E-1,-1.4600788E-1,8.923899E3,8.0835767E3,8.154444E3,1.0128211E-1,8.666019E3,8.920189E3,8.972035E3,3.5852732E-3,6.672061E-2,-1.3407455E-1,-9.562663E-3,-9.849221E-2,5.1272135E-2,2.9130464E-2,1.3494429E-1,-1.1470386E-1,2.747657E-2],"split_indices":[0,0,0,0,0,0,0,0,0,0,0,0,0,0,0,0,0,0,0,0,0,0,0,0,0,0,0,0,0,0,0],"split_type":[0,0,0,0,0,0,0,0,0,0,0,0,0,0,0,0,0,0,0,0,0,0,0,0,0,0,0,0,0,0,0],"sum_hessian":[5.963297E2,5.88876E2,7.453712E0,3.8724704E2,2.0162897E2,3.631067E2,2.4140352E1,8.740769E0,1.928882E2,3.2605334E2,3.7053326E1,1.6861391E1,7.2789617E0,8.347942E0,1.8454027E2,1.0448196E2,2.215714E2,9.090666E0,2.7962658E1,6.744929E1,1.1709098E2,8.177993E1,2.2702026E1,1.2368269E1,2.0920312E2,1.4624461E0,2.6500212E1,5.7618816E1,9.830469E0,1.6157608E1,1.0093337E2],"tree_param":{"num_deleted":"0","num_feature":"1","num_nodes":"31","size_leaf_vector":"1"}},{"base_weights":[9.070608E-2,1.860343E-1,-1.6723907E-1,1.5911248E-1,1.2675881E-1,-1.729279E-1,-3.1224407E-2,1.8913817E-1,-1.3335414E-1,7.821015E-2,-1.8460245E-1,1.4451593E-1,7.4644756E-1,-1.2910496E-1,-3.4624707E-2,1.8640348E-1,-1.4569062E-1,8.912607E-2,4.607965E-1,1.2913509E-1,-1.656561E-1,1.5476312E-2,6.2400408E-2,-9.447719E-2,9.970834E-2,-1.2551668E-1,4.764536E-3],"categories":[],"categories_nodes":[],"categories_segments":[],"categories_sizes":[],"default_left":[0,0,0,0,0,0,0,0,0,0,0,0,0,0,0,0,0,0,0,0,0,0,0,0,0,0,0],"id":38,"left_children":[1,3,5,7,-1,-1,9,11,-1,-1,13,15,17,-1,19,21,-1,-1,23,-1,25,-1,-1,-1,-1,-1,-1],"loss_changes":[1.5432615E1,1.2992332E1,3.5726257E1,2.0222557E1,0E0,0E0,1.963974E1,1.0751237E1,0E0,0E0,2.1859884E1,2.7581158E1,7.873287E-1,0E0,2.0612743E1,5.357482E0,0E0,0E0,1.085602E1,0E0,2.5370464E1,0E0,0E0,0E0,0E0,0E0,0E0],"parents":[2147483647,0,0,1,1,2,2,3,3,6,6,7,7,10,10,11,11,12,12,14,14,15,15,18,18,20,20],"right_children":[2,4,6,8,-1,-1,10,12,-1,-1,14,16,18,-1,20,22,-1,-1,24,-1,26,-1,-1,-1,-1,-1,-1],"split_conditions":[8.788672E3,8.784557E3,8.835464E3,8.738848E3,1.2675881E-1,-1.729279E-1,8.841613E3,8.698234E3,-1.3335414E-1,7.821015E-2,8.920189E3,8.669194E3,8.705646E3,-1.2910496E-1,8.923899E3,8.660683E3,-1.4569062E-1,8.912607E-2,8.724986E3,1.2913509E-1,8.975862E3,1.5476312E-2,6.2400408E-2,-9.447719E-2,9.970834E-2,-1.2551668E-1,4.764536E-3],"split_indices":[0,0,0,0,0,0,0,0,0,0,0,0,0,0,0,0,0,0,0,0,0,0,0,0,0,0,0],"split_type":[0,0,0,0,0,0,0,0,0,0,0,0,0,0,0,0,0,0,0,0,0,0,0,0,0,0,0],"sum_hessian":[6.252694E2,4.5703165E2,1.6823772E2,4.4714108E2,9.890574E0,1.2478711E1,1.55759E2,4.3924567E2,7.8954277E0,2.395903E1,1.3179999E2,4.080157E2,3.1229965E1,1.4745006E1,1.1705498E2,3.985374E2,9.478288E0,1.908466E1,1.2145305E1,9.66197E0,1.07393005E2,3.7313998E2,2.539741E1,3.092343E0,9.052961E0,1.6859852E1,9.053315E1],"tree_param":{"num_deleted":"0","num_feature":"1","num_nodes":"27","size_leaf_vector":"1"}},{"base_weights":[1.0771295E-2,-2.3043962E-2,5.1740545E-1,1.05991215E-1,-1.7280747E-1,6.673217E-1,-7.813999E-2,2.5437127E-3,5.951684E-1,-1.1056755E-1,-8.123401E-2,3.6669993E-1,1.2181651E-1,3.347008E-1,-1.2872791E-1,1.4873594E-1,3.481594E-1,8.973246E-2,-1.2548107E-1,8.7855406E-2,1.1418344E-2,8.5074455E-2,4.7431833E-1,-1.4504907E-1,-1.695607E-2,-1.0496352E-1,6.815268E-1,-1.21141426E-1,-5.2556347E-2,-1.08362354E-1,4.528114E-1,2.7635664E-2,-2.6602997E-2,5.750559E-2,1.7765665E-2,3.4023505E-3,-1.1529944E-1,4.260844E-2,1.1706116E-1,-1.156622E-3,-1.0711954E-1,7.670159E-2,-7.0549466E-2],"categories":[],"categories_nodes":[],"categories_segments":[],"categories_sizes":[],"default_left":[0,0,0,0,0,0,0,0,0,0,0,0,0,0,0,0,0,0,0,0,0,0,0,0,0,0,0,0,0,0,0,0,0,0,0,0,0,0,0,0,0,0,0],"id":39,"left_children":[1,3,5,7,9,11,-1,13,15,-1,17,19,-1,21,23,-1,25,-1,27,-1,29,31,33,-1,35,-1,37,-1,39,-1,41,-1,-1,-1,-1,-1,-1,-1,-1,-1,-1,-1,-1],"loss_changes":[9.726253E0,1.02597475E1,7.42727E0,1.4348683E1,2.07943E1,4.7696486E0,0E0,1.036374E1,1.0214855E1,0E0,9.780122E0,4.0010357E0,0E0,2.2529902E0,2.4916824E1,0E0,1.9404863E1,0E0,1.6938913E1,0E0,7.4056525E0,1.7974492E0,1.1002502E0,0E0,9.281891E0,0E0,3.4783773E0,0E0,8.38962E0,0E0,4.572467E0,0E0,0E0,0E0,0E0,0E0,0E0,0E0,0E0,0E0,0E0,0E0,0E0],"parents":[2147483647,0,0,1,1,2,2,3,3,4,4,5,5,7,7,8,8,10,10,11,11,13,13,14,14,16,16,18,18,20,20,21,21,22,22,24,24,26,26,28,28,30,30],"right_children":[2,4,6,8,10,12,-1,14,16,-1,18,20,-1,22,24,-1,26,-1,28,-1,30,32,34,-1,36,-1,38,-1,40,-1,42,-1,-1,-1,-1,-1,-1,-1,-1,-1,-1,-1,-1],"split_conditions":[9.080756E3,8.494298E3,9.162288E3,8.318873E3,8.628474E3,9.154757E3,-7.813999E-2,8.047603E3,8.326347E3,-1.1056755E-1,8.63506E3,9.084115E3,1.2181651E-1,7.978361E3,8.1035845E3,1.4873594E-1,8.394094E3,8.973246E-2,8.666019E3,8.7855406E-2,9.112143E3,7.93536E3,8.0351265E3,-1.4504907E-1,8.310606E3,-1.0496352E-1,8.4628125E3,-1.21141426E-1,9.004434E3,-1.08362354E-1,9.123495E3,2.7635664E-2,-2.6602997E-2,5.750559E-2,1.7765665E-2,3.4023505E-3,-1.1529944E-1,4.260844E-2,1.1706116E-1,-1.156622E-3,-1.0711954E-1,7.670159E-2,-7.0549466E-2],"split_indices":[0,0,0,0,0,0,0,0,0,0,0,0,0,0,0,0,0,0,0,0,0,0,0,0,0,0,0,0,0,0,0,0,0,0,0,0,0,0,0,0,0,0,0],"split_type":[0,0,0,0,0,0,0,0,0,0,0,0,0,0,0,0,0,0,0,0,0,0,0,0,0,0,0,0,0,0,0,0,0,0,0,0,0,0,0,0,0,0,0],"sum_hessian":[5.631439E2,5.2861847E2,3.4525463E1,2.837586E2,2.4485985E2,3.1457626E1,3.0678384E0,2.3522469E2,4.8533916E1,2.0800177E1,2.2405966E2,2.1546118E1,9.911507E0,6.6406975E1,1.688177E2,9.346878E0,3.918704E1,8.761102E0,2.1529857E2,8.109073E0,1.3437046E1,2.4653618E1,4.1753357E1,1.2159002E1,1.566587E2,7.074678E0,3.2112362E1,1.2479613E1,2.0281895E2,3.377161E0,1.0059885E1,1.628127E1,8.37235E0,3.0217031E1,1.15363245E1,1.5077473E2,5.883971E0,2.245833E1,9.654032E0,1.9603981E2,6.7791357E0,8.246946E0,1.8129383E0],"tree_param":{"num_deleted":"0","num_feature":"1","num_nodes":"43","size_leaf_vector":"1"}},{"base_weights":[9.9154934E-2,-2.3525583E-3,2.5863492E-1,3.5456542E-2,-1.4229949E-1,7.804407E-1,1.4761366E-1,2.5783023E-1,-1.3792086E-1,6.08173E-1,9.304311E-2,-9.750649E-2,1.8670438E-1,-1.05471626E-1,3.108067E-1,-2.3890483E-1,5.3910923E-1,9.073842E-2,-9.250525E-2,1.1503416E-1,1.2698616E-1,2.7643582E-1,7.550638E-2,-6.2719814E-2,-1.1218615E-1,7.476366E-2,3.697314E-1,-1.277756E-1,1.9291155E-1,3.129816E-2,-1.8963204E-1,-1.4839681E-2,1.0727018E-1,-9.092807E-2,5.510549E-2,1.0675712E-1,1.3933103E-2],"categories":[],"categories_nodes":[],"categories_segments":[],"categories_sizes":[],"default_left":[0,0,0,0,0,0,0,0,0,0,0,0,0,0,0,0,0,0,0,0,0,0,0,0,0,0,0,0,0,0,0,0,0,0,0,0,0],"id":40,"left_children":[1,3,5,7,-1,9,11,13,15,17,-1,-1,19,-1,21,23,25,-1,-1,-1,27,29,-1,31,-1,-1,33,-1,35,-1,-1,-1,-1,-1,-1,-1,-1],"loss_changes":[9.863304E0,2.0166624E1,1.3506331E1,1.405029E1,0E0,3.432846E-1,8.730957E0,1.1359037E1,1.4078762E1,1.1088938E1,0E0,0E0,1.0712055E1,0E0,2.045186E0,2.7619545E1,5.5555725E-1,0E0,0E0,0E0,1.6898706E1,1.1954122E1,0E0,1.4675836E1,0E0,0E0,4.404683E0,0E0,7.876068E0,0E0,0E0,0E0,0E0,0E0,0E0,0E0,0E0],"parents":[2147483647,0,0,1,1,2,2,3,3,5,5,6,6,7,7,8,8,9,9,12,12,14,14,15,15,16,16,20,20,21,21,23,23,26,26,28,28],"right_children":[2,4,6,8,-1,10,12,14,16,18,-1,-1,20,-1,22,24,26,-1,-1,-1,28,30,-1,32,-1,-1,34,-1,36,-1,-1,-1,-1,-1,-1,-1,-1],"split_conditions":[8.698234E3,8.669194E3,8.746395E3,8.16735E3,-1.4229949E-1,8.724986E3,8.784557E3,7.925111E3,8.660683E3,8.705646E3,