{"learner":{"attributes":{"best_iteration":"296","best_score":"0.16042989644043204","scikit_learn":"{\"_estimator_type\": \"classifier\"}"},"feature_names":[],"feature_types":[],"gradient_booster":{"model":{"gbtree_model_param":{"num_parallel_tree":"1","num_trees":"300"},"iteration_indptr":[0,1,2,3,4,5,6,7,8,9,10,11,12,13,14,15,16,17,18,19,20,21,22,23,24,25,26,27,28,29,30,31,32,33,34,35,36,37,38,39,40,41,42,43,44,45,46,47,48,49,50,51,52,53,54,55,56,57,58,59,60,61,62,63,64,65,66,67,68,69,70,71,72,73,74,75,76,77,78,79,80,81,82,83,84,85,86,87,88,89,90,91,92,93,94,95,96,97,98,99,100,101,102,103,104,105,106,107,108,109,110,111,112,113,114,115,116,117,118,119,120,121,122,123,124,125,126,127,128,129,130,131,132,133,134,135,136,137,138,139,140,141,142,143,144,145,146,147,148,149,150,151,152,153,154,155,156,157,158,159,160,161,162,163,164,165,166,167,168,169,170,171,172,173,174,175,176,177,178,179,180,181,182,183,184,185,186,187,188,189,190,191,192,193,194,195,196,197,198,199,200,201,202,203,204,205,206,207,208,209,210,211,212,213,214,215,216,217,218,219,220,221,222,223,224,225,226,227,228,229,230,231,232,233,234,235,236,237,238,239,240,241,242,243,244,245,246,247,248,249,250,251,252,253,254,255,256,257,258,259,260,261,262,263,264,265,266,267,268,269,270,271,272,273,274,275,276,277,278,279,280,281,282,283,284,285,286,287,288,289,290,291,292,293,294,295,296,297,298,299,300],"tree_info":[0,0,0,0,0,0,0,0,0,0,0,0,0,0,0,0,0,0,0,0,0,0,0,0,0,0,0,0,0,0,0,0,0,0,0,0,0,0,0,0,0,0,0,0,0,0,0,0,0,0,0,0,0,0,0,0,0,0,0,0,0,0,0,0,0,0,0,0,0,0,0,0,0,0,0,0,0,0,0,0,0,0,0,0,0,0,0,0,0,0,0,0,0,0,0,0,0,0,0,0,0,0,0,0,0,0,0,0,0,0,0,0,0,0,0,0,0,0,0,0,0,0,0,0,0,0,0,0,0,0,0,0,0,0,0,0,0,0,0,0,0,0,0,0,0,0,0,0,0,0,0,0,0,0,0,0,0,0,0,0,0,0,0,0,0,0,0,0,0,0,0,0,0,0,0,0,0,0,0,0,0,0,0,0,0,0,0,0,0,0,0,0,0,0,0,0,0,0,0,0,0,0,0,0,0,0,0,0,0,0,0,0,0,0,0,0,0,0,0,0,0,0,0,0,0,0,0,0,0,0,0,0,0,0,0,0,0,0,0,0,0,0,0,0,0,0,0,0,0,0,0,0,0,0,0,0,0,0,0,0,0,0,0,0,0,0,0,0,0,0,0,0,0,0,0,0,0,0,0,0,0,0,0,0,0,0,0,0,0,0,0,0,0,0,0,0,0,0,0,0],"trees":[{"base_weights":[3.1841956E-3,-1.0831896E0,6.623753E-1,-1.4067928E0,-4.2615908E-1,1.6356733E-1,1.2123895E0,-1.5700198E0,-2.6897573E-1,-1.6059985E0,-1.7368363E-1,2.9475955E-2,1.0123082E0,1.7367141E0,1.0912514E0,1.2483068E-1,-1.6595803E0,-1.7666666E-1,-8.387086E-2,-1.9571428E-1,5.8391273E-1,1.0396886E0,-3.1070247E-1,3.2718205E-1,-3.8982674E-1,1.2650661E0,-6.1145896E-1,7.4451053E-1,1.7826198E-1,9.854348E-1,1.519589E0,1.1400126E0,-1.7999999E-1,-1.7885646E0,-1.3086454E0,-1.7E-1,8.029615E-2,1.6525866E-1,-1.4E-1,1.6428365E-1,-1.6181819E-1,-1.9142857E-1,-1.2745902E-1,1.0255622E0,1.7945974E-1,-1.3270279E0,-1.414038E-1,5.87477E-1,1.5608151E0,5.8391273E-1,-1.7529412E-1,1.6525866E-1,-1.3E-1,1.2249188E0,8.4569746E-1,1.5864606E0,1.1010237E0,-1.3E-1,1.4911656E-1,-1.6173579E-1,-1.9880852E-1,4.5966044E-2,-1.6592215E-1,1.4954233E-1,-2.1574093E-2,9.391924E-2,-3.3152595E-2,1.4120279E-1,-5.4336954E-2,3.521748E-2,-8.0997005E-2,-1.5934151E-1,3.754132E-2,-6.420318E-2,2.4915164E-2,1.09665714E-1,-1.664E-1,9.896579E-2,1.7718492E-1,-1.4E-1,1.6525866E-1,1.4544635E-1,9.976327E-2,3.289761E-2,1.092021E-1,8.325358E-2,1.630563E-1,-9.5E-2,1.2630925E-1],"categories":[],"categories_nodes":[],"categories_segments":[],"categories_sizes":[],"default_left":[0,0,0,0,0,0,0,0,0,0,0,0,0,0,0,0,0,0,0,0,0,0,0,0,0,0,0,0,0,0,0,0,0,0,0,0,0,0,0,0,0,0,0,0,0,0,0,0,0,0,0,0,0,0,0,0,0,0,0,0,0,0,0,0,0,0,0,0,0,0,0,0,0,0,0,0,0,0,0,0,0,0,0,0,0,0,0,0,0],"id":0,"left_children":[1,3,5,7,9,11,13,15,17,19,21,23,25,27,29,31,33,-1,35,-1,37,39,41,43,45,47,49,51,-1,53,55,57,-1,59,61,-1,63,-1,-1,-1,-1,-1,65,67,69,71,73,75,77,79,-1,-1,-1,81,83,85,87,-1,-1,-1,-1,-1,-1,-1,-1,-1,-1,-1,-1,-1,-1,-1,-1,-1,-1,-1,-1,-1,-1,-1,-1,-1,-1,-1,-1,-1,-1,-1,-1],"loss_changes":[1.8408673E3,2.0560779E2,4.386059E2,1.2008545E2,9.542093E1,9.5496185E1,4.613562E1,8.658374E1,2.2624928E1,4.476155E1,4.4527485E1,9.084211E1,4.7835854E1,4.838318E0,2.6387451E1,5.9403954E1,2.17771E1,0E0,2.0147411E1,0E0,2.0454914E1,4.6230717E1,7.011706E1,4.3612213E1,6.999463E1,1.8800568E1,2.3033346E1,1.7119125E1,0E0,1.5516418E1,1.3695984E0,1.899461E1,0E0,9.803589E0,9.323509E1,0E0,2.9278303E1,0E0,0E0,0E0,0E0,0E0,4.7407005E1,4.5717926E1,6.051175E1,2.9331558E1,4.7121395E1,3.8371376E1,6.2312317E0,2.0454914E1,0E0,0E0,0E0,7.8015137E0,4.0197906E1,1.7811584E0,7.9239254E0,0E0,0E0,0E0,0E0,0E0,0E0,0E0,0E0,0E0,0E0,0E0,0E0,0E0,0E0,0E0,0E0,0E0,0E0,0E0,0E0,0E0,0E0,0E0,0E0,0E0,0E0,0E0,0E0,0E0,0E0,0E0,0E0],"parents":[2147483647,0,0,1,1,2,2,3,3,4,4,5,5,6,6,7,7,8,8,9,9,10,10,11,11,12,12,13,13,14,14,15,15,16,16,18,18,20,20,21,21,22,22,23,23,24,24,25,25,26,26,27,27,29,29,30,30,31,31,33,33,34,34,36,36,42,42,43,43,44,44,45,45,46,46,47,47,48,48,49,49,53,53,54,54,55,55,56,56],"right_children":[2,4,6,8,10,12,14,16,18,20,22,24,26,28,30,32,34,-1,36,-1,38,40,42,44,46,48,50,52,-1,54,56,58,-1,60,62,-1,64,-1,-1,-1,-1,-1,66,68,70,72,74,76,78,80,-1,-1,-1,82,84,86,88,-1,-1,-1,-1,-1,-1,-1,-1,-1,-1,-1,-1,-1,-1,-1,-1,-1,-1,-1,-1,-1,-1,-1,-1,-1,-1,-1,-1,-1,-1,-1,-1],"split_conditions":[4.1042063E-3,1.5E1,4.0291804E-3,3.8835164E-3,1.358921E-3,2.1682901E2,-1.1151042E3,-1.8273526E2,-2.7139207E-2,1.3604988E2,-3.8275585E-2,-4.5344667E0,3.2980205E-3,7.410729E-3,7.606061E-2,1.3876843E-3,5.387102E-3,-1.7666666E-1,1.7730749E-3,-1.9571428E-1,9.784607E-4,3.7725938E-3,-1.9028872E-2,-3.601498E2,2.3482603E-3,2.593222E-3,5.685772E-3,6.076415E-3,1.7826198E-1,-4.65416E-2,6.556448E-1,-7.137923E-3,-1.7999999E-1,-3.1690545E0,1.0652614E-3,-1.7E-1,1.7814599E-3,1.6525866E-1,-1.4E-1,1.6428365E-1,-1.6181819E-1,-1.9142857E-1,1.7753328E1,-9.432345E-3,3.2384153E-3,5.0862413E-3,-6.1265123E-3,2.3909898E-3,4.4240173E2,5.6333174E-3,-1.7529412E-1,1.6525866E-1,-1.3E-1,8.302848E-3,1.0869565E-2,-4.022891E2,1.5448912E-2,-1.3E-1,1.4911656E-1,-1.6173579E-1,-1.9880852E-1,4.5966044E-2,-1.6592215E-1,1.4954233E-1,-2.1574093E-2,9.391924E-2,-3.3152595E-2,1.4120279E-1,-5.4336954E-2,3.521748E-2,-8.0997005E-2,-1.5934151E-1,3.754132E-2,-6.420318E-2,2.4915164E-2,1.09665714E-1,-1.664E-1,9.896579E-2,1.7718492E-1,-1.4E-1,1.6525866E-1,1.4544635E-1,9.976327E-2,3.289761E-2,1.092021E-1,8.325358E-2,1.630563E-1,-9.5E-2,1.2630925E-1],"split_indices":[5,2,4,5,4,2,2,2,1,2,1,2,4,5,1,4,1,0,4,0,4,5,1,2,4,4,5,5,0,1,1,1,0,2,4,0,4,0,0,0,0,0,2,1,4,5,1,4,2,5,0,0,0,5,1,2,5,0,0,0,0,0,0,0,0,0,0,0,0,0,0,0,0,0,0,0,0,0,0,0,0,0,0,0,0,0,0,0,0],"split_type":[0,0,0,0,0,0,0,0,0,0,0,0,0,0,0,0,0,0,0,0,0,0,0,0,0,0,0,0,0,0,0,0,0,0,0,0,0,0,0,0,0,0,0,0,0,0,0,0,0,0,0,0,0,0,0,0,0,0,0,0,0,0,0,0,0,0,0,0,0,0,0,0,0,0,0,0,0,0,0,0,0,0,0,0,0,0,0,0,0],"sum_hessian":[2.568641E3,9.697155E2,1.5989255E3,6.4884875E2,3.208668E2,8.392704E2,7.596552E2,5.670361E2,8.18127E1,5.554467E1,2.653221E2,7.25761E2,1.1350941E2,1.3991145E2,6.197438E2,2.8384014E1,5.3865204E2,8E0,7.38127E1,4.8E1,7.544671E0,2.6178684E1,2.3914342E2,4.2468887E2,3.010721E2,9.846474E1,1.5044671E1,7.044671E0,1.3286678E2,4.9980566E2,1.19938095E2,1.8884014E1,9.5E0,3.9067868E2,1.4797336E2,6E0,6.78127E1,5.044671E0,2.5E0,2.1678684E1,4.5E0,2.35E1,2.1564342E2,7.299138E1,3.516975E2,6.208934E1,2.3898276E2,3.0928684E1,6.753606E1,7.544671E0,7.5E0,5.044671E0,2E0,1.8104546E2,3.187602E2,1.0080408E2,1.9134014E1,2E0,1.6884014E1,2.1542868E2,1.7525E2,2.4384014E1,1.2358934E2,1.1089342E1,5.6723354E1,3.3973354E1,1.8167006E2,5.869671E1,1.4294671E1,3.0006348E2,5.1634014E1,5.379467E1,8.294671E0,1.045627E2,1.3442006E2,2.5678684E1,5.25E0,1.9884014E1,4.765204E1,2.5E0,5.044671E0,8.717007E1,9.38754E1,1.0378606E2,2.1497415E2,6.794671E0,9.400941E1,1E0,1.8134014E1],"tree_param":{"num_deleted":"0","num_feature":"6","num_nodes":"89","size_leaf_vector":"1"}},{"base_weights":[5.587964E-2,-8.66537E-1,6.8716115E-1,-1.1207323E0,-2.5601542E-2,-1.012264E0,8.103271E-1,-1.8283242E-1,-9.5875967E-1,-3.429531E-1,5.715882E-1,-2.4997705E-1,-1.385201E0,5.266208E-1,1.1520193E0,-1.331697E0,-7.1493655E-1,-1.840825E-1,1.2052781E-2,6.7714953E-1,-1.4898534E-1,-1.6990523E-1,1.6869377E-1,-1.2546827E-1,-1.608023E0,9.39911E-1,3.8391888E-1,1.378433E0,9.1788423E-1,-1.6351871E0,-5.2780676E-1,-1.3930458E0,-5.203638E-1,-1.07293E0,2.669046E-1,-1.3030392E-1,7.555579E-1,1.2748473E0,-6.6990507E-1,-1.6739322E-1,1.4764735E-1,-1.9396564E-1,-2.8814608E-1,1.0751317E0,-6.818234E-1,-5.3713965E-1,6.273509E-1,1.6347454E-1,1.176869E0,3.5264584E-1,1.1063918E0,-1.7229661E-1,-9.307033E-2,1.6544312E-2,-1.8372634E-1,1.0653236E-1,-1.5983729E-1,-9.449477E-2,-2.9543808E-2,1.2689178E-1,-1.7892985E-1,4.4163767E-2,-1.709876E-1,1.08688414E-1,3.0751023E-2,1.6236185E-1,8.278632E-2,-1.7291401E-1,5.074293E-2,1.7225023E-1,-1.7380899E-1,-1.4584777E-1,1.1244414E-1,1.0233668E-1,-1.7922866E-1,7.276545E-3,-1.5330659E-1,3.0146E-2,8.5027665E-2,-1.2788181E-1,1.2069545E-1,9.4455756E-2,-1.17445685E-1,1.1557664E-1,-1.6205397E-1],"categories":[],"categories_nodes":[],"categories_segments":[],"categories_sizes":[],"default_left":[0,0,0,0,0,0,0,0,0,0,0,0,0,0,0,0,0,0,0,0,0,0,0,0,0,0,0,0,0,0,0,0,0,0,0,0,0,0,0,0,0,0,0,0,0,0,0,0,0,0,0,0,0,0,0,0,0,0,0,0,0,0,0,0,0,0,0,0,0,0,0,0,0,0,0,0,0,0,0,0,0,0,0,0,0],"id":1,"left_children":[1,3,5,7,9,11,13,-1,15,17,19,21,23,25,27,29,31,-1,33,35,-1,-1,37,39,41,43,45,47,49,51,53,55,57,59,61,-1,63,65,67,-1,-1,-1,69,71,73,75,77,-1,79,81,83,-1,-1,-1,-1,-1,-1,-1,-1,-1,-1,-1,-1,-1,-1,-1,-1,-1,-1,-1,-1,-1,-1,-1,-1,-1,-1,-1,-1,-1,-1,-1,-1,-1,-1],"loss_changes":[1.5303636E3,2.2811206E2,3.273932E2,9.193005E1,4.735709E1,2.9576714E1,1.4032092E2,0E0,5.9707153E1,8.7044624E1,1.9785233E1,2.2326231E1,1.9486023E1,4.652478E1,3.3453735E1,6.3156036E1,5.2791107E1,0E0,3.6970013E1,1.384317E1,0E0,0E0,2.7671816E1,3.1728287E1,2.546811E1,4.545224E1,1.3363652E2,1.4996338E1,3.434015E1,9.915436E0,6.739668E1,4.720842E1,2.9966522E1,4.4958927E1,3.8120205E1,0E0,1.150396E1,4.1151047E-1,2.2213438E1,0E0,0E0,0E0,4.1703312E1,2.5157425E1,3.2654625E1,7.6018486E1,3.3828278E1,0E0,1.558606E1,7.652736E1,3.479425E1,0E0,0E0,0E0,0E0,0E0,0E0,0E0,0E0,0E0,0E0,0E0,0E0,0E0,0E0,0E0,0E0,0E0,0E0,0E0,0E0,0E0,0E0,0E0,0E0,0E0,0E0,0E0,0E0,0E0,0E0,0E0,0E0,0E0,0E0],"parents":[2147483647,0,0,1,1,2,2,3,3,4,4,5,5,6,6,8,8,9,9,10,10,11,11,12,12,13,13,14,14,15,15,16,16,18,18,19,19,22,22,23,23,24,24,25,25,26,26,27,27,28,28,29,29,30,30,31,31,32,32,33,33,34,34,36,36,37,37,38,38,42,42,43,43,44,44,45,45,46,46,48,48,49,49,50,50],"right_children":[2,4,6,8,10,12,14,-1,16,18,20,22,24,26,28,30,32,-1,34,36,-1,-1,38,40,42,44,46,48,50,52,54,56,58,60,62,-1,64,66,68,-1,-1,-1,70,72,74,76,78,-1,80,82,84,-1,-1,-1,-1,-1,-1,-1,-1,-1,-1,-1,-1,-1,-1,-1,-1,-1,-1,-1,-1,-1,-1,-1,-1,-1,-1,-1,-1,-1,-1,-1,-1,-1,-1],"split_conditions":[4.263268E-3,4.115226E-3,2.955889E-3,1.535155E-3,6.3902745E-3,4.544474E-3,7.322271E-3,-1.8283242E-1,-3.093581E-4,-6.760192E1,1.214757E-2,2.020202E-3,-6.2442184E-3,-6.373626E-3,-5.1964756E1,3.6807563E-3,-5.8191366E0,-1.840825E-1,3.3246938E-3,2.7164386E-3,-1.4898534E-1,-1.6990523E-1,2.1974572E-3,-6.5603103E-3,5.4452275E-3,3.5736206E1,-6.824386E-4,-1.2935324E-2,8.965613E1,-6.6622254E-4,-5.8191366E0,1.8741813E-3,2.956329E-3,1.9632524E-3,5.705655E-3,-1.3030392E-1,-1.5019308E2,-2.4400377E1,2.8024288E-3,-1.6739322E-1,1.4764735E-1,-1.9396564E-1,5.9099244E-3,3.3512064E-3,-1.9042362E-2,4.3997485E-3,4.780745E-3,1.6347454E-1,-1.1151619E-2,4.857316E-3,2.6554698E-2,-1.7229661E-1,-9.307033E-2,1.6544312E-2,-1.8372634E-1,1.0653236E-1,-1.5983729E-1,-9.449477E-2,-2.9543808E-2,1.2689178E-1,-1.7892985E-1,4.4163767E-2,-1.709876E-1,1.08688414E-1,3.0751023E-2,1.6236185E-1,8.278632E-2,-1.7291401E-1,5.074293E-2,1.7225023E-1,-1.7380899E-1,-1.4584777E-1,1.1244414E-1,1.0233668E-1,-1.7922866E-1,7.276545E-3,-1.5330659E-1,3.0146E-2,8.5027665E-2,-1.2788181E-1,1.2069545E-1,9.4455756E-2,-1.17445685E-1,1.1557664E-1,-1.6205397E-1],"split_indices":[5,3,3,3,3,5,5,0,0,2,3,3,0,0,2,5,2,0,5,5,0,0,3,0,0,2,0,0,2,0,2,5,5,5,3,0,2,2,3,0,0,0,0,3,0,3,3,0,0,3,0,0,0,0,0,0,0,0,0,0,0,0,0,0,0,0,0,0,0,0,0,0,0,0,0,0,0,0,0,0,0,0,0,0,0],"split_type":[0,0,0,0,0,0,0,0,0,0,0,0,0,0,0,0,0,0,0,0,0,0,0,0,0,0,0,0,0,0,0,0,0,0,0,0,0,0,0,0,0,0,0,0,0,0,0,0,0,0,0,0,0,0,0,0,0,0,0,0,0,0,0,0,0,0,0,0,0,0,0,0,0,0,0,0,0,0,0,0,0,0,0,0,0],"sum_hessian":[2.6261238E3,1.0668019E3,1.5593219E3,8.188353E2,2.479666E2,1.0483222E2,1.4544896E3,1.5049205E2,6.6834326E2,1.6230798E2,8.565862E1,3.507565E1,6.975657E1,7.962221E2,6.582676E2,2.6228928E2,4.06054E2,3.0349802E1,1.3195818E2,8.217088E1,3.4877403E0,7.230517E0,2.7845133E1,1.0786514E1,5.8970055E1,2.027461E2,5.93476E2,3.3195013E2,3.2631744E2,1.8956493E2,7.272436E1,8.904568E1,3.170083E2,2.4414734E1,1.0754345E2,2.4862828E0,7.96846E1,1.183423E1,1.6010902E1,5.4936976E0,5.292816E0,4.669268E1,1.2277376E1,1.8751016E2,1.5235931E1,1.23725655E2,4.6975037E2,1.4278087E2,1.8916925E2,8.2460754E1,2.438567E2,1.6715028E2,2.2414644E1,4.807165E1,2.465271E1,6.503553E0,8.254212E1,1.0851772E2,2.0849057E2,5.5056267E0,1.8909107E1,9.9569405E1,7.9740386E0,4.4861217E1,3.4823383E1,5.043107E0,6.7911234E0,8.226161E0,7.7847414E0,5.036406E0,7.2409697E0,2.9954114E0,1.8451476E2,6.004304E0,9.231627E0,7.724646E1,4.64792E1,1.9194722E2,2.7780313E2,1.7469424E0,1.8742232E2,5.974881E1,2.2711946E1,2.4012183E2,3.734874E0],"tree_param":{"num_deleted":"0","num_feature":"6","num_nodes":"85","size_leaf_vector":"1"}},{"base_weights":[3.5559658E-2,-9.3764E-1,5.367471E-1,-1.2689878E0,-2.9378775E-1,7.401232E-2,9.6221644E-1,-2.797228E-2,-1.3383939E0,-1.4769772E0,3.8658667E-2,1.676079E-1,-4.3297464E-1,8.5713017E-1,1.4002E0,8.6621004E-1,-1.6633943E-1,-1.3696926E0,1.5569839E-1,-1.7369434E-1,5.586744E-1,-5.9555155E-1,3.5328847E-1,8.3530776E-2,8.700673E-1,1.2520422E0,-8.1567067E-1,1.0726591E0,6.6039133E-1,1.1180838E0,1.4501385E-1,-1.3888058E-1,1.3515179E0,-8.932926E-1,-1.4672927E0,1.4356948E-1,-1.20288216E-1,1.294926E0,-1.1783007E0,6.447018E-1,-1.0954115E0,3.46519E-1,-2.6427892E-1,-1.5269883E-1,9.9457663E-1,1.4706331E0,-1.1737014E-1,-1.8726991E-1,-2.6489818E-1,-1.2296038E-1,1.0866919E0,-1.7913282E-1,7.132009E-1,1.2590643E0,-1.16114795E-1,7.808744E-2,1.5950646E-1,-1.4065738E-1,6.743667E-2,-1.5728442E-1,-7.747904E-2,-1.1675048E-1,1.61862E-1,-2.3639742E-2,-1.83295E-1,8.878304E-2,-7.971869E-2,-1.817436E-1,1.5171573E-1,-1.8174788E-1,4.0049892E-2,-1.3678871E-1,-3.432218E-3,3.6371186E-2,1.3138942E-1,8.6255714E-2,1.6436796E-1,-1.11099295E-1,2.4927085E-2,1.4533536E-1,1.00643E-1,4.0088218E-2,9.711093E-2,1.4302544E-1,5.7926357E-2],"categories":[],"categories_nodes":[],"categories_segments":[],"categories_sizes":[],"default_left":[0,0,0,0,0,0,0,0,0,0,0,0,0,0,0,0,0,0,0,0,0,0,0,0,0,0,0,0,0,0,0,0,0,0,0,0,0,0,0,0,0,0,0,0,0,0,0,0,0,0,0,0,0,0,0,0,0,0,0,0,0,0,0,0,0,0,0,0,0,0,0,0,0,0,0,0,0,0,0,0,0,0,0,0,0],"id":2,"left_children":[1,3,5,7,9,11,13,15,17,19,21,23,25,27,29,31,-1,33,-1,-1,35,37,39,41,43,45,47,49,51,53,-1,-1,55,57,59,-1,-1,61,63,65,67,69,71,-1,73,75,-1,-1,77,-1,79,-1,81,83,-1,-1,-1,-1,-1,-1,-1,-1,-1,-1,-1,-1,-1,-1,-1,-1,-1,-1,-1,-1,-1,-1,-1,-1,-1,-1,-1,-1,-1,-1,-1],"loss_changes":[1.2576528E3,1.864549E2,3.349211E2,4.963391E1,1.17891815E2,3.8790783E1,3.9377502E1,4.791424E1,5.173236E1,3.5867355E1,4.697535E1,4.0592766E1,8.310456E1,2.9552673E1,5.1382446E-1,2.4996056E1,0E0,2.3665955E1,0E0,0E0,1.4349895E1,8.746711E1,6.713745E1,5.659247E1,2.3414059E1,1.4438103E1,6.009359E1,1.2327911E1,5.012039E1,1.1176689E1,0E0,0E0,1.0087624E0,7.740818E1,3.131604E1,0E0,0E0,1.6935284E1,3.6480614E1,4.6914227E1,5.3120678E1,4.173749E1,6.740129E1,0E0,1.3567291E1,6.910095E-1,0E0,0E0,3.0767788E1,0E0,8.273041E0,0E0,2.9345795E1,2.3412895E0,0E0,0E0,0E0,0E0,0E0,0E0,0E0,0E0,0E0,0E0,0E0,0E0,0E0,0E0,0E0,0E0,0E0,0E0,0E0,0E0,0E0,0E0,0E0,0E0,0E0,0E0,0E0,0E0,0E0,0E0,0E0],"parents":[2147483647,0,0,1,1,2,2,3,3,4,4,5,5,6,6,7,7,8,8,9,9,10,10,11,11,12,12,13,13,14,14,15,15,17,17,20,20,21,21,22,22,23,23,24,24,25,25,26,26,27,27,28,28,29,29,32,32,33,33,34,34,37,37,38,38,39,39,40,40,41,41,42,42,44,44,45,45,48,48,50,50,52,52,53,53],"right_children":[2,4,6,8,10,12,14,16,18,20,22,24,26,28,30,32,-1,34,-1,-1,36,38,40,42,44,46,48,50,52,54,-1,-1,56,58,60,-1,-1,62,64,66,68,70,72,-1,74,76,-1,-1,78,-1,80,-1,82,84,-1,-1,-1,-1,-1,-1,-1,-1,-1,-1,-1,-1,-1,-1,-1,-1,-1,-1,-1,-1,-1,-1,-1,-1,-1,-1,-1,-1,-1,-1,-1],"split_conditions":[3.95579E-3,1.5E1,6.3198986E-3,-1.8273526E2,2.956329E-3,3.205734E-3,1.4371072E-2,1.5144133E-3,2.6804432E-3,1.3604988E2,1.6008917E-3,2.0497688E2,-2.8977426E2,-4.139E1,1.5448912E-2,-2.6999008E2,-1.6633943E-1,9.1082486E-4,1.5569839E-1,-1.7369434E-1,9.784607E-4,1.7753328E1,2.1907687E-3,-4.5344667E0,2.0957252E-3,-1.662234E-2,-7.732297E0,6.3817725E-3,-2.4400377E1,7.1615894E2,1.4501385E-1,-1.3888058E-1,1.3744052E-3,3.2586558E-3,2.1147807E-3,1.4356948E-1,-1.20288216E-1,3.152343E-3,3.1654066E-3,8.680134E1,2.9763354E2,-5.5687673E-2,2.0495239E-3,-1.5269883E-1,5.855357E-3,3.8100348E-3,-1.1737014E-1,-1.8726991E-1,5.6333174E-3,-1.2296038E-1,-2.641239E3,-1.7913282E-1,5.149454E-3,-1.625E-2,-1.16114795E-1,7.808744E-2,1.5950646E-1,-1.4065738E-1,6.743667E-2,-1.5728442E-1,-7.747904E-2,-1.1675048E-1,1.61862E-1,-2.3639742E-2,-1.83295E-1,8.878304E-2,-7.971869E-2,-1.817436E-1,1.5171573E-1,-1.8174788E-1,4.0049892E-2,-1.3678871E-1,-3.432218E-3,3.6371186E-2,1.3138942E-1,8.6255714E-2,1.6436796E-1,-1.11099295E-1,2.4927085E-2,1.4533536E-1,1.00643E-1,4.0088218E-2,9.711093E-2,1.4302544E-1,5.7926357E-2],"split_indices":[5,2,5,2,5,4,5,4,4,2,4,2,2,2,5,2,0,4,0,0,4,2,4,2,4,1,2,5,2,2,0,0,4,1,4,0,0,5,5,2,2,1,4,0,1,4,0,0,5,0,2,0,4,1,0,0,0,0,0,0,0,0,0,0,0,0,0,0,0,0,0,0,0,0,0,0,0,0,0,0,0,0,0,0,0],"split_type":[0,0,0,0,0,0,0,0,0,0,0,0,0,0,0,0,0,0,0,0,0,0,0,0,0,0,0,0,0,0,0,0,0,0,0,0,0,0,0,0,0,0,0,0,0,0,0,0,0,0,0,0,0,0,0,0,0,0,0,0,0,0,0,0,0,0,0,0,0,0,0,0,0,0,0,0,0,0,0,0,0,0,0,0,0],"sum_hessian":[2.5765E3,8.754641E2,1.7010359E3,5.772605E2,2.9820364E2,8.155086E2,8.855273E2,3.072509E1,5.465354E2,6.472016E1,2.3348347E2,6.8915027E2,1.2635836E2,7.16743E2,1.6878433E2,2.0128721E1,1.0596369E1,5.412461E2,5.2893314E0,5.7564636E1,7.1555233E0,7.7020294E1,1.5646318E2,6.1660974E2,7.254053E1,2.2917833E1,1.0344053E2,3.3967053E2,3.7707245E2,2.9202644E1,1.3958168E2,3.1985745E0,1.6930145E1,9.3931244E1,4.4731482E2,4.938541E0,2.2169824E0,1.7819366E1,5.9200924E1,1.307801E2,2.5683071E1,3.51285E2,2.6532474E2,2.986039E0,6.955449E1,2.1422365E1,1.4954693E0,3.4550465E1,6.889006E1,1.4898372E0,3.381807E2,7.21673E0,3.698557E2,2.796439E1,1.2382538E0,6.4453006E0,1.0484845E1,7.0887794E1,2.3043453E1,3.8692407E2,6.039077E1,1.7315124E0,1.6087854E1,2.4895441E1,3.4305485E1,1.1229821E2,1.8481901E1,2.039047E1,5.292602E0,7.709208E0,3.435758E2,4.4823677E1,2.2050107E2,2.4198515E1,4.5355976E1,6.199628E0,1.5222736E1,2.5674662E1,4.32154E1,5.743688E1,2.807438E2,1.6861295E2,2.0124277E2,2.1339546E1,6.624843E0],"tree_param":{"num_deleted":"0","num_feature":"6","num_nodes":"85","size_leaf_vector":"1"}},{"base_weights":[3.9878543E-2,-9.1920614E-1,4.6729422E-1,-1.2321424E0,-5.7014495E-1,1.10797614E-1,9.813794E-1,-1.3867763E0,-7.1690196E-1,-1.6707543E-1,-4.1600934E-1,-3.1757376E-1,3.0933726E-1,9.9414927E-1,-1.5631646E-1,-1.175358E0,-1.5304049E0,-1.2263769E-1,-1.6442126E-1,-8.0132306E-1,-6.423852E-2,-1.4883953E-1,-1.82899E-1,8.524986E-1,1.0843139E-1,8.511662E-1,1.2267761E0,-1.2955862E0,9.4788134E-1,-1.62254E-1,-6.411839E-1,-9.5363724E-1,6.501223E-1,1.3635327E-1,-8.89758E-1,1.8751155E-1,-1.7754485E-1,-4.9117085E-1,4.9089888E-1,9.5968705E-1,-5.18918E-1,-5.042798E-1,3.5167935E-1,-1.9185206E-1,8.8763326E-1,1.4041765E-1,9.6859246E-1,-1.596887E-1,-8.422175E-2,-9.5284276E-2,1.6369289E-1,1.24428205E-1,-1.5457611E-1,8.301797E-2,-1.5827815E-1,-1.3382858E-1,1.0268396E-1,-9.779115E-2,1.4300396E-1,1.3782647E-1,7.882594E-3,-1.11955024E-1,1.4664282E-2,6.507539E-2,-1.5525793E-1,1.0105063E-1,-1.5203638E-1,-1.6440026E-1,9.493585E-2,-3.1609427E-2,-1.8102396E-1,4.2439293E-2,-1.840776E-1,-1.7106806E-1,9.08921E-2,1.9498963E-3,1.0382612E-1],"categories":[],"categories_nodes":[],"categories_segments":[],"categories_sizes":[],"default_left":[0,0,0,0,0,0,0,0,0,0,0,0,0,0,0,0,0,0,0,0,0,0,0,0,0,0,0,0,0,0,0,0,0,0,0,0,0,0,0,0,0,0,0,0,0,0,0,0,0,0,0,0,0,0,0,0,0,0,0,0,0,0,0,0,0,0,0,0,0,0,0,0,0,0,0,0,0],"id":3,"left_children":[1,3,5,7,9,11,13,15,17,-1,19,21,23,25,-1,27,29,31,-1,33,35,37,-1,39,41,43,45,47,49,-1,51,53,55,-1,57,59,-1,61,63,65,67,69,71,-1,73,-1,75,-1,-1,-1,-1,-1,-1,-1,-1,-1,-1,-1,-1,-1,-1,-1,-1,-1,-1,-1,-1,-1,-1,-1,-1,-1,-1,-1,-1,-1,-1],"loss_changes":[1.0505242E3,8.540985E1,3.246803E2,3.1902344E1,6.2788376E1,8.923587E1,2.5077637E1,7.598877E0,5.3703953E1,0E0,4.4690918E1,8.426495E1,7.803495E1,2.278717E1,0E0,3.5314255E1,1.3971893E1,3.9794964E1,0E0,3.1342148E1,7.550101E1,6.5950226E1,0E0,2.8952927E1,7.834259E1,4.7166107E1,1.0887665E1,1.5719879E1,1.1688453E1,0E0,3.4730526E1,3.487763E1,2.540149E1,0E0,3.2454147E1,1.9500013E1,0E0,7.883696E1,3.521492E1,2.4131104E1,2.573561E1,3.5923218E1,6.0612915E1,0E0,2.6143768E1,0E0,7.4429855E0,0E0,0E0,0E0,0E0,0E0,0E0,0E0,0E0,0E0,0E0,0E0,0E0,0E0,0E0,0E0,0E0,0E0,0E0,0E0,0E0,0E0,0E0,0E0,0E0,0E0,0E0,0E0,0E0,0E0,0E0],"parents":[2147483647,0,0,1,1,2,2,3,3,4,4,5,5,6,6,7,7,8,8,10,10,11,11,12,12,13,13,15,15,16,16,17,17,19,19,20,20,21,21,23,23,24,24,25,25,26,26,27,27,28,28,30,30,31,31,32,32,34,34,35,35,37,37,38,38,39,39,40,40,41,41,42,42,44,44,46,46],"right_children":[2,4,6,8,10,12,14,16,18,-1,20,22,24,26,-1,28,30,32,-1,34,36,38,-1,40,42,44,46,48,50,-1,52,54,56,-1,58,60,-1,62,64,66,68,70,72,-1,74,-1,76,-1,-1,-1,-1,-1,-1,-1,-1,-1,-1,-1,-1,-1,-1,-1,-1,-1,-1,-1,-1,-1,-1,-1,-1,-1,-1,-1,-1,-1,-1],"split_conditions":[3.1767644E-3,1.6597572E-3,4.104407E-3,2.4892509E-3,1.7734427E-3,2.0957252E-3,2.6554698E-2,-2.810166E0,3.5624476E-3,-1.6707543E-1,4.5756483E0,1.9669516E-3,-6.373626E-3,1.0638298E-2,-1.5631646E-1,-3.1690545E0,2.7657053E-3,3.1284916E-3,-1.6442126E-1,-1.07629E-2,4.6397682E1,5.237987E-3,-1.82899E-1,3.5736206E1,-2.0713337E1,-1.9042362E-2,-6.9829224E2,-3.093581E-4,-4.1955107E-4,-1.62254E-1,2.7826086E-3,2.5462962E-3,1.7734427E-3,1.3635327E-1,5.4491186E-3,1.850917E-3,-1.7754485E-1,9.2678407E-4,5.9099244E-3,3.8611724E-3,3.6047823E-3,-4.274776E1,3.8611724E-3,-1.9185206E-1,-6.9829224E2,1.4041765E-1,-1.70701E-2,-1.596887E-1,-8.422175E-2,-9.5284276E-2,1.6369289E-1,1.24428205E-1,-1.5457611E-1,8.301797E-2,-1.5827815E-1,-1.3382858E-1,1.0268396E-1,-9.779115E-2,1.4300396E-1,1.3782647E-1,7.882594E-3,-1.11955024E-1,1.4664282E-2,6.507539E-2,-1.5525793E-1,1.0105063E-1,-1.5203638E-1,-1.6440026E-1,9.493585E-2,-3.1609427E-2,-1.8102396E-1,4.2439293E-2,-1.840776E-1,-1.7106806E-1,9.08921E-2,1.9498963E-3,1.0382612E-1],"split_indices":[3,4,4,0,3,4,0,2,0,0,2,4,0,3,0,2,3,0,0,0,2,3,0,2,2,0,2,0,0,0,3,0,3,0,4,3,0,0,0,4,4,2,4,0,2,0,0,0,0,0,0,0,0,0,0,0,0,0,0,0,0,0,0,0,0,0,0,0,0,0,0,0,0,0,0,0,0],"split_type":[0,0,0,0,0,0,0,0,0,0,0,0,0,0,0,0,0,0,0,0,0,0,0,0,0,0,0,0,0,0,0,0,0,0,0,0,0,0,0,0,0,0,0,0,0,0,0,0,0,0,0,0,0,0,0,0,0,0,0,0,0,0,0,0,0,0,0,0,0,0,0,0,0,0,0,0,0],"sum_hessian":[2.5607678E3,7.889796E2,1.7717882E3,4.145319E2,3.7444772E2,1.047087E3,7.247011E2,3.17391E2,9.714092E1,4.4709568E1,3.2973816E2,3.3125797E2,7.158291E2,7.217277E2,2.9734068E0,1.3239212E2,1.8499886E2,5.9957455E1,3.7183468E1,1.5662071E2,1.7311743E2,2.9903806E2,3.2219913E1,1.9227118E2,5.235579E2,4.5013998E2,2.7158774E2,1.2571068E2,6.681445E0,1.6678099E2,1.8217867E1,2.8839636E1,3.1117817E1,5.5366344E0,1.5108408E2,1.5164037E2,2.147707E1,1.9505203E2,1.0398602E2,1.7867897E2,1.3592217E1,1.4836383E2,3.751941E2,5.1434283E0,4.4499655E2,1.5811766E2,1.1347008E2,7.387311E1,5.1837574E1,1.6372248E0,5.0442204E0,5.7489295E0,1.2468938E1,7.3947554E0,2.1444881E1,4.5076065E0,2.661021E1,1.461518E2,4.932282E0,1.1629287E1,1.4001108E2,9.795119E1,9.7100845E1,9.711917E1,6.8668523E0,1.7571129E2,2.9676719E0,7.66627E0,5.925947E0,1.3083014E2,1.7533682E1,3.639748E2,1.1219315E1,2.9331074E0,4.4206345E2,7.9454103E0,1.05524666E2],"tree_param":{"num_deleted":"0","num_feature":"6","num_nodes":"77","size_leaf_vector":"1"}},{"base_weights":[1.2352831E-2,-8.987052E-1,3.951547E-1,-1.5167843E-1,-7.564869E-1,1.5844019E-1,8.9744335E-1,-8.0923694E-1,5.7931864E-1,-5.3921956E-1,2.536259E-1,7.918012E-1,1.18242E0,1.513699E-2,-8.7934107E-1,-1.2382579E-1,8.5813916E-1,9.0587837E-1,-8.588777E-1,9.613659E-2,4.738778E-1,1.0193185E0,5.3840226E-1,1.0376222E0,1.375209E-1,6.0519254E-1,-1.4533941E-1,-1.2312046E0,-6.252622E-1,-1.11639224E-1,1.1000319E0,-1.3584547E-1,1.3057686E0,-1.4124306E0,6.317411E-1,-1.8303701E-1,3.1163776E-1,1.048612E0,3.620252E-1,1.0425059E0,-1.3629018E-1,1.209936E-1,9.1977715E-1,1.0922312E0,2.8119138E-1,-1.3399835E-1,1.19755805E-1,-3.4718554E-2,-1.3811348E-1,-5.114878E-2,-1.690676E-1,1.3560383E-1,-1.1116016E-1,1.6113928E-1,-1.2331152E-1,-1.5773402E-1,-8.352034E-2,1.10047534E-1,-1.3950367E-1,-1.3986284E-1,1.5775342E-2,4.397214E-2,-1.2240862E-1,1.1835631E-1,-1.469367E-1,8.0539346E-2,2.0807784E-2,9.2745796E-2,1.3183512E-1,7.664388E-2,-4.332498E-2,9.834711E-2,-1.302843E-1,-1.3468735E-1,1.1450543E-1,1.0816342E-1,-1.5286146E-1],"categories":[],"categories_nodes":[],"categories_segments":[],"categories_sizes":[],"default_left":[0,0,0,0,0,0,0,0,0,0,0,0,0,0,0,0,0,0,0,0,0,0,0,0,0,0,0,0,0,0,0,0,0,0,0,0,0,0,0,0,0,0,0,0,0,0,0,0,0,0,0,0,0,0,0,0,0,0,0,0,0,0,0,0,0,0,0,0,0,0,0,0,0,0,0,0,0],"id":4,"left_children":[1,3,5,-1,7,9,11,13,15,17,19,21,23,25,27,-1,29,31,33,35,37,39,41,43,-1,45,-1,47,49,-1,51,-1,53,55,57,59,61,63,65,67,-1,69,71,73,75,-1,-1,-1,-1,-1,-1,-1,-1,-1,-1,-1,-1,-1,-1,-1,-1,-1,-1,-1,-1,-1,-1,-1,-1,-1,-1,-1,-1,-1,-1,-1,-1],"loss_changes":[8.632097E2,6.299243E1,2.0699161E2,0E0,4.2587738E1,7.886917E1,1.566391E1,3.334204E1,1.2784849E1,6.663801E1,3.6126495E1,2.2952698E1,2.480423E0,4.0613445E1,4.64498E1,0E0,1.1140933E1,2.5543703E1,9.778095E1,3.679961E1,2.7439354E1,1.3258453E1,3.1058376E1,3.2419052E0,0E0,4.023225E1,0E0,2.8658447E1,3.6505447E1,0E0,1.2312851E1,0E0,1.9765415E1,6.6194305E0,3.2299335E1,1.1070082E2,6.834505E1,2.5558907E1,2.469564E1,5.3257446E0,0E0,3.437646E1,1.5743431E1,1.2185242E1,1.2442819E1,0E0,0E0,0E0,0E0,0E0,0E0,0E0,0E0,0E0,0E0,0E0,0E0,0E0,0E0,0E0,0E0,0E0,0E0,0E0,0E0,0E0,0E0,0E0,0E0,0E0,0E0,0E0,0E0,0E0,0E0,0E0,0E0],"parents":[2147483647,0,0,1,1,2,2,4,4,5,5,6,6,7,7,8,8,9,9,10,10,11,11,12,12,13,13,14,14,16,16,17,17,18,18,19,19,20,20,21,21,22,22,23,23,25,25,27,27,28,28,30,30,32,32,33,33,34,34,35,35,36,36,37,37,38,38,39,39,41,41,42,42,43,43,44,44],"right_children":[2,4,6,-1,8,10,12,14,16,18,20,22,24,26,28,-1,30,32,34,36,38,40,42,44,-1,46,-1,48,50,-1,52,-1,54,56,58,60,62,64,66,68,-1,70,72,74,76,-1,-1,-1,-1,-1,-1,-1,-1,-1,-1,-1,-1,-1,-1,-1,-1,-1,-1,-1,-1,-1,-1,-1,-1,-1,-1,-1,-1,-1,-1,-1,-1],"split_conditions":[3.117963E-3,1.535155E-3,4.801252E-3,-1.5167843E-1,3.8100348E-3,1.6008917E-3,9.161249E-3,9.1082486E-4,2.4883358E-3,-1.8273526E2,5.4788515E-3,-2.4421779E-3,2.1643203E-2,1.5266821E-1,1.6288162E-3,-1.2382579E-1,-2.4400377E1,6.012855E-3,9.647553E1,2.4779665E-3,5.705655E-3,1.4896138E3,7.505254E-3,1.7254902E-2,1.375209E-1,-6.824386E-4,-1.4533941E-1,1.629802E-3,2.914077E-3,-1.11639224E-1,1.0542832E1,-1.3584547E-1,7.0433556E-3,2.3419203E-3,4.5740423E-3,3.6488026E-3,5.087882E-3,5.6726094E-3,-1.0087195E-2,1.4216923E-2,-1.3629018E-1,5.2025854E-3,2.6554698E-2,-8.5362976E2,-2.8102636E-2,-1.3399835E-1,1.19755805E-1,-3.4718554E-2,-1.3811348E-1,-5.114878E-2,-1.690676E-1,1.3560383E-1,-1.1116016E-1,1.6113928E-1,-1.2331152E-1,-1.5773402E-1,-8.352034E-2,1.10047534E-1,-1.3950367E-1,-1.3986284E-1,1.5775342E-2,4.397214E-2,-1.2240862E-1,1.1835631E-1,-1.469367E-1,8.0539346E-2,2.0807784E-2,9.2745796E-2,1.3183512E-1,7.664388E-2,-4.332498E-2,9.834711E-2,-1.302843E-1,-1.3468735E-1,1.1450543E-1,1.0816342E-1,-1.5286146E-1],"split_indices":[3,3,4,0,4,4,4,4,3,2,3,0,3,2,4,0,2,3,2,4,3,2,0,3,0,0,0,3,4,0,2,0,3,0,3,3,3,0,0,3,0,3,0,2,0,0,0,0,0,0,0,0,0,0,0,0,0,0,0,0,0,0,0,0,0,0,0,0,0,0,0,0,0,0,0,0,0],"split_type":[0,0,0,0,0,0,0,0,0,0,0,0,0,0,0,0,0,0,0,0,0,0,0,0,0,0,0,0,0,0,0,0,0,0,0,0,0,0,0,0,0,0,0,0,0,0,0,0,0,0,0,0,0,0,0,0,0,0,0,0,0,0,0,0,0,0,0,0,0,0,0,0,0,0,0,0,0],"sum_hessian":[2.473246E3,7.3125946E2,1.7419866E3,1.3484709E2,5.964124E2,1.1850298E3,5.569567E2,5.742064E2,2.2205965E1,1.4158357E2,1.0434463E3,4.0934143E2,1.4761531E2,4.495268E1,5.292538E2,2.4480295E0,1.9757936E1,2.5256817E1,1.1632675E2,6.095109E2,4.339353E2,2.1388498E2,1.9545644E2,8.824105E1,5.9374264E1,3.253579E1,1.2416887E1,2.2014476E2,3.09109E2,1.7166388E0,1.8041298E1,3.393631E0,2.1863186E1,8.491313E1,3.1413616E1,2.6539212E2,3.441188E2,6.918285E1,3.6475247E2,2.1242174E2,1.4632462E0,9.407373E1,1.0138271E2,8.176226E1,6.478786E0,7.261147E0,2.5274643E1,3.250009E1,1.8764467E2,2.807066E2,2.8402407E1,1.6556847E1,1.4844517E0,1.9875347E1,1.9878399E0,6.456232E1,2.0350817E1,2.5924429E1,5.489188E0,5.7495697E1,2.0789642E2,3.1834662E2,2.5772194E1,6.620431E1,2.9785502E0,9.275035E1,2.720021E2,1.5323581E2,5.918592E1,4.3367546E1,5.0706184E1,9.9144035E1,2.2386749E0,1.1737437E0,8.058852E1,4.8093185E0,1.6694676E0],"tree_param":{"num_deleted":"0","num_feature":"6","num_nodes":"77","size_leaf_vector":"1"}},{"base_weights":[-3.1930085E-2,-7.5563335E-1,3.664382E-1,-9.617752E-1,-2.4908935E-1,1.6595268E-1,8.876514E-1,-1.2696854E0,-4.9732685E-1,-4.9442537E-2,-1.6276632E-1,5.83862E-1,-1.9006284E-4,9.087396E-1,-1.4260477E-1,3.0268288E-1,-1.3416262E0,-2.7479503E-1,-1.6367021E-1,-7.845979E-1,2.8218335E-1,6.921309E-1,-6.225264E-1,-1.7545126E-1,6.037033E-1,7.581434E-1,1.214342E0,-1.4460035E-1,1.0552846E0,-1.3786288E0,4.1305545E-1,3.2918128E-1,-6.4733225E-1,-1.0176533E0,1.3329086E0,-2.933873E-1,9.0789604E-1,8.7251115E-1,9.799111E-2,5.071363E-1,-1.7694105E-1,-7.5257933E-1,1.576353E-2,-2.631183E-1,7.8671235E-1,9.897436E-1,4.5685312E-1,1.2360802E0,5.9816964E-2,-8.4549055E-2,1.3434039E-1,-9.4588E-2,-1.4310054E-1,1.2761773E-1,-1.2111234E-1,-1.5458519E-2,1.4135377E-1,-1.3233945E-1,1.9624453E-2,-3.2626256E-2,-1.581678E-1,-8.686031E-2,1.936661E-1,1.0696804E-1,-7.5368755E-2,1.4887784E-1,1.2949918E-2,-1.2705475E-1,8.999529E-2,-1.8298459E-1,4.9539935E-2,-1.4330997E-1,9.4617605E-2,-1.8608274E-3,-1.0356691E-1,1.2672739E-1,-7.7728527E-3,7.483895E-2,-1.8783087E-1,1.09180324E-1,2.4236413E-2,1.092423E-1,2.6233334E-2,-1.04022615E-1,6.7100696E-2,1.3194351E-1,9.907841E-2],"categories":[],"categories_nodes":[],"categories_segments":[],"categories_sizes":[],"default_left":[0,0,0,0,0,0,0,0,0,0,0,0,0,0,0,0,0,0,0,0,0,0,0,0,0,0,0,0,0,0,0,0,0,0,0,0,0,0,0,0,0,0,0,0,0,0,0,0,0,0,0,0,0,0,0,0,0,0,0,0,0,0,0,0,0,0,0,0,0,0,0,0,0,0,0,0,0,0,0,0,0,0,0,0,0,0,0],"id":5,"left_children":[1,3,5,7,9,11,13,15,17,19,-1,21,23,25,-1,27,29,31,-1,33,35,37,39,41,43,45,47,-1,49,51,53,55,57,59,61,63,65,67,69,71,-1,73,75,77,79,81,83,85,-1,-1,-1,-1,-1,-1,-1,-1,-1,-1,-1,-1,-1,-1,-1,-1,-1,-1,-1,-1,-1,-1,-1,-1,-1,-1,-1,-1,-1,-1,-1,-1,-1,-1,-1,-1,-1,-1,-1],"loss_changes":[6.9033496E2,8.841135E1,1.6111575E2,8.553363E1,6.784068E1,7.758953E1,2.215744E1,4.1490784E1,6.0835907E1,5.3221897E1,0E0,4.194925E1,8.471541E1,1.8460266E1,0E0,2.3340927E1,2.3175293E1,4.6173485E1,0E0,3.4821156E1,5.4462555E1,3.1131989E1,3.551774E1,6.8595764E1,2.8814926E1,1.948935E1,9.329834E-1,0E0,7.8819065E0,6.110779E0,1.2589639E1,4.1488483E1,7.262536E1,2.3375294E1,1.1252884E1,5.03202E1,3.2357975E1,1.427298E1,5.387038E1,1.33575325E1,0E0,3.2008537E1,5.4878544E1,5.3854027E1,2.4342834E1,1.1655685E1,4.1425945E1,1.1756592E0,0E0,0E0,0E0,0E0,0E0,0E0,0E0,0E0,0E0,0E0,0E0,0E0,0E0,0E0,0E0,0E0,0E0,0E0,0E0,0E0,0E0,0E0,0E0,0E0,0E0,0E0,0E0,0E0,0E0,0E0,0E0,0E0,0E0,0E0,0E0,0E0,0E0,0E0,0E0],"parents":[2147483647,0,0,1,1,2,2,3,3,4,4,5,5,6,6,7,7,8,8,9,9,11,11,12,12,13,13,15,15,16,16,17,17,19,19,20,20,21,21,22,22,23,23,24,24,25,25,26,26,28,28,29,29,30,30,31,31,32,32,33,33,34,34,35,35,36,36,37,37,38,38,39,39,41,41,42,42,43,43,44,44,45,45,46,46,47,47],"right_children":[2,4,6,8,10,12,14,16,18,20,-1,22,24,26,-1,28,30,32,-1,34,36,38,40,42,44,46,48,-1,50,52,54,56,58,60,62,64,66,68,70,72,-1,74,76,78,80,82,84,86,-1,-1,-1,-1,-1,-1,-1,-1,-1,-1,-1,-1,-1,-1,-1,-1,-1,-1,-1,-1,-1,-1,-1,-1,-1,-1,-1,-1,-1,-1,-1,-1,-1,-1,-1,-1,-1,-1,-1],"split_conditions":[2.0957252E-3,2.4271845E-3,5.3342395E-3,1.6182419E-3,5.9099244E-3,-5.203962E-3,2.6554698E-2,-2.1091263E2,1.9669516E-3,-1.8578727E-3,-1.6276632E-1,5.503159E1,1.2918944E2,9.161249E-3,-1.4260477E-1,-5.9352214E-3,1.3604988E2,-3.2697395E1,-1.6367021E-1,2.0364823E-3,2.722606E1,1.1614402E-3,-1.70701E-2,-6.6622254E-4,2.538892E-3,-2.5888444E-3,2.0630887E-2,-1.4460035E-1,-2.6999008E2,-2.0554984E-2,9.784607E-4,-4.139E1,1.6159035E1,3.22841E-3,4.095004E-3,1.0652614E-3,4.4990986E1,2.146074E-3,1.4043657E-2,-2.2698436E-2,-1.7694105E-1,2.3207972E-3,2.126198E-3,2.2078669E-3,3.2980205E-3,1.2918944E2,2.2148394E-3,1.6002155E2,5.9816964E-2,-8.4549055E-2,1.3434039E-1,-9.4588E-2,-1.4310054E-1,1.2761773E-1,-1.2111234E-1,-1.5458519E-2,1.4135377E-1,-1.3233945E-1,1.9624453E-2,-3.2626256E-2,-1.581678E-1,-8.686031E-2,1.936661E-1,1.0696804E-1,-7.5368755E-2,1.4887784E-1,1.2949918E-2,-1.2705475E-1,8.999529E-2,-1.8298459E-1,4.9539935E-2,-1.4330997E-1,9.4617605E-2,-1.8608274E-3,-1.0356691E-1,1.2672739E-1,-7.7728527E-3,7.483895E-2,-1.8783087E-1,1.09180324E-1,2.4236413E-2,1.092423E-1,2.6233334E-2,-1.04022615E-1,6.7100696E-2,1.3194351E-1,9.907841E-2],"split_indices":[4,0,4,4,0,0,0,2,4,1,0,2,2,4,0,0,2,2,0,4,2,1,0,0,4,0,0,0,2,1,4,2,2,0,0,4,2,4,1,0,0,4,4,4,4,2,0,2,0,0,0,0,0,0,0,0,0,0,0,0,0,0,0,0,0,0,0,0,0,0,0,0,0,0,0,0,0,0,0,0,0,0,0,0,0,0,0],"split_type":[0,0,0,0,0,0,0,0,0,0,0,0,0,0,0,0,0,0,0,0,0,0,0,0,0,0,0,0,0,0,0,0,0,0,0,0,0,0,0,0,0,0,0,0,0,0,0,0,0,0,0,0,0,0,0,0,0,0,0,0,0,0,0,0,0,0,0,0,0,0,0,0,0,0,0,0,0,0,0,0,0,0,0,0,0,0,0],"sum_hessian":[2.392403E3,8.491439E2,1.543259E3,6.02753E2,2.4639091E2,1.1156375E3,4.276216E2,3.6128607E2,2.4146692E2,2.1619035E2,3.0200558E1,3.1681653E2,7.98821E2,4.244038E2,3.217778E0,1.5605612E1,3.4568048E2,2.031237E2,3.8343224E1,6.687533E1,1.4931503E2,2.9119226E2,2.562426E1,6.198143E2,1.7900668E2,2.868544E2,1.3754944E2,4.378308E0,1.1227304E1,3.38807E2,6.8734627E0,7.743312E1,1.25690575E2,6.0755173E1,6.1201587E0,7.796715E1,7.134788E1,2.2288713E2,6.830514E1,1.314614E1,1.2478119E1,1.5365054E2,4.6616373E2,3.103332E1,1.4797337E2,1.607047E2,1.261497E2,1.3173361E2,5.8158226E0,1.1775035E0,1.0049801E1,3.8843185E1,2.9996384E2,4.668408E0,2.2050545E0,5.4074127E1,2.3358995E1,6.952299E1,5.6167595E1,2.8084488E1,3.2670685E1,1.1871288E0,4.9330297E0,1.929337E1,5.8673775E1,4.0261475E1,3.1086407E1,2.1991677E0,2.2068796E2,1.1015004E1,5.7290134E1,1.9659843E0,1.1180156E1,4.316221E1,1.10488335E2,3.160502E1,4.3455872E2,1.9374712E1,1.16586075E1,9.406394E1,5.3909424E1,1.4026584E2,2.0438847E1,1.524595E1,1.1090375E2,9.474972E1,3.6983894E1],"tree_param":{"num_deleted":"0","num_feature":"6","num_nodes":"87","size_leaf_vector":"1"}},{"base_weights":[3.8902458E-2,-7.08486E-1,4.153934E-1,-1.0420284E0,-3.481746E-1,1.510601E-1,7.6554567E-1,8.257022E-1,-1.0741403E0,-8.346323E-1,2.7705064E-1,-4.2253408E-1,2.91687E-1,-1.4461131E-1,7.8338724E-1,-9.024518E-2,1.3723531E-1,-1.3901803E-1,-9.436675E-1,4.1106343E-1,-1.0863067E0,4.1045913E-1,-1.5176286E-1,-1.00957796E-1,-1.669583E-1,3.2044473E-1,-1.6586071E-1,1.4600184E0,7.423572E-1,-2.464383E-1,-1.1084311E0,-1.4068322E-1,7.6048666E-1,5.938154E-1,-1.3506063E0,-4.7879472E-1,7.833533E-1,-1.4855367E-1,9.629136E-2,3.5019526E-1,-9.6062547E-1,1.5394914E-1,8.526533E-2,-1.6053921E-1,7.5935864E-1,-9.11892E-2,1.0556511E-1,-6.110217E-2,-1.3719791E-1,1.1719885E-1,-1.4937297E-1,-1.2856328E-1,1.4457926E-1,-1.4563298E-1,-3.1581589E-3,-1.01961255E-1,1.1301567E-1,1.0512417E-1,-4.4585505E-4,-7.799646E-2,5.312782E-2,1.731387E-2,5.6877833E-2,-1.924709E-1,2.7126187E-2,6.1807033E-2,1.0059396E-1],"categories":[],"categories_nodes":[],"categories_segments":[],"categories_sizes":[],"default_left":[0,0,0,0,0,0,0,0,0,0,0,0,0,0,0,0,0,0,0,0,0,0,0,0,0,0,0,0,0,0,0,0,0,0,0,0,0,0,0,0,0,0,0,0,0,0,0,0,0,0,0,0,0,0,0,0,0,0,0,0,0,0,0,0,0,0,0],"id":6,"left_children":[1,3,5,7,9,11,13,15,17,19,21,23,25,-1,27,-1,-1,-1,29,31,33,35,-1,37,-1,39,-1,41,43,45,47,-1,49,51,53,55,57,-1,59,61,63,-1,-1,-1,65,-1,-1,-1,-1,-1,-1,-1,-1,-1,-1,-1,-1,-1,-1,-1,-1,-1,-1,-1,-1,-1,-1],"loss_changes":[6.823804E2,9.712537E1,1.4906741E2,2.6173676E1,1.1955751E2,7.435409E1,2.8426361E1,8.495388E0,1.5549225E1,6.976495E1,4.175568E1,7.2438E1,4.1897263E1,0E0,1.7810425E1,0E0,0E0,0E0,3.3683197E1,2.5006975E1,8.263013E1,5.3852463E1,0E0,3.999615E1,0E0,2.8099945E1,0E0,2.9151917E-1,2.7131989E1,5.1313713E1,3.037796E1,0E0,3.1762583E1,4.2975414E1,2.203888E1,4.3048664E1,2.4172577E1,0E0,4.923863E1,2.7472015E1,2.0592909E1,0E0,0E0,0E0,2.1769165E1,0E0,0E0,0E0,0E0,0E0,0E0,0E0,0E0,0E0,0E0,0E0,0E0,0E0,0E0,0E0,0E0,0E0,0E0,0E0,0E0,0E0,0E0],"parents":[2147483647,0,0,1,1,2,2,3,3,4,4,5,5,6,6,7,7,8,8,9,9,10,10,11,11,12,12,14,14,18,18,19,19,20,20,21,21,23,23,25,25,27,27,28,28,29,29,30,30,32,32,33,33,34,34,35,35,36,36,38,38,39,39,40,40,44,44],"right_children":[2,4,6,8,10,12,14,16,18,20,22,24,26,-1,28,-1,-1,-1,30,32,34,36,-1,38,-1,40,-1,42,44,46,48,-1,50,52,54,56,58,-1,60,62,64,-1,-1,-1,66,-1,-1,-1,-1,-1,-1,-1,-1,-1,-1,-1,-1,-1,-1,-1,-1,-1,-1,-1,-1,-1,-1],"split_conditions":[2.0957252E-3,2.7657053E-3,4.0291804E-3,-4.9043063E-2,7.980492E-3,3.1347962E-3,2.955889E-3,-5.0917506E-2,1.535155E-3,-1.8273526E2,1.9669516E-3,1.2420907E1,3.924333E-3,-1.4461131E-1,3.301783E-3,-9.024518E-2,1.3723531E-1,-1.3901803E-1,1.0652614E-3,6.2808436E-3,2.8688523E-3,1.6008917E-3,-1.5176286E-1,1.8419033E-3,-1.669583E-1,4.3108683E-2,-1.6586071E-1,2.2672876E1,4.104407E-3,5.14259E-3,-1.0296412E-2,-1.4068322E-1,8.115686E-3,1.2420907E1,2.0495239E-3,1.3604988E2,1.8445746E-3,-1.4855367E-1,-9.439515E0,5.4788515E-3,5.1357403E-2,1.5394914E-1,8.526533E-2,-1.6053921E-1,1.1608624E-2,-9.11892E-2,1.0556511E-1,-6.110217E-2,-1.3719791E-1,1.1719885E-1,-1.4937297E-1,-1.2856328E-1,1.4457926E-1,-1.4563298E-1,-3.1581589E-3,-1.01961255E-1,1.1301567E-1,1.0512417E-1,-4.4585505E-4,-7.799646E-2,5.312782E-2,1.731387E-2,5.6877833E-2,-1.924709E-1,2.7126187E-2,6.1807033E-2,1.0059396E-1],"split_indices":[4,3,4,1,1,3,3,1,3,2,4,2,4,0,3,0,0,0,4,3,3,4,0,3,0,1,0,2,4,1,1,0,3,2,4,2,4,0,2,3,1,0,0,0,3,0,0,0,0,0,0,0,0,0,0,0,0,0,0,0,0,0,0,0,0,0,0],"split_type":[0,0,0,0,0,0,0,0,0,0,0,0,0,0,0,0,0,0,0,0,0,0,0,0,0,0,0,0,0,0,0,0,0,0,0,0,0,0,0,0,0,0,0,0,0,0,0,0,0,0,0,0,0,0,0,0,0,0,0,0,0,0,0,0,0,0,0],"sum_hessian":[2.4231357E3,8.113474E2,1.6117882E3,4.2019803E2,3.9114938E2,9.194235E2,6.923647E2,6.6319885E0,4.1356604E2,2.1988919E2,1.712602E2,1.8049562E2,7.3892786E2,4.8551636E0,6.875095E2,1.3933421E0,5.2386465E0,1.1780047E2,2.9576556E2,3.678522E1,1.8310397E2,1.6018013E2,1.1080069E1,1.4441618E2,3.6079433E1,7.290646E2,9.863319E0,3.718959E1,6.5031995E2,5.712649E1,2.3863908E2,5.396623E0,3.13886E1,2.4667896E1,1.5843607E2,4.716114E1,1.1301899E2,1.725705E1,1.2715914E2,7.133041E2,1.5760487E1,3.1383717E1,5.8058734E0,3.9615126E0,6.4635846E2,3.8054565E1,1.9071926E1,8.3930336E1,1.5470874E2,2.6986694E1,4.401905E0,7.4989524E0,1.7168943E1,1.4651276E2,1.1923308E1,3.561746E1,1.1543679E1,8.418514E1,2.8833843E1,4.1843945E1,8.531519E1,3.9532925E2,3.1797482E2,8.571299E0,7.1891875E0,4.1339783E2,2.329606E2],"tree_param":{"num_deleted":"0","num_feature":"6","num_nodes":"67","size_leaf_vector":"1"}},{"base_weights":[1.5813237E-2,-7.709619E-1,3.328694E-1,-1.3431555E-1,-6.464564E-1,-4.6053252E-1,5.1051927E-1,-5.49739E-1,-1.2147977E0,-8.765065E-1,2.9645238E-2,3.8225153E-1,8.6023945E-1,-6.5637743E-1,2.261772E-1,-1.5751609E-1,1.065703E0,-1.2261999E0,-2.9890431E-2,1.2523122E0,-1.6283204E-1,8.1381094E-1,3.292202E-1,1.1500231E0,7.627746E-1,5.926057E-1,-7.3478544E-1,-1.4061375E-1,7.021799E-1,1.3393734E-1,6.6097304E-2,6.201455E-1,-1.377151E0,4.6566552E-1,-7.798199E-1,-1.1078205E-1,1.6651516E-1,-1.5522052E-1,9.591364E-2,8.674808E-1,-1.4017765E-1,-1.8683806E-1,3.4136415E-1,1.215046E-1,9.1833526E-1,-7.911132E-2,8.3308995E-1,1.21552505E-1,-1.351504E-1,-4.9621113E-2,-1.0681615E-1,1.05682984E-1,-1.3557167E-1,1.8462265E-1,-1.1572855E-1,-1.5185988E-1,-1.961151E-2,7.699304E-2,-1.3270102E-1,7.782549E-2,-1.5089509E-1,3.5925206E-2,-1.5388279E-1,-1.4101165E-2,9.584717E-2,2.9498387E-2,9.071345E-2,3.8438853E-2,1.05904154E-1,-9.737793E-2,1.03439845E-1,1.18043564E-1,7.537194E-2],"categories":[],"categories_nodes":[],"categories_segments":[],"categories_sizes":[],"default_left":[0,0,0,0,0,0,0,0,0,0,0,0,0,0,0,0,0,0,0,0,0,0,0,0,0,0,0,0,0,0,0,0,0,0,0,0,0,0,0,0,0,0,0,0,0,0,0,0,0,0,0,0,0,0,0,0,0,0,0,0,0,0,0,0,0,0,0,0,0,0,0,0,0],"id":7,"left_children":[1,3,5,-1,7,9,11,13,15,17,19,21,23,25,27,-1,29,31,33,35,37,39,41,43,45,47,49,-1,51,-1,-1,53,55,57,59,-1,-1,-1,61,63,-1,-1,65,-1,67,69,71,-1,-1,-1,-1,-1,-1,-1,-1,-1,-1,-1,-1,-1,-1,-1,-1,-1,-1,-1,-1,-1,-1,-1,-1,-1,-1],"loss_changes":[5.934371E2,4.7610565E1,2.3926344E2,0E0,3.0116486E1,6.345617E1,6.172711E1,4.0181854E1,6.824184E1,4.9633484E1,3.4076614E1,2.2874573E1,9.408966E0,4.2097687E1,4.6781357E1,0E0,1.9980621E-1,3.4074448E1,1.907808E1,2.1094767E1,4.514901E1,1.4280991E1,2.4687294E1,4.385376E-2,1.676561E1,3.2630585E1,3.11819E1,0E0,3.527869E1,0E0,0E0,2.3186138E1,1.7956085E1,1.7775015E1,2.4487839E1,0E0,0E0,0E0,4.609432E1,1.0161728E1,0E0,0E0,2.3301674E1,0E0,1.2820969E0,2.3367119E1,6.067627E0,0E0,0E0,0E0,0E0,0E0,0E0,0E0,0E0,0E0,0E0,0E0,0E0,0E0,0E0,0E0,0E0,0E0,0E0,0E0,0E0,0E0,0E0,0E0,0E0,0E0,0E0],"parents":[2147483647,0,0,1,1,2,2,4,4,5,5,6,6,7,7,8,8,9,9,10,10,11,11,12,12,13,13,14,14,16,16,17,17,18,18,19,19,20,20,21,21,22,22,23,23,24,24,25,25,26,26,28,28,31,31,32,32,33,33,34,34,38,38,39,39,42,42,44,44,45,45,46,46],"right_children":[2,4,6,-1,8,10,12,14,16,18,20,22,24,26,28,-1,30,32,34,36,38,40,42,44,46,48,50,-1,52,-1,-1,54,56,58,60,-1,-1,-1,62,64,-1,-1,66,-1,68,70,72,-1,-1,-1,-1,-1,-1,-1,-1,-1,-1,-1,-1,-1,-1,-1,-1,-1,-1,-1,-1,-1,-1,-1,-1,-1,-1],"split_conditions":[3.1767644E-3,1.535155E-3,4.1042063E-3,-1.3431555E-1,2.8688523E-3,2.722606E1,8.919183E-3,2.7472528E-3,8.0895955E-3,5.5350554E-3,3.267974E-3,-1.2935324E-2,-1.1151042E3,-6.2442184E-3,-8.873382E0,-1.5751609E-1,8.302848E-3,3.2176122E-3,-1.8273526E2,2.254283E-3,3.8409398E-3,4.0925165E2,-1.1151042E3,-1.70701E-2,-1.5693659E-2,2.270382E-3,2.1974572E-3,-1.4061375E-1,4.463032E-3,1.3393734E-1,6.6097304E-2,-3.343893E-3,4.0287E-3,8.984978E-3,5.586592E-3,-1.1078205E-1,1.6651516E-1,-1.5522052E-1,5.6726094E-3,5.0345114E-3,-1.4017765E-1,-1.8683806E-1,5.83926E2,1.215046E-1,1.7254902E-2,1.8649949E-2,4.8258496E-3,1.21552505E-1,-1.351504E-1,-4.9621113E-2,-1.0681615E-1,1.05682984E-1,-1.3557167E-1,1.8462265E-1,-1.1572855E-1,-1.5185988E-1,-1.961151E-2,7.699304E-2,-1.3270102E-1,7.782549E-2,-1.5089509E-1,3.5925206E-2,-1.5388279E-1,-1.4101165E-2,9.584717E-2,2.9498387E-2,9.071345E-2,3.8438853E-2,1.05904154E-1,-9.737793E-2,1.03439845E-1,1.18043564E-1,7.537194E-2],"split_indices":[3,3,5,0,3,2,5,3,5,3,3,0,2,0,2,0,5,3,2,0,3,2,2,0,0,3,3,0,5,0,0,0,5,3,3,0,0,0,0,5,0,0,2,0,3,5,3,0,0,0,0,0,0,0,0,0,0,0,0,0,0,0,0,0,0,0,0,0,0,0,0,0,0],"split_type":[0,0,0,0,0,0,0,0,0,0,0,0,0,0,0,0,0,0,0,0,0,0,0,0,0,0,0,0,0,0,0,0,0,0,0,0,0,0,0,0,0,0,0,0,0,0,0,0,0,0,0,0,0,0,0,0,0,0,0,0,0,0,0,0,0,0,0,0,0,0,0,0,0],"sum_hessian":[2.3771108E3,6.8228156E2,1.6948292E3,1.2003625E2,5.622453E2,3.0966763E2,1.3851616E3,4.8231128E2,7.993403E1,1.6719702E2,1.4247063E2,1.01519495E3,3.6996664E2,4.2428268E2,5.802858E1,6.933147E1,1.0602566E1,1.17922745E2,4.9274265E1,1.8699524E1,1.2377111E2,1.0932185E2,9.0587305E2,9.013899E1,2.7982767E2,2.4599337E1,3.9968335E2,1.2612724E1,4.5415855E1,4.8003097E0,5.8022556E0,8.627349E0,1.09295395E2,2.9816881E1,1.9457386E1,2.4972916E0,1.6202232E1,1.8707254E1,1.0506385E2,1.07374435E2,1.9474128E0,4.0930676E0,9.0178E2,6.67342E1,2.3404799E1,2.1450735E1,2.5837692E2,1.8952803E1,5.6465344E0,2.3459108E2,1.6509227E2,3.919601E1,6.219844E0,5.115918E0,3.5114307E0,9.727472E1,1.2020681E1,2.6025888E1,3.7909925E0,6.137558E0,1.3319829E1,9.1212036E1,1.3851817E1,8.749631E0,9.862481E1,8.350251E2,6.6754906E1,5.807869E0,1.759693E1,1.2013545E1,9.43719E0,4.524421E1,2.131327E2],"tree_param":{"num_deleted":"0","num_feature":"6","num_nodes":"73","size_leaf_vector":"1"}},{"base_weights":[3.667173E-2,-7.0435226E-1,3.1325862E-1,-1.3190083E-1,-5.416565E-1,1.8404225E-1,7.5805676E-1,-4.8040542E-1,-1.4312463E-1,-7.548542E-1,2.3117821E-1,6.6659373E-1,9.8956305E-1,-6.760401E-1,-8.427954E-2,8.914164E-1,-1.1318108E0,5.153048E-1,1.236786E-1,6.889564E-1,-1.4435224E-1,8.6559486E-1,1.14514135E-1,8.4972566E-1,-7.5953007E-1,-1.3168745E-1,1.112216E-1,-8.416748E-2,1.186659E0,1.1531507E-1,-1.358869E-1,7.2156596E-1,9.639343E-2,-3.5995835E-1,3.0432495E-1,8.3491313E-1,4.6506715E-1,9.4586945E-1,-1.5543276E-1,1.3874123E-1,-1.0949818E-1,3.6095906E-2,-8.766551E-2,5.5536576E-2,-2.3793025E-2,6.9507524E-2,1.4674644E-1,-1.0540553E-1,1.1412839E-1,7.4287854E-2,-1.6380112E-1,-1.8783578E-1,3.499817E-2,2.5034353E-2,-5.7516586E-2,-1.7381379E-1,3.5115074E-2,9.8060295E-2,-1.2514936E-2,-1.1004214E-2,8.247092E-2,5.3145062E-2,1.0671613E-1],"categories":[],"categories_nodes":[],"categories_segments":[],"categories_sizes":[],"default_left":[0,0,0,0,0,0,0,0,0,0,0,0,0,0,0,0,0,0,0,0,0,0,0,0,0,0,0,0,0,0,0,0,0,0,0,0,0,0,0,0,0,0,0,0,0,0,0,0,0,0,0,0,0,0,0,0,0,0,0,0,0,0,0],"id":8,"left_children":[1,3,5,-1,7,9,11,13,-1,15,17,19,21,23,25,27,29,31,33,35,-1,37,-1,39,41,-1,43,-1,45,47,-1,49,51,53,55,57,59,61,-1,-1,-1,-1,-1,-1,-1,-1,-1,-1,-1,-1,-1,-1,-1,-1,-1,-1,-1,-1,-1,-1,-1,-1,-1],"loss_changes":[4.80342E2,6.279718E1,9.786305E1,0E0,2.6663834E1,5.8719074E1,7.299637E0,3.6640793E1,0E0,4.0394352E1,3.8406784E1,1.4057228E1,8.577347E-1,4.1060654E1,3.8386272E1,7.3410196E0,1.5034241E1,2.9722267E1,8.020972E1,8.508301E0,0E0,1.3766094E1,0E0,1.9192215E1,3.9931274E1,0E0,2.1468704E1,0E0,2.8181362E-1,1.1863627E1,0E0,1.2761925E1,5.8285164E1,3.2965485E1,6.438188E1,2.3383331E1,2.3232143E1,2.4009895E0,0E0,0E0,0E0,0E0,0E0,0E0,0E0,0E0,0E0,0E0,0E0,0E0,0E0,0E0,0E0,0E0,0E0,0E0,0E0,0E0,0E0,0E0,0E0,0E0,0E0],"parents":[2147483647,0,0,1,1,2,2,4,4,5,5,6,6,7,7,9,9,10,10,11,11,12,12,13,13,14,14,15,15,16,16,17,17,18,18,19,19,21,21,23,23,24,24,26,26,28,28,29,29,31,31,32,32,33,33,34,34,35,35,36,36,37,37],"right_children":[2,4,6,-1,8,10,12,14,-1,16,18,20,22,24,26,28,30,32,34,36,-1,38,-1,40,42,-1,44,-1,46,48,-1,50,52,54,56,58,60,62,-1,-1,-1,-1,-1,-1,-1,-1,-1,-1,-1,-1,-1,-1,-1,-1,-1,-1,-1,-1,-1,-1,-1,-1,-1],"split_conditions":[3.117963E-3,1.5997441E-3,5.6595528E-3,-1.3190083E-1,4.4990986E1,1.4502257E-3,1.0114144E-2,1.0542832E1,-1.4312463E-1,-2.1091263E2,-5.667649E-3,3.3984922E3,2.1643203E-2,1.629802E-3,1.358921E-3,-5.430242E-3,9.784607E-4,-5.767781E1,-2.2426205E1,5.9784774E-4,-1.4435224E-1,1.7254902E-2,1.14514135E-1,-1.8946865E0,9.1082486E-4,-1.3168745E-1,1.8477016E1,-8.416748E-2,4.095004E-3,1.2918944E2,-1.358869E-1,5.4491186E-3,-2.8113165E1,1.9127218E-3,-4.1919933E-3,1.2918944E2,1.690026E2,1.4361626E-3,-1.5543276E-1,1.3874123E-1,-1.0949818E-1,3.6095906E-2,-8.766551E-2,5.5536576E-2,-2.3793025E-2,6.9507524E-2,1.4674644E-1,-1.0540553E-1,1.1412839E-1,7.4287854E-2,-1.6380112E-1,-1.8783578E-1,3.499817E-2,2.5034353E-2,-5.7516586E-2,-1.7381379E-1,3.5115074E-2,9.8060295E-2,-1.2514936E-2,-1.1004214E-2,8.247092E-2,5.3145062E-2,1.0671613E-1],"split_indices":[3,3,4,0,2,4,4,2,0,2,0,2,3,3,4,0,4,2,2,0,0,3,0,2,4,0,2,0,0,2,0,4,2,4,0,2,2,0,0,0,0,0,0,0,0,0,0,0,0,0,0,0,0,0,0,0,0,0,0,0,0,0,0],"split_type":[0,0,0,0,0,0,0,0,0,0,0,0,0,0,0,0,0,0,0,0,0,0,0,0,0,0,0,0,0,0,0,0,0,0,0,0,0,0,0,0,0,0,0,0,0,0,0,0,0,0,0,0,0,0,0,0,0,0,0,0,0,0,0],"sum_hessian":[2.3417317E3,6.3596466E2,1.7057671E3,1.3148802E2,5.0447662E2,1.3230516E3,3.8271542E2,4.7352533E2,3.095128E1,6.242755E1,1.2606241E3,2.7742303E2,1.052924E2,3.163369E2,1.5718842E2,1.1327456E1,5.1100094E1,3.4473892E2,9.158852E2,2.752271E2,2.1959214E0,6.2609913E1,4.268248E1,1.5873616E1,3.0046332E2,2.0803322E1,1.363851E2,1.3301139E0,9.997342E0,7.8785477E0,4.3221546E1,2.3035625E2,1.1438268E2,2.4864693E2,6.672382E2,1.6468846E2,1.1053865E2,6.122925E1,1.3806636E0,1.2700173E1,3.1734428E0,2.8157356E1,2.7230594E2,5.989302E1,7.649207E1,5.027502E0,4.96984E0,3.6236122E0,4.2549357E0,2.2901524E2,1.3410058E0,1.22429E1,1.02139786E2,6.465772E1,1.8398921E2,1.4096966E1,6.531413E2,1.4306157E2,2.162688E1,4.2689373E1,6.784928E1,1.5268225E1,4.5961025E1],"tree_param":{"num_deleted":"0","num_feature":"6","num_nodes":"63","size_leaf_vector":"1"}},{"base_weights":[-1.7820008E-2,-7.002774E-1,2.9041836E-1,-1.1309917E0,-4.6769425E-1,-4.1993934E-1,3.8353667E-1,4.750174E-1,-1.1900073E0,-6.72396E-1,6.1893035E-2,9.620772E-1,-6.1794025E-1,3.3687487E-1,8.7569577E-1,1.5019833E-1,-1.0580774E-1,-1.2350004E0,-9.480853E-1,1.6963036E-1,-7.4869317E-1,4.1629037E-1,-9.776414E-1,1.5001851E0,-1.21732526E-1,3.9691332E-1,-8.395136E-1,5.285839E-1,2.4700244E-1,1.0009353E0,6.331025E-1,-1.3087557E-1,-8.407838E-1,8.216376E-1,-1.3716103E-1,1.3038756E-1,-5.7741684E-1,-9.3910927E-1,-3.1711987E-1,-3.0850512E-1,7.974957E-1,-1.4668062E-1,9.718957E-1,1.7264743E0,-8.0922775E-2,-4.3834323E-1,1.5907555E0,-1.02205135E-1,-1.3017828E0,4.625891E-1,1.4618134E0,-6.858732E-1,2.791063E-1,7.950413E-1,1.2683025E-1,7.796553E-1,-1.6160926E-1,1.3554247E-1,-1.3142635E-1,1.6630585E-1,-9.452054E-2,-1.3855472E-1,1.06709264E-1,5.737396E-2,-1.0154482E-1,-6.361457E-3,-1.5278108E-1,7.1550414E-2,-1.4386599E-1,6.205346E-2,1.580799E-1,-7.996892E-2,1.4572364E-1,1.969895E-1,1.1144997E-1,-1.4133683E-1,1.542636E-1,1.0074674E-1,2.0192364E-1,-1.3581268E-1,4.1503623E-2,-1.5211849E-1,-2.032174E-2,-1.4825341E-1,4.884248E-2,8.2422756E-2,1.5990481E-1,-1.8107104E-1,9.4851345E-2,8.812132E-2,2.4290198E-2,9.1259174E-2,-1.802181E-1,1.7842656E-2,8.5717596E-2],"categories":[],"categories_nodes":[],"categories_segments":[],"categories_sizes":[],"default_left":[0,0,0,0,0,0,0,0,0,0,0,0,0,0,0,0,0,0,0,0,0,0,0,0,0,0,0,0,0,0,0,0,0,0,0,0,0,0,0,0,0,0,0,0,0,0,0,0,0,0,0,0,0,0,0,0,0,0,0,0,0,0,0,0,0,0,0,0,0,0,0,0,0,0,0,0,0,0,0,0,0,0,0,0,0,0,0,0,0,0,0,0,0,0,0],"id":9,"left_children":[1,3,5,7,9,11,13,15,17,19,21,23,25,27,29,-1,-1,31,33,35,37,39,41,43,-1,45,47,49,51,53,55,-1,57,59,-1,-1,61,63,65,67,69,-1,71,73,-1,75,77,79,81,83,85,87,89,91,-1,93,-1,-1,-1,-1,-1,-1,-1,-1,-1,-1,-1,-1,-1,-1,-1,-1,-1,-1,-1,-1,-1,-1,-1,-1,-1,-1,-1,-1,-1,-1,-1,-1,-1,-1,-1,-1,-1,-1,-1],"loss_changes":[4.6968246E2,6.8905914E1,1.0188405E2,2.3644043E1,4.9208374E1,4.9428043E1,3.0822968E1,1.6210629E1,1.1631165E0,2.1187393E1,4.715985E1,2.8484491E1,3.5653587E1,2.1230453E1,2.757347E0,0E0,0E0,4.327179E0,3.2230392E1,2.443872E1,2.4234116E1,2.6688667E1,3.2497486E1,1.1259068E1,0E0,2.944235E1,4.375087E1,2.3514923E1,2.5589115E1,2.9230652E0,1.5292889E1,0E0,3.671218E1,1.4397743E1,0E0,0E0,2.4689734E1,2.4593231E1,2.8448837E1,3.993562E1,7.527626E0,0E0,7.3233933E0,8.602142E-2,0E0,3.6214493E1,6.831379E-1,3.3751938E1,1.8613083E1,1.9285248E1,6.783867E-1,5.409566E1,1.759108E1,1.5402849E1,0E0,1.6507969E0,0E0,0E0,0E0,0E0,0E0,0E0,0E0,0E0,0E0,0E0,0E0,0E0,0E0,0E0,0E0,0E0,0E0,0E0,0E0,0E0,0E0,0E0,0E0,0E0,0E0,0E0,0E0,0E0,0E0,0E0,0E0,0E0,0E0,0E0,0E0,0E0,0E0,0E0,0E0],"parents":[2147483647,0,0,1,1,2,2,3,3,4,4,5,5,6,6,7,7,8,8,9,9,10,10,11,11,12,12,13,13,14,14,17,17,18,18,19,19,20,20,21,21,22,22,23,23,25,25,26,26,27,27,28,28,29,29,30,30,32,32,33,33,36,36,37,37,38,38,39,39,40,40,42,42,43,43,45,45,46,46,47,47,48,48,49,49,50,50,51,51,52,52,53,53,55,55],"right_children":[2,4,6,8,10,12,14,16,18,20,22,24,26,28,30,-1,-1,32,34,36,38,40,42,44,-1,46,48,50,52,54,56,-1,58,60,-1,-1,62,64,66,68,70,-1,72,74,-1,76,78,80,82,84,86,88,90,92,-1,94,-1,-1,-1,-1,-1,-1,-1,-1,-1,-1,-1,-1,-1,-1,-1,-1,-1,-1,-1,-1,-1,-1,-1,-1,-1,-1,-1,-1,-1,-1,-1,-1,-1,-1,-1,-1,-1,-1,-1],"split_conditions":[3.9450354E-3,2.0938024E-3,3.1347962E-3,-3.8275585E-2,3.22841E-3,3.990485E-3,1.4371072E-2,2.9762248E-3,1.9733596E-3,-3.2019332E-2,5.4452275E-3,-1.6007683E-4,-4.5722414E-2,-5.203962E-3,6.2270373E-1,1.5019833E-1,-1.0580774E-1,8.945687E-3,1.9933556E-3,3.418702E-3,7.980492E-3,3.5046728E-3,3.912014E-3,2.270382E-3,-1.21732526E-1,2.9895366E-3,2.1974572E-3,-5.3087454E-3,-4.1919933E-3,1.5820699E-2,2.0630887E-2,-1.3087557E-1,9.231479E-3,-1.0696975E-2,-1.3716103E-1,1.3038756E-1,6.16083E-3,2.1342966E-3,3.714856E-3,2.6699528E-3,6.2808436E-3,-1.4668062E-1,8.815029E-3,-6.373626E-3,-8.0922775E-2,-4.65416E-2,-5.3121902E-2,1.8419033E-3,6.3198986E-3,3.3512064E-3,6.3817725E-3,3.0672709E-2,3.267974E-3,1.1359948E-2,1.2683025E-1,1.5448912E-2,-1.6160926E-1,1.3554247E-1,-1.3142635E-1,1.6630585E-1,-9.452054E-2,-1.3855472E-1,1.06709264E-1,5.737396E-2,-1.0154482E-1,-6.361457E-3,-1.5278108E-1,7.1550414E-2,-1.4386599E-1,6.205346E-2,1.580799E-1,-7.996892E-2,1.4572364E-1,1.969895E-1,1.1144997E-1,-1.4133683E-1,1.542636E-1,1.0074674E-1,2.0192364E-1,-1.3581268E-1,4.1503623E-2,-1.5211849E-1,-2.032174E-2,-1.4825341E-1,4.884248E-2,8.2422756E-2,1.5990481E-1,-1.8107104E-1,9.4851345E-2,8.812132E-2,2.4290198E-2,9.1259174E-2,-1.802181E-1,1.7842656E-2,8.5717596E-2],"split_indices":[5,3,3,1,0,5,5,5,3,1,0,0,1,0,1,0,0,1,3,5,1,1,5,3,0,3,3,0,0,0,0,0,1,1,0,0,3,3,5,3,3,0,3,0,0,1,1,3,5,3,5,1,3,0,0,5,0,0,0,0,0,0,0,0,0,0,0,0,0,0,0,0,0,0,0,0,0,0,0,0,0,0,0,0,0,0,0,0,0,0,0,0,0,0,0],"split_type":[0,0,0,0,0,0,0,0,0,0,0,0,0,0,0,0,0,0,0,0,0,0,0,0,0,0,0,0,0,0,0,0,0,0,0,0,0,0,0,0,0,0,0,0,0,0,0,0,0,0,0,0,0,0,0,0,0,0,0,0,0,0,0,0,0,0,0,0,0,0,0,0,0,0,0,0,0,0,0,0,0,0,0,0,0,0,0,0,0,0,0,0,0,0,0],"sum_hessian":[2.2305989E3,6.937186E2,1.5368802E3,2.4174503E2,4.519736E2,1.7758447E2,1.3592958E3,8.258571E0,2.3348645E2,3.2591617E2,1.2605743E2,2.1707233E1,1.5587723E2,1.2433052E3,1.15990585E2,4.9968677E0,3.2617033E0,1.9306213E2,4.042432E1,2.686761E1,2.9904855E2,9.452707E1,3.1530363E1,1.7695614E1,4.0116196E0,2.7711224E1,1.2816602E2,3.949129E2,8.483923E2,7.416464E1,4.182594E1,1.6046635E2,3.2595776E1,7.578986E0,3.2845333E1,1.0426102E1,1.644151E1,2.0652095E2,9.25276E1,3.2555965E1,6.1971104E1,2.5444824E1,6.0855374E0,1.6385765E1,1.3098487E0,1.6627247E1,1.1083977E1,4.9943977E1,7.822203E1,3.7032748E2,2.4585436E1,2.7443985E1,8.2094824E2,4.4355206E1,2.9809439E1,3.9922497E1,1.9034433E0,5.4131765E0,2.71826E1,5.2121496E0,2.366836E0,1.1170487E1,5.2710223E0,9.544627E0,1.9697633E2,7.7446335E1,1.5081265E1,1.722614E1,1.5329825E1,5.21169E1,9.854198E0,1.1250749E0,4.9604626E0,1.0018469E1,6.367297E0,1.1368672E1,5.2585754E0,6.2121105E0,4.871866E0,1.4151098E1,3.579288E1,6.480389E1,1.3418145E1,4.0645027E0,3.6626297E2,5.7244663E0,1.886097E1,1.622839E1,1.1215595E1,4.5082794E1,7.758655E2,4.309199E1,1.263215E0,5.0840044E0,3.4838493E1],"tree_param":{"num_deleted":"0","num_feature":"6","num_nodes":"95","size_leaf_vector":"1"}},{"base_weights":[4.937311E-2,-4.3318275E-1,3.7199017E-1,-7.8973174E-1,-1.6296655E-1,1.5674491E-1,6.019E-1,-8.7115186E-1,3.4717247E-1,-3.4208223E-2,-9.853214E-1,6.9940937E-1,2.128577E-2,3.4962323E-1,7.660004E-1,3.5184744E-1,-9.2321724E-1,-1.2673984E-1,9.979576E-1,-1.2539116E-1,4.0841106E-2,-1.6129021E-1,-3.269561E-2,1.1872022E0,4.4713575E-1,-1.8535559E-1,9.571584E-2,-1.0343053E-1,6.8119746E-1,9.536872E-1,6.334195E-1,-1.12479165E-1,8.2391286E-1,-8.003561E-1,-1.3096698E-1,1.2911738E-1,-9.433121E-2,-1.7148867E-1,9.781717E-2,7.747114E-1,-1.8199132E-1,-9.005585E-2,1.2897589E0,-1.2466848E-1,7.590871E-1,1.5462498E-1,-7.495907E-1,3.7764642E-1,-7.4344766E-1,1.0113761E0,1.0159677E-1,1.1838106E-1,7.4691415E-1,6.607671E-1,-1.5597664E-1,-9.082442E-2,1.2050281E-1,-9.043237E-2,1.4176504E-1,1.8310538E-2,-1.114888E-1,-1.2936218E-1,1.1384525E-1,1.6093305E-1,7.44836E-2,4.8707645E-2,-1.8757464E-1,-5.35096E-2,1.0977544E-1,3.6385577E-2,-7.1565746E-3,9.49038E-3,-1.7657533E-1,1.1975404E-1,-7.986309E-3,-1.9940357E-1,-2.1672947E-2,1.2825654E-1,5.4608654E-2,2.6648536E-2,-2.0631222E-1,-6.802976E-2,9.187709E-2,-1.6782163E-1,6.820861E-2],"categories":[],"categories_nodes":[],"categories_segments":[],"categories_sizes":[],"default_left":[0,0,0,0,0,0,0,0,0,0,0,0,0,0,0,0,0,0,0,0,0,0,0,0,0,0,0,0,0,0,0,0,0,0,0,0,0,0,0,0,0,0,0,0,0,0,0,0,0,0,0,0,0,0,0,0,0,0,0,0,0,0,0,0,0,0,0,0,0,0,0,0,0,0,0,0,0,0,0,0,0,0,0,0,0],"id":10,"left_children":[1,3,5,7,9,11,13,15,17,19,21,23,25,27,29,31,33,-1,35,-1,37,-1,39,41,43,-1,45,47,49,51,53,-1,55,57,-1,-1,-1,-1,59,61,-1,-1,63,65,67,69,71,73,75,77,79,-1,81,83,-1,-1,-1,-1,-1,-1,-1,-1,-1,-1,-1,-1,-1,-1,-1,-1,-1,-1,-1,-1,-1,-1,-1,-1,-1,-1,-1,-1,-1,-1,-1],"loss_changes":[3.4698215E2,8.581027E1,6.59361E1,3.5953125E1,5.3803165E1,5.0744102E1,2.6336716E1,2.3256592E1,2.8907507E1,4.05946E1,4.0927277E1,1.6281654E1,7.738528E1,3.8647377E1,8.939865E0,1.1571889E1,1.5117615E1,0E0,1.2279594E1,0E0,4.1708736E1,0E0,4.251945E1,1.1110802E1,1.6687359E1,0E0,2.6666145E1,3.3908726E1,2.8169708E1,6.494385E0,1.4843437E1,0E0,9.19984E0,6.222078E1,0E0,0E0,0E0,0E0,4.197727E1,1.6681856E1,0E0,0E0,6.328293E0,3.6890285E1,2.7033806E1,2.3741844E1,3.0261946E1,2.3785728E1,3.046545E1,1.1011658E1,2.001924E1,0E0,2.1927338E1,1.2498436E1,0E0,0E0,0E0,0E0,0E0,0E0,0E0,0E0,0E0,0E0,0E0,0E0,0E0,0E0,0E0,0E0,0E0,0E0,0E0,0E0,0E0,0E0,0E0,0E0,0E0,0E0,0E0,0E0,0E0,0E0,0E0],"parents":[2147483647,0,0,1,1,2,2,3,3,4,4,5,5,6,6,7,7,8,8,9,9,10,10,11,11,12,12,13,13,14,14,15,15,16,16,18,18,20,20,22,22,23,23,24,24,26,26,27,27,28,28,29,29,30,30,32,32,33,33,38,38,39,39,42,42,43,43,44,44,45,45,46,46,47,47,48,48,49,49,50,50,52,52,53,53],"right_children":[2,4,6,8,10,12,14,16,18,20,22,24,26,28,30,32,34,-1,36,-1,38,-1,40,42,44,-1,46,48,50,52,54,-1,56,58,-1,-1,-1,-1,60,62,-1,-1,64,66,68,70,72,74,76,78,80,-1,82,84,-1,-1,-1,-1,-1,-1,-1,-1,-1,-1,-1,-1,-1,-1,-1,-1,-1,-1,-1,-1,-1,-1,-1,-1,-1,-1,-1,-1,-1,-1,-1],"split_conditions":[2.3482603E-3,1.6008917E-3,4.0291804E-3,9.9075264E1,2.2078669E-3,-4.5722414E-2,7.5093866E-3,-1.8273526E2,1.0210593E-2,1.7734427E-3,4.9433573E-3,2.4991285E-3,-4.080668E-2,-3.4372136E-3,-5.1399164E2,-2.6999008E2,2.7826086E-3,-1.2673984E-1,4.5740423E-3,-1.2539116E-1,-1.9847412E2,-1.6129021E-1,5.705655E-3,2.8024288E-3,-1.5235114E1,-1.8535559E-1,3.7037046E-3,-4.809511E-2,4.9982765E-3,5.4491186E-3,2.627861E-2,-1.12479165E-1,6.16083E-3,2.7657053E-3,-1.3096698E-1,1.2911738E-1,-9.433121E-2,-1.7148867E-1,1.0755143E2,-4.6684933E1,-1.8199132E-1,-9.005585E-2,4.310345E-3,2.9617327E-3,2.8448168E-3,-2.0703934E-3,4.239284E-3,3.7861916E-3,4.705401E-3,-1.6119091E1,6.9389353E-3,1.1838106E-1,1.4216923E-2,-4.4783786E2,-1.5597664E-1,-9.082442E-2,1.2050281E-1,-9.043237E-2,1.4176504E-1,1.8310538E-2,-1.114888E-1,-1.2936218E-1,1.1384525E-1,1.6093305E-1,7.44836E-2,4.8707645E-2,-1.8757464E-1,-5.35096E-2,1.0977544E-1,3.6385577E-2,-7.1565746E-3,9.49038E-3,-1.7657533E-1,1.1975404E-1,-7.986309E-3,-1.9940357E-1,-2.1672947E-2,1.2825654E-1,5.4608654E-2,2.6648536E-2,-2.0631222E-1,-6.802976E-2,9.187709E-2,-1.6782163E-1,6.820861E-2],"split_indices":[4,4,4,2,4,1,3,2,1,3,3,4,1,1,2,2,3,0,3,0,2,0,3,3,2,0,4,1,3,4,3,0,3,3,0,0,0,0,2,2,0,0,3,4,4,1,3,3,3,2,4,0,3,2,0,0,0,0,0,0,0,0,0,0,0,0,0,0,0,0,0,0,0,0,0,0,0,0,0,0,0,0,0,0,0],"split_type":[0,0,0,0,0,0,0,0,0,0,0,0,0,0,0,0,0,0,0,0,0,0,0,0,0,0,0,0,0,0,0,0,0,0,0,0,0,0,0,0,0,0,0,0,0,0,0,0,0,0,0,0,0,0,0,0,0,0,0,0,0,0,0,0,0,0,0,0,0,0,0,0,0,0,0,0,0,0,0,0,0,0,0,0,0],"sum_hessian":[2.2268098E3,8.919777E2,1.3348322E3,3.835684E2,5.0840933E2,6.9049567E2,6.4433655E2,3.582349E2,2.533351E1,4.405884E2,6.7820915E1,1.3695143E2,5.535442E2,2.554166E2,3.8891995E2,1.4314448E1,3.4392044E2,6.961404E0,1.8372107E1,2.4705107E1,4.158833E2,4.040464E1,2.7416275E1,4.5285538E1,9.1665886E1,2.0172258E1,5.3337195E2,1.0809926E2,1.4731734E2,1.5812476E2,2.3079518E2,3.0813444E0,1.1233104E1,2.6348346E2,8.043698E1,1.6296951E1,2.075154E0,1.21020775E1,4.0378122E2,1.9236446E1,8.17983E0,1.710407E0,4.357513E1,3.245533E1,5.921056E1,4.9949753E2,3.3874443E1,6.1857204E1,4.624205E1,9.326817E1,5.4049164E1,7.237163E1,8.5753136E1,2.2868791E2,2.107274E0,1.7290616E0,9.504042E0,2.5229468E2,1.1188782E1,3.7811993E2,2.5661287E1,2.4535463E0,1.67829E1,2.6120094E1,1.7455036E1,2.4545137E1,7.910192E0,1.2099241E1,4.7111317E1,2.5939014E2,2.4010738E2,1.8941265E1,1.4933177E1,2.1653479E1,4.0203728E1,1.2822332E1,3.341972E1,5.7679085E1,3.558909E1,5.1081345E1,2.9678204E0,8.83565E0,7.691749E1,1.3212321E0,2.2736667E2],"tree_param":{"num_deleted":"0","num_feature":"6","num_nodes":"85","size_leaf_vector":"1"}},{"base_weights":[-7.6354095E-3,-4.1763312E-1,3.012019E-1,6.7632174E-1,-5.290018E-1,2.3004128E-1,8.140364E-1,9.9690355E-2,1.0594854E0,-6.540037E-1,7.000552E-2,5.7688826E-1,1.598988E-1,5.8351094E-1,9.847218E-1,7.256012E-1,-1.4959185E-1,-2.754331E-1,1.4755875E0,-1.0464865E0,-4.229769E-1,-6.5935785E-1,4.415934E-1,6.572838E-1,-1.9082038E-1,-1.9240691E-1,2.7744758E-1,7.489702E-1,-2.2276536E-1,1.1057839E0,3.6332905E-1,9.6702313E-1,-1.23121165E-1,-1.5168825E-1,1.3097861E-1,1.6384545E-1,5.809415E-1,3.569843E-1,-1.3794669E0,-3.2168046E-1,-1.5464501E-1,9.06279E-1,-1.3838466E-1,9.0091866E-1,1.3710548E-1,-3.69008E-1,7.747578E-1,2.897897E-1,-9.47555E-1,7.155092E-2,5.162501E-1,9.383294E-1,-3.5291746E-2,1.3387117E-1,8.886706E-1,-2.0415278E-1,7.648088E-1,-9.0336934E-2,1.156004E-1,-1.1671461E-1,1.2527072E-1,1.22672E-1,-1.7637288E-2,-1.3022731E-1,-1.5820079E-1,-6.965166E-2,4.783484E-3,-1.093995E-1,1.4420739E-1,1.9241443E-1,4.5349356E-2,4.339927E-2,-1.742544E-1,6.940558E-2,-1.8965206E-1,-1.7567044E-1,8.0677226E-2,-8.232784E-2,5.1145E-2,-7.0363775E-2,-2.2359756E-1,1.3509633E-2,-1.6427682E-1,6.2015902E-2,-1.1870398E-2,1.0559859E-1,6.1811876E-2,-2.0586148E-1,8.260956E-2,-1.4472587E-1,9.998437E-2,1.1248608E-1,-1.3019992E-1],"categories":[],"categories_nodes":[],"categories_segments":[],"categories_sizes":[],"default_left":[0,0,0,0,0,0,0,0,0,0,0,0,0,0,0,0,0,0,0,0,0,0,0,0,0,0,0,0,0,0,0,0,0,0,0,0,0,0,0,0,0,0,0,0,0,0,0,0,0,0,0,0,0,0,0,0,0,0,0,0,0,0,0,0,0,0,0,0,0,0,0,0,0,0,0,0,0,0,0,0,0,0,0,0,0,0,0,0,0,0,0,0,0],"id":11,"left_children":[1,3,5,7,9,11,13,15,17,19,21,23,25,27,29,31,-1,33,35,37,39,41,43,45,-1,47,49,51,-1,53,55,57,-1,-1,-1,-1,59,61,63,65,-1,67,-1,69,71,73,75,77,79,81,83,85,87,-1,89,-1,91,-1,-1,-1,-1,-1,-1,-1,-1,-1,-1,-1,-1,-1,-1,-1,-1,-1,-1,-1,-1,-1,-1,-1,-1,-1,-1,-1,-1,-1,-1,-1,-1,-1,-1,-1,-1],"loss_changes":[2.699029E2,1.1192726E2,4.406942E1,1.8554546E1,6.2394608E1,2.5842175E1,5.0744934E0,3.609676E1,2.877026E1,6.184015E1,3.9403748E1,3.693154E1,3.6953896E1,3.1976345E1,5.701042E0,1.3424946E1,0E0,2.7332642E1,4.5057373E0,1.1942291E2,4.884726E1,5.6933937E1,1.3247999E1,2.1348602E1,0E0,8.1631065E1,3.277758E1,9.42292E0,0E0,2.0723648E0,1.6080809E1,9.449757E0,0E0,0E0,0E0,0E0,1.0450568E1,2.3281456E1,8.6868286E-1,5.558208E1,0E0,1.8842112E1,0E0,1.6331766E1,3.368999E1,3.1475769E1,1.4035385E1,3.417408E1,2.5572968E1,3.933355E1,2.0521973E1,1.0854568E0,2.455074E1,0E0,1.1494289E1,0E0,1.1688892E1,0E0,0E0,0E0,0E0,0E0,0E0,0E0,0E0,0E0,0E0,0E0,0E0,0E0,0E0,0E0,0E0,0E0,0E0,0E0,0E0,0E0,0E0,0E0,0E0,0E0,0E0,0E0,0E0,0E0,0E0,0E0,0E0,0E0,0E0,0E0,0E0],"parents":[2147483647,0,0,1,1,2,2,3,3,4,4,5,5,6,6,7,7,8,8,9,9,10,10,11,11,12,12,13,13,14,14,15,15,17,17,18,18,19,19,20,20,21,21,22,22,23,23,25,25,26,26,27,27,29,29,30,30,31,31,36,36,37,37,38,38,39,39,41,41,43,43,44,44,45,45,46,46,47,47,48,48,49,49,50,50,51,51,52,52,54,54,56,56],"right_children":[2,4,6,8,10,12,14,16,18,20,22,24,26,28,30,32,-1,34,36,38,40,42,44,46,-1,48,50,52,-1,54,56,58,-1,-1,-1,-1,60,62,64,66,-1,68,-1,70,72,74,76,78,80,82,84,86,88,-1,90,-1,92,-1,-1,-1,-1,-1,-1,-1,-1,-1,-1,-1,-1,-1,-1,-1,-1,-1,-1,-1,-1,-1,-1,-1,-1,-1,-1,-1,-1,-1,-1,-1,-1,-1,-1,-1,-1],"split_conditions":[4.039724E-3,-4.5722414E-2,6.263315E-2,1.895898E-3,1.87047E-2,-1.07629E-2,6.2430324E-3,-4.2812447E-3,-5.3121902E-2,-3.093581E-4,2.9895366E-3,4.0925165E2,-7.2571976E1,3.5624476E-3,6.2270373E-1,-4.9835254E-2,-1.4959185E-1,8.781806E-3,3.301783E-3,-6.2442184E-3,5.3253067E-3,-3.4938478E-3,3.2382421E-3,5.8692894E-3,-1.9082038E-1,-8.959338E-3,7.980492E-3,-5.767781E1,-2.2276536E-1,9.461009E-3,1.7948344E-2,2.8024288E-3,-1.23121165E-1,-1.5168825E-1,1.3097861E-1,1.6384545E-1,7.744039E-3,2.270382E-3,3.1347962E-3,2.5316456E-3,-1.5464501E-1,-4.6519088E-3,-1.3838466E-1,2.0420888E-2,4.141644E-3,-1.70701E-2,-8.048831E-2,-6.941523E-3,3.483871E-2,3.5046728E-3,4.3108683E-2,-5.5487053E-3,6.2270373E-1,1.3387117E-1,6.838115E-3,-2.0415278E-1,2.0630887E-2,-9.0336934E-2,1.156004E-1,-1.1671461E-1,1.2527072E-1,1.22672E-1,-1.7637288E-2,-1.3022731E-1,-1.5820079E-1,-6.965166E-2,4.783484E-3,-1.093995E-1,1.4420739E-1,1.9241443E-1,4.5349356E-2,4.339927E-2,-1.742544E-1,6.940558E-2,-1.8965206E-1,-1.7567044E-1,8.0677226E-2,-8.232784E-2,5.1145E-2,-7.0363775E-2,-2.2359756E-1,1.3509633E-2,-1.6427682E-1,6.2015902E-2,-1.1870398E-2,1.0559859E-1,6.1811876E-2,-2.0586148E-1,8.260956E-2,-1.4472587E-1,9.998437E-2,1.1248608E-1,-1.3019992E-1],"split_indices":[3,1,1,0,1,0,0,0,1,0,3,2,2,0,1,1,0,0,3,0,0,0,3,3,0,1,1,2,0,0,0,3,0,0,0,0,0,3,3,3,0,0,0,1,0,0,1,0,1,1,1,0,1,0,3,0,0,0,0,0,0,0,0,0,0,0,0,0,0,0,0,0,0,0,0,0,0,0,0,0,0,0,0,0,0,0,0,0,0,0,0,0,0],"split_type":[0,0,0,0,0,0,0,0,0,0,0,0,0,0,0,0,0,0,0,0,0,0,0,0,0,0,0,0,0,0,0,0,0,0,0,0,0,0,0,0,0,0,0,0,0,0,0,0,0,0,0,0,0,0,0,0,0,0,0,0,0,0,0,0,0,0,0,0,0,0,0,0,0,0,0,0,0,0,0,0,0,0,0,0,0,0,0,0,0,0,0,0,0],"sum_hessian":[2.1294685E3,9.1488385E2,1.2145847E3,8.3981125E1,8.309027E2,1.0680292E3,1.4655554E2,3.4133713E1,4.9847412E1,6.8750757E2,1.4339519E2,1.7819989E2,8.898293E2,6.447753E1,8.207801E1,2.4953217E1,9.180496E0,1.1868668E1,3.7978745E1,2.532715E2,4.3423605E2,4.8045856E1,9.5349335E1,1.7336702E2,4.8328695E0,2.2224643E2,6.675828E2,6.1619858E1,2.8576705E0,6.790755E1,1.41704645E1,2.2708477E1,2.2447393E0,6.7156005E0,5.153067E0,3.1331741E1,6.647004E0,4.8495716E1,2.0477579E2,3.9958347E2,3.465257E1,1.5076418E1,3.296944E1,3.7098457E1,5.8250877E1,1.749885E1,1.5586818E2,1.3593167E2,8.6314766E1,3.594133E2,3.0816953E2,4.9579906E1,1.2039953E1,3.0046223E1,3.7861324E1,1.4072104E0,1.2763254E1,1.6884154E0,2.1020061E1,1.5992085E0,5.047796E0,1.801176E1,3.0483953E1,1.540041E2,5.077168E1,1.980586E2,2.0152487E2,2.9256566E0,1.2150762E1,1.0214567E1,2.6883888E1,5.10154E1,7.2354784E0,1.0601181E1,6.8976684E0,1.2347836E0,1.5463339E2,2.2048708E1,1.13882965E2,7.394047E1,1.2374298E1,3.4751147E2,1.1901832E1,2.649859E2,4.318362E1,3.4348854E1,1.523105E1,3.2148242E0,8.8251295E0,1.133208E0,3.6728115E1,1.1299022E1,1.4642326E0],"tree_param":{"num_deleted":"0","num_feature":"6","num_nodes":"93","size_leaf_vector":"1"}},{"base_weights":[5.3171935E-3,-5.15728E-1,2.383308E-1,-7.709356E-1,-8.986957E-2,1.430301E-1,6.063171E-1,-8.6621463E-1,-1.1999269E-1,1.1211716E0,-2.2168764E-1,4.5106164E-1,3.617343E-2,7.4312294E-1,2.3323573E-1,-1.3085948E-1,-7.342235E-1,8.978977E-1,-8.368833E-1,1.4237313E0,-1.0730397E-1,-1.4225821E-1,-8.13924E-2,5.291425E-1,-1.0900499E0,-4.2549685E-1,1.433913E-1,8.0463684E-1,1.7336982E-1,-2.1941689E-1,4.914865E-1,7.039545E-1,-8.385039E-1,1.154654E0,-9.0410404E-2,1.2897462E-1,-1.2928794E-1,7.708021E-1,1.6030931E-1,-7.8527516E-1,1.6103627E-1,6.231086E-1,-3.8794827E-1,-2.1292017E-1,4.9557188E-1,-1.5978007E-1,-1.78286E-1,-2.908233E-1,2.4762143E-1,5.5848503E-1,9.947348E-1,6.005064E-1,-1.927646E-1,-1.2279869E-1,9.3119854E-1,-2.3480502E-3,2.4449669E-1,-6.128934E-2,-1.2416269E-1,1.4151314E-1,-8.627872E-2,-7.999E-2,1.24919966E-1,-1.2707472E-1,8.809093E-2,1.2432336E-1,-7.0888707E-3,1.5351135E-1,5.575486E-2,4.9815055E-2,-1.634533E-1,1.1955958E-1,-1.4753976E-1,4.3946948E-2,-6.397226E-2,-1.1961329E-1,3.509057E-2,8.701755E-2,1.7117873E-2,7.029579E-2,-2.2950338E-1,1.2586246E-1,8.605417E-2,-1.721981E-1,8.6327024E-2,-2.5102973E-1,4.399877E-2,8.3381884E-2,1.4010222E-1],"categories":[],"categories_nodes":[],"categories_segments":[],"categories_sizes":[],"default_left":[0,0,0,0,0,0,0,0,0,0,0,0,0,0,0,0,0,0,0,0,0,0,0,0,0,0,0,0,0,0,0,0,0,0,0,0,0,0,0,0,0,0,0,0,0,0,0,0,0,0,0,0,0,0,0,0,0,0,0,0,0,0,0,0,0,0,0,0,0,0,0,0,0,0,0,0,0,0,0,0,0,0,0,0,0,0,0,0,0],"id":12,"left_children":[1,3,5,7,9,11,13,15,17,19,21,23,25,27,29,-1,31,33,35,37,-1,-1,39,41,43,45,47,49,51,-1,53,55,57,59,-1,-1,-1,61,-1,63,65,67,69,-1,71,73,-1,75,77,79,81,83,-1,85,87,-1,-1,-1,-1,-1,-1,-1,-1,-1,-1,-1,-1,-1,-1,-1,-1,-1,-1,-1,-1,-1,-1,-1,-1,-1,-1,-1,-1,-1,-1,-1,-1,-1,-1],"loss_changes":[2.5637445E2,7.075566E1,5.101805E1,2.5083115E1,3.9392258E1,3.8139877E1,1.5024567E1,1.9583557E1,3.9675655E1,1.763913E1,3.7229336E1,3.645378E1,4.275508E1,7.4248276E0,5.234938E1,0E0,4.201718E1,1.1465946E1,3.2581543E1,1.0742264E0,0E0,0E0,3.4386646E1,2.482122E1,2.5382114E1,5.8217644E1,3.1809418E1,8.501884E0,2.1429043E1,0E0,2.0459482E1,2.4549404E1,2.2517456E1,1.1868444E1,0E0,0E0,0E0,6.1040106E0,0E0,4.291043E1,3.780107E1,1.4417885E1,3.0752552E1,0E0,1.0813214E1,3.9777634E1,0E0,7.9537506E1,2.6697361E1,3.7857254E1,2.585495E0,1.342115E1,0E0,4.4425278E1,6.184349E-1,0E0,0E0,0E0,0E0,0E0,0E0,0E0,0E0,0E0,0E0,0E0,0E0,0E0,0E0,0E0,0E0,0E0,0E0,0E0,0E0,0E0,0E0,0E0,0E0,0E0,0E0,0E0,0E0,0E0,0E0,0E0,0E0,0E0,0E0],"parents":[2147483647,0,0,1,1,2,2,3,3,4,4,5,5,6,6,7,7,8,8,9,9,10,10,11,11,12,12,13,13,14,14,16,16,17,17,18,18,19,19,22,22,23,23,24,24,25,25,26,26,27,27,28,28,30,30,31,31,32,32,33,33,37,37,39,39,40,40,41,41,42,42,44,44,45,45,47,47,48,48,49,49,50,50,51,51,53,53,54,54],"right_children":[2,4,6,8,10,12,14,16,18,20,22,24,26,28,30,-1,32,34,36,38,-1,-1,40,42,44,46,48,50,52,-1,54,56,58,60,-1,-1,-1,62,-1,64,66,68,70,-1,72,74,-1,76,78,80,82,84,-1,86,88,-1,-1,-1,-1,-1,-1,-1,-1,-1,-1,-1,-1,-1,-1,-1,-1,-1,-1,-1,-1,-1,-1,-1,-1,-1,-1,-1,-1,-1,-1,-1,-1,-1,-1],"split_conditions":[3.95579E-3,1.5E1,8.919183E-3,3.22841E-3,-3.8275585E-2,-6.2442184E-3,1.6002155E2,-1.429184E-2,3.5624476E-3,2.1558362E-3,-1.7406143E-2,3.0144624E-2,-1.8668326E-3,8.200563E-3,-1.07629E-2,-1.3085948E-1,-1.2382481E-2,4.975152E0,-2.8977426E2,2.0370747E-4,-1.0730397E-1,-1.4225821E-1,3.0251204E-3,3.5736206E1,4.904762E-2,-2.9217284E-3,-2.7139207E-2,2.2427442E-2,-7.2571976E1,-2.1941689E-1,1.4623656E-2,-1.2697915E-2,-1.8946865E0,3.3246938E-3,-9.0410404E-2,1.2897462E-1,-1.2928794E-1,-4.080668E-2,1.6030931E-1,1.3604988E2,1.8477016E1,3.990485E-3,-1.4073616E-2,-2.1292017E-1,-1.1151619E-2,-5.94987E1,-1.78286E-1,4.891969E-3,-1.9685911E-2,-1.2697915E-2,9.848065E-3,1.19557865E-2,-1.927646E-1,1.1054037E-2,2.8150767E-1,-2.3480502E-3,2.4449669E-1,-6.128934E-2,-1.2416269E-1,1.4151314E-1,-8.627872E-2,-7.999E-2,1.24919966E-1,-1.2707472E-1,8.809093E-2,1.2432336E-1,-7.0888707E-3,1.5351135E-1,5.575486E-2,4.9815055E-2,-1.634533E-1,1.1955958E-1,-1.4753976E-1,4.3946948E-2,-6.397226E-2,-1.1961329E-1,3.509057E-2,8.701755E-2,1.7117873E-2,7.029579E-2,-2.2950338E-1,1.2586246E-1,8.605417E-2,-1.721981E-1,8.6327024E-2,-2.5102973E-1,4.399877E-2,8.3381884E-2,1.4010222E-1],"split_indices":[5,2,5,0,1,0,2,1,0,0,1,1,0,0,0,0,1,2,2,0,0,0,5,2,1,0,1,1,2,0,0,1,2,5,0,0,0,1,0,2,2,5,0,0,0,2,0,0,1,1,5,0,0,5,0,0,0,0,0,0,0,0,0,0,0,0,0,0,0,0,0,0,0,0,0,0,0,0,0,0,0,0,0,0,0,0,0,0,0],"split_type":[0,0,0,0,0,0,0,0,0,0,0,0,0,0,0,0,0,0,0,0,0,0,0,0,0,0,0,0,0,0,0,0,0,0,0,0,0,0,0,0,0,0,0,0,0,0,0,0,0,0,0,0,0,0,0,0,0,0,0,0,0,0,0,0,0,0,0,0,0,0,0,0,0,0,0,0,0,0,0,0,0,0,0,0,0,0,0,0,0],"sum_hessian":[2.1098474E3,6.514617E2,1.4583856E3,4.0669388E2,2.4476778E2,1.1597065E3,2.986791E2,3.5434393E2,5.2349957E1,2.3215733E1,2.2155205E2,2.9761798E2,8.6208856E2,2.1761983E2,8.105929E1,7.920603E1,2.751379E2,2.1471403E1,3.0878551E1,2.0751083E1,2.46465E0,2.2144823E1,1.9940723E2,2.8395297E2,1.3665021E1,1.6174185E2,7.0034674E2,1.9588333E2,2.1736486E1,7.036534E0,7.402276E1,1.814754E1,2.5699036E2,1.9156624E1,2.3147795E0,5.090459E0,2.5788092E1,5.7337112E0,1.5017372E1,5.061672E1,1.487905E2,2.5795245E2,2.6000496E1,8.08602E0,5.579E0,1.362592E2,2.5482653E1,1.3503825E2,5.653085E2,8.730229E1,1.0858105E2,1.8697136E1,3.0393498E0,3.1087E1,4.2935757E1,1.3454864E1,4.692676E0,1.6654869E2,9.044168E1,1.72744E1,1.8822243E0,1.1329321E0,4.600779E0,3.9426476E1,1.1190244E1,2.5566055E1,1.2322445E2,1.569392E1,2.4225854E2,1.5501716E1,1.049878E1,4.444568E0,1.1344317E0,6.054256E1,7.5716644E1,5.572166E1,7.93166E1,6.0543873E1,5.047646E2,8.3845894E1,3.4563973E0,3.3526684E1,7.505436E1,1.297249E0,1.7399887E1,5.303837E0,2.5783163E1,3.803905E1,4.896707E0],"tree_param":{"num_deleted":"0","num_feature":"6","num_nodes":"89","size_leaf_vector":"1"}},{"base_weights":[2.882106E-2,-3.5476655E-1,2.873369E-1,-1.1638003E-1,-2.735721E-1,2.3183034E-1,8.8808405E-1,-5.2301973E-1,-1.3136135E-1,2.5329295E-1,-1.3874124E0,9.274632E-2,4.9190095E-1,-7.035395E-1,2.2098354E-1,5.649874E-1,-2.3399429E-1,-3.0423763E-1,3.0859974E-1,-2.1514837E-1,-4.6056545E-1,-1.4787997E-1,9.683384E-1,-1.873718E-1,-9.8527056E-1,-3.4201497E-1,6.50005E-1,-4.8703387E-1,1.0469655E0,-7.9969525E-1,-7.4657075E-2,-1.23492286E-1,-1.3190295E-1,2.708099E-1,8.579411E-1,5.697422E-2,-1.8500032E-1,4.054686E-2,1.3172077E-1,-3.7500948E-2,2.2319154E-1,6.451804E-3,-1.073149E-1,5.486828E-2,-1.4124422E-1,1.1822187E-1,-6.118523E-2,1.1312777E-1,-1.1859685E-1,1.453371E-1,3.7785716E-2,-1.2650117E-1,-3.1665207E-3,-9.438037E-2,1.7378301E-3,-5.1787406E-2,5.4780263E-2,4.9872268E-2,1.47461295E-2,-1.4819998E-1,9.626874E-2],"categories":[],"categories_nodes":[],"categories_segments":[],"categories_sizes":[],"default_left":[0,0,0,0,0,0,0,0,0,0,0,0,0,0,0,0,0,0,0,0,0,0,0,0,0,0,0,0,0,0,0,0,0,0,0,0,0,0,0,0,0,0,0,0,0,0,0,0,0,0,0,0,0,0,0,0,0,0,0,0,0],"id":13,"left_children":[1,3,5,-1,7,9,11,13,15,17,19,-1,21,23,25,27,29,31,33,-1,35,-1,37,39,41,43,45,47,49,51,53,55,-1,57,59,-1,-1,-1,-1,-1,-1,-1,-1,-1,-1,-1,-1,-1,-1,-1,-1,-1,-1,-1,-1,-1,-1,-1,-1,-1,-1],"loss_changes":[2.079902E2,5.5002693E1,4.146837E1,0E0,2.7137066E1,4.0157192E1,1.0475693E0,3.761454E1,3.5205547E1,3.507778E1,9.45503E0,0E0,1.255015E1,3.2345802E1,1.3547622E1,3.264541E1,3.8517227E1,1.8535172E1,2.1095238E1,0E0,1.2868396E1,0E0,1.3015089E0,3.7253723E1,1.3535294E1,2.4085072E1,2.2057869E1,2.4529537E1,1.1170399E1,3.343331E1,2.6980297E1,2.3680168E1,0E0,2.7073769E1,1.751294E1,0E0,0E0,0E0,0E0,0E0,0E0,0E0,0E0,0E0,0E0,0E0,0E0,0E0,0E0,0E0,0E0,0E0,0E0,0E0,0E0,0E0,0E0,0E0,0E0,0E0,0E0],"parents":[2147483647,0,0,1,1,2,2,4,4,5,5,6,6,7,7,8,8,9,9,10,10,12,12,13,13,14,14,15,15,16,16,17,17,18,18,20,20,22,22,23,23,24,24,25,25,26,26,27,27,28,28,29,29,30,30,31,31,33,33,34,34],"right_children":[2,4,6,-1,8,10,12,14,16,18,20,-1,22,24,26,28,30,32,34,-1,36,-1,38,40,42,44,46,48,50,52,54,56,-1,58,60,-1,-1,-1,-1,-1,-1,-1,-1,-1,-1,-1,-1,-1,-1,-1,-1,-1,-1,-1,-1,-1,-1,-1,-1,-1,-1],"split_conditions":[4.4145216E-3,1.535155E-3,1.5448912E-2,-1.1638003E-1,-6.8388824E0,1.1835043E3,2.0630887E-2,5.932762E-3,-1.8946865E0,3.117963E-3,1.7948344E-2,9.274632E-2,7.1615894E2,2.5489884E-3,3.95579E-3,-4.4672773E-4,1.0542832E1,2.2672876E1,5.83926E2,-2.1514837E-1,2.0630887E-2,-1.4787997E-1,2.8150767E-1,2.5316456E-3,-1.757887E2,6.838115E-3,4.171946E-3,-6.373626E-3,2.1342966E-3,2.5316456E-3,2.7703352E-3,6.823309E0,-1.3190295E-1,-5.032022E-3,-6.2442184E-3,5.697422E-2,-1.8500032E-1,4.054686E-2,1.3172077E-1,-3.7500948E-2,2.2319154E-1,6.451804E-3,-1.073149E-1,5.486828E-2,-1.4124422E-1,1.1822187E-1,-6.118523E-2,1.1312777E-1,-1.1859685E-1,1.453371E-1,3.7785716E-2,-1.2650117E-1,-3.1665207E-3,-9.438037E-2,1.7378301E-3,-5.1787406E-2,5.4780263E-2,4.9872268E-2,1.47461295E-2,-1.4819998E-1,9.626874E-2],"split_indices":[5,3,5,0,2,2,0,3,2,3,0,0,2,3,5,0,2,2,2,0,0,0,0,3,2,3,5,0,3,3,5,2,0,0,0,0,0,0,0,0,0,0,0,0,0,0,0,0,0,0,0,0,0,0,0,0,0,0,0,0,0],"split_type":[0,0,0,0,0,0,0,0,0,0,0,0,0,0,0,0,0,0,0,0,0,0,0,0,0,0,0,0,0,0,0,0,0,0,0,0,0,0,0,0,0,0,0,0,0,0,0,0,0,0,0,0,0,0,0,0,0,0,0,0,0],"sum_hessian":[2.095488E3,8.4335406E2,1.252134E3,7.559082E1,7.6776324E2,1.1476484E3,1.0448555E2,2.775464E2,4.902169E2,1.1335292E3,1.4119281E1,9.3589676E1,1.0895871E1,2.235054E2,5.4040985E1,6.226681E1,4.2795007E2,1.0172831E2,1.0318008E3,6.9558506E0,7.16343E0,1.6708655E0,9.225006E0,7.963106E1,1.4387434E2,2.3358147E1,3.0682838E1,1.9495562E1,4.2771248E1,9.302684E1,3.3492322E2,8.738444E1,1.4343875E1,9.669577E2,6.484315E1,4.4107265E0,2.7527034E0,4.4669127E0,4.758093E0,7.472201E1,4.909044E0,1.1046124E1,1.3282822E2,1.2964466E1,1.0393681E1,2.1680859E1,9.001978E0,5.6505785E0,1.3844983E1,2.5787054E1,1.6984194E1,5.744568E1,3.558116E1,3.1287535E1,3.0363568E2,5.528332E1,3.2101112E1,3.3820255E2,6.287551E2,2.174032E0,6.2669117E1],"tree_param":{"num_deleted":"0","num_feature":"6","num_nodes":"61","size_leaf_vector":"1"}},{"base_weights":[-2.9650277E-5,-5.538897E-1,2.0113587E-1,-1.0502783E0,-3.9081833E-1,5.05322E-2,4.5139936E-1,2.424619E-2,-1.1924326E-1,-4.4407192E-1,1.11292675E-1,6.995013E-2,-1.9082876E-1,3.467655E-1,6.349411E-1,-1.1426818E-1,3.0998728E-1,-9.4920844E-1,-2.7243695E-1,-1.7123666E-1,1.8589027E-1,4.1196433E-1,-2.4746035E-1,1.1622264E0,5.665865E-1,-3.9986636E-2,-1.302406E-1,-1.6712573E-1,-1.3039063E-1,-8.314004E-1,2.818728E-1,2.0357367E-1,-1.4248891E-1,-1.445351E-1,4.3189666E-1,1.4605878E-1,3.777792E-1,-2.0084254E-1,6.1816597E-1,-5.547557E-2,1.7890011E-1,3.6899984E-2,-3.2156624E-2,-1.4029948E-1,-4.2763736E-2,5.574761E-2,-9.104791E-2,9.615624E-2,1.6825847E-2,5.819565E-2,2.5172357E-2,1.2326183E-1,-1.3056251E-1,-1.4581531E-1,6.436308E-2],"categories":[],"categories_nodes":[],"categories_segments":[],"categories_sizes":[],"default_left":[0,0,0,0,0,0,0,0,0,0,0,0,0,0,0,0,0,0,0,0,0,0,0,0,0,0,0,0,0,0,0,0,0,0,0,0,0,0,0,0,0,0,0,0,0,0,0,0,0,0,0,0,0,0,0],"id":14,"left_children":[1,3,5,7,9,11,13,15,-1,17,-1,19,-1,21,23,-1,-1,25,27,29,31,33,-1,35,37,39,-1,41,-1,43,45,47,-1,-1,49,-1,51,-1,53,-1,-1,-1,-1,-1,-1,-1,-1,-1,-1,-1,-1,-1,-1,-1,-1],"loss_changes":[2.2760455E2,4.350673E1,5.639379E1,2.0592026E1,3.337761E1,3.5577763E1,1.0483856E1,6.3091084E1,0E0,3.414052E1,0E0,2.5997425E1,0E0,6.71819E1,6.473694E0,0E0,0E0,3.2065224E1,3.20861E1,9.052922E1,1.8051117E1,1.3611179E1,0E0,4.4462433E0,2.5214241E1,2.836948E1,0E0,2.2660475E1,0E0,2.7633522E1,5.9475353E1,1.6373919E1,0E0,0E0,9.249481E0,0E0,1.2455003E1,0E0,1.0309578E1,0E0,0E0,0E0,0E0,0E0,0E0,0E0,0E0,0E0,0E0,0E0,0E0,0E0,0E0,0E0,0E0],"parents":[2147483647,0,0,1,1,2,2,3,3,4,4,5,5,6,6,7,7,9,9,11,11,13,13,14,14,17,17,18,18,19,19,20,20,21,21,23,23,24,24,25,25,27,27,29,29,30,30,31,31,34,34,36,36,38,38],"right_children":[2,4,6,8,10,12,14,16,-1,18,-1,20,-1,22,24,-1,-1,26,28,30,32,34,-1,36,38,40,-1,42,-1,44,46,48,-1,-1,50,-1,52,-1,54,-1,-1,-1,-1,-1,-1,-1,-1,-1,-1,-1,-1,-1,-1,-1,-1],"split_conditions":[3.2176122E-3,1.8244013E-3,4.0291804E-3,-1.4192998E1,5.149454E-3,1.4623656E-2,5.3253067E-3,-1.4835562E1,-1.1924326E-1,-9.439515E0,1.11292675E-1,4.1919933E-3,-1.9082876E-1,3.838477E-3,4.1593197E-3,-1.1426818E-1,3.0998728E-1,-5.0522503E1,4.6397682E1,2.3628909E-3,3.924333E-3,4.104407E-3,-2.4746035E-1,-2.8977426E2,4.505458E-3,-5.1964756E1,-1.302406E-1,2.03666E-3,-1.3039063E-1,3.6488026E-3,3.866533E-3,4.239284E-3,-1.4248891E-1,-1.445351E-1,-5.767781E1,1.4605878E-1,5.9099244E-3,-2.0084254E-1,3.7688443E-3,-5.547557E-2,1.7890011E-1,3.6899984E-2,-3.2156624E-2,-1.4029948E-1,-4.2763736E-2,5.574761E-2,-9.104791E-2,9.615624E-2,1.6825847E-2,5.819565E-2,2.5172357E-2,1.2326183E-1,-1.3056251E-1,-1.4581531E-1,6.436308E-2],"split_indices":[3,3,4,2,4,0,0,2,0,2,0,3,0,0,4,0,0,2,2,4,4,4,0,2,4,2,0,3,0,3,3,3,0,0,2,0,0,0,3,0,0,0,0,0,0,0,0,0,0,0,0,0,0,0,0],"split_type":[0,0,0,0,0,0,0,0,0,0,0,0,0,0,0,0,0,0,0,0,0,0,0,0,0,0,0,0,0,0,0,0,0,0,0,0,0,0,0,0,0,0,0,0,0,0,0,0,0,0,0,0,0,0,0],"sum_hessian":[2.0404906E3,5.4332416E2,1.4971664E3,1.3285628E2,4.104679E2,9.3568866E2,5.614777E2,1.5537373E1,1.1731891E2,3.9717358E2,1.3294306E1,9.275095E2,8.179135E0,3.5979764E2,2.0168008E2,1.1695807E1,3.8415654E0,9.942987E1,2.977437E2,3.0067822E2,6.268313E2,3.5254022E2,7.2574015E0,2.11401E1,1.8053998E2,2.820899E1,7.122088E1,2.7130313E2,2.64406E1,1.2212803E2,1.7855019E2,6.2095013E2,5.8811917E0,2.9306376E0,3.496096E2,1.459829E1,6.5418105E0,2.762252E0,1.7777773E2,2.259967E1,5.6093206E0,6.021962E1,2.110835E2,4.9429626E1,7.26984E1,1.4552866E2,3.3021538E1,2.6348959E1,5.946012E2,1.892254E2,1.6038419E2,4.5556297E0,1.9861807E0,1.4246869E0,1.7635304E2],"tree_param":{"num_deleted":"0","num_feature":"6","num_nodes":"55","size_leaf_vector":"1"}},{"base_weights":[2.4972104E-2,-5.50291E-1,1.923062E-1,-8.572102E-1,-7.072515E-3,-3.9124438E-1,2.555281E-1,-1.0073462E0,-2.556101E-1,-1.1575433E-1,1.6828859E-1,3.4041396E-1,-8.599621E-1,1.8814948E-1,5.324877E-1,-5.8396155E-1,-1.1019694E0,4.5420527E-1,-1.22080006E-1,-1.275333E-1,2.9539412E-1,-1.13003485E-1,5.687961E-1,-2.3029174E-1,-1.3517544E-1,1.5139058E-1,7.4474657E-1,8.8990784E-1,4.109007E-1,-9.528781E-1,1.4369015E-1,-1.18721165E-1,-9.230184E-1,1.054773E0,-1.1129329E-1,1.3678106E0,1.168921E-1,1.6424193E0,2.5274992E-1,-1.3166128E-1,7.7741754E-1,2.4684508E-1,-1.2063636E-1,8.5502225E-1,-1.4633225E-1,9.8902486E-2,5.700072E-1,-1.2339176E0,5.076223E-1,-1.2384069E-1,-5.586735E-3,1.9376202E-1,-1.19683206E-1,-7.9499155E-2,1.270269E-1,-8.664033E-2,1.6667263E-1,-1.2868851E-1,3.0964086E-2,1.9690646E-1,-6.876426E-2,-4.918247E-2,1.0339817E-1,1.0753138E-1,-1.0727508E-1,2.5875723E-2,-2.0452619E-1,-3.6600889E-3,-2.1334887E-1,-1.2714776E-1,9.375222E-2,-3.510011E-4,9.297081E-2,-2.0058385E-1,2.0396812E-2,-1.2385759E-2,5.8663797E-2],"categories":[],"categories_nodes":[],"categories_segments":[],"categories_sizes":[],"default_left":[0,0,0,0,0,0,0,0,0,0,0,0,0,0,0,0,0,0,0,0,0,0,0,0,0,0,0,0,0,0,0,0,0,0,0,0,0,0,0,0,0,0,0,0,0,0,0,0,0,0,0,0,0,0,0,0,0,0,0,0,0,0,0,0,0,0,0,0,0,0,0,0,0,0,0,0,0],"id":15,"left_children":[1,3,5,7,9,11,13,15,17,-1,19,21,23,25,27,29,31,33,-1,-1,35,-1,37,39,-1,41,43,45,47,49,-1,-1,51,53,-1,55,57,59,61,-1,63,65,67,69,-1,-1,71,73,75,-1,-1,-1,-1,-1,-1,-1,-1,-1,-1,-1,-1,-1,-1,-1,-1,-1,-1,-1,-1,-1,-1,-1,-1,-1,-1,-1,-1],"loss_changes":[1.9496799E2,7.599344E1,5.798366E1,2.5942902E1,3.376E1,5.303466E1,2.626464E1,8.513931E0,4.152272E1,0E0,2.6837223E1,2.0946428E1,2.8643852E1,2.3148663E1,1.1514778E1,3.4752995E1,1.5753784E0,3.4167755E1,0E0,0E0,2.5324326E1,0E0,1.7446924E1,4.7626896E1,0E0,2.7878836E1,1.8303574E1,1.4708824E0,3.369008E1,9.678501E0,0E0,0E0,5.381307E1,1.1384649E1,0E0,1.4169003E1,3.1678967E1,1.0497595E1,2.519996E1,0E0,1.3632301E1,2.203437E1,4.6874653E1,1.30203285E1,0E0,0E0,4.0032916E0,1.3688673E1,9.972839E0,0E0,0E0,0E0,0E0,0E0,0E0,0E0,0E0,0E0,0E0,0E0,0E0,0E0,0E0,0E0,0E0,0E0,0E0,0E0,0E0,0E0,0E0,0E0,0E0,0E0,0E0,0E0,0E0],"parents":[2147483647,0,0,1,1,2,2,3,3,4,4,5,5,6,6,7,7,8,8,10,10,11,11,12,12,13,13,14,14,15,15,16,16,17,17,20,20,22,22,23,23,25,25,26,26,27,27,28,28,29,29,32,32,33,33,35,35,36,36,37,37,38,38,40,40,41,41,42,42,43,43,46,46,47,47,48,48],"right_children":[2,4,6,8,10,12,14,16,18,-1,20,22,24,26,28,30,32,34,-1,-1,36,-1,38,40,-1,42,44,46,48,50,-1,-1,52,54,-1,56,58,60,62,-1,64,66,68,70,-1,-1,72,74,76,-1,-1,-1,-1,-1,-1,-1,-1,-1,-1,-1,-1,-1,-1,-1,-1,-1,-1,-1,-1,-1,-1,-1,-1,-1,-1,-1,-1],"split_conditions":[3.6807563E-3,1.6664362E1,2.955889E-3,2.4892509E-3,2.7703352E-3,3.990485E-3,8.919183E-3,-5.0522503E1,2.7703352E-3,-1.1575433E-1,-1.8668326E-3,-9.439515E0,2.1974572E-3,5.83926E2,-1.1151042E3,-5.1964756E1,3.4590106E-4,1.5266821E-1,-1.22080006E-1,-1.275333E-1,1.8477016E1,-1.13003485E-1,-5.8191366E0,2.020202E-3,-1.3517544E-1,5.503159E1,2.0630887E-2,-1.70701E-2,-1.5693659E-2,6.9444445E-3,1.4369015E-1,-1.18721165E-1,4.407228E-4,1.5997441E-3,-1.1129329E-1,3.2081238E-3,2.722606E1,-4.3869778E-3,2.5489884E-3,-1.3166128E-1,1.0879414E1,8.742808E-3,1.2688724E-2,-3.217651E-3,-1.4633225E-1,9.8902486E-2,6.0984907E-3,1.8649949E-2,-3.2214285E2,-1.2384069E-1,-5.586735E-3,1.9376202E-1,-1.19683206E-1,-7.9499155E-2,1.270269E-1,-8.664033E-2,1.6667263E-1,-1.2868851E-1,3.0964086E-2,1.9690646E-1,-6.876426E-2,-4.918247E-2,1.0339817E-1,1.0753138E-1,-1.0727508E-1,2.5875723E-2,-2.0452619E-1,-3.6600889E-3,-2.1334887E-1,-1.2714776E-1,9.375222E-2,-3.510011E-4,9.297081E-2,-2.0058385E-1,2.0396812E-2,-1.2385759E-2,5.8663797E-2],"split_indices":[5,2,3,0,5,5,5,2,5,0,0,2,3,2,2,2,0,2,0,0,2,0,2,3,0,2,0,0,0,3,0,0,0,3,0,5,2,0,3,0,2,5,0,0,0,0,0,5,2,0,0,0,0,0,0,0,0,0,0,0,0,0,0,0,0,0,0,0,0,0,0,0,0,0,0,0,0],"split_type":[0,0,0,0,0,0,0,0,0,0,0,0,0,0,0,0,0,0,0,0,0,0,0,0,0,0,0,0,0,0,0,0,0,0,0,0,0,0,0,0,0,0,0,0,0,0,0,0,0,0,0,0,0,0,0,0,0,0,0,0,0,0,0,0,0,0,0,0,0,0,0,0,0,0,0,0,0],"sum_hessian":[2.0236797E3,4.553581E2,1.5683217E3,2.904764E2,1.6488168E2,1.5264137E2,1.4156802E3,2.3179E2,5.8686428E1,2.1142687E1,1.43739E2,5.9626335E1,9.3015045E1,1.1403071E3,2.7537305E2,4.3843548E1,1.8794644E2,3.40623E1,2.4624126E1,1.0836887E1,1.329021E2,7.4262466E0,5.220009E1,4.1522697E1,5.1492344E1,1.0710259E3,6.928126E1,6.808554E1,2.072875E2,3.7564045E1,6.2795024E0,1.2311044E2,6.4836006E1,2.4907759E1,9.154541E0,1.793401E1,1.14968094E2,1.0845217E1,4.135487E1,1.9882189E1,2.164051E1,7.931641E2,2.7786182E2,6.661255E1,2.6687105E0,5.014463E1,1.7940908E1,1.0801926E1,1.9648558E2,2.8120798E1,9.443246E0,5.101107E0,5.97349E1,2.2699447E0,2.2637815E1,1.8527553E0,1.6081255E1,1.3132151E1,1.01835945E2,9.685307E0,1.15991E0,2.1298342E1,2.005653E1,1.9046654E1,2.5938568E0,7.8998926E2,3.1748607E0,2.6775122E2,1.0110602E1,1.9042803E0,6.470827E1,7.189693E0,1.0751215E1,6.816878E0,3.9850476E0,2.1647697E1,1.7483788E2],"tree_param":{"num_deleted":"0","num_feature":"6","num_nodes":"77","size_leaf_vector":"1"}},{"base_weights":[5.236608E-2,-2.729328E-1,2.8573534E-1,4.2811543E-1,-3.2992765E-1,8.350569E-1,2.541338E-1,6.418306E-1,-1.8303664E-1,-1.2040683E0,-2.701682E-1,9.8253734E-2,-1.7046885E-1,-2.3869585E-1,2.677386E-1,-1.3641042E-1,7.9152644E-1,-1.3689637E-1,-1.4716351E-1,-5.628582E-1,-9.675119E-2,1.4660528E-1,3.9712286E-1,4.7702947E-1,1.1859899E0,5.808245E-1,-1.4362085E-1,-7.1472204E-1,6.778638E-1,6.53861E-1,-1.5578601E-1,1.7772062E-1,-1.499903E-1,8.8630027E-1,3.3231857E-1,8.4228195E-2,-3.2593694E-2,1.3573024E-1,-8.4955275E-2,-8.245452E-2,1.2740965E-1,-1.1466304E-1,-4.917346E-2,1.5593722E-1,8.082557E-3,-1.0251643E-1,9.866499E-2,-2.5269276E-2,3.8991556E-2,-7.897832E-3,3.1687673E-2,1.0660549E-1,-1.5572904E-1,-1.4700696E-1,4.0297832E-2],"categories":[],"categories_nodes":[],"categories_segments":[],"categories_sizes":[],"default_left":[0,0,0,0,0,0,0,0,0,0,0,0,0,0,0,0,0,0,0,0,0,0,0,0,0,0,0,0,0,0,0,0,0,0,0,0,0,0,0,0,0,0,0,0,0,0,0,0,0,0,0,0,0,0,0],"id":16,"left_children":[1,3,5,7,9,11,13,15,-1,17,19,-1,-1,-1,21,-1,23,25,-1,27,29,31,33,35,37,39,-1,41,43,45,47,49,-1,51,53,-1,-1,-1,-1,-1,-1,-1,-1,-1,-1,-1,-1,-1,-1,-1,-1,-1,-1,-1,-1],"loss_changes":[1.5278731E2,3.3719166E1,2.0023346E1,3.1708729E1,4.017424E1,2.5253902E1,4.0304474E1,1.8678143E1,0E0,1.3741676E1,3.691802E1,0E0,0E0,0E0,1.7206787E1,0E0,6.1399193E0,1.125158E1,0E0,5.1563614E1,2.0419891E1,2.9475443E1,1.6491196E1,9.89743E0,9.488888E0,8.694452E0,0E0,2.2586021E1,1.549992E1,1.9772764E1,2.266866E1,2.0161482E1,0E0,2.8673176E1,6.0691956E1,0E0,0E0,0E0,0E0,0E0,0E0,0E0,0E0,0E0,0E0,0E0,0E0,0E0,0E0,0E0,0E0,0E0,0E0,0E0,0E0],"parents":[2147483647,0,0,1,1,2,2,3,3,4,4,5,5,6,6,7,7,9,9,10,10,14,14,16,16,17,17,19,19,20,20,21,21,22,22,23,23,24,24,25,25,27,27,28,28,29,29,30,30,31,31,33,33,34,34],"right_children":[2,4,6,8,10,12,14,16,-1,18,20,-1,-1,-1,22,-1,24,26,-1,28,30,32,34,36,38,40,-1,42,44,46,48,50,-1,52,54,-1,-1,-1,-1,-1,-1,-1,-1,-1,-1,-1,-1,-1,-1,-1,-1,-1,-1,-1,-1],"split_conditions":[2.4779665E-3,-1.757887E2,-2.8102636E-2,2.2334412E-3,-6.760192E1,-3.2214285E2,-2.2698436E-2,-5.1399164E2,-1.8303664E-1,-1.5019308E2,1.6008917E-3,9.8253734E-2,-1.7046885E-1,-2.3869585E-1,4.0291804E-3,-1.3641042E-1,-2.1091263E2,1.8361938E-3,-1.4716351E-1,9.647553E1,1.6409458E-3,3.924333E-3,4.219301E-3,1.7640289E-3,-1.7232466E-3,1.7730749E-3,-1.4362085E-1,-3.093581E-4,1.0321165E2,2.82806E-3,4.844224E-3,-1.4008873E-3,-1.499903E-1,8.680134E1,4.4237105E-3,8.4228195E-2,-3.2593694E-2,1.3573024E-1,-8.4955275E-2,-8.245452E-2,1.2740965E-1,-1.1466304E-1,-4.917346E-2,1.5593722E-1,8.082557E-3,-1.0251643E-1,9.866499E-2,-2.5269276E-2,3.8991556E-2,-7.897832E-3,3.1687673E-2,1.0660549E-1,-1.5572904E-1,-1.4700696E-1,4.0297832E-2],"split_indices":[4,2,0,4,2,2,0,2,0,2,4,0,0,0,4,0,2,4,0,2,4,4,4,4,0,4,0,0,2,5,5,0,0,2,4,0,0,0,0,0,0,0,0,0,0,0,0,0,0,0,0,0,0,0,0],"split_type":[0,0,0,0,0,0,0,0,0,0,0,0,0,0,0,0,0,0,0,0,0,0,0,0,0,0,0,0,0,0,0,0,0,0,0,0,0,0,0,0,0,0,0,0,0,0,0,0,0,0,0,0,0,0,0],"sum_hessian":[2.0105726E3,8.3961523E2,1.1709574E3,6.25065E1,7.771087E2,6.2143482E1,1.108814E3,5.7797356E1,4.709146E0,4.8394127E1,7.287146E2,5.934962E1,2.7938628E0,4.750764E0,1.1040632E3,3.40393E0,5.4393425E1,1.0079222E1,3.8314903E1,2.7007114E2,4.5864346E2,5.7171387E2,5.323493E2,3.1634645E1,2.2758781E1,6.7993646E0,3.2798574E0,2.4106894E2,2.9002184E1,3.258347E1,4.2606E2,5.620453E2,9.668609E0,6.0610325E1,4.7173898E2,2.179578E1,9.838864E0,2.1344723E1,1.4140582E0,2.1359222E0,4.663442E0,8.051924E1,1.605497E2,1.0992605E1,1.8009579E1,4.99601E0,2.7587458E1,3.624208E2,6.3639194E1,1.9747685E2,3.6456842E2,5.7020462E1,3.5898638E0,1.699558E1,4.547434E2],"tree_param":{"num_deleted":"0","num_feature":"6","num_nodes":"55","size_leaf_vector":"1"}},{"base_weights":[6.1525855E-2,-1.0834293E-1,3.177321E-1,-1.1020177E-1,-5.68526E-2,2.6275304E-1,6.8735486E-1,-2.2141952E-2,-1.1175473E0,-1.1869605E-1,2.7679917E-1,7.544946E-1,-1.2795527E-1,-3.6252367E-1,4.370649E-2,1.1560762E-1,-1.7605762E-1,7.770992E-1,2.4887681E-1,6.115013E-1,1.06570125E-1,-1.8230419E-1,1.1665609E-1,3.500677E-1,-7.0881987E-1,1.463216E0,2.3185983E-2,-1.7544931E-1,1.1644682E0,-1.773777E-1,2.6576343E-1,7.454953E-1,-7.500821E-1,-1.0681268E-1,7.532163E-2,-1.16315424E-1,-3.1401798E-2,-6.311215E-2,1.7456302E-1,3.8662017E-3,-1.7599548E-1,1.0063547E-1,-1.6253902E-1,4.3032773E-2,1.3592163E-1,1.4434618E-1,2.5418064E-2,9.6638076E-2,5.5559363E-2,8.829408E-2,-2.4322727E-1],"categories":[],"categories_nodes":[],"categories_segments":[],"categories_sizes":[],"default_left":[0,0,0,0,0,0,0,0,0,0,0,0,0,0,0,0,0,0,0,0,0,0,0,0,0,0,0,0,0,0,0,0,0,0,0,0,0,0,0,0,0,0,0,0,0,0,0,0,0,0,0],"id":17,"left_children":[1,3,5,-1,7,9,11,13,15,-1,17,19,21,23,25,-1,-1,27,29,31,-1,-1,-1,33,35,37,39,41,43,-1,45,47,49,-1,-1,-1,-1,-1,-1,-1,-1,-1,-1,-1,-1,-1,-1,-1,-1,-1,-1],"loss_changes":[8.574134E1,6.042073E1,1.5685402E1,0E0,4.1361786E1,1.4197895E1,5.679447E0,2.4536644E1,5.4152832E1,0E0,9.201614E0,3.3383255E0,2.0656055E1,4.407513E1,2.650351E1,0E0,0E0,1.3320589E1,2.2371613E1,1.2706432E1,0E0,0E0,0E0,3.4283306E1,2.0984444E1,8.884171E0,2.4847153E1,2.05354E1,2.8512154E0,0E0,8.209618E0,1.87743E0,1.987547E1,0E0,0E0,0E0,0E0,0E0,0E0,0E0,0E0,0E0,0E0,0E0,0E0,0E0,0E0,0E0,0E0,0E0,0E0],"parents":[2147483647,0,0,1,1,2,2,4,4,5,5,6,6,7,7,8,8,10,10,11,11,12,12,13,13,14,14,17,17,18,18,19,19,23,23,24,24,25,25,26,26,27,27,28,28,30,30,31,31,32,32],"right_children":[2,4,6,-1,8,10,12,14,16,-1,18,20,22,24,26,-1,-1,28,30,32,-1,-1,-1,34,36,38,40,42,44,-1,46,48,50,-1,-1,-1,-1,-1,-1,-1,-1,-1,-1,-1,-1,-1,-1,-1,-1,-1,-1],"split_conditions":[5.685772E-3,1.535155E-3,1.4371072E-2,-1.1020177E-1,3.2980205E-3,2.5489884E-3,2.0630887E-2,3.0251204E-3,-1.9042362E-2,-1.1869605E-1,2.6580938E-3,1.5820699E-2,2.8150767E-1,1.0652614E-3,3.0391326E-3,1.1560762E-1,-1.7605762E-1,5.4788515E-3,2.7457532E-3,7.05687E-3,1.06570125E-1,-1.8230419E-1,1.1665609E-1,-3.451251E-4,2.7703352E-3,1.498585E-3,5.579862E-3,2.4991285E-3,2.538892E-3,-1.773777E-1,2.5627883E-3,-2.8102636E-2,7.8192875E-3,-1.0681268E-1,7.532163E-2,-1.16315424E-1,-3.1401798E-2,-6.311215E-2,1.7456302E-1,3.8662017E-3,-1.7599548E-1,1.0063547E-1,-1.6253902E-1,4.3032773E-2,1.3592163E-1,1.4434618E-1,2.5418064E-2,9.6638076E-2,5.5559363E-2,8.829408E-2,-2.4322727E-1],"split_indices":[5,3,5,0,4,3,0,5,0,0,4,0,0,4,5,0,0,3,4,0,0,0,0,0,5,4,5,4,4,0,3,0,3,0,0,0,0,0,0,0,0,0,0,0,0,0,0,0,0,0,0],"split_type":[0,0,0,0,0,0,0,0,0,0,0,0,0,0,0,0,0,0,0,0,0,0,0,0,0,0,0,0,0,0,0,0,0,0,0,0,0,0,0,0,0,0,0,0,0,0,0,0,0,0,0],"sum_hessian":[1.9678221E3,1.1833976E3,7.844245E2,5.719958E1,1.1261981E3,6.8457904E2,9.984543E1,1.0915914E3,3.460658E1,5.6995535E0,6.788795E2,9.243109E1,7.4143353E0,1.7645888E2,9.1513257E2,7.4194593E0,2.7187119E1,3.427862E1,6.446009E2,6.5583176E1,2.684792E1,3.0671136E0,4.3472214E0,5.761071E1,1.18848175E2,1.1969396E1,9.031632E2,9.993447E0,2.4285175E1,4.426606E0,6.401743E2,6.018615E1,5.3970246E0,1.2331942E1,4.527877E1,5.4235264E1,6.461291E1,1.2334563E0,1.073594E1,8.9641754E2,6.745687E0,5.636372E0,4.3570747E0,5.872142E0,1.8413034E1,4.946791E0,6.352275E2,2.568964E1,3.449651E1,2.9494553E0,2.4475694E0],"tree_param":{"num_deleted":"0","num_feature":"6","num_nodes":"51","size_leaf_vector":"1"}},{"base_weights":[5.533397E-2,-2.6940268E-1,2.2976825E-1,-4.816429E-1,1.0859616E-3,1.032492E-1,3.856091E-1,2.5594842E-1,-5.840738E-1,-8.6377305E-1,1.06576316E-1,1.2598999E-1,-1.4288084E-1,5.683794E-1,2.3373389E-1,-1.4486012E-1,4.412346E-1,-1.3644563E-1,-4.8595935E-1,-1.13241665E-1,3.8975134E-1,8.199144E-1,-6.484457E-2,-8.031999E-2,2.646841E-1,8.289361E-1,4.2387083E-1,-1.7147213E-1,2.640141E-1,1.8574325E-2,1.1033334E0,1.3270853E-1,-5.2491826E-1,1.027806E-1,-8.1049494E-2,-1.15412615E-1,1.1301503E0,1.4276831E-1,-1.506805E-1,5.376375E-2,-1.7486227E-1,1.0703787E0,1.7217489E-1,6.6744727E-1,1.0402082E0,-7.1259165E-1,5.101003E-1,2.8590444E-1,-1.3924794E-1,6.8721525E-2,-1.2851192E-1,1.4449464E-1,4.175549E-2,-6.0604155E-2,2.9358318E-2,-9.528005E-2,1.2514447E-1,-1.2629874E-1,-4.256264E-3,1.5577147E-2,-1.031877E-1,1.2949435E-1,-1.23906754E-1,-1.222849E-2,4.7493413E-2,-1.6462351E-1,7.4472636E-2,1.2222431E-1,7.511564E-2,6.371528E-2,-2.7773738E-1,3.729192E-2,1.0263193E-1,-1.1761223E-3,4.251159E-2],"categories":[],"categories_nodes":[],"categories_segments":[],"categories_sizes":[],"default_left":[0,0,0,0,0,0,0,0,0,0,0,0,0,0,0,0,0,0,0,0,0,0,0,0,0,0,0,0,0,0,0,0,0,0,0,0,0,0,0,0,0,0,0,0,0,0,0,0,0,0,0,0,0,0,0,0,0,0,0,0,0,0,0,0,0,0,0,0,0,0,0,0,0,0,0],"id":18,"left_children":[1,3,5,7,9,11,13,15,17,19,21,23,-1,25,27,-1,29,-1,31,-1,33,35,37,39,41,43,45,-1,47,49,51,-1,53,-1,-1,-1,55,-1,57,59,-1,61,63,65,67,69,71,73,-1,-1,-1,-1,-1,-1,-1,-1,-1,-1,-1,-1,-1,-1,-1,-1,-1,-1,-1,-1,-1,-1,-1,-1,-1,-1,-1],"loss_changes":[1.1201161E2,3.9712708E1,2.5276848E1,2.9447304E1,2.7802753E1,2.4847729E1,1.5768158E1,1.5637885E1,2.5225906E1,1.1667736E1,3.344345E1,2.0136354E1,0E0,9.32399E0,1.8977318E1,0E0,1.2163879E1,0E0,2.2101479E1,0E0,5.8501844E0,3.3742977E1,2.8332674E1,6.3528564E1,3.10342E1,2.259018E0,1.6975637E1,0E0,1.1619539E1,2.5169434E1,3.195734E0,0E0,2.003244E1,0E0,0E0,0E0,1.2926704E1,0E0,2.5004227E1,2.9165142E1,0E0,2.39146E1,3.383747E1,1.0962011E1,8.635063E-1,3.6277027E1,1.0695869E1,1.28643055E1,0E0,0E0,0E0,0E0,0E0,0E0,0E0,0E0,0E0,0E0,0E0,0E0,0E0,0E0,0E0,0E0,0E0,0E0,0E0,0E0,0E0,0E0,0E0,0E0,0E0,0E0,0E0],"parents":[2147483647,0,0,1,1,2,2,3,3,4,4,5,5,6,6,7,7,8,8,9,9,10,10,11,11,13,13,14,14,16,16,18,18,20,20,21,21,22,22,23,23,24,24,25,25,26,26,28,28,29,29,30,30,32,32,36,36,38,38,39,39,41,41,42,42,43,43,44,44,45,45,46,46,47,47],"right_children":[2,4,6,8,10,12,14,16,18,20,22,24,-1,26,28,-1,30,-1,32,-1,34,36,38,40,42,44,46,-1,48,50,52,-1,54,-1,-1,-1,56,-1,58,60,-1,62,64,66,68,70,72,74,-1,-1,-1,-1,-1,-1,-1,-1,-1,-1,-1,-1,-1,-1,-1,-1,-1,-1,-1,-1,-1,-1,-1,-1,-1,-1,-1],"split_conditions":[4.263268E-3,1.1855046E1,4.0291804E-3,-1.5019308E2,1.358921E-3,3.924333E-3,-4.139E1,-9.370817E-3,-6.1194866E1,1.3604988E2,1.8477016E1,-8.873382E0,-1.4288084E-1,-1.2935324E-2,-3.0264061E1,-1.4486012E-1,3.971831E-3,-1.3644563E-1,-1.07629E-2,-1.13241665E-1,9.784607E-4,3.2241736E-3,1.3655657E-3,4.4375416E-3,-4.5344667E0,-1.70701E-2,-9.175931E-3,-1.7147213E-1,2.6554698E-2,1.5144133E-3,4.074975E-3,1.3270853E-1,2.4871484E-3,1.027806E-1,-8.1049494E-2,-1.15412615E-1,-2.0066889E-3,1.4276831E-1,1.498585E-3,-2.0092672E1,-1.7486227E-1,2.8647874E-3,4.095004E-3,7.410729E-3,5.149454E-3,-8.5362976E2,-6.354639E1,8.373162E1,-1.3924794E-1,6.8721525E-2,-1.2851192E-1,1.4449464E-1,4.175549E-2,-6.0604155E-2,2.9358318E-2,-9.528005E-2,1.2514447E-1,-1.2629874E-1,-4.256264E-3,1.5577147E-2,-1.031877E-1,1.2949435E-1,-1.23906754E-1,-1.222849E-2,4.7493413E-2,-1.6462351E-1,7.4472636E-2,1.2222431E-1,7.511564E-2,6.371528E-2,-2.7773738E-1,3.729192E-2,1.0263193E-1,-1.1761223E-3,4.251159E-2],"split_indices":[5,2,4,2,4,4,2,0,2,2,2,2,0,0,2,0,5,0,0,0,4,5,4,0,2,0,0,0,0,4,5,0,4,0,0,0,0,0,4,2,0,4,0,5,4,2,2,2,0,0,0,0,0,0,0,0,0,0,0,0,0,0,0,0,0,0,0,0,0,0,0,0,0,0,0],"split_type":[0,0,0,0,0,0,0,0,0,0,0,0,0,0,0,0,0,0,0,0,0,0,0,0,0,0,0,0,0,0,0,0,0,0,0,0,0,0,0,0,0,0,0,0,0,0,0,0,0,0,0,0,0,0,0,0,0,0,0,0,0,0,0,0,0,0,0,0,0,0,0,0,0,0,0],"sum_hessian":[1.9754016E3,6.899095E2,1.2854921E3,3.8634842E2,3.0356107E2,7.107641E2,5.7472797E2,4.680887E1,3.3953955E2,3.2116764E1,2.714443E2,7.01337E2,9.4271145E0,2.5929056E2,3.1543744E2,3.8679135E0,4.2940956E1,3.6365963E1,3.0317358E2,2.6593817E1,5.5229473E0,5.1972042E1,2.1947226E2,2.8182184E2,4.195151E2,9.056634E1,1.6872423E2,3.9252665E0,3.1151218E2,2.6929325E1,1.6011631E1,5.628064E0,2.9754553E2,3.7541935E0,1.7687539E0,6.6453E0,4.5326744E1,1.1022022E1,2.0845024E2,2.6169675E2,2.0125092E1,4.2007343E1,3.7750778E2,5.3956463E1,3.660988E1,1.1305088E1,1.5741914E2,3.0832544E2,3.1867115E0,1.8163282E1,8.766043E0,9.85142E0,6.160211E0,2.7106183E2,2.6483717E1,2.0716248E0,4.325512E1,1.7438457E1,1.9101178E2,2.4008664E2,2.1610113E1,3.8724457E1,3.2828867E0,1.9151173E2,1.8599605E2,1.0459172E0,5.2910545E1,2.027007E1,1.6339808E1,7.225064E0,4.080024E0,1.2588288E2,3.153626E1,9.831113E1,2.1001433E2],"tree_param":{"num_deleted":"0","num_feature":"6","num_nodes":"75","size_leaf_vector":"1"}},{"base_weights":[7.8181006E-2,-3.217088E-1,2.0748866E-1,1.4244284E-2,-5.752509E-1,6.0255464E-2,3.8579705E-1,-1.0946231E-1,1.8641163E-1,-1.4894162E-1,-8.8393116E-1,5.047986E-1,-7.635997E-2,8.8824147E-1,3.041417E-1,1.3950131E0,3.7575096E-2,9.948221E-1,-4.4343653E-1,-1.1897172E-1,-6.200103E-1,5.937178E-1,-5.039878E-1,-1.0578879E0,3.8112465E-2,1.0849499E0,-2.0619899E-1,9.403766E-2,4.4988063E-1,3.6125204E-1,2.2675548E0,1.4282413E-1,-1.3357706E-1,-9.662055E-2,1.4988562E0,-1.1534818E-1,4.698209E-1,9.841541E-2,-7.3990357E-1,6.704043E-1,1.0034072E-1,1.0085473E-1,-1.194937E0,-1.2957609E-1,-6.590216E-1,-6.947386E-2,3.8759083E-1,5.404677E-1,1.5574926E0,-1.2916884E-1,8.00271E-1,-2.7715945E-1,5.0962245E-1,3.764195E-1,8.0601203E-1,-9.6981615E-2,1.483541E-1,2.957231E-1,1.3647828E-1,-1.3608917E-3,1.0437977E-1,1.7469196E-1,-8.137475E-2,1.921884E-1,-8.172309E-3,-9.9214844E-2,-1.1927045E-2,4.956973E-2,9.245452E-2,-2.0177488E-1,4.2607144E-2,-1.8275616E-1,3.986824E-2,1.4996023E-1,-1.2811933E-1,1.3789597E-2,-1.0064884E-1,5.083077E-2,-3.680874E-2,7.8372434E-2,-1.0763389E-1,7.822224E-2,1.6515552E-1,-8.971386E-2,1.5125112E-1,-1.1930301E-2,-1.7889789E-1,6.256779E-2,-1.7277096E-1,5.073008E-2,-7.588202E-2,-1.22610606E-1,9.102022E-2],"categories":[],"categories_nodes":[],"categories_segments":[],"categories_sizes":[],"default_left":[0,0,0,0,0,0,0,0,0,0,0,0,0,0,0,0,0,0,0,0,0,0,0,0,0,0,0,0,0,0,0,0,0,0,0,0,0,0,0,0,0,0,0,0,0,0,0,0,0,0,0,0,0,0,0,0,0,0,0,0,0,0,0,0,0,0,0,0,0,0,0,0,0,0,0,0,0,0,0,0,0,0,0,0,0,0,0,0,0,0,0,0,0],"id":19,"left_children":[1,3,5,7,9,11,13,-1,15,17,19,21,23,25,27,29,31,33,35,-1,37,39,41,43,45,47,49,51,53,55,57,59,-1,-1,61,-1,63,-1,65,67,69,-1,71,-1,73,75,77,79,81,-1,83,85,87,89,91,-1,-1,-1,-1,-1,-1,-1,-1,-1,-1,-1,-1,-1,-1,-1,-1,-1,-1,-1,-1,-1,-1,-1,-1,-1,-1,-1,-1,-1,-1,-1,-1,-1,-1,-1,-1,-1,-1],"loss_changes":[1.0134796E2,4.085233E1,3.8814022E1,3.958631E1,3.5702255E1,4.9438164E1,2.7071991E1,0E0,3.216659E1,3.9469387E1,1.1837448E1,1.7472366E1,7.0068886E1,2.0307396E1,1.7585442E1,1.6619255E1,2.3383684E1,2.5220972E1,6.0939087E1,0E0,1.7455936E1,6.5298004E0,1.7892874E1,5.1299286E0,2.1047585E1,1.9265945E1,1.7375809E1,3.6887196E1,8.484169E0,1.6763744E1,2.0071564E0,2.1367403E1,0E0,0E0,1.271471E1,0E0,3.3451813E1,0E0,1.2556652E1,6.162651E0,1.800472E1,0E0,1.2416594E1,0E0,3.7520325E1,8.328441E1,1.2221533E1,1.5885669E1,1.5017853E0,0E0,1.146249E1,2.9728046E1,3.0257221E1,4.2603127E1,1.317448E1,0E0,0E0,0E0,0E0,0E0,0E0,0E0,0E0,0E0,0E0,0E0,0E0,0E0,0E0,0E0,0E0,0E0,0E0,0E0,0E0,0E0,0E0,0E0,0E0,0E0,0E0,0E0,0E0,0E0,0E0,0E0,0E0,0E0,0E0,0E0,0E0,0E0,0E0],"parents":[2147483647,0,0,1,1,2,2,3,3,4,4,5,5,6,6,8,8,9,9,10,10,11,11,12,12,13,13,14,14,15,15,16,16,17,17,18,18,20,20,21,21,22,22,23,23,24,24,25,25,26,26,27,27,28,28,29,29,30,30,31,31,34,34,36,36,38,38,39,39,40,40,42,42,44,44,45,45,46,46,47,47,48,48,50,50,51,51,52,52,53,53,54,54],"right_children":[2,4,6,8,10,12,14,-1,16,18,20,22,24,26,28,30,32,34,36,-1,38,40,42,44,46,48,50,52,54,56,58,60,-1,-1,62,-1,64,-1,66,68,70,-1,72,-1,74,76,78,80,82,-1,84,86,88,90,92,-1,-1,-1,-1,-1,-1,-1,-1,-1,-1,-1,-1,-1,-1,-1,-1,-1,-1,-1,-1,-1,-1,-1,-1,-1,-1,-1,-1,-1,-1,-1,-1,-1,-1,-1,-1,-1,-1],"split_conditions":[3.1767644E-3,-1.0296412E-2,7.980492E-3,1.4105508E-3,-2.810166E0,-1.8273526E2,1.7814599E-3,-1.0946231E-1,1.4648126E-3,9.1082486E-4,5.387102E-3,-6.6047474E-3,1.8742647E-3,2.1374397E-2,3.1583428E-3,1.4586317E-3,3.0295968E-3,7.997485E-4,2.1147807E-3,-1.1897172E-1,5.6026652E-3,5.4491186E-3,1.2394108E-3,-1.233299E-3,4.801252E-3,1.7706404E-2,3.2749772E-2,5.5350554E-3,7.1615894E2,-1.0919018E-2,-2.0554984E-2,-1.2697915E-2,-1.3357706E-1,-9.662055E-2,2.1342966E-3,-1.1534818E-1,2.146074E-3,9.841541E-2,2.8024288E-3,4.104407E-3,5.8557545E-3,1.0085473E-1,4.9157087E-3,-1.2957609E-1,-1.0224949E-3,3.3648878E-3,-1.625E-2,1.4043657E-2,1.4586317E-3,-1.2916884E-1,5.844641E1,5.087882E-3,4.3108683E-2,1.7938179E2,4.368068E-3,-9.6981615E-2,1.483541E-1,2.957231E-1,1.3647828E-1,-1.3608917E-3,1.0437977E-1,1.7469196E-1,-8.137475E-2,1.921884E-1,-8.172309E-3,-9.9214844E-2,-1.1927045E-2,4.956973E-2,9.245452E-2,-2.0177488E-1,4.2607144E-2,-1.8275616E-1,3.986824E-2,1.4996023E-1,-1.2811933E-1,1.3789597E-2,-1.0064884E-1,5.083077E-2,-3.680874E-2,7.8372434E-2,-1.0763389E-1,7.822224E-2,1.6515552E-1,-8.971386E-2,1.5125112E-1,-1.1930301E-2,-1.7889789E-1,6.256779E-2,-1.7277096E-1,5.073008E-2,-7.588202E-2,-1.22610606E-1,9.102022E-2],"split_indices":[3,1,1,4,2,2,4,0,4,4,1,1,4,1,4,4,3,4,4,0,1,4,4,1,4,1,1,3,2,1,1,1,0,0,3,0,4,0,3,4,4,0,4,0,1,4,1,1,4,0,2,3,1,2,4,0,0,0,0,0,0,0,0,0,0,0,0,0,0,0,0,0,0,0,0,0,0,0,0,0,0,0,0,0,0,0,0,0,0,0,0,0,0],"split_type":[0,0,0,0,0,0,0,0,0,0,0,0,0,0,0,0,0,0,0,0,0,0,0,0,0,0,0,0,0,0,0,0,0,0,0,0,0,0,0,0,0,0,0,0,0,0,0,0,0,0,0,0,0,0,0,0,0,0,0,0,0,0,0,0,0,0,0,0,0,0,0,0,0,0,0,0,0,0,0,0,0,0,0,0,0,0,0,0,0,0,0,0,0],"sum_hessian":[1.9579047E3,4.77855E2,