{"learner":{"attributes":{"best_iteration":"297","best_score":"0.4463332754483224","scikit_learn":"{\"_estimator_type\": \"classifier\"}"},"feature_names":[],"feature_types":[],"gradient_booster":{"model":{"gbtree_model_param":{"num_parallel_tree":"1","num_trees":"300"},"iteration_indptr":[0,1,2,3,4,5,6,7,8,9,10,11,12,13,14,15,16,17,18,19,20,21,22,23,24,25,26,27,28,29,30,31,32,33,34,35,36,37,38,39,40,41,42,43,44,45,46,47,48,49,50,51,52,53,54,55,56,57,58,59,60,61,62,63,64,65,66,67,68,69,70,71,72,73,74,75,76,77,78,79,80,81,82,83,84,85,86,87,88,89,90,91,92,93,94,95,96,97,98,99,100,101,102,103,104,105,106,107,108,109,110,111,112,113,114,115,116,117,118,119,120,121,122,123,124,125,126,127,128,129,130,131,132,133,134,135,136,137,138,139,140,141,142,143,144,145,146,147,148,149,150,151,152,153,154,155,156,157,158,159,160,161,162,163,164,165,166,167,168,169,170,171,172,173,174,175,176,177,178,179,180,181,182,183,184,185,186,187,188,189,190,191,192,193,194,195,196,197,198,199,200,201,202,203,204,205,206,207,208,209,210,211,212,213,214,215,216,217,218,219,220,221,222,223,224,225,226,227,228,229,230,231,232,233,234,235,236,237,238,239,240,241,242,243,244,245,246,247,248,249,250,251,252,253,254,255,256,257,258,259,260,261,262,263,264,265,266,267,268,269,270,271,272,273,274,275,276,277,278,279,280,281,282,283,284,285,286,287,288,289,290,291,292,293,294,295,296,297,298,299,300],"tree_info":[0,0,0,0,0,0,0,0,0,0,0,0,0,0,0,0,0,0,0,0,0,0,0,0,0,0,0,0,0,0,0,0,0,0,0,0,0,0,0,0,0,0,0,0,0,0,0,0,0,0,0,0,0,0,0,0,0,0,0,0,0,0,0,0,0,0,0,0,0,0,0,0,0,0,0,0,0,0,0,0,0,0,0,0,0,0,0,0,0,0,0,0,0,0,0,0,0,0,0,0,0,0,0,0,0,0,0,0,0,0,0,0,0,0,0,0,0,0,0,0,0,0,0,0,0,0,0,0,0,0,0,0,0,0,0,0,0,0,0,0,0,0,0,0,0,0,0,0,0,0,0,0,0,0,0,0,0,0,0,0,0,0,0,0,0,0,0,0,0,0,0,0,0,0,0,0,0,0,0,0,0,0,0,0,0,0,0,0,0,0,0,0,0,0,0,0,0,0,0,0,0,0,0,0,0,0,0,0,0,0,0,0,0,0,0,0,0,0,0,0,0,0,0,0,0,0,0,0,0,0,0,0,0,0,0,0,0,0,0,0,0,0,0,0,0,0,0,0,0,0,0,0,0,0,0,0,0,0,0,0,0,0,0,0,0,0,0,0,0,0,0,0,0,0,0,0,0,0,0,0,0,0,0,0,0,0,0,0,0,0,0,0,0,0,0,0,0,0,0,0],"trees":[{"base_weights":[-1.5045787E-2,-4.867854E-1,6.099872E-1,-8.5422415E-1,-1.711406E-1,1.0734263E-1,8.555258E-1,-9.9117464E-1,-1.23456344E-1,3.0708423E-1,-3.0359572E-1,-9.482874E-2,5.5037516E-1,5.60362E-1,1.0339935E0,-1.1117977E0,-1.7023468E-1,8.029189E-1,-4.3107197E-1,4.0363523E-1,-1.1230268E0,-4.4449747E-1,3.0416143E-1,-1.9082986E-1,1.2721859E0,6.249377E-1,-1.4750001E-1,6.185152E-1,-4.5162505E-1,9.337304E-1,1.4124501E0,-1.0427012E0,-1.7826539E0,1.8035442E-2,-1.72E-1,-1.16E-1,9.807353E-1,-2.8610371E-2,-1.0272288E0,2.0978814E-1,1.039654E0,1.2263625E-1,-1.7529412E-1,-3.9111608E-1,-1.3655719E0,4.0108356E-1,-9.095072E-1,-1.2335612E-1,-1.2813323E0,-1.0666668E-1,1.5643214E0,6.904867E-1,-1.4E-1,9.5120496E-1,4.6349034E-1,-1.6347826E-1,2.71566E-1,-1.16E-1,9.467463E-1,1.6280364E-1,7.446099E-1,-9.617182E-2,-1.5753518E-1,-1.9353847E-1,-1.07788935E-1,-4.5999E-2,1.2971489E-1,-1.95611E-2,1.2327254E-1,1.3113414E-1,-3.3931546E-2,-1.201454E-1,9.542747E-2,2.838198E-2,-1.5578948E-1,1.17795944E-1,-1.16E-1,-6.309413E-2,-1.4628345E-2,1.2263625E-1,-1.6141284E-1,-3.6803965E-2,5.1927537E-2,-1.664E-1,9.542747E-2,-1.7375E-1,-5.7263537E-3,1.2263625E-1,-1.8046512E-1,1.7312923E-1,5.279047E-2,3.367077E-2,1.1221176E-1,1.0589033E-1,-4.9813498E-2,-4.219598E-2,6.619493E-2,8.4713064E-2,-1.3E-1,-1.16E-1,9.598782E-2,1.3267182E-1,-2.7696153E-2],"categories":[],"categories_nodes":[],"categories_segments":[],"categories_sizes":[],"default_left":[0,0,0,0,0,0,0,0,0,0,0,0,0,0,0,0,0,0,0,0,0,0,0,0,0,0,0,0,0,0,0,0,0,0,0,0,0,0,0,0,0,0,0,0,0,0,0,0,0,0,0,0,0,0,0,0,0,0,0,0,0,0,0,0,0,0,0,0,0,0,0,0,0,0,0,0,0,0,0,0,0,0,0,0,0,0,0,0,0,0,0,0,0,0,0,0,0,0,0,0,0,0,0],"id":0,"left_children":[1,3,5,7,9,11,13,15,17,19,21,23,25,27,29,31,33,35,37,39,41,43,45,47,49,51,-1,53,55,57,59,61,63,65,-1,-1,67,69,71,73,75,-1,-1,77,79,81,83,85,87,-1,89,91,-1,93,95,-1,97,-1,99,-1,101,-1,-1,-1,-1,-1,-1,-1,-1,-1,-1,-1,-1,-1,-1,-1,-1,-1,-1,-1,-1,-1,-1,-1,-1,-1,-1,-1,-1,-1,-1,-1,-1,-1,-1,-1,-1,-1,-1,-1,-1,-1,-1],"loss_changes":[6.9941376E2,1.5654553E2,1.25724396E2,6.2245697E1,4.624504E1,3.0200665E1,3.5351288E1,5.172101E1,2.8745878E1,2.2248291E1,4.9066593E1,3.051221E1,1.6786226E1,1.562957E1,1.4594727E1,1.9084229E1,2.0219893E1,9.896139E0,1.8014702E1,1.804588E1,1.7318907E1,2.2117424E1,1.3014623E1,1.5684845E1,1.2138905E1,1.45159E1,0E0,1.2152E1,1.3109839E1,1.0331451E1,1.1072372E1,1.6248505E1,2.0488281E0,3.8657536E1,0E0,0E0,7.3537273E0,1.9618765E1,1.1651596E1,1.5453762E1,1.1853844E1,0E0,0E0,2.568534E1,1.8078537E1,9.365341E0,1.3210129E1,2.1672024E1,1.8628382E1,0E0,1.2830429E0,1.4763824E1,0E0,1.26536255E1,3.0278812E1,0E0,1.000489E1,0E0,1.04470215E1,0E0,1.4256792E1,0E0,0E0,0E0,0E0,0E0,0E0,0E0,0E0,0E0,0E0,0E0,0E0,0E0,0E0,0E0,0E0,0E0,0E0,0E0,0E0,0E0,0E0,0E0,0E0,0E0,0E0,0E0,0E0,0E0,0E0,0E0,0E0,0E0,0E0,0E0,0E0,0E0,0E0,0E0,0E0,0E0,0E0],"parents":[2147483647,0,0,1,1,2,2,3,3,4,4,5,5,6,6,7,7,8,8,9,9,10,10,11,11,12,12,13,13,14,14,15,15,16,16,17,17,18,18,19,19,20,20,21,21,22,22,23,23,24,24,25,25,27,27,28,28,29,29,30,30,31,31,32,32,33,33,36,36,37,37,38,38,39,39,40,40,43,43,44,44,45,45,46,46,47,47,48,48,50,50,51,51,53,53,54,54,56,56,58,58,60,60],"right_children":[2,4,6,8,10,12,14,16,18,20,22,24,26,28,30,32,34,36,38,40,42,44,46,48,50,52,-1,54,56,58,60,62,64,66,-1,-1,68,70,72,74,76,-1,-1,78,80,82,84,86,88,-1,90,92,-1,94,96,-1,98,-1,100,-1,102,-1,-1,-1,-1,-1,-1,-1,-1,-1,-1,-1,-1,-1,-1,-1,-1,-1,-1,-1,-1,-1,-1,-1,-1,-1,-1,-1,-1,-1,-1,-1,-1,-1,-1,-1,-1,-1,-1,-1,-1,-1,-1],"split_conditions":[2.3133392E-4,4.821803E-3,8.435137E-3,9.7173145E-3,-2.0376517E-2,1.415326E-2,4.8420322E-4,3.2321017E-2,1.0105123E-2,1.6976712E-2,4.167604E-2,8.348658E-4,8.269231E-3,2.0885227E-2,3.0311184E-2,2.0691212E-2,8.420332E-3,3.1869938E-3,3.936147E-3,5.8081835E-3,4.977139E-5,2.0038449E-4,1.7314227E-2,8.115598E-3,8.280453E-3,7.962096E-2,-1.4750001E-1,2.9518094E-4,2.0088188E-2,4.6758857E-3,7.595039E-2,4.324934E-3,7.291797E-3,7.826221E-3,-1.72E-1,-1.16E-1,-1.2372907E-2,-3.941898E-2,1.9462465E-4,5.7073566E-3,-2.4080917E-2,1.2263625E-1,-1.7529412E-1,4.2378027E-3,2.456644E-3,5.407985E-3,2.4891023E-2,2.4083296E-4,2.3409832E-4,-1.0666668E-1,1.2030348E-2,2.660031E-2,-1.4E-1,7.201932E-2,5.6929393E-3,-1.6347826E-1,6.548807E-3,-1.16E-1,5.7717003E-3,1.6280364E-1,3.6726512E-2,-9.617182E-2,-1.5753518E-1,-1.9353847E-1,-1.07788935E-1,-4.5999E-2,1.2971489E-1,-1.95611E-2,1.2327254E-1,1.3113414E-1,-3.3931546E-2,-1.201454E-1,9.542747E-2,2.838198E-2,-1.5578948E-1,1.17795944E-1,-1.16E-1,-6.309413E-2,-1.4628345E-2,1.2263625E-1,-1.6141284E-1,-3.6803965E-2,5.1927537E-2,-1.664E-1,9.542747E-2,-1.7375E-1,-5.7263537E-3,1.2263625E-1,-1.8046512E-1,1.7312923E-1,5.279047E-2,3.367077E-2,1.1221176E-1,1.0589033E-1,-4.9813498E-2,-4.219598E-2,6.619493E-2,8.4713064E-2,-1.3E-1,-1.16E-1,9.598782E-2,1.3267182E-1,-2.7696153E-2],"split_indices":[6,0,0,4,5,4,6,5,4,4,5,6,0,0,4,5,4,1,0,1,6,6,4,0,1,5,0,6,5,1,5,0,4,4,0,0,5,5,6,1,5,0,0,1,4,0,4,6,6,0,1,5,0,5,1,0,1,0,4,0,4,0,0,0,0,0,0,0,0,0,0,0,0,0,0,0,0,0,0,0,0,0,0,0,0,0,0,0,0,0,0,0,0,0,0,0,0,0,0,0,0,0,0],"split_type":[0,0,0,0,0,0,0,0,0,0,0,0,0,0,0,0,0,0,0,0,0,0,0,0,0,0,0,0,0,0,0,0,0,0,0,0,0,0,0,0,0,0,0,0,0,0,0,0,0,0,0,0,0,0,0,0,0,0,0,0,0,0,0,0,0,0,0,0,0,0,0,0,0,0,0,0,0,0,0,0,0,0,0,0,0,0,0,0,0,0,0,0,0,0,0,0,0,0,0,0,0,0,0],"sum_hessian":[2.3701123E3,1.350906E3,1.0192064E3,6.2330273E2,7.276032E2,3.350883E2,6.841181E2,5.2451263E2,9.879014E1,1.5736583E2,5.7023737E2,2.3047476E2,1.0461353E2,2.595516E2,4.245665E2,4.5690253E2,6.761009E1,2.4144495E1,7.4645645E1,1.4815138E2,9.21445E0,4.632672E2,1.06970184E2,2.1622362E2,1.4251146E1,1.0161353E2,3E0,2.4590825E2,1.3643349E1,3.3859518E2,8.597133E1,4.1668808E2,4.021445E1,6.1110092E1,6.5E0,1.5E0,2.2644495E1,4.5287846E1,2.9357798E1,1.1468463E2,3.3466743E1,1.7144495E0,7.5E0,4.393383E2,2.39289E1,9.975573E1,7.2144494E0,2.0475917E2,1.146445E1,1.25E0,1.3001146E1,9.911353E1,2.5E0,7.6326836E1,1.6958142E2,4.75E0,8.893349E0,1.5E0,3.3709518E2,6.3791283E1,2.2180046E1,3.6429474E2,5.239335E1,3.15E1,8.71445E0,4.4894497E1,1.6215595E1,3.9644494E0,1.8680046E1,7.857798E0,3.7430046E1,2.7393349E1,1.9644495E0,1.1093463E2,3.75E0,3.1966743E1,1.5E0,2.2093578E2,2.1840253E2,1.7144495E0,2.2214449E1,1.2893349E1,8.686238E1,5.25E0,1.9644495E0,7E0,1.9775917E2,1.7144495E0,9.75E0,1.0536697E1,2.4644494E0,5.557454E1,4.353899E1,7.136238E1,4.9644494E0,3.0751146E1,1.3883028E2,6.8933487E0,2E0,1.5E0,3.3559518E2,1.4001146E1,8.178899E0],"tree_param":{"num_deleted":"0","num_feature":"7","num_nodes":"103","size_leaf_vector":"1"}},{"base_weights":[5.762691E-3,-7.123737E-1,3.6689317E-1,-8.632319E-1,-9.649084E-2,1.2447759E-2,6.491168E-1,-9.783793E-1,-4.3078285E-1,-3.947462E-1,4.3628877E-1,3.2337237E-2,-1.7163202E-1,5.038921E-1,1.0853052E0,-4.6871153E-1,-1.1394726E0,-6.419771E-1,3.368871E-1,1.9418819E-1,-7.974103E-1,8.815136E-1,-2.012177E-1,-3.0196375E-1,1.0529105E-1,-1.0120642E0,5.415049E-1,-1.100462E-1,1.1032674E0,-8.583715E-2,-9.793369E-1,-1.4327358E0,-1.004645E0,-1.20201506E-1,-1.080003E0,1.1286814E0,-3.0504134E-1,4.981337E-1,-1.6231166E-1,3.0382803E-1,-1.2580189E0,2.777126E-1,1.0803916E0,-1.7016684E-1,4.6806785E-1,2.6832107E-1,-9.772993E-1,-8.753246E-2,3.4991693E-1,-1.7741919E-1,7.418628E-2,5.535905E-1,-1.5313815E-1,1.2032313E0,8.152273E-1,-4.8792463E-2,1.0544783E-1,2.869617E-2,-1.3660651E-1,-3.6046278E-2,-1.5185559E-1,-6.494215E-2,-1.19000606E-1,-7.6217525E-2,5.139908E-2,-1.3047986E-1,-1.541723E-2,-1.0110047E-1,1.4303066E-1,4.0537365E-2,-1.6476493E-1,-8.179165E-2,8.3326906E-2,1.5302259E-1,-2.9710442E-2,-1.3658631E-1,-0E0,9.4926246E-2,-1.3566186E-1,6.0094573E-2,1.2501305E-1,-8.328683E-2,1.4120018E-1,8.32819E-2,-3.1382114E-2,-1.2391291E-1,6.945341E-2,3.299086E-3,-5.4042734E-2,5.8448374E-2,-2.5751265E-3,1.5302847E-1,-1.440277E-1,4.2724505E-2,7.1903385E-2,1.02648936E-1,1.3508388E-1,9.000596E-2,-1.23392224E-1],"categories":[],"categories_nodes":[],"categories_segments":[],"categories_sizes":[],"default_left":[0,0,0,0,0,0,0,0,0,0,0,0,0,0,0,0,0,0,0,0,0,0,0,0,0,0,0,0,0,0,0,0,0,0,0,0,0,0,0,0,0,0,0,0,0,0,0,0,0,0,0,0,0,0,0,0,0,0,0,0,0,0,0,0,0,0,0,0,0,0,0,0,0,0,0,0,0,0,0,0,0,0,0,0,0,0,0,0,0,0,0,0,0,0,0,0,0,0,0],"id":1,"left_children":[1,3,5,7,9,11,13,15,17,19,21,23,-1,25,27,29,31,33,35,37,39,41,43,45,47,49,51,-1,53,55,57,59,61,63,65,67,69,71,-1,73,75,77,79,-1,81,83,85,87,89,-1,91,93,-1,95,97,-1,-1,-1,-1,-1,-1,-1,-1,-1,-1,-1,-1,-1,-1,-1,-1,-1,-1,-1,-1,-1,-1,-1,-1,-1,-1,-1,-1,-1,-1,-1,-1,-1,-1,-1,-1,-1,-1,-1,-1,-1,-1,-1,-1],"loss_changes":[6.195335E2,7.408353E1,1.5894925E2,3.1394928E1,2.5357367E1,2.4157827E1,5.534503E1,4.0837585E1,2.2445217E1,2.4468277E1,1.6493866E1,1.7056704E1,0E0,3.8468414E1,9.850952E0,2.392221E1,1.348114E1,2.4393692E1,1.5723047E1,2.4024233E1,3.143885E1,3.645113E0,2.5284307E1,4.8554417E1,2.7163834E1,1.38829E1,1.7045288E1,0E0,5.1152344E0,3.332956E1,2.627975E1,1.0142548E1,1.6578186E1,2.095149E1,1.1804657E1,1.0366497E1,1.7329012E1,1.6999643E1,0E0,1.4390842E1,5.7962418E0,1.2102604E1,1.1057739E0,0E0,2.2743675E1,2.2852297E1,2.6137112E1,1.764105E1,2.2430115E1,0E0,1.912701E1,1.3112366E1,0E0,2.5502777E0,1.1457054E1,0E0,0E0,0E0,0E0,0E0,0E0,0E0,0E0,0E0,0E0,0E0,0E0,0E0,0E0,0E0,0E0,0E0,0E0,0E0,0E0,0E0,0E0,0E0,0E0,0E0,0E0,0E0,0E0,0E0,0E0,0E0,0E0,0E0,0E0,0E0,0E0,0E0,0E0,0E0,0E0,0E0,0E0,0E0,0E0],"parents":[2147483647,0,0,1,1,2,2,3,3,4,4,5,5,6,6,7,7,8,8,9,9,10,10,11,11,13,13,14,14,15,15,16,16,17,17,18,18,19,19,20,20,21,21,22,22,23,23,24,24,25,25,26,26,28,28,29,29,30,30,31,31,32,32,33,33,34,34,35,35,36,36,37,37,39,39,40,40,41,41,42,42,44,44,45,45,46,46,47,47,48,48,50,50,51,51,53,53,54,54],"right_children":[2,4,6,8,10,12,14,16,18,20,22,24,-1,26,28,30,32,34,36,38,40,42,44,46,48,50,52,-1,54,56,58,60,62,64,66,68,70,72,-1,74,76,78,80,-1,82,84,86,88,90,-1,92,94,-1,96,98,-1,-1,-1,-1,-1,-1,-1,-1,-1,-1,-1,-1,-1,-1,-1,-1,-1,-1,-1,-1,-1,-1,-1,-1,-1,-1,-1,-1,-1,-1,-1,-1,-1,-1,-1,-1,-1,-1,-1,-1,-1,-1,-1,-1],"split_conditions":[6.2338053E-3,9.360214E-3,8.7060705E-3,4.3517174E-3,4.2378027E-3,7.595039E-2,1.5085881E-2,-9.533028E-3,2.9187078E-2,-1.2372907E-2,4.627598E-3,6.59743E-3,-1.7163202E-1,5.8513666E-3,1.0223662E-2,3.465057E-3,8.375324E-4,4.9267574E-3,3.341078E-2,3.8984774E-3,9.876098E-3,4.391257E-3,4.916419E-3,4.9745576E-3,5.4990863E-3,9.923993E-3,4.8813332E-2,-1.100462E-1,1.1117923E-1,3.4000836E-3,-3.4485463E-2,2.1693262E-3,8.499282E-3,3.164023E-3,6.038076E-3,5.0471453E-3,3.2236595E-3,1.0252908E-2,-1.6231166E-1,4.282064E-3,4.5518722E-2,4.3213447E-3,-1.7435303E-2,-1.7016684E-1,1.3870276E-2,5.0395457E-3,8.395812E-3,7.7681043E-3,1.1355245E-2,-1.7741919E-1,1.0171545E-2,1.5315369E-2,-1.5313815E-1,1.7052878E-2,3.3449087E-2,-4.8792463E-2,1.0544783E-1,2.869617E-2,-1.3660651E-1,-3.6046278E-2,-1.5185559E-1,-6.494215E-2,-1.19000606E-1,-7.6217525E-2,5.139908E-2,-1.3047986E-1,-1.541723E-2,-1.0110047E-1,1.4303066E-1,4.0537365E-2,-1.6476493E-1,-8.179165E-2,8.3326906E-2,1.5302259E-1,-2.9710442E-2,-1.3658631E-1,-0E0,9.4926246E-2,-1.3566186E-1,6.0094573E-2,1.2501305E-1,-8.328683E-2,1.4120018E-1,8.32819E-2,-3.1382114E-2,-1.2391291E-1,6.945341E-2,3.299086E-3,-5.4042734E-2,5.8448374E-2,-2.5751265E-3,1.5302847E-1,-1.440277E-1,4.2724505E-2,7.1903385E-2,1.02648936E-1,1.3508388E-1,9.000596E-2,-1.23392224E-1],"split_indices":[3,4,3,1,1,5,3,5,5,5,1,4,0,4,2,1,5,4,5,1,4,1,1,4,1,2,4,0,5,2,5,1,5,2,1,3,2,4,0,3,5,1,5,0,5,1,2,3,4,0,3,4,0,3,4,0,0,0,0,0,0,0,0,0,0,0,0,0,0,0,0,0,0,0,0,0,0,0,0,0,0,0,0,0,0,0,0,0,0,0,0,0,0,0,0,0,0,0,0],"split_type":[0,0,0,0,0,0,0,0,0,0,0,0,0,0,0,0,0,0,0,0,0,0,0,0,0,0,0,0,0,0,0,0,0,0,0,0,0,0,0,0,0,0,0,0,0,0,0,0,0,0,0,0,0,0,0,0,0,0,0,0,0,0,0,0,0,0,0,0,0,0,0,0,0,0,0,0,0,0,0,0,0,0,0,0,0,0,0,0,0,0,0,0,0,0,0,0,0,0,0],"sum_hessian":[2.387002E3,7.9829004E2,1.588712E3,6.407715E2,1.575186E2,7.0486664E2,8.838454E2,5.048518E2,1.3591965E2,1.0127219E2,5.624641E1,6.978767E2,6.989933E0,6.6486835E2,2.1897704E2,1.2233569E2,3.825161E2,1.0682496E2,2.9094694E1,4.1233574E1,6.0038612E1,3.2984585E1,2.3261826E1,1.2420666E2,5.7367004E2,1.5405255E1,6.494631E2,1.2482548E0,2.1772879E2,7.069299E1,5.1642696E1,1.17208374E2,2.6530774E2,4.9437653E1,5.7387306E1,1.275697E1,1.6337725E1,3.5994404E1,5.239169E0,1.7742506E1,4.2296104E1,8.890851E0,2.4093735E1,6.7457147E0,1.6516111E1,6.758735E1,5.6619305E1,3.2093228E2,2.5273776E2,8.73524E0,6.670016E0,6.4647516E2,2.9879532E0,1.5901755E2,5.8711243E1,5.275191E1,1.7941082E1,1.2081748E1,3.9560947E1,9.157397E0,1.0805097E2,9.270061E1,1.7260713E2,2.4546175E1,2.4891478E1,4.5759403E1,1.1627904E1,1.2445954E0,1.1512375E1,1.1092128E1,5.2455964E0,6.9527116E0,2.9041693E1,5.38094E0,1.2361566E1,3.8835907E1,3.4601972E0,6.6420007E0,2.24885E0,7.6408577E0,1.6452877E1,6.9497046E0,9.566406E0,3.418228E1,3.340507E1,4.9228195E1,7.391109E0,2.5403534E2,6.6896935E1,1.5541017E2,9.732758E1,3.428871E0,3.2411451E0,3.6892343E2,2.775517E2,7.629512E1,8.272242E1,5.6962627E1,1.7486155E0],"tree_param":{"num_deleted":"0","num_feature":"7","num_nodes":"99","size_leaf_vector":"1"}},{"base_weights":[-1.1600501E-2,-5.2702683E-1,4.2747232E-1,-7.1182734E-1,-3.2207896E-3,1.7409065E-1,8.044729E-1,-8.36657E-1,3.1611703E-2,-6.817518E-1,9.444891E-2,5.3492993E-2,5.1001984E-1,1.1034626E0,6.243741E-1,-8.976528E-1,2.016203E-2,-1.6217302E-1,1.4860833E-1,-1.6826667E-1,-2.328439E-1,6.024079E-1,-1.5390213E-1,-1.1825054E0,8.4044375E-2,7.0139444E-1,1.11679986E-1,1.1759483E0,3.8010588E-1,3.1155864E-2,7.8095865E-1,-5.889951E-1,-1.0237664E0,6.4803284E-1,-5.2138406E-1,6.654983E-1,-1.6905811E-1,1.1785021E0,-7.5119394E-1,2.2900407E-1,9.6745616E-1,-2.7126887E-1,9.210062E-1,-1.608347E-1,-1.6405886E-1,1.1653624E-1,-9.969656E-1,1.2830849E-1,8.763074E-1,7.147909E-1,-1.5295577E-1,2.7804762E-1,1.2191777E0,9.652353E-1,-8.3375484E-1,3.9473557E-1,-4.422237E-1,6.7768866E-1,1.1721301E0,-1.1541563E-1,-3.8350783E-2,-1.04708366E-1,1.562448E-1,1.0175147E-1,-1.4091595E-1,-1.6145049E-1,-6.006035E-3,-1.2969407E-1,8.2385324E-2,-4.2353882E-3,-1.5991114E-1,4.427685E-2,1.4898908E-1,-1.6767417E-1,2.016957E-2,1.16069846E-1,-7.806372E-2,1.4541017E-1,5.9300818E-2,4.6644147E-2,-5.245411E-2,-9.302075E-4,1.1723403E-1,8.217725E-2,-1.201018E-1,1.9448014E-2,-3.0808492E-2,-1.7315139E-1,3.692932E-2,7.232582E-2,-1.7440857E-1,1.0372835E-1,-1.34781925E-2,-1.6697664E-2,1.2546133E-1,-8.818248E-2,6.0646564E-2,8.2316086E-2,-1.2994629E-1,6.1629843E-2,1.250283E-1,2.898821E-3,1.2152722E-1,-1.6389018E-1,2.3018282E-2,-1.6674526E-1,7.285854E-2,-1.7966178E-1,5.990762E-3,7.4471496E-2,-9.076987E-3,1.3223706E-1,6.1190195E-2],"categories":[],"categories_nodes":[],"categories_segments":[],"categories_sizes":[],"default_left":[0,0,0,0,0,0,0,0,0,0,0,0,0,0,0,0,0,0,0,0,0,0,0,0,0,0,0,0,0,0,0,0,0,0,0,0,0,0,0,0,0,0,0,0,0,0,0,0,0,0,0,0,0,0,0,0,0,0,0,0,0,0,0,0,0,0,0,0,0,0,0,0,0,0,0,0,0,0,0,0,0,0,0,0,0,0,0,0,0,0,0,0,0,0,0,0,0,0,0,0,0,0,0,0,0,0,0,0,0,0,0,0,0],"id":2,"left_children":[1,3,5,7,9,11,13,15,17,19,21,23,25,27,29,31,33,-1,35,-1,37,39,41,43,45,47,49,51,53,55,57,59,61,63,65,67,69,71,73,75,77,79,81,-1,83,85,87,89,91,93,95,97,99,101,103,105,107,109,111,-1,-1,-1,-1,-1,-1,-1,-1,-1,-1,-1,-1,-1,-1,-1,-1,-1,-1,-1,-1,-1,-1,-1,-1,-1,-1,-1,-1,-1,-1,-1,-1,-1,-1,-1,-1,-1,-1,-1,-1,-1,-1,-1,-1,-1,-1,-1,-1,-1,-1,-1,-1,-1,-1],"loss_changes":[5.345613E2,1.0511243E2,1.2159479E2,7.463757E1,1.8979788E1,3.0875408E1,2.6719666E1,3.6051697E1,2.2592049E1,1.5616226E1,3.1610138E1,2.1273958E1,1.520377E1,9.414124E0,2.9820732E1,2.4234558E1,1.6188143E1,0E0,1.815756E1,0E0,1.995116E1,1.08714695E1,2.1407598E1,5.450117E0,1.9383966E1,1.3397057E1,1.08209E1,6.2278137E0,1.4315184E1,1.1951808E1,9.310303E0,2.1337906E1,2.8983032E1,1.819381E1,1.2583166E1,1.4085264E1,1.2190134E1,8.317909E-1,1.7918411E1,4.055537E1,6.4313087E0,2.874744E1,4.0327663E0,0E0,6.328336E0,1.7787548E1,1.692836E1,3.7981575E1,1.7111443E1,1.0148355E1,2.6638338E1,9.06216E0,2.1310883E0,2.963499E0,6.2247963E0,2.8222979E1,2.074481E1,1.0645004E1,3.3428726E0,0E0,0E0,0E0,0E0,0E0,0E0,0E0,0E0,0E0,0E0,0E0,0E0,0E0,0E0,0E0,0E0,0E0,0E0,0E0,0E0,0E0,0E0,0E0,0E0,0E0,0E0,0E0,0E0,0E0,0E0,0E0,0E0,0E0,0E0,0E0,0E0,0E0,0E0,0E0,0E0,0E0,0E0,0E0,0E0,0E0,0E0,0E0,0E0,0E0,0E0,0E0,0E0,0E0,0E0],"parents":[2147483647,0,0,1,1,2,2,3,3,4,4,5,5,6,6,7,7,8,8,9,9,10,10,11,11,12,12,13,13,14,14,15,15,16,16,18,18,20,20,21,21,22,22,23,23,24,24,25,25,26,26,27,27,28,28,29,29,30,30,31,31,32,32,33,33,34,34,35,35,36,36,37,37,38,38,39,39,40,40,41,41,42,42,44,44,45,45,46,46,47,47,48,48,49,49,50,50,51,51,52,52,53,53,54,54,55,55,56,56,57,57,58,58],"right_children":[2,4,6,8,10,12,14,16,18,20,22,24,26,28,30,32,34,-1,36,-1,38,40,42,44,46,48,50,52,54,56,58,60,62,64,66,68,70,72,74,76,78,80,82,-1,84,86,88,90,92,94,96,98,100,102,104,106,108,110,112,-1,-1,-1,-1,-1,-1,-1,-1,-1,-1,-1,-1,-1,-1,-1,-1,-1,-1,-1,-1,-1,-1,-1,-1,-1,-1,-1,-1,-1,-1,-1,-1,-1,-1,-1,-1,-1,-1,-1,-1,-1,-1,-1,-1,-1,-1,-1,-1,-1,-1,-1,-1,-1,-1],"split_conditions":[1.6039348E-4,6.5952186E-3,4.8420322E-4,5.6929393E-3,3.2992156E-3,1.06525915E-2,-3.735175E-2,3.8760725E-2,5.695872E-3,4.762454E-5,5.695872E-3,6.1629987E-3,2.9187078E-2,2.253184E-2,9.1642225E-3,-9.533028E-3,3.5373187E-3,-1.6217302E-1,5.9106634E-3,-1.6826667E-1,5.2078325E-5,1.2310226E-2,5.983341E-2,5.6221196E-3,7.595039E-2,8.509764E-3,8.033351E-3,5.4990863E-3,-1.1146274E-1,1.1807498E-2,2.253184E-2,3.4099068E-3,8.355313E-3,4.500504E-3,4.5185415E-3,7.533745E-5,8.265355E-3,1.2197505E-3,8.372409E-5,-1.2372907E-2,3.4742963E-3,-2.9385235E-2,1.1470216E-4,-1.608347E-1,5.8848704E-3,3.7554174E-4,1.2868948E-2,5.3073484E-3,8.113535E-3,1.5065147E-2,6.863606E-2,5.279767E-3,-1.4879285E-1,2.8006775E-2,-6.449827E-2,6.3408767E-3,9.026797E-3,1.929808E-2,1.11307455E-2,-1.1541563E-1,-3.8350783E-2,-1.04708366E-1,1.562448E-1,1.0175147E-1,-1.4091595E-1,-1.6145049E-1,-6.006035E-3,-1.2969407E-1,8.2385324E-2,-4.2353882E-3,-1.5991114E-1,4.427685E-2,1.4898908E-1,-1.6767417E-1,2.016957E-2,1.16069846E-1,-7.806372E-2,1.4541017E-1,5.9300818E-2,4.6644147E-2,-5.245411E-2,-9.302075E-4,1.1723403E-1,8.217725E-2,-1.201018E-1,1.9448014E-2,-3.0808492E-2,-1.7315139E-1,3.692932E-2,7.232582E-2,-1.7440857E-1,1.0372835E-1,-1.34781925E-2,-1.6697664E-2,1.2546133E-1,-8.818248E-2,6.0646564E-2,8.2316086E-2,-1.2994629E-1,6.1629843E-2,1.250283E-1,2.898821E-3,1.2152722E-1,-1.6389018E-1,2.3018282E-2,-1.6674526E-1,7.285854E-2,-1.7966178E-1,5.990762E-3,7.4471496E-2,-9.076987E-3,1.3223706E-1,6.1190195E-2],"split_indices":[6,0,6,1,1,0,5,5,3,6,3,3,5,0,0,5,0,0,1,0,6,5,5,0,5,3,3,1,5,3,0,0,3,1,0,6,3,5,6,5,1,5,6,0,0,6,1,1,1,0,5,1,5,0,5,0,1,0,1,0,0,0,0,0,0,0,0,0,0,0,0,0,0,0,0,0,0,0,0,0,0,0,0,0,0,0,0,0,0,0,0,0,0,0,0,0,0,0,0,0,0,0,0,0,0,0,0,0,0,0,0,0,0],"split_type":[0,0,0,0,0,0,0,0,0,0,0,0,0,0,0,0,0,0,0,0,0,0,0,0,0,0,0,0,0,0,0,0,0,0,0,0,0,0,0,0,0,0,0,0,0,0,0,0,0,0,0,0,0,0,0,0,0,0,0,0,0,0,0,0,0,0,0,0,0,0,0,0,0,0,0,0,0,0,0,0,0,0,0,0,0,0,0,0,0,0,0,0,0,0,0,0,0,0,0,0,0,0,0,0,0,0,0,0,0,0,0,0,0],"sum_hessian":[2.3600393E3,1.0856387E3,1.2744006E3,8.021039E2,2.8353476E2,7.6318915E2,5.112115E2,6.867945E2,1.1530941E2,3.5053654E1,2.4848111E2,5.626546E2,2.0053455E2,1.9003848E2,3.21173E2,6.412161E2,4.5578316E1,6.714015E0,1.0859539E2,9.933701E0,2.5119955E1,8.125832E1,1.672228E2,1.2583733E1,5.5007086E2,1.3477345E2,6.576109E1,1.7203535E2,1.8003124E1,6.745571E1,2.537173E2,1.8787155E2,4.533446E2,2.1101349E1,2.4476969E1,4.1038906E1,6.755649E1,6.353735E0,1.876622E1,4.110932E1,4.0149002E1,1.5151941E2,1.5703385E1,8.395803E0,4.187929E0,5.349758E2,1.5095038E1,3.205466E1,1.02718796E2,1.9651567E1,4.6109528E1,8.349831E0,1.6368552E2,1.2341319E1,5.6618056E0,3.8366024E1,2.908969E1,2.0308943E2,5.062787E1,4.8733696E1,1.3913786E2,4.499219E2,3.422693E0,1.8358133E1,2.743215E0,6.4580145E0,1.8018953E1,2.4802625E0,3.8558643E1,6.306813E1,4.4883585E0,2.705165E0,3.64857E0,9.187575E0,9.578645E0,2.1353655E1,1.9755667E1,1.6088915E1,2.406009E1,3.8408836E1,1.13110565E2,3.4602928E0,1.2243093E1,2.2038357E0,1.9840935E0,4.526622E2,8.231365E1,9.690787E0,5.404251E0,2.48316E1,7.22306E0,8.867397E1,1.4044825E1,7.6542463E0,1.1997321E1,2.351299E1,2.2596537E1,6.607999E0,1.7418314E0,9.209839E0,1.5447568E2,2.9207258E0,9.420593E0,2.9687493E0,2.693056E0,4.7473745E0,3.3618652E1,7.2244406E0,2.186525E1,1.8694482E2,1.6144608E1,3.8708286E1,1.1919583E1],"tree_param":{"num_deleted":"0","num_feature":"7","num_nodes":"113","size_leaf_vector":"1"}},{"base_weights":[-1.54426815E-2,-3.2636163E-1,4.9949875E-1,-6.945564E-1,-8.1942186E-2,3.311823E-1,8.3502275E-1,-8.358861E-1,-1.9965569E-2,-1.7852099E-1,2.6820233E-1,-1.5294512E-1,3.5049844E-1,-2.643872E-1,8.7908375E-1,-1.530893E-1,-9.163913E-1,-3.6116296E-1,3.6960706E-1,-1.3471475E-1,-7.3175114E-1,4.576306E-1,-8.951009E-1,6.658426E-1,2.759356E-1,3.2884172E-1,-1.5718405E-1,1.1626208E0,8.1400216E-1,1.6782247E-1,-3.170488E-1,-4.8998654E-1,-1.0598866E0,3.8214856E-1,-8.914286E-1,4.9977744E-1,-1.3037895E-1,-3.1186995E-1,6.3783355E-2,-1.5630102E0,-1.3295433E-1,-1.1191195E0,5.637428E-1,2.8996584E-1,-1.4703459E0,-1.16511285E-1,7.02414E-1,5.0928926E-1,1.148412E-1,-4.379178E-1,1.17895804E-1,1.2299316E0,2.7486316E-3,-1.258506E-1,8.33093E-1,7.4457E-2,-6.3494466E-2,-8.7609075E-2,1.1373534E-3,-1.2657613E-1,-5.0596803E-2,-6.249056E-2,7.60861E-2,5.066185E-2,-1.2045955E-1,1.2278665E-2,1.2189058E-1,6.3532785E-2,-3.7025303E-2,-4.1714467E-2,1.8412162E-2,-1.8596205E-1,-5.416247E-2,1.0365416E-1,-6.458026E-2,1.22546256E-1,-1.716521E-1,7.365703E-2,2.9431313E-2,1.4581975E-1,-5.779019E-2,1.1822994E-1,-1.8198727E-1,1.437662E-1,6.346443E-2,-9.4832405E-2,5.8096915E-2,-2.3165522E-2,3.361491E-2,-1.3688217E-1,6.13617E-2,1.4650017E-2,1.2887354E-1,6.36769E-2,1.0084188E-1],"categories":[],"categories_nodes":[],"categories_segments":[],"categories_sizes":[],"default_left":[0,0,0,0,0,0,0,0,0,0,0,0,0,0,0,0,0,0,0,0,0,0,0,0,0,0,0,0,0,0,0,0,0,0,0,0,0,0,0,0,0,0,0,0,0,0,0,0,0,0,0,0,0,0,0,0,0,0,0,0,0,0,0,0,0,0,0,0,0,0,0,0,0,0,0,0,0,0,0,0,0,0,0,0,0,0,0,0,0,0,0,0,0,0,0],"id":3,"left_children":[1,3,5,7,9,11,13,15,17,19,21,-1,23,25,27,29,31,33,35,37,39,41,43,45,47,49,-1,51,53,-1,55,57,59,61,63,65,-1,67,69,71,73,75,77,79,81,-1,83,85,87,89,-1,91,-1,-1,93,-1,-1,-1,-1,-1,-1,-1,-1,-1,-1,-1,-1,-1,-1,-1,-1,-1,-1,-1,-1,-1,-1,-1,-1,-1,-1,-1,-1,-1,-1,-1,-1,-1,-1,-1,-1,-1,-1,-1,-1],"loss_changes":[3.7587766E2,1.3161618E2,4.9518097E1,5.5557495E1,2.9837738E1,2.1637306E1,1.4554413E1,2.6277008E1,1.3726591E1,1.6573399E1,4.238542E1,0E0,1.3481873E1,9.967941E0,4.0848694E0,1.607688E1,2.5716248E1,2.213424E1,1.10503435E1,2.2626324E1,2.4681927E1,2.8134598E1,1.8927593E1,8.201069E0,1.7744877E1,6.486986E0,0E0,3.6820145E0,1.0267715E1,0E0,1.6939121E1,2.151282E1,3.586548E1,9.485549E0,1.4941666E1,1.2028097E1,0E0,1.8997528E1,1.761265E1,5.0897026E0,1.8879725E1,1.7086084E1,6.9002647E0,1.0654514E1,1.92529E1,0E0,4.333973E0,2.0736801E1,2.1766697E1,6.224464E0,0E0,2.6847992E0,0E0,0E0,7.1995544E0,0E0,0E0,0E0,0E0,0E0,0E0,0E0,0E0,0E0,0E0,0E0,0E0,0E0,0E0,0E0,0E0,0E0,0E0,0E0,0E0,0E0,0E0,0E0,0E0,0E0,0E0,0E0,0E0,0E0,0E0,0E0,0E0,0E0,0E0,0E0,0E0,0E0,0E0,0E0,0E0],"parents":[2147483647,0,0,1,1,2,2,3,3,4,4,5,5,6,6,7,7,8,8,9,9,10,10,12,12,13,13,14,14,15,15,16,16,17,17,18,18,19,19,20,20,21,21,22,22,23,23,24,24,25,25,27,27,28,28,30,30,31,31,32,32,33,33,34,34,35,35,37,37,38,38,39,39,40,40,41,41,42,42,43,43,44,44,46,46,47,47,48,48,49,49,51,51,54,54],"right_children":[2,4,6,8,10,12,14,16,18,20,22,-1,24,26,28,30,32,34,36,38,40,42,44,46,48,50,-1,52,54,-1,56,58,60,62,64,66,-1,68,70,72,74,76,78,80,82,-1,84,86,88,90,-1,92,-1,-1,94,-1,-1,-1,-1,-1,-1,-1,-1,-1,-1,-1,-1,-1,-1,-1,-1,-1,-1,-1,-1,-1,-1,-1,-1,-1,-1,-1,-1,-1,-1,-1,-1,-1,-1,-1,-1,-1,-1,-1,-1],"split_conditions":[8.549945E-3,5.569929E-3,7.669125E-4,6.497342E-3,8.761683E-3,4.813169E-3,7.4257427E-3,2.370113E-5,1.2766814E-2,3.0479082E-4,8.063376E-3,-1.5294512E-1,-4.9450815E-2,1.3332685E-2,8.76208E-4,-3.150113E-2,-8.796269E-3,-1.2372907E-2,1.1301349E-2,6.7997104E-3,3.4023245E-4,6.8970476E-3,9.5748175E-3,8.7060705E-3,9.556825E-3,1.3916168E-2,-1.5718405E-1,1.1117923E-1,1.1196391E-2,1.6782247E-1,1.8957346E-3,4.119649E-3,5.094949E-3,4.8873588E-3,3.9504357E-3,9.46354E-3,-1.3037895E-1,5.6236186E-3,6.6480003E-3,3.580576E-2,5.6461245E-3,8.818983E-3,7.072698E-3,1.4537385E-4,8.890864E-3,-1.16511285E-1,8.904112E-3,6.7781773E-3,1.1196391E-2,1.0620062E-3,1.17895804E-1,-7.705457E-2,2.7486316E-3,-1.258506E-1,2.4891023E-2,7.4457E-2,-6.3494466E-2,-8.7609075E-2,1.1373534E-3,-1.2657613E-1,-5.0596803E-2,-6.249056E-2,7.60861E-2,5.066185E-2,-1.2045955E-1,1.2278665E-2,1.2189058E-1,6.3532785E-2,-3.7025303E-2,-4.1714467E-2,1.8412162E-2,-1.8596205E-1,-5.416247E-2,1.0365416E-1,-6.458026E-2,1.22546256E-1,-1.716521E-1,7.365703E-2,2.9431313E-2,1.4581975E-1,-5.779019E-2,1.1822994E-1,-1.8198727E-1,1.437662E-1,6.346443E-2,-9.4832405E-2,5.8096915E-2,-2.3165522E-2,3.361491E-2,-1.3688217E-1,6.13617E-2,1.4650017E-2,1.2887354E-1,6.36769E-2,1.0084188E-1],"split_indices":[3,3,6,0,0,4,0,6,5,6,3,0,5,4,6,5,5,5,4,3,6,4,4,3,3,3,0,5,3,0,0,0,3,3,4,4,0,3,4,5,4,0,3,6,0,0,3,4,3,6,0,5,0,0,4,0,0,0,0,0,0,0,0,0,0,0,0,0,0,0,0,0,0,0,0,0,0,0,0,0,0,0,0,0,0,0,0,0,0,0,0,0,0,0,0],"split_type":[0,0,0,0,0,0,0,0,0,0,0,0,0,0,0,0,0,0,0,0,0,0,0,0,0,0,0,0,0,0,0,0,0,0,0,0,0,0,0,0,0,0,0,0,0,0,0,0,0,0,0,0,0,0,0,0,0,0,0,0,0,0,0,0,0,0,0,0,0,0,0,0,0,0,0,0,0,0,0,0,0,0,0,0,0,0,0,0,0,0,0,0,0,0,0],"sum_hessian":[2.345784E3,1.4629954E3,8.827885E2,5.8280457E2,8.801908E2,5.893998E2,2.9338876E2,4.815338E2,1.01270744E2,6.90507E2,1.8968375E2,5.1995015E0,5.8420026E2,1.1024916E1,2.8236383E2,5.122424E1,4.3030957E2,5.416303E1,4.710771E1,6.4116235E2,4.9344685E1,1.6371718E2,2.5966564E1,1.0994509E2,4.742552E2,8.046149E0,2.9787655E0,4.927775E1,2.3308609E2,3.4002533E0,4.7823986E1,1.0963482E2,3.2067474E2,2.2589058E1,3.157397E1,4.4413933E1,2.6937778E0,3.3875955E2,3.0240283E2,1.991756E1,2.9427124E1,9.661746E0,1.5405544E2,8.590759E0,1.7375805E1,1.4951867E0,1.08449905E2,1.9255173E2,2.8170346E2,4.423569E0,3.6225805E0,4.6357265E1,2.9204848E0,1.4870847E0,2.3159901E2,1.0638794E1,3.7185192E1,6.1627033E1,4.8007786E1,2.3271577E2,8.795897E1,5.9234815E0,1.6665577E1,5.6068206E0,2.596715E1,2.9997864E1,1.4416068E1,1.8994867E1,3.1976468E2,5.986336E1,2.4253946E2,1.4723321E1,5.1942396E0,8.599879E0,2.0827244E1,1.7144486E0,7.9472976E0,9.257051E1,6.148492E1,3.4209104E0,5.169849E0,1.7122726E0,1.5663531E1,7.32203E0,1.0112788E2,8.386514E0,1.841652E2,1.0960264E2,1.7210083E2,2.2367654E0,2.1868038E0,2.653817E0,4.370345E1,1.11711044E2,1.1988796E2],"tree_param":{"num_deleted":"0","num_feature":"7","num_nodes":"95","size_leaf_vector":"1"}},{"base_weights":[2.468154E-2,-5.8314747E-1,2.6930907E-1,-9.531249E-1,-3.6462024E-1,9.47206E-2,6.817803E-1,-7.231287E-1,-1.3194869E0,-5.584877E-1,1.2731248E-1,-7.890851E-1,1.4303593E-1,5.2178454E-1,9.721975E-1,-1.0487708E0,-4.7005707E-1,-2.225065E-1,-1.5092616E0,-4.6400636E-1,-1.5001373E0,9.5056194E-1,-1.4420019E-1,-3.353569E-1,-1.4403745E0,9.019334E-2,4.7212595E-1,-1.3854514E-1,5.4671425E-1,6.4034295E-1,1.1019354E0,-1.2705233E0,-8.2412936E-2,1.2856172E-1,-8.199327E-1,-9.3619907E-1,1.649313E-1,-1.5798777E-1,-3.7312907E-1,-5.1463526E-1,9.4813645E-1,-3.68608E-2,-1.7364861E-1,-1.0234316E-1,1.0900873E0,-6.079956E-1,6.6013396E-1,-7.1794194E-1,6.8946266E-1,-7.114232E-1,-1.6961661E-1,1.7656566E-1,-2.4740139E-1,1.2683619E0,3.161888E-1,8.86487E-1,4.7464207E-1,1.0558197E0,6.253998E-2,1.14733E0,8.1906366E-1,-1.3810548E-1,1.11534856E-1,-1.4386618E-1,1.1537003E-1,-1.0493275E-1,8.874844E-2,-1.3350977E-1,-3.646409E-2,1.7144857E-2,-1.452029E-1,1.3206756E-1,-1.3462992E-1,-4.514461E-2,-1.7028299E-1,1.3305512E-1,7.7983174E-3,-1.1069869E-1,8.5434444E-2,7.9870686E-2,1.4015274E-1,4.4725277E-2,-1.1716866E-1,-6.879243E-2,1.01380184E-1,-1.07586525E-1,7.2552934E-2,1.0516477E-1,-9.2873506E-2,-1.412532E-1,9.906273E-2,-5.5498155E-3,3.0586937E-2,-2.0071877E-2,-1.6461025E-1,3.4406386E-2,1.3611491E-1,-1.5305299E-1,3.720043E-2,1.3447855E-1,6.49414E-2,3.460908E-2,8.246731E-2,7.078984E-2,1.358401E-1,-8.7887965E-2,8.534256E-2,1.0625173E-1,1.461439E-1,-4.855622E-3,1.14669465E-1],"categories":[],"categories_nodes":[],"categories_segments":[],"categories_sizes":[],"default_left":[0,0,0,0,0,0,0,0,0,0,0,0,0,0,0,0,0,0,0,0,0,0,0,0,0,0,0,0,0,0,0,0,0,0,0,0,0,0,0,0,0,0,0,0,0,0,0,0,0,0,0,0,0,0,0,0,0,0,0,0,0,0,0,0,0,0,0,0,0,0,0,0,0,0,0,0,0,0,0,0,0,0,0,0,0,0,0,0,0,0,0,0,0,0,0,0,0,0,0,0,0,0,0,0,0,0,0,0,0,0,0],"id":4,"left_children":[1,3,5,7,9,11,13,15,17,19,21,23,25,27,29,31,33,35,37,39,41,43,45,47,49,51,53,-1,55,57,59,61,63,65,67,69,-1,-1,71,73,75,77,-1,-1,79,81,83,85,87,89,-1,91,93,95,97,99,101,103,105,107,109,-1,-1,-1,-1,-1,-1,-1,-1,-1,-1,-1,-1,-1,-1,-1,-1,-1,-1,-1,-1,-1,-1,-1,-1,-1,-1,-1,-1,-1,-1,-1,-1,-1,-1,-1,-1,-1,-1,-1,-1,-1,-1,-1,-1,-1,-1,-1,-1,-1,-1],"loss_changes":[3.5112546E2,5.430565E1,1.2112549E2,1.9976578E1,4.0912033E1,5.062812E1,2.2598099E1,1.2249985E1,1.9341919E1,2.6437454E1,2.7397705E1,1.7496414E1,1.9448536E1,1.6129921E1,6.714813E0,1.4211746E1,1.9030807E1,2.193066E1,5.717087E0,2.0514748E1,9.257957E0,9.489834E0,3.479762E1,1.5243311E1,3.1832962E0,2.8321753E1,1.8688469E1,0E0,7.3197556E0,1.2349466E1,4.7148132E-1,1.5991783E1,2.4724133E1,3.1280996E1,1.27270355E1,7.0980616E0,0E0,0E0,1.1892298E1,1.9416916E1,3.082862E0,5.6442223E0,0E0,0E0,1.2837791E0,3.5745293E1,1.7000813E1,1.5253893E1,7.238083E0,1.1316265E1,0E0,2.3244295E1,1.2400303E1,1.5010147E0,1.396374E1,4.8913956E0,1.1645782E1,2.010212E0,1.7865808E1,9.9468994E-1,6.167672E0,0E0,0E0,0E0,0E0,0E0,0E0,0E0,0E0,0E0,0E0,0E0,0E0,0E0,0E0,0E0,0E0,0E0,0E0,0E0,0E0,0E0,0E0,0E0,0E0,0E0,0E0,0E0,0E0,0E0,0E0,0E0,0E0,0E0,0E0,0E0,0E0,0E0,0E0,0E0,0E0,0E0,0E0,0E0,0E0,0E0,0E0,0E0,0E0,0E0,0E0],"parents":[2147483647,0,0,1,1,2,2,3,3,4,4,5,5,6,6,7,7,8,8,9,9,10,10,11,11,12,12,13,13,14,14,15,15,16,16,17,17,18,18,19,19,20,20,21,21,22,22,23,23,24,24,25,25,26,26,28,28,29,29,30,30,31,31,32,32,33,33,34,34,35,35,38,38,39,39,40,40,41,41,44,44,45,45,46,46,47,47,48,48,49,49,51,51,52,52,53,53,54,54,55,55,56,56,57,57,58,58,59,59,60,60],"right_children":[2,4,6,8,10,12,14,16,18,20,22,24,26,28,30,32,34,36,38,40,42,44,46,48,50,52,54,-1,56,58,60,62,64,66,68,70,-1,-1,72,74,76,78,-1,-1,80,82,84,86,88,90,-1,92,94,96,98,100,102,104,106,108,110,-1,-1,-1,-1,-1,-1,-1,-1,-1,-1,-1,-1,-1,-1,-1,-1,-1,-1,-1,-1,-1,-1,-1,-1,-1,-1,-1,-1,-1,-1,-1,-1,-1,-1,-1,-1,-1,-1,-1,-1,-1,-1,-1,-1,-1,-1,-1,-1,-1,-1],"split_conditions":[4.902668E-3,2.9215387E-3,4.8420322E-4,5.603826E-3,9.626972E-3,4.5745262E-5,1.5458252E-2,2.9615918E-3,4.0096855E-3,8.475529E-3,1.0158006E-2,2.528658E-3,9.923993E-3,5.7717003E-3,1.346993E-2,4.812346E-3,2.1412955E-3,2.4527444E-3,5.6485008E-3,8.374976E-3,2.5540276E-3,6.3868465E-5,1.4949852E-2,9.519907E-3,4.6450812E-3,7.6470356E-3,8.782215E-3,-1.3854514E-1,1.0318478E-2,1.06525915E-2,3.6726512E-2,5.5367146E-3,4.7676247E-3,3.7943823E-3,2.528658E-3,2.1861086E-5,1.649313E-1,-1.5798777E-1,2.5767244E-3,8.003583E-3,3.6135414E-3,2.364532E-3,-1.7364861E-1,-1.0234316E-1,4.0137614E-3,3.4245693E-3,7.0070275E-3,2.4641843E-3,2.9563469E-5,4.5983074E-3,-1.6961661E-1,6.5952186E-3,1.8265352E-2,3.3160078E-4,9.414807E-3,5.1779684E-4,2.4891023E-2,9.796388E-3,1.7052878E-2,3.1812463E-2,4.1043177E-2,-1.3810548E-1,1.11534856E-1,-1.4386618E-1,1.1537003E-1,-1.0493275E-1,8.874844E-2,-1.3350977E-1,-3.646409E-2,1.7144857E-2,-1.452029E-1,1.3206756E-1,-1.3462992E-1,-4.514461E-2,-1.7028299E-1,1.3305512E-1,7.7983174E-3,-1.1069869E-1,8.5434444E-2,7.9870686E-2,1.4015274E-1,4.4725277E-2,-1.1716866E-1,-6.879243E-2,1.01380184E-1,-1.07586525E-1,7.2552934E-2,1.0516477E-1,-9.2873506E-2,-1.412532E-1,9.906273E-2,-5.5498155E-3,3.0586937E-2,-2.0071877E-2,-1.6461025E-1,3.4406386E-2,1.3611491E-1,-1.5305299E-1,3.720043E-2,1.3447855E-1,6.49414E-2,3.460908E-2,8.246731E-2,7.078984E-2,1.358401E-1,-8.7887965E-2,8.534256E-2,1.0625173E-1,1.461439E-1,-4.855622E-3,1.14669465E-1],"split_indices":[0,2,6,4,4,6,2,0,3,4,4,2,2,4,0,3,2,2,3,4,0,6,4,4,3,2,4,0,4,0,4,4,4,3,2,6,0,0,2,4,0,0,0,0,0,2,3,2,6,3,0,0,0,6,4,6,4,0,3,4,4,0,0,0,0,0,0,0,0,0,0,0,0,0,0,0,0,0,0,0,0,0,0,0,0,0,0,0,0,0,0,0,0,0,0,0,0,0,0,0,0,0,0,0,0,0,0,0,0,0,0],"split_type":[0,0,0,0,0,0,0,0,0,0,0,0,0,0,0,0,0,0,0,0,0,0,0,0,0,0,0,0,0,0,0,0,0,0,0,0,0,0,0,0,0,0,0,0,0,0,0,0,0,0,0,0,0,0,0,0,0,0,0,0,0,0,0,0,0,0,0,0,0,0,0,0,0,0,0,0,0,0,0,0,0,0,0,0,0,0,0,0,0,0,0,0,0,0,0,0,0,0,0,0,0,0,0,0,0,0,0,0,0,0,0],"sum_hessian":[2.3595874E3,6.76611E2,1.6829764E3,2.498253E2,4.2678574E2,1.1835023E3,4.994741E2,1.554703E2,9.4355E1,3.0618732E2,1.2059841E2,6.0443363E1,1.123059E3,3.2407614E2,1.7539795E2,6.643945E1,8.903085E1,1.4313897E1,8.004111E1,2.7972028E2,2.6467049E1,2.9380764E1,9.121765E1,3.6608257E1,2.3835106E1,9.6903687E2,1.540221E2,3.4254844E0,3.2065063E2,5.118336E1,1.2421459E2,5.369882E1,1.2740631E1,3.296913E1,5.6061718E1,1.0763304E1,3.5505931E0,7.49067E1,5.134407E0,2.7072064E2,8.999644E0,3.9000735E0,2.2566975E1,1.4740607E0,2.7906702E1,5.8090126E1,3.312752E1,2.6945864E1,9.662391E0,7.2750316E0,1.6560074E1,7.722363E2,1.9680054E2,2.3950834E1,1.3007127E2,5.3893055E1,2.667576E2,2.9192059E1,2.19913E1,1.04099434E2,2.0115156E1,5.1763798E1,1.9350224E0,6.035543E0,6.7050877E0,1.2717093E1,2.0252039E1,2.5291838E1,3.076988E1,3.5703697E0,7.1929336E0,1.7057326E0,3.4286747E0,2.5844064E2,1.2279989E1,5.8046126E0,3.1950314E0,1.713114E0,2.1869593E0,1.6425138E1,1.1481564E1,2.0236284E1,3.7853844E1,6.6296716E0,2.6497852E1,2.1851507E1,5.094358E0,8.231848E0,1.4305435E0,5.3146667E0,1.9603652E0,2.7624734E2,4.9598895E2,1.9162009E2,5.180453E0,2.7128332E0,2.1238E1,2.9882638E0,1.27083E2,1.6636974E1,3.725608E1,1.9676773E2,6.998985E1,1.5285795E1,1.3906263E1,9.931627E0,1.2059674E1,8.566893E1,1.8430508E1,5.6636004E0,1.4451555E1],"tree_param":{"num_deleted":"0","num_feature":"7","num_nodes":"111","size_leaf_vector":"1"}},{"base_weights":[-6.339997E-3,-2.5330523E-1,4.247802E-1,-5.797069E-1,-5.9926566E-2,3.07415E-1,6.662197E-1,1.5388662E-1,-5.9595466E-1,-1.1873838E-2,-5.6534106E-1,-1.371442E-1,3.2354736E-1,-3.4133172E-1,6.9527376E-1,-6.620258E-1,-1.23265974E-1,-1.22000806E-1,2.4877818E-1,1.0166013E0,-8.312826E-1,8.618325E-1,2.8048834E-1,5.5381864E-1,-1.6303258E-1,7.522813E-1,1.05673656E-1,-2.3870789E-1,-7.2504807E-1,9.6815956E-1,-3.660023E-1,-8.5971534E-2,-1.7765905E-1,9.612454E-1,1.5163845E-1,-1.02151625E-1,1.4066203E0,-1.2169789E0,2.4192777E-1,-1.4157051E-1,1.0145608E0,8.7188154E-1,2.4684654E-1,1.0933596E-1,1.4566453E-2,6.6852254E-1,1.0808282E0,-5.384079E-1,6.811714E-1,8.060235E-3,-9.585625E-2,-9.201482E-2,-5.2030563E-2,-1.2304415E-1,1.6241919E-1,4.4637736E-2,-8.103033E-2,-3.2212928E-2,1.4138413E-2,-3.9871372E-2,1.2278928E-1,-9.923762E-3,5.932623E-2,3.6809072E-2,1.7062962E-1,-1.3153955E-1,4.982714E-2,1.3836938E-1,-6.2195826E-2,1.13335215E-1,1.9507365E-2,-3.171146E-2,1.3877466E-1,1.870674E-2,5.7047535E-2,-1.1642813E-1,1.0359017E-1,8.653759E-2,3.802234E-2,1.16906546E-1,-1.14012575E-2,5.6935113E-2,-1.2082662E-1,1.0731415E-1,6.2920167E-3],"categories":[],"categories_nodes":[],"categories_segments":[],"categories_sizes":[],"default_left":[0,0,0,0,0,0,0,0,0,0,0,0,0,0,0,0,0,0,0,0,0,0,0,0,0,0,0,0,0,0,0,0,0,0,0,0,0,0,0,0,0,0,0,0,0,0,0,0,0,0,0,0,0,0,0,0,0,0,0,0,0,0,0,0,0,0,0,0,0,0,0,0,0,0,0,0,0,0,0,0,0,0,0,0,0],"id":5,"left_children":[1,3,5,7,9,11,13,-1,15,17,19,-1,21,23,25,27,29,31,33,35,37,39,41,43,-1,45,47,49,51,53,55,57,-1,59,61,-1,63,65,67,-1,69,71,73,-1,75,77,79,81,83,-1,-1,-1,-1,-1,-1,-1,-1,-1,-1,-1,-1,-1,-1,-1,-1,-1,-1,-1,-1,-1,-1,-1,-1,-1,-1,-1,-1,-1,-1,-1,-1,-1,-1,-1,-1],"loss_changes":[2.4742354E2,9.317312E1,2.3678604E1,1.9736328E1,2.250389E1,1.5820057E1,8.342949E0,0E0,1.6893433E1,2.441032E1,3.468345E1,0E0,1.2786591E1,1.05887785E1,8.855484E0,1.2500626E1,1.8409666E1,3.532905E1,1.721511E1,1.0996519E1,2.9159893E1,1.5777496E1,1.0151531E1,1.5024925E0,0E0,5.8281555E0,9.640217E0,1.4812501E1,1.5992096E1,2.0269459E1,2.0877436E1,3.1563467E1,0E0,1.14440365E1,2.4867794E1,0E0,2.4371986E0,9.407112E0,1.9814962E1,0E0,3.4786148E0,1.7594389E1,9.488516E0,0E0,5.8969946E0,1.0761711E1,5.276825E0,9.852251E0,3.1426873E0,0E0,0E0,0E0,0E0,0E0,0E0,0E0,0E0,0E0,0E0,0E0,0E0,0E0,0E0,0E0,0E0,0E0,0E0,0E0,0E0,0E0,0E0,0E0,0E0,0E0,0E0,0E0,0E0,0E0,0E0,0E0,0E0,0E0,0E0,0E0,0E0],"parents":[2147483647,0,0,1,1,2,2,3,3,4,4,5,5,6,6,8,8,9,9,10,10,12,12,13,13,14,14,15,15,16,16,17,17,18,18,19,19,20,20,21,21,22,22,23,23,25,25,26,26,27,27,28,28,29,29,30,30,31,31,33,33,34,34,36,36,37,37,38,38,40,40,41,41,42,42,44,44,45,45,46,46,47,47,48,48],"right_children":[2,4,6,8,10,12,14,-1,16,18,20,-1,22,24,26,28,30,32,34,36,38,40,42,44,-1,46,48,50,52,54,56,58,-1,60,62,-1,64,66,68,-1,70,72,74,-1,76,78,80,82,84,-1,-1,-1,-1,-1,-1,-1,-1,-1,-1,-1,-1,-1,-1,-1,-1,-1,-1,-1,-1,-1,-1,-1,-1,-1,-1,-1,-1,-1,-1,-1,-1,-1,-1,-1,-1],"split_conditions":[8.7060705E-3,5.534476E-3,1.3916168E-2,-4.43129E-2,3.0479082E-4,4.813169E-3,5.409883E-4,1.5388662E-1,9.46354E-3,2.757892E-2,4.4148876E-3,-1.371442E-1,-6.449827E-2,4.4056724E-4,1.6398153E-1,-1.6921515E-2,9.764262E-3,8.325733E-3,3.2018458E-3,6.492003E-3,1.6113164E-2,2.9175132E-4,5.2906508E-3,3.357979E-4,-1.6303258E-1,3.1812463E-2,1.8147832E-2,4.9108593E-3,2.724557E-3,5.5446586E-4,-8.796269E-3,9.414807E-3,-1.7765905E-1,3.7288785E-2,2.0038449E-4,-1.02151625E-1,-2.298525E-2,1.0012905E-2,1.8261407E-2,-1.4157051E-1,1.1999712E-2,2.0326606E-4,2.2407476E-2,1.0933596E-1,1.7052878E-2,2.0205485E-2,1.2768963E-1,1.5085881E-2,1.8109627E-3,8.060235E-3,-9.585625E-2,-9.201482E-2,-5.2030563E-2,-1.2304415E-1,1.6241919E-1,4.4637736E-2,-8.103033E-2,-3.2212928E-2,1.4138413E-2,-3.9871372E-2,1.2278928E-1,-9.923762E-3,5.932623E-2,3.6809072E-2,1.7062962E-1,-1.3153955E-1,4.982714E-2,1.3836938E-1,-6.2195826E-2,1.13335215E-1,1.9507365E-2,-3.171146E-2,1.3877466E-1,1.870674E-2,5.7047535E-2,-1.1642813E-1,1.0359017E-1,8.653759E-2,3.802234E-2,1.16906546E-1,-1.14012575E-2,5.6935113E-2,-1.2082662E-1,1.0731415E-1,6.2920167E-3],"split_indices":[3,3,3,5,6,4,6,0,4,5,4,0,5,6,5,5,4,2,2,2,4,6,2,6,0,4,2,3,2,5,5,4,0,5,6,0,5,2,4,0,2,6,4,0,3,4,5,3,6,0,0,0,0,0,0,0,0,0,0,0,0,0,0,0,0,0,0,0,0,0,0,0,0,0,0,0,0,0,0,0,0,0,0,0,0],"split_type":[0,0,0,0,0,0,0,0,0,0,0,0,0,0,0,0,0,0,0,0,0,0,0,0,0,0,0,0,0,0,0,0,0,0,0,0,0,0,0,0,0,0,0,0,0,0,0,0,0,0,0,0,0,0,0,0,0,0,0,0,0,0,0,0,0,0,0,0,0,0,0,0,0,0,0,0,0,0,0,0,0,0,0,0,0],"sum_hessian":[2.3219937E3,1.4767109E3,8.452828E2,5.4845874E2,9.282522E2,5.705988E2,2.7468396E2,3.414164E0,5.450446E2,8.4877545E2,7.947672E1,4.5721726E0,5.660266E2,7.3011456E0,2.673828E2,4.7766568E2,6.737892E1,5.9731995E2,2.514555E2,1.0977694E1,6.849903E1,4.0344048E1,5.2568256E2,4.5996537E0,2.7014916E0,2.4340305E2,2.3979778E1,6.272418E1,4.149415E2,1.16401825E1,5.573874E1,5.8567896E2,1.1640968E1,2.8979755E1,2.2247575E2,1.462031E0,9.515662E0,5.0359695E1,1.8139332E1,1.9745576E0,3.836949E1,2.6793156E1,4.9888943E2,1.6928787E0,2.906775E0,1.966172E2,4.678584E1,1.1264047E1,1.2715733E1,4.3969482E1,1.8754696E1,2.1043462E2,2.0450688E2,2.4388165E0,9.201365E0,1.9625275E1,3.6113464E1,2.8728976E2,2.9838922E2,4.607941E0,2.4371815E1,1.4222815E2,8.02476E1,2.704653E0,6.811009E0,4.790259E1,2.4571059E0,7.603765E0,1.0535566E1,3.3070606E1,5.2988834E0,8.165123E0,1.8628033E1,4.2269775E2,7.6191666E1,1.2389177E0,1.6678573E0,1.1544307E2,8.117413E1,4.3666405E1,3.1194363E0,4.2449074E0,7.019139E0,7.2326994E0,5.4830327E0],"tree_param":{"num_deleted":"0","num_feature":"7","num_nodes":"85","size_leaf_vector":"1"}},{"base_weights":[1.971133E-2,-2.861245E-1,3.8447702E-1,-4.836004E-1,4.8471384E-2,6.743477E-1,2.8612167E-1,-5.637915E-1,1.6069241E-1,-4.138402E-2,5.215593E-1,4.547044E-1,8.4164155E-1,2.2923374E-1,6.77838E-1,-1.4954434E-1,-5.290066E-1,3.176424E-1,-1.6390935E-1,3.2869995E-2,-6.8416566E-1,7.2810555E-1,-6.714235E-2,1.0585232E0,2.7855E-1,-1.3568299E-1,8.7289965E-1,-9.41178E-1,2.4616472E-1,7.7100384E-1,-4.5610696E-1,-4.6552026E-1,-9.992496E-1,3.743449E-2,1.0484604E0,4.0231416E-1,-5.2134324E-2,5.051291E-1,-1.2911011E0,7.937936E-1,-1.15553275E-1,-1.7390484E-1,6.6366434E-1,1.438612E-1,1.3291739E0,7.3559445E-1,-1.5835264E-1,9.1593087E-1,1.6770914E-2,3.394775E-1,-1.5235826E-1,1.463679E-1,2.3019236E-1,1.19737E0,6.6374123E-1,-1.5548259E-1,2.8024563E-1,-5.27861E-2,3.5473097E-2,4.496119E-2,-1.2607509E-1,3.1495687E-2,-1.16001E-1,1.3331924E-1,-1.2516637E-1,4.907869E-2,-1.32298E-1,-1.5847905E-1,-1.8126427E-3,-1.3425831E-1,1.0075983E-1,1.2431212E-1,-1.5122215E-1,9.202324E-2,7.3174047E-3,9.7942E-2,-1.2490555E-1,1.4552969E-1,-1.421831E-1,7.8272335E-2,1.5316758E-1,9.367343E-2,-8.117505E-4,9.776603E-2,-7.0839986E-2,1.0901966E-1,7.662848E-2,9.714877E-2,-8.420816E-2,-8.440369E-2,1.196871E-1,-1.4897601E-1,2.4757141E-2,1.4880321E-2,1.3725059E-1,5.2119672E-2,1.2389177E-1,-1.1546113E-1,9.6795075E-2],"categories":[],"categories_nodes":[],"categories_segments":[],"categories_sizes":[],"default_left":[0,0,0,0,0,0,0,0,0,0,0,0,0,0,0,0,0,0,0,0,0,0,0,0,0,0,0,0,0,0,0,0,0,0,0,0,0,0,0,0,0,0,0,0,0,0,0,0,0,0,0,0,0,0,0,0,0,0,0,0,0,0,0,0,0,0,0,0,0,0,0,0,0,0,0,0,0,0,0,0,0,0,0,0,0,0,0,0,0,0,0,0,0,0,0,0,0,0,0],"id":6,"left_children":[1,3,5,7,9,11,13,15,17,19,21,23,25,27,29,-1,31,33,-1,35,37,39,41,43,45,-1,47,49,51,53,55,57,59,61,63,65,67,69,71,73,-1,-1,75,77,79,81,83,85,87,89,-1,-1,91,93,95,-1,97,-1,-1,-1,-1,-1,-1,-1,-1,-1,-1,-1,-1,-1,-1,-1,-1,-1,-1,-1,-1,-1,-1,-1,-1,-1,-1,-1,-1,-1,-1,-1,-1,-1,-1,-1,-1,-1,-1,-1,-1,-1,-1],"loss_changes":[2.5782974E2,8.312076E1,2.9764297E1,4.09852E1,1.9931713E1,9.264122E0,1.733722E1,2.1807251E1,2.5292711E1,1.886467E1,9.213942E0,1.2065809E1,1.1416191E1,1.3849838E1,1.0876572E1,0E0,1.9685883E1,1.6640314E1,0E0,1.1156903E1,3.0271828E1,7.761265E0,2.597369E1,6.108801E0,1.8629486E1,0E0,5.349312E0,8.073797E0,1.2751541E1,3.2375336E0,7.106767E0,3.0940903E1,3.0887413E1,2.035142E1,1.6468388E1,1.0709658E1,1.4823783E1,1.477355E1,1.7279884E1,4.787716E0,0E0,0E0,1.0108133E1,1.6758932E1,7.7082443E-1,6.9006844E0,3.0636108E1,2.65419E0,7.571075E0,4.9843035E0,0E0,0E0,2.039714E1,2.785637E0,5.4200172E0,0E0,6.659685E0,0E0,0E0,0E0,0E0,0E0,0E0,0E0,0E0,0E0,0E0,0E0,0E0,0E0,0E0,0E0,0E0,0E0,0E0,0E0,0E0,0E0,0E0,0E0,0E0,0E0,0E0,0E0,0E0,0E0,0E0,0E0,0E0,0E0,0E0,0E0,0E0,0E0,0E0,0E0,0E0,0E0,0E0],"parents":[2147483647,0,0,1,1,2,2,3,3,4,4,5,5,6,6,7,7,8,8,9,9,10,10,11,11,12,12,13,13,14,14,16,16,17,17,19,19,20,20,21,21,22,22,23,23,24,24,26,26,27,27,28,28,29,29,30,30,31,31,32,32,33,33,34,34,35,35,36,36,37,37,38,38,39,39,42,42,43,43,44,44,45,45,46,46,47,47,48,48,49,49,52,52,53,53,54,54,56,56],"right_children":[2,4,6,8,10,12,14,16,18,20,22,24,26,28,30,-1,32,34,-1,36,38,40,42,44,46,-1,48,50,52,54,56,58,60,62,64,66,68,70,72,74,-1,-1,76,78,80,82,84,86,88,90,-1,-1,92,94,96,-1,98,-1,-1,-1,-1,-1,-1,-1,-1,-1,-1,-1,-1,-1,-1,-1,-1,-1,-1,-1,-1,-1,-1,-1,-1,-1,-1,-1,-1,-1,-1,-1,-1,-1,-1,-1,-1,-1,-1,-1,-1,-1,-1],"split_conditions":[5.6671053E-3,9.414807E-3,-3.5986338E-2,1.9762576E-4,8.7060705E-3,4.92774E-4,1.5551598E-2,3.5691056E-3,5.5147773E-3,8.033351E-3,2.4730325E-2,2.2400221E-4,7.4463957E-3,6.48057E-5,3.6726512E-2,-1.4954434E-1,4.8980084E-3,4.1039072E-2,-1.6390935E-1,9.971717E-3,1.1094826E-2,5.623179E-3,5.5033587E-2,6.7997104E-3,-5.729542E-2,-1.3568299E-1,2.070528E-3,-1.4053262E-2,2.1233105E-3,1.5082101E-2,4.1043177E-2,6.6535845E-3,3.294727E-3,2.0088188E-2,8.178679E-3,4.1039072E-2,1.0105123E-2,2.2400221E-4,4.2029996E-3,5.409883E-4,-1.15553275E-1,-1.7390484E-1,9.220711E-3,5.7073566E-3,-6.449827E-2,8.695434E-3,7.869512E-3,1.7481392E-2,1.928863E-2,8.045678E-3,-1.5235826E-1,1.463679E-1,3.9504357E-3,9.556393E-4,3.1812463E-2,-1.5548259E-1,1.1482094E-2,-5.27861E-2,3.5473097E-2,4.496119E-2,-1.2607509E-1,3.1495687E-2,-1.16001E-1,1.3331924E-1,-1.2516637E-1,4.907869E-2,-1.32298E-1,-1.5847905E-1,-1.8126427E-3,-1.3425831E-1,1.0075983E-1,1.2431212E-1,-1.5122215E-1,9.202324E-2,7.3174047E-3,9.7942E-2,-1.2490555E-1,1.4552969E-1,-1.421831E-1,7.8272335E-2,1.5316758E-1,9.367343E-2,-8.117505E-4,9.776603E-2,-7.0839986E-2,1.0901966E-1,7.662848E-2,9.714877E-2,-8.420816E-2,-8.440369E-2,1.196871E-1,-1.4897601E-1,2.4757141E-2,1.4880321E-2,1.3725059E-1,5.2119672E-2,1.2389177E-1,-1.1546113E-1,9.6795075E-2],"split_indices":[1,4,5,6,3,6,3,3,1,3,5,6,4,6,4,0,1,5,0,4,4,1,5,3,5,0,6,5,4,4,4,3,4,5,4,5,4,6,1,6,0,0,3,1,5,1,4,4,4,4,0,0,4,6,4,0,1,0,0,0,0,0,0,0,0,0,0,0,0,0,0,0,0,0,0,0,0,0,0,0,0,0,0,0,0,0,0,0,0,0,0,0,0,0,0,0,0,0,0],"split_type":[0,0,0,0,0,0,0,0,0,0,0,0,0,0,0,0,0,0,0,0,0,0,0,0,0,0,0,0,0,0,0,0,0,0,0,0,0,0,0,0,0,0,0,0,0,0,0,0,0,0,0,0,0,0,0,0,0,0,0,0,0,0,0,0,0,0,0,0,0,0,0,0,0,0,0,0,0,0,0,0,0,0,0,0,0,0,0,0,0,0,0,0,0,0,0,0,0,0,0],"sum_hessian":[2.3090894E3,1.2559697E3,1.0531196E3,7.8973047E2,4.6623932E2,2.65062E2,7.880576E2,7.025666E2,8.716388E1,3.9240875E2,7.383056E1,1.1646656E2,1.4859544E2,6.897304E2,9.832722E1,2.3672562E1,6.78894E2,8.098102E1,6.1828613E0,3.5248325E2,3.9925507E1,5.4605316E1,1.9225239E1,2.5044102E1,9.1422455E1,1.4437801E0,1.4715166E2,8.972607E0,6.807578E2,9.123919E1,7.088029E0,6.000812E2,7.881287E1,5.939575E1,2.1585274E1,6.54536E1,2.8702966E2,1.3491595E1,2.6433912E1,5.3375626E1,1.2296922E0,5.4695225E0,1.3755716E1,6.152568E0,1.8891533E1,4.445903E1,4.696343E1,1.3993169E2,7.21998E0,2.8816109E0,6.0909963E0,7.5603614E0,6.7319745E2,1.6109413E1,7.5129776E1,2.4526646E0,4.6353645E0,5.581398E2,4.1941372E1,1.1881433E1,6.693143E1,4.888625E1,1.0509499E1,1.9620333E1,1.9649401E0,6.2996635E1,2.4569592E0,5.1769185E0,2.8185272E2,2.4844878E0,1.1007108E1,1.7141527E0,2.4719759E1,4.5054638E1,8.320987E0,1.227033E1,1.4853859E0,3.421267E0,2.7313008E0,6.5568843E0,1.2334648E1,3.4896152E1,9.562877E0,1.5008059E1,3.1955368E1,6.1435474E1,7.849621E1,3.4122007E0,3.8077788E0,1.1681229E0,1.713488E0,5.8291426E0,6.673683E2,2.6520133E0,1.34574E1,6.1875374E1,1.3254403E1,1.2347614E0,3.400603E0],"tree_param":{"num_deleted":"0","num_feature":"7","num_nodes":"99","size_leaf_vector":"1"}},{"base_weights":[2.9364519E-2,-3.03055E-1,3.0974862E-1,-4.3482727E-1,4.094466E-4,1.4851932E-1,5.638268E-1,-3.6046974E-2,-5.051739E-1,-1.3201898E-1,6.008814E-1,-7.2718334E-1,1.8400078E-1,-1.2536217E-1,5.7734954E-1,-5.954452E-1,2.3546569E-1,-5.901962E-1,-1.5176414E-1,4.2612934E-3,-9.177538E-1,3.1640494E-1,1.1925414E0,8.83914E-1,-1.0385615E0,2.1898463E-1,-5.437562E-1,-3.8561434E-1,6.025287E-1,6.867229E-1,-1.1249868E0,1.1325624E0,2.0713476E-2,-6.732102E-1,-3.1009167E-1,5.6109285E-1,-5.126314E-1,8.5576974E-2,-9.5152813E-1,1.0529178E-1,-1.1638855E0,5.360787E-1,-1.5806419E-1,1.3883795E0,7.379646E-2,1.2442011E-1,3.502846E-2,5.7652444E-1,-1.4404554E0,1.410842E-1,4.8719567E-1,5.9123254E-1,-9.5920986E-1,-9.811483E-1,6.362965E-1,7.687147E-1,5.360204E-1,-9.8322526E-2,1.07931785E-1,-1.5523522E-1,6.45624E-2,2.7833406E-2,1.3316071E-1,-1.5097503E-1,2.9323438E-2,-5.4478385E-2,-1.0515112E-1,4.0927753E-2,-6.465333E-2,-1.0209097E-1,6.8480276E-2,4.8237443E-2,-7.392756E-2,1.0906755E-3,1.1837026E-1,-1.2334906E-1,4.282819E-2,7.229829E-2,-1.3135825E-1,7.679323E-2,-6.390848E-2,1.482114E-1,5.0691742E-2,1.0286999E-1,-1.05007075E-1,-9.771271E-2,1.3399354E-1,-1.7227675E-1,7.812561E-3,1.6369516E-2,-1.1525835E-1,3.6247756E-2,9.1631405E-2,1.0178413E-1,-1.2880526E-1,-1.15712464E-1,1.11167945E-1,-1.6910113E-1,1.1555455E-1,1.55006815E-2,1.019174E-1,1.2823045E-1,6.0813468E-2,3.4105763E-2,6.902591E-2],"categories":[],"categories_nodes":[],"categories_segments":[],"categories_sizes":[],"default_left":[0,0,0,0,0,0,0,0,0,0,0,0,0,0,0,0,0,0,0,0,0,0,0,0,0,0,0,0,0,0,0,0,0,0,0,0,0,0,0,0,0,0,0,0,0,0,0,0,0,0,0,0,0,0,0,0,0,0,0,0,0,0,0,0,0,0,0,0,0,0,0,0,0,0,0,0,0,0,0,0,0,0,0,0,0,0,0,0,0,0,0,0,0,0,0,0,0,0,0,0,0,0,0,0,0],"id":7,"left_children":[1,3,5,7,9,11,13,15,17,19,21,23,25,-1,27,29,31,33,35,37,39,41,43,45,47,49,51,53,55,57,59,61,63,65,67,69,71,73,75,-1,77,79,-1,81,83,-1,-1,85,87,89,91,93,95,97,99,101,103,-1,-1,-1,-1,-1,-1,-1,-1,-1,-1,-1,-1,-1,-1,-1,-1,-1,-1,-1,-1,-1,-1,-1,-1,-1,-1,-1,-1,-1,-1,-1,-1,-1,-1,-1,-1,-1,-1,-1,-1,-1,-1,-1,-1,-1,-1,-1,-1],"loss_changes":[2.1716333E2,4.2668274E1,5.1624794E1,2.0783295E1,2.5850039E1,2.4156414E1,1.2701538E1,1.7304216E1,1.8816467E1,2.8548828E1,9.363279E0,1.6117006E1,1.9070127E1,0E0,1.2067703E1,2.6109875E1,1.4602549E1,1.1519165E1,3.219935E1,1.7663343E1,2.0341835E1,1.7896347E1,3.8278694E0,4.4108343E-1,1.7712894E1,1.4750507E1,1.6803505E1,8.523977E0,4.710907E0,8.5805025E0,2.137149E1,1.962822E0,2.6533367E1,1.8273392E1,2.8944796E1,8.901514E0,1.9096874E1,1.712994E1,7.5380554E0,0E0,1.1046043E1,1.0771286E1,0E0,3.4717178E-1,5.2678695E0,0E0,0E0,8.249172E0,9.32589E0,1.6284832E1,8.082508E0,9.108694E0,1.1781311E1,1.5082879E1,7.018578E-1,1.0009659E1,9.981369E0,0E0,0E0,0E0,0E0,0E0,0E0,0E0,0E0,0E0,0E0,0E0,0E0,0E0,0E0,0E0,0E0,0E0,0E0,0E0,0E0,0E0,0E0,0E0,0E0,0E0,0E0,0E0,0E0,0E0,0E0,0E0,0E0,0E0,0E0,0E0,0E0,0E0,0E0,0E0,0E0,0E0,0E0,0E0,0E0,0E0,0E0,0E0,0E0],"parents":[2147483647,0,0,1,1,2,2,3,3,4,4,5,5,6,6,7,7,8,8,9,9,10,10,11,11,12,12,14,14,15,15,16,16,17,17,18,18,19,19,20,20,21,21,22,22,23,23,24,24,25,25,26,26,27,27,28,28,29,29,30,30,31,31,32,32,33,33,34,34,35,35,36,36,37,37,38,38,40,40,41,41,43,43,44,44,47,47,48,48,49,49,50,50,51,51,52,52,53,53,54,54,55,55,56,56],"right_children":[2,4,6,8,10,12,14,16,18,20,22,24,26,-1,28,30,32,34,36,38,40,42,44,46,48,50,52,54,56,58,60,62,64,66,68,70,72,74,76,-1,78,80,-1,82,84,-1,-1,86,88,90,92,94,96,98,100,102,104,-1,-1,-1,-1,-1,-1,-1,-1,-1,-1,-1,-1,-1,-1,-1,-1,-1,-1,-1,-1,-1,-1,-1,-1,-1,-1,-1,-1,-1,-1,-1,-1,-1,-1,-1,-1,-1,-1,-1,-1,-1,-1,-1,-1,-1,-1,-1,-1],"split_conditions":[1.6039348E-4,9.414807E-3,4.8420322E-4,-2.0376517E-2,3.7288785E-2,3.654549E-3,5.7717003E-3,5.8198944E-5,2.8077578E-2,1.2884504E-4,1.0481367E-2,1.6389266E-4,4.5097285E-4,-1.2536217E-1,5.9929173E-3,2.1412955E-3,2.724557E-3,5.8383695E-3,2.9514865E-3,2.4730325E-2,3.0796304E-3,8.3677685E-3,1.3392507E-4,1.9888624E-3,4.140027E-3,1.121643E-2,-5.729542E-2,9.556393E-4,1.1651951E-2,3.5373187E-3,6.456241E-3,6.1433544E-5,3.0084786E-3,4.324934E-3,4.9745576E-3,3.0057546E-2,3.0057546E-2,2.2164844E-2,6.4375945E-3,1.0529178E-1,-5.930322E-2,1.4675122E-2,-1.5806419E-1,1.7314227E-2,1.1098354E-2,1.2442011E-1,3.502846E-2,3.357979E-4,4.858109E-2,2.4891023E-2,1.0943831E-2,1.2150669E-2,1.3731744E-2,1.7098937E-2,5.5175456E-3,-4.8238914E-2,1.4881966E-2,-9.8322526E-2,1.07931785E-1,-1.5523522E-1,6.45624E-2,2.7833406E-2,1.3316071E-1,-1.5097503E-1,2.9323438E-2,-5.4478385E-2,-1.0515112E-1,4.0927753E-2,-6.465333E-2,-1.0209097E-1,6.8480276E-2,4.8237443E-2,-7.392756E-2,1.0906755E-3,1.1837026E-1,-1.2334906E-1,4.282819E-2,7.229829E-2,-1.3135825E-1,7.679323E-2,-6.390848E-2,1.482114E-1,5.0691742E-2,1.0286999E-1,-1.05007075E-1,-9.771271E-2,1.3399354E-1,-1.7227675E-1,7.812561E-3,1.6369516E-2,-1.1525835E-1,3.6247756E-2,9.1631405E-2,1.0178413E-1,-1.2880526E-1,-1.15712464E-1,1.11167945E-1,-1.6910113E-1,1.1555455E-1,1.55006815E-2,1.019174E-1,1.2823045E-1,6.0813468E-2,3.4105763E-2,6.902591E-2],"split_indices":[6,4,6,5,5,0,4,6,5,6,0,6,6,0,0,2,2,0,2,5,0,0,6,0,4,0,5,6,2,0,0,6,2,0,4,5,5,5,2,0,5,4,0,4,0,0,0,6,5,4,2,0,2,4,0,5,2,0,0,0,0,0,0,0,0,0,0,0,0,0,0,0,0,0,0,0,0,0,0,0,0,0,0,0,0,0,0,0,0,0,0,0,0,0,0,0,0,0,0,0,0,0,0,0,0],"split_type":[0,0,0,0,0,0,0,0,0,0,0,0,0,0,0,0,0,0,0,0,0,0,0,0,0,0,0,0,0,0,0,0,0,0,0,0,0,0,0,0,0,0,0,0,0,0,0,0,0,0,0,0,0,0,0,0,0,0,0,0,0,0,0,0,0,0,0,0,0,0,0,0,0,0,0,0,0,0,0,0,0,0,0,0,0,0,0,0,0,0,0,0,0,0,0,0,0,0,0,0,0,0,0,0,0],"sum_hessian":[2.3279355E3,1.0649308E3,1.2630048E3,7.424403E2,3.224905E2,7.738953E2,4.8910938E2,1.1177056E2,6.3066974E2,2.6472214E2,5.7768368E1,2.9266567E1,7.446288E2,2.8804448E0,4.8622894E2,3.6253216E1,7.551735E1,5.075999E2,1.2306981E2,2.2633347E2,3.8388668E1,4.0161892E1,1.7606476E1,4.3903985E0,2.4876167E1,7.1127374E2,3.3355003E1,1.1923783E1,4.7430515E2,1.0454437E1,2.5798779E1,1.3670659E1,6.184669E1,3.901974E2,1.17402534E2,4.108284E1,8.198697E1,2.0952298E2,1.6810492E1,3.853242E0,3.4535427E1,3.6684086E1,3.4778073E0,1.4702397E1,2.9040794E0,1.7141135E0,2.676285E0,4.8205485E0,2.0055618E1,5.5265656E2,1.5861723E2,8.759873E0,2.459513E1,7.620542E0,4.3032417E0,1.3211766E2,3.421875E2,1.6551065E0,8.79933E0,2.0927366E1,4.871412E0,3.1316204E0,1.0539039E1,8.606443E0,5.3240246E1,2.9332367E2,9.68737E1,3.724745E1,8.015508E1,2.3949835E0,3.868786E1,1.4919278E1,6.7067696E1,1.9721385E2,1.2309128E1,1.4106386E1,2.7041059E0,2.207915E0,3.232751E1,3.0999645E1,5.6844406E0,1.2570752E1,2.1316452E0,1.6639484E0,1.2401311E0,1.4528495E0,3.3676991E0,1.6853802E1,3.201817E0,5.440975E2,8.5590725E0,1.2450817E2,3.410907E1,7.556177E0,1.2036961E0,2.2896448E1,1.6986823E0,5.911861E0,1.7086811E0,2.644741E0,1.6585006E0,2.9656828E1,1.0246083E2,1.5284543E2,1.8934207E2],"tree_param":{"num_deleted":"0","num_feature":"7","num_nodes":"105","size_leaf_vector":"1"}},{"base_weights":[2.4284566E-2,-1.9420195E-1,3.7113202E-1,-4.1299105E-1,-2.9137973E-2,2.4337398E-1,6.615822E-1,-5.0693965E-1,-6.4408756E-3,5.1484533E-2,-4.528725E-1,-9.1584575E-1,2.7578574E-1,4.68749E-1,7.356718E-1,-5.5459815E-1,7.232868E-1,7.304036E-1,-2.873639E-1,-1.84887E-1,2.5431347E-1,1.5874328E-3,-7.5529444E-1,-1.5386468E-1,1.4145209E-1,2.9608813E-1,-8.889904E-1,-1.5481047E-1,5.5580914E-1,1.4425071E0,6.8000084E-1,6.392312E-2,-6.023772E-1,1.0721406E0,-1.1456292E-1,8.669747E-1,-1.1917199E-1,-3.157513E-2,-1.04473E0,-1.2461684E-1,-1.2555571E0,3.5683098E-1,-7.810656E-2,4.6688524E-1,-9.7624046E-1,5.984145E-1,-9.126685E-1,1.2976083E-1,-1.184906E-1,1.323359E-1,4.309095E-1,-2.4714737E-1,-1.8027556E-1,7.1261287E-1,-4.4326E-1,1.5847221E-1,4.2715147E-2,2.1057795E-1,7.16085E-1,-1.2893344E-1,4.816013E-2,-7.6177925E-2,-4.1349918E-2,-8.141405E-2,1.277224E-1,-4.0404316E-2,1.1513213E-1,-3.87138E-2,7.359927E-2,8.78283E-2,-1.3361582E-1,-5.9819516E-2,-7.377279E-4,1.0177854E-2,-1.6160189E-1,1.3935136E-2,5.47809E-2,-2.7205113E-2,8.41502E-2,-3.7956785E-2,7.484991E-2,-1.6275683E-1,-3.4577742E-3,-1.1000978E-1,1.117568E-1,-1.2088575E-1,-4.89746E-2,4.485688E-2,-1.5011114E-2,-4.3444734E-2,4.769635E-2,-1.6304162E-1,1.1780437E-1,-5.6997067E-3,8.7495975E-2,7.559465E-2,-1.2805372E-1,4.6104327E-2,-1.3856778E-1,7.567602E-2,3.6867533E-2],"categories":[],"categories_nodes":[],"categories_segments":[],"categories_sizes":[],"default_left":[0,0,0,0,0,0,0,0,0,0,0,0,0,0,0,0,0,0,0,0,0,0,0,0,0,0,0,0,0,0,0,0,0,0,0,0,0,0,0,0,0,0,0,0,0,0,0,0,0,0,0,0,0,0,0,0,0,0,0,0,0,0,0,0,0,0,0,0,0,0,0,0,0,0,0,0,0,0,0,0,0,0,0,0,0,0,0,0,0,0,0,0,0,0,0,0,0,0,0,0,0],"id":8,"left_children":[1,3,5,7,9,11,13,15,17,19,21,23,25,27,29,31,33,35,37,39,41,43,45,-1,47,49,51,-1,53,55,57,59,61,63,-1,65,-1,67,69,71,73,75,77,79,81,83,85,-1,-1,87,89,91,-1,93,95,-1,-1,97,99,-1,-1,-1,-1,-1,-1,-1,-1,-1,-1,-1,-1,-1,-1,-1,-1,-1,-1,-1,-1,-1,-1,-1,-1,-1,-1,-1,-1,-1,-1,-1,-1,-1,-1,-1,-1,-1,-1,-1,-1,-1,-1],"loss_changes":[1.7395326E2,5.0795345E1,3.2669975E1,2.3059502E1,2.7527214E1,2.3407852E1,3.3951569E0,2.9192818E1,2.3930422E1,3.246854E1,1.7779734E1,1.1522973E1,1.4440617E1,1.4480272E1,6.404419E0,1.409053E1,1.3400382E1,9.367647E0,1.611968E1,1.9876583E1,1.2478165E1,2.421519E1,1.7082787E1,0E0,1.2500813E1,1.296862E1,5.4954987E0,0E0,1.2199053E1,1.0097065E0,2.8224792E0,2.0164923E1,1.2813416E1,7.3932514E0,0E0,1.1521788E1,0E0,1.7682375E1,1.3022268E1,1.6432158E1,8.369144E0,1.1443295E1,1.5601335E1,8.951313E0,1.0282326E1,8.820364E0,7.990196E0,0E0,0E0,2.415493E1,1.31320915E1,1.651246E1,0E0,8.363644E0,1.1861351E1,0E0,0E0,6.357456E0,1.9749298E0,0E0,0E0,0E0,0E0,0E0,0E0,0E0,0E0,0E0,0E0,0E0,0E0,0E0,0E0,0E0,0E0,0E0,0E0,0E0,0E0,0E0,0E0,0E0,0E0,0E0,0E0,0E0,0E0,0E0,0E0,0E0,0E0,0E0,0E0,0E0,0E0,0E0,0E0,0E0,0E0,0E0,0E0],"parents":[2147483647,0,0,1,1,2,2,3,3,4,4,5,5,6,6,7,7,8,8,9,9,10,10,11,11,12,12,13,13,14,14,15,15,16,16,17,17,18,18,19,19,20,20,21,21,22,22,24,24,25,25,26,26,28,28,29,29,30,30,31,31,32,32,33,33,35,35,37,37,38,38,39,39,40,40,41,41,42,42,43,43,44,44,45,45,46,46,49,49,50,50,51,51,53,53,54,54,57,57,58,58],"right_children":[2,4,6,8,10,12,14,16,18,20,22,24,26,28,30,32,34,36,38,40,42,44,46,-1,48,50,52,-1,54,56,58,60,62,64,-1,66,-1,68,70,72,74,76,78,80,82,84,86,-1,-1,88,90,92,-1,94,96,-1,-1,98,100,-1,-1,-1,-1,-1,-1,-1,-1,-1,-1,-1,-1,-1,-1,-1,-1,-1,-1,-1,-1,-1,-1,-1,-1,-1,-1,-1,-1,-1,-1,-1,-1,-1,-1,-1,-1,-1,-1,-1,-1,-1,-1],"split_conditions":[8.509764E-3,4.7986647E-3,1.41932005E-2,9.626972E-3,7.7681043E-3,5.8513666E-3,1.20424805E-2,7.772682E-3,1.0158006E-2,6.2338053E-3,9.5748175E-3,9.923993E-3,2.54491E-2,5.8252394E-4,5.8252394E-4,2.27587E-5,8.420332E-3,1.803223E-4,4.1572186E-3,1.423093E-4,7.0994915E-3,7.772682E-3,1.09024935E-4,-1.5386468E-1,1.0171545E-2,9.092746E-3,1.2122971E-2,-1.5481047E-1,1.0984919E-2,1.7172296E-2,1.3523727E-2,1.741889E-3,3.5971224E-3,1.4858705E-4,-1.1456292E-1,3.1142833E-3,-1.1917199E-1,1.4949852E-2,2.6530789E-3,4.5745262E-5,5.0288695E-3,1.3797585E-4,7.6596276E-3,5.5132587E-3,8.299908E-3,1.3703036E-2,8.145423E-3,1.2976083E-1,-1.184906E-1,9.556825E-3,2.2115548E-4,1.1738269E-2,-1.8027556E-1,7.669125E-4,7.669125E-4,1.5847221E-1,4.2715147E-2,1.2853721E-2,3.6726512E-2,-1.2893344E-1,4.816013E-2,-7.6177925E-2,-4.1349918E-2,-8.141405E-2,1.277224E-1,-4.0404316E-2,1.1513213E-1,-3.87138E-2,7.359927E-2,8.78283E-2,-1.3361582E-1,-5.9819516E-2,-7.377279E-4,1.0177854E-2,-1.6160189E-1,1.3935136E-2,5.47809E-2,-2.7205113E-2,8.41502E-2,-3.7956785E-2,7.484991E-2,-1.6275683E-1,-3.4577742E-3,-1.1000978E-1,1.117568E-1,-1.2088575E-1,-4.89746E-2,4.485688E-2,-1.5011114E-2,-4.3444734E-2,4.769635E-2,-1.6304162E-1,1.1780437E-1,-5.6997067E-3,8.7495975E-2,7.559465E-2,-1.2805372E-1,4.6104327E-2,-1.3856778E-1,7.567602E-2,3.6867533E-2],"split_indices":[3,0,3,4,3,4,0,2,4,3,4,2,0,6,6,6,4,6,0,6,2,2,6,0,3,0,3,0,0,0,4,2,0,6,0,2,0,4,2,6,0,6,3,2,3,4,2,0,0,3,6,3,0,6,6,0,0,4,4,0,0,0,0,0,0,0,0,0,0,0,0,0,0,0,0,0,0,0,0,0,0,0,0,0,0,0,0,0,0,0,0,0,0,0,0,0,0,0,0,0,0],"split_type":[0,0,0,0,0,0,0,0,0,0,0,0,0,0,0,0,0,0,0,0,0,0,0,0,0,0,0,0,0,0,0,0,0,0,0,0,0,0,0,0,0,0,0,0,0,0,0,0,0,0,0,0,0,0,0,0,0,0,0,0,0,0,0,0,0,0,0,0,0,0,0,0,0,0,0,0,0,0,0,0,0,0,0,0,0,0,0,0,0,0,0,0,0,0,0,0,0,0,0,0,0],"sum_hessian":[2.293274E3,1.4070778E3,8.861961E2,6.0416327E2,8.029144E2,6.169884E2,2.692077E2,4.903554E2,1.1380785E2,6.7510675E2,1.27807724E2,1.5956484E1,6.010319E2,7.713221E1,1.9207549E2,4.7267462E2,1.7680767E1,3.0873224E1,8.293463E1,3.115869E2,3.635198E2,5.1332573E1,7.647515E1,9.814546E0,6.141938E0,5.915527E2,9.479281E0,2.4497674E0,7.468244E1,1.2073597E1,1.8000188E2,3.3720177E1,4.3895447E2,1.5303953E1,2.376814E0,2.9386242E1,1.4869819E0,6.2873726E1,2.0060907E1,2.9612714E2,1.5459798E1,2.780097E2,8.551011E1,3.5205086E1,1.6127487E1,7.6065764E0,6.8868576E1,3.3333783E0,2.80856E0,2.6834625E2,3.232064E2,6.378695E0,3.1005867E0,6.488549E1,9.796949E0,1.0012028E1,2.0615692E0,1.3534679E1,1.6646721E2,7.4042926E0,2.6315886E1,2.3612012E2,2.0283434E2,1.1616958E0,1.4142257E1,5.231044E0,2.41552E1,4.33968E1,1.9476925E1,2.3299153E0,1.7730993E1,5.7778988E1,2.3834814E2,3.336452E0,1.2123345E1,1.3103946E2,1.4697023E2,7.128837E1,1.4221742E1,8.613218E0,2.6591867E1,9.0400715E0,7.0874157E0,1.4736382E0,6.1329384E0,3.927087E1,2.9597704E1,1.2649077E2,1.4185548E2,1.5795878E1,3.0741052E2,3.1994882E0,3.1792068E0,1.1308792E1,5.3576702E1,4.0187373E0,5.778212E0,1.2367879E1,1.1668009E0,1.4770734E2,1.8759869E1],"tree_param":{"num_deleted":"0","num_feature":"7","num_nodes":"101","size_leaf_vector":"1"}},{"base_weights":[1.4287179E-2,-2.5128853E-1,2.2886603E-1,-4.3027246E-1,2.4955755E-3,9.841431E-2,4.6433705E-1,-1.3223815E-1,-5.2297276E-1,-1.1025591E0,4.2619716E-2,1.0805778E-1,-1.6660458E-1,-1.069129E-1,4.7458714E-1,-2.8334537E-1,1.3151687E0,-6.748085E-1,-3.3060968E-1,-1.4914466E-1,1.1408641E-1,-1.8958045E-2,5.273626E-1,1.927613E-1,-5.9112858E-2,6.7385364E-1,4.1132218E-1,9.473889E-1,-4.0112656E-1,1.986541E-1,3.361528E-1,-7.2164094E-1,3.2026863E-1,-7.345484E-2,-7.342841E-1,1.0015471E-1,-4.149926E-1,-1.159873E-1,6.3966507E-1,5.6863714E-2,4.522847E-1,-1.0338423E0,3.2659184E-2,8.602195E-1,-2.526371E-1,2.536788E-1,5.99146E-1,1.6517283E-1,-3.2468287E-3,-7.783436E-2,8.814063E-3,-1.1108811E-1,1.263977E-1,-4.5979176E-2,-1.0041342E-1,9.536361E-2,-1.12481855E-1,2.1500709E-2,-7.836645E-2,-1.0851454E-1,-1.3265702E-2,1.1797136E-3,9.105886E-2,-1.6975653E-1,-9.882843E-3,8.9078E-2,-3.8610965E-2,2.1363972E-2,-3.8787633E-2,8.705506E-2,2.1503557E-2,-1.4953282E-1,1.1630483E-1,5.548624E-2,-6.8511665E-3,9.036481E-2,-1.1752059E-1,2.727667E-2,-1.9040692E-1,2.8055659E-2,-1.4908867E-1,7.452649E-2,4.7673143E-2],"categories":[],"categories_nodes":[],"categories_segments":[],"categories_sizes":[],"default_left":[0,0,0,0,0,0,0,0,0,0,0,0,0,0,0,0,0,0,0,0,0,0,0,0,0,0,0,0,0,0,0,0,0,0,0,0,0,0,0,0,0,0,0,0,0,0,0,0,0,0,0,0,0,0,0,0,0,0,0,0,0,0,0,0,0,0,0,0,0,0,0,0,0,0,0,0,0,0,0,0,0,0,0],"id":9,"left_children":[1,3,5,7,9,11,13,15,17,19,21,23,-1,-1,25,27,29,31,33,-1,-1,35,37,39,41,43,45,47,49,-1,51,53,55,57,59,61,63,-1,65,67,69,71,73,75,77,79,81,-1,-1,-1,-1,-1,-1,-1,-1,-1,-1,-1,-1,-1,-1,-1,-1,-1,-1,-1,-1,-1,-1,-1,-1,-1,-1,-1,-1,-1,-1,-1,-1,-1,-1,-1,-1],"loss_changes":[1.2991884E2,4.6315063E1,3.863794E1,1.6375847E1,1.8654999E1,1.3859552E1,7.5063934E0,3.162726E1,1.2972549E1,1.4594519E1,1.2249087E1,1.1489718E1,0E0,0E0,5.247429E0,1.9272182E1,8.083572E0,1.2069206E1,2.0944925E1,0E0,0E0,1.72007E1,9.451788E0,1.8898546E1,2.4523804E1,1.85344E1,9.892235E0,8.248468E0,2.2297113E1,0E0,1.0581672E1,1.7306747E1,1.2016881E1,2.5896902E1,1.6359222E1,1.9928812E1,3.3853153E1,0E0,1.1742638E1,2.4783525E1,1.8013645E1,2.5685032E1,1.3298293E1,8.84388E0,1.6638609E1,9.113545E0,2.296547E0,0E0,0E0,0E0,0E0,0E0,0E0,0E0,0E0,0E0,0E0,0E0,0E0,0E0,0E0,0E0,0E0,0E0,0E0,0E0,0E0,0E0,0E0,0E0,0E0,0E0,0E0,0E0,0E0,0E0,0E0,0E0,0E0,0E0,0E0,0E0,0E0],"parents":[2147483647,0,0,1,1,2,2,3,3,4,4,5,5,6,6,7,7,8,8,9,9,10,10,11,11,14,14,15,15,16,16,17,17,18,18,21,21,22,22,23,23,24,24,25,25,26,26,27,27,28,28,30,30,31,31,32,32,33,33,34,34,35,35,36,36,38,38,39,39,40,40,41,41,42,42,43,43,44,44,45,45,46,46],"right_children":[2,4,6,8,10,12,14,16,18,20,22,24,-1,-1,26,28,30,32,34,-1,-1,36,38,40,42,44,46,48,50,-1,52,54,56,58,60,62,64,-1,66,68,70,72,74,76,78,80,82,-1,-1,-1,-1,-1,-1,-1,-1,-1,-1,-1,-1,-1,-1,-1,-1,-1,-1,-1,-1,-1,-1,-1,-1,-1,-1,-1,-1,-1,-1,-1,-1,-1,-1,-1,-1],"split_conditions":[6.3761957E-3,4.842655E-3,4.8420322E-4,4.20136E-3,2.728513E-3,3.6726512E-2,5.7717003E-3,5.8383695E-3,5.534476E-3,8.80562E-3,1.4949852E-2,7.6470356E-3,-1.6660458E-1,-1.069129E-1,1.1807498E-2,1.7389935E-5,4.7287913E-3,1.2884504E-4,1.0254613E-4,-1.4914466E-1,1.1408641E-1,1.0105123E-2,6.9273477E-3,1.8778647E-4,7.848499E-3,1.346993E-2,1.5458252E-2,2.722431E-3,4.84873E-3,1.986541E-1,5.7959277E-3,2.5767244E-3,4.4108676E-3,3.5761911E-3,7.4617052E-3,9.5748175E-3,7.2108624E-3,-1.159873E-1,1.8555427E-2,1.2884504E-4,7.6189046E-3,1.4233954E-2,7.964592E-3,9.556393E-4,1.077627E-2,4.8813332E-2,2.2017943E-2,1.6517283E-1,-3.2468287E-3,-7.783436E-2,8.814063E-3,-1.1108811E-1,1.263977E-1,-4.5979176E-2,-1.0041342E-1,9.536361E-2,-1.12481855E-1,2.1500709E-2,-7.836645E-2,-1.0851454E-1,-1.3265702E-2,1.1797136E-3,9.105886E-2,-1.6975653E-1,-9.882843E-3,8.9078E-2,-3.8610965E-2,2.1363972E-2,-3.8787633E-2,8.705506E-2,2.1503557E-2,-1.4953282E-1,1.1630483E-1,5.548624E-2,-6.8511665E-3,9.036481E-2,-1.1752059E-1,2.727667E-2,-1.9040692E-1,2.8055659E-2,-1.4908867E-1,7.452649E-2,4.7673143E-2],"split_indices":[0,2,6,4,0,4,4,0,3,3,4,2,0,0,3,6,3,6,6,0,0,4,3,6,3,0,2,4,3,0,3,2,2,2,3,4,3,0,4,6,3,0,4,6,2,4,4,0,0,0,0,0,0,0,0,0,0,0,0,0,0,0,0,0,0,0,0,0,0,0,0,0,0,0,0,0,0,0,0,0,0,0,0],"split_type":[0,0,0,0,0,0,0,0,0,0,0,0,0,0,0,0,0,0,0,0,0,0,0,0,0,0,0,0,0,0,0,0,0,0,0,0,0,0,0,0,0,0,0,0,0,0,0,0,0,0,0,0,0,0,0,0,0,0,0,0,0,0,0,0,0,0,0,0,0,0,0,0,0,0,0,0,0,0,0,0,0,0,0],"sum_hessian":[2.2778306E3,1.01766724E3,1.2601633E3,5.966043E2,4.210629E2,8.121E2,4.4806342E2,1.4237375E2,4.542306E2,1.37379E1,4.07325E2,8.0867566E2,3.4242997E0,2.224381E0,4.4583902E2,1.2970596E2,1.2667791E1,2.521646E2,2.02066E2,1.2031977E1,1.7059233E0,3.620835E2,4.524152E1,5.370191E2,2.7165652E2,1.04731865E2,3.4110715E2,1.06393385E1,1.1906662E2,6.843508E0,5.824283E0,2.4118854E2,1.09760475E1,1.2430745E2,7.7758545E1,2.787425E2,8.334098E1,2.185653E0,4.305587E1,3.5351038E2,1.8350876E2,2.2586376E1,2.4907014E2,8.734223E1,1.7389637E1,1.8702083E2,1.5408633E2,5.8503623E0,4.7889757E0,6.7013695E1,5.2052925E1,2.1562777E0,3.6680055E0,1.2671513E2,1.1447341E2,7.9158797E0,3.0601676E0,8.8797516E1,3.5509933E1,4.8502563E1,2.925598E1,2.5236621E2,2.6376287E1,1.55548E1,6.778618E1,3.477248E1,8.283389E0,2.619237E2,9.158666E1,6.529826E1,1.1821049E2,1.8966976E1,3.619401E0,3.98556E1,2.0921455E2,8.611012E1,1.2321063E0,1.3779849E1,3.609788E0,1.8506609E2,1.9547299E0,6.755049E1,8.653584E1],"tree_param":{"num_deleted":"0","num_feature":"7","num_nodes":"83","size_leaf_vector":"1"}},{"base_weights":[-1.7955886E-2,-4.876555E-1,1.5822215E-1,-5.226183E-1,3.1806993E-1,-1.1997194E-1,2.8019404E-1,-3.4420466E-1,-6.968987E-1,-1.2968402E-1,5.5322504E-1,-6.5031207E-1,-5.0893214E-2,2.2915773E-1,5.901737E-1,-5.341468E-1,-6.682883E-2,-8.8623846E-1,-3.2306123E-1,1.496814E-1,3.9526735E-2,2.0382094E-1,-1.0091162E0,9.886517E-1,-1.1438015E-1,2.3575942E-1,-1.4910524E-1,4.3632713E-1,8.05886E-1,8.0760515E-1,-6.3378817E-1,3.4702948E-1,-8.683385E-1,-7.1917653E-1,-1.3057009E0,5.2956945E-1,-7.813358E-1,-1.282476E-1,5.012128E-1,-1.2582815E-1,8.548282E-1,3.4301132E-1,-1.155906E0,-1.0918784E-1,1.2958148E0,7.986651E-2,-3.131745E-1,1.2636064E-1,3.422171E-1,5.4242736E-1,-4.0528774E-1,1.0723823E0,5.7898945E-1,1.2771347E-1,-9.392994E-2,-1.006274E-1,-8.496406E-3,8.026379E-2,-2.2933437E-2,8.766154E-2,-1.13680385E-1,-1.4381193E-1,-5.563975E-2,-1.3991712E-1,1.6987928E-3,-1.3125579E-1,8.3638005E-2,-4.6652764E-2,-1.6516271E-1,8.772854E-2,-1.1620223E-1,1.16968416E-1,-8.406367E-2,-9.5781736E-2,1.9007295E-1,-8.6384766E-2,-1.5452988E-1,1.5358526E-1,1.5709117E-3,-6.814934E-2,1.9838208E-2,-1.9017758E-2,-1.2515207E-1,2.9852843E-2,-9.664449E-3,-5.863079E-2,3.6975145E-2,1.0255919E-1,4.4132356E-2,-1.9762234E-1,1.5469245E-2,2.793586E-2,1.1176776E-1,-1.6141686E-1,7.2964914E-2],"categories":[],"categories_nodes":[],"categories_segments":[],"categories_sizes":[],"default_left":[0,0,0,0,0,0,0,0,0,0,0,0,0,0,0,0,0,0,0,0,0,0,0,0,0,0,0,0,0,0,0,0,0,0,0,0,0,0,0,0,0,0,0,0,0,0,0,0,0,0,0,0,0,0,0,0,0,0,0,0,0,0,0,0,0,0,0,0,0,0,0,0,0,0,0,0,0,0,0,0,0,0,0,0,0,0,0,0,0,0,0,0,0,0,0],"id":10,"left_children":[1,3,5,7,9,11,13,15,17,-1,19,21,23,25,27,29,31,33,35,-1,37,39,41,43,45,47,-1,49,51,53,55,57,59,61,63,65,67,-1,69,-1,71,73,75,-1,77,79,81,83,85,87,89,91,93,-1,-1,-1,-1,-1,-1,-1,-1,-1,-1,-1,-1,-1,-1,-1,-1,-1,-1,-1,-1,-1,-1,-1,-1,-1,-1,-1,-1,-1,-1,-1,-1,-1,-1,-1,-1,-1,-1,-1,-1,-1,-1],"loss_changes":[1.8158508E2,1.7049515E1,5.418559E1,1.7510239E1,1.0287885E1,1.7728718E1,1.7338333E1,1.4972008E1,2.0063461E1,0E0,1.0899078E1,1.7399876E1,2.853005E1,1.10681305E1,4.7000427E0,2.3141624E1,3.9362907E1,1.2258728E1,3.9115116E1,0E0,1.0293141E1,1.747196E1,8.332279E0,1.732993E1,1.5804447E1,1.0997173E1,0E0,8.58156E0,3.0521698E0,1.1142007E1,3.216961E1,2.0773079E1,1.9954536E1,1.528537E1,6.723198E0,2.090089E1,1.6787544E1,0E0,8.865069E0,0E0,7.7376566E0,1.1195219E1,2.5175781E0,0E0,6.6334076E0,1.8757671E1,2.2944267E1,1.8154306E1,1.2503677E1,3.482296E0,1.0105625E1,5.471649E-1,1.320301E1,0E0,0E0,0E0,0E0,0E0,0E0,0E0,0E0,0E0,0E0,0E0,0E0,0E0,0E0,0E0,0E0,0E0,0E0,0E0,0E0,0E0,0E0,0E0,0E0,0E0,0E0,0E0,0E0,0E0,0E0,0E0,0E0,0E0,0E0,0E0,0E0,0E0,0E0,0E0,0E0,0E0,0E0],"parents":[2147483647,0,0,1,1,2,2,3,3,4,4,5,5,6,6,7,7,8,8,10,10,11,11,12,12,13,13,14,14,15,15,16,16,17,17,18,18,20,20,21,21,22,22,23,23,24,24,25,25,27,27,28,28,29,29,30,30,31,31,32,32,33,33,34,34,35,35,36,36,38,38,40,40,41,41,42,42,44,44,45,45,46,46,47,47,48,48,49,49,50,50,51,51,52,52],"right_children":[2,4,6,8,10,12,14,16,18,-1,20,22,24,26,28,30,32,34,36,-1,38,40,42,44,46,48,-1,50,52,54,56,58,60,62,64,66,68,-1,70,-1,72,74,76,-1,78,80,82,84,86,88,90,92,94,-1,-1,-1,-1,-1,-1,-1,-1,-1,-1,-1,-1,-1,-1,-1,-1,-1,-1,-1,-1,-1,-1,-1,-1,-1,-1,-1,-1,-1,-1,-1,-1,-1,-1,-1,-1,-1,-1,-1,-1,-1,-1],"split_conditions":[4.902668E-3,1.5496958E-2,1.6039348E-4,5.7717003E-3,3.212396E-3,4.5745262E-5,1.5458252E-2,3.6135414E-3,9.626972E-3,-1.2968402E-1,3.8674034E-3,2.7524815E-5,4.6450812E-3,4.8813332E-2,1.8265352E-2,1.7389935E-5,4.324934E-3,7.911676E-3,1.0158006E-2,1.496814E-1,1.53664E-4,2.1874208E-3,2.0902522E-3,5.772812E-3,3.7288505E-3,9.1642225E-3,-1.4910524E-1,1.6028496E-2,2.2755465E-2,3.4727738E-3,6.1433544E-5,6.230026E-5,2.2972934E-3,6.139453E-3,9.504848E-3,3.1275752E-3,5.720136E-3,-1.282476E-1,1.9034611E-2,-1.2582815E-1,2.528658E-3,3.905873E-3,6.644518E-3,-1.0918784E-1,6.6267115E-5,5.094949E-3,1.4335193E-2,7.235339E-3,4.667266E-3,7.1748876E-4,1.3198188E-3,7.3431263E-4,1.6645549E-2,1.2771347E-1,-9.392994E-2,-1.006274E-1,-8.496406E-3,8.026379E-2,-2.2933437E-2,8.766154E-2,-1.13680385E-1,-1.4381193E-1,-5.563975E-2,-1.3991712E-1,1.6987928E-3,-1.3125579E-1,8.3638005E-2,-4.6652764E-2,-1.6516271E-1,8.772854E-2,-1.1620223E-1,1.16968416E-1,-8.406367E-2,-9.5781736E-2,1.9007295E-1,-8.6384766E-2,-1.5452988E-1,1.5358526E-1,1.5709117E-3,-6.814934E-2,1.9838208E-2,-1.9017758E-2,-1.2515207E-1,2.9852843E-2,-9.664449E-3,-5.863079E-2,3.6975145E-2,1.0255919E-1,4.4132356E-2,-1.9762234E-1,1.5469245E-2,2.793586E-2,1.1176776E-1,-1.6141686E-1,7.2964914E-2],"split_indices":[0,4,6,4,0,6,2,0,4,0,0,6,3,4,0,6,0,4,4,0,6,2,2,0,2,0,0,0,4,4,6,6,4,4,3,2,2,0,4,0,2,3,0,0,6,3,4,0,2,6,6,6,2,0,0,0,0,0,0,0,0,0,0,0,0,0,0,0,0,0,0,0,0,0,0,0,0,0,0,0,0,0,0,0,0,0,0,0,0,0,0,0,0,0,0],"split_type":[0,0,0,0,0,0,0,0,0,0,0,0,0,0,0,0,0,0,0,0,0,0,0,0,0,0,0,0,0,0,0,0,0,0,0,0,0,0,0,0,0,0,0,0,0,0,0,0,0,0,0,0,0,0,0,0,0,0,0,0,0,0,0,0,0,0,0,0,0,0,0,0,0,0,0,0,0,0,0,0,0,0,0,0,0,0,0,0,0,0,0,0,0,0,0],"sum_hessian":[2.192031E3,5.975997E2,1.5944314E3,5.7320215E2,2.4397478E1,4.8574292E2,1.1086885E3,2.8499594E2,2.8820624E2,2.4731593E0,2.1924318E1,5.4841904E1,4.3090103E2,9.5372516E2,1.5496329E2,1.6839543E2,1.1660051E2,1.902241E2,9.7982124E1,6.9851494E0,1.4939169E1,1.6268349E1,3.8573555E1,2.387186E1,4.0702917E2,9.509966E2,2.7285779E0,9.248735E1,6.2475933E1,1.1080384E1,1.5731505E2,7.7187256E1,3.9413254E1,1.3815369E2,5.2070415E1,3.4122543E1,6.385958E1,3.3505933E0,1.1588575E1,4.677248E0,1.15911E1,3.579906E0,3.499365E1,2.7004468E0,2.1171413E1,2.059175E2,2.0111166E2,4.705613E2,4.8043524E2,8.255425E1,9.933095E0,2.6814505E1,3.5661427E1,8.990181E0,2.0902033E0,9.3107475E1,6.420757E1,4.2987267E1,3.419999E1,4.903571E0,3.4509686E1,2.3945406E1,1.1420828E2,4.8650234E1,3.4201813E0,4.357228E0,2.9765314E1,4.8108418E1,1.5751165E1,9.885941E0,1.7026349E0,1.0086988E1,1.5041115E0,2.1256905E0,1.4542155E0,2.1981787E1,1.3011861E1,1.7594326E1,3.5770874E0,2.6982738E1,1.7893475E2,1.7896275E2,2.2148907E1,2.6561044E2,2.0495085E2,1.3147412E1,4.6728784E2,1.2532022E1,7.002223E1,1.9926143E0,7.94048E0,1.9553696E0,2.4859135E1,1.6252245E0,3.4036205E1],"tree_param":{"num_deleted":"0","num_feature":"7","num_nodes":"95","size_leaf_vector":"1"}},{"base_weights":[1.33068375E-2,-4.1139266E-1,1.34124E-1,-3.114576E-1,-7.3002857E-1,-3.3919297E-3,2.746092E-1,-5.778445E-1,1.3297683E-1,-9.397299E-1,-4.3314807E-2,1.3357385E-1,-1.2271497E-1,2.2913563E-1,5.1983875E-1,-7.644139E-1,-4.146897E-2,4.0250564E-1,-3.2631984E-1,-6.638479E-1,-1.6135478E-1,1.2772611E-1,-3.1590512E-1,3.4501437E-2,6.4645666E-1,4.418042E-1,-2.277152E-1,2.5568324E-1,-3.9141256E-1,5.741821E-1,-9.5552735E-2,-2.4135163E-1,-1.0036153E0,-1.2910691E-1,2.1892251E-1,8.596221E-1,5.184243E-5,9.187031E-1,-5.2634394E-1,-9.358334E-1,2.3436275E-1,4.3396476E-1,-1.1107304E0,-1.2155414E-1,4.193033E-1,7.134782E-1,-1.1435361E-1,6.3064057E-1,-9.178733E-1,9.5169127E-1,-2.5809297E-1,4.6632057E-1,1.9485025E-1,9.2839904E-2,-1.6917404E0,1.9731092E-1,6.7417395E-1,8.3840735E-2,-5.657523E-1,-9.360435E-2,5.2095572E-3,-1.0522469E-1,1.1442351E-1,5.118845E-2,-6.6856556E-2,1.2095415E-1,-0E0,-1.2899938E-1,2.8898114E-2,-8.0889344E-2,1.4245558E-1,-8.6297944E-2,3.125327E-2,1.00967824E-1,-1.0460426E-1,8.205443E-2,-1.2865576E-1,1.0912795E-1,-4.0548034E-2,-1.4642441E-1,-3.1233499E-2,-7.34346E-2,3.6519903E-4,-8.2469E-2,5.7440877E-2,3.7301935E-2,1.1123637E-1,-3.9710034E-2,8.7243E-2,-1.4436114E-1,2.51462E-2,1.369324E-1,1.5165135E-3,-1.5011539E-1,-2.0770308E-2,5.0435174E-2,-1.6547543E-1,-5.473436E-2,2.3513107E-2,-6.2663086E-2,8.079418E-2,-2.3579918E-1,5.2115638E-2,6.9017E-2,-1.03910856E-1,5.0184336E-2,9.037893E-2,-2.1051149E-1,4.275028E-2],"categories":[],"categories_nodes":[],"categories_segments":[],"categories_sizes":[],"default_left":[0,0,0,0,0,0,0,0,0,0,0,0,0,0,0,0,0,0,0,0,0,0,0,0,0,0,0,0,0,0,0,0,0,0,0,0,0,0,0,0,0,0,0,0,0,0,0,0,0,0,0,0,0,0,0,0,0,0,0,0,0,0,0,0,0,0,0,0,0,0,0,0,0,0,0,0,0,0,0,0,0,0,0,0,0,0,0,0,0,0,0,0,0,0,0,0,0,0,0,0,0,0,0,0,0,0,0,0,0],"id":11,"left_children":[1,3,5,7,9,11,13,15,17,19,21,23,25,27,29,31,33,35,37,39,-1,-1,41,43,45,47,49,51,53,55,57,59,61,-1,63,65,67,69,71,73,75,77,79,81,83,85,-1,87,89,91,93,95,97,99,101,103,105,-1,107,-1,-1,-1,-1,-1,-1,-1,-1,-1,-1,-1,-1,-1,-1,-1,-1,-1,-1,-1,-1,-1,-1,-1,-1,-1,-1,-1,-1,-1,-1,-1,-1,-1,-1,-1,-1,-1,-1,-1,-1,-1,-1,-1,-1,-1,-1,-1,-1,-1,-1],"loss_changes":[1.12953705E2,1.5191399E1,3.3147224E1,4.4290745E1,1.6479923E1,1.4184036E1,9.266716E0,2.3263565E1,1.7530388E1,1.5105957E1,1.0443218E1,2.0423843E1,2.759609E1,1.1911701E1,4.5029907E0,2.129277E1,2.0394045E1,1.6308907E1,1.3486004E1,1.6026571E1,0E0,0E0,1.4975567E1,2.047286E1,8.587736E0,1.9292107E1,1.4229055E1,8.673172E0,1.9011833E1,4.3468704E0,5.4464984E0,1.1506488E1,1.3556053E1,0E0,1.3759621E1,1.2528133E1,1.835359E1,7.80663E0,1.3265531E1,1.1722675E1,1.4994183E1,7.7440495E0,2.7788582E0,1.865802E1,1.9433191E1,8.054615E0,0E0,1.6484383E1,6.165234E0,3.7440672E0,2.352337E1,1.3088711E1,1.6145187E1,1.2113328E1,1.34495945E1,1.715749E1,3.1712112E0,0E0,1.3667269E1,0E0,0E0,0E0,0E0,0E0,0E0,0E0,0E0,0E0,0E0,0E0,0E0,0E0,0E0,0E0,0E0,0E0,0E0,0E0,0E0,0E0,0E0,0E0,0E0,0E0,0E0,0E0,0E0,0E0,0E0,0E0,0E0,0E0,0E0,0E0,0E0,0E0,0E0,0E0,0E0,0E0,0E0,0E0,0E0,0E0,0E0,0E0,0E0,0E0,0E0],"parents":[2147483647,0,0,1,1,2,2,3,3,4,4,5,5,6,6,7,7,8,8,9,9,10,10,11,11,12,12,13,13,14,14,15,15,16,16,17,17,18,18,19,19,22,22,23,23,24,24,25,25,26,26,27,27,28,28,29,29,30,30,31,31,32,32,34,34,35,35,36,36,37,37,38,38,39,39,40,40,41,41,42,42,43,43,44,44,45,45,47,47,48,48,49,49,50,50,51,51,52,52,53,53,54,54,55,55,56,56,58,58],"right_children":[2,4,6,8,10,12,14,16,18,20,22,24,26,28,30,32,34,36,38,40,-1,-1,42,44,46,48,50,52,54,56,58,60,62,-1,64,66,68,70,72,74,76,78,80,82,84,86,-1,88,90,92,94,96,98,100,102,104,106,-1,108,-1,-1,-1,-1,-1,-1,-1,-1,-1,-1,-1,-1,-1,-1,-1,-1,-1,-1,-1,-1,-1,-1,-1,-1,-1,-1,-1,-1,-1,-1,-1,-1,-1,-1,-1,-1,-1,-1,-1,-1,-1,-1,-1,-1,-1,-1,-1,-1,-1,-1],"split_conditions":[3.7967744E-3,3.5088344E-3,6.038076E-3,3.2992156E-3,1.3797585E-4,4.8760884E-3,1.6132941E-2,3.1275752E-3,3.4217716E-3,5.3819017E-3,1.423093E-4,1.422086E-2,3.3115088E-3,1.1778421E-3,2.6944857E-3,2.8467495E-5,4.6881647E-3,5.7717003E-3,2.370113E-5,9.46354E-3,-1.6135478E-1,1.2772611E-1,3.6511144E-3,4.603842E-3,4.8145475E-3,9.820466E-5,2.6072797E-3,6.4467103E-3,1.4233557E-2,1.1778421E-3,1.8261407E-2,1.8714104E-3,1.3061018E-4,-1.2910691E-1,1.3061018E-4,4.7287913E-3,6.7781773E-3,2.0526394E-3,4.600857E-3,2.0526394E-3,5.1210825E-3,7.211527E-3,1.1993557E-2,6.1433544E-5,5.534476E-3,2.0326606E-4,-1.1435361E-1,2.9215387E-3,1.0959499E-2,5.279767E-3,6.351244E-3,1.2430183E-2,1.0025388E-4,2.2755465E-2,3.6726512E-2,1.0200301E-3,2.9235534E-2,8.3840735E-2,3.1812463E-2,-9.360435E-2,5.2095572E-3,-1.0522469E-1,1.1442351E-1,5.118845E-2,-6.6856556E-2,1.2095415E-1,-0E0,-1.2899938E-1,2.8898114E-2,-8.0889344E-2,1.4245558E-1,-8.6297944E-2,3.125327E-2,1.00967824E-1,-1.0460426E-1,8.205443E-2,-1.2865576E-1,1.0912795E-1,-4.0548034E-2,-1.4642441E-1,-3.1233499E-2,-7.34346E-2,3.6519903E-4,-8.2469E-2,5.7440877E-2,3.7301935E-2,1.1123637E-1,-3.9710034E-2,8.7243E-2,-1.4436114E-1,2.51462E-2,1.369324E-1,1.5165135E-3,-1.5011539E-1,-2.0770308E-2,5.0435174E-2,-1.6547543E-1,-5.473436E-2,2.3513107E-2,-6.2663086E-2,8.079418E-2,-2.3579918E-1,5.2115638E-2,6.9017E-2,-1.03910856E-1,5.0184336E-2,9.037893E-2,-2.1051149E-1,4.275028E-2],"split_indices":[1,1,1,1,6,1,3,2,1,3,6,4,2,6,6,6,3,4,6,4,0,0,1,1,1,6,4,1,2,6,4,2,6,0,6,3,4,2,2,2,3,4,4,6,3,6,0,2,4,1,3,2,6,4,4,6,4,0,4,0,0,0,0,0,0,0,0,0,0,0,0,0,0,0,0,0,0,0,0,0,0,0,0,0,0,0,0,0,0,0,0,0,0,0,0,0,0,0,0,0,0,0,0,0,0,0,0,0,0],"split_type":[0,0,0,0,0,0,0,0,0,0,0,0,0,0,0,0,0,0,0,0,0,0,0,0,0,0,0,0,0,0,0,0,0,0,0,0,0,0,0,0,0,0,0,0,0,0,0,0,0,0,0,0,0,0,0,0,0,0,0,0,0,0,0,0,0,0,0,0,0,0,0,0,0,0,0,0,0,0,0,0,0,0,0,0,0,0,0,0,0,0,0,0,0,0,0,0,0,0,0,0,0,0,0,0,0,0,0,0,0],"sum_hessian":[2.19982E3,4.864846E2,1.7133354E3,3.7207925E2,1.1440536E2,8.659511E2,8.473844E2,2.3259209E2,1.3948715E2,8.724832E1,2.7157032E1,4.0272403E2,4.6322705E2,7.1680707E2,1.3057732E2,1.7211362E2,6.0478466E1,8.811819E1,5.1368973E1,6.341703E1,2.3831293E1,3.9531806E0,2.3203852E1,3.3858298E2,6.414106E1,7.199514E1,3.9123193E2,6.881179E2,2.8689167E1,1.2019291E2,1.0384401E1,5.477155E1,1.17342064E2,9.812902E0,5.0665565E1,4.0609047E1,4.7509136E1,6.5439763E0,4.4824997E1,4.8730488E1,1.4686541E1,1.2108454E1,1.1095399E1,2.4119221E2,9.7390755E1,6.2459694E1,1.6813664E0,6.3750935E1,8.2442045E0,8.979657E0,3.8225226E2,1.5233627E2,5.357816E2,2.1524843E1,7.1643243E0,2.6036018E1,9.415689E1,3.1438973E0,7.2405043E0,1.5716374E1,3.9055176E1,1.1528836E2,2.0537088E0,3.8494373E1,1.2171191E1,2.8579924E1,1.2029122E1,7.996148E0,3.951299E1,1.3016849E0,5.2422915E0,3.2052876E1,1.2772124E1,2.1262982E0,4.660419E1,1.098069E1,3.70585E0,6.6894813E0,5.418972E0,7.025439E0,4.06996E0,4.0229927E1,2.009623E2,1.0246777E1,8.7143974E1,3.4877075E1,2.7582617E1,1.1940627E1,5.1810307E1,5.5843973E0,2.6598074E0,5.8168106E0,3.1628466E0,1.3692747E1,3.685595E2,1.5044809E2,1.8881906E0,2.6805534E1,5.089761E2,1.0721608E1,1.0803234E1,5.490796E0,1.6735281E0,1.8989243E1,7.0467763E0,5.585658E1,3.830031E1,2.4400873E0,4.800417E0],"tree_param":{"num_deleted":"0","num_feature":"7","num_nodes":"109","size_leaf_vector":"1"}},{"base_weights":[3.195078E-2,-1.8107222E-1,2.8006226E-1,-3.3318734E-1,6.2476274E-2,1.492732E-1,3.9648417E-1,-7.219589E-1,-2.609007E-1,6.1519676E-1,-4.3660854E-3,1.1547112E0,1.2521248E-1,-7.174966E-1,4.2679647E-1,-8.4606844E-1,8.954508E-1,-3.904451E-2,-4.1083676E-1,-1.2362677E-1,8.7292725E-1,7.311054E-2,-3.5307378E-1,1.3581961E-1,3.3058204E-2,-1.3039999E-1,1.4466277E-1,-1.0120474E0,9.746557E-2,7.0139605E-1,3.5520318E-1,2.6653957E-1,-9.868579E-1,1.5345931E0,-9.6172065E-2,8.1648864E-2,-4.573169E-1,-6.3656026E-1,-1.7635075E-2,1.6631402E-1,-8.7959874E-1,9.690969E-1,-4.400692E-2,-8.519277E-3,1.1126422E0,-4.706587E-1,4.7400263E-1,4.986298E-1,8.462925E-2,1.4160027E-2,-1.3077708E0,-9.757422E-2,7.368596E-1,-5.476761E-2,4.0192485E-1,8.885956E-2,-1.02189556E-1,-1.18930876E-1,-3.0171067E-2,5.7561792E-2,1.9585411E-1,-1.8598503E-2,4.3424334E-2,-9.703947E-2,5.8296374E-3,-5.739645E-2,-1.6461125E-1,7.9194335E-3,-1.5488277E-1,-1.3256654E-1,2.735803E-2,7.044749E-2,1.2818508E-1,-1.22183E-1,1.1073637E-1,8.315014E-3,-4.0765774E-2,-1.541013E-2,1.32388E-1,-5.853538E-2,3.9076805E-2,-1.3746043E-1,1.0530019E-1,-7.8445055E-2,6.7754515E-2,5.8927466E-3,1.0796833E-1,-1.7662402E-2,-1.8728873E-1,8.0187514E-2,-1.4585169E-2,4.833054E-2,-1.2611198E-1,-3.5620917E-2,4.3737467E-2],"categories":[],"categories_nodes":[],"categories_segments":[],"categories_sizes":[],"default_left":[0,0,0,0,0,0,0,0,0,0,0,0,0,0,0,0,0,0,0,0,0,0,0,0,0,0,0,0,0,0,0,0,0,0,0,0,0,0,0,0,0,0,0,0,0,0,0,0,0,0,0,0,0,0,0,0,0,0,0,0,0,0,0,0,0,0,0,0,0,0,0,0,0,0,0,0,0,0,0,0,0,0,0,0,0,0,0,0,0,0,0,0,0,0,0],"id":12,"left_children":[1,3,5,7,9,11,13,15,17,19,21,23,25,27,29,31,33,35,37,39,41,43,45,-1,-1,-1,47,49,-1,51,53,55,57,59,-1,61,63,65,67,-1,69,71,73,75,77,79,81,83,85,-1,87,-1,89,91,93,-1,-1,-1,-1,-1,-1,-1,-1,-1,-1,-1,-1,-1,-1,-1,-1,-1,-1,-1,-1,-1,-1,-1,-1,-1,-1,-1,-1,-1,-1,-1,-1,-1,-1,-1,-1,-1,-1,-1,-1],"loss_changes":[1.17344376E2,4.429487E1,1.5504318E1,2.0385246E1,1.704959E1,1.146165E1,1.8567177E1,2.3745758E1,2.0630405E1,9.659924E0,1.1157343E1,1.2465248E0,1.327528E1,8.284014E0,1.0025696E1,1.7088501E1,1.1731091E1,1.2807989E1,3.283416E1,1.9818453E1,3.4086952E0,2.8705389E1,7.52833E0,0E0,0E0,0E0,9.87692E0,4.7386427E0,0E0,7.111473E0,8.123375E0,1.1090449E1,1.2701485E1,1.390707E0,0E0,1.8639793E1,1.5179348E1,1.3707832E1,2.049642E1,0E0,5.757514E0,1.6907959E0,7.3066196E0,1.1527566E1,6.9098587E0,6.8063784E0,1.18434515E1,1.6048367E1,1.0126284E1,0E0,6.187874E0,0E0,6.281597E0,2.9082487E1,1.0333408E1,0E0,0E0,0E0,0E0,0E0,0E0,0E0,0E0,0E0,0E0,0E0,0E0,0E0,0E0,0E0,0E0,0E0,0E0,0E0,0E0,0E0,0E0,0E0,0E0,0E0,0E0,0E0,0E0,0E0,0E0,0E0,0E0,0E0,0E0,0E0,0E0,0E0,0E0,0E0,0E0],"parents":[2147483647,0,0,1,1,2,2,3,3,4,4,5,5,6,6,7,7,8,8,9,9,10,10,11,11,12,12,13,13,14,14,15,15,16,16,17,17,18,18,19,19,20,20,21,21,22,22,26,26,27,27,29,29,30,30,31,31,32,32,33,33,35,35,36,36,37,37,38,38,40,40,41,41,42,42,43,43,44,44,45,45,46,46,47,47,48,48,50,50,52,52,53,53,54,54],"right_children":[2,4,6,8,10,12,14,16,18,20,22,24,26,28,30,32,34,36,38,40,42,44,46,-1,-1,-1,48,50,-1,52,54,56,58,60,-1,62,64,66,68,-1,70,72,74,76,78,80,82,84,86,-1,88,-1,90,92,94,-1,-1,-1,-1,-1,-1,-1,-1,-1,-1,-1,-1,-1,-1,-1,-1,-1,-1,-1,-1,-1,-1,-1,-1,-1,-1,-1,-1,-1,-1,-1,-1,-1,-1,-1,-1,-1,-1,-1,-1],"split_conditions":[5.6671053E-3,9.360214E-3,9.1642225E-3,2.9929564E-3,9.764262E-3,2.6072797E-3,5.8669057E-3,7.684729E-3,6.978152E-5,5.4782974E-3,3.0479082E-4,7.826859E-3,3.9504357E-3,2.662675E-2,1.1431267E-2,1.8957346E-3,8.476372E-3,7.0391856E-3,1.5787873E-4,4.282064E-3,1.02921305E-2,2.7820838E-4,1.1267439E-2,1.3581961E-1,3.3058204E-2,-1.3039999E-1,5.8332253E-3,7.24866E-3,9.746557E-2,5.4061506E-3,1.3703036E-2,2.4628844E-3,5.26118E-3,2.8417776E-3,-9.6172065E-2,5.139288E-5,5.108788E-3,8.435137E-3,5.5147773E-3,1.6631402E-1,9.7173145E-3,8.435137E-3,5.23604E-3,7.5285467E-3,7.6596276E-3,1.7172296E-2,5.4990863E-3,6.2420587E-3,1.6703438E-2,1.4160027E-2,5.740057E-3,-9.757422E-2,1.6028496E-2,1.2853721E-2,9.796388E-3,8.885956E-2,-1.02189556E-1,-1.18930876E-1,-3.0171067E-2,5.7561792E-2,1.9585411E-1,-1.8598503E-2,4.3424334E-2,-9.703947E-2,5.8296374E-3,-5.739645E-2,-1.6461125E-1,7.9194335E-3,-1.5488277E-1,-1.3256654E-1,2.735803E-2,7.044749E-2,1.2818508E-1,-1.22183E-1,1.1073637E-1,8.315014E-3,-4.0765774E-2,-1.541013E-2,1.32388E-1,-5.853538E-2,3.9076805E-2,-1.3746043E-1,1.0530019E-1,-7.8445055E-2,6.7754515E-2,5.8927466E-3,1.0796833E-1,-1.7662402E-2,-1.8728873E-1,8.0187514E-2,-1.4585169E-2,4.833054E-2,-1.2611198E-1,-3.5620917E-2,4.3737467E-2],"split_indices":[1,4,0,1,4,4,1,0,6,0,6,3,4,4,4,0,0,4,6,3,0,6,3,0,0,0,1,4,0,4,4,1,0,1,0,6,3,0,1,0,4,0,1,3,3,0,1,4,3,0,1,0,0,4,0,0,0,0,0,0,0,0,0,0,0,0,0,0,0,0,0,0,0,0,0,0,0,0,0,0,0,0,0,0,0,0,0,0,0,0,0,0,0,0,0],"split_type":[0,0,0,0,0,0,0,0,0,0,0,0,0,0,0,0,0,0,0,0,0,0,0,0,0,0,0,0,0,0,0,0,0,0,0,0,0,0,0,0,0,0,0,0,0,0,0,0,0,0,0,0,0,0,0,0,0,0,0,0,0,0,0,0,0,0,0,0,0,0,0,0,0,0,0,0,0,0,0,0,0,0,0,0,0,0,0,0,0,0,0,0,0,0,0],"sum_hessian":[2.218037E3,1.1933341E3,1.0247029E3,7.3457623E2,4.5875784E2,4.840544E2,5.406485E2,1.1354394E2,6.210323E2,4.8770035E1,4.0998782E2,1.0117592E1,4.739368E2,1.363385E1,5.2701465E2,1.0595255E2,7.5913887E0,2.5122662E2,3.6980566E2,1.264721E1,3.6122826E1,3.3586758E2,7.4120224E1,7.4971104E0,2.620482E0,5.4075108E0,4.685293E2,1.2005143E1,1.628707E0,1.0687946E2,4.201352E2,1.1721143E1,9.423141E1,5.817013E0,1.7743764E0,1.954072E2,5.5819435E1,2.343819E2,1.3542377E2,3.3639977E0,9.283213E0,3.274106E1,3.3817685E0,3.1224405E2,2.3623539E1,6.53774E1,8.74282E0,6.663968E1,4.0188962E2,2.4868207E0,9.518323E0,1.6057713E0,1.0527369E2,4.2745113E1,3.7739008E2,8.166367E0,3.554776E0,7.205764E1,2.2173765E1,2.5783615E0,3.2386513E0,1.111947E2,8.4212494E1,2.7633623E1,2.8185812E1,2.2226808E2,1.2113817E1,1.2819966E2,7.2241063E0,6.6485844E0,2.6346278E0,1.9670235E1,1.3070823E1,1.6843638E0,1.6974047E0,2.5436551E2,5.7878536E1,3.3473501E0,2.0276188E1,5.808078E1,7.296624E0,1.7162921E0,7.0265274E0,7.672613E0,5.8967068E1,3.9290088E2,8.98873E0,3.6672966E0,5.851026E0,9.824257E1,7.031126E0,2.9917423E1,1.282769E1,1.6328005E1,3.6106207E2],"tree_param":{"num_deleted":"0","num_feature":"7","num_nodes":"95","size_leaf_vector":"1"}},{"base_weights":[3.461621E-2,-1.7214903E-1,2.5197273E-1,-3.0406195E-1,5.5664696E-2,1.6863915E-1,4.3586782E-1,-2.7626136E-1,-8.913392E-1,3.7857115E-1,-6.327977E-2,-8.744227E-1,1.8406977E-1,1.0747811E0,4.0303248E-1,-3.720245E-1,-5.3302426E-2,-1.2665861E0,-3.8995102E-1,-1.2344345E-1,4.6012086E-1,-1.8717219E-1,4.2943075E-1,-1.386678E-1,9.342841E-2,2.0850904E-1,-3.3625102E-1,4.9810767E-1,1.4964948E0,-1.6217771E-1,4.5045346E-1,-6.2584245E-1,-2.9944712E-1,1.1026402E0,-1.331002E-1,-1.5712255E-1,-1.382197E-1,-6.271053E-1,9.5245056E-2,1.0605304E0,2.3215474E-1,-7.853662E-2,-9.857271E-1,-1.4028585E-1,5.628375E-1,2.1356106E-1,-1.5268959E-1,2.8202155E-1,-7.9698354E-1,8.394074E-2,-1.2879477E-2,5.501197E-2,1.7174718E-1,-1.1872474E-1,4.6480632E-1,-4.5699097E-2,-1.4008288E-1,3.6667578E-2,-3.8828537E-2,1.4908174E-1,-9.137081E-2,-4.5683417E-2,1.4067948E-2,9.083406E-2,-1.1731797E-1,-9.020888E-2,3.3417508E-2,-3.3044457E-2,1.3035575E-1,-1.5994708E-1,4.9063623E-2,-4.600974E-2,1.26382755E-2,7.909317E-2,-1.5853833E-1,1.0772377E-1,3.0171368E-2,1.9383887E-2,5.79135E-2,-9.23946E-2,1.21380106E-1,-1.1567386E-1,4.3953773E-2,1.0388577E-1,-1.1803839E-1,-1.21545196E-1,4.7567032E-2],"categories":[],"categories_nodes":[],"categories_segments":[],"categories_sizes":[],"default_left":[0,0,0,0,0,0,0,0,0,0,0,0,0,0,0,0,0,0,0,0,0,0,0,0,0,0,0,0,0,0,0,0,0,0,0,0,0,0,0,0,0,0,0,0,0,0,0,0,0,0,0,0,0,0,0,0,0,0,0,0,0,0,0,0,0,0,0,0,0,0,0,0,0,0,0,0,0,0,0,0,0,0,0,0,0,0,0],"id":13,"left_children":[1,3,5,7,9,11,13,15,17,19,21,23,25,27,29,31,33,35,37,-1,39,41,43,-1,-1,45,47,49,51,-1,53,55,57,59,61,-1,63,65,-1,67,69,71,73,-1,75,77,-1,79,81,-1,83,-1,-1,-1,85,-1,-1,-1,-1,-1,-1,-1,-1,-1,-1,-1,-1,-1,-1,-1,-1,-1,-1,-1,-1,-1,-1,-1,-1,-1,-1,-1,-1,-1,-1,-1,-1],"loss_changes":[9.923838E1,3.4042763E1,1.6364395E1,1.1342529E1,1.6012564E1,1.2048435E1,6.441166E0,1.4588104E1,5.3222466E0,1.525074E1,1.8628674E1,1.1448085E1,9.377836E0,2.8519516E0,3.1349861E1,8.55349E0,1.920339E1,5.6705246E0,5.3936806E0,0E0,1.4351778E1,2.0981651E1,1.56833935E1,0E0,0E0,6.3395367E0,9.699811E0,1.5224473E0,5.890255E-1,0E0,7.8513527E0,1.2966728E1,2.2342884E1,1.1935844E1,1.7397718E1,0E0,6.4138327E0,3.9419174E0,0E0,1.040221E1,3.8259583E1,1.6977186E1,3.225029E1,0E0,7.3116665E0,4.8557816E0,0E0,1.7749352E1,9.170038E0,0E0,6.334684E0,0E0,0E0,0E0,6.1934967E0,0E0,0E0,0E0,0E0,0E0,0E0,0E0,0E0,0E0,0E0,0E0,0E0,0E0,0E0,0E0,0E0,0E0,0E0,0E0,0E0,0E0,0E0,0E0,0E0,0E0,0E0,0E0,0E0,0E0,0E0,0E0,0E0],"parents":[2147483647,0,0,1,1,2,2,3,3,4,4,5,5,6,6,7,7,8,8,9,9,10,10,11,11,12,12,13,13,14,14,15,15,16,16,17,17,18,18,20,20,21,21,22,22,25,25,26,26,27,27,28,28,30,30,31,31,32,32,33,33,34,34,36,36,37,37,39,39,40,40,41,41,42,42,44,44,45,45,47,47,48,48,50,50,54,54],"right_children":[2,4,6,8,10,12,14,16,18,20,22,24,26,28,30,32,34,36,38,-1,40,42,44,-1,-1,46,48,50,52,-1,54,56,58,60,62,-1,64,66,-1,68,70,72,74,-1,76,78,-1,80,82,-1,84,-1,-1,-1,86,-1,-1,-1,-1,-1,-1,-1,-1,-1,-1,-1,-1,-1,-1,-1,-1,-1,-1,-1,-1,-1,-1,-1,-1,-1,-1,-1,-1,-1,-1,-1,-1],"split_conditions":[5.5325516E-3,6.497342E-3,1.2150669E-2,5.279767E-3,7.235339E-3,6.48057E-5,1.4537385E-4,5.060616E-3,5.45445E-3,3.0139177E-3,1.390077E-2,4.842655E-3,1.1448301E-2,4.4108676E-3,2.2760962E-4,2.8643035E-3,6.690299E-5,6.110171E-3,8.84393E-3,-1.2344345E-1,3.1142833E-3,8.234689E-3,3.7761878E-3,-1.386678E-1,9.342841E-2,1.8147832E-2,6.810435E-3,1.4731107E-2,1.4233954E-2,-1.6217771E-1,8.509764E-3,5.1210825E-3,2.1412955E-3,5.329908E-3,4.41891E-3,-1.5712255E-1,6.2287655E-3,7.4435333E-3,9.5245056E-2,2.593256E-3,3.8152812E-3,8.3223E-3,7.7279755E-3,-1.4028585E-1,4.41891E-3,1.0984919E-2,-1.5268959E-1,4.3354277E-4,1.1482094E-2,8.394074E-2,5.5849464E-3,5.501197E-2,1.7174718E-1,-1.1872474E-1,5.653145E-3,-4.5699097E-2,-1.4008288E-1,3.6667578E-2,-3.8828537E-2,1.4908174E-1,-9.137081E-2,-4.5683417E-2,1.4067948E-2,9.083406E-2,-1.1731797E-1,-9.020888E-2,3.3417508E-2,-3.3044457E-2,1.3035575E-1,-1.5994708E-1,4.9063623E-2,-4.600974E-2,1.26382755E-2,7.909317E-2,-1.5853833E-1,1.0772377E-1,3.0171368E-2,1.9383887E-2,5.79135E-2,-9.23946E-2,1.21380106E-1,-1.1567386E-1,4.3953773E-2,1.0388577E-1,-1.1803839E-1,-1.21545196E-1,4.7567032E-2],"split_indices":[1,0,0,1,0,6,6,2,1,1,0,2,0,2,6,0,6,0,3,0,2,2,1,0,0,2,1,0,0,0,3,3,2,3,1,0,0,2,0,2,2,0,0,0,1,0,0,6,1,0,1,0,0,0,1,0,0,0,0,0,0,0,0,0,0,0,0,0,0,0,0,0,0,0,0,0,0,0,0,0,0,0,0,0,0,0,0],"split_type":[0,0,0,0,0,0,0,0,0,0,0,0,0,0,0,0,0,0,0,0,0,0,0,0,0,0,0,0,0,0,0,0,0,0,0,0,0,0,0,0,0,0,0,0,0,0,0,0,0,0,0,0,0,0,0,0,0,0,0,0,0,0,0,0,0,0,0,0,0,0,0,0,0,0,0,0,0,0,0,0,0,0,0,0,0,0,0],"sum_hessian":[2.2060117E3,1.1304213E3,1.0755905E3,7.159581E2,4.144631E2,7.418678E2,3.337227E2,6.851644E2,3.079371E1,1.1121051E2,3.032526E2,9.908882E0,7.319589E2,1.4612524E1,3.1911017E2,4.7851865E2,2.0664575E2,1.6625397E1,1.4168315E1,4.6125946E0,1.06597916E2,2.4297855E2,6.0274055E1,7.94683E0,1.9620519E0,6.998774E2,3.2081535E1,7.1937265E0,7.418798E0,6.4945245E0,3.1261566E2,1.04402145E2,3.7411652E2,1.2435483E1,1.9421028E2,1.2712214E1,3.9131815E0,1.2557241E1,1.6110735E0,2.82096E1,7.838831E1,2.1495905E2,2.8019495E1,3.3939705E0,5.6880085E1,6.987777E2,1.0996765E0,1.3771684E1,1.830985E1,4.0449786E0,3.1487484E0,2.1505766E0,5.268221E0,1.9454788E0,3.1067017E2,8.7135956E1,1.7266188E1,4.35228E1,3.305937E2,1.0688094E1,1.7473886E0,8.884779E1,1.0536248E2,1.9584751E0,1.9547065E0,9.892889E0,2.6643524E0,4.0809493E0,2.412865E1,9.004772E0,6.938354E1,7.484328E1,1.4011577E2,6.9480643E0,2.107143E1,1.7970598E1,3.8909485E1,6.6472076E2,3.4056942E1,5.959548E0,7.8121357E0,1.4295959E1,4.0138917E0,1.6694101E0,1.4793382E0,1.2243539E0,3.0944583E2],"tree_param":{"num_deleted":"0","num_feature":"7","num_nodes":"87","size_leaf_vector":"1"}},{"base_weights":[7.1829185E-3,-1.432257E-1,2.4447584E-1,-3.214064E-1,-2.5549045E-2,1.615447E-1,4.2722997E-1,-2.961075E-1,-1.3613275E-1,2.3457367E-2,-6.608951E-1,2.0406966E-1,-2.437298E-1,-5.717819E-1,4.7419187E-1,-3.1633607E-1,7.470126E-1,-4.862826E-1,6.5010995E-2,-1.21260464E-1,-1.4105682E0,7.472041E-2,3.848591E-1,-5.251908E-2,-1.1749462E0,3.2965216E-1,-1.1860462E0,1.1057504E0,4.2641294E-1,2.1703275E-1,-3.5257652E-1,1.187005E0,-1.3937038E-2,3.9958218E-1,-8.599809E-1,6.076681E-1,6.23893E-3,1.07904255E-1,-1.379064E-1,-1.6718733E-1,6.192232E-2,-5.49137E-2,7.0136565E-1,8.5400283E-1,2.294697E-1,-1.4193995E-1,4.2779535E-2,-2.2256136E-1,4.3020225E-1,9.664707E-2,-1.4021936E-1,-1.6824573E-1,-3.943994E-3,6.757945E-1,1.3317473E-1,6.4454454E-1,3.4022173E-1,9.739743E-2,-3.2576703E-2,-1.2644897E-1,-3.0604912E-2,4.829031E-2,1.3960767E-1,-9.726346E-2,8.535599E-2,-1.0982229E-1,9.392632E-2,3.741535E-2,-1.0569235E-1,7.9464935E-2,-1.4824162E-1,-9.612843E-3,2.8354397E-2,3.7433095E-2,-7.695823E-2,1.0063621E-1,-9.7551726E-2,-9.78994E-2,2.327111E-3,9.294649E-2,3.641264E-2,9.596047E-2,-5.163285E-2,7.288333E-2,2.908433E-3,1.2915723E-1,-8.392551E-3,-0E0,8.061123E-2,-1.2174636E-1,9.101831E-2,1.22745074E-1,-3.955761E-2,7.7554576E-2,2.4915023E-2,-1.6985428E-1,3.8268488E-2],"categories":[],"categories_nodes":[],"categories_segments":[],"categories_sizes":[],"default_left":[0,0,0,0,0,0,0,0,0,0,0,0,0,0,0,0,0,0,0,0,0,0,0,0,0,0,0,0,0,0,0,0,0,0,0,0,0,0,0,0,0,0,0,0,0,0,0,0,0,0,0,0,0,0,0,0,0,0,0,0,0,0,0,0,0,0,0,0,0,0,0,0,0,0,0,0,0,0,0,0,0,0,0,0,0,0,0,0,0,0,0,0,0,0,0,0,0],"id":14,"left_children":[1,3,5,7,9,11,13,15,-1,17,19,21,23,25,27,29,31,33,35,37,39,41,43,45,47,49,51,53,55,57,59,61,63,65,67,69,71,73,-1,-1,75,77,79,81,83,-1,85,-1,87,-1,89,-1,-1,91,-1,93,95,-1,-1,-1,-1,-1,-1,-1,-1,-1,-1,-1,-1,-1,-1,-1,-1,-1,-1,-1,-1,-1,-1,-1,-1,-1,-1,-1,-1,-1,-1,-1,-1,-1,-1,-1,-1,-1,-1,-1,-1],"loss_changes":[7.809095E1,2.8027662E1,1.2738983E1,1.3429092E1,2.5227535E1,1.0144216E1,1.2647591E1,1.1182499E1,0E0,1.58898735E1,2.3147356E1,1.2344448E1,9.764896E0,7.238226E0,7.003559E0,9.980728E0,3.5190744E0,1.9099827E1,2.2105404E1,1.0337669E1,9.542095E0,2.5378738E1,1.5801567E1,6.385017E0,1.6961216E1,1.9133503E0,4.056485E0,5.5160713E-1,4.134224E0,1.3940174E1,1.9808609E1,9.498215E-2,4.6756415E0,1.5057814E1,1.0221485E1,2.7588015E1,1.788436E1,7.352719E0,0E0,0E0,5.433684E0,1.880232E1,3.6505527E0,8.418095E0,1.6662834E1,0E0,7.397022E0,0E0,7.542081E-1,0E0,5.7135906E0,0E0,0E0,5.3214607E0,0E0,3.1031876E0,1.5424074E1,0E0,0E0,0E0,0E0,0E0,0E0,0E0,0E0,0E0,0E0,0E0,0E0,0E0,0E0,0E0,0E0,0E0,0E0,0E0,0E0,0E0,0E0,0E0,0E0,0E0,0E0,0E0,0E0,0E0,0E0,0E0,0E0,0E0,0E0,0E0,0E0,0E0,0E0,0E0,0E0],"parents":[2147483647,0,0,1,1,2,2,3,3,4,4,5,5,6,6,7,7,9,9,10,10,11,11,12,12,13,13,14,14,15,15,16,16,17,17,18,18,19,19,20,20,21,21,22,22,23,23,24,24,25,25,26,26,27,27,28,28,29,29,30,30,31,31,32,32,33,33,34,34,35,35,36,36,37,37,40,40,41,41,42,42,43,43,44,44,46,46,48,48,50,50,53,53,55,55,56,56],"right_children":[2,4,6,8,10,12,14,16,-1,18,20,22,24,26,28,30,32,34,36,38,40,42,44,46,48,50,52,54,56,58,60,62,64,66,68,70,72,74,-1,-1,76,78,80,82,84,-1,86,-1,88,-1,90,-1,-1,92,-1,94,96,-1,-1,-1,-1,-1,-1,-1,-1,-1,-1,-1,-1,-1,-1,-1,-1,-1,-1,-1,-1,-1,-1,-1,-1,-1,-1,-1,-1,-1,-1,-1,-1,-1,-1,-1,-1,-1,-1,-1,-1],"split_conditions":[8.549945E-3,4.7986647E-3,7.669125E-4,4.682927E-3,2.9175132E-4,1.6742475E-2,7.4257427E-3,3.357979E-4,-1.3613275E-1,4.762454E-5,1.10301785E-2,1.4675122E-2,1.2430183E-2,6.027122E-3,9.058772E-3,1.8957346E-3,5.6461245E-3,2.230595E-3,4.7264653E-3,8.395812E-3,9.087195E-3,1.1921234E-2,1.6113164E-2,5.7689687E-3,1.531199E-2,1.2122971E-2,1.4233557E-2,8.106934E-3,9.556393E-4,2.7524815E-5,3.7943823E-3,4.0768585E-3,1.8261407E-2,5.4874807E-3,2.6316135E-5,7.922286E-3,8.973943E-3,8.115598E-3,-1.379064E-1,-1.6718733E-1,9.188098E-3,2.0326606E-4,1.0918665E-2,1.3108614E-2,7.3649753E-3,-1.4193995E-1,6.049725E-3,-2.2256136E-1,2.54491E-2,9.664707E-2,5.81154E-3,-1.6824573E-1,-3.943994E-3,6.37064E-3,1.3317473E-1,1.5678942E-2,1.2630685E-2,9.739743E-2,-3.2576703E-2,-1.2644897E-1,-3.0604912E-2,4.829031E-2,1.3960767E-1,-9.726346E-2,8.535599E-2,-1.0982229E-1,9.392632E-2,3.741535E-2,-1.0569235E-1,7.9464935E-2,-1.4824162E-1,-9.612843E-3,2.8354397E-2,3.7433095E-2,-7.695823E-2,1.0063621E-1,-9.7551726E-2,-9.78994E-2,2.327111E-3,9.294649E-2,3.641264E-2,9.596047E-2,-5.163285E-2,7.288333E-2,2.908433E-3,1.2915723E-1,-8.392551E-3,-0E0,8.061123E-2,-1.2174636E-1,9.101831E-2,1.22745074E-1,-3.955761E-2,7.7554576E-2,2.4915023E-2,-1.6985428E-1,3.8268488E-2],"split_indices":[3,0,6,0,6,0,0,6,0,6,4,4,2,0,4,0,4,2,4,2,2,0,4,2,3,3,2,4,6,6,3,4,4,4,6,0,0,0,0,0,2,6,4,0,0,0,2,0,0,0,0,0,0,4,0,0,3,0,0,0,0,0,0,0,0,0,0,0,0,0,0,0,0,0,0,0,0,0,0,0,0,0,0,0,0,0,0,0,0,0,0,0,0,0,0,0,0],"split_type":[0,0,0,0,0,0,0,0,0,0,0,0,0,0,0,0,0,0,0,0,0,0,0,0,0,0,0,0,0,0,0,0,0,0,0,0,0,0,0,0,0,0,0,0,0,0,0,0,0,0,0,0,0,0,0,0,0,0,0,0,0,0,0,0,0,0,0,0,0,0,0,0,0,0,0,0,0,0,0,0,0,0,0,0,0,0,0,0,0,0,0,0,0,0,0,0,0],"sum_hessian":[2.1857146E3,1.3377524E3,8.479622E2,5.3106165E2,8.0669086E2,5.849511E2,2.630111E2,5.197971E2,1.1264574E1,7.4967175E2,5.701906E1,5.300743E2,5.487684E1,1.1211259E1,2.5179984E2,5.1068628E2,9.110816E0,5.5518246E1,6.941535E2,3.3907024E1,2.3112036E1,3.10143E2,2.1993126E2,4.649384E1,8.3829975E0,4.6653666E0,6.545892E0,1.6004944E1,2.3579489E2,3.1998617E1,4.7868765E2,5.5013614E0,3.6094546E0,1.6371702E1,3.914654E1,6.675423E1,6.273993E2,2.9387495E1,4.519528E0,1.9571436E1,3.5405998E0,2.5760504E2,5.2537968E1,5.344212E1,1.6648914E2,2.193095E0,4.4300743E1,4.870628E0,3.51237E0,1.6224271E0,3.0429397E0,4.1811547E0,2.3647373E0,7.041449E0,8.963494E0,6.461919E1,1.711757E2,1.3108505E1,1.8890112E1,2.1862747E1,4.5682492E2,2.126817E0,3.3745446E0,1.7117853E0,1.8976692E0,4.013257E0,1.2358445E1,5.1935782E0,3.3952965E1,6.1885525E1,4.868701E0,4.5845355E2,1.6894574E2,2.3070183E1,6.3173122E0,1.9195093E0,1.6210904E0,1.9296284E1,2.3830875E2,3.0115833E1,2.2422136E1,4.9964417E1,3.4777036E0,4.6778976E1,1.1971016E2,3.3066287E0,4.0994118E1,2.0665581E0,1.4458119E0,1.4707563E0,1.5721833E0,4.6135535E0,2.4278955E0,4.7625614E1,1.6993574E1,2.6487134E0,1.68527E2],"tree_param":{"num_deleted":"0","num_feature":"7","num_nodes":"97","size_leaf_vector":"1"}},{"base_weights":[5.0361775E-2,-2.0659564E-1,1.467422E-1,-2.767729E-1,3.2787436E-1,3.4209904E-1,6.5909505E-2,-2.5524098E-1,-1.5976961E-1,5.401078E-1,-4.875854E-1,-4.9663505E-1,3.7318474E-1,-1.759397E-2,2.8793114E-1,-2.844897E-1,9.920878E-1,-1.11251436E-1,6.8887216E-1,-1.4448172E-1,2.472038E-1,2.4724184E-1,-1.466978E-1,9.043768E-1,3.2831046E-1,-6.057414E-2,5.761107E-1,7.9730177E-1,1.6119258E-1,-1.8844996E-1,-6.3914025E-1,1.3227178E0,-8.820849E-2,9.166229E-1,1.3890168E-1,9.701701E-1,-1.3442479E-1,-1.15066186E-1,8.953117E-1,1.064138E0,-1.2961784E-1,-6.480217E-1,3.5793468E-1,4.774528E-1,-1.2075508E-1,9.518333E-1,1.2245881E-1,8.666753E-1,-3.3876806E-1,-7.5876164E-1,2.680916E-1,-3.677175E-2,1.49451345E-2,7.041558E-2,-7.106284E-2,4.052108E-2,1.5597247E-1,4.6667665E-2,1.548327E-1,-7.78225E-2,8.810118E-2,1.4331192E-1,7.712771E-3,1.580591E-2,1.3934037E-1,-9.022814E-2,1.1827468E-1,-1.446959E-1,2.243843E-2,5.6792405E-2,2.6112307E-2,6.510047E-2,-1.3846596E-1,-3.2669377E-2,-1.7654777E-3,-1.05436675E-1,1.0967255E-1,7.7953726E-2,-8.927223E-2,3.6352302E-3,1.01396345E-1,-1.5515082E-1,9.374981E-2,5.0103646E-2,-1.7205559E-1,-7.6262526E-2,3.2390043E-2],"categories":[],"categories_nodes":[],"categories_segments":[],"categories_sizes":[],"default_left":[0,0,0,0,0,0,0,0,0,0,0,0,0,0,0,0,0,0,0,0,0,0,0,0,0,0,0,0,0,0,0,0,0,0,0,0,0,0,0,0,0,0,0,0,0,0,0,0,0,0,0,0,0,0,0,0,0,0,0,0,0,0,0,0,0,0,0,0,0,0,0,0,0,0,0,0,0,0,0,0,0,0,0,0,0,0,0],"id":15,"left_children":[1,3,5,7,9,11,13,15,-1,17,19,21,23,25,27,29,31,-1,33,-1,35,37,-1,39,41,43,45,47,49,51,53,55,-1,57,59,61,-1,-1,63,65,-1,67,69,71,73,75,77,79,81,83,85,-1,-1,-1,-1,-1,-1,-1,-1,-1,-1,-1,-1,-1,-1,-1,-1,-1,-1,-1,-1,-1,-1,-1,-1,-1,-1,-1,-1,-1,-1,-1,-1,-1,-1,-1,-1],"loss_changes":[5.397495E1,2.237827E1,2.4967236E1,1.436953E1,1.2257767E1,1.2252708E1,2.0848045E1,1.9142467E1,0E0,1.4378597E1,1.0840569E1,1.2663074E1,1.0245354E1,2.0819166E1,1.9611032E1,1.7095062E1,8.667471E0,0E0,6.233654E0,0E0,1.1772024E1,1.0379198E1,0E0,1.33482685E1,1.2186584E1,2.4710003E1,9.160648E0,5.1387787E0,2.44889E1,2.4384462E1,1.0832306E1,1.4926987E0,0E0,9.365379E0,1.1875348E1,2.5921264E0,0E0,0E0,2.4453793E0,8.650536E0,0E0,9.130041E0,7.9589005E0,2.5628622E1,1.4540684E1,9.836863E0,1.8168707E1,6.911133E0,7.9167147E0,3.2395096E1,1.3003408E1,0E0,0E0,0E0,0E0,0E0,0E0,0E0,0E0,0E0,0E0,0E0,0E0,0E0,0E0,0E0,0E0,0E0,0E0,0E0,0E0,0E0,0E0,0E0,0E0,0E0,0E0,0E0,0E0,0E0,0E0,0E0,0E0,0E0,0E0,0E0,0E0],"parents":[2147483647,0,0,1,1,2,2,3,3,4,4,5,5,6,6,7,7,9,9,10,10,11,11,12,12,13,13,14,14,15,15,16,16,18,18,20,20,21,21,23,23,24,24,25,25,26,26,27,27,28,28,29,29,30,30,31,31,33,33,34,34,35,35,38,38,39,39,41,41,42,42,43,43,44,44,45,45,46,46,47,47,48,48,49,49,50,50],"right_children":[2,4,6,8,10,12,14,16,-1,18,20,22,24,26,28,30,32,-1,34,-1,36,38,-1,40,42,44,46,48,50,52,54,56,-1,58,60,62,-1,-1,64,66,-1,68,70,72,74,76,78,80,82,84,86,-1,-1,-1,-1,-1,-1,-1,-1,-1,-1,-1,-1,-1,-1,-1,-1,-1,-1,-1,-1,-1,-1,-1,-1,-1,-1,-1,-1,-1,-1,-1,-1,-1,-1,-1,-1],"split_conditions":[4.902668E-3,3.818938E-2,-2.086601E-2,8.904112E-3,5.782238E-2,2.90367E-3,1.0012905E-2,8.585801E-3,-1.5976961E-1,4.7419365E-3,6.4375945E-3,6.460341E-3,5.4782974E-3,1.6433354E-2,1.0366175E-2,4.2101042E-3,8.960728E-3,-1.11251436E-1,8.420332E-3,-1.4448172E-1,9.687957E-3,5.2006706E-3,-1.466978E-1,8.80562E-3,6.0503567E-3,4.7264653E-3,1.929808E-2,1.3108614E-2,1.1009029E-2,3.6135414E-3,-4.543253E-2,8.265355E-3,-8.820849E-2,7.7271955E-3,7.3426766E-3,8.420332E-3,-1.3442479E-1,-1.15066186E-1,6.3408767E-3,5.821163E-3,-1.2961784E-1,-3.0788701E-2,1.0959499E-2,7.922286E-3,6.540162E-3,6.4621656E-3,6.049725E-3,1.9086998E-2,9.923919E-3,9.556825E-3,1.1993557E-2,-3.677175E-2,1.49451345E-2,7.041558E-2,-7.106284E-2,4.052108E-2,1.5597247E-1,4.6667665E-2,1.548327E-1,-7.78225E-2,8.810118E-2,1.4331192E-1,7.712771E-3,1.580591E-2,1.3934037E-1,-9.022814E-2,1.1827468E-1,-1.446959E-1,